FANN_FLO_2.1
num_layers=4
learning_rate=0.700000
connection_rate=1.000000
network_type=0
learning_momentum=0.000000
training_algorithm=0
train_error_function=1
train_stop_function=0
cascade_output_change_fraction=0.010000
quickprop_decay=-0.000100
quickprop_mu=1.750000
rprop_increase_factor=1.200000
rprop_decrease_factor=0.500000
rprop_delta_min=0.000000
rprop_delta_max=50.000000
rprop_delta_zero=0.100000
cascade_output_stagnation_epochs=12
cascade_candidate_change_fraction=0.010000
cascade_candidate_stagnation_epochs=12
cascade_max_out_epochs=150
cascade_max_cand_epochs=150
cascade_num_candidate_groups=2
bit_fail_limit=3.49999994039535522461e-01
cascade_candidate_limit=1.00000000000000000000e+03
cascade_weight_multiplier=4.00000005960464477539e-01
cascade_activation_functions_count=10
cascade_activation_functions=3 5 7 8 10 11 14 15 16 17 
cascade_activation_steepnesses_count=4
cascade_activation_steepnesses=2.50000000000000000000e-01 5.00000000000000000000e-01 7.50000000000000000000e-01 1.00000000000000000000e+00 
layer_sizes=201 76 26 13 
scale_included=0
neurons (num_inputs, activation_function, activation_steepness)=(0, 0, 0.00000000000000000000e+00) (0, 0, 0.00000000000000000000e+00) (0, 0, 0.00000000000000000000e+00) (0, 0, 0.00000000000000000000e+00) (0, 0, 0.00000000000000000000e+00) (0, 0, 0.00000000000000000000e+00) (0, 0, 0.00000000000000000000e+00) (0, 0, 0.00000000000000000000e+00) (0, 0, 0.00000000000000000000e+00) (0, 0, 0.00000000000000000000e+00) (0, 0, 0.00000000000000000000e+00) (0, 0, 0.00000000000000000000e+00) (0, 0, 0.00000000000000000000e+00) (0, 0, 0.00000000000000000000e+00) (0, 0, 0.00000000000000000000e+00) (0, 0, 0.00000000000000000000e+00) (0, 0, 0.00000000000000000000e+00) (0, 0, 0.00000000000000000000e+00) (0, 0, 0.00000000000000000000e+00) (0, 0, 0.00000000000000000000e+00) (0, 0, 0.00000000000000000000e+00) (0, 0, 0.00000000000000000000e+00) (0, 0, 0.00000000000000000000e+00) (0, 0, 0.00000000000000000000e+00) (0, 0, 0.00000000000000000000e+00) (0, 0, 0.00000000000000000000e+00) (0, 0, 0.00000000000000000000e+00) (0, 0, 0.00000000000000000000e+00) (0, 0, 0.00000000000000000000e+00) (0, 0, 0.00000000000000000000e+00) (0, 0, 0.00000000000000000000e+00) (0, 0, 0.00000000000000000000e+00) (0, 0, 0.00000000000000000000e+00) (0, 0, 0.00000000000000000000e+00) (0, 0, 0.00000000000000000000e+00) (0, 0, 0.00000000000000000000e+00) (0, 0, 0.00000000000000000000e+00) (0, 0, 0.00000000000000000000e+00) (0, 0, 0.00000000000000000000e+00) (0, 0, 0.00000000000000000000e+00) (0, 0, 0.00000000000000000000e+00) (0, 0, 0.00000000000000000000e+00) (0, 0, 0.00000000000000000000e+00) (0, 0, 0.00000000000000000000e+00) (0, 0, 0.00000000000000000000e+00) (0, 0, 0.00000000000000000000e+00) (0, 0, 0.00000000000000000000e+00) (0, 0, 0.00000000000000000000e+00) (0, 0, 0.00000000000000000000e+00) (0, 0, 0.00000000000000000000e+00) (0, 0, 0.00000000000000000000e+00) (0, 0, 0.00000000000000000000e+00) (0, 0, 0.00000000000000000000e+00) (0, 0, 0.00000000000000000000e+00) (0, 0, 0.00000000000000000000e+00) (0, 0, 0.00000000000000000000e+00) (0, 0, 0.00000000000000000000e+00) (0, 0, 0.00000000000000000000e+00) (0, 0, 0.00000000000000000000e+00) (0, 0, 0.00000000000000000000e+00) (0, 0, 0.00000000000000000000e+00) (0, 0, 0.00000000000000000000e+00) (0, 0, 0.00000000000000000000e+00) (0, 0, 0.00000000000000000000e+00) (0, 0, 0.00000000000000000000e+00) (0, 0, 0.00000000000000000000e+00) (0, 0, 0.00000000000000000000e+00) (0, 0, 0.00000000000000000000e+00) (0, 0, 0.00000000000000000000e+00) (0, 0, 0.00000000000000000000e+00) (0, 0, 0.00000000000000000000e+00) (0, 0, 0.00000000000000000000e+00) (0, 0, 0.00000000000000000000e+00) (0, 0, 0.00000000000000000000e+00) (0, 0, 0.00000000000000000000e+00) (0, 0, 0.00000000000000000000e+00) (0, 0, 0.00000000000000000000e+00) (0, 0, 0.00000000000000000000e+00) (0, 0, 0.00000000000000000000e+00) (0, 0, 0.00000000000000000000e+00) (0, 0, 0.00000000000000000000e+00) (0, 0, 0.00000000000000000000e+00) (0, 0, 0.00000000000000000000e+00) (0, 0, 0.00000000000000000000e+00) (0, 0, 0.00000000000000000000e+00) (0, 0, 0.00000000000000000000e+00) (0, 0, 0.00000000000000000000e+00) (0, 0, 0.00000000000000000000e+00) (0, 0, 0.00000000000000000000e+00) (0, 0, 0.00000000000000000000e+00) (0, 0, 0.00000000000000000000e+00) (0, 0, 0.00000000000000000000e+00) (0, 0, 0.00000000000000000000e+00) (0, 0, 0.00000000000000000000e+00) (0, 0, 0.00000000000000000000e+00) (0, 0, 0.00000000000000000000e+00) (0, 0, 0.00000000000000000000e+00) (0, 0, 0.00000000000000000000e+00) (0, 0, 0.00000000000000000000e+00) (0, 0, 0.00000000000000000000e+00) (0, 0, 0.00000000000000000000e+00) (0, 0, 0.00000000000000000000e+00) (0, 0, 0.00000000000000000000e+00) (0, 0, 0.00000000000000000000e+00) (0, 0, 0.00000000000000000000e+00) (0, 0, 0.00000000000000000000e+00) (0, 0, 0.00000000000000000000e+00) (0, 0, 0.00000000000000000000e+00) (0, 0, 0.00000000000000000000e+00) (0, 0, 0.00000000000000000000e+00) (0, 0, 0.00000000000000000000e+00) (0, 0, 0.00000000000000000000e+00) (0, 0, 0.00000000000000000000e+00) (0, 0, 0.00000000000000000000e+00) (0, 0, 0.00000000000000000000e+00) (0, 0, 0.00000000000000000000e+00) (0, 0, 0.00000000000000000000e+00) (0, 0, 0.00000000000000000000e+00) (0, 0, 0.00000000000000000000e+00) (0, 0, 0.00000000000000000000e+00) (0, 0, 0.00000000000000000000e+00) (0, 0, 0.00000000000000000000e+00) (0, 0, 0.00000000000000000000e+00) (0, 0, 0.00000000000000000000e+00) (0, 0, 0.00000000000000000000e+00) (0, 0, 0.00000000000000000000e+00) (0, 0, 0.00000000000000000000e+00) (0, 0, 0.00000000000000000000e+00) (0, 0, 0.00000000000000000000e+00) (0, 0, 0.00000000000000000000e+00) (0, 0, 0.00000000000000000000e+00) (0, 0, 0.00000000000000000000e+00) (0, 0, 0.00000000000000000000e+00) (0, 0, 0.00000000000000000000e+00) (0, 0, 0.00000000000000000000e+00) (0, 0, 0.00000000000000000000e+00) (0, 0, 0.00000000000000000000e+00) (0, 0, 0.00000000000000000000e+00) (0, 0, 0.00000000000000000000e+00) (0, 0, 0.00000000000000000000e+00) (0, 0, 0.00000000000000000000e+00) (0, 0, 0.00000000000000000000e+00) (0, 0, 0.00000000000000000000e+00) (0, 0, 0.00000000000000000000e+00) (0, 0, 0.00000000000000000000e+00) (0, 0, 0.00000000000000000000e+00) (0, 0, 0.00000000000000000000e+00) (0, 0, 0.00000000000000000000e+00) (0, 0, 0.00000000000000000000e+00) (0, 0, 0.00000000000000000000e+00) (0, 0, 0.00000000000000000000e+00) (0, 0, 0.00000000000000000000e+00) (0, 0, 0.00000000000000000000e+00) (0, 0, 0.00000000000000000000e+00) (0, 0, 0.00000000000000000000e+00) (0, 0, 0.00000000000000000000e+00) (0, 0, 0.00000000000000000000e+00) (0, 0, 0.00000000000000000000e+00) (0, 0, 0.00000000000000000000e+00) (0, 0, 0.00000000000000000000e+00) (0, 0, 0.00000000000000000000e+00) (0, 0, 0.00000000000000000000e+00) (0, 0, 0.00000000000000000000e+00) (0, 0, 0.00000000000000000000e+00) (0, 0, 0.00000000000000000000e+00) (0, 0, 0.00000000000000000000e+00) (0, 0, 0.00000000000000000000e+00) (0, 0, 0.00000000000000000000e+00) (0, 0, 0.00000000000000000000e+00) (0, 0, 0.00000000000000000000e+00) (0, 0, 0.00000000000000000000e+00) (0, 0, 0.00000000000000000000e+00) (0, 0, 0.00000000000000000000e+00) (0, 0, 0.00000000000000000000e+00) (0, 0, 0.00000000000000000000e+00) (0, 0, 0.00000000000000000000e+00) (0, 0, 0.00000000000000000000e+00) (0, 0, 0.00000000000000000000e+00) (0, 0, 0.00000000000000000000e+00) (0, 0, 0.00000000000000000000e+00) (0, 0, 0.00000000000000000000e+00) (0, 0, 0.00000000000000000000e+00) (0, 0, 0.00000000000000000000e+00) (0, 0, 0.00000000000000000000e+00) (0, 0, 0.00000000000000000000e+00) (0, 0, 0.00000000000000000000e+00) (0, 0, 0.00000000000000000000e+00) (0, 0, 0.00000000000000000000e+00) (0, 0, 0.00000000000000000000e+00) (0, 0, 0.00000000000000000000e+00) (0, 0, 0.00000000000000000000e+00) (0, 0, 0.00000000000000000000e+00) (0, 0, 0.00000000000000000000e+00) (0, 0, 0.00000000000000000000e+00) (0, 0, 0.00000000000000000000e+00) (0, 0, 0.00000000000000000000e+00) (0, 0, 0.00000000000000000000e+00) (0, 0, 0.00000000000000000000e+00) (0, 0, 0.00000000000000000000e+00) (0, 0, 0.00000000000000000000e+00) (0, 0, 0.00000000000000000000e+00) (201, 6, 5.00000000000000000000e-01) (201, 6, 5.00000000000000000000e-01) (201, 6, 5.00000000000000000000e-01) (201, 6, 5.00000000000000000000e-01) (201, 6, 5.00000000000000000000e-01) (201, 6, 5.00000000000000000000e-01) (201, 6, 5.00000000000000000000e-01) (201, 6, 5.00000000000000000000e-01) (201, 6, 5.00000000000000000000e-01) (201, 6, 5.00000000000000000000e-01) (201, 6, 5.00000000000000000000e-01) (201, 6, 5.00000000000000000000e-01) (201, 6, 5.00000000000000000000e-01) (201, 6, 5.00000000000000000000e-01) (201, 6, 5.00000000000000000000e-01) (201, 6, 5.00000000000000000000e-01) (201, 6, 5.00000000000000000000e-01) (201, 6, 5.00000000000000000000e-01) (201, 6, 5.00000000000000000000e-01) (201, 6, 5.00000000000000000000e-01) (201, 6, 5.00000000000000000000e-01) (201, 6, 5.00000000000000000000e-01) (201, 6, 5.00000000000000000000e-01) (201, 6, 5.00000000000000000000e-01) (201, 6, 5.00000000000000000000e-01) (201, 6, 5.00000000000000000000e-01) (201, 6, 5.00000000000000000000e-01) (201, 6, 5.00000000000000000000e-01) (201, 6, 5.00000000000000000000e-01) (201, 6, 5.00000000000000000000e-01) (201, 6, 5.00000000000000000000e-01) (201, 6, 5.00000000000000000000e-01) (201, 6, 5.00000000000000000000e-01) (201, 6, 5.00000000000000000000e-01) (201, 6, 5.00000000000000000000e-01) (201, 6, 5.00000000000000000000e-01) (201, 6, 5.00000000000000000000e-01) (201, 6, 5.00000000000000000000e-01) (201, 6, 5.00000000000000000000e-01) (201, 6, 5.00000000000000000000e-01) (201, 6, 5.00000000000000000000e-01) (201, 6, 5.00000000000000000000e-01) (201, 6, 5.00000000000000000000e-01) (201, 6, 5.00000000000000000000e-01) (201, 6, 5.00000000000000000000e-01) (201, 6, 5.00000000000000000000e-01) (201, 6, 5.00000000000000000000e-01) (201, 6, 5.00000000000000000000e-01) (201, 6, 5.00000000000000000000e-01) (201, 6, 5.00000000000000000000e-01) (201, 6, 5.00000000000000000000e-01) (201, 6, 5.00000000000000000000e-01) (201, 6, 5.00000000000000000000e-01) (201, 6, 5.00000000000000000000e-01) (201, 6, 5.00000000000000000000e-01) (201, 6, 5.00000000000000000000e-01) (201, 6, 5.00000000000000000000e-01) (201, 6, 5.00000000000000000000e-01) (201, 6, 5.00000000000000000000e-01) (201, 6, 5.00000000000000000000e-01) (201, 6, 5.00000000000000000000e-01) (201, 6, 5.00000000000000000000e-01) (201, 6, 5.00000000000000000000e-01) (201, 6, 5.00000000000000000000e-01) (201, 6, 5.00000000000000000000e-01) (201, 6, 5.00000000000000000000e-01) (201, 6, 5.00000000000000000000e-01) (201, 6, 5.00000000000000000000e-01) (201, 6, 5.00000000000000000000e-01) (201, 6, 5.00000000000000000000e-01) (201, 6, 5.00000000000000000000e-01) (201, 6, 5.00000000000000000000e-01) (201, 6, 5.00000000000000000000e-01) (201, 6, 5.00000000000000000000e-01) (201, 6, 5.00000000000000000000e-01) (0, 6, 0.00000000000000000000e+00) (76, 6, 5.00000000000000000000e-01) (76, 6, 5.00000000000000000000e-01) (76, 6, 5.00000000000000000000e-01) (76, 6, 5.00000000000000000000e-01) (76, 6, 5.00000000000000000000e-01) (76, 6, 5.00000000000000000000e-01) (76, 6, 5.00000000000000000000e-01) (76, 6, 5.00000000000000000000e-01) (76, 6, 5.00000000000000000000e-01) (76, 6, 5.00000000000000000000e-01) (76, 6, 5.00000000000000000000e-01) (76, 6, 5.00000000000000000000e-01) (76, 6, 5.00000000000000000000e-01) (76, 6, 5.00000000000000000000e-01) (76, 6, 5.00000000000000000000e-01) (76, 6, 5.00000000000000000000e-01) (76, 6, 5.00000000000000000000e-01) (76, 6, 5.00000000000000000000e-01) (76, 6, 5.00000000000000000000e-01) (76, 6, 5.00000000000000000000e-01) (76, 6, 5.00000000000000000000e-01) (76, 6, 5.00000000000000000000e-01) (76, 6, 5.00000000000000000000e-01) (76, 6, 5.00000000000000000000e-01) (76, 6, 5.00000000000000000000e-01) (0, 6, 0.00000000000000000000e+00) (26, 3, 5.00000000000000000000e-01) (26, 3, 5.00000000000000000000e-01) (26, 3, 5.00000000000000000000e-01) (26, 3, 5.00000000000000000000e-01) (26, 3, 5.00000000000000000000e-01) (26, 3, 5.00000000000000000000e-01) (26, 3, 5.00000000000000000000e-01) (26, 3, 5.00000000000000000000e-01) (26, 3, 5.00000000000000000000e-01) (26, 3, 5.00000000000000000000e-01) (26, 3, 5.00000000000000000000e-01) (26, 3, 5.00000000000000000000e-01) (0, 3, 0.00000000000000000000e+00) 
connections (connected_to_neuron, weight)=(0, -7.83211514353752136230e-02) (1, 9.32107940316200256348e-02) (2, -5.02958409488201141357e-02) (3, -1.45263699814677238464e-02) (4, 4.48696868261322379112e-04) (5, -5.42072728276252746582e-02) (6, -7.33487159013748168945e-02) (7, -5.36383129656314849854e-02) (8, -3.69368493556976318359e-02) (9, -3.11876296997070312500e-01) (10, 2.30225697159767150879e-02) (11, -1.73660933971405029297e-01) (12, 1.63235999643802642822e-02) (13, -7.44199156761169433594e-02) (14, -5.41904643177986145020e-02) (15, 1.05385273694992065430e-01) (16, 1.64073407649993896484e-01) (17, 3.04229527711868286133e-01) (18, 9.30346399545669555664e-02) (19, 2.33976021409034729004e-01) (20, -9.11067277193069458008e-02) (21, 2.15688683092594146729e-02) (22, 8.88019129633903503418e-02) (23, -9.02928113937377929688e-02) (24, 1.32814347743988037109e-01) (25, -7.89294838905334472656e-02) (26, -1.42208307981491088867e-01) (27, -2.38271102309226989746e-01) (28, -1.28432080149650573730e-01) (29, -4.02002125978469848633e-01) (30, -9.62607562541961669922e-02) (31, -1.89248606562614440918e-01) (32, -3.99036288261413574219e-01) (33, -1.54339954257011413574e-01) (34, -2.78095211833715438843e-02) (35, -2.79220879077911376953e-01) (36, -3.33441466093063354492e-01) (37, 6.60283342003822326660e-02) (38, -9.75760817527770996094e-03) (39, 2.62676894664764404297e-01) (40, 4.57401983439922332764e-02) (41, 1.97471797466278076172e-01) (42, -5.49558773636817932129e-02) (43, 8.05931165814399719238e-02) (44, 5.54409064352512359619e-02) (45, -1.54916107654571533203e-01) (46, 8.62859189510345458984e-02) (47, 9.32978764176368713379e-02) (48, -3.63636553287506103516e-01) (49, -1.93342149257659912109e-01) (50, -5.40772736072540283203e-01) (51, -2.25616201758384704590e-01) (52, 2.30218946933746337891e-01) (53, 4.63950455188751220703e-01) (54, 1.48142144083976745605e-01) (55, 1.16851717233657836914e-01) (56, -5.76230417937040328979e-03) (57, 3.66587974131107330322e-02) (58, 2.92147070169448852539e-01) (59, 3.34165208041667938232e-02) (60, 5.13281226158142089844e-02) (61, 3.19548934698104858398e-01) (62, -2.74478923529386520386e-02) (63, 1.72336950898170471191e-01) (64, 1.95441812276840209961e-01) (65, -3.18635627627372741699e-02) (66, 2.10446119308471679688e-01) (67, 5.43609499931335449219e-01) (68, -1.92574605345726013184e-01) (69, -9.70755219459533691406e-02) (70, 1.39617860317230224609e-01) (71, 1.54897585511207580566e-01) (72, 2.52151668071746826172e-01) (73, 1.70501992106437683105e-01) (74, -4.19554971158504486084e-02) (75, 8.46697911620140075684e-02) (76, 2.37280189990997314453e-01) (77, 7.98080191016197204590e-02) (78, 4.05197978019714355469e-01) (79, -5.37946708500385284424e-02) (80, -1.00553184747695922852e-02) (81, 2.64275044202804565430e-01) (82, 5.81061840057373046875e-01) (83, 2.73539215326309204102e-01) (84, 4.18844401836395263672e-01) (85, 4.97533291578292846680e-01) (86, 1.59919336438179016113e-01) (87, 2.00037524104118347168e-01) (88, 2.61506408452987670898e-01) (89, 4.62284177541732788086e-01) (90, 3.83475363254547119141e-01) (91, -1.15006908774375915527e-01) (92, 4.63451724499464035034e-03) (93, 4.91537958383560180664e-01) (94, 3.90220314264297485352e-01) (95, 7.18945443630218505859e-01) (96, 3.14773544669151306152e-02) (97, 1.62858515977859497070e-02) (98, 3.26290637254714965820e-01) (99, -1.97571501135826110840e-01) (100, -1.19464378803968429565e-02) (101, 1.56584069132804870605e-01) (102, 2.77516901493072509766e-01) (103, 7.43595436215400695801e-02) (104, 3.14828246831893920898e-01) (105, 3.38247358798980712891e-01) (106, 2.68209010362625122070e-01) (107, 2.73433595895767211914e-01) (108, -1.14487871527671813965e-01) (109, 3.26576262712478637695e-01) (110, 2.10777610540390014648e-01) (111, 8.36677700281143188477e-02) (112, 6.82319030165672302246e-02) (113, 2.67624650150537490845e-02) (114, -4.43693846464157104492e-02) (115, 1.06637645512819290161e-02) (116, 3.88333387672901153564e-02) (117, 1.78476214408874511719e-01) (118, 1.74642428755760192871e-01) (119, 1.09610877931118011475e-01) (120, 5.42058758437633514404e-02) (121, 1.15644512698054313660e-02) (122, 4.14691306650638580322e-02) (123, 1.88564509153366088867e-01) (124, 2.58502125740051269531e-01) (125, -2.08732947707176208496e-01) (126, 2.06299185752868652344e-01) (127, 1.43302232027053833008e-01) (128, 4.23456162214279174805e-01) (129, 3.49786251783370971680e-01) (130, 1.67373389005661010742e-01) (131, 3.10686796903610229492e-01) (132, -3.17602604627609252930e-02) (133, -1.81653164327144622803e-02) (134, -2.48884588479995727539e-01) (135, 1.40274733304977416992e-01) (136, 5.07245302200317382812e-01) (137, 2.71569490432739257812e-01) (138, 5.15940070152282714844e-01) (139, 3.40854823589324951172e-02) (140, 2.12685633450746536255e-02) (141, -7.59509131312370300293e-02) (142, 7.94596299529075622559e-02) (143, 2.99350053071975708008e-01) (144, 3.09588253498077392578e-01) (145, 1.49558439850807189941e-01) (146, 5.46521246433258056641e-01) (147, 4.37782734632492065430e-01) (148, 3.36322307586669921875e-01) (149, 3.85565042495727539062e-01) (150, -1.10517822206020355225e-01) (151, 1.03119887411594390869e-01) (152, -2.80769765377044677734e-01) (153, 1.42877936363220214844e-01) (154, -5.05105704069137573242e-02) (155, 1.01481623947620391846e-01) (156, -1.45857438445091247559e-01) (157, 3.42773228883743286133e-01) (158, 9.25447046756744384766e-01) (159, 5.94723112881183624268e-02) (160, 3.48869189620018005371e-02) (161, -3.35825458168983459473e-02) (162, 1.33816776797175407410e-02) (163, -2.94383745640516281128e-02) (164, 9.05201863497495651245e-03) (165, -1.33744031190872192383e-01) (166, 6.14717649295926094055e-03) (167, 6.73425942659378051758e-02) (168, -6.49897977709770202637e-02) (169, -1.87841445207595825195e-01) (170, -4.55011948943138122559e-02) (171, 4.34371262788772583008e-01) (172, 1.73357471823692321777e-01) (173, 8.37312713265419006348e-02) (174, 3.61057698726654052734e-01) (175, 3.93810629844665527344e-01) (176, 2.84779548645019531250e-01) (177, 8.83194059133529663086e-02) (178, 2.02039644122123718262e-01) (179, -1.02396048605442047119e-02) (180, 8.24510529637336730957e-02) (181, -2.21522692590951919556e-02) (182, -4.65351380407810211182e-02) (183, -5.31474500894546508789e-02) (184, 5.23746870458126068115e-02) (185, 7.36489892005920410156e-02) (186, -1.77517570555210113525e-02) (187, 7.74350464344024658203e-02) (188, 4.65968064963817596436e-02) (189, 1.69112280011177062988e-01) (190, 5.16662634909152984619e-02) (191, -6.10185845289379358292e-04) (192, 8.14882665872573852539e-02) (193, 8.69153719395399093628e-03) (194, -4.74280416965484619141e-02) (195, -3.60770225524902343750e-02) (196, 4.89574521780014038086e-02) (197, -9.27291959524154663086e-02) (198, -4.73957285284996032715e-02) (199, -5.80682046711444854736e-03) (200, 2.12629467248916625977e-01) (0, 4.36774902045726776123e-02) (1, 1.00808367133140563965e-02) (2, -6.71071037650108337402e-02) (3, -1.98567863553762435913e-02) (4, 1.82679817080497741699e-01) (5, 1.13604322075843811035e-01) (6, 1.00879088044166564941e-01) (7, 1.29432931542396545410e-01) (8, -2.99701392650604248047e-02) (9, 2.77672439813613891602e-01) (10, 7.26126134395599365234e-02) (11, 5.88289014995098114014e-02) (12, 1.19185633957386016846e-01) (13, -2.77740904130041599274e-03) (14, -3.07494355365633964539e-03) (15, 1.19653515517711639404e-01) (16, 1.86561226844787597656e-01) (17, 4.66879829764366149902e-02) (18, 1.54176816344261169434e-01) (19, 9.99778285622596740723e-02) (20, 5.29420860111713409424e-02) (21, 3.60225364565849304199e-02) (22, -1.17495648562908172607e-01) (23, 7.68991038203239440918e-02) (24, 8.86418148875236511230e-02) (25, 4.64678592979907989502e-02) (26, 1.09410747885704040527e-01) (27, 2.49367117881774902344e-01) (28, 4.53672379255294799805e-01) (29, 4.06189590692520141602e-01) (30, 2.89959847927093505859e-01) (31, 3.59129190444946289062e-01) (32, 2.07182914018630981445e-01) (33, 1.40156939625740051270e-01) (34, -8.51240977644920349121e-02) (35, 1.20179995894432067871e-01) (36, 2.75270283222198486328e-01) (37, 3.72940152883529663086e-01) (38, 2.80934572219848632812e-02) (39, 1.11638598144054412842e-01) (40, -8.74347984790802001953e-02) (41, -3.33932340145111083984e-02) (42, -5.87140209972858428955e-02) (43, -1.83595523238182067871e-01) (44, 3.43952737748622894287e-02) (45, 1.58011168241500854492e-01) (46, 1.88825026154518127441e-01) (47, 1.37769440189003944397e-02) (48, 2.45916262269020080566e-01) (49, 2.44432747364044189453e-01) (50, 4.43042427301406860352e-01) (51, 3.10410887002944946289e-01) (52, 1.58024191856384277344e-01) (53, 1.04897975921630859375e-01) (54, 2.80997343361377716064e-02) (55, 6.63280114531517028809e-02) (56, 1.14194499328732490540e-02) (57, 8.30203965306282043457e-02) (58, 1.29248842597007751465e-01) (59, 2.38247737288475036621e-02) (60, 2.38470751792192459106e-02) (61, -5.85616519674658775330e-03) (62, -5.78552111983299255371e-02) (63, -1.96529626846313476562e-01) (64, 4.36844043433666229248e-02) (65, 1.55406072735786437988e-01) (66, -1.72959461808204650879e-01) (67, -1.11401505768299102783e-01) (68, 1.17641955614089965820e-01) (69, 2.89043694734573364258e-01) (70, 1.19182221591472625732e-01) (71, 5.25406360626220703125e-01) (72, 3.96477788686752319336e-01) (73, -1.08265653252601623535e-02) (74, 2.74985790252685546875e-01) (75, 2.45158016681671142578e-01) (76, 8.84425491094589233398e-02) (77, 2.91057646274566650391e-01) (78, 6.94779604673385620117e-02) (79, -7.65236020088195800781e-02) (80, -1.00586833432316780090e-02) (81, -9.48034226894378662109e-02) (82, -3.23127627372741699219e-01) (83, -2.62100815773010253906e-01) (84, -4.27226815372705459595e-03) (85, -4.85258810222148895264e-02) (86, -2.16576278209686279297e-01) (87, -7.57857561111450195312e-02) (88, -3.99326682090759277344e-02) (89, 2.85875052213668823242e-01) (90, 6.40721559524536132812e-01) (91, 4.54649999737739562988e-02) (92, 4.94782119989395141602e-01) (93, 2.90122698061168193817e-03) (94, 4.29006278514862060547e-01) (95, 8.97890403866767883301e-02) (96, 3.08990385383367538452e-02) (97, 2.89474576711654663086e-01) (98, 5.27822196483612060547e-01) (99, -4.80371192097663879395e-02) (100, 8.00988636910915374756e-03) (101, -1.23502016067504882812e-01) (102, -8.14179405570030212402e-02) (103, -3.32764573395252227783e-02) (104, 3.59581150114536285400e-02) (105, -4.96094636619091033936e-02) (106, -1.55105546116828918457e-01) (107, -1.29444718360900878906e-01) (108, 1.19851261377334594727e-01) (109, 4.07161891460418701172e-01) (110, -2.14966982603073120117e-01) (111, 3.04399222135543823242e-01) (112, -1.07004866003990173340e-01) (113, 1.34223937988281250000e-01) (114, 2.46184896677732467651e-02) (115, 2.25218027830123901367e-01) (116, 1.08541019260883331299e-01) (117, 2.17999100685119628906e-01) (118, 6.23032413423061370850e-02) (119, 7.98863172531127929688e-02) (120, 5.55637367069721221924e-02) (121, 2.35708318650722503662e-02) (122, -4.69124317169189453125e-02) (123, 4.43764850497245788574e-02) (124, -6.91931461915373802185e-04) (125, -1.23713649809360504150e-02) (126, -1.75989940762519836426e-02) (127, 8.21172371506690979004e-02) (128, -2.53618210554122924805e-01) (129, 1.51260465383529663086e-01) (130, 3.01082909107208251953e-01) (131, 1.30849421024322509766e-01) (132, -2.69795805215835571289e-02) (133, 9.86905470490455627441e-02) (134, -6.22458755970001220703e-02) (135, 3.53330448269844055176e-02) (136, 3.40436026453971862793e-02) (137, 2.16581806540489196777e-01) (138, 8.19687917828559875488e-02) (139, -5.30000552535057067871e-02) (140, -9.31838080286979675293e-02) (141, -1.48528683930635452271e-02) (142, -2.89255417883396148682e-02) (143, -2.66797989606857299805e-01) (144, 1.14615872502326965332e-01) (145, 1.11715979874134063721e-01) (146, 1.46739959716796875000e-01) (147, 3.11947409063577651978e-02) (148, -1.64805337786674499512e-01) (149, -4.15823832154273986816e-02) (150, 1.02291941642761230469e-01) (151, 3.44040483236312866211e-01) (152, 1.82813420891761779785e-01) (153, 1.79032742977142333984e-01) (154, -3.36819584481418132782e-03) (155, 9.71284806728363037109e-02) (156, 1.13279178738594055176e-01) (157, -3.21378976106643676758e-01) (158, -1.75229117274284362793e-01) (159, 1.52740940451622009277e-01) (160, -1.30508095026016235352e-01) (161, -1.20534859597682952881e-02) (162, 2.06537693738937377930e-01) (163, 1.63293525576591491699e-01) (164, 5.38995265960693359375e-01) (165, 1.82065173983573913574e-01) (166, 2.38336220383644104004e-01) (167, 1.15487180650234222412e-01) (168, 2.54382312297821044922e-01) (169, -3.52430224418640136719e-01) (170, 2.45945364236831665039e-01) (171, 1.70002847909927368164e-01) (172, -1.32855828851461410522e-02) (173, 1.88334137201309204102e-01) (174, 3.52376461029052734375e-01) (175, 2.14647233486175537109e-01) (176, 1.74429818987846374512e-01) (177, 3.22789758443832397461e-01) (178, 5.21967113018035888672e-01) (179, -3.94755862653255462646e-02) (180, 3.96981798112392425537e-02) (181, 1.52322500944137573242e-02) (182, 2.75707338005304336548e-02) (183, 3.14518027007579803467e-02) (184, 1.06650128960609436035e-01) (185, 9.56061035394668579102e-02) (186, -6.38802796602249145508e-02) (187, 9.70943197607994079590e-02) (188, -5.86791709065437316895e-02) (189, -1.22857354581356048584e-01) (190, -8.27818363904953002930e-03) (191, -1.06408342719078063965e-01) (192, -8.66069495677947998047e-02) (193, -4.99165244400501251221e-03) (194, -8.58610942959785461426e-02) (195, 3.39249745011329650879e-02) (196, -5.72173856198787689209e-02) (197, 5.97383119165897369385e-02) (198, 9.39131006598472595215e-02) (199, -3.11586409807205200195e-02) (200, -1.26544937491416931152e-01) (0, -5.46646937727928161621e-02) (1, 7.21053313463926315308e-03) (2, -7.53795206546783447266e-02) (3, 3.97565364837646484375e-02) (4, 1.32030984386801719666e-02) (5, -3.09980455785989761353e-02) (6, -3.99705022573471069336e-03) (7, 2.54351735115051269531e-01) (8, 1.37463107705116271973e-01) (9, 2.30116650462150573730e-01) (10, 3.86382974684238433838e-02) (11, 6.68966993689537048340e-02) (12, 5.09584397077560424805e-02) (13, 1.31220415234565734863e-01) (14, -5.50475940108299255371e-02) (15, 6.92366957664489746094e-02) (16, 4.90374676883220672607e-02) (17, -2.96303015202283859253e-02) (18, -2.87013258785009384155e-02) (19, -1.34276822209358215332e-01) (20, -1.62197761237621307373e-02) (21, -3.14306989312171936035e-02) (22, -1.56127260997891426086e-02) (23, 1.46816134452819824219e-01) (24, -7.57401734590530395508e-02) (25, 1.94347560405731201172e-01) (26, -3.07701397687196731567e-02) (27, 2.62409925460815429688e-01) (28, 2.36834242939949035645e-01) (29, 4.06367331743240356445e-01) (30, 1.40661045908927917480e-01) (31, 1.78368225693702697754e-01) (32, 3.00498217344284057617e-01) (33, 1.87416478991508483887e-01) (34, 2.43856906890869140625e-01) (35, 3.10561060905456542969e-01) (36, 3.16100120544433593750e-01) (37, -2.46130637824535369873e-02) (38, 9.31903123855590820312e-02) (39, -5.60098923742771148682e-02) (40, -1.46104290615767240524e-03) (41, 1.54312355443835258484e-02) (42, 1.33689075708389282227e-01) (43, -4.22508567571640014648e-02) (44, -1.39364555478096008301e-01) (45, -4.53139320015907287598e-02) (46, 3.15429776906967163086e-01) (47, 1.05955056846141815186e-01) (48, 1.41176572069525718689e-02) (49, 1.07319518923759460449e-01) (50, -1.26588335260748863220e-02) (51, 1.61090075969696044922e-01) (52, 5.71338310837745666504e-02) (53, 1.18335120379924774170e-01) (54, 1.50614231824874877930e-01) (55, 1.34615242481231689453e-01) (56, 6.94582313299179077148e-02) (57, 1.14626593887805938721e-01) (58, 2.50151574611663818359e-01) (59, -3.80318686366081237793e-02) (60, -8.64440202713012695312e-02) (61, -1.03971250355243682861e-02) (62, 7.72196054458618164062e-02) (63, -8.93850699067115783691e-02) (64, -2.98198670148849487305e-01) (65, 7.75538086891174316406e-02) (66, -2.15328231453895568848e-01) (67, 8.00203010439872741699e-02) (68, 2.55607903003692626953e-01) (69, 9.70936566591262817383e-03) (70, 8.91069620847702026367e-02) (71, -4.66549545526504516602e-02) (72, 4.06302511692047119141e-02) (73, 2.60872393846511840820e-01) (74, 1.89029367174953222275e-03) (75, -1.30123406648635864258e-01) (76, 1.47184193134307861328e-01) (77, 1.59630596637725830078e-01) (78, 3.77421975135803222656e-01) (79, 5.92820681631565093994e-02) (80, -9.85504835844039916992e-02) (81, -1.64857104420661926270e-01) (82, -3.92820090055465698242e-01) (83, -2.29449709877371788025e-03) (84, -4.50850009918212890625e-01) (85, 1.69894590973854064941e-01) (86, -1.33568987250328063965e-01) (87, -7.02779740095138549805e-02) (88, 9.62469130754470825195e-02) (89, -8.73180627822875976562e-02) (90, 6.47356957197189331055e-02) (91, -1.12546965479850769043e-01) (92, -3.30654323101043701172e-01) (93, -2.93767005205154418945e-01) (94, 4.24414724111557006836e-02) (95, -1.00022153928875923157e-02) (96, -2.25747257471084594727e-01) (97, 1.09059244394302368164e-01) (98, 8.37384521961212158203e-01) (99, 2.39037290215492248535e-01) (100, -2.44245994836091995239e-02) (101, -5.05852699279785156250e-02) (102, -1.73305913805961608887e-01) (103, 8.89823660254478454590e-02) (104, -1.13200373947620391846e-01) (105, 6.64635151624679565430e-02) (106, -3.62025238573551177979e-02) (107, -7.81546011567115783691e-02) (108, -3.76564823091030120850e-02) (109, -2.58630439639091491699e-02) (110, 1.85183659195899963379e-02) (111, 3.38046848773956298828e-02) (112, -1.34845629334449768066e-01) (113, -2.80067235231399536133e-01) (114, 8.85594040155410766602e-02) (115, 8.06435197591781616211e-02) (116, -1.91814601421356201172e-01) (117, -1.03726506233215332031e-01) (118, 2.93824762105941772461e-01) (119, 8.74909758567810058594e-02) (120, -4.66584339737892150879e-02) (121, -1.08337968587875366211e-01) (122, -1.31020462140440940857e-02) (123, 1.48740643635392189026e-02) (124, -1.63827449083328247070e-01) (125, -9.29247736930847167969e-02) (126, -1.48468554019927978516e-01) (127, -2.62431278824806213379e-02) (128, -5.23278675973415374756e-02) (129, -3.24816763401031494141e-01) (130, -7.50683993101119995117e-02) (131, -6.79608210921287536621e-02) (132, -1.06967411935329437256e-01) (133, -3.77838732674717903137e-03) (134, -1.20156228542327880859e-01) (135, -2.54775024950504302979e-02) (136, -6.69157505035400390625e-02) (137, -1.72747865319252014160e-01) (138, 1.32744507864117622375e-02) (139, 1.08312323689460754395e-01) (140, 2.46104337275028228760e-02) (141, 2.90239881724119186401e-02) (142, 2.07298293709754943848e-01) (143, 1.13923162221908569336e-01) (144, 1.52686074376106262207e-01) (145, 1.55293077230453491211e-01) (146, 1.05461679399013519287e-01) (147, 1.06269434094429016113e-01) (148, 4.50645498931407928467e-02) (149, 7.92847424745559692383e-02) (150, 1.48828864097595214844e-01) (151, 1.67020201683044433594e-01) (152, -1.33664727210998535156e-01) (153, 3.09579193592071533203e-01) (154, 2.90953844785690307617e-01) (155, -1.77419677376747131348e-01) (156, -1.54229953885078430176e-01) (157, 1.71449519693851470947e-02) (158, -2.19087749719619750977e-01) (159, 2.30022296309471130371e-01) (160, 4.26787175238132476807e-02) (161, 1.27649724483489990234e-01) (162, 1.50830790400505065918e-01) (163, -4.60251681506633758545e-02) (164, 3.35867583751678466797e-01) (165, 3.77894818782806396484e-01) (166, -6.13495148718357086182e-02) (167, 1.92874282598495483398e-01) (168, 1.62467453628778457642e-02) (169, -1.97316393256187438965e-01) (170, -2.88725588470697402954e-02) (171, -6.38075638562440872192e-03) (172, 3.60070057213306427002e-02) (173, 2.35710088163614273071e-02) (174, 1.23543091118335723877e-01) (175, -4.60476696491241455078e-01) (176, 1.25752333551645278931e-02) (177, -1.41474857926368713379e-01) (178, -1.12483181059360504150e-01) (179, -3.62677164375782012939e-02) (180, -1.96720231324434280396e-02) (181, 1.86364892870187759399e-02) (182, -1.03631936013698577881e-01) (183, -3.57890203595161437988e-02) (184, -8.89524072408676147461e-02) (185, -8.62400606274604797363e-02) (186, -7.20300897955894470215e-02) (187, -2.00231187045574188232e-02) (188, -4.99125719070434570312e-02) (189, 1.06942411512136459351e-02) (190, -3.73843125998973846436e-02) (191, -1.29078492522239685059e-01) (192, 2.94952951371669769287e-02) (193, -1.29892498254776000977e-01) (194, -4.87718395888805389404e-02) (195, -7.36286267638206481934e-02) (196, -9.51620042324066162109e-02) (197, 1.43052667379379272461e-01) (198, 7.87970349192619323730e-02) (199, -1.09981991350650787354e-01) (200, -2.68210023641586303711e-01) (0, 1.00103858858346939087e-02) (1, -7.24912285804748535156e-02) (2, -3.74823994934558868408e-02) (3, 4.10225875675678253174e-02) (4, 1.26163229346275329590e-01) (5, 1.39937385916709899902e-01) (6, 2.75077465921640396118e-02) (7, 3.93250584602355957031e-02) (8, 2.63108462095260620117e-01) (9, 2.17291131615638732910e-01) (10, 2.34931275248527526855e-01) (11, 3.14645171165466308594e-02) (12, -6.65513649582862854004e-02) (13, 2.96131148934364318848e-02) (14, -4.53706644475460052490e-02) (15, 2.00581690296530723572e-03) (16, 1.91441699862480163574e-01) (17, -3.47262732684612274170e-02) (18, 2.48218551278114318848e-01) (19, 5.74171207845211029053e-02) (20, -3.82612422108650207520e-02) (21, 8.18430259823799133301e-02) (22, 4.11146990954875946045e-02) (23, 1.17442168295383453369e-01) (24, -1.21692210435867309570e-01) (25, 5.67002594470977783203e-02) (26, 4.08620625734329223633e-01) (27, 3.11342388391494750977e-01) (28, 2.88653820753097534180e-01) (29, 6.54305636882781982422e-01) (30, 4.68911796808242797852e-01) (31, 1.59171834588050842285e-01) (32, -5.29441200196743011475e-02) (33, -7.05240368843078613281e-02) (34, 1.10804811120033264160e-01) (35, 1.45163625478744506836e-01) (36, 3.52076403796672821045e-02) (37, 3.31869155168533325195e-01) (38, 1.91048666834831237793e-01) (39, 3.19655425846576690674e-02) (40, 6.50382265448570251465e-02) (41, -2.27708164602518081665e-02) (42, 8.00082683563232421875e-02) (43, -2.91813369840383529663e-02) (44, 3.08049619197845458984e-01) (45, 1.65286853909492492676e-01) (46, 3.00036847591400146484e-01) (47, -3.54083418846130371094e-01) (48, 1.85586705803871154785e-01) (49, 1.23517185449600219727e-01) (50, 4.90992367267608642578e-02) (51, 1.25656113028526306152e-01) (52, 6.24621033668518066406e-01) (53, 6.96148499846458435059e-02) (54, 3.79315704107284545898e-01) (55, 3.02245497703552246094e-01) (56, -2.37589552998542785645e-02) (57, -1.49487674236297607422e-01) (58, 1.74072235822677612305e-01) (59, -6.64349719882011413574e-02) (60, -7.08832070231437683105e-02) (61, 1.10503070056438446045e-01) (62, 1.71995475888252258301e-01) (63, -3.51665839552879333496e-02) (64, 3.15860390663146972656e-01) (65, -1.11533060669898986816e-01) (66, 4.99678403139114379883e-02) (67, 1.67946726083755493164e-01) (68, 1.39814078807830810547e-01) (69, 1.46848699077963829041e-02) (70, 1.00902721285820007324e-01) (71, -2.52961437217891216278e-03) (72, 8.11668932437896728516e-02) (73, 5.31645774841308593750e-01) (74, 7.01757147908210754395e-02) (75, 5.79261071979999542236e-02) (76, -1.79218813776969909668e-01) (77, 2.08210036158561706543e-01) (78, -7.27859959006309509277e-02) (79, -1.06301426887512207031e-01) (80, -5.36326989531517028809e-02) (81, -4.31290268898010253906e-03) (82, -2.15707212686538696289e-01) (83, 1.23153179883956909180e-01) (84, 1.94289788603782653809e-01) (85, 4.45771180093288421631e-02) (86, -1.01034909486770629883e-01) (87, -2.72073298692703247070e-02) (88, 1.62344962358474731445e-01) (89, -1.06986284255981445312e-01) (90, -8.79505798220634460449e-02) (91, -2.49484792351722717285e-01) (92, 1.28010779619216918945e-01) (93, -1.66921079158782958984e-01) (94, 2.09759116172790527344e-01) (95, -1.81191161274909973145e-01) (96, 1.23066995292901992798e-02) (97, -8.96341949701309204102e-02) (98, -1.67596295475959777832e-01) (99, -2.63413518667221069336e-01) (100, -6.82158097624778747559e-02) (101, 1.25466249883174896240e-02) (102, 1.81278273463249206543e-01) (103, 1.18414841592311859131e-01) (104, 1.28971889615058898926e-01) (105, -8.34265630692243576050e-03) (106, 3.98258771747350692749e-03) (107, -2.25879341363906860352e-01) (108, 4.42064516246318817139e-02) (109, 1.71382382512092590332e-01) (110, -8.18253606557846069336e-02) (111, -2.32678160071372985840e-01) (112, -2.96086668968200683594e-01) (113, -3.64735990762710571289e-01) (114, 2.12672874331474304199e-02) (115, -1.58609971404075622559e-01) (116, 7.84590840339660644531e-02) (117, -1.85701638460159301758e-01) (118, 1.48216560482978820801e-01) (119, 2.00222566723823547363e-01) (120, -6.19458742439746856689e-02) (121, -1.45842537283897399902e-01) (122, 2.33106650412082672119e-02) (123, -1.86181291937828063965e-02) (124, 2.62296441942453384399e-02) (125, 2.43051853030920028687e-02) (126, 2.72578969597816467285e-02) (127, -3.71366478502750396729e-02) (128, -2.18334840610623359680e-03) (129, 6.11650012433528900146e-02) (130, -2.11388528347015380859e-01) (131, -4.47384327650070190430e-01) (132, 1.04076281189918518066e-01) (133, -1.41199618577957153320e-01) (134, 9.41958725452423095703e-02) (135, -2.17579454183578491211e-01) (136, -4.98492494225502014160e-02) (137, -9.21865999698638916016e-02) (138, 4.90214787423610687256e-02) (139, -4.06939499080181121826e-02) (140, 4.11675274372100830078e-02) (141, -2.19649951905012130737e-02) (142, 2.24720733240246772766e-03) (143, -1.46026700735092163086e-01) (144, 1.10969476401805877686e-01) (145, -6.32665753364562988281e-02) (146, -2.78672669082880020142e-02) (147, 6.58087134361267089844e-02) (148, -1.43427789211273193359e-01) (149, 2.54443764686584472656e-01) (150, 1.92431882023811340332e-01) (151, 1.10590867698192596436e-01) (152, -1.87670569866895675659e-02) (153, 4.41753380000591278076e-02) (154, 1.70909464359283447266e-01) (155, -8.92945826053619384766e-02) (156, -1.84027373790740966797e-01) (157, 8.72602462768554687500e-02) (158, 3.32945100963115692139e-02) (159, -1.83001775294542312622e-02) (160, -1.80315729230642318726e-02) (161, -3.87786000967025756836e-01) (162, 2.19971896149218082428e-03) (163, -1.55442088842391967773e-01) (164, 2.76036895811557769775e-02) (165, -8.10588076710700988770e-02) (166, -2.83767998218536376953e-01) (167, 1.05035021901130676270e-01) (168, -1.58486336469650268555e-01) (169, -1.01483575999736785889e-01) (170, 7.30207413434982299805e-02) (171, 1.27096399664878845215e-02) (172, 6.90430253744125366211e-02) (173, 1.05194859206676483154e-01) (174, -1.43735811114311218262e-01) (175, -8.05334970355033874512e-02) (176, -1.55903771519660949707e-01) (177, -3.41112822294235229492e-01) (178, -1.21781803667545318604e-01) (179, 3.41158099472522735596e-02) (180, 1.74823158886283636093e-04) (181, 4.22651953995227813721e-02) (182, -1.23029731214046478271e-01) (183, 1.08316196128726005554e-02) (184, -4.93649281561374664307e-02) (185, 3.98476161062717437744e-02) (186, -8.44054892659187316895e-02) (187, -6.02519065141677856445e-02) (188, 2.07476243376731872559e-02) (189, -2.60417312383651733398e-02) (190, -3.67339402437210083008e-02) (191, 1.53708472847938537598e-01) (192, 4.72661033272743225098e-02) (193, -4.00820076465606689453e-02) (194, -1.57060429453849792480e-01) (195, 8.11696276068687438965e-02) (196, -7.49906525015830993652e-03) (197, 9.42689627408981323242e-02) (198, -1.27647027373313903809e-01) (199, -1.65554597973823547363e-01) (200, -1.29315510392189025879e-01) (0, 8.01409706473350524902e-02) (1, 2.30041332542896270752e-02) (2, 2.74004787206649780273e-02) (3, 2.34952734899707138538e-04) (4, -1.01380012929439544678e-01) (5, -9.58620384335517883301e-02) (6, -4.02005538344383239746e-02) (7, -2.92007755488157272339e-02) (8, -9.16351228952407836914e-02) (9, 1.05412550270557403564e-01) (10, -4.83409315347671508789e-02) (11, -8.56801345944404602051e-02) (12, -2.03264161944389343262e-01) (13, -1.44275784492492675781e-01) (14, -1.47436335682868957520e-01) (15, -1.64342775940895080566e-01) (16, -1.75904855132102966309e-02) (17, -1.70528367161750793457e-01) (18, -5.59613704681396484375e-02) (19, -2.36497144214808940887e-03) (20, 2.64471638947725296021e-02) (21, 6.03485926985740661621e-02) (22, 1.80604070425033569336e-01) (23, 6.82798102498054504395e-02) (24, -6.70054033398628234863e-02) (25, -1.62271827459335327148e-01) (26, 1.42589703202247619629e-01) (27, 4.40116301178932189941e-02) (28, 1.19420163333415985107e-01) (29, 6.84664547443389892578e-02) (30, 1.17252080235630273819e-03) (31, -1.78159534931182861328e-01) (32, 2.01464630663394927979e-02) (33, -2.75097098201513290405e-02) (34, 2.32878625392913818359e-01) (35, 2.45007127523422241211e-01) (36, 3.67737352848052978516e-01) (37, 2.01342821121215820312e-01) (38, -1.01875774562358856201e-01) (39, 1.13532476127147674561e-01) (40, 4.19448092579841613770e-02) (41, 1.31616815924644470215e-01) (42, 3.08330416679382324219e-01) (43, 5.50855025649070739746e-02) (44, 5.31001806259155273438e-01) (45, 3.68564695119857788086e-01) (46, -9.83658619225025177002e-03) (47, -1.97853166610002517700e-02) (48, -4.86521795392036437988e-02) (49, -8.08254778385162353516e-02) (50, -1.42741948366165161133e-01) (51, 8.03066268563270568848e-02) (52, 4.42172586917877197266e-01) (53, 1.83910623192787170410e-01) (54, 3.95987093448638916016e-01) (55, 4.25525248050689697266e-01) (56, 4.45582181215286254883e-01) (57, 1.94363027811050415039e-01) (58, -2.23708614706993103027e-01) (59, -4.10548970103263854980e-02) (60, -3.82502377033233642578e-02) (61, 1.38999566435813903809e-01) (62, 1.34219765663146972656e-01) (63, 2.48938396573066711426e-01) (64, 1.96701124310493469238e-01) (65, 9.35999378561973571777e-02) (66, 1.79124936461448669434e-01) (67, 1.56155630946159362793e-01) (68, 2.13858246803283691406e-01) (69, -1.19521647691726684570e-01) (70, -2.05716770142316818237e-02) (71, -1.12728796899318695068e-01) (72, 3.76822724938392639160e-02) (73, 3.08048039674758911133e-01) (74, -1.22019574046134948730e-01) (75, 1.01308614015579223633e-01) (76, -1.29632391035556793213e-02) (77, 1.85950808227062225342e-02) (78, -1.17416381835937500000e-01) (79, -8.65478590130805969238e-02) (80, -3.53412888944149017334e-02) (81, 9.64741855859756469727e-02) (82, -1.21891312301158905029e-01) (83, 2.55196034908294677734e-01) (84, 9.25470963120460510254e-02) (85, 2.31849730014801025391e-01) (86, -9.48789864778518676758e-02) (87, 1.66595727205276489258e-01) (88, 2.64207988977432250977e-01) (89, 1.86019260436296463013e-02) (90, -3.02088797092437744141e-01) (91, -1.82680323719978332520e-01) (92, -5.54109692573547363281e-01) (93, -1.84476599097251892090e-01) (94, -4.82752531766891479492e-01) (95, -1.88905209302902221680e-01) (96, -2.16031402349472045898e-01) (97, -2.27353751659393310547e-01) (98, -1.41018673777580261230e-01) (99, -3.77601087093353271484e-01) (100, -9.40473228693008422852e-02) (101, -1.03218436241149902344e-01) (102, 2.09843248128890991211e-01) (103, 1.16115868091583251953e-01) (104, 2.02315047383308410645e-01) (105, 2.99024581909179687500e-02) (106, 4.74639981985092163086e-02) (107, -5.56800141930580139160e-02) (108, -6.79126232862472534180e-02) (109, -2.75837302207946777344e-01) (110, -3.56136977672576904297e-01) (111, -4.01213824748992919922e-01) (112, -3.56698542833328247070e-01) (113, -2.69304037094116210938e-01) (114, -1.09879441559314727783e-01) (115, -1.15630075335502624512e-01) (116, -1.55005246400833129883e-01) (117, -2.38561511039733886719e-01) (118, -6.29680678248405456543e-02) (119, 1.44974216818809509277e-01) (120, 8.75404030084609985352e-02) (121, -3.21853421628475189209e-02) (122, -1.12731285393238067627e-01) (123, -1.20786260813474655151e-02) (124, 1.99506301432847976685e-02) (125, -8.68971087038516998291e-03) (126, -8.05459767580032348633e-02) (127, 3.30977328121662139893e-03) (128, -1.11743491142988204956e-02) (129, -1.21556445956230163574e-01) (130, -1.19148969650268554688e-01) (131, -4.21542733907699584961e-01) (132, -1.72674849629402160645e-01) (133, -1.29037618637084960938e-01) (134, -1.35351061820983886719e-01) (135, -1.95474207401275634766e-01) (136, -7.39066451787948608398e-02) (137, -2.12613359093666076660e-01) (138, -1.89806118607521057129e-01) (139, -1.04746162891387939453e-01) (140, -7.41061121225357055664e-02) (141, -6.83481395244598388672e-02) (142, 1.60880491137504577637e-01) (143, -1.86380743980407714844e-01) (144, -1.56475440599024295807e-03) (145, -4.60767410695552825928e-02) (146, 6.95178518071770668030e-03) (147, -1.17035582661628723145e-01) (148, 1.95281729102134704590e-01) (149, 2.64309167861938476562e-01) (150, -9.93612930178642272949e-02) (151, -5.56879490613937377930e-02) (152, -1.91615447402000427246e-01) (153, -1.69919684529304504395e-01) (154, -1.75071507692337036133e-01) (155, -2.20127627253532409668e-01) (156, 4.50632721185684204102e-03) (157, 7.95692056417465209961e-02) (158, -2.06015452742576599121e-01) (159, -2.00620945543050765991e-02) (160, 9.13530290126800537109e-02) (161, -3.01208734512329101562e-01) (162, 1.04416115209460258484e-02) (163, -4.96041893959045410156e-01) (164, -1.48418411612510681152e-01) (165, -6.14496022462844848633e-02) (166, -1.28962412476539611816e-01) (167, 1.93847902119159698486e-02) (168, -2.92863756418228149414e-01) (169, 1.30828646942973136902e-02) (170, 1.37678995728492736816e-01) (171, 6.98262378573417663574e-02) (172, 4.27274182438850402832e-02) (173, -3.23967337608337402344e-02) (174, -1.73340916633605957031e-01) (175, -1.55965760350227355957e-01) (176, -7.82916918396949768066e-02) (177, -1.27711400389671325684e-01) (178, -5.12392044067382812500e-01) (179, -7.80964791774749755859e-02) (180, -3.33345495164394378662e-02) (181, -5.70122003555297851562e-02) (182, -1.82383820414543151855e-01) (183, -1.00510247051715850830e-01) (184, -7.79810547828674316406e-03) (185, -8.07900279760360717773e-02) (186, -1.02640882134437561035e-01) (187, -1.97877809405326843262e-02) (188, 7.18738958239555358887e-02) (189, 2.00906425714492797852e-01) (190, -5.03091365098953247070e-02) (191, 3.55828404426574707031e-02) (192, -2.32839863747358322144e-02) (193, 9.13443341851234436035e-02) (194, -4.93076033890247344971e-02) (195, -8.16412642598152160645e-02) (196, -3.92164960503578186035e-02) (197, -5.20202964544296264648e-02) (198, 1.10265798866748809814e-03) (199, 1.25376060605049133301e-02) (200, -8.08551833033561706543e-02) (0, -9.00219231843948364258e-02) (1, -4.71773408353328704834e-02) (2, 7.22334831953048706055e-02) (3, 3.61235886812210083008e-02) (4, 1.25019177794456481934e-01) (5, 9.11823213100433349609e-02) (6, 5.70793896913528442383e-02) (7, 9.31560620665550231934e-02) (8, 2.35809519886970520020e-01) (9, 2.60437607765197753906e-01) (10, 1.95813715457916259766e-01) (11, 2.05417811870574951172e-01) (12, 1.65850207209587097168e-01) (13, 8.60460326075553894043e-02) (14, 1.05298921465873718262e-01) (15, 9.78408753871917724609e-02) (16, 2.30636373162269592285e-01) (17, 4.63016629219055175781e-02) (18, -1.94626674056053161621e-01) (19, 2.67773509025573730469e-01) (20, -8.19591991603374481201e-03) (21, 1.25951111316680908203e-01) (22, 1.27932233735918998718e-02) (23, -5.01597039401531219482e-02) (24, 2.90265828371047973633e-02) (25, 6.69911950826644897461e-02) (26, 1.39855161309242248535e-01) (27, 9.33754816651344299316e-02) (28, 2.74295389652252197266e-01) (29, 3.22779476642608642578e-01) (30, 2.46630758047103881836e-01) (31, 1.26108869910240173340e-01) (32, 8.28783065080642700195e-02) (33, 8.42783525586128234863e-02) (34, 2.60942935943603515625e-01) (35, 1.29978612065315246582e-01) (36, -5.33722415566444396973e-02) (37, -3.21666225790977478027e-02) (38, -6.67548086494207382202e-03) (39, 1.00085787475109100342e-01) (40, 1.62388980388641357422e-02) (41, -1.51667399331927299500e-02) (42, 1.45863622426986694336e-01) (43, -5.50269410014152526855e-02) (44, 1.25778019428253173828e-01) (45, 2.64613002538681030273e-01) (46, 1.50282606482505798340e-01) (47, 1.97684928774833679199e-01) (48, 3.98693121969699859619e-02) (49, 4.03998076915740966797e-01) (50, 5.66774159669876098633e-02) (51, 8.33514481782913208008e-02) (52, 3.00421923398971557617e-01) (53, -1.12849272787570953369e-01) (54, -1.26712456345558166504e-01) (55, -1.26938983798027038574e-01) (56, -2.24232420325279235840e-01) (57, 7.93819352984428405762e-02) (58, -3.38922858238220214844e-01) (59, 4.97320294380187988281e-02) (60, -2.75300368666648864746e-02) (61, 5.86058795452117919922e-02) (62, -9.35596972703933715820e-02) (63, -1.90600022673606872559e-01) (64, -2.28312369436025619507e-02) (65, -4.07382547855377197266e-02) (66, 1.05916142463684082031e-01) (67, -5.81106022000312805176e-02) (68, -8.37089493870735168457e-02) (69, 4.54462170600891113281e-01) (70, 2.34360069036483764648e-01) (71, 2.02917978167533874512e-01) (72, 3.70864570140838623047e-01) (73, -1.21870428323745727539e-01) (74, 2.32332468032836914062e-01) (75, -1.22191630303859710693e-01) (76, -8.14591348171234130859e-02) (77, -1.25351846218109130859e-01) (78, -4.13882941007614135742e-01) (79, -1.12519271671772003174e-01) (80, 4.06301021575927734375e-02) (81, -7.67646580934524536133e-02) (82, -9.10103172063827514648e-02) (83, -2.14065209031105041504e-01) (84, 1.69491454958915710449e-01) (85, 7.38399550318717956543e-02) (86, -1.25521913170814514160e-01) (87, -1.64013728499412536621e-02) (88, -1.10320135951042175293e-01) (89, 2.58967906236648559570e-01) (90, 3.85904870927333831787e-02) (91, 4.16039023548364639282e-03) (92, -4.75792512297630310059e-02) (93, 1.07436060905456542969e-01) (94, 1.03190131485462188721e-01) (95, 1.57786354422569274902e-01) (96, -2.20818877220153808594e-01) (97, 1.18406862020492553711e-01) (98, -5.45212864875793457031e-01) (99, -1.73558682203292846680e-01) (100, -3.99653241038322448730e-02) (101, -1.06969475746154785156e-01) (102, -1.03963896632194519043e-01) (103, -2.39693792536854743958e-03) (104, -4.79472801089286804199e-02) (105, 9.38177704811096191406e-02) (106, 1.03789508342742919922e-01) (107, 1.44503116607666015625e-01) (108, -6.65091499686241149902e-02) (109, 2.03588142991065979004e-01) (110, -1.23635895550251007080e-01) (111, 2.58230984210968017578e-01) (112, -1.30344539880752563477e-01) (113, 5.39628565311431884766e-02) (114, -1.44657403230667114258e-01) (115, 7.82000944018363952637e-02) (116, 9.21838283538818359375e-02) (117, 4.54846508800983428955e-02) (118, -6.99156373739242553711e-02) (119, 9.56092998385429382324e-02) (120, -2.40485416725277900696e-03) (121, 1.56931467354297637939e-02) (122, 1.52425663545727729797e-02) (123, 4.21970002353191375732e-02) (124, 2.80023086816072463989e-02) (125, 1.00225321948528289795e-01) (126, 4.51041720807552337646e-02) (127, -2.07150839269161224365e-02) (128, 1.57050177454948425293e-01) (129, -2.10453733801841735840e-01) (130, 9.39752757549285888672e-02) (131, -8.39243978261947631836e-02) (132, 1.09300285577774047852e-01) (133, 3.77585701644420623779e-02) (134, -1.46838217973709106445e-01) (135, -4.73985448479652404785e-02) (136, 3.17784436047077178955e-02) (137, 2.57522106170654296875e-01) (138, -2.16857686638832092285e-01) (139, -4.27680984139442443848e-02) (140, -8.69676098227500915527e-02) (141, 4.45035174489021301270e-02) (142, -1.55704412609338760376e-02) (143, 8.61927270889282226562e-02) (144, -7.91227594017982482910e-02) (145, -5.94973564147949218750e-02) (146, -7.12678581476211547852e-02) (147, 1.28758866339921951294e-02) (148, 2.30966303497552871704e-02) (149, 6.26629963517189025879e-02) (150, 3.67500513792037963867e-01) (151, 7.43499100208282470703e-02) (152, -6.40526562929153442383e-02) (153, -1.34010072797536849976e-02) (154, -2.01199147850275039673e-02) (155, -4.06536422669887542725e-02) (156, 4.98953983187675476074e-02) (157, 1.94683918380178511143e-04) (158, 5.49769923090934753418e-02) (159, 2.01538339257240295410e-01) (160, -3.08600850403308868408e-02) (161, 9.96459051966667175293e-02) (162, 1.82039216160774230957e-01) (163, -4.15954850614070892334e-02) (164, -3.32452952861785888672e-02) (165, 4.82215024530887603760e-02) (166, 4.16446104645729064941e-03) (167, 3.01708392798900604248e-02) (168, 7.16368481516838073730e-03) (169, 7.31134936213493347168e-02) (170, 3.94721120595932006836e-01) (171, 1.88257008790969848633e-01) (172, 6.46891966462135314941e-02) (173, -2.53085996955633163452e-02) (174, 2.93526947498321533203e-01) (175, 5.12669920921325683594e-01) (176, 1.90157249569892883301e-01) (177, -7.39355459809303283691e-02) (178, 2.25197836756706237793e-01) (179, 2.80091445893049240112e-03) (180, -6.34859576821327209473e-02) (181, 2.92204413563013076782e-02) (182, 1.14121269434690475464e-02) (183, -9.33989137411117553711e-03) (184, -9.31325461715459823608e-03) (185, -4.72407042980194091797e-02) (186, 1.34308040142059326172e-02) (187, 5.26320450007915496826e-02) (188, 2.89247892796993255615e-02) (189, -6.21368885040283203125e-02) (190, -2.59619727730751037598e-02) (191, 4.05302940635010600090e-04) (192, 6.43368661403656005859e-02) (193, -1.63719276315532624722e-04) (194, 4.91081513464450836182e-02) (195, -5.28941974043846130371e-02) (196, -1.19023919105529785156e-01) (197, -1.69024184346199035645e-01) (198, -5.99081553518772125244e-02) (199, -8.61576646566390991211e-02) (200, 8.17985385656356811523e-02) (0, 3.44167686998844146729e-02) (1, -1.08260251581668853760e-01) (2, -3.16439606249332427979e-02) (3, 8.94322022795677185059e-02) (4, -1.02273538708686828613e-01) (5, -9.41598713397979736328e-02) (6, -2.01013684272766113281e-01) (7, 9.86899957060813903809e-02) (8, -1.18388518691062927246e-01) (9, -2.95265093445777893066e-02) (10, -1.07204141095280647278e-02) (11, 1.17919789627194404602e-02) (12, -1.47039845585823059082e-01) (13, -1.22897222638130187988e-01) (14, -1.82575836777687072754e-01) (15, -1.38616234064102172852e-01) (16, -3.35868075489997863770e-02) (17, 1.02527126669883728027e-01) (18, 2.10199989378452301025e-02) (19, 8.36178958415985107422e-02) (20, -1.79827623069286346436e-02) (21, -7.08717107772827148438e-02) (22, 3.10640156269073486328e-01) (23, 2.28849258273839950562e-02) (24, -6.28863573074340820312e-02) (25, -1.61311954259872436523e-01) (26, 6.69974535703659057617e-02) (27, -6.50153532624244689941e-02) (28, 1.95141285657882690430e-01) (29, 3.27461242675781250000e-01) (30, 5.54301589727401733398e-02) (31, -4.48677875101566314697e-03) (32, 8.04731398820877075195e-02) (33, -1.92529723048210144043e-01) (34, 2.88369327783584594727e-01) (35, 2.46637880802154541016e-01) (36, 2.51842215657234191895e-02) (37, -1.66055036243051290512e-03) (38, -4.83733378350734710693e-02) (39, -2.37904433161020278931e-02) (40, -7.10956454277038574219e-02) (41, 6.19707405567169189453e-02) (42, 7.09757879376411437988e-02) (43, 4.20348905026912689209e-03) (44, 1.20624706149101257324e-01) (45, 1.17682233452796936035e-01) (46, 2.13536530733108520508e-01) (47, 2.46151303872466087341e-03) (48, 3.80029492080211639404e-02) (49, -2.21593007445335388184e-01) (50, -1.28377145156264305115e-02) (51, 2.90234804153442382812e-01) (52, 2.65619993209838867188e-01) (53, -1.62113428115844726562e-01) (54, 1.99484616518020629883e-01) (55, 5.36945462226867675781e-02) (56, 1.31617918610572814941e-01) (57, 3.74000258743762969971e-02) (58, -1.00009124726057052612e-02) (59, -9.92863550782203674316e-02) (60, -7.65333399176597595215e-02) (61, 5.56826815009117126465e-02) (62, 5.16775511205196380615e-02) (63, 2.78566163033246994019e-02) (64, 1.11133724451065063477e-01) (65, 2.57846802473068237305e-01) (66, -1.33941575884819030762e-01) (67, 1.86471208930015563965e-01) (68, 2.91534453630447387695e-01) (69, -1.58142268657684326172e-01) (70, 7.36787095665931701660e-02) (71, -1.75971671938896179199e-01) (72, 8.96919369697570800781e-02) (73, 3.82125824689865112305e-01) (74, -1.07406780123710632324e-01) (75, -1.26310344785451889038e-02) (76, -1.33839085698127746582e-01) (77, 1.27656713128089904785e-01) (78, 1.54435768723487854004e-01) (79, 6.47325590252876281738e-02) (80, -2.25142575800418853760e-02) (81, 5.10731153190135955811e-02) (82, 9.93548110127449035645e-02) (83, 4.82370182871818542480e-02) (84, -1.34146794676780700684e-01) (85, -4.48588058352470397949e-02) (86, -2.79935538768768310547e-01) (87, -5.50732538104057312012e-02) (88, -1.00131280720233917236e-01) (89, -3.93020153045654296875e-01) (90, -5.92438817024230957031e-01) (91, -2.70720899105072021484e-01) (92, -3.84697556495666503906e-01) (93, -2.03975170850753784180e-01) (94, 1.11169256269931793213e-01) (95, -1.79026067256927490234e-01) (96, 5.66417574882507324219e-02) (97, -2.69066721200942993164e-01) (98, -1.13055631518363952637e-01) (99, -4.20354068279266357422e-01) (100, 7.86442235112190246582e-02) (101, -1.27198755741119384766e-01) (102, -2.03740727156400680542e-02) (103, 7.66326785087585449219e-02) (104, 1.17030993103981018066e-01) (105, -1.41913145780563354492e-01) (106, 1.86768293380737304688e-01) (107, 1.20688818395137786865e-01) (108, -1.25787220895290374756e-02) (109, -4.78371046483516693115e-02) (110, -1.54103532433509826660e-01) (111, -2.35322937369346618652e-01) (112, -1.04371234774589538574e-01) (113, -2.96007513999938964844e-01) (114, 3.84879447519779205322e-02) (115, -4.38786633312702178955e-02) (116, 7.41834640502929687500e-02) (117, -4.19520586729049682617e-02) (118, -6.54483214020729064941e-02) (119, 1.46101787686347961426e-01) (120, 6.33132969960570335388e-03) (121, 7.61666893959045410156e-02) (122, -1.20526542887091636658e-02) (123, 1.28959804773330688477e-01) (124, -4.49349507689476013184e-02) (125, -7.97660648822784423828e-02) (126, -1.20226278901100158691e-01) (127, 1.29498794674873352051e-01) (128, -1.21173374354839324951e-01) (129, 1.89181193709373474121e-01) (130, -3.69383633136749267578e-01) (131, -1.24459415674209594727e-01) (132, 8.34240615367889404297e-02) (133, -8.16464573144912719727e-02) (134, -9.08055454492568969727e-02) (135, 9.66652762144804000854e-03) (136, 1.15140639245510101318e-01) (137, 4.41503264009952545166e-02) (138, -3.80452215671539306641e-01) (139, -9.78744328022003173828e-02) (140, -9.72642377018928527832e-02) (141, -1.09492111951112747192e-02) (142, 1.37031093239784240723e-01) (143, 2.39095732569694519043e-01) (144, 6.68605268001556396484e-02) (145, 1.50796249508857727051e-01) (146, 1.95281371474266052246e-01) (147, 1.37177810072898864746e-01) (148, 2.07109197974205017090e-01) (149, 7.35222399234771728516e-01) (150, 3.18055480718612670898e-01) (151, -3.99799607694149017334e-02) (152, -2.89941519498825073242e-01) (153, -2.88907200098037719727e-01) (154, -2.48689383268356323242e-01) (155, 4.11167694255709648132e-03) (156, -1.90672352910041809082e-01) (157, 2.71772742271423339844e-02) (158, -2.50834405422210693359e-01) (159, 4.53243739902973175049e-02) (160, 1.24252950772643089294e-02) (161, -2.24962890148162841797e-01) (162, -4.40739840269088745117e-03) (163, 4.07735705375671386719e-01) (164, 1.41535446047782897949e-01) (165, 1.81561991572380065918e-01) (166, 6.98666721582412719727e-02) (167, 8.54302197694778442383e-02) (168, 1.03879019618034362793e-01) (169, 1.42467111349105834961e-01) (170, 2.69478380680084228516e-01) (171, -2.32964411377906799316e-01) (172, 5.80414712429046630859e-01) (173, 5.59306144714355468750e-01) (174, -1.61150276660919189453e-01) (175, 2.86900520324707031250e-01) (176, 1.06979355216026306152e-01) (177, 5.71945980191230773926e-02) (178, 5.36561571061611175537e-02) (179, 4.28959764540195465088e-02) (180, -3.17515768110752105713e-02) (181, -2.94381659477949142456e-02) (182, 3.40193882584571838379e-02) (183, -2.55199003731831908226e-04) (184, -5.80841116607189178467e-02) (185, -4.14048805832862854004e-02) (186, -1.52192160487174987793e-01) (187, 3.13125215470790863037e-02) (188, 7.61953517794609069824e-02) (189, -8.68702158331871032715e-02) (190, 5.06662763655185699463e-03) (191, 1.79881509393453598022e-02) (192, -4.65909428894519805908e-02) (193, 1.15800008643418550491e-04) (194, -4.57399375736713409424e-02) (195, -5.49693731591105461121e-03) (196, -1.05604872107505798340e-01) (197, 3.47499065101146697998e-02) (198, -8.86244028806686401367e-02) (199, 2.80767623335123062134e-02) (200, -2.97555774450302124023e-02) (0, 8.82941037416458129883e-02) (1, -9.21333506703376770020e-02) (2, 2.37488858401775360107e-02) (3, -4.25059795379638671875e-02) (4, -2.21886169165372848511e-02) (5, -5.77479191124439239502e-02) (6, -7.84597769379615783691e-02) (7, -1.52125462889671325684e-01) (8, -2.97116488218307495117e-01) (9, -3.86975735425949096680e-01) (10, -2.58217006921768188477e-01) (11, -1.63296777755022048950e-02) (12, -8.36471170186996459961e-02) (13, 2.96157635748386383057e-02) (14, 2.14448526501655578613e-01) (15, 1.37239873409271240234e-01) (16, 6.03980123996734619141e-02) (17, 3.72536070644855499268e-02) (18, 1.99201498180627822876e-02) (19, 8.21887180209159851074e-02) (20, 2.35989354550838470459e-02) (21, -7.15680718421936035156e-02) (22, -7.87974819540977478027e-02) (23, -1.99695285409688949585e-02) (24, 1.12091168761253356934e-01) (25, -3.49415332078933715820e-01) (26, -2.79000282287597656250e-01) (27, 1.21082454919815063477e-01) (28, -2.61916100978851318359e-01) (29, -6.55999660491943359375e-01) (30, -2.55450665950775146484e-01) (31, -1.48287758231163024902e-01) (32, -2.93405383825302124023e-01) (33, -4.88473754376173019409e-03) (34, -1.79411899298429489136e-02) (35, -1.47319389507174491882e-02) (36, -6.05285726487636566162e-03) (37, 4.43453751504421234131e-02) (38, -1.17008812725543975830e-01) (39, 2.77162611484527587891e-01) (40, -6.18570335209369659424e-02) (41, -1.67278066277503967285e-01) (42, 2.28031612932682037354e-02) (43, 4.71782349050045013428e-02) (44, -3.82660299539566040039e-01) (45, -2.17115152627229690552e-02) (46, -1.00522264838218688965e-01) (47, -4.60564866662025451660e-02) (48, -2.61137336492538452148e-01) (49, 5.86312636733055114746e-02) (50, -2.56662994623184204102e-01) (51, -2.20315366983413696289e-01) (52, -8.58300179243087768555e-02) (53, 1.42980575561523437500e-01) (54, -1.47687673568725585938e-01) (55, -4.37057651579380035400e-02) (56, 5.98011277616024017334e-02) (57, 9.00046620517969131470e-03) (58, 1.69130697846412658691e-01) (59, 9.36580747365951538086e-02) (60, -5.63204474747180938721e-02) (61, -3.17122153937816619873e-02) (62, 4.11183387041091918945e-03) (63, -3.79808209836483001709e-02) (64, -1.93852066993713378906e-01) (65, -1.14591576159000396729e-01) (66, -6.42034132033586502075e-03) (67, -1.24514169991016387939e-01) (68, -1.21844604611396789551e-01) (69, -2.24334537982940673828e-01) (70, -4.15058508515357971191e-02) (71, 1.68689936399459838867e-01) (72, 3.63325119018554687500e-01) (73, -3.38892936706542968750e-01) (74, -1.68362081050872802734e-01) (75, 1.18690870702266693115e-01) (76, 8.27343314886093139648e-02) (77, -3.45346242189407348633e-01) (78, -9.36340317130088806152e-02) (79, 9.92209017276763916016e-02) (80, 7.01037570834159851074e-02) (81, 2.11018353700637817383e-01) (82, 9.99345406889915466309e-02) (83, 3.18980924785137176514e-02) (84, -2.90956079959869384766e-01) (85, 4.10618782043457031250e-01) (86, 1.76782950758934020996e-01) (87, 1.86581954360008239746e-01) (88, -2.33117267489433288574e-01) (89, 5.86690846830606460571e-03) (90, -8.23450535535812377930e-02) (91, 1.32165357470512390137e-01) (92, 1.44367709755897521973e-01) (93, 3.15700948238372802734e-01) (94, 1.17556057870388031006e-01) (95, 5.05332171916961669922e-01) (96, -6.11076533794403076172e-01) (97, -7.53273582085967063904e-03) (98, -6.28348469734191894531e-01) (99, 4.54927422106266021729e-02) (100, 5.99360466003417968750e-02) (101, 1.61641150712966918945e-01) (102, -5.20809292793273925781e-02) (103, -2.32025962322950363159e-02) (104, -1.30635509267449378967e-02) (105, 1.66416838765144348145e-01) (106, 3.23231592774391174316e-02) (107, -2.28578299283981323242e-02) (108, -2.02944293618202209473e-01) (109, -1.53146922588348388672e-01) (110, 2.23006770014762878418e-01) (111, 1.22237645089626312256e-01) (112, 3.66835594177246093750e-02) (113, 3.22362512350082397461e-01) (114, -1.92659690976142883301e-01) (115, 2.28339642286300659180e-01) (116, 2.28430941700935363770e-01) (117, 8.92594680190086364746e-02) (118, -5.25245666503906250000e-01) (119, -3.62136065959930419922e-02) (120, 6.83380290865898132324e-02) (121, 9.50634628534317016602e-02) (122, -2.18732431530952453613e-02) (123, 3.16671431064605712891e-02) (124, 4.76191416382789611816e-02) (125, 7.27729797363281250000e-02) (126, 1.83302193880081176758e-01) (127, 9.07092392444610595703e-02) (128, 2.01892197132110595703e-01) (129, -1.58487901091575622559e-01) (130, 3.94642427563667297363e-02) (131, 1.37723073363304138184e-01) (132, 1.94176226854324340820e-01) (133, 1.16067484021186828613e-01) (134, -9.08061787486076354980e-02) (135, 2.39577934145927429199e-01) (136, -2.33373567461967468262e-02) (137, 2.64157116413116455078e-01) (138, 2.28556141257286071777e-01) (139, 1.21340200304985046387e-01) (140, 4.40114364027976989746e-02) (141, 1.52671054005622863770e-01) (142, -6.12703934311866760254e-02) (143, 1.19386911392211914062e-01) (144, 1.05845117941498756409e-02) (145, -1.76375061273574829102e-01) (146, 2.06953883171081542969e-01) (147, -1.33786559104919433594e-01) (148, 1.06937199831008911133e-01) (149, -1.08505234122276306152e-01) (150, -6.81128352880477905273e-02) (151, -6.43180310726165771484e-02) (152, -6.97971135377883911133e-02) (153, 1.63335472345352172852e-01) (154, -1.81271702051162719727e-01) (155, 1.54953896999359130859e-01) (156, 8.60985070466995239258e-02) (157, -8.20912048220634460449e-02) (158, 2.03509405255317687988e-01) (159, -4.99731078743934631348e-02) (160, 1.01630970835685729980e-01) (161, 1.48908838629722595215e-01) (162, 2.33957678079605102539e-01) (163, 3.07648330926895141602e-01) (164, 1.51876658201217651367e-01) (165, -1.13721871748566627502e-02) (166, 1.65244892239570617676e-01) (167, -7.87939056754112243652e-02) (168, 2.30855077505111694336e-01) (169, -1.41817986965179443359e-01) (170, -6.26416981220245361328e-01) (171, 7.49249905347824096680e-02) (172, -5.29758632183074951172e-01) (173, -3.57653200626373291016e-02) (174, -4.18912559747695922852e-01) (175, 5.34154653549194335938e-01) (176, 1.25622764229774475098e-01) (177, 3.33342760801315307617e-01) (178, -5.01490414142608642578e-01) (179, -1.29223302006721496582e-01) (180, -7.46932700276374816895e-02) (181, -6.71632727608084678650e-03) (182, -1.22339343652129173279e-02) (183, 2.40539014339447021484e-02) (184, 1.16224877536296844482e-01) (185, -6.82167485356330871582e-02) (186, 7.42977187037467956543e-02) (187, -2.64135673642158508301e-02) (188, 3.52168604731559753418e-02) (189, -1.01966448128223419189e-01) (190, 3.64741943776607513428e-02) (191, -6.61463290452957153320e-03) (192, 1.12072139978408813477e-01) (193, 9.82207059860229492188e-02) (194, 3.26661765575408935547e-02) (195, -7.28733465075492858887e-03) (196, 1.65846645832061767578e-01) (197, -2.01597273349761962891e-01) (198, -1.21428444981575012207e-01) (199, 1.34456288069486618042e-02) (200, -1.34167075157165527344e-01) (0, 6.42501190304756164551e-02) (1, 3.75100895762443542480e-02) (2, 3.37840802967548370361e-03) (3, -3.97829078137874603271e-02) (4, -1.09284035861492156982e-01) (5, -8.48885625600814819336e-02) (6, 1.00255675613880157471e-01) (7, 7.11193010210990905762e-02) (8, 2.29506999254226684570e-01) (9, 1.54790192842483520508e-01) (10, 1.67126700282096862793e-01) (11, 8.14745724201202392578e-02) (12, 1.86208523809909820557e-02) (13, 1.13851733505725860596e-01) (14, -1.93766057491302490234e-01) (15, 4.66552283614873886108e-03) (16, 5.08864484727382659912e-02) (17, -2.51988749951124191284e-02) (18, -1.88886195421218872070e-01) (19, 2.70487546920776367188e-01) (20, 5.41963912546634674072e-02) (21, 5.21144904196262359619e-02) (22, 1.71174742281436920166e-02) (23, 1.36528074741363525391e-01) (24, 5.41525483131408691406e-02) (25, 1.08012631535530090332e-01) (26, -6.94480463862419128418e-02) (27, 2.63028204441070556641e-01) (28, 2.96190530061721801758e-01) (29, 2.87800729274749755859e-01) (30, 3.64968329668045043945e-02) (31, 6.70811310410499572754e-02) (32, -9.55442488193511962891e-02) (33, 7.58468359708786010742e-02) (34, 2.11410194635391235352e-01) (35, 2.82550632953643798828e-01) (36, 2.85877943038940429688e-01) (37, 1.86965942382812500000e-01) (38, -3.53920757770538330078e-02) (39, 1.04461953043937683105e-01) (40, 3.46474200487136840820e-02) (41, 2.73085907101631164551e-02) (42, 2.99481362104415893555e-01) (43, -8.27191472053527832031e-02) (44, 2.94703524559736251831e-02) (45, 2.32389211654663085938e-01) (46, 3.44467945396900177002e-02) (47, 2.70703762769699096680e-01) (48, 8.96989405155181884766e-02) (49, 2.93814718723297119141e-01) (50, -1.63346126675605773926e-01) (51, 5.37288300693035125732e-02) (52, 2.42935627698898315430e-01) (53, 1.14655718207359313965e-01) (54, 2.87405669689178466797e-01) (55, 2.97225415706634521484e-01) (56, 6.10152110457420349121e-02) (57, 1.44715547561645507812e-01) (58, 1.08946956694126129150e-01) (59, 1.38821497559547424316e-01) (60, -4.70073856413364410400e-02) (61, 1.75631090998649597168e-01) (62, 1.79662168025970458984e-01) (63, -5.27552282437682151794e-03) (64, 1.76369562745094299316e-01) (65, -1.18978701531887054443e-01) (66, 1.11596107482910156250e-01) (67, 1.59958124160766601562e-01) (68, 2.59474545717239379883e-01) (69, -6.11235089600086212158e-02) (70, 4.20397259294986724854e-02) (71, 1.50850757956504821777e-01) (72, 7.57029801607131958008e-02) (73, 1.77542731165885925293e-01) (74, -2.57937819696962833405e-03) (75, 2.08213496953248977661e-02) (76, -1.28454687073826789856e-02) (77, 5.21668717265129089355e-02) (78, -2.67598301172256469727e-01) (79, -1.39323055744171142578e-01) (80, 5.99439218640327453613e-02) (81, 1.90222486853599548340e-01) (82, 8.31449478864669799805e-02) (83, 1.44334599375724792480e-01) (84, 1.75288319587707519531e-01) (85, 7.01243504881858825684e-02) (86, 1.55144765973091125488e-01) (87, 5.79697638750076293945e-02) (88, 2.25980743765830993652e-01) (89, 1.39819309115409851074e-01) (90, 3.93651798367500305176e-02) (91, -5.71590363979339599609e-02) (92, 1.57287865877151489258e-01) (93, 1.24815978109836578369e-01) (94, 1.99216783046722412109e-01) (95, -7.30631574988365173340e-02) (96, -1.10317990183830261230e-01) (97, 1.20686680020298808813e-04) (98, -2.90516972541809082031e-01) (99, -1.34279996156692504883e-01) (100, 5.96220456063747406006e-02) (101, 1.11772984266281127930e-01) (102, 2.16870054602622985840e-01) (103, 9.78249236941337585449e-02) (104, 2.84973740577697753906e-01) (105, 2.06568324938416481018e-03) (106, 5.66472811624407768250e-03) (107, 1.58224731683731079102e-01) (108, 2.04411391168832778931e-02) (109, -6.10980428755283355713e-02) (110, -5.47242164611816406250e-02) (111, -2.59707838296890258789e-01) (112, 6.69078677892684936523e-02) (113, 2.04891283065080642700e-02) (114, -1.84303715825080871582e-01) (115, 5.98275549709796905518e-02) (116, 1.52879148721694946289e-01) (117, -8.40055048465728759766e-02) (118, -7.06632575020194053650e-03) (119, 9.99362673610448837280e-03) (120, 2.80533321201801300049e-02) (121, 2.56125796586275100708e-02) (122, 8.60796645283699035645e-02) (123, -2.63995155692100524902e-02) (124, 9.67193841934204101562e-02) (125, -2.23519168794155120850e-02) (126, 1.12097129225730895996e-01) (127, 2.29724362492561340332e-01) (128, -1.20572261512279510498e-01) (129, 2.40312591195106506348e-02) (130, -5.54415676742792129517e-03) (131, -2.07414403557777404785e-01) (132, -1.17123425006866455078e-01) (133, -5.92951960861682891846e-02) (134, 1.49144053459167480469e-01) (135, 9.73874479532241821289e-02) (136, 1.39951154589653015137e-01) (137, -6.17784708738327026367e-02) (138, 2.27560829371213912964e-02) (139, 2.08183489739894866943e-02) (140, 4.73282895982265472412e-02) (141, 8.60588252544403076172e-02) (142, 4.98441979289054870605e-02) (143, -6.51821568608283996582e-02) (144, 2.63865906745195388794e-02) (145, -1.39472167938947677612e-02) (146, -7.92840123176574707031e-03) (147, -2.98644583672285079956e-02) (148, 2.15418145060539245605e-01) (149, 1.23089611530303955078e-01) (150, -3.19210663437843322754e-02) (151, 1.10317751765251159668e-01) (152, -9.27229225635528564453e-02) (153, -9.82215851545333862305e-02) (154, -2.37069930881261825562e-02) (155, 1.53237581253051757812e-01) (156, -8.23774188756942749023e-02) (157, 7.13308677077293395996e-02) (158, -6.20041452348232269287e-02) (159, 1.66581626981496810913e-02) (160, 3.75834517180919647217e-02) (161, 3.33260409533977508545e-02) (162, 1.04693241417407989502e-01) (163, -2.62890309095382690430e-01) (164, -1.03019714355468750000e-01) (165, -7.43595808744430541992e-02) (166, -3.27206164598464965820e-01) (167, 1.34081929922103881836e-01) (168, 3.04356515407562255859e-02) (169, 1.89212307333946228027e-01) (170, 2.42379046976566314697e-02) (171, 5.28200827538967132568e-02) (172, 2.32723280787467956543e-01) (173, -6.96231871843338012695e-02) (174, 3.93440164625644683838e-02) (175, 2.42665365338325500488e-01) (176, 5.55332973599433898926e-02) (177, 7.08647295832633972168e-02) (178, -3.50482523441314697266e-01) (179, -2.87283454090356826782e-02) (180, 5.56827895343303680420e-02) (181, 8.52043926715850830078e-02) (182, -1.38907448854297399521e-03) (183, -8.35272669792175292969e-02) (184, -9.64609161019325256348e-02) (185, 5.52880614995956420898e-02) (186, -4.42307963967323303223e-02) (187, -5.18455058336257934570e-02) (188, -8.19639265537261962891e-02) (189, -8.66708252578973770142e-03) (190, 6.30756318569183349609e-02) (191, -5.96311874687671661377e-02) (192, 1.18928536772727966309e-01) (193, -1.77408698946237564087e-02) (194, -1.04669623076915740967e-01) (195, -9.01291817426681518555e-02) (196, -7.95283094048500061035e-02) (197, 5.80424964427947998047e-02) (198, -2.69760876893997192383e-01) (199, -6.54290840029716491699e-02) (200, -1.34195312857627868652e-01) (0, 4.31828247383236885071e-03) (1, -4.96581532061100006104e-02) (2, -1.94517653435468673706e-02) (3, -5.67846372723579406738e-02) (4, -1.44077643752098083496e-01) (5, -1.00795425474643707275e-01) (6, -1.87978371977806091309e-01) (7, -1.62166148424148559570e-01) (8, -2.72734254598617553711e-01) (9, -1.21884651482105255127e-01) (10, -9.71865281462669372559e-02) (11, -7.62818083167076110840e-02) (12, -1.22358344495296478271e-01) (13, -5.58832027018070220947e-02) (14, -1.23473510146141052246e-01) (15, -1.19287729263305664062e-01) (16, 6.45793676376342773438e-02) (17, -9.36398748308420181274e-03) (18, -1.32742136716842651367e-01) (19, 9.10519659519195556641e-02) (20, 3.48149798810482025146e-02) (21, -4.18394953012466430664e-02) (22, 1.34431034326553344727e-01) (23, -1.45822852849960327148e-01) (24, -1.50750443339347839355e-01) (25, -1.79947018623352050781e-01) (26, -1.68552398681640625000e-02) (27, -1.66961356997489929199e-01) (28, -2.56166577339172363281e-01) (29, -2.41697013378143310547e-01) (30, -3.01365051418542861938e-02) (31, -1.36866018176078796387e-01) (32, -9.06514972448348999023e-02) (33, -1.78234577178955078125e-01) (34, -1.41742080450057983398e-01) (35, -1.18307106196880340576e-01) (36, -1.08300782740116119385e-01) (37, -1.89791783690452575684e-01) (38, 7.71179869771003723145e-02) (39, 3.66177111864089965820e-02) (40, -4.58052568137645721436e-02) (41, 9.44353565573692321777e-02) (42, 8.10031294822692871094e-02) (43, 2.78325174003839492798e-02) (44, -4.12478856742382049561e-03) (45, -9.38163325190544128418e-02) (46, -8.55255499482154846191e-02) (47, 1.04569628834724426270e-01) (48, -9.66950505971908569336e-02) (49, -1.06826730072498321533e-01) (50, -1.49586483836174011230e-01) (51, -2.35075175762176513672e-01) (52, -9.64305028319358825684e-02) (53, -2.82230135053396224976e-02) (54, 4.04088646173477172852e-02) (55, 1.96393132209777832031e-01) (56, 1.51431217789649963379e-01) (57, -1.24741140753030776978e-02) (58, 1.97029307484626770020e-01) (59, -1.07982113957405090332e-01) (60, -8.03624987602233886719e-02) (61, -9.40828174352645874023e-02) (62, 1.41134858131408691406e-01) (63, 4.75984066724777221680e-02) (64, -8.23513120412826538086e-02) (65, -1.71661321073770523071e-02) (66, 8.68584513664245605469e-02) (67, 1.21410705149173736572e-01) (68, -2.24610000848770141602e-01) (69, -2.07504227757453918457e-01) (70, -1.21597923338413238525e-01) (71, -2.27158054709434509277e-01) (72, -2.36234202980995178223e-01) (73, 1.03733204305171966553e-01) (74, -1.90546959638595581055e-01) (75, -9.66187119483947753906e-02) (76, -5.18823005259037017822e-02) (77, 4.39577735960483551025e-03) (78, 3.39108198881149291992e-01) (79, -2.84643955528736114502e-02) (80, -1.13256452605128288269e-02) (81, 9.89870876073837280273e-02) (82, 6.95128813385963439941e-02) (83, 4.14311051368713378906e-01) (84, -1.31240382790565490723e-01) (85, 2.85267531871795654297e-01) (86, 1.57235547900199890137e-01) (87, -2.29561328887939453125e-02) (88, -1.53059810400009155273e-01) (89, -6.20687194168567657471e-02) (90, -6.39312565326690673828e-01) (91, 1.42595723271369934082e-01) (92, -3.39723467826843261719e-01) (93, 1.89931467175483703613e-01) (94, -2.50005364418029785156e-01) (95, 1.69114470481872558594e-01) (96, 1.07220165431499481201e-01) (97, -1.43662288784980773926e-01) (98, -1.92050755023956298828e-01) (99, 1.24427229166030883789e-01) (100, -9.22726020216941833496e-02) (101, 4.76969107985496520996e-02) (102, 1.24188654124736785889e-01) (103, 2.03893445432186126709e-02) (104, -2.50572501681745052338e-03) (105, -5.53365750238299369812e-03) (106, -5.72070032358169555664e-02) (107, -1.24978430569171905518e-01) (108, -2.38074541091918945312e-01) (109, -2.75877207517623901367e-01) (110, 6.32574409246444702148e-02) (111, -1.41101121902465820312e-01) (112, 1.79729193449020385742e-01) (113, -1.05046285316348075867e-02) (114, -5.95242343842983245850e-02) (115, -1.47972673177719116211e-01) (116, -9.64171960949897766113e-02) (117, -7.42346718907356262207e-02) (118, 1.34566411375999450684e-01) (119, -4.14783693850040435791e-02) (120, -5.36176227033138275146e-02) (121, 1.00751407444477081299e-01) (122, -1.50356171652674674988e-02) (123, -1.95513535290956497192e-02) (124, 1.12921074032783508301e-01) (125, 1.15022368729114532471e-01) (126, 2.05822363495826721191e-01) (127, 1.45882308483123779297e-01) (128, 6.42370954155921936035e-02) (129, -9.02971476316452026367e-02) (130, -2.58067160844802856445e-01) (131, -1.79897934198379516602e-01) (132, 8.70679318904876708984e-02) (133, -1.80986419320106506348e-01) (134, 4.55414541065692901611e-02) (135, 3.16272396594285964966e-03) (136, 4.94575537741184234619e-02) (137, -2.35789641737937927246e-02) (138, 1.05224661529064178467e-01) (139, 7.59955169633030891418e-03) (140, 1.78462620824575424194e-02) (141, 1.10379107296466827393e-01) (142, 1.29281520843505859375e-01) (143, 2.97426491975784301758e-01) (144, -6.11597225069999694824e-02) (145, -3.63734103739261627197e-02) (146, 1.08709178864955902100e-01) (147, -9.33205857872962951660e-02) (148, 1.27762466669082641602e-01) (149, 6.09726719558238983154e-02) (150, 7.87187218666076660156e-02) (151, -1.71710565686225891113e-01) (152, -3.82585823535919189453e-02) (153, -1.51647061109542846680e-01) (154, -1.78047157824039459229e-02) (155, -3.45543660223484039307e-02) (156, -7.28071853518486022949e-02) (157, 3.81151348352432250977e-01) (158, 7.85233527421951293945e-02) (159, -5.31325265765190124512e-02) (160, 4.42387573421001434326e-02) (161, -4.32426705956459045410e-02) (162, -6.42394497990608215332e-02) (163, -1.79720446467399597168e-02) (164, -3.58664065599441528320e-01) (165, -1.23494341969490051270e-01) (166, -2.59000271558761596680e-01) (167, -6.72108232975006103516e-02) (168, -4.05884355306625366211e-01) (169, 4.83854115009307861328e-02) (170, -2.39140361547470092773e-01) (171, -4.35943275690078735352e-01) (172, 4.78069931268692016602e-02) (173, -3.31396937370300292969e-01) (174, -4.41071152687072753906e-01) (175, -6.55828863382339477539e-02) (176, 5.14000188559293746948e-03) (177, -1.80791392922401428223e-01) (178, -3.16518485546112060547e-01) (179, -1.07757046818733215332e-01) (180, 8.31220820546150207520e-02) (181, -8.06466490030288696289e-02) (182, -9.55444648861885070801e-02) (183, 7.52928480505943298340e-02) (184, -1.68878361582756042480e-01) (185, -9.93799939751625061035e-02) (186, -5.81359537318348884583e-03) (187, -1.10955789685249328613e-01) (188, 7.80063420534133911133e-02) (189, 1.60296291112899780273e-01) (190, -3.37923690676689147949e-02) (191, -9.45407077670097351074e-02) (192, -2.57028751075267791748e-02) (193, 4.53983508050441741943e-02) (194, 8.34159776568412780762e-02) (195, -9.23962444067001342773e-02) (196, -7.31556192040443420410e-02) (197, -2.32498049736022949219e-02) (198, -1.94795697927474975586e-01) (199, -3.76296490430831909180e-02) (200, -9.58931595087051391602e-02) (0, 5.64777515828609466553e-02) (1, -1.04373686015605926514e-01) (2, -1.07027783989906311035e-01) (3, -8.64481329917907714844e-02) (4, -1.45983705297112464905e-02) (5, -1.90813049674034118652e-01) (6, -2.67886310815811157227e-01) (7, -1.74005210399627685547e-01) (8, -1.73836350440979003906e-01) (9, -1.75483971834182739258e-01) (10, -1.35436296463012695312e-01) (11, 3.83680462837219238281e-02) (12, 2.95730773359537124634e-02) (13, -7.78501927852630615234e-02) (14, 1.28495029639452695847e-03) (15, -2.29942873120307922363e-02) (16, -3.59644442796707153320e-02) (17, -9.80853140354156494141e-02) (18, 3.55141639709472656250e-01) (19, 3.30646894872188568115e-02) (20, 9.48943719267845153809e-02) (21, -3.02116628736257553101e-02) (22, -1.94756954908370971680e-01) (23, 3.59913222491741180420e-02) (24, -5.30206300318241119385e-02) (25, -2.84357309341430664062e-01) (26, -3.10210525989532470703e-01) (27, 1.12885497510433197021e-01) (28, -1.99730053544044494629e-01) (29, -1.55239462852478027344e-01) (30, -6.04057125747203826904e-02) (31, 1.26907071098685264587e-02) (32, -1.78177788853645324707e-01) (33, -7.57839381694793701172e-02) (34, 4.83722016215324401855e-02) (35, 8.93490016460418701172e-02) (36, 2.14751228690147399902e-01) (37, -3.93898673355579376221e-02) (38, 1.70302897691726684570e-01) (39, 1.39109462499618530273e-01) (40, -8.70340410619974136353e-03) (41, -1.20876751840114593506e-01) (42, 1.60812452435493469238e-01) (43, 1.06184378266334533691e-01) (44, -1.71319633722305297852e-01) (45, -5.28498776257038116455e-02) (46, -1.57667562365531921387e-01) (47, 2.24330082535743713379e-01) (48, -7.79484286904335021973e-02) (49, -1.12285204231739044189e-01) (50, -4.29595351219177246094e-01) (51, -6.97447881102561950684e-02) (52, -3.21977913379669189453e-01) (53, 8.94010365009307861328e-02) (54, 6.13126754760742187500e-02) (55, 4.73446846008300781250e-01) (56, 5.32193243503570556641e-01) (57, 1.76583498716354370117e-01) (58, 4.39303755760192871094e-01) (59, -4.41516824066638946533e-02) (60, -9.73794423043727874756e-03) (61, -4.73782643675804138184e-02) (62, 6.97704702615737915039e-02) (63, 2.08685457706451416016e-01) (64, 3.16343642771244049072e-02) (65, -1.10726885497570037842e-01) (66, -9.45937409996986389160e-02) (67, -1.47614270448684692383e-01) (68, -1.28087997436523437500e-01) (69, -2.57771104574203491211e-01) (70, -3.16627025604248046875e-01) (71, 1.21315300464630126953e-01) (72, -8.14148932695388793945e-02) (73, 1.77028834819793701172e-01) (74, -1.06942132115364074707e-01) (75, 9.89142283797264099121e-02) (76, -9.14710536599159240723e-02) (77, 9.40235704183578491211e-02) (78, 2.13455706834793090820e-01) (79, -6.93955197930335998535e-02) (80, -9.68736596405506134033e-03) (81, 3.06731939315795898438e-01) (82, 1.31430596113204956055e-01) (83, 3.47436070442199707031e-01) (84, -1.33169054985046386719e-01) (85, 6.78445920348167419434e-02) (86, 7.32866674661636352539e-02) (87, 7.99606218934059143066e-02) (88, -1.02892005816102027893e-03) (89, -5.57557225227355957031e-01) (90, -3.69843691587448120117e-01) (91, 2.35916659235954284668e-01) (92, 4.31418478488922119141e-01) (93, -4.84151504933834075928e-02) (94, 1.34882137179374694824e-01) (95, 2.66046464443206787109e-01) (96, -7.69560113549232482910e-02) (97, -1.18668846786022186279e-01) (98, 2.46430888772010803223e-01) (99, 2.49454617500305175781e-01) (100, 9.34637039899826049805e-02) (101, 7.18719214200973510742e-02) (102, 5.97934722900390625000e-02) (103, -1.31277576088905334473e-01) (104, 1.06442652642726898193e-01) (105, -1.56181722879409790039e-01) (106, -1.08345896005630493164e-01) (107, -1.26834124326705932617e-01) (108, -1.15429952740669250488e-01) (109, -8.68487637490034103394e-03) (110, -3.85946929454803466797e-02) (111, -3.27774763107299804688e-01) (112, 1.75850212574005126953e-01) (113, 1.22728474438190460205e-01) (114, 1.65163338184356689453e-01) (115, 2.62488983571529388428e-02) (116, -8.07462260127067565918e-02) (117, -3.28920513391494750977e-01) (118, -6.16427809000015258789e-02) (119, 1.62186250090599060059e-02) (120, -4.75612990558147430420e-02) (121, 1.10278185456991195679e-02) (122, 9.59854945540428161621e-02) (123, -5.21638616919517517090e-02) (124, 1.62679493427276611328e-01) (125, 1.10295958817005157471e-01) (126, 5.93191683292388916016e-02) (127, 6.40487223863601684570e-02) (128, -2.66324549913406372070e-01) (129, 2.82250881195068359375e-01) (130, -1.42190009355545043945e-01) (131, 6.12409831956028938293e-03) (132, 1.11976847052574157715e-01) (133, -1.69546440243721008301e-01) (134, 5.00066857784986495972e-03) (135, 9.33774709701538085938e-02) (136, -2.36373454332351684570e-01) (137, 1.45241335034370422363e-01) (138, -9.78487655520439147949e-02) (139, 2.17054605484008789062e-01) (140, 3.09653673321008682251e-02) (141, 6.67945668101310729980e-02) (142, 1.17091953754425048828e-01) (143, 1.59216701984405517578e-01) (144, 3.16951833665370941162e-02) (145, 1.33827567100524902344e-01) (146, 2.92981326580047607422e-01) (147, 4.97201085090637207031e-02) (148, 9.23781171441078186035e-02) (149, 1.93988710641860961914e-01) (150, -1.71858479734510183334e-03) (151, -2.01487585902214050293e-01) (152, -1.80815637111663818359e-01) (153, -1.01180337369441986084e-01) (154, -2.74117916822433471680e-01) (155, -1.07647310942411422729e-02) (156, 2.22339108586311340332e-02) (157, 3.90396803617477416992e-01) (158, -2.29464426636695861816e-01) (159, -2.58086398243904113770e-02) (160, 9.68468785285949707031e-02) (161, 1.49338573217391967773e-01) (162, 3.11049949377775192261e-02) (163, 1.29939809441566467285e-01) (164, -1.11191101372241973877e-01) (165, -1.33282586466521024704e-03) (166, 1.91390737891197204590e-01) (167, -3.39420586824417114258e-02) (168, -4.31126177310943603516e-01) (169, 3.00700843334197998047e-01) (170, -2.46572703123092651367e-01) (171, 1.61812990903854370117e-01) (172, -2.77473419904708862305e-01) (173, 1.81412592530250549316e-01) (174, -2.82290697097778320312e-01) (175, -6.25305399298667907715e-02) (176, -3.77623015083372592926e-03) (177, 2.98453122377395629883e-01) (178, -7.42602050304412841797e-01) (179, -3.41598466038703918457e-02) (180, -4.24048490822315216064e-02) (181, 2.11022701114416122437e-02) (182, -4.85906451940536499023e-02) (183, 1.78575646132230758667e-02) (184, 3.64041216671466827393e-02) (185, 6.03813230991363525391e-02) (186, -2.51830015331506729126e-02) (187, -5.98035976290702819824e-02) (188, 3.71070951223373413086e-03) (189, 3.69268134236335754395e-02) (190, 1.39640523120760917664e-02) (191, -1.03351719677448272705e-01) (192, 7.00547769665718078613e-02) (193, -6.92139416933059692383e-02) (194, -6.06393329799175262451e-02) (195, 1.91886648535728454590e-02) (196, 2.24054548889398574829e-02) (197, -8.53196531534194946289e-03) (198, -2.16500744223594665527e-01) (199, -1.48386666551232337952e-02) (200, 1.39120072126388549805e-01) (0, 1.80599763989448547363e-02) (1, -6.27294480800628662109e-02) (2, -9.94397103786468505859e-02) (3, 1.69753916561603546143e-02) (4, -6.15509003400802612305e-02) (5, -2.90287882089614868164e-01) (6, -1.53506308794021606445e-01) (7, 3.34734804928302764893e-02) (8, -1.14373110234737396240e-01) (9, 4.81724701821804046631e-02) (10, -7.66230151057243347168e-02) (11, -1.83452472090721130371e-01) (12, 4.02029156684875488281e-02) (13, -4.25492972135543823242e-02) (14, 3.76049280166625976562e-02) (15, -6.19721710681915283203e-02) (16, 9.28034558892250061035e-02) (17, -1.08704745769500732422e-01) (18, -1.38033315539360046387e-01) (19, 2.38007735460996627808e-02) (20, 6.24162964522838592529e-02) (21, 2.13024765253067016602e-03) (22, 1.25168755650520324707e-01) (23, -5.45963682234287261963e-02) (24, -1.70932151377201080322e-02) (25, -3.76923307776451110840e-02) (26, -4.48400788009166717529e-02) (27, 8.10189247131347656250e-02) (28, -8.86741578578948974609e-02) (29, 3.70985977351665496826e-02) (30, -1.40639856457710266113e-01) (31, 2.60650187730789184570e-01) (32, 1.84929985553026199341e-02) (33, -1.99930712580680847168e-01) (34, 6.19027018547058105469e-02) (35, 1.47155001759529113770e-01) (36, -3.05048730224370956421e-02) (37, -5.64333349466323852539e-02) (38, 4.23944741487503051758e-01) (39, 6.17176219820976257324e-02) (40, -5.90735413134098052979e-02) (41, 1.05509519577026367188e-01) (42, 3.46188507974147796631e-02) (43, 1.12937673926353454590e-01) (44, -4.70045953989028930664e-02) (45, 6.95950090885162353516e-02) (46, -7.56348529830574989319e-03) (47, 5.15954047441482543945e-02) (48, -1.24741159379482269287e-01) (49, -7.05919489264488220215e-02) (50, 7.71583765745162963867e-02) (51, 4.54563135281205177307e-03) (52, 1.53825849294662475586e-01) (53, 8.31796526908874511719e-02) (54, 1.94544136524200439453e-01) (55, 2.35557369887828826904e-02) (56, -1.51272267103195190430e-01) (57, -1.26407951116561889648e-01) (58, 5.75578026473522186279e-02) (59, 4.10074926912784576416e-02) (60, 4.71939332783222198486e-02) (61, 1.59072101116180419922e-01) (62, 2.61242032051086425781e-01) (63, -1.14793563261628150940e-02) (64, 6.70006871223449707031e-02) (65, -9.69068333506584167480e-02) (66, -5.96833527088165283203e-02) (67, 2.63416320085525512695e-01) (68, 1.54297053813934326172e-01) (69, -4.02557075023651123047e-01) (70, 2.42919977754354476929e-02) (71, -2.10344448685646057129e-01) (72, 5.44794201850891113281e-02) (73, 3.44446629285812377930e-01) (74, 1.42394220456480979919e-02) (75, 9.18028801679611206055e-02) (76, 2.70014792680740356445e-01) (77, 4.80772137641906738281e-01) (78, 6.19011633098125457764e-02) (79, -4.67434301972389221191e-02) (80, 7.55226192995905876160e-03) (81, 2.92541384696960449219e-01) (82, 1.61902204155921936035e-01) (83, 2.46872380375862121582e-01) (84, -7.32895061373710632324e-02) (85, 3.03569853305816650391e-01) (86, 3.14509756863117218018e-02) (87, -2.77647259645164012909e-03) (88, 3.07204633951187133789e-01) (89, -3.25032144784927368164e-01) (90, 1.05006247758865356445e-01) (91, -1.62211596965789794922e-01) (92, -1.50724789127707481384e-02) (93, -4.73258644342422485352e-02) (94, 8.91846492886543273926e-02) (95, 2.13373498991131782532e-03) (96, 2.38672256469726562500e-01) (97, 1.30518540740013122559e-01) (98, 3.27965378761291503906e-01) (99, -1.87261570245027542114e-02) (100, -5.75156584382057189941e-02) (101, 9.84246879816055297852e-02) (102, 1.24047674238681793213e-01) (103, -2.53731012344360351562e-03) (104, 1.86599910259246826172e-01) (105, 1.10411852598190307617e-01) (106, 1.86338305473327636719e-01) (107, 3.79438623785972595215e-02) (108, 1.37975066900253295898e-01) (109, -4.28361892700195312500e-01) (110, 1.04228511452674865723e-01) (111, -2.59412080049514770508e-01) (112, -2.91676074266433715820e-02) (113, -1.97409510612487792969e-01) (114, 1.16306021809577941895e-01) (115, -4.93856109678745269775e-02) (116, 1.41995167359709739685e-02) (117, -3.45011830329895019531e-01) (118, 2.53421574831008911133e-01) (119, 1.28318592905998229980e-01) (120, -8.39577689766883850098e-02) (121, 1.15944042801856994629e-01) (122, 2.22376585006713867188e-01) (123, 7.29703158140182495117e-02) (124, 5.05743101239204406738e-02) (125, 2.08495631814002990723e-02) (126, 1.95129774510860443115e-02) (127, 8.68613347411155700684e-02) (128, -3.42903248965740203857e-02) (129, 2.01334550976753234863e-01) (130, -1.83952867984771728516e-01) (131, -7.13742077350616455078e-02) (132, -2.88561098277568817139e-02) (133, -7.16167222708463668823e-03) (134, 1.01019747555255889893e-01) (135, -8.28462764620780944824e-02) (136, 3.66635948419570922852e-01) (137, -1.81207984685897827148e-01) (138, 2.00337857007980346680e-01) (139, -2.08402983844280242920e-03) (140, -7.31593593955039978027e-02) (141, 1.75170749425888061523e-01) (142, 3.28861713409423828125e-01) (143, 3.19692969322204589844e-01) (144, 2.33397200703620910645e-01) (145, 2.00948297977447509766e-01) (146, 3.46547365188598632812e-01) (147, 4.50263082981109619141e-01) (148, 2.95265972614288330078e-01) (149, 7.52157330513000488281e-01) (150, 4.25601989030838012695e-01) (151, 3.34641695022583007812e-01) (152, 2.29742377996444702148e-01) (153, 1.36049881577491760254e-01) (154, 9.12738069891929626465e-02) (155, 3.22620570659637451172e-02) (156, 2.90371719747781753540e-02) (157, 1.22001528739929199219e-01) (158, 4.44387137889862060547e-01) (159, -1.01760640740394592285e-01) (160, 5.98086267709732055664e-02) (161, -8.97426754236221313477e-02) (162, 1.22958630323410034180e-01) (163, 9.45380479097366333008e-02) (164, 1.16654291749000549316e-01) (165, 4.56092804670333862305e-01) (166, 2.45970994234085083008e-01) (167, 2.31547594070434570312e-01) (168, 3.22557389736175537109e-01) (169, 6.28016650676727294922e-01) (170, 3.64503115415573120117e-01) (171, 3.65503460168838500977e-01) (172, 3.05707246065139770508e-01) (173, 5.63258469104766845703e-01) (174, 1.83913230895996093750e-01) (175, 2.46924310922622680664e-01) (176, 2.39287748932838439941e-01) (177, 3.47846955060958862305e-01) (178, -5.19061803817749023438e-01) (179, 6.79484382271766662598e-02) (180, 8.19941833615303039551e-02) (181, 7.12483003735542297363e-02) (182, -8.54935720562934875488e-02) (183, 2.62214299291372299194e-02) (184, -3.66878241300582885742e-01) (185, -4.00523357093334197998e-02) (186, 5.55463694036006927490e-02) (187, -6.93782567977905273438e-02) (188, 1.18940114974975585938e-01) (189, 2.71746758371591567993e-02) (190, 1.41966536641120910645e-01) (191, 3.54552157223224639893e-02) (192, 1.50290774181485176086e-02) (193, -6.14893250167369842529e-02) (194, -2.06834331154823303223e-01) (195, -7.64219164848327636719e-02) (196, -6.09343200922012329102e-02) (197, 1.74450218677520751953e-01) (198, -4.94467377662658691406e-01) (199, -1.75105080008506774902e-01) (200, -2.01712533831596374512e-01) (0, 9.74102094769477844238e-02) (1, 8.09799060225486755371e-02) (2, -7.64355584979057312012e-02) (3, -7.12839066982269287109e-02) (4, -1.41168134286999702454e-02) (5, -4.96117817237973213196e-03) (6, -1.56984373927116394043e-01) (7, -2.47866511344909667969e-01) (8, -4.85042124986648559570e-01) (9, -2.49283969402313232422e-01) (10, -2.76936888694763183594e-01) (11, -5.87753206491470336914e-03) (12, 1.71640023589134216309e-01) (13, 9.82442051172256469727e-02) (14, 1.16885289549827575684e-01) (15, 8.70351120829582214355e-02) (16, -2.04036071896553039551e-01) (17, -3.14332917332649230957e-02) (18, -9.71684604883193969727e-02) (19, -2.85267047584056854248e-02) (20, -3.11202351003885269165e-02) (21, -5.03247790038585662842e-02) (22, 5.22075705230236053467e-02) (23, -1.11384972929954528809e-01) (24, 3.70621532201766967773e-01) (25, -3.59049022197723388672e-01) (26, -5.83981454372406005859e-01) (27, -1.25845253467559814453e-01) (28, -4.35921460390090942383e-01) (29, -5.22566020488739013672e-01) (30, -2.21422657370567321777e-01) (31, 1.02537199854850769043e-01) (32, -9.90595892071723937988e-02) (33, 1.98610335588455200195e-01) (34, 1.53558135032653808594e-01) (35, 6.86953887343406677246e-02) (36, -5.07495962083339691162e-02) (37, -3.67588140070438385010e-02) (38, -5.56506179273128509521e-02) (39, 9.76122170686721801758e-03) (40, -1.94511096924543380737e-02) (41, -2.44146883487701416016e-02) (42, 2.72459462285041809082e-02) (43, -9.02192145586013793945e-02) (44, -2.78324753046035766602e-01) (45, -2.71966576576232910156e-01) (46, -6.55172690749168395996e-02) (47, 1.56928628683090209961e-01) (48, 5.36128357052803039551e-02) (49, -2.29760762304067611694e-02) (50, 3.01174614578485488892e-02) (51, -1.51227861642837524414e-01) (52, -7.24633991718292236328e-01) (53, 9.06731933355331420898e-03) (54, -2.25692495703697204590e-01) (55, -7.68833383917808532715e-02) (56, 1.39541849493980407715e-01) (57, 1.85239583253860473633e-01) (58, 5.23112475872039794922e-01) (59, 1.72237511724233627319e-02) (60, 3.86685803532600402832e-02) (61, -1.04584813117980957031e-01) (62, 1.89887136220932006836e-01) (63, 2.02350407838821411133e-01) (64, -2.01791778206825256348e-01) (65, 6.66533261537551879883e-02) (66, -1.33325517177581787109e-01) (67, -1.03027850389480590820e-01) (68, -2.11760878562927246094e-01) (69, -2.13610492646694183350e-02) (70, 7.05074369907379150391e-02) (71, -7.30381682515144348145e-02) (72, -2.24895596504211425781e-01) (73, -2.06080690026283264160e-01) (74, -1.81948855519294738770e-01) (75, -8.89119207859039306641e-02) (76, 9.25435405224561691284e-03) (77, -3.59494797885417938232e-02) (78, 5.50698041915893554688e-01) (79, 6.60687536001205444336e-02) (80, -9.52317286282777786255e-03) (81, 1.05096086859703063965e-01) (82, 3.33711326122283935547e-01) (83, 1.94260910153388977051e-01) (84, -2.72578239440917968750e-01) (85, -5.27481362223625183105e-02) (86, 3.81342768669128417969e-01) (87, 8.86771976947784423828e-02) (88, -1.51342615485191345215e-01) (89, -3.22006374597549438477e-01) (90, 2.67932713031768798828e-01) (91, 4.72471505403518676758e-01) (92, 3.72220486402511596680e-01) (93, 1.73169940710067749023e-01) (94, -3.65852750837802886963e-02) (95, -3.13117764890193939209e-02) (96, 5.63220679759979248047e-02) (97, 2.52609938383102416992e-01) (98, 1.93785265088081359863e-01) (99, 5.77343106269836425781e-01) (100, 1.19543075561523437500e-02) (101, 1.00181154906749725342e-01) (102, 8.20585265755653381348e-02) (103, -9.63115841150283813477e-02) (104, -1.88148375600576400757e-02) (105, -1.13023228943347930908e-01) (106, -8.37194360792636871338e-03) (107, 1.95277035236358642578e-01) (108, 6.63467508275061845779e-04) (109, -2.29474604129791259766e-01) (110, 3.97551596164703369141e-01) (111, 7.79910236597061157227e-02) (112, 3.20346355438232421875e-01) (113, 3.24557989835739135742e-01) (114, 2.52059072256088256836e-01) (115, 8.40861946344375610352e-02) (116, 3.48654054105281829834e-02) (117, 2.47462421655654907227e-01) (118, 2.53552734851837158203e-01) (119, -4.30475408211350440979e-03) (120, -4.67087775468826293945e-02) (121, 1.15447878837585449219e-01) (122, -7.02452962286770343781e-04) (123, -2.14513856917619705200e-02) (124, 1.16076674312353134155e-02) (125, -7.27003673091530799866e-03) (126, -1.38815209269523620605e-01) (127, 5.03753982484340667725e-02) (128, -1.03381425142288208008e-01) (129, -5.74537336826324462891e-01) (130, -4.30750334635376930237e-03) (131, 6.28099381923675537109e-01) (132, 6.68393000960350036621e-02) (133, 2.58814275264739990234e-01) (134, 2.70580351352691650391e-02) (135, 2.54292756319046020508e-01) (136, -1.80554419755935668945e-01) (137, 4.77597802877426147461e-01) (138, 4.26567733287811279297e-01) (139, 2.01769188046455383301e-01) (140, 7.30346515774726867676e-02) (141, 9.56962034106254577637e-02) (142, -1.50766819715499877930e-01) (143, 4.42932099103927612305e-01) (144, -2.10469570010900497437e-02) (145, 2.14980728924274444580e-02) (146, 5.27362152934074401855e-02) (147, 2.56789654493331909180e-01) (148, 2.15982869267463684082e-01) (149, -3.42013984918594360352e-01) (150, -6.02753693237900733948e-03) (151, -1.68867453932762145996e-01) (152, -1.93398758769035339355e-01) (153, 1.48303180932998657227e-01) (154, -2.44664654135704040527e-01) (155, 2.85647660493850708008e-01) (156, 2.81449019908905029297e-01) (157, 1.61077842116355895996e-01) (158, 2.92554527521133422852e-01) (159, -3.25895771384239196777e-02) (160, 1.55609086155891418457e-01) (161, 3.76708388328552246094e-01) (162, -4.88361082971096038818e-02) (163, 2.13999107480049133301e-01) (164, 1.07235930860042572021e-01) (165, 2.63084560632705688477e-01) (166, 1.98547035455703735352e-01) (167, -1.29596218466758728027e-01) (168, 2.44652301073074340820e-01) (169, -3.82779568433761596680e-01) (170, 