FANN_FLO_2.1
num_layers=4
learning_rate=0.700000
connection_rate=1.000000
network_type=0
learning_momentum=0.000000
training_algorithm=0
train_error_function=1
train_stop_function=0
cascade_output_change_fraction=0.010000
quickprop_decay=-0.000100
quickprop_mu=1.750000
rprop_increase_factor=1.200000
rprop_decrease_factor=0.500000
rprop_delta_min=0.000000
rprop_delta_max=50.000000
rprop_delta_zero=0.100000
cascade_output_stagnation_epochs=12
cascade_candidate_change_fraction=0.010000
cascade_candidate_stagnation_epochs=12
cascade_max_out_epochs=150
cascade_max_cand_epochs=150
cascade_num_candidate_groups=2
bit_fail_limit=3.49999994039535522461e-01
cascade_candidate_limit=1.00000000000000000000e+03
cascade_weight_multiplier=4.00000005960464477539e-01
cascade_activation_functions_count=10
cascade_activation_functions=3 5 7 8 10 11 14 15 16 17 
cascade_activation_steepnesses_count=4
cascade_activation_steepnesses=2.50000000000000000000e-01 5.00000000000000000000e-01 7.50000000000000000000e-01 1.00000000000000000000e+00 
layer_sizes=151 71 31 7 
scale_included=0
neurons (num_inputs, activation_function, activation_steepness)=(0, 0, 0.00000000000000000000e+00) (0, 0, 0.00000000000000000000e+00) (0, 0, 0.00000000000000000000e+00) (0, 0, 0.00000000000000000000e+00) (0, 0, 0.00000000000000000000e+00) (0, 0, 0.00000000000000000000e+00) (0, 0, 0.00000000000000000000e+00) (0, 0, 0.00000000000000000000e+00) (0, 0, 0.00000000000000000000e+00) (0, 0, 0.00000000000000000000e+00) (0, 0, 0.00000000000000000000e+00) (0, 0, 0.00000000000000000000e+00) (0, 0, 0.00000000000000000000e+00) (0, 0, 0.00000000000000000000e+00) (0, 0, 0.00000000000000000000e+00) (0, 0, 0.00000000000000000000e+00) (0, 0, 0.00000000000000000000e+00) (0, 0, 0.00000000000000000000e+00) (0, 0, 0.00000000000000000000e+00) (0, 0, 0.00000000000000000000e+00) (0, 0, 0.00000000000000000000e+00) (0, 0, 0.00000000000000000000e+00) (0, 0, 0.00000000000000000000e+00) (0, 0, 0.00000000000000000000e+00) (0, 0, 0.00000000000000000000e+00) (0, 0, 0.00000000000000000000e+00) (0, 0, 0.00000000000000000000e+00) (0, 0, 0.00000000000000000000e+00) (0, 0, 0.00000000000000000000e+00) (0, 0, 0.00000000000000000000e+00) (0, 0, 0.00000000000000000000e+00) (0, 0, 0.00000000000000000000e+00) (0, 0, 0.00000000000000000000e+00) (0, 0, 0.00000000000000000000e+00) (0, 0, 0.00000000000000000000e+00) (0, 0, 0.00000000000000000000e+00) (0, 0, 0.00000000000000000000e+00) (0, 0, 0.00000000000000000000e+00) (0, 0, 0.00000000000000000000e+00) (0, 0, 0.00000000000000000000e+00) (0, 0, 0.00000000000000000000e+00) (0, 0, 0.00000000000000000000e+00) (0, 0, 0.00000000000000000000e+00) (0, 0, 0.00000000000000000000e+00) (0, 0, 0.00000000000000000000e+00) (0, 0, 0.00000000000000000000e+00) (0, 0, 0.00000000000000000000e+00) (0, 0, 0.00000000000000000000e+00) (0, 0, 0.00000000000000000000e+00) (0, 0, 0.00000000000000000000e+00) (0, 0, 0.00000000000000000000e+00) (0, 0, 0.00000000000000000000e+00) (0, 0, 0.00000000000000000000e+00) (0, 0, 0.00000000000000000000e+00) (0, 0, 0.00000000000000000000e+00) (0, 0, 0.00000000000000000000e+00) (0, 0, 0.00000000000000000000e+00) (0, 0, 0.00000000000000000000e+00) (0, 0, 0.00000000000000000000e+00) (0, 0, 0.00000000000000000000e+00) (0, 0, 0.00000000000000000000e+00) (0, 0, 0.00000000000000000000e+00) (0, 0, 0.00000000000000000000e+00) (0, 0, 0.00000000000000000000e+00) (0, 0, 0.00000000000000000000e+00) (0, 0, 0.00000000000000000000e+00) (0, 0, 0.00000000000000000000e+00) (0, 0, 0.00000000000000000000e+00) (0, 0, 0.00000000000000000000e+00) (0, 0, 0.00000000000000000000e+00) (0, 0, 0.00000000000000000000e+00) (0, 0, 0.00000000000000000000e+00) (0, 0, 0.00000000000000000000e+00) (0, 0, 0.00000000000000000000e+00) (0, 0, 0.00000000000000000000e+00) (0, 0, 0.00000000000000000000e+00) (0, 0, 0.00000000000000000000e+00) (0, 0, 0.00000000000000000000e+00) (0, 0, 0.00000000000000000000e+00) (0, 0, 0.00000000000000000000e+00) (0, 0, 0.00000000000000000000e+00) (0, 0, 0.00000000000000000000e+00) (0, 0, 0.00000000000000000000e+00) (0, 0, 0.00000000000000000000e+00) (0, 0, 0.00000000000000000000e+00) (0, 0, 0.00000000000000000000e+00) (0, 0, 0.00000000000000000000e+00) (0, 0, 0.00000000000000000000e+00) (0, 0, 0.00000000000000000000e+00) (0, 0, 0.00000000000000000000e+00) (0, 0, 0.00000000000000000000e+00) (0, 0, 0.00000000000000000000e+00) (0, 0, 0.00000000000000000000e+00) (0, 0, 0.00000000000000000000e+00) (0, 0, 0.00000000000000000000e+00) (0, 0, 0.00000000000000000000e+00) (0, 0, 0.00000000000000000000e+00) (0, 0, 0.00000000000000000000e+00) (0, 0, 0.00000000000000000000e+00) (0, 0, 0.00000000000000000000e+00) (0, 0, 0.00000000000000000000e+00) (0, 0, 0.00000000000000000000e+00) (0, 0, 0.00000000000000000000e+00) (0, 0, 0.00000000000000000000e+00) (0, 0, 0.00000000000000000000e+00) (0, 0, 0.00000000000000000000e+00) (0, 0, 0.00000000000000000000e+00) (0, 0, 0.00000000000000000000e+00) (0, 0, 0.00000000000000000000e+00) (0, 0, 0.00000000000000000000e+00) (0, 0, 0.00000000000000000000e+00) (0, 0, 0.00000000000000000000e+00) (0, 0, 0.00000000000000000000e+00) (0, 0, 0.00000000000000000000e+00) (0, 0, 0.00000000000000000000e+00) (0, 0, 0.00000000000000000000e+00) (0, 0, 0.00000000000000000000e+00) (0, 0, 0.00000000000000000000e+00) (0, 0, 0.00000000000000000000e+00) (0, 0, 0.00000000000000000000e+00) (0, 0, 0.00000000000000000000e+00) (0, 0, 0.00000000000000000000e+00) (0, 0, 0.00000000000000000000e+00) (0, 0, 0.00000000000000000000e+00) (0, 0, 0.00000000000000000000e+00) (0, 0, 0.00000000000000000000e+00) (0, 0, 0.00000000000000000000e+00) (0, 0, 0.00000000000000000000e+00) (0, 0, 0.00000000000000000000e+00) (0, 0, 0.00000000000000000000e+00) (0, 0, 0.00000000000000000000e+00) (0, 0, 0.00000000000000000000e+00) (0, 0, 0.00000000000000000000e+00) (0, 0, 0.00000000000000000000e+00) (0, 0, 0.00000000000000000000e+00) (0, 0, 0.00000000000000000000e+00) (0, 0, 0.00000000000000000000e+00) (0, 0, 0.00000000000000000000e+00) (0, 0, 0.00000000000000000000e+00) (0, 0, 0.00000000000000000000e+00) (0, 0, 0.00000000000000000000e+00) (0, 0, 0.00000000000000000000e+00) (0, 0, 0.00000000000000000000e+00) (0, 0, 0.00000000000000000000e+00) (0, 0, 0.00000000000000000000e+00) (0, 0, 0.00000000000000000000e+00) (0, 0, 0.00000000000000000000e+00) (0, 0, 0.00000000000000000000e+00) (0, 0, 0.00000000000000000000e+00) (0, 0, 0.00000000000000000000e+00) (0, 0, 0.00000000000000000000e+00) (151, 6, 5.00000000000000000000e-01) (151, 6, 5.00000000000000000000e-01) (151, 6, 5.00000000000000000000e-01) (151, 6, 5.00000000000000000000e-01) (151, 6, 5.00000000000000000000e-01) (151, 6, 5.00000000000000000000e-01) (151, 6, 5.00000000000000000000e-01) (151, 6, 5.00000000000000000000e-01) (151, 6, 5.00000000000000000000e-01) (151, 6, 5.00000000000000000000e-01) (151, 6, 5.00000000000000000000e-01) (151, 6, 5.00000000000000000000e-01) (151, 6, 5.00000000000000000000e-01) (151, 6, 5.00000000000000000000e-01) (151, 6, 5.00000000000000000000e-01) (151, 6, 5.00000000000000000000e-01) (151, 6, 5.00000000000000000000e-01) (151, 6, 5.00000000000000000000e-01) (151, 6, 5.00000000000000000000e-01) (151, 6, 5.00000000000000000000e-01) (151, 6, 5.00000000000000000000e-01) (151, 6, 5.00000000000000000000e-01) (151, 6, 5.00000000000000000000e-01) (151, 6, 5.00000000000000000000e-01) (151, 6, 5.00000000000000000000e-01) (151, 6, 5.00000000000000000000e-01) (151, 6, 5.00000000000000000000e-01) (151, 6, 5.00000000000000000000e-01) (151, 6, 5.00000000000000000000e-01) (151, 6, 5.00000000000000000000e-01) (151, 6, 5.00000000000000000000e-01) (151, 6, 5.00000000000000000000e-01) (151, 6, 5.00000000000000000000e-01) (151, 6, 5.00000000000000000000e-01) (151, 6, 5.00000000000000000000e-01) (151, 6, 5.00000000000000000000e-01) (151, 6, 5.00000000000000000000e-01) (151, 6, 5.00000000000000000000e-01) (151, 6, 5.00000000000000000000e-01) (151, 6, 5.00000000000000000000e-01) (151, 6, 5.00000000000000000000e-01) (151, 6, 5.00000000000000000000e-01) (151, 6, 5.00000000000000000000e-01) (151, 6, 5.00000000000000000000e-01) (151, 6, 5.00000000000000000000e-01) (151, 6, 5.00000000000000000000e-01) (151, 6, 5.00000000000000000000e-01) (151, 6, 5.00000000000000000000e-01) (151, 6, 5.00000000000000000000e-01) (151, 6, 5.00000000000000000000e-01) (151, 6, 5.00000000000000000000e-01) (151, 6, 5.00000000000000000000e-01) (151, 6, 5.00000000000000000000e-01) (151, 6, 5.00000000000000000000e-01) (151, 6, 5.00000000000000000000e-01) (151, 6, 5.00000000000000000000e-01) (151, 6, 5.00000000000000000000e-01) (151, 6, 5.00000000000000000000e-01) (151, 6, 5.00000000000000000000e-01) (151, 6, 5.00000000000000000000e-01) (151, 6, 5.00000000000000000000e-01) (151, 6, 5.00000000000000000000e-01) (151, 6, 5.00000000000000000000e-01) (151, 6, 5.00000000000000000000e-01) (151, 6, 5.00000000000000000000e-01) (151, 6, 5.00000000000000000000e-01) (151, 6, 5.00000000000000000000e-01) (151, 6, 5.00000000000000000000e-01) (151, 6, 5.00000000000000000000e-01) (151, 6, 5.00000000000000000000e-01) (0, 6, 0.00000000000000000000e+00) (71, 6, 5.00000000000000000000e-01) (71, 6, 5.00000000000000000000e-01) (71, 6, 5.00000000000000000000e-01) (71, 6, 5.00000000000000000000e-01) (71, 6, 5.00000000000000000000e-01) (71, 6, 5.00000000000000000000e-01) (71, 6, 5.00000000000000000000e-01) (71, 6, 5.00000000000000000000e-01) (71, 6, 5.00000000000000000000e-01) (71, 6, 5.00000000000000000000e-01) (71, 6, 5.00000000000000000000e-01) (71, 6, 5.00000000000000000000e-01) (71, 6, 5.00000000000000000000e-01) (71, 6, 5.00000000000000000000e-01) (71, 6, 5.00000000000000000000e-01) (71, 6, 5.00000000000000000000e-01) (71, 6, 5.00000000000000000000e-01) (71, 6, 5.00000000000000000000e-01) (71, 6, 5.00000000000000000000e-01) (71, 6, 5.00000000000000000000e-01) (71, 6, 5.00000000000000000000e-01) (71, 6, 5.00000000000000000000e-01) (71, 6, 5.00000000000000000000e-01) (71, 6, 5.00000000000000000000e-01) (71, 6, 5.00000000000000000000e-01) (71, 6, 5.00000000000000000000e-01) (71, 6, 5.00000000000000000000e-01) (71, 6, 5.00000000000000000000e-01) (71, 6, 5.00000000000000000000e-01) (71, 6, 5.00000000000000000000e-01) (0, 6, 0.00000000000000000000e+00) (31, 3, 5.00000000000000000000e-01) (31, 3, 5.00000000000000000000e-01) (31, 3, 5.00000000000000000000e-01) (31, 3, 5.00000000000000000000e-01) (31, 3, 5.00000000000000000000e-01) (31, 3, 5.00000000000000000000e-01) (0, 3, 0.00000000000000000000e+00) 
connections (connected_to_neuron, weight)=(0, 7.93533515930175781250e+00) (1, -3.76347512006759643555e-01) (2, 8.70609283447265625000e+00) (3, -7.04576134681701660156e-01) (4, 4.19699335098266601562e+00) (5, 4.03112500905990600586e-01) (6, 2.01331877708435058594e+00) (7, 6.78043901920318603516e-01) (8, 7.90322721004486083984e-01) (9, 1.33460497856140136719e+00) (10, -2.20011234283447265625e+00) (11, 1.67833292484283447266e+00) (12, -5.15544652938842773438e-01) (13, 3.47099542617797851562e+00) (14, -2.30774998664855957031e+00) (15, 3.62897396087646484375e+00) (16, 5.56368231773376464844e-01) (17, 3.35148644447326660156e+00) (18, -1.03152525424957275391e+00) (19, 3.40679836273193359375e+00) (20, -2.80617117881774902344e+00) (21, 2.09916996955871582031e+00) (22, -3.93497586250305175781e+00) (23, 2.62361836433410644531e+00) (24, -2.11971998214721679688e+00) (25, 1.65219855308532714844e+00) (26, -3.41959238052368164062e+00) (27, 9.69363689422607421875e-01) (28, -2.72979712486267089844e+00) (29, -4.63359087705612182617e-01) (30, -1.00110018253326416016e+00) (31, -4.15443134307861328125e+00) (32, -3.14272671937942504883e-01) (33, -2.15288400650024414062e+00) (34, -1.16532993316650390625e+00) (35, -1.50859224796295166016e+00) (36, -1.28161251544952392578e+00) (37, -1.07882273197174072266e+00) (38, -1.73500585556030273438e+00) (39, -6.26727938652038574219e-01) (40, -3.60405993461608886719e+00) (41, 3.36939036846160888672e-01) (42, -3.21696925163269042969e+00) (43, 9.84123945236206054688e-02) (44, -1.90627014636993408203e+00) (45, 1.55520558357238769531e-01) (46, -1.97594583034515380859e+00) (47, 1.12406313419342041016e+00) (48, -2.03760676085948944092e-02) (49, 3.58334946632385253906e+00) (50, -1.46620893478393554688e+00) (51, 3.35893154144287109375e+00) (52, -1.99491155147552490234e+00) (53, 3.79514575004577636719e+00) (54, -2.76574373245239257812e+00) (55, 4.98841404914855957031e-01) (56, -3.33296513557434082031e+00) (57, 5.34139871597290039062e-01) (58, -2.25182032585144042969e+00) (59, -1.58944559097290039062e+00) (60, -3.06264710426330566406e+00) (61, 3.32975298166275024414e-01) (62, -2.63539195060729980469e+00) (63, 1.36803007125854492188e+00) (64, -5.83420872688293457031e-01) (65, -3.38153541088104248047e-01) (66, -4.22840148210525512695e-01) (67, -2.12317258119583129883e-02) (68, -6.75897419452667236328e-01) (69, 8.31404864788055419922e-01) (70, -1.79574143886566162109e+00) (71, 2.18461990356445312500e-01) (72, -1.62239801883697509766e+00) (73, 5.08732616901397705078e-01) (74, 4.24279332160949707031e-01) (75, -2.40313366055488586426e-01) (76, 3.03899925202131271362e-02) (77, 7.33385026454925537109e-01) (78, -2.35373482108116149902e-01) (79, -4.31334599852561950684e-02) (80, 9.47977006435394287109e-02) (81, 6.58296406269073486328e-01) (82, 3.77241730690002441406e-01) (83, 5.71267426013946533203e-01) (84, 3.04618060588836669922e-01) (85, 1.00045347213745117188e+00) (86, -1.66955143213272094727e-01) (87, 6.10575675964355468750e-01) (88, -2.15431794524192810059e-01) (89, 8.66862833499908447266e-01) (90, -1.24737471342086791992e-01) (91, 1.29386889934539794922e+00) (92, -5.43451644480228424072e-02) (93, 1.43119013309478759766e+00) (94, 7.32114687561988830566e-02) (95, 1.47053766250610351562e+00) (96, 3.71969074010848999023e-01) (97, 1.15239202976226806641e+00) (98, 5.93756139278411865234e-01) (99, 7.32654333114624023438e-01) (100, 5.99247694015502929688e-01) (101, 8.14720034599304199219e-01) (102, 5.27839183807373046875e-01) (103, 4.24804687500000000000e-01) (104, 5.26441216468811035156e-01) (105, 4.58983052521944046021e-03) (106, 4.65166419744491577148e-01) (107, -1.25914201140403747559e-01) (108, 6.92508637905120849609e-01) (109, -5.45594930648803710938e-01) (110, 9.69834506511688232422e-01) (111, -8.64665389060974121094e-01) (112, 8.02753388881683349609e-01) (113, -9.02200520038604736328e-01) (114, 8.03174436092376708984e-01) (115, -1.09156644344329833984e+00) (116, 1.30555319786071777344e+00) (117, -1.26137447357177734375e+00) (118, 1.16068649291992187500e+00) (119, -1.44069457054138183594e+00) (120, 1.11113727092742919922e+00) (121, -1.65471971035003662109e+00) (122, 7.91440606117248535156e-01) (123, -1.67352712154388427734e+00) (124, 6.54698550701141357422e-01) (125, -1.91006863117218017578e+00) (126, 2.63634145259857177734e-01) (127, -1.77656126022338867188e+00) (128, 3.46513271331787109375e-01) (129, -1.93418458104133605957e-01) (130, 1.50903856754302978516e+00) (131, -9.96987342834472656250e-01) (132, 1.24095857143402099609e+00) (133, -9.21143174171447753906e-01) (134, 9.44033503532409667969e-01) (135, -7.59989976882934570312e-01) (136, 8.54880928993225097656e-01) (137, -9.62561070919036865234e-01) (138, 9.32860434055328369141e-01) (139, -1.22627842426300048828e+00) (140, 4.71150696277618408203e-01) (141, -1.19075262546539306641e+00) (142, 9.21861290931701660156e-01) (143, -5.44892311096191406250e-01) (144, 6.84341371059417724609e-01) (145, -4.47389245033264160156e-01) (146, 7.05341696739196777344e-01) (147, -4.19191926717758178711e-01) (148, 5.99355757236480712891e-01) (149, -4.56652343273162841797e-01) (150, -2.27006413042545318604e-02) (0, 5.98409557342529296875e+00) (1, -7.57241964340209960938e+00) (2, 6.27022075653076171875e+00) (3, -7.59453010559082031250e+00) (4, 3.09030604362487792969e+00) (5, -5.27339363098144531250e+00) (6, 1.99543273448944091797e+00) (7, -3.96951222419738769531e+00) (8, 1.20722854137420654297e+00) (9, -2.38046765327453613281e+00) (10, -1.05908975005149841309e-01) (11, -7.87589132785797119141e-01) (12, -5.39715468883514404297e-01) (13, 1.24718677997589111328e+00) (14, -1.27464139461517333984e+00) (15, 2.98781347274780273438e+00) (16, 1.60518682003021240234e+00) (17, 3.67218780517578125000e+00) (18, 1.05410552024841308594e+00) (19, 4.73113775253295898438e+00) (20, 2.04287424683570861816e-01) (21, 2.48710617423057556152e-01) (22, -7.47726798057556152344e-01) (23, 1.02669560909271240234e+00) (24, -1.15152895450592041016e+00) (25, 8.47209930419921875000e-01) (26, -1.97378325462341308594e+00) (27, 1.08678710460662841797e+00) (28, -1.09702277183532714844e+00) (29, 1.02455031871795654297e+00) (30, -1.60026931762695312500e+00) (31, -1.82950663566589355469e+00) (32, 1.58589518070220947266e+00) (33, -1.59177350997924804688e+00) (34, 1.55955278873443603516e+00) (35, -1.90038728713989257812e+00) (36, 1.46822690963745117188e+00) (37, 6.62600696086883544922e-01) (38, 3.88752251863479614258e-01) (39, -3.21074694395065307617e-01) (40, -8.65284740924835205078e-01) (41, 5.17445743083953857422e-01) (42, -1.73089230060577392578e+00) (43, 4.30579096078872680664e-01) (44, -2.89316534996032714844e-01) (45, -1.50093650817871093750e+00) (46, -4.72231060266494750977e-01) (47, -6.99540317058563232422e-01) (48, -1.30022242665290832520e-01) (49, 9.75727081298828125000e-01) (50, -1.80909490585327148438e+00) (51, 2.12833571434020996094e+00) (52, -1.33650159835815429688e+00) (53, 2.28473022580146789551e-01) (54, -1.57888185977935791016e+00) (55, -1.00626993179321289062e+00) (56, -2.33634281158447265625e+00) (57, -6.48363977670669555664e-02) (58, -5.32873928546905517578e-01) (59, -1.78979229927062988281e+00) (60, -2.57831954956054687500e+00) (61, -6.58569455146789550781e-01) (62, -4.03916931152343750000e+00) (63, -4.91317093372344970703e-01) (64, -2.10414457321166992188e+00) (65, -2.80241012573242187500e+00) (66, -1.56957113742828369141e+00) (67, -7.99804210662841796875e-01) (68, -9.82205033302307128906e-01) (69, -1.41404950618743896484e+00) (70, -2.77475762367248535156e+00) (71, -2.89108920097351074219e+00) (72, -2.02790546417236328125e+00) (73, -1.57997906208038330078e+00) (74, -7.59371519088745117188e-01) (75, -1.60636150836944580078e+00) (76, -5.45567929744720458984e-01) (77, -8.29398334026336669922e-01) (78, -7.31543600559234619141e-01) (79, -1.07404619455337524414e-01) (80, -8.29488456249237060547e-01) (81, -1.55431265011429786682e-02) (82, -5.54054677486419677734e-01) (83, -1.95120766758918762207e-01) (84, -7.77791678905487060547e-01) (85, 8.73296931385993957520e-02) (86, -8.49639236927032470703e-01) (87, 4.03578341007232666016e-01) (88, -1.15147435665130615234e+00) (89, 3.49043130874633789062e-01) (90, -2.17927008867263793945e-01) (91, 1.93750154972076416016e+00) (92, -4.27869796752929687500e-01) (93, 1.90045261383056640625e+00) (94, -7.05497324466705322266e-01) (95, 1.85849773883819580078e+00) (96, -1.09125196933746337891e+00) (97, 2.01352357864379882812e+00) (98, -1.52719008922576904297e+00) (99, 1.91519021987915039062e+00) (100, -1.68390822410583496094e+00) (101, 1.70138239860534667969e+00) (102, -1.05499398708343505859e+00) (103, 1.21492438018321990967e-01) (104, -9.65612411499023437500e-01) (105, 4.63000982999801635742e-01) (106, -1.02285802364349365234e+00) (107, 2.84190446138381958008e-01) (108, -4.98114466667175292969e-01) (109, -5.56004464626312255859e-01) (110, -7.27412760257720947266e-01) (111, -5.76737463474273681641e-01) (112, -1.37039387226104736328e+00) (113, -5.43986737728118896484e-01) (114, -1.24622488021850585938e+00) (115, -4.17325377464294433594e-01) (116, -7.27532804012298583984e-01) (117, -1.03200900554656982422e+00) (118, -1.00204873085021972656e+00) (119, -1.10471498966217041016e+00) (120, -1.02983856201171875000e+00) (121, -1.05247259140014648438e+00) (122, -1.58747589588165283203e+00) (123, -1.16444361209869384766e+00) (124, -1.51680123805999755859e+00) (125, -1.19523036479949951172e+00) (126, -1.85124814510345458984e+00) (127, -1.19073891639709472656e+00) (128, -1.47580254077911376953e+00) (129, -6.91561400890350341797e-02) (130, -7.02258586883544921875e-01) (131, -2.20720827579498291016e-01) (132, -8.64484310150146484375e-01) (133, 7.56369251757860183716e-03) (134, -9.20527398586273193359e-01) (135, 4.69765290617942810059e-02) (136, -1.03340244293212890625e+00) (137, 1.70625776052474975586e-01) (138, -7.28995323181152343750e-01) (139, -1.25364765524864196777e-01) (140, -7.13159739971160888672e-01) (141, -1.33330717682838439941e-01) (142, -7.12440550327301025391e-01) (143, -3.78844171762466430664e-01) (144, -8.77788841724395751953e-01) (145, 2.11534991860389709473e-01) (146, -1.03923106193542480469e+00) (147, 8.87731015682220458984e-02) (148, -1.36348819732666015625e+00) (149, 3.07714402675628662109e-01) (150, -2.94369854964315891266e-03) (0, -1.17929449081420898438e+01) (1, -1.94704234600067138672e+00) (2, -1.22667713165283203125e+01) (3, -8.40181589126586914062e-01) (4, -7.02686405181884765625e+00) (5, -2.60909628868103027344e+00) (6, -4.71490716934204101562e+00) (7, -1.85581123828887939453e+00) (8, -3.37634229660034179688e+00) (9, -1.96675789356231689453e+00) (10, -2.42495536804199218750e-01) (11, -7.61506795883178710938e-01) (12, -1.60276627540588378906e+00) (13, -1.04731500148773193359e+00) (14, 2.19563722610473632812e-01) (15, -7.89573371410369873047e-01) (16, -4.45232772827148437500e+00) (17, 1.06666588783264160156e+00) (18, -2.67515301704406738281e+00) (19, 1.25774049758911132812e+00) (20, -1.26842689514160156250e+00) (21, -1.40029981732368469238e-01) (22, 7.97577917575836181641e-01) (23, 1.31740257143974304199e-01) (24, 2.30838990211486816406e+00) (25, 1.80799770355224609375e+00) (26, 2.24177169799804687500e+00) (27, 1.54040408134460449219e+00) (28, 2.14075374603271484375e+00) (29, 1.54181706905364990234e+00) (30, 1.77799332141876220703e+00) (31, 4.96921718120574951172e-01) (32, -1.80450105667114257812e+00) (33, -1.12370753288269042969e+00) (34, -4.06418502330780029297e-01) (35, 4.84551936388015747070e-01) (36, 1.56613498926162719727e-01) (37, 8.01791489124298095703e-01) (38, 2.04694938659667968750e+00) (39, 2.36731934547424316406e+00) (40, 5.51302850246429443359e-01) (41, 2.49742197990417480469e+00) (42, -1.52649450302124023438e+00) (43, 1.29990780353546142578e+00) (44, 4.92046892642974853516e-01) (45, 2.02469778060913085938e+00) (46, -3.75784218311309814453e-01) (47, 1.68790256977081298828e+00) (48, -2.56134533882141113281e+00) (49, -1.57516062259674072266e+00) (50, -1.88222777843475341797e+00) (51, -4.25323629379272460938e+00) (52, -1.98633813858032226562e+00) (53, -3.16146463155746459961e-01) (54, 1.12479496002197265625e+00) (55, 1.35464096069335937500e+00) (56, 2.82110238075256347656e+00) (57, 2.88346260786056518555e-01) (58, 2.47911676764488220215e-01) (59, 4.49132776260375976562e+00) (60, 3.25537371635437011719e+00) (61, 1.46005213260650634766e+00) (62, 3.46990537643432617188e+00) (63, 3.91823500394821166992e-01) (64, 1.76982128620147705078e+00) (65, 2.81062221527099609375e+00) (66, 1.30322551727294921875e+00) (67, 9.75694239139556884766e-01) (68, 2.35146832466125488281e+00) (69, 5.84566354751586914062e-01) (70, 3.15889835357666015625e+00) (71, 1.21073651313781738281e+00) (72, 3.01168942451477050781e+00) (73, 6.66385054588317871094e-01) (74, 2.18916559219360351562e+00) (75, 2.08955615758895874023e-01) (76, 1.74742043018341064453e+00) (77, -4.79321241378784179688e-01) (78, 2.19005060195922851562e+00) (79, -2.04511538147926330566e-01) (80, 1.55490195751190185547e+00) (81, -7.30613887310028076172e-01) (82, 8.86451542377471923828e-01) (83, -5.58172106742858886719e-01) (84, 9.37755644321441650391e-01) (85, -7.94732153415679931641e-01) (86, -8.99797379970550537109e-02) (87, -2.01968836784362792969e+00) (88, 3.85259836912155151367e-01) (89, -1.78100943565368652344e+00) (90, 2.19141364097595214844e-01) (91, -2.03748798370361328125e+00) (92, 3.27229350805282592773e-01) (93, -2.06930851936340332031e+00) (94, 3.49677056074142456055e-01) (95, -1.93628263473510742188e+00) (96, 5.98036527633666992188e-01) (97, -1.75101888179779052734e+00) (98, 8.74903738498687744141e-01) (99, -1.49734735488891601562e+00) (100, 8.66353154182434082031e-01) (101, -1.10316598415374755859e+00) (102, 2.15873032808303833008e-01) (103, 3.80904018878936767578e-01) (104, 9.69597995281219482422e-02) (105, 3.05267959833145141602e-01) (106, 4.59623485803604125977e-02) (107, 4.30417269468307495117e-01) (108, -9.73969846963882446289e-02) (109, 4.09174323081970214844e-01) (110, 3.42938810586929321289e-01) (111, 1.09122788906097412109e+00) (112, 4.95556980371475219727e-01) (113, 7.76460111141204833984e-01) (114, -7.93176367878913879395e-02) (115, -2.60109990835189819336e-01) (116, -1.17308759689331054688e+00) (117, 1.60891801118850708008e-01) (118, -1.05025064945220947266e+00) (119, -4.09048013389110565186e-02) (120, -1.09230887889862060547e+00) (121, -6.82779774069786071777e-02) (122, -7.57563889026641845703e-01) (123, 1.34888485074043273926e-01) (124, -8.36023926734924316406e-01) (125, 3.16727906465530395508e-01) (126, -4.91431295871734619141e-01) (127, 4.80963110923767089844e-01) (128, -3.99323105812072753906e-01) (129, -6.82508423924446105957e-02) (130, -9.42035257816314697266e-01) (131, 7.22429230809211730957e-02) (132, -8.09605181217193603516e-01) (133, -4.44609299302101135254e-02) (134, -5.75356900691986083984e-01) (135, -2.55487054586410522461e-01) (136, -3.12058478593826293945e-01) (137, 1.29422247409820556641e-01) (138, -4.97010320425033569336e-01) (139, 1.06605792045593261719e+00) (140, -2.85340487957000732422e-01) (141, 9.02661383152008056641e-01) (142, -4.05294895172119140625e-01) (143, 1.57182300090789794922e+00) (144, 6.30504414439201354980e-02) (145, 1.22578404843807220459e-01) (146, 1.66199579834938049316e-01) (147, 4.89177763462066650391e-01) (148, 6.49641811847686767578e-01) (149, 2.26802647113800048828e-01) (150, -8.60384926199913024902e-02) (0, -1.02933416366577148438e+01) (1, -1.61674451828002929688e+00) (2, -4.92258691787719726562e+00) (3, -1.13207340240478515625e+00) (4, -1.77985274791717529297e+00) (5, -7.76975601911544799805e-02) (6, 1.48887085914611816406e+00) (7, 5.88341116905212402344e-01) (8, 3.13123178482055664062e+00) (9, 6.63477122783660888672e-01) (10, 6.89427804946899414062e+00) (11, 1.61488854885101318359e+00) (12, 4.90712308883666992188e+00) (13, -1.44072696566581726074e-01) (14, 7.69748258590698242188e+00) (15, 4.76464927196502685547e-01) (16, 8.72213172912597656250e+00) (17, 3.62828701734542846680e-01) (18, 1.07341489791870117188e+01) (19, 7.05402910709381103516e-01) (20, 1.15539617538452148438e+01) (21, 2.66993880271911621094e+00) (22, 1.18193588256835937500e+01) (23, 2.41229820251464843750e+00) (24, 5.76332378387451171875e+00) (25, 2.12875580787658691406e+00) (26, 6.40529584884643554688e+00) (27, 5.83449316024780273438e+00) (28, 4.29694461822509765625e+00) (29, 8.03961277008056640625e+00) (30, 6.17229163646697998047e-01) (31, 1.49882326126098632812e+01) (32, -8.74540984630584716797e-01) (33, 1.13036880493164062500e+01) (34, 4.49310302734375000000e+00) (35, 7.95372200012207031250e+00) (36, 2.98888087272644042969e-01) (37, 1.13519010543823242188e+01) (38, 3.94273400306701660156e-02) (39, 1.12172164916992187500e+01) (40, 3.87551259994506835938e+00) (41, 9.76240158081054687500e+00) (42, 3.13786625862121582031e+00) (43, 1.02878513336181640625e+01) (44, -2.48804020881652832031e+00) (45, 1.05660390853881835938e+01) (46, -5.98760652542114257812e+00) (47, 7.70536470413208007812e+00) (48, -8.53660774230957031250e+00) (49, 4.35134983062744140625e+00) (50, -4.26328563690185546875e+00) (51, 5.38346767425537109375e+00) (52, -2.49455881118774414062e+00) (53, -2.51910805702209472656e+00) (54, -4.23380851745605468750e+00) (55, 3.68156743049621582031e+00) (56, -5.11766433715820312500e+00) (57, 5.52549314498901367188e+00) (58, -4.45790529251098632812e+00) (59, 8.99163436889648437500e+00) (60, -4.53360605239868164062e+00) (61, 6.34035253524780273438e+00) (62, -4.41164350509643554688e+00) (63, 7.22840785980224609375e+00) (64, -2.48508405685424804688e+00) (65, 4.98915147781372070312e+00) (66, -4.03212976455688476562e+00) (67, 5.27187633514404296875e+00) (68, -2.47220444679260253906e+00) (69, 2.34866261482238769531e+00) (70, -3.96020412445068359375e+00) (71, -2.21961688995361328125e+00) (72, -2.83284330368041992188e+00) (73, -9.16959941387176513672e-01) (74, -5.10854482650756835938e+00) (75, -1.29007232189178466797e+00) (76, -8.78733038902282714844e-01) (77, -2.85493373870849609375e+00) (78, -1.55980199575424194336e-01) (79, -3.75575929880142211914e-01) (80, -5.14694869518280029297e-01) (81, -8.89316439628601074219e-01) (82, -9.48890030384063720703e-01) (83, -2.97161579132080078125e+00) (84, 9.72632169723510742188e-02) (85, -3.37934970855712890625e+00) (86, -2.24553436040878295898e-01) (87, -3.35766148567199707031e+00) (88, -1.40327191352844238281e+00) (89, -5.13289499282836914062e+00) (90, -1.37322378158569335938e+00) (91, -4.49531364440917968750e+00) (92, -1.98727178573608398438e+00) (93, -4.11008739471435546875e+00) (94, -2.70170640945434570312e+00) (95, -4.37225770950317382812e+00) (96, -3.52593851089477539062e+00) (97, -2.48780393600463867188e+00) (98, -5.44931554794311523438e+00) (99, -1.43236184120178222656e+00) (100, -6.04887866973876953125e+00) (101, -1.08103656768798828125e+00) (102, -5.94873094558715820312e+00) (103, -1.15699064731597900391e+00) (104, -6.27495908737182617188e+00) (105, -1.84383884072303771973e-01) (106, -6.81761121749877929688e+00) (107, 2.59622693061828613281e-01) (108, -7.97613525390625000000e+00) (109, 8.36264967918395996094e-01) (110, -9.43926429748535156250e+00) (111, 2.28892064094543457031e+00) (112, -9.64253520965576171875e+00) (113, 3.00845742225646972656e+00) (114, -9.88720130920410156250e+00) (115, 3.58518958091735839844e+00) (116, -9.51078128814697265625e+00) (117, 2.56135082244873046875e+00) (118, -8.90788078308105468750e+00) (119, 3.09214925765991210938e+00) (120, -8.67519378662109375000e+00) (121, 3.07915520668029785156e+00) (122, -7.90819931030273437500e+00) (123, 3.35284447669982910156e+00) (124, -7.33300065994262695312e+00) (125, 3.80908846855163574219e+00) (126, -6.68968391418457031250e+00) (127, 3.76421260833740234375e+00) (128, -6.17619037628173828125e+00) (129, 3.14651870727539062500e+00) (130, -6.27005958557128906250e+00) (131, 3.88492393493652343750e+00) (132, -5.64291238784790039062e+00) (133, 4.34095287322998046875e+00) (134, -4.40246438980102539062e+00) (135, 4.24192476272583007812e+00) (136, -4.87670850753784179688e+00) (137, 3.31862187385559082031e+00) (138, -3.68428921699523925781e+00) (139, 3.19421005249023437500e+00) (140, -2.89537668228149414062e+00) (141, 3.86057257652282714844e+00) (142, -4.76838302612304687500e+00) (143, 1.20055639743804931641e+00) (144, -3.64718842506408691406e+00) (145, 8.08999061584472656250e-01) (146, -3.32251858711242675781e+00) (147, 1.01234185695648193359e+00) (148, -3.63966274261474609375e+00) (149, 1.55742657184600830078e+00) (150, 4.82403822243213653564e-02) (0, 1.18486917018890380859e+00) (1, 4.50832271575927734375e+00) (2, 3.26831221580505371094e+00) (3, 5.02878999710083007812e+00) (4, -1.55326890945434570312e+00) (5, 4.59561491012573242188e+00) (6, -2.98724651336669921875e+00) (7, 4.19444322586059570312e+00) (8, -4.02398443222045898438e+00) (9, 3.51635408401489257812e+00) (10, -6.09018659591674804688e+00) (11, 3.06854963302612304688e+00) (12, -4.68366765975952148438e+00) (13, 3.08585691452026367188e+00) (14, -5.73996591567993164062e+00) (15, 1.76073539257049560547e+00) (16, -4.50808095932006835938e+00) (17, 7.28889584541320800781e-01) (18, -5.64060831069946289062e+00) (19, 2.36985996365547180176e-01) (20, -6.12477684020996093750e+00) (21, 7.47960090637207031250e-01) (22, -6.83674287796020507812e+00) (23, 5.17655074596405029297e-01) (24, -4.15291643142700195312e+00) (25, -1.58998712897300720215e-01) (26, -6.62056350708007812500e+00) (27, -1.07706117630004882812e+00) (28, -5.15616559982299804688e+00) (29, -1.21109627187252044678e-01) (30, -3.26044321060180664062e+00) (31, -6.67016124725341796875e+00) (32, -3.77979969978332519531e+00) (33, -4.88839435577392578125e+00) (34, -3.45905542373657226562e+00) (35, -6.34345412254333496094e-02) (36, -2.89931201934814453125e+00) (37, -1.03435552120208740234e+00) (38, -8.85641694068908691406e-01) (39, 7.70026564598083496094e-01) (40, -3.69369411468505859375e+00) (41, 1.34208583831787109375e+00) (42, -4.28784370422363281250e+00) (43, 1.58120775222778320312e+00) (44, -3.84158039093017578125e+00) (45, 2.04798436164855957031e+00) (46, -5.06384420394897460938e+00) (47, 2.90936541557312011719e+00) (48, -3.53696560859680175781e+00) (49, 3.77466964721679687500e+00) (50, -4.36693286895751953125e+00) (51, 3.60576367378234863281e+00) (52, -5.47031784057617187500e+00) (53, 4.69719123840332031250e+00) (54, -3.54349780082702636719e+00) (55, -1.92209258675575256348e-01) (56, -3.60973024368286132812e+00) (57, -1.01948165893554687500e+00) (58, -4.39195108413696289062e+00) (59, -3.27047085762023925781e+00) (60, -2.94825744628906250000e+00) (61, -2.50264668464660644531e+00) (62, -1.26976454257965087891e+00) (63, -1.27695691585540771484e+00) (64, 2.68218445777893066406e+00) (65, 1.06700599193572998047e+00) (66, 2.19035935401916503906e+00) (67, 2.20507562160491943359e-01) (68, 2.34194231033325195312e+00) (69, 6.63553535938262939453e-01) (70, 2.26616907119750976562e+00) (71, 1.22542190551757812500e+00) (72, 2.43463611602783203125e+00) (73, 9.75271940231323242188e-01) (74, 2.74186778068542480469e+00) (75, 1.40154385566711425781e+00) (76, 1.53908896446228027344e+00) (77, 2.09039044380187988281e+00) (78, 1.40321540832519531250e+00) (79, 1.02184677124023437500e+00) (80, 9.28814053535461425781e-01) (81, 9.28106188774108886719e-01) (82, 1.66229486465454101562e+00) (83, 1.38324153423309326172e+00) (84, 1.40359747409820556641e+00) (85, 1.02712678909301757812e+00) (86, 1.50282800197601318359e+00) (87, 9.35904681682586669922e-01) (88, 1.12227809429168701172e+00) (89, 7.18237996101379394531e-01) (90, 1.48484385013580322266e+00) (91, 6.07618093490600585938e-01) (92, 1.59440028667449951172e+00) (93, 6.00181400775909423828e-01) (94, 1.97104489803314208984e+00) (95, 6.15059018135070800781e-01) (96, 2.16858100891113281250e+00) (97, 1.54422372579574584961e-01) (98, 2.53415203094482421875e+00) (99, 3.87320518493652343750e-02) (100, 2.65158319473266601562e+00) (101, 1.75369098782539367676e-01) (102, 8.11861932277679443359e-01) (103, 2.90088343620300292969e+00) (104, 9.53148722648620605469e-01) (105, 2.41764187812805175781e+00) (106, 8.72924923896789550781e-01) (107, 2.15877842903137207031e+00) (108, 1.27382040023803710938e+00) (109, 1.30777454376220703125e+00) (110, 1.53571927547454833984e+00) (111, 1.08014786243438720703e+00) (112, 1.40745246410369873047e+00) (113, 2.82912075519561767578e-01) (114, 1.64118707180023193359e+00) (115, 3.41179043054580688477e-01) (116, 1.56890368461608886719e+00) (117, 6.02315723896026611328e-01) (118, 1.46916854381561279297e+00) (119, 9.63775739073753356934e-02) (120, 1.73670077323913574219e+00) (121, -2.80027478933334350586e-01) (122, 1.87639856338500976562e+00) (123, -5.54102003574371337891e-01) (124, 2.12615633010864257812e+00) (125, -9.99446690082550048828e-01) (126, 2.08968400955200195312e+00) (127, -9.00290548801422119141e-01) (128, 2.63392615318298339844e+00) (129, -9.54816579818725585938e-01) (130, 2.48913908004760742188e+00) (131, -1.18238067626953125000e+00) (132, 2.68175959587097167969e+00) (133, -1.42970609664916992188e+00) (134, 2.34672045707702636719e+00) (135, -1.19949769973754882812e+00) (136, 2.32417225837707519531e+00) (137, -1.65498960018157958984e+00) (138, 2.25713849067687988281e+00) (139, -1.37197029590606689453e+00) (140, 2.08657026290893554688e+00) (141, -1.51979696750640869141e+00) (142, 1.52748799324035644531e+00) (143, -3.11262100934982299805e-01) (144, 1.19535565376281738281e+00) (145, -3.47537040710449218750e-01) (146, 1.06645393371582031250e+00) (147, 1.13598279654979705811e-01) (148, 1.52182769775390625000e+00) (149, 7.77521869167685508728e-03) (150, -9.48257222771644592285e-02) (0, -5.04457330703735351562e+00) (1, 1.98962917327880859375e+01) (2, -3.31485795974731445312e+00) (3, 1.77937698364257812500e+01) (4, -1.31668508052825927734e+00) (5, 1.45613994598388671875e+01) (6, -7.34537661075592041016e-01) (7, 1.08723974227905273438e+01) (8, -2.91690230369567871094e-02) (9, 7.01733684539794921875e+00) (10, 2.91350811719894409180e-01) (11, 2.80721473693847656250e+00) (12, 1.18116152286529541016e+00) (13, -2.14902782440185546875e+00) (14, 1.46996617317199707031e+00) (15, -5.97189998626708984375e+00) (16, 5.50915539264678955078e-01) (17, -9.85270309448242187500e+00) (18, 2.78741031885147094727e-01) (19, -1.27137737274169921875e+01) (20, 6.20527744293212890625e-01) (21, -1.57460486888885498047e+00) (22, 4.77423340082168579102e-01) (23, -3.99945211410522460938e+00) (24, 5.13086616992950439453e-01) (25, -6.39245843887329101562e+00) (26, 9.43854570388793945312e-01) (27, -5.48225975036621093750e+00) (28, -1.51425972580909729004e-01) (29, -3.66158509254455566406e+00) (30, 7.32692837715148925781e-01) (31, 5.16614151000976562500e+00) (32, -9.75739777088165283203e-01) (33, 5.17678642272949218750e+00) (34, -4.49833393096923828125e-01) (35, 7.53762340545654296875e+00) (36, -2.99278211593627929688e+00) (37, 4.25250577926635742188e+00) (38, -2.53391098976135253906e+00) (39, 4.88389396667480468750e+00) (40, -1.14192485809326171875e+00) (41, 1.50061225891113281250e+00) (42, 2.09604358673095703125e+00) (43, 3.20565962791442871094e+00) (44, -3.21360063552856445312e+00) (45, 5.63801670074462890625e+00) (46, -3.81852269172668457031e+00) (47, 3.17731356620788574219e+00) (48, -3.42616748809814453125e+00) (49, 8.91093134880065917969e-01) (50, -4.14017617702484130859e-01) (51, 2.03012847900390625000e+00) (52, -1.08078598976135253906e+00) (53, -1.73908948898315429688e+00) (54, -5.03055620193481445312e+00) (55, 1.04505395889282226562e+00) (56, -5.47997951507568359375e+00) (57, 1.60829377174377441406e+00) (58, -6.90976905822753906250e+00) (59, 7.97119855880737304688e-01) (60, -5.70568323135375976562e+00) (61, 2.78927553445100784302e-02) (62, -3.65325880050659179688e+00) (63, 9.83552396297454833984e-01) (64, 3.57387304306030273438e-01) (65, 1.34073662757873535156e+00) (66, 1.69437006115913391113e-01) (67, 1.45222723484039306641e+00) (68, -1.33486771583557128906e+00) (69, 1.43111109733581542969e+00) (70, 8.18983137607574462891e-01) (71, 3.41264867782592773438e+00) (72, 1.36879319325089454651e-02) (73, 2.23462963104248046875e+00) (74, -1.89308297634124755859e+00) (75, 1.53957748413085937500e+00) (76, 2.45634689927101135254e-01) (77, 1.33798909187316894531e+00) (78, 5.92602729797363281250e-01) (79, 1.12640082836151123047e+00) (80, 7.35358178615570068359e-01) (81, 1.19600296020507812500e+00) (82, 7.19358742237091064453e-01) (83, 6.14642918109893798828e-01) (84, 9.50197696685791015625e-01) (85, 2.59311586618423461914e-01) (86, 7.70695090293884277344e-01) (87, -1.12126022577285766602e-01) (88, 2.50753790140151977539e-01) (89, -1.19595980644226074219e+00) (90, -9.34630155563354492188e-01) (91, -2.46741104125976562500e+00) (92, -1.00281953811645507812e+00) (93, -2.36040806770324707031e+00) (94, -5.99784910678863525391e-01) (95, -2.44182562828063964844e+00) (96, -4.76851165294647216797e-01) (97, -1.95324337482452392578e+00) (98, -7.11526155471801757812e-01) (99, -1.55302965641021728516e+00) (100, -5.12759089469909667969e-01) (101, -1.33133363723754882812e+00) (102, -6.27459287643432617188e-01) (103, -5.96398115158081054688e-01) (104, -4.53022539615631103516e-01) (105, -6.84096872806549072266e-01) (106, -7.07412779331207275391e-01) (107, -4.45694297552108764648e-01) (108, -2.01347327232360839844e+00) (109, 9.70416426658630371094e-01) (110, -2.13236284255981445312e+00) (111, 1.81971478462219238281e+00) (112, -1.46578311920166015625e+00) (113, 2.08368062973022460938e+00) (114, -1.44437766075134277344e+00) (115, 2.33016800880432128906e+00) (116, -1.30824661254882812500e+00) (117, 2.75883984565734863281e+00) (118, -1.20240056514739990234e+00) (119, 2.84330344200134277344e+00) (120, -7.37885057926177978516e-01) (121, 2.63330841064453125000e+00) (122, -1.99420914053916931152e-01) (123, 2.84734988212585449219e+00) (124, 1.77147209644317626953e-01) (125, 2.55905127525329589844e+00) (126, 6.50857031345367431641e-01) (127, 2.55138063430786132812e+00) (128, 3.32680881023406982422e-01) (129, 1.22769320011138916016e+00) (130, 1.07780490070581436157e-02) (131, 1.46565926074981689453e+00) (132, 2.68870532512664794922e-01) (133, 1.39097726345062255859e+00) (134, 3.80643069744110107422e-01) (135, 1.66000318527221679688e+00) (136, 3.52796673774719238281e-01) (137, 1.07854092121124267578e+00) (138, 8.76278460025787353516e-01) (139, 1.17234385013580322266e+00) (140, 8.31569433212280273438e-01) (141, 1.22741889953613281250e+00) (142, -2.91068673133850097656e-01) (143, 7.00011923909187316895e-02) (144, -2.09441900253295898438e-01) (145, -5.67143522202968597412e-02) (146, -4.21561188995838165283e-02) (147, 1.45826682448387145996e-01) (148, -9.15298089385032653809e-02) (149, 1.47958889603614807129e-01) (150, 1.33893173187971115112e-03) (0, -7.13937568664550781250e+00) (1, -1.80017304420471191406e+00) (2, -7.69708490371704101562e+00) (3, -1.37637662887573242188e+00) (4, -2.35514307022094726562e+00) (5, -2.75278949737548828125e+00) (6, -6.71671807765960693359e-01) (7, -2.75233411788940429688e+00) (8, 5.28292596340179443359e-01) (9, -2.87643623352050781250e+00) (10, 2.67209911346435546875e+00) (11, -3.06015539169311523438e+00) (12, 2.11291933059692382812e+00) (13, -3.83742856979370117188e+00) (14, 3.56403541564941406250e+00) (15, -3.49842834472656250000e+00) (16, 1.02677859365940093994e-01) (17, -2.76180434226989746094e+00) (18, 1.29941678047180175781e+00) (19, -2.60573101043701171875e+00) (20, 2.60200476646423339844e+00) (21, -9.69239592552185058594e-01) (22, 4.00403308868408203125e+00) (23, -1.34213292598724365234e+00) (24, 3.76004910469055175781e+00) (25, -1.84425675868988037109e+00) (26, 5.50634479522705078125e+00) (27, -1.29353189468383789062e+00) (28, 3.53973984718322753906e+00) (29, -1.15964198112487792969e+00) (30, 1.37386262416839599609e+00) (31, 2.90839028358459472656e+00) (32, 2.63994860649108886719e+00) (33, 8.71811687946319580078e-01) (34, 9.55531060695648193359e-01) (35, -8.86848628520965576172e-01) (36, 1.00993132591247558594e+00) (37, -6.50068521499633789062e-01) (38, 3.35157245397567749023e-01) (39, -8.57348620891571044922e-01) (40, 1.86932957172393798828e+00) (41, -1.36633551120758056641e+00) (42, 1.37621414661407470703e+00) (43, -1.23335886001586914062e+00) (44, 1.30113255977630615234e+00) (45, -8.68223249912261962891e-01) (46, 2.70165896415710449219e+00) (47, -1.32974171638488769531e+00) (48, 1.60877585411071777344e+00) (49, -3.24736118316650390625e+00) (50, 2.77636694908142089844e+00) (51, -2.62044286727905273438e+00) (52, 4.36521291732788085938e+00) (53, -3.19207882881164550781e+00) (54, 4.91586017608642578125e+00) (55, 5.19407868385314941406e-01) (56, 5.89662170410156250000e+00) (57, 1.64676368236541748047e-01) (58, 4.64913415908813476562e+00) (59, 1.94266819953918457031e+00) (60, 4.29311990737915039062e+00) (61, 6.12426280975341796875e-01) (62, 3.12742328643798828125e+00) (63, -1.00270807743072509766e+00) (64, -5.47594487667083740234e-01) (65, -1.26453065872192382812e+00) (66, 1.03086434304714202881e-01) (67, -8.54632437229156494141e-01) (68, 4.86671775579452514648e-01) (69, -1.48773157596588134766e+00) (70, 7.50541687011718750000e-01) (71, -9.23574209213256835938e-01) (72, 4.97581921517848968506e-02) (73, -1.57383680343627929688e+00) (74, -6.41526222229003906250e-01) (75, -5.94811737537384033203e-01) (76, -1.92890539765357971191e-01) (77, -5.03057181835174560547e-01) (78, -1.93241506814956665039e-01) (79, -2.03332409262657165527e-01) (80, -8.24158489704132080078e-02) (81, -3.68472516536712646484e-01) (82, -8.95697653293609619141e-01) (83, -6.12349510192871093750e-01) (84, -1.03071987628936767578e+00) (85, -7.41336047649383544922e-01) (86, -9.25435721874237060547e-01) (87, -8.83371770381927490234e-01) (88, -7.18718051910400390625e-01) (89, -7.09042608737945556641e-01) (90, -9.31944370269775390625e-01) (91, -9.58432495594024658203e-01) (92, -1.10878860950469970703e+00) (93, -8.46480011940002441406e-01) (94, -1.11906695365905761719e+00) (95, -8.17797064781188964844e-01) (96, -1.22911870479583740234e+00) (97, -6.84687137603759765625e-01) (98, -1.18826103210449218750e+00) (99, -5.54101586341857910156e-01) (100, -1.08308207988739013672e+00) (101, -7.77998983860015869141e-01) (102, -5.51581621170043945312e-01) (103, -1.35134005546569824219e+00) (104, -4.95942056179046630859e-01) (105, -8.51202249526977539062e-01) (106, -2.11694926023483276367e-01) (107, -6.55149161815643310547e-01) (108, -6.09637558460235595703e-01) (109, 4.89608850330114364624e-03) (110, -6.98194265365600585938e-01) (111, 3.49532991647720336914e-01) (112, -3.32962125539779663086e-01) (113, 6.79580807685852050781e-01) (114, -3.44987779855728149414e-01) (115, 8.90577673912048339844e-01) (116, -7.38584995269775390625e-01) (117, 7.87753403186798095703e-01) (118, -5.91224968433380126953e-01) (119, 9.50239479541778564453e-01) (120, -4.78923708200454711914e-01) (121, 1.05499184131622314453e+00) (122, -9.90841448307037353516e-01) (123, 1.19698035717010498047e+00) (124, -7.58269906044006347656e-01) (125, 1.32022929191589355469e+00) (126, -7.45395302772521972656e-01) (127, 1.13049221038818359375e+00) (128, -8.30433249473571777344e-01) (129, 1.21308360248804092407e-02) (130, -1.46873950958251953125e+00) (131, 5.63641428947448730469e-01) (132, -1.48890721797943115234e+00) (133, 6.48410439491271972656e-01) (134, -1.35690653324127197266e+00) (135, 6.63601279258728027344e-01) (136, -1.06294703483581542969e+00) (137, 1.13349080085754394531e+00) (138, -7.21537530422210693359e-01) (139, 8.10289084911346435547e-01) (140, -4.65758055448532104492e-01) (141, 7.39229083061218261719e-01) (142, -5.16087472438812255859e-01) (143, 1.97924241423606872559e-01) (144, -5.98682641983032226562e-01) (145, 2.53988564014434814453e-01) (146, -6.97143733501434326172e-01) (147, -6.85117095708847045898e-02) (148, -7.00440049171447753906e-01) (149, 1.28958284854888916016e-01) (150, -4.27255183458328247070e-02) (0, -9.23309040069580078125e+00) (1, 2.99503660202026367188e+00) (2, -1.01230049133300781250e+01) (3, 3.23396968841552734375e+00) (4, -5.23597669601440429688e+00) (5, 1.71691572666168212891e+00) (6, -3.07789182662963867188e+00) (7, 1.44956636428833007812e+00) (8, -1.61595332622528076172e+00) (9, 5.09086012840270996094e-01) (10, 1.20656764507293701172e+00) (11, -5.36664500832557678223e-02) (12, 3.66958945989608764648e-01) (13, -1.26258170604705810547e+00) (14, 1.88702178001403808594e+00) (15, -1.43182349205017089844e+00) (16, -6.24314129352569580078e-01) (17, -9.22047734260559082031e-01) (18, 1.04828155040740966797e+00) (19, -9.10562455654144287109e-01) (20, 2.77349972724914550781e+00) (21, -1.85165569186210632324e-01) (22, 4.54550504684448242188e+00) (23, -6.20655536651611328125e-01) (24, 2.74219107627868652344e+00) (25, 6.89202725887298583984e-01) (26, 5.14710283279418945312e+00) (27, -6.97558939456939697266e-01) (28, 3.35271072387695312500e+00) (29, 4.61923070251941680908e-02) (30, 2.20712566375732421875e+00) (31, 2.85616636276245117188e+00) (32, 1.40616786479949951172e+00) (33, 1.99162840843200683594e+00) (34, -1.09146761894226074219e+00) (35, 2.80548596382141113281e+00) (36, -1.43078184127807617188e+00) (37, 1.10271203517913818359e+00) (38, -6.03021383285522460938e-01) (39, 1.09234821796417236328e+00) (40, 1.37238419055938720703e+00) (41, -2.01090037822723388672e-01) (42, 1.15499722957611083984e+00) (43, -1.11269354820251464844e+00) (44, 1.54033529758453369141e+00) (45, -8.15762996673583984375e-01) (46, 3.16955924034118652344e+00) (47, -1.56292009353637695312e+00) (48, 1.73782730102539062500e+00) (49, -3.99000716209411621094e+00) (50, 2.36334562301635742188e+00) (51, -4.09408712387084960938e+00) (52, 3.70708966255187988281e+00) (53, -4.10701227188110351562e+00) (54, 5.21456527709960937500e+00) (55, -1.61168694496154785156e+00) (56, 6.77729701995849609375e+00) (57, -2.41486454010009765625e+00) (58, 4.92933750152587890625e+00) (59, -7.63222277164459228516e-01) (60, 6.03079319000244140625e+00) (61, -2.34278774261474609375e+00) (62, 4.96802806854248046875e+00) (63, -3.93073439598083496094e+00) (64, 5.22346556186676025391e-01) (65, -3.59479546546936035156e-01) (66, 9.77568328380584716797e-01) (67, -1.19051992893218994141e+00) (68, 8.97551119327545166016e-01) (69, -1.37295997142791748047e+00) (70, 2.54978156089782714844e+00) (71, 6.69915258884429931641e-01) (72, 1.60348689556121826172e+00) (73, -2.78177857398986816406e-01) (74, 6.07866704463958740234e-01) (75, 4.38938945531845092773e-01) (76, 1.38747739791870117188e+00) (77, 6.52241706848144531250e-01) (78, 1.04156827926635742188e+00) (79, 1.28017413616180419922e+00) (80, 5.03759741783142089844e-01) (81, 7.09336817264556884766e-01) (82, -2.89417058229446411133e-01) (83, 7.01878666877746582031e-01) (84, -7.59819447994232177734e-01) (85, 4.48069423437118530273e-01) (86, -2.91365414857864379883e-01) (87, 9.51023757457733154297e-01) (88, 1.06853440403938293457e-01) (89, 1.30223619937896728516e+00) (90, -4.52890038490295410156e-01) (91, 7.43694782257080078125e-01) (92, -5.62881767749786376953e-01) (93, 4.59548085927963256836e-01) (94, -4.53813582658767700195e-01) (95, 2.90821820497512817383e-01) (96, -4.29991394281387329102e-01) (97, 5.42466580867767333984e-01) (98, -2.30242878198623657227e-01) (99, 4.31691259145736694336e-01) (100, 2.06037074327468872070e-01) (101, -1.42497867345809936523e-01) (102, 1.00733304023742675781e+00) (103, -5.11615276336669921875e-01) (104, 1.35555756092071533203e+00) (105, -7.74738729000091552734e-01) (106, 1.55579602718353271484e+00) (107, -1.03661310672760009766e+00) (108, 1.25525259971618652344e+00) (109, -5.21496951580047607422e-01) (110, 1.24573671817779541016e+00) (111, -7.26202011108398437500e-01) (112, 1.56634795665740966797e+00) (113, -4.16066110134124755859e-01) (114, 1.48475170135498046875e+00) (115, -3.33160012960433959961e-01) (116, 1.16888678073883056641e+00) (117, -1.88433364033699035645e-01) (118, 1.06136012077331542969e+00) (119, 7.98085853457450866699e-02) (120, 1.09978616237640380859e+00) (121, -3.66959124803543090820e-02) (122, 8.22419285774230957031e-01) (123, 8.68726149201393127441e-02) (124, 1.00899779796600341797e+00) (125, 2.21897974610328674316e-01) (126, 8.35507214069366455078e-01) (127, 1.10753491520881652832e-01) (128, 5.98018586635589599609e-01) (129, -9.04263734817504882812e-01) (130, -2.04265266656875610352e-01) (131, -5.97746074199676513672e-01) (132, -2.76811093091964721680e-01) (133, -5.41480958461761474609e-01) (134, -3.56695085763931274414e-01) (135, -6.29788577556610107422e-01) (136, -1.27394437789916992188e-01) (137, 1.98078915476799011230e-01) (138, -2.37616393715143203735e-02) (139, 1.69818460941314697266e-01) (140, 1.63749933242797851562e-01) (141, 9.01071280241012573242e-02) (142, -1.01149290800094604492e-01) (143, 1.90035343170166015625e-01) (144, -1.13483689725399017334e-01) (145, 1.17985419929027557373e-01) (146, -1.88346356153488159180e-01) (147, 6.49683028459548950195e-02) (148, -1.22722059488296508789e-01) (149, 1.87243625521659851074e-01) (150, -4.21657139668241143227e-04) (0, -1.03465433120727539062e+01) (1, -7.21601724624633789062e+00) (2, -8.79188632965087890625e+00) (3, -6.33478260040283203125e+00) (4, -4.13362073898315429688e+00) (5, -6.43627500534057617188e+00) (6, -1.97542989253997802734e+00) (7, -4.80319309234619140625e+00) (8, -1.22022902965545654297e+00) (9, -3.11079788208007812500e+00) (10, 1.93191599845886230469e+00) (11, -9.17236685752868652344e-01) (12, -7.71868377923965454102e-02) (13, 1.15674786269664764404e-01) (14, 1.80481410026550292969e+00) (15, 2.12160658836364746094e+00) (16, -9.61687207221984863281e-01) (17, 4.84995412826538085938e+00) (18, 1.02116715908050537109e+00) (19, 6.11642980575561523438e+00) (20, 2.25904798507690429688e+00) (21, 2.26411175727844238281e+00) (22, 3.47483658790588378906e+00) (23, 3.14619350433349609375e+00) (24, 8.06429982185363769531e-01) (25, 5.01596498489379882812e+00) (26, 2.00596451759338378906e+00) (27, 5.14861059188842773438e+00) (28, 1.95700049400329589844e+00) (29, 4.46237945556640625000e+00) (30, -1.30098447203636169434e-01) (31, 3.49990296363830566406e+00) (32, -7.85479009151458740234e-01) (33, 1.12469172477722167969e+00) (34, 1.80081439018249511719e+00) (35, 3.91500294208526611328e-01) (36, 1.66068196296691894531e+00) (37, 1.69948601722717285156e+00) (38, 1.42451930046081542969e+00) (39, 1.44275009632110595703e+00) (40, 6.30535662174224853516e-01) (41, 1.79100477695465087891e+00) (42, -1.20295035839080810547e+00) (43, 2.90802359580993652344e-01) (44, 7.97552049160003662109e-01) (45, -1.28118976950645446777e-01) (46, -2.30956271290779113770e-01) (47, 6.43221378326416015625e-01) (48, -2.08813738822937011719e+00) (49, -8.86990845203399658203e-01) (50, -3.50313127040863037109e-01) (51, -1.57216894626617431641e+00) (52, 1.10917389392852783203e+00) (53, -2.35970497131347656250e+00) (54, 4.07735776901245117188e+00) (55, -4.00872528553009033203e-02) (56, 4.63475131988525390625e+00) (57, 4.94697958230972290039e-01) (58, 3.16782951354980468750e+00) (59, 3.32313251495361328125e+00) (60, 3.43452596664428710938e+00) (61, 1.53264498710632324219e+00) (62, 1.54406106472015380859e+00) (63, 4.39202524721622467041e-02) (64, -3.72672230005264282227e-01) (65, 1.40442490577697753906e+00) (66, -7.89009034633636474609e-01) (67, 7.81471431255340576172e-01) (68, 4.69489365816116333008e-01) (69, -5.85645675659179687500e-01) (70, 6.05358481407165527344e-01) (71, -1.54665625095367431641e+00) (72, 4.94880944490432739258e-01) (73, -1.52073228359222412109e+00) (74, -6.22695684432983398438e-02) (75, -1.83927953243255615234e+00) (76, 4.39387470483779907227e-01) (77, -1.34258759021759033203e+00) (78, 5.70823490619659423828e-01) (79, -1.88626527786254882812e-01) (80, -2.88112629204988479614e-02) (81, -5.50680935382843017578e-01) (82, -8.23678493499755859375e-01) (83, -4.80640172958374023438e-01) (84, -8.30167889595031738281e-01) (85, -3.38146507740020751953e-01) (86, -3.93438994884490966797e-01) (87, 1.00386194884777069092e-01) (88, -6.58160567283630371094e-01) (89, -2.54648804664611816406e-01) (90, 2.54143685102462768555e-01) (91, 8.60548138618469238281e-01) (92, -1.24080739915370941162e-01) (93, 8.98198723793029785156e-01) (94, -5.29809176921844482422e-01) (95, 6.53866350650787353516e-01) (96, -7.34367072582244873047e-01) (97, 9.76205289363861083984e-01) (98, -1.39891314506530761719e+00) (99, 1.19074296951293945312e+00) (100, -1.28973400592803955078e+00) (101, 7.02542483806610107422e-01) (102, -6.50540173053741455078e-01) (103, -6.61940455436706542969e-01) (104, -9.21056449413299560547e-01) (105, -1.93383172154426574707e-01) (106, -8.07286202907562255859e-01) (107, -3.83777737617492675781e-01) (108, -4.25118684768676757812e-01) (109, -9.86149787902832031250e-01) (110, -9.36645627021789550781e-01) (111, -9.65402603149414062500e-01) (112, -1.52430009841918945312e+00) (113, -8.98159801959991455078e-01) (114, -1.81533682346343994141e+00) (115, -8.14184248447418212891e-01) (116, -2.04014515876770019531e+00) (117, -1.19227182865142822266e+00) (118, -1.96596288681030273438e+00) (119, -6.66484475135803222656e-01) (120, -2.04860615730285644531e+00) (121, -6.44313037395477294922e-01) (122, -2.00102090835571289062e+00) (123, -4.09048736095428466797e-01) (124, -2.05934834480285644531e+00) (125, -1.47118315100669860840e-01) (126, -2.16819763183593750000e+00) (127, -1.60023123025894165039e-01) (128, -1.88682389259338378906e+00) (129, 2.84637331962585449219e-01) (130, -1.93299376964569091797e+00) (131, 4.69256132841110229492e-01) (132, -1.94526016712188720703e+00) (133, 4.67558652162551879883e-01) (134, -1.32462322711944580078e+00) (135, 1.83166638016700744629e-01) (136, -1.52421736717224121094e+00) (137, 5.74648201465606689453e-01) (138, -1.36771190166473388672e+00) (139, 6.23672902584075927734e-01) (140, -1.10258662700653076172e+00) (141, 7.66379714012145996094e-01) (142, -1.66783010959625244141e+00) (143, 5.13683021068572998047e-01) (144, -1.07701063156127929688e+00) (145, 3.85852217674255371094e-01) (146, -1.27500617504119873047e+00) (147, 7.99419954419136047363e-02) (148, -1.30333435535430908203e+00) (149, 3.92755895853042602539e-01) (150, 3.95462997257709503174e-02) (0, -5.91179430484771728516e-01) (1, -6.24835252761840820312e+00) (2, -2.73237609863281250000e+00) (3, -5.22364234924316406250e+00) (4, -2.96248412132263183594e+00) (5, -4.91431188583374023438e+00) (6, -2.80531001091003417969e+00) (7, -2.93982815742492675781e+00) (8, -2.88002920150756835938e+00) (9, -1.32578587532043457031e+00) (10, -2.21443843841552734375e+00) (11, 7.17508554458618164062e-01) (12, -3.38879847526550292969e+00) (13, 2.85375976562500000000e+00) (14, -3.37574934959411621094e+00) (15, 4.42053031921386718750e+00) (16, -5.22488975524902343750e+00) (17, 6.92035102844238281250e+00) (18, -4.59082508087158203125e+00) (19, 8.37063884735107421875e+00) (20, -4.47640419006347656250e+00) (21, 3.75599861145019531250e+00) (22, -3.19088101387023925781e+00) (23, 5.46639537811279296875e+00) (24, -2.05207681655883789062e+00) (25, 7.41681909561157226562e+00) (26, -1.62602913379669189453e+00) (27, 3.99672126770019531250e+00) (28, -5.80331444740295410156e-01) (29, 1.37310099601745605469e+00) (30, 5.67086994647979736328e-01) (31, -4.61324357986450195312e+00) (32, -9.51470255851745605469e-01) (33, -5.88008117675781250000e+00) (34, -1.01098978519439697266e+00) (35, -3.57513785362243652344e+00) (36, 6.06134593486785888672e-01) (37, -2.85396933555603027344e+00) (38, 1.62071096897125244141e+00) (39, -1.14418315887451171875e+00) (40, -7.88312792778015136719e-01) (41, 5.01863420009613037109e-01) (42, -2.34644007682800292969e+00) (43, -2.90677428245544433594e-01) (44, 2.00906944274902343750e+00) (45, -8.26627373695373535156e-01) (46, 2.62146162986755371094e+00) (47, 9.84997749328613281250e-01) (48, 1.86671006679534912109e+00) (49, 1.34244632720947265625e+00) (50, -1.10907459259033203125e+00) (51, -1.70143377780914306641e+00) (52, -7.41139888763427734375e-01) (53, 2.81368374824523925781e+00) (54, 2.20873355865478515625e+00) (55, 2.34079211950302124023e-01) (56, 3.26414132118225097656e+00) (57, -6.42227590084075927734e-01) (58, 2.77894496917724609375e+00) (59, 5.57073168456554412842e-02) (60, 4.13105201721191406250e+00) (61, -1.46207392215728759766e-01) (62, 3.54666256904602050781e+00) (63, -1.30816400051116943359e+00) (64, 2.58633446693420410156e+00) (65, 9.40833628177642822266e-01) (66, 2.43835186958312988281e+00) (67, -5.06238996982574462891e-01) (68, 2.45526981353759765625e+00) (69, 1.05074381828308105469e+00) (70, 2.31510043144226074219e+00) (71, 1.14581298828125000000e+00) (72, 1.49588727951049804688e+00) (73, 3.14216524362564086914e-01) (74, 3.86051416397094726562e+00) (75, 1.88812151551246643066e-01) (76, 1.25152361392974853516e+00) (77, 9.21532750129699707031e-01) (78, 1.13219594955444335938e+00) (79, 4.13551658391952514648e-01) (80, 7.68180251121520996094e-01) (81, 1.85211405158042907715e-01) (82, 1.52995729446411132812e+00) (83, 1.41906726360321044922e+00) (84, 1.24142539501190185547e+00) (85, 1.78326988220214843750e+00) (86, 6.85332953929901123047e-01) (87, 1.15577328205108642578e+00) (88, 1.18478012084960937500e+00) (89, 1.81732356548309326172e+00) (90, 1.00202846527099609375e+00) (91, 1.53471362590789794922e+00) (92, 1.32167589664459228516e+00) (93, 1.36068046092987060547e+00) (94, 1.45130562782287597656e+00) (95, 1.48119866847991943359e+00) (96, 1.71821582317352294922e+00) (97, 9.75160181522369384766e-01) (98, 2.39748024940490722656e+00) (99, 3.34890991449356079102e-01) (100, 2.45705270767211914062e+00) (101, 4.53519403934478759766e-01) (102, 1.58603870868682861328e+00) (103, 1.32781577110290527344e+00) (104, 1.64802289009094238281e+00) (105, 9.29350137710571289062e-01) (106, 1.82574021816253662109e+00) (107, 6.91206634044647216797e-01) (108, 2.48275661468505859375e+00) (109, -1.55712649226188659668e-01) (110, 3.06169462203979492188e+00) (111, -7.26236641407012939453e-01) (112, 3.06940650939941406250e+00) (113, -1.51068377494812011719e+00) (114, 2.72687029838562011719e+00) (115, -2.36816883087158203125e+00) (116, 2.32748508453369140625e+00) (117, -2.06696891784667968750e+00) (118, 2.03731727600097656250e+00) (119, -2.60332107543945312500e+00) (120, 1.83459508419036865234e+00) (121, -2.61495280265808105469e+00) (122, 1.14673292636871337891e+00) (123, -2.83125376701354980469e+00) (124, 1.06909549236297607422e+00) (125, -2.57513380050659179688e+00) (126, 8.37250113487243652344e-01) (127, -2.44496154785156250000e+00) (128, 5.99834382534027099609e-01) (129, -1.17041277885437011719e+00) (130, 1.38053822517395019531e+00) (131, -1.69524514675140380859e+00) (132, 1.09425783157348632812e+00) (133, -1.62661814689636230469e+00) (134, 1.23796367645263671875e+00) (135, -1.88660013675689697266e+00) (136, 1.33049297332763671875e+00) (137, -1.34615516662597656250e+00) (138, 6.14451169967651367188e-01) (139, -1.15292382240295410156e+00) (140, 7.27955162525177001953e-01) (141, -1.61245858669281005859e+00) (142, 1.72922062873840332031e+00) (143, -2.82437205314636230469e-01) (144, 1.35590445995330810547e+00) (145, -4.10522043704986572266e-01) (146, 1.20073413848876953125e+00) (147, -3.07286888360977172852e-01) (148, 1.60301458835601806641e+00) (149, -4.02723670005798339844e-01) (150, -3.23400869965553283691e-02) (0, 2.83528995513916015625e+00) (1, 5.55255353450775146484e-01) (2, 3.56728076934814453125e-01) (3, 6.51337862014770507812e-01) (4, -2.99852252006530761719e-01) (5, -3.91195081174373626709e-02) (6, -1.55521345138549804688e+00) (7, -1.90188154578208923340e-01) (8, -1.89364957809448242188e+00) (9, -4.17576670646667480469e-01) (10, -2.94335365295410156250e+00) (11, -5.12201964855194091797e-01) (12, -1.61355137825012207031e+00) (13, 4.27748948335647583008e-01) (14, -2.51723074913024902344e+00) (15, 9.32772010564804077148e-02) (16, -3.56107664108276367188e+00) (17, 2.64229118824005126953e-01) (18, -4.35849761962890625000e+00) (19, 3.86914312839508056641e-01) (20, -4.40949487686157226562e+00) (21, -5.88198117911815643311e-02) (22, -4.04861259460449218750e+00) (23, -1.72351688146591186523e-01) (24, 2.50676751136779785156e-01) (25, -2.81886607408523559570e-01) (26, 2.19420984387397766113e-01) (27, -2.38749241828918457031e+00) (28, 1.17000281810760498047e+00) (29, -4.24874210357666015625e+00) (30, 2.76926112174987792969e+00) (31, -7.61918115615844726562e+00) (32, 2.01114773750305175781e+00) (33, -5.79386663436889648438e+00) (34, -2.57930493354797363281e+00) (35, -4.75657367706298828125e+00) (36, -2.83797711133956909180e-01) (37, -6.48558616638183593750e+00) (38, 8.07316601276397705078e-01) (39, -6.04611778259277343750e+00) (40, -1.38601934909820556641e+00) (41, -5.27657985687255859375e+00) (42, -1.25108695030212402344e+00) (43, -5.74961757659912109375e+00) (44, 1.12670660018920898438e+00) (45, -5.73141908645629882812e+00) (46, 2.95882463455200195312e+00) (47, -4.31175613403320312500e+00) (48, 4.75857400894165039062e+00) (49, -2.05062246322631835938e+00) (50, 2.12843585014343261719e+00) (51, -3.20474267005920410156e+00) (52, 1.72887504100799560547e+00) (53, 1.32152020931243896484e+00) (54, 3.16012334823608398438e+00) (55, -1.46667599678039550781e+00) (56, 4.18673992156982421875e+00) (57, -3.13403630256652832031e+00) (58, 3.32776546478271484375e+00) (59, -2.92956590652465820312e+00) (60, 4.70525741577148437500e+00) (61, -2.27558803558349609375e+00) (62, 5.12190198898315429688e+00) (63, -2.61335110664367675781e+00) (64, 2.55268907546997070312e+00) (65, -1.03121483325958251953e+00) (66, 3.51793122291564941406e+00) (67, -1.44611978530883789062e+00) (68, 2.78895664215087890625e+00) (69, -8.21407884359359741211e-02) (70, 2.91453790664672851562e+00) (71, 1.55726742744445800781e+00) (72, 2.41604757308959960938e+00) (73, 1.09684276580810546875e+00) (74, 3.01444101333618164062e+00) (75, 6.52519702911376953125e-01) (76, 1.11769187450408935547e+00) (77, 1.00393652915954589844e+00) (78, 6.01974070072174072266e-01) (79, 7.75567591190338134766e-02) (80, 6.19053542613983154297e-01) (81, -1.57722994685173034668e-01) (82, 9.61652815341949462891e-01) (83, 1.52900266647338867188e+00) (84, 3.98439973592758178711e-01) (85, 1.45302379131317138672e+00) (86, 7.84818947315216064453e-01) (87, 1.45177936553955078125e+00) (88, 1.68363010883331298828e+00) (89, 2.58288049697875976562e+00) (90, 1.29928863048553466797e+00) (91, 1.60788416862487792969e+00) (92, 1.48216307163238525391e+00) (93, 1.13086080551147460938e+00) (94, 1.68976759910583496094e+00) (95, 1.14655530452728271484e+00) (96, 2.02112698554992675781e+00) (97, 5.18331766128540039062e-01) (98, 3.06996536254882812500e+00) (99, -1.05290815234184265137e-01) (100, 3.34143447875976562500e+00) (101, -3.38633090257644653320e-01) (102, 2.79186701774597167969e+00) (103, 7.30059504508972167969e-01) (104, 2.71662998199462890625e+00) (105, 2.21784710884094238281e-01) (106, 3.22228097915649414062e+00) (107, 2.16139275580644607544e-02) (108, 3.72862577438354492188e+00) (109, -4.17638540267944335938e-01) (110, 4.28300142288208007812e+00) (111, -1.28975963592529296875e+00) (112, 4.53162527084350585938e+00) (113, -1.62376773357391357422e+00) (114, 4.49741506576538085938e+00) (115, -2.09999012947082519531e+00) (116, 4.30169725418090820312e+00) (117, -1.60903573036193847656e+00) (118, 4.11949586868286132812e+00) (119, -1.87348270416259765625e+00) (120, 3.85514426231384277344e+00) (121, -1.79087674617767333984e+00) (122, 3.82537698745727539062e+00) (123, -1.97292304039001464844e+00) (124, 3.58899044990539550781e+00) (125, -1.99140143394470214844e+00) (126, 3.29684782028198242188e+00) (127, -1.81678378582000732422e+00) (128, 3.07510757446289062500e+00) (129, -1.81460487842559814453e+00) (130, 3.02683949470520019531e+00) (131, -2.01387381553649902344e+00) (132, 2.55881381034851074219e+00) (133, -2.21387982368469238281e+00) (134, 2.10861301422119140625e+00) (135, -2.42814016342163085938e+00) (136, 2.18036031723022460938e+00) (137, -1.91592705249786376953e+00) (138, 1.42851579189300537109e+00) (139, -1.88518702983856201172e+00) (140, 1.17077088356018066406e+00) (141, -2.16297459602355957031e+00) (142, 2.16186308860778808594e+00) (143, -6.87385499477386474609e-01) (144, 1.89911019802093505859e+00) (145, -7.24893212318420410156e-01) (146, 1.81045258045196533203e+00) (147, -8.20585250854492187500e-01) (148, 2.14648222923278808594e+00) (149, -1.14822006225585937500e+00) (150, 7.74636166170239448547e-04) (0, 8.40392112731933593750e+00) (1, -5.56796360015869140625e+00) (2, 6.45072317123413085938e+00) (3, -5.90529775619506835938e+00) (4, 5.21729564666748046875e+00) (5, -4.49714994430541992188e+00) (6, 3.90892028808593750000e+00) (7, -4.36570930480957031250e+00) (8, 3.35848927497863769531e+00) (9, -3.18003797531127929688e+00) (10, 1.71934294700622558594e+00) (11, -2.83910536766052246094e+00) (12, 2.79865097999572753906e+00) (13, -1.17838358879089355469e+00) (14, 1.71196866035461425781e+00) (15, -1.47546961903572082520e-01) (16, 3.80109310150146484375e+00) (17, 2.81061381101608276367e-01) (18, 2.98524260520935058594e+00) (19, 1.01304554939270019531e+00) (20, 2.99261212348937988281e+00) (21, -1.78877460956573486328e+00) (22, 2.38170742988586425781e+00) (23, -1.25128591060638427734e+00) (24, 1.99083852767944335938e+00) (25, -2.08680224418640136719e+00) (26, 2.60134506225585937500e+00) (27, -2.00528335571289062500e+00) (28, 2.46040821075439453125e+00) (29, -2.45346140861511230469e+00) (30, 1.67949807643890380859e+00) (31, -1.40287530422210693359e+00) (32, 4.93989849090576171875e+00) (33, -2.75951951742172241211e-01) (34, 2.12435483932495117188e+00) (35, -2.36472773551940917969e+00) (36, 3.92873907089233398438e+00) (37, -2.03319597244262695312e+00) (38, 1.67004621028900146484e+00) (39, -4.48463201522827148438e+00) (40, 2.78822278976440429688e+00) (41, -4.31452846527099609375e+00) (42, 2.35099148750305175781e+00) (43, -4.67383480072021484375e+00) (44, 3.08991765975952148438e+00) (45, -6.66949796676635742188e+00) (46, 4.05201816558837890625e+00) (47, -5.07665109634399414062e+00) (48, 4.90992689132690429688e+00) (49, -2.29990077018737792969e+00) (50, 3.14906287193298339844e+00) (51, -1.17391562461853027344e+00) (52, 4.03849411010742187500e+00) (53, -2.08964157104492187500e+00) (54, 3.03280377388000488281e+00) (55, -2.02485084533691406250e+00) (56, 2.51013660430908203125e+00) (57, -1.40549778938293457031e+00) (58, 5.03703022003173828125e+00) (59, -3.35252404212951660156e+00) (60, 2.81578898429870605469e+00) (61, -1.73653829097747802734e+00) (62, 9.81493473052978515625e-01) (63, -2.69176077842712402344e+00) (64, -1.03727579116821289062e+00) (65, -3.98617815971374511719e+00) (66, -4.58292633295059204102e-01) (67, -2.28456711769104003906e+00) (68, -4.63642388582229614258e-01) (69, -2.79369950294494628906e+00) (70, -1.93065392971038818359e+00) (71, -2.20910716056823730469e+00) (72, -1.67232275009155273438e+00) (73, -1.23684883117675781250e+00) (74, -9.17568385601043701172e-01) (75, -1.43473649024963378906e+00) (76, -2.14625096321105957031e+00) (77, -1.61927652359008789062e+00) (78, -2.56623196601867675781e+00) (79, -1.30908298492431640625e+00) (80, -2.42402839660644531250e+00) (81, -1.43048667907714843750e+00) (82, -1.85139715671539306641e+00) (83, -4.28404510021209716797e-02) (84, -2.20325422286987304688e+00) (85, -1.33644472807645797729e-02) (86, -1.37501835823059082031e+00) (87, 1.03581655025482177734e+00) (88, -9.43587422370910644531e-01) (89, 1.67202508449554443359e+00) (90, -4.89331662654876708984e-01) (91, 2.33963990211486816406e+00) (92, -5.85720300674438476562e-01) (93, 2.26938033103942871094e+00) (94, -4.78684037923812866211e-01) (95, 2.27354669570922851562e+00) (96, -7.85821020603179931641e-01) (97, 1.98674023151397705078e+00) (98, -8.46821069717407226562e-01) (99, 1.86172902584075927734e+00) (100, -9.62461531162261962891e-01) (101, 1.20475435256958007812e+00) (102, 6.46667361259460449219e-01) (103, -1.48731386661529541016e+00) (104, 1.00280880928039550781e+00) (105, -1.06319653987884521484e+00) (106, 1.38909041881561279297e+00) (107, -1.41271364688873291016e+00) (108, 1.61303710937500000000e+00) (109, -1.22132527828216552734e+00) (110, 1.64348673820495605469e+00) (111, -1.73125088214874267578e+00) (112, 1.38908445835113525391e+00) (113, -1.41070413589477539062e+00) (114, 1.58660769462585449219e+00) (115, -6.91002368927001953125e-01) (116, 2.03988647460937500000e+00) (117, -1.14816522598266601562e+00) (118, 1.69437921047210693359e+00) (119, -9.53961312770843505859e-01) (120, 1.36673974990844726562e+00) (121, -5.56911647319793701172e-01) (122, 9.13323998451232910156e-01) (123, -8.55037271976470947266e-01) (124, 4.40361469984054565430e-01) (125, -7.21266865730285644531e-01) (126, 2.52685517072677612305e-01) (127, -8.94883275032043457031e-01) (128, -2.34376028180122375488e-01) (129, -4.15373623371124267578e-01) (130, 2.11214959621429443359e-01) (131, -6.86380147933959960938e-01) (132, -1.65586218237876892090e-01) (133, -5.16178429126739501953e-01) (134, -7.63738870620727539062e-01) (135, -1.17611378431320190430e-01) (136, -6.33304834365844726562e-01) (137, 3.40640932321548461914e-01) (138, -9.38766479492187500000e-01) (139, -2.08981558680534362793e-02) (140, -8.71811687946319580078e-01) (141, -1.19297029450535774231e-02) (142, 2.72478777915239334106e-02) (143, -5.09167253971099853516e-01) (144, -3.20936918258666992188e-01) (145, 4.48508888483047485352e-01) (146, -3.06302726268768310547e-01) (147, -1.52620106935501098633e-01) (148, -8.79477441310882568359e-01) (149, -1.59992203116416931152e-02) (150, -7.17622637748718261719e-02) (0, 1.03247957229614257812e+01) (1, 7.79556453227996826172e-01) (2, 9.11252975463867187500e+00) (3, -1.54246628284454345703e+00) (4, 5.72018575668334960938e+00) (5, -4.22829270362854003906e-01) (6, 4.28858900070190429688e+00) (7, 7.22792863845825195312e-01) (8, 3.00543451309204101562e+00) (9, 1.31537938117980957031e+00) (10, 1.39578318595886230469e+00) (11, 1.75208783149719238281e+00) (12, 2.49266910552978515625e+00) (13, 2.82494759559631347656e+00) (14, 1.65158843994140625000e+00) (15, 3.13725352287292480469e+00) (16, 1.44895875453948974609e+00) (17, 3.57647538185119628906e+00) (18, -4.72345620393753051758e-01) (19, 4.23170137405395507812e+00) (20, -7.66149878501892089844e-01) (21, 1.00035977363586425781e+00) (22, -1.47469818592071533203e+00) (23, 1.56169641017913818359e+00) (24, -1.99284338951110839844e+00) (25, 1.95481276512145996094e+00) (26, -2.65722393989562988281e+00) (27, -8.88507906347513198853e-03) (28, -2.83749508857727050781e+00) (29, 1.08872997760772705078e+00) (30, -3.94865894317626953125e+00) (31, -3.59496545791625976562e+00) (32, -3.30395555496215820312e+00) (33, -3.28302550315856933594e+00) (34, -4.70044898986816406250e+00) (35, -2.74420118331909179688e+00) (36, -5.20100593566894531250e+00) (37, -1.65894484519958496094e+00) (38, -5.28573513031005859375e+00) (39, -3.10004055500030517578e-01) (40, -4.65901374816894531250e+00) (41, 1.43032968044281005859e+00) (42, 5.75810003280639648438e+00) (43, 3.81054139137268066406e+00) (44, 4.47902393341064453125e+00) (45, 3.33597993850708007812e+00) (46, 5.73862886428833007812e+00) (47, 3.57832288742065429688e+00) (48, 7.35910558700561523438e+00) (49, 6.31079673767089843750e+00) (50, 4.45175266265869140625e+00) (51, 7.55244541168212890625e+00) (52, 4.11548709869384765625e+00) (53, 1.02434787750244140625e+01) (54, 5.73877143859863281250e+00) (55, 7.15643882751464843750e+00) (56, 5.46920728683471679688e+00) (57, 6.51548385620117187500e+00) (58, 5.15041208267211914062e+00) (59, 5.24290561676025390625e+00) (60, 3.95027589797973632812e+00) (61, 7.00853109359741210938e+00) (62, 3.33904647827148437500e+00) (63, 7.04034948348999023438e+00) (64, 3.14364051818847656250e+00) (65, 7.50639247894287109375e+00) (66, 2.69381880760192871094e+00) (67, 7.91973972320556640625e+00) (68, 2.49029541015625000000e+00) (69, 8.25860595703125000000e+00) (70, 5.15870392322540283203e-01) (71, 7.70820140838623046875e+00) (72, -2.11039289832115173340e-01) (73, 7.22044801712036132812e+00) (74, -4.38416540622711181641e-01) (75, 8.07518959045410156250e+00) (76, -2.77015972137451171875e+00) (77, 9.26842594146728515625e+00) (78, -3.39664602279663085938e+00) (79, 8.21812534332275390625e+00) (80, -3.61263227462768554688e+00) (81, 7.95275783538818359375e+00) (82, 6.26329600811004638672e-01) (83, 5.92063307762145996094e-01) (84, 9.05222713947296142578e-01) (85, 3.29822719097137451172e-01) (86, 1.58460009098052978516e+00) (87, 5.25831401348114013672e-01) (88, 1.81895232200622558594e+00) (89, 4.83625352382659912109e-01) (90, 1.25468420982360839844e+00) (91, -5.93670427799224853516e-01) (92, 1.58370840549468994141e+00) (93, -7.71509826183319091797e-01) (94, 2.10042214393615722656e+00) (95, -5.39928376674652099609e-01) (96, 2.26685571670532226562e+00) (97, -1.09290039539337158203e+00) (98, 2.70056486129760742188e+00) (99, -1.19739091396331787109e+00) (100, 2.68829917907714843750e+00) (101, -1.06789302825927734375e+00) (102, 9.69608783721923828125e-01) (103, 1.69904017448425292969e+00) (104, 9.40933048725128173828e-01) (105, 1.37007904052734375000e+00) (106, 1.10603606700897216797e+00) (107, 1.46543920040130615234e+00) (108, 7.94944107532501220703e-01) (109, 1.43635225296020507812e+00) (110, 8.71178448200225830078e-01) (111, 9.69405531883239746094e-01) (112, 1.48273873329162597656e+00) (113, 5.91209709644317626953e-01) (114, 2.07311153411865234375e+00) (115, 7.34797894954681396484e-01) (116, 1.97380781173706054688e+00) (117, 6.07048928737640380859e-01) (118, 2.06477642059326171875e+00) (119, -2.05771088600158691406e-01) (120, 2.15605831146240234375e+00) (121, -4.90430653095245361328e-01) (122, 2.41357588768005371094e+00) (123, -7.87215352058410644531e-01) (124, 2.57135534286499023438e+00) (125, -1.24527835845947265625e+00) (126, 2.43903160095214843750e+00) (127, -1.37420368194580078125e+00) (128, 2.39615845680236816406e+00) (129, -2.11208248138427734375e+00) (130, 2.05786943435668945312e+00) (131, -1.92756545543670654297e+00) (132, 2.15364050865173339844e+00) (133, -2.13726019859313964844e+00) (134, 1.68854284286499023438e+00) (135, -1.75460290908813476562e+00) (136, 1.33083796501159667969e+00) (137, -2.37693381309509277344e+00) (138, 9.81341838836669921875e-01) (139, -2.07851862907409667969e+00) (140, 1.00310409069061279297e+00) (141, -2.46239423751831054688e+00) (142, 1.37134230136871337891e+00) (143, -1.28494083881378173828e+00) (144, 9.77479755878448486328e-01) (145, -3.88958364725112915039e-01) (146, 8.66661190986633300781e-01) (147, 1.47401362657546997070e-01) (148, 1.30464637279510498047e+00) (149, 1.67531579732894897461e-01) (150, 6.69316330458968877792e-04) (0, 1.44124031066894531250e+01) (1, 6.19064044952392578125e+00) (2, 1.14838476181030273438e+01) (3, 5.76208829879760742188e+00) (4, 6.16292190551757812500e+00) (5, 5.84097814559936523438e+00) (6, 3.07444596290588378906e+00) (7, 4.83750915527343750000e+00) (8, 1.78483831882476806641e+00) (9, 3.81097769737243652344e+00) (10, -2.16807794570922851562e+00) (11, 2.30352830886840820312e+00) (12, 3.45033891499042510986e-02) (13, 2.61335873603820800781e+00) (14, -2.44301462173461914062e+00) (15, 1.03881120681762695312e+00) (16, -5.84312379360198974609e-01) (17, -1.15718054771423339844e+00) (18, -3.30384516716003417969e+00) (19, -1.96505820751190185547e+00) (20, -4.37485694885253906250e+00) (21, -1.88698962330818176270e-01) (22, -5.67804384231567382812e+00) (23, -5.49439251422882080078e-01) (24, 4.49445515871047973633e-01) (25, -3.61035037040710449219e+00) (26, -8.67149889469146728516e-01) (27, -4.64319276809692382812e+00) (28, -4.46902990341186523438e-01) (29, -6.74870920181274414062e+00) (30, 8.68413627147674560547e-01) (31, -7.64881372451782226562e+00) (32, 2.01222515106201171875e+00) (33, -4.27665901184082031250e+00) (34, -1.32848453521728515625e+00) (35, -2.66533088684082031250e+00) (36, 8.85226666927337646484e-01) (37, -4.04115104675292968750e+00) (38, 1.03362357616424560547e+00) (39, -2.99225592613220214844e+00) (40, 3.46258133649826049805e-02) (41, -2.16771459579467773438e+00) (42, 4.27246928215026855469e-01) (43, -1.49179923534393310547e+00) (44, 1.17124460637569427490e-01) (45, -1.36103010177612304688e+00) (46, 2.37428641319274902344e+00) (47, -9.24734234809875488281e-01) (48, 5.26144742965698242188e+00) (49, 2.42528653144836425781e+00) (50, 1.66115927696228027344e+00) (51, 2.67061710357666015625e+00) (52, 4.71356451511383056641e-01) (53, 5.66486358642578125000e+00) (54, -8.70076954364776611328e-01) (55, 1.13371658325195312500e+00) (56, -1.37275063991546630859e+00) (57, 1.08280405402183532715e-01) (58, -3.26113879680633544922e-01) (59, -3.79550695419311523438e+00) (60, -1.35585594177246093750e+00) (61, -5.38206994533538818359e-01) (62, -3.88359546661376953125e-01) (63, -1.33030056953430175781e-01) (64, 1.43037593364715576172e+00) (65, -2.87693476676940917969e+00) (66, 2.32620072364807128906e+00) (67, -1.97983896732330322266e+00) (68, 8.05759549140930175781e-01) (69, -7.76754021644592285156e-02) (70, 5.18309697508811950684e-02) (71, 1.41442728042602539062e+00) (72, -9.78556796908378601074e-02) (73, 9.62232887744903564453e-01) (74, 8.43914806842803955078e-01) (75, 1.19802892208099365234e+00) (76, -1.23011279106140136719e+00) (77, 8.89875650405883789062e-01) (78, -1.57882821559906005859e+00) (79, -6.02321028709411621094e-01) (80, -1.03603339195251464844e+00) (81, -4.10453766584396362305e-01) (82, 5.44008612632751464844e-01) (83, 1.08839201927185058594e+00) (84, 2.78974503278732299805e-01) (85, 1.00962758064270019531e+00) (86, 5.42741656303405761719e-01) (87, 6.95272445678710937500e-01) (88, 1.22922515869140625000e+00) (89, 1.44013524055480957031e+00) (90, 4.25042957067489624023e-01) (91, 1.11927725374698638916e-01) (92, 8.55532765388488769531e-01) (93, -1.90302789211273193359e-01) (94, 1.41569125652313232422e+00) (95, 3.92042025923728942871e-02) (96, 1.73854637145996093750e+00) (97, -7.21873223781585693359e-01) (98, 2.59626984596252441406e+00) (99, -1.03898096084594726562e+00) (100, 2.69622135162353515625e+00) (101, -6.85624480247497558594e-01) (102, 1.88907754421234130859e+00) (103, 7.26371467113494873047e-01) (104, 2.36541819572448730469e+00) (105, 2.23744794726371765137e-01) (106, 2.50830817222595214844e+00) (107, 4.19722497463226318359e-01) (108, 2.67530965805053710938e+00) (109, 9.80035245418548583984e-01) (110, 3.15679621696472167969e+00) (111, 2.61375606060028076172e-01) (112, 4.07712554931640625000e+00) (113, 1.15604884922504425049e-02) (114, 4.36831760406494140625e+00) (115, 2.24836304783821105957e-01) (116, 4.86172246932983398438e+00) (117, 6.32841110229492187500e-01) (118, 4.77826690673828125000e+00) (119, 1.95204168558120727539e-01) (120, 4.62843894958496093750e+00) (121, 2.34908491373062133789e-01) (122, 4.82584190368652343750e+00) (123, -1.43759667873382568359e-01) (124, 4.64014816284179687500e+00) (125, -4.96663093566894531250e-01) (126, 4.67411756515502929688e+00) (127, -5.69462656974792480469e-01) (128, 4.27188682556152343750e+00) (129, -9.19929623603820800781e-01) (130, 4.27399587631225585938e+00) (131, -1.15061497688293457031e+00) (132, 3.99870491027832031250e+00) (133, -1.54296231269836425781e+00) (134, 3.27877736091613769531e+00) (135, -1.18280947208404541016e+00) (136, 3.04388570785522460938e+00) (137, -1.88187074661254882812e+00) (138, 2.48467016220092773438e+00) (139, -1.90606999397277832031e+00) (140, 1.97117280960083007812e+00) (141, -2.32104015350341796875e+00) (142, 3.22138667106628417969e+00) (143, -1.13943529129028320312e+00) (144, 2.36047673225402832031e+00) (145, -5.89371860027313232422e-01) (146, 2.14781427383422851562e+00) (147, -5.39375305175781250000e-01) (148, 2.58098840713500976562e+00) (149, -8.45519781112670898438e-01) (150, 1.03842958807945251465e-01) (0, 6.97801160812377929688e+00) (1, 6.11382865905761718750e+00) (2, 9.34459972381591796875e+00) (3, 3.71380949020385742188e+00) (4, 5.92046308517456054688e+00) (5, 4.07487678527832031250e+00) (6, 3.03453969955444335938e+00) (7, 2.69163227081298828125e+00) (8, 1.75228023529052734375e+00) (9, 2.41102480888366699219e+00) (10, -1.52945196628570556641e+00) (11, 1.20263087749481201172e+00) (12, 2.23833456635475158691e-01) (13, 1.45006287097930908203e+00) (14, -2.03174424171447753906e+00) (15, 7.34179794788360595703e-01) (16, 2.47575968503952026367e-01) (17, -8.18646609783172607422e-01) (18, -1.50191521644592285156e+00) (19, -1.49705493450164794922e+00) (20, -3.04063677787780761719e+00) (21, 1.11383843421936035156e+00) (22, -4.91593313217163085938e+00) (23, 3.55158150196075439453e-01) (24, -3.24810457229614257812e+00) (25, -3.40357446670532226562e+00) (26, -4.91784048080444335938e+00) (27, -3.13826465606689453125e+00) (28, -3.94147348403930664062e+00) (29, -2.81434583663940429688e+00) (30, -2.15876626968383789062e+00) (31, -3.44106650352478027344e+00) (32, 4.86962437629699707031e-01) (33, -2.16000127792358398438e+00) (34, -6.30410239100456237793e-02) (35, -2.68961995840072631836e-01) (36, -1.11432123184204101562e+00) (37, 2.74067640304565429688e-01) (38, -1.67113256454467773438e+00) (39, 2.03901112079620361328e-01) (40, -2.97214293479919433594e+00) (41, -3.79341602325439453125e-01) (42, -2.34815716743469238281e+00) (43, 4.14371073246002197266e-01) (44, -3.45511484146118164062e+00) (45, -1.20096281170845031738e-01) (46, -5.02041053771972656250e+00) (47, 5.18165349960327148438e-01) (48, -2.29734420776367187500e+00) (49, 3.29719924926757812500e+00) (50, -2.39985394477844238281e+00) (51, 4.59626865386962890625e+00) (52, -2.91539382934570312500e+00) (53, 2.26898148655891418457e-01) (54, -5.50491809844970703125e+00) (55, -2.17915511131286621094e+00) (56, -6.97254610061645507812e+00) (57, -9.26437020301818847656e-01) (58, -6.42016315460205078125e+00) (59, -3.80269289016723632812e+00) (60, -7.32237291336059570312e+00) (61, -2.49047160148620605469e+00) (62, -6.63097381591796875000e+00) (63, -7.73321866989135742188e-01) (64, -8.45838606357574462891e-01) (65, -2.56496071815490722656e+00) (66, -9.25975084304809570312e-01) (67, -4.87756311893463134766e-01) (68, -9.69793796539306640625e-01) (69, 6.98165372014045715332e-02) (70, -1.78001236915588378906e+00) (71, 3.17853063344955444336e-01) (72, -1.81527769565582275391e+00) (73, 7.57950603961944580078e-01) (74, -1.72496700286865234375e+00) (75, -1.37628361582756042480e-01) (76, 2.27961495518684387207e-01) (77, 9.49022829532623291016e-01) (78, 2.26711705327033996582e-02) (79, 1.03119850158691406250e+00) (80, -1.10026150941848754883e-02) (81, 1.29805648326873779297e+00) (82, 3.14814150333404541016e-01) (83, 1.20247244834899902344e+00) (84, 1.58939987421035766602e-01) (85, 1.56192255020141601562e+00) (86, -5.17375171184539794922e-01) (87, 1.26343297958374023438e+00) (88, -1.13375127315521240234e+00) (89, 8.41463625431060791016e-01) (90, -5.48972547054290771484e-01) (91, 1.77663564682006835938e+00) (92, -5.49204468727111816406e-01) (93, 2.12694692611694335938e+00) (94, -6.67604386806488037109e-01) (95, 1.85221469402313232422e+00) (96, -7.48953223228454589844e-01) (97, 1.98266267776489257812e+00) (98, -1.19107019901275634766e+00) (99, 1.86251342296600341797e+00) (100, -1.03464019298553466797e+00) (101, 1.40915036201477050781e+00) (102, -1.35287031531333923340e-01) (103, 6.15517199039459228516e-02) (104, -7.47940018773078918457e-02) (105, -2.17076569795608520508e-01) (106, -2.72797942161560058594e-01) (107, -1.85961052775382995605e-01) (108, 6.44817501306533813477e-02) (109, -2.97325313091278076172e-01) (110, 2.08769574761390686035e-01) (111, -2.00107693672180175781e-01) (112, -3.34015458822250366211e-01) (113, 1.29634648561477661133e-01) (114, -5.40746748447418212891e-01) (115, 1.93941682577133178711e-01) (116, 3.01047503948211669922e-01) (117, -4.35585621744394302368e-03) (118, 1.58477485179901123047e-01) (119, -6.30717054009437561035e-02) (120, 1.17332793772220611572e-01) (121, -2.22215905785560607910e-01) (122, 2.60371640324592590332e-02) (123, -3.07265996932983398438e-01) (124, 5.88281452655792236328e-02) (125, -4.84161674976348876953e-01) (126, 4.80354838073253631592e-02) (127, -5.65264165401458740234e-01) (128, 2.22631737589836120605e-01) (129, -1.73267200589179992676e-02) (130, 8.89743983745574951172e-01) (131, -6.23967610299587249756e-02) (132, 7.89079129695892333984e-01) (133, -5.86603134870529174805e-02) (134, 5.73365509510040283203e-01) (135, 3.02801746875047683716e-02) (136, 5.15201747417449951172e-01) (137, 8.48900824785232543945e-02) (138, 7.57084131240844726562e-01) (139, -4.41683441400527954102e-01) (140, 4.10817474126815795898e-01) (141, -3.88046920299530029297e-01) (142, -1.61840856075286865234e-01) (143, -1.26272475719451904297e+00) (144, -2.86465346813201904297e-01) (145, -7.31881022453308105469e-01) (146, -3.87560099363327026367e-01) (147, -8.65451812744140625000e-01) (148, -9.93549823760986328125e-01) (149, -7.12571442127227783203e-01) (150, 8.40045735239982604980e-02) (0, -5.49247741699218750000e+00) (1, 6.69861555099487304688e+00) (2, -5.33911132812500000000e+00) (3, 6.54117250442504882812e+00) (4, -2.39813709259033203125e+00) (5, 4.11898183822631835938e+00) (6, -1.52996480464935302734e+00) (7, 3.03351235389709472656e+00) (8, -9.34001445770263671875e-01) (9, 1.50936961174011230469e+00) (10, 1.50478944182395935059e-01) (11, 1.47967234253883361816e-01) (12, -2.66915738582611083984e-01) (13, -1.74933421611785888672e+00) (14, 3.19373637437820434570e-01) (15, -3.41882467269897460938e+00) (16, -3.24782967567443847656e+00) (17, -4.07876205444335937500e+00) (18, -2.93826484680175781250e+00) (19, -5.19100475311279296875e+00) (20, -2.64458370208740234375e+00) (21, -9.91138160228729248047e-01) (22, -2.06432056427001953125e+00) (23, -1.50592005252838134766e+00) (24, -1.00786542892456054688e+00) (25, -1.08508658409118652344e+00) (26, -8.95066618919372558594e-01) (27, -7.19836711883544921875e-01) (28, -1.16581165790557861328e+00) (29, -1.23915767669677734375e+00) (30, -2.80340403318405151367e-01) (31, 8.27746465802192687988e-02) (32, -2.48983287811279296875e+00) (33, 2.92527973651885986328e-01) (34, -8.04492354393005371094e-01) (35, 1.97722899913787841797e+00) (36, -8.86254370212554931641e-01) (37, -4.03692156076431274414e-01) (38, -3.06192666292190551758e-01) (39, 1.42841374874114990234e+00) (40, -1.24928271770477294922e+00) (41, 9.23512518405914306641e-01) (42, 5.76831810176372528076e-02) (43, 1.07145965099334716797e+00) (44, -5.05472779273986816406e-01) (45, 3.52041578292846679688e+00) (46, -8.14857304096221923828e-01) (47, 2.81874465942382812500e+00) (48, -2.22870230674743652344e+00) (49, 8.44238460063934326172e-01) (50, -1.38064622879028320312e-01) (51, -8.66286158561706542969e-01) (52, -1.37746953964233398438e+00) (53, 9.66119408607482910156e-01) (54, -1.27338075637817382812e+00) (55, 2.33170914649963378906e+00) (56, -1.18801665306091308594e+00) (57, 1.34767031669616699219e+00) (58, -3.64217019081115722656e+00) (59, 2.01175642013549804688e+00) (60, -1.80799674987792968750e+00) (61, 1.00884449481964111328e+00) (62, -5.87416291236877441406e-01) (63, 8.76801013946533203125e-01) (64, -4.82929766178131103516e-01) (65, 2.35012197494506835938e+00) (66, -2.35281974077224731445e-01) (67, 2.82048434019088745117e-01) (68, -8.23199748992919921875e-01) (69, 3.55725139379501342773e-01) (70, 1.90144455432891845703e+00) (71, 2.61219096183776855469e+00) (72, 1.52784013748168945312e+00) (73, 1.46961295604705810547e+00) (74, 6.67424380779266357422e-01) (75, 1.28304219245910644531e+00) (76, -3.65920186042785644531e-01) (77, 8.52156519889831542969e-01) (78, 6.61290362477302551270e-02) (79, 1.31850033998489379883e-01) (80, 4.08752024173736572266e-01) (81, 4.38039332628250122070e-01) (82, -2.15110376477241516113e-01) (83, -7.32314705848693847656e-01) (84, -1.70687705278396606445e-01) (85, -1.01438355445861816406e+00) (86, 3.16139720380306243896e-02) (87, -1.37833368778228759766e+00) (88, 2.41901725530624389648e-01) (89, -1.58168566226959228516e+00) (90, -1.38117402791976928711e-01) (91, -2.44608902931213378906e+00) (92, -1.36925488710403442383e-01) (93, -2.44851779937744140625e+00) (94, 2.82559514045715332031e-01) (95, -2.34366178512573242188e+00) (96, 6.03604614734649658203e-01) (97, -2.38477921485900878906e+00) (98, 1.11677837371826171875e+00) (99, -2.01473498344421386719e+00) (100, 1.12077701091766357422e+00) (101, -1.52857828140258789062e+00) (102, 7.75619447231292724609e-01) (103, -3.03109318017959594727e-01) (104, 7.60552465915679931641e-01) (105, -4.06090080738067626953e-01) (106, 5.29194056987762451172e-01) (107, -7.64073878526687622070e-02) (108, 2.65825003385543823242e-01) (109, 3.60690593719482421875e-01) (110, 2.36884728074073791504e-01) (111, 5.99039733409881591797e-01) (112, 4.92170453071594238281e-01) (113, 7.35491752624511718750e-01) (114, 4.52209293842315673828e-01) (115, 6.41893267631530761719e-01) (116, 5.12164495885372161865e-02) (117, 1.10750854015350341797e+00) (118, 1.85793712735176086426e-01) (119, 9.85177874565124511719e-01) (120, 2.66761183738708496094e-01) (121, 1.12357807159423828125e+00) (122, 6.73998415470123291016e-01) (123, 1.43413424491882324219e+00) (124, 6.24186396598815917969e-01) (125, 1.44559133052825927734e+00) (126, 7.96753466129302978516e-01) (127, 1.59483850002288818359e+00) (128, 7.97234058380126953125e-01) (129, 1.07705616950988769531e+00) (130, 2.17696860432624816895e-01) (131, 1.12370514869689941406e+00) (132, 4.38989162445068359375e-01) (133, 1.09160327911376953125e+00) (134, 5.27117967605590820312e-01) (135, 8.90360593795776367188e-01) (136, 7.13124513626098632812e-01) (137, 9.00223672389984130859e-01) (138, 6.98229968547821044922e-01) (139, 1.37340664863586425781e+00) (140, 7.47196912765502929688e-01) (141, 1.26699423789978027344e+00) (142, 7.06297755241394042969e-01) (143, 1.36648762226104736328e+00) (144, 9.84628260135650634766e-01) (145, 6.48994147777557373047e-01) (146, 1.11551713943481445312e+00) (147, 7.74229705333709716797e-01) (148, 1.47810983657836914062e+00) (149, 6.05371415615081787109e-01) (150, -9.18587297201156616211e-02) (0, 3.65836620330810546875e+00) (1, 1.51707661151885986328e+00) (2, 3.99723172187805175781e+00) (3, -2.74964272975921630859e-01) (4, 2.78100728988647460938e+00) (5, -2.71380543708801269531e-01) (6, 6.92589342594146728516e-01) (7, -4.47221577167510986328e-01) (8, -1.34571284055709838867e-01) (9, 3.16022783517837524414e-01) (10, -2.30612421035766601562e+00) (11, 3.59633237123489379883e-01) (12, -1.67142641544342041016e+00) (13, 1.67686557769775390625e+00) (14, -3.30329823493957519531e+00) (15, 2.05550026893615722656e+00) (16, -2.43445968627929687500e+00) (17, 2.38624072074890136719e+00) (18, -3.55453610420227050781e+00) (19, 2.43510365486145019531e+00) (20, -4.55398464202880859375e+00) (21, 1.50591897964477539062e+00) (22, -5.12150335311889648438e+00) (23, 1.45999836921691894531e+00) (24, -2.16653466224670410156e+00) (25, 5.16693890094757080078e-01) (26, -2.40076065063476562500e+00) (27, -6.08723819255828857422e-01) (28, -2.02795886993408203125e+00) (29, -3.45717692375183105469e+00) (30, 1.46450242027640342712e-02) (31, -6.80216073989868164062e+00) (32, 5.68462967872619628906e-01) (33, -2.94967985153198242188e+00) (34, -2.93753981590270996094e+00) (35, -1.45501911640167236328e+00) (36, -2.36718416213989257812e+00) (37, -2.66335320472717285156e+00) (38, -3.16724085807800292969e+00) (39, -3.31528449058532714844e+00) (40, -7.03701925277709960938e+00) (41, -3.64201784133911132812e+00) (42, -5.96311807632446289062e+00) (43, -4.47033166885375976562e+00) (44, -1.43171966075897216797e+00) (45, -5.77347946166992187500e+00) (46, -7.33209431171417236328e-01) (47, -3.63198614120483398438e+00) (48, 8.00873696804046630859e-01) (49, -1.49274325370788574219e+00) (50, -4.78576928377151489258e-01) (51, -1.18447244167327880859e+00) (52, -5.90364396572113037109e-01) (53, -2.83721178770065307617e-01) (54, -1.21497845649719238281e+00) (55, -3.57860565185546875000e+00) (56, -1.86419057846069335938e+00) (57, -3.22712779045104980469e+00) (58, -1.46414673328399658203e+00) (59, -4.88367033004760742188e+00) (60, -7.65897154808044433594e-01) (61, -3.45333838462829589844e+00) (62, -1.13876271247863769531e+00) (63, -3.02190947532653808594e+00) (64, -1.18959665298461914062e+00) (65, -4.06600189208984375000e+00) (66, 1.64904759731143712997e-03) (67, -3.68079328536987304688e+00) (68, -1.14963960647583007812e+00) (69, -1.31024253368377685547e+00) (70, 3.02840732038021087646e-02) (71, 7.50959575176239013672e-01) (72, -6.18538975715637207031e-01) (73, 8.99492859840393066406e-01) (74, 1.60150158405303955078e+00) (75, -8.74836921691894531250e-01) (76, 8.41431438922882080078e-01) (77, 3.60540032386779785156e-01) (78, 3.70923042297363281250e-01) (79, 1.89941152930259704590e-01) (80, 5.15278637409210205078e-01) (81, 9.81355607509613037109e-01) (82, 6.11494004726409912109e-01) (83, 2.00566482543945312500e+00) (84, -9.28520262241363525391e-02) (85, 2.55966019630432128906e+00) (86, -9.80295777320861816406e-01) (87, 2.08650827407836914062e+00) (88, -6.71384751796722412109e-01) (89, 3.05178737640380859375e+00) (90, -4.91151422262191772461e-01) (91, 3.29135346412658691406e+00) (92, -4.97239917516708374023e-01) (93, 3.31458091735839843750e+00) (94, -5.75040876865386962891e-01) (95, 3.04837632179260253906e+00) (96, -5.23047208786010742188e-01) (97, 2.38517737388610839844e+00) (98, -1.10253743827342987061e-01) (99, 1.89533543586730957031e+00) (100, 2.10246831178665161133e-01) (101, 1.34370243549346923828e+00) (102, 1.33501386642456054688e+00) (103, -1.04001998901367187500e+00) (104, 1.58144712448120117188e+00) (105, -1.62949526309967041016e+00) (106, 1.77231764793395996094e+00) (107, -1.94949996471405029297e+00) (108, 2.28515362739562988281e+00) (109, -2.33784365653991699219e+00) (110, 2.64401054382324218750e+00) (111, -3.03360486030578613281e+00) (112, 2.31898903846740722656e+00) (113, -3.04004216194152832031e+00) (114, 1.97986984252929687500e+00) (115, -3.72872757911682128906e+00) (116, 2.63771843910217285156e+00) (117, -3.80774426460266113281e+00) (118, 2.03289985656738281250e+00) (119, -3.95645666122436523438e+00) (120, 1.72535967826843261719e+00) (121, -3.63147854804992675781e+00) (122, 1.11011075973510742188e+00) (123, -3.45268988609313964844e+00) (124, 6.99343264102935791016e-01) (125, -3.35290694236755371094e+00) (126, 8.57075229287147521973e-02) (127, -2.82638716697692871094e+00) (128, -3.00160020589828491211e-01) (129, -4.85063701868057250977e-01) (130, 1.21614885330200195312e+00) (131, -1.40527069568634033203e+00) (132, 6.43060803413391113281e-01) (133, -9.61519241333007812500e-01) (134, 1.98041126132011413574e-01) (135, -1.00444114208221435547e+00) (136, 3.89675855636596679688e-01) (137, -4.43668514490127563477e-01) (138, 3.04001569747924804688e-02) (139, -8.11681807041168212891e-01) (140, -4.31604653596878051758e-01) (141, -9.69019055366516113281e-01) (142, 8.66781711578369140625e-01) (143, -4.34146106243133544922e-01) (144, 1.00852513313293457031e+00) (145, -4.46564346551895141602e-01) (146, 8.53412866592407226562e-01) (147, -1.02319407463073730469e+00) (148, 5.45228660106658935547e-01) (149, -1.07971656322479248047e+00) (150, -1.31731154397130012512e-02) (0, 4.79420757293701171875e+00) (1, 7.79405784606933593750e+00) (2, 8.19187927246093750000e+00) (3, 6.32036781311035156250e+00) (4, 4.49028778076171875000e+00) (5, 6.68993759155273437500e+00) (6, 2.07261729240417480469e+00) (7, 5.04793167114257812500e+00) (8, 7.51957237720489501953e-01) (9, 4.30526208877563476562e+00) (10, -1.99798989295959472656e+00) (11, 2.94925761222839355469e+00) (12, 7.70804062485694885254e-02) (13, 2.47296690940856933594e+00) (14, -1.81695139408111572266e+00) (15, 1.62793207168579101562e+00) (16, 1.72493636608123779297e+00) (17, -1.00826233625411987305e-01) (18, 5.29923379421234130859e-01) (19, -1.15296995639801025391e+00) (20, -8.55019032955169677734e-01) (21, 2.70847111940383911133e-01) (22, -2.48384714126586914062e+00) (23, -1.00260353088378906250e+00) (24, -3.21473598480224609375e+00) (25, -4.03728580474853515625e+00) (26, -4.11528253555297851562e+00) (27, -2.76178193092346191406e+00) (28, -4.40971660614013671875e+00) (29, -2.65826845169067382812e+00) (30, -3.44482851028442382812e+00) (31, -3.02093243598937988281e+00) (32, -2.24425864219665527344e+00) (33, 1.45625257492065429688e+00) (34, -8.02007913589477539062e-01) (35, 2.24388957023620605469e+00) (36, -3.40134453773498535156e+00) (37, 1.31218564510345458984e+00) (38, -4.15707445144653320312e+00) (39, 2.25336030125617980957e-01) (40, -5.17059850692749023438e+00) (41, -1.64758431911468505859e+00) (42, -4.06336259841918945312e+00) (43, -1.47348737716674804688e+00) (44, -3.42874670028686523438e+00) (45, -3.08755040168762207031e+00) (46, -7.52906608581542968750e+00) (47, -1.51867818832397460938e+00) (48, -4.80457162857055664062e+00) (49, 1.08686566352844238281e+00) (50, -2.16810917854309082031e+00) (51, 9.29184496402740478516e-01) (52, -1.74562680721282958984e+00) (53, -2.97111558914184570312e+00) (54, -3.93612360954284667969e+00) (55, -4.58760547637939453125e+00) (56, -5.28299474716186523438e+00) (57, -4.43330049514770507812e+00) (58, -3.46332025527954101562e+00) (59, -6.28272294998168945312e+00) (60, -3.92821025848388671875e+00) (61, -4.95727109909057617188e+00) (62, -3.24000191688537597656e+00) (63, -3.10156774520874023438e+00) (64, -1.67070353031158447266e+00) (65, -2.12183952331542968750e+00) (66, -5.94766139984130859375e-01) (67, -4.60466772317886352539e-01) (68, -1.41501462459564208984e+00) (69, -1.75419282168149948120e-02) (70, -1.36195623874664306641e+00) (71, 6.97292089462280273438e-01) (72, -1.20785403251647949219e+00) (73, 1.46398401260375976562e+00) (74, -1.80352926254272460938e+00) (75, 1.32825314998626708984e+00) (76, 5.17476081848144531250e-01) (77, 1.32590031623840332031e+00) (78, 4.35157209634780883789e-01) (79, 1.46451544761657714844e+00) (80, 1.46386831998825073242e-01) (81, 1.61933553218841552734e+00) (82, -7.71680027246475219727e-02) (83, 1.41832089424133300781e+00) (84, -5.10540783405303955078e-01) (85, 1.36398839950561523438e+00) (86, 