FANN_FLO_2.1
num_layers=4
learning_rate=0.700000
connection_rate=1.000000
network_type=0
learning_momentum=0.000000
training_algorithm=0
train_error_function=1
train_stop_function=0
cascade_output_change_fraction=0.010000
quickprop_decay=-0.000100
quickprop_mu=1.750000
rprop_increase_factor=1.200000
rprop_decrease_factor=0.500000
rprop_delta_min=0.000000
rprop_delta_max=50.000000
rprop_delta_zero=0.100000
cascade_output_stagnation_epochs=12
cascade_candidate_change_fraction=0.010000
cascade_candidate_stagnation_epochs=12
cascade_max_out_epochs=150
cascade_max_cand_epochs=150
cascade_num_candidate_groups=2
bit_fail_limit=3.49999994039535522461e-01
cascade_candidate_limit=1.00000000000000000000e+03
cascade_weight_multiplier=4.00000005960464477539e-01
cascade_activation_functions_count=10
cascade_activation_functions=3 5 7 8 10 11 14 15 16 17 
cascade_activation_steepnesses_count=4
cascade_activation_steepnesses=2.50000000000000000000e-01 5.00000000000000000000e-01 7.50000000000000000000e-01 1.00000000000000000000e+00 
layer_sizes=151 71 17 5 
scale_included=0
neurons (num_inputs, activation_function, activation_steepness)=(0, 0, 0.00000000000000000000e+00) (0, 0, 0.00000000000000000000e+00) (0, 0, 0.00000000000000000000e+00) (0, 0, 0.00000000000000000000e+00) (0, 0, 0.00000000000000000000e+00) (0, 0, 0.00000000000000000000e+00) (0, 0, 0.00000000000000000000e+00) (0, 0, 0.00000000000000000000e+00) (0, 0, 0.00000000000000000000e+00) (0, 0, 0.00000000000000000000e+00) (0, 0, 0.00000000000000000000e+00) (0, 0, 0.00000000000000000000e+00) (0, 0, 0.00000000000000000000e+00) (0, 0, 0.00000000000000000000e+00) (0, 0, 0.00000000000000000000e+00) (0, 0, 0.00000000000000000000e+00) (0, 0, 0.00000000000000000000e+00) (0, 0, 0.00000000000000000000e+00) (0, 0, 0.00000000000000000000e+00) (0, 0, 0.00000000000000000000e+00) (0, 0, 0.00000000000000000000e+00) (0, 0, 0.00000000000000000000e+00) (0, 0, 0.00000000000000000000e+00) (0, 0, 0.00000000000000000000e+00) (0, 0, 0.00000000000000000000e+00) (0, 0, 0.00000000000000000000e+00) (0, 0, 0.00000000000000000000e+00) (0, 0, 0.00000000000000000000e+00) (0, 0, 0.00000000000000000000e+00) (0, 0, 0.00000000000000000000e+00) (0, 0, 0.00000000000000000000e+00) (0, 0, 0.00000000000000000000e+00) (0, 0, 0.00000000000000000000e+00) (0, 0, 0.00000000000000000000e+00) (0, 0, 0.00000000000000000000e+00) (0, 0, 0.00000000000000000000e+00) (0, 0, 0.00000000000000000000e+00) (0, 0, 0.00000000000000000000e+00) (0, 0, 0.00000000000000000000e+00) (0, 0, 0.00000000000000000000e+00) (0, 0, 0.00000000000000000000e+00) (0, 0, 0.00000000000000000000e+00) (0, 0, 0.00000000000000000000e+00) (0, 0, 0.00000000000000000000e+00) (0, 0, 0.00000000000000000000e+00) (0, 0, 0.00000000000000000000e+00) (0, 0, 0.00000000000000000000e+00) (0, 0, 0.00000000000000000000e+00) (0, 0, 0.00000000000000000000e+00) (0, 0, 0.00000000000000000000e+00) (0, 0, 0.00000000000000000000e+00) (0, 0, 0.00000000000000000000e+00) (0, 0, 0.00000000000000000000e+00) (0, 0, 0.00000000000000000000e+00) (0, 0, 0.00000000000000000000e+00) (0, 0, 0.00000000000000000000e+00) (0, 0, 0.00000000000000000000e+00) (0, 0, 0.00000000000000000000e+00) (0, 0, 0.00000000000000000000e+00) (0, 0, 0.00000000000000000000e+00) (0, 0, 0.00000000000000000000e+00) (0, 0, 0.00000000000000000000e+00) (0, 0, 0.00000000000000000000e+00) (0, 0, 0.00000000000000000000e+00) (0, 0, 0.00000000000000000000e+00) (0, 0, 0.00000000000000000000e+00) (0, 0, 0.00000000000000000000e+00) (0, 0, 0.00000000000000000000e+00) (0, 0, 0.00000000000000000000e+00) (0, 0, 0.00000000000000000000e+00) (0, 0, 0.00000000000000000000e+00) (0, 0, 0.00000000000000000000e+00) (0, 0, 0.00000000000000000000e+00) (0, 0, 0.00000000000000000000e+00) (0, 0, 0.00000000000000000000e+00) (0, 0, 0.00000000000000000000e+00) (0, 0, 0.00000000000000000000e+00) (0, 0, 0.00000000000000000000e+00) (0, 0, 0.00000000000000000000e+00) (0, 0, 0.00000000000000000000e+00) (0, 0, 0.00000000000000000000e+00) (0, 0, 0.00000000000000000000e+00) (0, 0, 0.00000000000000000000e+00) (0, 0, 0.00000000000000000000e+00) (0, 0, 0.00000000000000000000e+00) (0, 0, 0.00000000000000000000e+00) (0, 0, 0.00000000000000000000e+00) (0, 0, 0.00000000000000000000e+00) (0, 0, 0.00000000000000000000e+00) (0, 0, 0.00000000000000000000e+00) (0, 0, 0.00000000000000000000e+00) (0, 0, 0.00000000000000000000e+00) (0, 0, 0.00000000000000000000e+00) (0, 0, 0.00000000000000000000e+00) (0, 0, 0.00000000000000000000e+00) (0, 0, 0.00000000000000000000e+00) (0, 0, 0.00000000000000000000e+00) (0, 0, 0.00000000000000000000e+00) (0, 0, 0.00000000000000000000e+00) (0, 0, 0.00000000000000000000e+00) (0, 0, 0.00000000000000000000e+00) (0, 0, 0.00000000000000000000e+00) (0, 0, 0.00000000000000000000e+00) (0, 0, 0.00000000000000000000e+00) (0, 0, 0.00000000000000000000e+00) (0, 0, 0.00000000000000000000e+00) (0, 0, 0.00000000000000000000e+00) (0, 0, 0.00000000000000000000e+00) (0, 0, 0.00000000000000000000e+00) (0, 0, 0.00000000000000000000e+00) (0, 0, 0.00000000000000000000e+00) (0, 0, 0.00000000000000000000e+00) (0, 0, 0.00000000000000000000e+00) (0, 0, 0.00000000000000000000e+00) (0, 0, 0.00000000000000000000e+00) (0, 0, 0.00000000000000000000e+00) (0, 0, 0.00000000000000000000e+00) (0, 0, 0.00000000000000000000e+00) (0, 0, 0.00000000000000000000e+00) (0, 0, 0.00000000000000000000e+00) (0, 0, 0.00000000000000000000e+00) (0, 0, 0.00000000000000000000e+00) (0, 0, 0.00000000000000000000e+00) (0, 0, 0.00000000000000000000e+00) (0, 0, 0.00000000000000000000e+00) (0, 0, 0.00000000000000000000e+00) (0, 0, 0.00000000000000000000e+00) (0, 0, 0.00000000000000000000e+00) (0, 0, 0.00000000000000000000e+00) (0, 0, 0.00000000000000000000e+00) (0, 0, 0.00000000000000000000e+00) (0, 0, 0.00000000000000000000e+00) (0, 0, 0.00000000000000000000e+00) (0, 0, 0.00000000000000000000e+00) (0, 0, 0.00000000000000000000e+00) (0, 0, 0.00000000000000000000e+00) (0, 0, 0.00000000000000000000e+00) (0, 0, 0.00000000000000000000e+00) (0, 0, 0.00000000000000000000e+00) (0, 0, 0.00000000000000000000e+00) (0, 0, 0.00000000000000000000e+00) (0, 0, 0.00000000000000000000e+00) (0, 0, 0.00000000000000000000e+00) (0, 0, 0.00000000000000000000e+00) (0, 0, 0.00000000000000000000e+00) (0, 0, 0.00000000000000000000e+00) (0, 0, 0.00000000000000000000e+00) (0, 0, 0.00000000000000000000e+00) (0, 0, 0.00000000000000000000e+00) (0, 0, 0.00000000000000000000e+00) (0, 0, 0.00000000000000000000e+00) (151, 6, 5.00000000000000000000e-01) (151, 6, 5.00000000000000000000e-01) (151, 6, 5.00000000000000000000e-01) (151, 6, 5.00000000000000000000e-01) (151, 6, 5.00000000000000000000e-01) (151, 6, 5.00000000000000000000e-01) (151, 6, 5.00000000000000000000e-01) (151, 6, 5.00000000000000000000e-01) (151, 6, 5.00000000000000000000e-01) (151, 6, 5.00000000000000000000e-01) (151, 6, 5.00000000000000000000e-01) (151, 6, 5.00000000000000000000e-01) (151, 6, 5.00000000000000000000e-01) (151, 6, 5.00000000000000000000e-01) (151, 6, 5.00000000000000000000e-01) (151, 6, 5.00000000000000000000e-01) (151, 6, 5.00000000000000000000e-01) (151, 6, 5.00000000000000000000e-01) (151, 6, 5.00000000000000000000e-01) (151, 6, 5.00000000000000000000e-01) (151, 6, 5.00000000000000000000e-01) (151, 6, 5.00000000000000000000e-01) (151, 6, 5.00000000000000000000e-01) (151, 6, 5.00000000000000000000e-01) (151, 6, 5.00000000000000000000e-01) (151, 6, 5.00000000000000000000e-01) (151, 6, 5.00000000000000000000e-01) (151, 6, 5.00000000000000000000e-01) (151, 6, 5.00000000000000000000e-01) (151, 6, 5.00000000000000000000e-01) (151, 6, 5.00000000000000000000e-01) (151, 6, 5.00000000000000000000e-01) (151, 6, 5.00000000000000000000e-01) (151, 6, 5.00000000000000000000e-01) (151, 6, 5.00000000000000000000e-01) (151, 6, 5.00000000000000000000e-01) (151, 6, 5.00000000000000000000e-01) (151, 6, 5.00000000000000000000e-01) (151, 6, 5.00000000000000000000e-01) (151, 6, 5.00000000000000000000e-01) (151, 6, 5.00000000000000000000e-01) (151, 6, 5.00000000000000000000e-01) (151, 6, 5.00000000000000000000e-01) (151, 6, 5.00000000000000000000e-01) (151, 6, 5.00000000000000000000e-01) (151, 6, 5.00000000000000000000e-01) (151, 6, 5.00000000000000000000e-01) (151, 6, 5.00000000000000000000e-01) (151, 6, 5.00000000000000000000e-01) (151, 6, 5.00000000000000000000e-01) (151, 6, 5.00000000000000000000e-01) (151, 6, 5.00000000000000000000e-01) (151, 6, 5.00000000000000000000e-01) (151, 6, 5.00000000000000000000e-01) (151, 6, 5.00000000000000000000e-01) (151, 6, 5.00000000000000000000e-01) (151, 6, 5.00000000000000000000e-01) (151, 6, 5.00000000000000000000e-01) (151, 6, 5.00000000000000000000e-01) (151, 6, 5.00000000000000000000e-01) (151, 6, 5.00000000000000000000e-01) (151, 6, 5.00000000000000000000e-01) (151, 6, 5.00000000000000000000e-01) (151, 6, 5.00000000000000000000e-01) (151, 6, 5.00000000000000000000e-01) (151, 6, 5.00000000000000000000e-01) (151, 6, 5.00000000000000000000e-01) (151, 6, 5.00000000000000000000e-01) (151, 6, 5.00000000000000000000e-01) (151, 6, 5.00000000000000000000e-01) (0, 6, 0.00000000000000000000e+00) (71, 6, 5.00000000000000000000e-01) (71, 6, 5.00000000000000000000e-01) (71, 6, 5.00000000000000000000e-01) (71, 6, 5.00000000000000000000e-01) (71, 6, 5.00000000000000000000e-01) (71, 6, 5.00000000000000000000e-01) (71, 6, 5.00000000000000000000e-01) (71, 6, 5.00000000000000000000e-01) (71, 6, 5.00000000000000000000e-01) (71, 6, 5.00000000000000000000e-01) (71, 6, 5.00000000000000000000e-01) (71, 6, 5.00000000000000000000e-01) (71, 6, 5.00000000000000000000e-01) (71, 6, 5.00000000000000000000e-01) (71, 6, 5.00000000000000000000e-01) (71, 6, 5.00000000000000000000e-01) (0, 6, 0.00000000000000000000e+00) (17, 12, 5.00000000000000000000e-01) (17, 12, 5.00000000000000000000e-01) (17, 12, 5.00000000000000000000e-01) (17, 12, 5.00000000000000000000e-01) (0, 12, 0.00000000000000000000e+00) 
connections (connected_to_neuron, weight)=(0, -7.59452343750000000000e+04) (1, -7.59452578125000000000e+04) (2, -8.21436250000000000000e+04) (3, -8.21435546875000000000e+04) (4, -5.47446445312500000000e+04) (5, -5.47446445312500000000e+04) (6, -9.88922421875000000000e+04) (7, -9.88922656250000000000e+04) (8, -7.71384531250000000000e+04) (9, -7.71384921875000000000e+04) (10, -1.49388609375000000000e+05) (11, -1.49388593750000000000e+05) (12, -2.27686738281250000000e+04) (13, -5.55425234375000000000e+04) (14, -1.26024345703125000000e+04) (15, -4.53763671875000000000e+04) (16, 7.73285000000000000000e+04) (17, 6.25180195312500000000e+04) (18, 6.43145273437500000000e+04) (19, 1.01535000000000000000e+05) (20, 1.60856884765625000000e+04) (21, -1.29483808593750000000e+04) (22, 4.16766093750000000000e+04) (23, -2.76605605468750000000e+04) (24, -7.17370458984375000000e+03) (25, -1.84860328125000000000e+05) (26, 7.79631875000000000000e+04) (27, -1.52854796875000000000e+05) (28, 1.56779046875000000000e+05) (29, -4.54256757812500000000e+04) (30, 1.66841562500000000000e+05) (31, -7.61585781250000000000e+04) (32, 5.11140390625000000000e+04) (33, -4.76447500000000000000e+04) (34, 8.38824296875000000000e+04) (35, -3.22061191406250000000e+04) (36, 8.10533359375000000000e+04) (37, 1.36515107421875000000e+04) (38, 1.10425437500000000000e+05) (39, -2.42906464843750000000e+04) (40, -1.21120458984375000000e+04) (41, 4.56215390625000000000e+04) (42, -4.14432714843750000000e+03) (43, 4.57598515625000000000e+04) (44, -3.32518281250000000000e+04) (45, 6.50054609375000000000e+04) (46, -9.08719824218750000000e+03) (47, 2.61463945312500000000e+04) (48, 3.01629902343750000000e+04) (49, 4.26008007812500000000e+04) (50, 3.61847460937500000000e+04) (51, 1.45984421875000000000e+05) (52, -5.72155351562500000000e+04) (53, -3.20103339843750000000e+04) (54, 1.68637753906250000000e+04) (55, -6.69501484375000000000e+04) (56, 1.71314726562500000000e+04) (57, 2.11990058593750000000e+04) (58, -2.66615800781250000000e+04) (59, 8.78764062500000000000e+04) (60, 5.78407851562500000000e+04) (61, 1.09575531250000000000e+05) (62, 9.78875546875000000000e+04) (63, 1.24271804687500000000e+05) (64, -1.90966328125000000000e+04) (65, 1.50156421875000000000e+05) (66, -3.37478789062500000000e+04) (67, 1.94836375000000000000e+05) (68, -4.27230468750000000000e+04) (69, 1.63426859375000000000e+05) (70, -8.81674531250000000000e+04) (71, 1.41518765625000000000e+05) (72, -1.48894365234375000000e+04) (73, 9.07458046875000000000e+04) (74, 2.78051367187500000000e+03) (75, 9.50419687500000000000e+04) (76, 1.54927539062500000000e+03) (77, 8.42628281250000000000e+04) (78, -3.08519648437500000000e+04) (79, 1.09952820312500000000e+05) (80, -3.74875078125000000000e+04) (81, 3.04347187500000000000e+04) (82, -3.91306054687500000000e+04) (83, 8.09864921875000000000e+04) (84, -7.20198339843750000000e+03) (85, 7.70734062500000000000e+04) (86, 2.96681406250000000000e+04) (87, 1.02827500000000000000e+05) (88, 3.33795820312500000000e+04) (89, 7.75061093750000000000e+04) (90, 8.79765429687500000000e+03) (91, 7.67555468750000000000e+04) (92, -3.77051727294921875000e+02) (93, 7.70348046875000000000e+04) (94, 8.36915429687500000000e+03) (95, 1.24745283203125000000e+04) (96, -3.66618652343750000000e+03) (97, 1.56959619140625000000e+04) (98, -1.21893154296875000000e+04) (99, 2.55049980468750000000e+04) (100, -1.35620410156250000000e+04) (101, 2.86206054687500000000e+04) (102, -2.16904453125000000000e+04) (103, 3.72179804687500000000e+04) (104, -2.97753281250000000000e+04) (105, -3.54864184570312500000e+03) (106, -9.37753710937500000000e+03) (107, 3.31508476562500000000e+04) (108, -4.43171406250000000000e+04) (109, 3.69824609375000000000e+04) (110, -1.05004902343750000000e+04) (111, 2.88310097656250000000e+04) (112, -1.35352949218750000000e+04) (113, 2.94380117187500000000e+04) (114, -1.50528193359375000000e+04) (115, 3.00448203125000000000e+04) (116, -1.53562783203125000000e+04) (117, 3.01663046875000000000e+04) (118, -1.55383476562500000000e+04) (119, 3.03483027343750000000e+04) (120, -1.55383750000000000000e+04) (121, 3.03484375000000000000e+04) (122, -5.79404197633266448975e-02) (123, -9.37663391232490539551e-02) (124, -4.80322493240237236023e-03) (125, -6.54831752181053161621e-02) (126, -6.45030885934829711914e-02) (127, 3.97784672677516937256e-02) (128, -4.78231608867645263672e-02) (129, -5.34528754651546478271e-02) (130, -7.73428892716765403748e-03) (131, -5.67081384360790252686e-02) (132, 6.60915151238441467285e-02) (133, 6.11084513366222381592e-02) (134, -9.85487848520278930664e-02) (135, 7.24878236651420593262e-02) (136, -4.10199500620365142822e-02) (137, -7.93979465961456298828e-02) (138, 7.81182274222373962402e-02) (139, 6.19810856878757476807e-02) (140, -5.84325306117534637451e-02) (141, 2.18085907399654388428e-02) (142, 2.40787994116544723511e-02) (143, -8.17232057452201843262e-02) (144, 1.89005918800830841064e-02) (145, 9.43914055824279785156e-02) (146, -4.30685654282569885254e-02) (147, -8.60217511653900146484e-02) (148, 2.33302265405654907227e-02) (149, 7.24564716219902038574e-02) (150, -2.54987075805664062500e+02) (0, -1.34592851562500000000e+04) (1, -1.34591523437500000000e+04) (2, 2.09650390625000000000e+04) (3, 2.09649648437500000000e+04) (4, 2.07412826538085937500e+02) (5, 2.07500717163085937500e+02) (6, -1.28820664062500000000e+04) (7, -1.28819404296875000000e+04) (8, -2.94420117187500000000e+04) (9, -2.94420898437500000000e+04) (10, -4.79445507812500000000e+04) (11, -4.79446015625000000000e+04) (12, -1.70948718261718750000e+03) (13, -1.49191992187500000000e+04) (14, 6.36041357421875000000e+03) (15, -6.84925244140625000000e+03) (16, -3.11677465820312500000e+03) (17, -8.76257519531250000000e+03) (18, 1.41171992187500000000e+04) (19, 2.04454804687500000000e+04) (20, 1.57046054687500000000e+04) (21, -2.47903979492187500000e+03) (22, 1.93709882812500000000e+04) (23, 3.20950854492187500000e+03) (24, -1.01267207031250000000e+04) (25, -3.69599257812500000000e+04) (26, 6.02118359375000000000e+03) (27, -3.60804687500000000000e+04) (28, 2.87067832031250000000e+04) (29, -2.11712421875000000000e+04) (30, 4.65256250000000000000e+04) (31, -1.93229824218750000000e+04) (32, 8.55276733398437500000e+02) (33, 1.63707495117187500000e+03) (34, 9.44430175781250000000e+03) (35, 1.06537089843750000000e+04) (36, 1.21641054687500000000e+04) (37, 2.65441718750000000000e+04) (38, 2.29797128906250000000e+04) (39, 3.13190917968750000000e+03) (40, -1.50826367187500000000e+04) (41, 1.37854238281250000000e+04) (42, -3.20634238281250000000e+04) (43, 1.71558769531250000000e+04) (44, -1.86791562500000000000e+04) (45, 3.35569101562500000000e+04) (46, -1.51464355468750000000e+04) (47, 1.18505400390625000000e+04) (48, -3.87055664062500000000e+03) (49, 5.83637548828125000000e+03) (50, -6.15443212890625000000e+03) (51, 1.81776074218750000000e+04) (52, -3.17722148437500000000e+04) (53, -3.06217382812500000000e+04) (54, -1.71670507812500000000e+04) (55, -2.23416074218750000000e+04) (56, 1.31859980468750000000e+04) (57, -1.08488281250000000000e+03) (58, 5.76516650390625000000e+03) (59, 1.61176337890625000000e+04) (60, -2.38927270507812500000e+03) (61, -3.10999536132812500000e+03) (62, 1.71893046875000000000e+04) (63, 6.97230468750000000000e+03) (64, -1.91347500000000000000e+04) (65, 2.28478066406250000000e+04) (66, -2.61922226562500000000e+04) (67, 4.15055507812500000000e+04) (68, -2.74664980468750000000e+04) (69, 4.66621054687500000000e+04) (70, -3.17827187500000000000e+04) (71, 3.17678671875000000000e+04) (72, -1.89446367187500000000e+04) (73, 2.97642460937500000000e+04) (74, 2.29330175781250000000e+03) (75, 2.52418984375000000000e+04) (76, 3.21802465820312500000e+03) (77, 7.57911767578125000000e+03) (78, 4.48970825195312500000e+02) (79, 1.00966591796875000000e+04) (80, -1.54043515625000000000e+04) (81, 6.81375097656250000000e+03) (82, -7.22306445312500000000e+03) (83, 2.90696264648437500000e+03) (84, 3.85554785156250000000e+03) (85, 1.77821447753906250000e+03) (86, 8.31293652343750000000e+03) (87, 9.81777832031250000000e+03) (88, 1.09232285156250000000e+04) (89, 6.20812939453125000000e+03) (90, 4.63413818359375000000e+03) (91, 2.70125512695312500000e+03) (92, 4.90814941406250000000e+03) (93, 2.55515844726562500000e+03) (94, 7.90698583984375000000e+03) (95, -1.37195605468750000000e+04) (96, 9.09849316406250000000e+03) (97, -1.04210605468750000000e+04) (98, 1.16534101562500000000e+04) (99, -1.32130625000000000000e+04) (100, 1.71376953125000000000e+04) (101, -1.31608154296875000000e+04) (102, 1.65954609375000000000e+04) (103, 6.51526025390625000000e+03) (104, 1.63679169921875000000e+04) (105, 2.49169384765625000000e+03) (106, 1.12055791015625000000e+04) (107, 5.45727783203125000000e+03) (108, -1.19142687988281250000e+03) (109, 4.37255419921875000000e+03) (110, -1.59875512695312500000e+03) (111, 4.38955468750000000000e+03) (112, -2.06077368164062500000e+03) (113, 4.48204589843750000000e+03) (114, -2.29173852539062500000e+03) (115, 4.57431542968750000000e+03) (116, -2.33809008789062500000e+03) (117, 4.59286523437500000000e+03) (118, -2.36565551757812500000e+03) (119, 4.62059423828125000000e+03) (120, -2.36581591796875000000e+03) (121, 4.62067187500000000000e+03) (122, -6.78493157029151916504e-02) (123, 7.31294006109237670898e-02) (124, -8.15458446741104125977e-02) (125, 5.50815463066101074219e-02) (126, 5.28832385316491127014e-03) (127, -1.44444871693849563599e-02) (128, 7.04381838440895080566e-02) (129, 7.38867968320846557617e-02) (130, 3.99943552911281585693e-02) (131, 7.27374628186225891113e-02) (132, -3.08513728668913245201e-04) (133, -4.32362034916877746582e-02) (134, 2.71864011883735656738e-02) (135, -7.38190636038780212402e-02) (136, 7.62739181518554687500e-02) (137, -6.92093968391418457031e-02) (138, 2.09967456758022308350e-02) (139, -2.31604184955358505249e-02) (140, 7.13343247771263122559e-02) (141, 9.65456515550613403320e-02) (142, 5.27986735105514526367e-02) (143, -1.06384735554456710815e-02) (144, 5.15669770538806915283e-02) (145, 3.63206826150417327881e-02) (146, 2.25472217425704002380e-03) (147, 8.94094482064247131348e-02) (148, -8.36927145719528198242e-02) (149, -1.37365655973553657532e-03) (150, -4.44115257263183593750e+01) (0, -9.85268974304199218750e+00) (1, -9.84487724304199218750e+00) (2, -2.43243183593750000000e+04) (3, -2.43244003906250000000e+04) (4, -9.49345214843750000000e+03) (5, -9.49346972656250000000e+03) (6, -4.01509692382812500000e+03) (7, -4.01506274414062500000e+03) (8, 1.81743886718750000000e+04) (9, 1.81744609375000000000e+04) (10, 1.46915478515625000000e+04) (11, 1.46914482421875000000e+04) (12, -9.34531933593750000000e+03) (13, -6.96035766601562500000e+02) (14, -1.60277578125000000000e+04) (15, -7.37874121093750000000e+03) (16, -1.79000332031250000000e+04) (17, -1.67892519531250000000e+04) (18, 1.89535214843750000000e+04) (19, 5.70741601562500000000e+03) (20, 2.60900039062500000000e+04) (21, 2.11426875000000000000e+04) (22, 1.98960781250000000000e+04) (23, 3.92444116210937500000e+03) (24, 1.29330634765625000000e+04) (25, 2.53410781250000000000e+04) (26, 2.16685000000000000000e+04) (27, 3.55343203125000000000e+04) (28, 3.53528271484375000000e+03) (29, 2.21687363281250000000e+04) (30, -3.73238046875000000000e+04) (31, -2.64156909179687500000e+03) (32, -5.69421728515625000000e+03) (33, -2.68667792968750000000e+04) (34, -1.58681396484375000000e+04) (35, -2.57390585937500000000e+04) (36, -4.22856494140625000000e+03) (37, -1.77074707031250000000e+04) (38, -1.97351933593750000000e+04) (39, -1.43997910156250000000e+04) (40, 8.98257226562500000000e+03) (41, 2.98701289062500000000e+04) (42, 1.84454921875000000000e+04) (43, 1.98629101562500000000e+04) (44, 8.98176171875000000000e+03) (45, 5.75442480468750000000e+03) (46, 8.25187402343750000000e+03) (47, 3.15498779296875000000e+02) (48, 1.84460290527343750000e+03) (49, -5.63810302734375000000e+03) (50, -1.45525317382812500000e+03) (51, -4.13003710937500000000e+03) (52, 1.64328398437500000000e+04) (53, 2.21168535156250000000e+04) (54, 9.56053320312500000000e+03) (55, -5.95122412109375000000e+03) (56, -1.38945253906250000000e+04) (57, -4.09646118164062500000e+02) (58, 5.63176025390625000000e+02) (59, -1.88464414062500000000e+04) (60, 1.01135192871093750000e+03) (61, -1.21857773437500000000e+04) (62, -1.76419843750000000000e+04) (63, -6.66012500000000000000e+03) (64, 1.47441540527343750000e+03) (65, -7.90258886718750000000e+03) (66, 7.27223046875000000000e+03) (67, -2.72460078125000000000e+04) (68, 2.02560937500000000000e+04) (69, -3.99089726562500000000e+04) (70, 3.03518906250000000000e+04) (71, -7.69854052734375000000e+03) (72, 1.50524414062500000000e+04) (73, -6.80406250000000000000e+03) (74, 5.37970397949218750000e+02) (75, -1.41834023437500000000e+04) (76, -7.43468200683593750000e+02) (77, -1.85057480468750000000e+04) (78, -6.25151904296875000000e+03) (79, -1.48018906250000000000e+04) (80, 9.77018359375000000000e+03) (81, -1.23147675781250000000e+04) (82, -4.77213378906250000000e+03) (83, -7.66244580078125000000e+03) (84, -2.98561679687500000000e+04) (85, 3.20449755859375000000e+03) (86, -2.88680839843750000000e+04) (87, -7.57015576171875000000e+03) (88, -3.14588066406250000000e+04) (89, -1.47077802734375000000e+04) (90, -2.32645625000000000000e+04) (91, -9.54555566406250000000e+03) (92, -3.24082246093750000000e+04) (93, -9.47899218750000000000e+03) (94, -3.29822265625000000000e+04) (95, -1.82546582031250000000e+04) (96, -3.66180351562500000000e+04) (97, -1.12628222656250000000e+04) (98, -3.91099335937500000000e+04) (99, -4.03438476562500000000e+03) (100, -2.69022304687500000000e+04) (101, 3.29580834960937500000e+03) (102, -2.85059062500000000000e+04) (103, -1.41538314819335937500e+02) (104, -3.04882695312500000000e+04) (105, -6.72372558593750000000e+02) (106, -1.99400488281250000000e+04) (107, 3.51907397460937500000e+03) (108, -7.46688916015625000000e+03) (109, 4.65971142578125000000e+03) (110, -1.15693615722656250000e+03) (111, 3.17630151367187500000e+03) (112, -1.49120324707031250000e+03) (113, 3.24311230468750000000e+03) (114, -1.65838037109375000000e+03) (115, 3.31004248046875000000e+03) (116, -1.69179357910156250000e+03) (117, 3.32344628906250000000e+03) (118, -1.71180957031250000000e+03) (119, 3.34349291992187500000e+03) (120, -1.71181738281250000000e+03) (121, 3.34351684570312500000e+03) (122, 1.12036978825926780701e-02) (123, -2.89075374603271484375e-02) (124, -4.08190004527568817139e-02) (125, 6.68516755104064941406e-02) (126, 9.35537815093994140625e-02) (127, -4.19904058799147605896e-03) (128, -4.70578707754611968994e-02) (129, -5.79136759042739868164e-02) (130, 8.27536806464195251465e-02) (131, 1.81023671757429838181e-03) (132, 8.26602280139923095703e-02) (133, 5.43302521109580993652e-02) (134, 5.14441914856433868408e-02) (135, 8.66160914301872253418e-02) (136, -5.08116036653518676758e-02) (137, -9.77510139346122741699e-02) (138, 5.78513927757740020752e-02) (139, 3.65333966910839080811e-02) (140, 9.33203697204589843750e-02) (141, 6.36111125349998474121e-02) (142, -6.28851577639579772949e-02) (143, -2.07156501710414886475e-02) (144, -9.41779837012290954590e-02) (145, 1.97722800076007843018e-02) (146, 8.30959603190422058105e-02) (147, 1.04542179033160209656e-02) (148, -4.69978004693984985352e-02) (149, 3.23598757386207580566e-02) (150, -1.03819808959960937500e+01) (0, -1.95159355468750000000e+04) (1, -1.95160546875000000000e+04) (2, 3.35664453125000000000e+04) (3, 3.35663710937500000000e+04) (4, 8.73340917968750000000e+03) (5, 8.73338183593750000000e+03) (6, -1.37307812500000000000e+04) (7, -1.37308095703125000000e+04) (8, -3.45737890625000000000e+04) (9, -3.45738476562500000000e+04) (10, -5.59929804687500000000e+04) (11, -5.59929296875000000000e+04) (12, -7.04914746093750000000e+03) (13, -2.49242167968750000000e+04) (14, 6.13323925781250000000e+03) (15, -1.17418574218750000000e+04) (16, -9.53190429687500000000e+03) (17, -1.72867578125000000000e+04) (18, 1.47215527343750000000e+04) (19, 1.57972265625000000000e+04) (20, 2.22166660156250000000e+04) (21, 1.52398242187500000000e+03) (22, 2.94974277343750000000e+04) (23, 7.92389355468750000000e+03) (24, 7.88026416015625000000e+03) (25, -3.87751914062500000000e+04) (26, 7.50728710937500000000e+03) (27, -4.09985468750000000000e+04) (28, 4.58816640625000000000e+04) (29, -3.55939414062500000000e+04) (30, 7.04319062500000000000e+04) (31, -3.20456601562500000000e+04) (32, -2.33333154296875000000e+03) (33, 1.45169462890625000000e+04) (34, 2.10564746093750000000e+03) (35, 1.18488925781250000000e+04) (36, 1.66600742187500000000e+04) (37, 2.94503203125000000000e+04) (38, 2.42258359375000000000e+04) (39, 1.29233779296875000000e+04) (40, -1.39233906250000000000e+04) (41, 1.11046386718750000000e+04) (42, -3.90826523437500000000e+04) (43, 1.37895292968750000000e+04) (44, -2.50325585937500000000e+04) (45, 3.57934375000000000000e+04) (46, -2.53111152343750000000e+04) (47, 1.56262382812500000000e+04) (48, -1.46098417968750000000e+04) (49, 6.42720361328125000000e+03) (50, -1.95292832031250000000e+04) (51, 1.05916748046875000000e+04) (52, -3.50208710937500000000e+04) (53, -3.55368476562500000000e+04) (54, -5.78071191406250000000e+03) (55, -2.67939355468750000000e+04) (56, 2.91149531250000000000e+04) (57, -1.65845839843750000000e+04) (58, 6.98849951171875000000e+03) (59, 2.92577416992187500000e+03) (60, -1.49081816406250000000e+04) (61, -7.04288134765625000000e+03) (62, 1.99882128906250000000e+04) (63, 1.56399091796875000000e+04) (64, -2.44379726562500000000e+04) (65, 3.15266093750000000000e+04) (66, -3.93017343750000000000e+04) (67, 5.36207734375000000000e+04) (68, -3.71028125000000000000e+04) (69, 5.53462578125000000000e+04) (70, -3.92200976562500000000e+04) (71, 2.69659062500000000000e+04) (72, -1.99975917968750000000e+04) (73, 1.72179082031250000000e+04) (74, 7.16802050781250000000e+03) (75, 1.03622421875000000000e+04) (76, 1.02826152343750000000e+04) (77, -9.95571228027343750000e+02) (78, 1.04136728515625000000e+04) (79, -1.68977392578125000000e+03) (80, -8.08988183593750000000e+03) (81, 2.71532275390625000000e+03) (82, 8.95364941406250000000e+03) (83, -4.35838378906250000000e+03) (84, 2.03863027343750000000e+04) (85, -1.00068896484375000000e+04) (86, 2.63429785156250000000e+04) (87, 2.60074145507812500000e+03) (88, 2.87385527343750000000e+04) (89, 3.11737280273437500000e+03) (90, 9.60769824218750000000e+03) (91, -1.26539785156250000000e+04) (92, 9.75071093750000000000e+03) (93, -1.28686718750000000000e+04) (94, 1.12122294921875000000e+04) (95, -2.07029121093750000000e+04) (96, 1.41428554687500000000e+04) (97, -1.94086230468750000000e+04) (98, 2.00337695312500000000e+04) (99, -1.60241503906250000000e+04) (100, 2.86017363281250000000e+04) (101, -1.17005917968750000000e+04) (102, 2.85821171875000000000e+04) (103, 3.62635009765625000000e+03) (104, 2.87077207031250000000e+04) (105, -2.79226953125000000000e+03) (106, 1.48811435546875000000e+04) (107, 4.21661035156250000000e+03) (108, -1.73689392089843750000e+03) (109, 2.96011938476562500000e+03) (110, -1.00018975830078125000e+03) (111, 2.74637719726562500000e+03) (112, -1.28937695312500000000e+03) (113, 2.80422924804687500000e+03) (114, -1.43389135742187500000e+03) (115, 2.86208447265625000000e+03) (116, -1.46272460937500000000e+03) (117, 2.87360302734375000000e+03) (118, -1.48014526367187500000e+03) (119, 2.89092309570312500000e+03) (120, -1.48010351562500000000e+03) (121, 2.89098657226562500000e+03) (122, 8.41774642467498779297e-02) (123, -8.67429748177528381348e-02) (124, 8.96211117506027221680e-02) (125, 8.27713683247566223145e-02) (126, 4.74337860941886901855e-02) (127, -2.31299120932817459106e-02) (128, -8.70883557945489883423e-03) (129, 4.83088754117488861084e-02) (130, -1.19253285229206085205e-02) (131, 5.51503598690032958984e-02) (132, 6.33575022220611572266e-02) (133, -9.35092791914939880371e-02) (134, -6.68641701340675354004e-02) (135, -9.73615050315856933594e-02) (136, -8.65642563439905643463e-04) (137, 5.17380908131599426270e-02) (138, -9.76150389760732650757e-03) (139, 3.39805334806442260742e-03) (140, 5.43396435678005218506e-02) (141, -3.34790423512458801270e-02) (142, 8.49020183086395263672e-02) (143, -6.22515715658664703369e-02) (144, 8.14465060830116271973e-02) (145, 1.10530678648501634598e-03) (146, 8.93126279115676879883e-02) (147, 7.38572776317596435547e-02) (148, -9.28721502423286437988e-02) (149, 6.69294968247413635254e-03) (150, -3.03259258270263671875e+01) (0, -1.75308990478515625000e+02) (1, -1.75424224853515625000e+02) (2, -2.45128125000000000000e+04) (3, -2.45126718750000000000e+04) (4, -9.56548632812500000000e+03) (5, -9.56550390625000000000e+03) (6, -4.15855712890625000000e+03) (7, -4.15856689453125000000e+03) (8, 1.81911191406250000000e+04) (9, 1.81910800781250000000e+04) (10, 1.46642294921875000000e+04) (11, 1.46642919921875000000e+04) (12, -9.41572167968750000000e+03) (13, -7.46323547363281250000e+02) (14, -1.61577470703125000000e+04) (15, -7.48839453125000000000e+03) (16, -1.79292539062500000000e+04) (17, -1.68063437500000000000e+04) (18, 1.89793359375000000000e+04) (19, 5.71419726562500000000e+03) (20, 2.61253339843750000000e+04) (21, 2.11803574218750000000e+04) (22, 1.99527695312500000000e+04) (23, 3.96644946289062500000e+03) (24, 1.29813808593750000000e+04) (25, 2.52490195312500000000e+04) (26, 2.18002949218750000000e+04) (27, 3.54815390625000000000e+04) (28, 3.65184326171875000000e+03) (29, 2.21360976562500000000e+04) (30, -3.73367968750000000000e+04) (31, -2.75740112304687500000e+03) (32, -5.65676220703125000000e+03) (33, -2.70104863281250000000e+04) (34, -1.58521142578125000000e+04) (35, -2.58786054687500000000e+04) (36, -4.19494775390625000000e+03) (37, -1.77883535156250000000e+04) (38, -1.97467265625000000000e+04) (39, -1.44942294921875000000e+04) (40, 8.98693261718750000000e+03) (41, 2.99029042968750000000e+04) (42, 1.84597402343750000000e+04) (43, 1.98263144531250000000e+04) (44, 8.93590332031250000000e+03) (45, 5.70380468750000000000e+03) (46, 8.21306445312500000000e+03) (47, 2.59751129150390625000e+02) (48, 1.78505175781250000000e+03) (49, -5.63987500000000000000e+03) (50, -1.53081372070312500000e+03) (51, -4.13043505859375000000e+03) (52, 1.63463525390625000000e+04) (53, 2.21095761718750000000e+04) (54, 9.48416992187500000000e+03) (55, -5.93997509765625000000e+03) (56, -1.40115898437500000000e+04) (57, -3.37741333007812500000e+02) (58, 4.24696411132812500000e+02) (59, -1.87860898437500000000e+04) (60, 9.88707031250000000000e+02) (61, -1.20647734375000000000e+04) (62, -1.77071289062500000000e+04) (63, -6.51667578125000000000e+03) (64, 1.43735485839843750000e+03) (65, -7.78808886718750000000e+03) (66, 7.20586816406250000000e+03) (67, -2.71536816406250000000e+04) (68, 2.02541679687500000000e+04) (69, -3.99083671875000000000e+04) (70, 3.03739082031250000000e+04) (71, -7.67938330078125000000e+03) (72, 1.50975693359375000000e+04) (73, -6.83501464843750000000e+03) (74, 5.37717895507812500000e+02) (75, -1.42329736328125000000e+04) (76, -7.49356750488281250000e+02) (77, -1.85774863281250000000e+04) (78, -6.30196728515625000000e+03) (79, -1.48573173828125000000e+04) (80, 9.71199023437500000000e+03) (81, -1.23407216796875000000e+04) (82, -4.85620312500000000000e+03) (83, -7.66115576171875000000e+03) (84, -2.99154492187500000000e+04) (85, 3.23305615234375000000e+03) (86, -2.89019511718750000000e+04) (87, -7.50728417968750000000e+03) (88, -3.14637207031250000000e+04) (89, -1.47315400390625000000e+04) (90, -2.32789218750000000000e+04) (91, -9.60027343750000000000e+03) (92, -3.24475625000000000000e+04) (93, -9.53348925781250000000e+03) (94, -3.30496054687500000000e+04) (95, -1.82767558593750000000e+04) (96, -3.67070742187500000000e+04) (97, -1.12559804687500000000e+04) (98, -3.92170976562500000000e+04) (99, -3.98099560546875000000e+03) (100, -2.69831269531250000000e+04) (101, 3.36195312500000000000e+03) (102, -2.85996425781250000000e+04) (103, -1.10592201232910156250e+02) (104, -3.05965644531250000000e+04) (105, -6.96644042968750000000e+02) (106, -2.00127421875000000000e+04) (107, 3.56505102539062500000e+03) (108, -7.54611474609375000000e+03) (109, 4.70815625000000000000e+03) (110, -1.16878051757812500000e+03) (111, 3.20911425781250000000e+03) (112, -1.50651660156250000000e+03) (113, 3.27652001953125000000e+03) (114, -1.67538671875000000000e+03) (115, 3.34421508789062500000e+03) (116, -1.70917346191406250000e+03) (117, 3.35763281250000000000e+03) (118, -1.72949291992187500000e+03) (119, 3.37788281250000000000e+03) (120, -1.72950366210937500000e+03) (121, 3.37785546875000000000e+03) (122, 1.45136332139372825623e-02) (123, 7.80569985508918762207e-02) (124, -4.50517274439334869385e-02) (125, -7.70961567759513854980e-02) (126, -1.63687590975314378738e-03) (127, 3.60892526805400848389e-02) (128, 8.54632183909416198730e-02) (129, 3.83869521319866180420e-02) (130, -7.56644979119300842285e-02) (131, 5.18294200301170349121e-02) (132, -2.09500305354595184326e-02) (133, 7.50421732664108276367e-02) (134, -2.29291617870330810547e-02) (135, 6.92369341850280761719e-02) (136, -1.78737863898277282715e-02) (137, 2.81772874295711517334e-02) (138, 5.89316934347152709961e-02) (139, -1.92950572818517684937e-02) (140, 8.31943750381469726562e-02) (141, -4.90447208285331726074e-02) (142, -6.26655146479606628418e-02) (143, 3.46215404570102691650e-02) (144, -4.46944348514080047607e-02) (145, -8.34692269563674926758e-02) (146, -2.56859026849269866943e-02) (147, -7.30943232774734497070e-02) (148, -3.77839803695678710938e-02) (149, 9.45885255932807922363e-02) (150, -1.06860637664794921875e+01) (0, -1.76235761718750000000e+04) (1, -1.76235488281250000000e+04) (2, -4.35240820312500000000e+04) (3, -4.35241015625000000000e+04) (4, -1.88547519531250000000e+04) (5, -1.88546074218750000000e+04) (6, -4.03839453125000000000e+04) (7, -4.03838085937500000000e+04) (8, 4.79339257812500000000e+04) (9, 4.79339375000000000000e+04) (10, 4.51916171875000000000e+04) (11, 4.51917343750000000000e+04) (12, -5.37786171875000000000e+04) (13, -2.91601054687500000000e+04) (14, -7.96360234375000000000e+04) (15, -5.50176406250000000000e+04) (16, -4.75707226562500000000e+04) (17, -4.34026289062500000000e+04) (18, 5.33349218750000000000e+04) (19, 8.68339062500000000000e+03) (20, 7.25845859375000000000e+04) (21, 5.69949140625000000000e+04) (22, 8.41669687500000000000e+04) (23, 4.17958281250000000000e+04) (24, 9.45144609375000000000e+04) (25, 4.41985351562500000000e+03) (26, 7.65846250000000000000e+04) (27, 2.22538261718750000000e+04) (28, 7.28186093750000000000e+04) (29, 2.99656250000000000000e+04) (30, -2.39930078125000000000e+04) (31, -3.16125234375000000000e+04) (32, 4.85703320312500000000e+04) (33, -3.96208281250000000000e+04) (34, 4.43634277343750000000e+03) (35, -8.39036718750000000000e+04) (36, 3.63337851562500000000e+04) (37, -2.60933847656250000000e+04) (38, -1.46519414062500000000e+04) (39, -2.26831914062500000000e+04) (40, 4.98902265625000000000e+04) (41, 3.99657226562500000000e+04) (42, 5.25182578125000000000e+04) (43, -1.45162109375000000000e+04) (44, 5.23477695312500000000e+04) (45, 1.18776806640625000000e+04) (46, 3.43800585937500000000e+04) (47, 5.13334179687500000000e+03) (48, 3.95820751953125000000e+03) (49, -4.72725067138671875000e+02) (50, -1.35469228515625000000e+04) (51, -1.22238994140625000000e+04) (52, 3.04160683593750000000e+04) (53, 9.76181015625000000000e+04) (54, 5.85576367187500000000e+04) (55, 1.29072255859375000000e+04) (56, -5.99059521484375000000e+03) (57, 3.49073095703125000000e+03) (58, -2.39450898437500000000e+04) (59, -4.95074179687500000000e+04) (60, -3.75487578125000000000e+04) (61, 1.05072568359375000000e+04) (62, -5.88100859375000000000e+04) (63, 2.53370156250000000000e+04) (64, -4.56260400390625000000e+03) (65, -2.07053593750000000000e+04) (66, 1.40606093750000000000e+04) (67, -7.62876640625000000000e+04) (68, 2.15712734375000000000e+04) (69, -9.11380859375000000000e+04) (70, 5.82308593750000000000e+04) (71, -2.65499121093750000000e+04) (72, -3.06277148437500000000e+03) (73, -1.46083037109375000000e+04) (74, -2.35810878906250000000e+04) (75, -3.90648671875000000000e+04) (76, -2.12371406250000000000e+04) (77, -4.84950898437500000000e+04) (78, -3.94410078125000000000e+04) (79, -5.32963242187500000000e+04) (80, -1.42653017578125000000e+04) (81, -3.89438281250000000000e+04) (82, -3.09708417968750000000e+04) (83, -1.07898476562500000000e+04) (84, -4.32045625000000000000e+04) (85, 3.29385234375000000000e+04) (86, -2.61662636718750000000e+04) (87, 3.76791289062500000000e+04) (88, -1.43838164062500000000e+04) (89, 2.01938208007812500000e+03) (90, -2.58594082031250000000e+04) (91, -7.29648535156250000000e+03) (92, -4.17585703125000000000e+04) (93, -6.78064453125000000000e+03) (94, -4.48238125000000000000e+04) (95, 1.90532214355468750000e+03) (96, -5.20617695312500000000e+04) (97, 9.81861914062500000000e+03) (98, -4.89632539062500000000e+04) (99, 3.88483554687500000000e+04) (100, -2.64710722656250000000e+04) (101, 6.03603867187500000000e+04) (102, -2.84705566406250000000e+04) (103, 2.87372285156250000000e+04) (104, -3.08990566406250000000e+04) (105, 2.95787910156250000000e+04) (106, -4.28699902343750000000e+03) (107, 2.80461308593750000000e+04) (108, -9.16735644531250000000e+03) (109, 5.45275781250000000000e+03) (110, -1.31580651855468750000e+03) (111, 3.61285986328125000000e+03) (112, -1.69622607421875000000e+03) (113, 3.68902514648437500000e+03) (114, -1.88640246582031250000e+03) (115, 3.76508129882812500000e+03) (116, -1.92434594726562500000e+03) (117, 3.78020239257812500000e+03) (118, -1.94727075195312500000e+03) (119, 3.80312207031250000000e+03) (120, -1.94720043945312500000e+03) (121, 3.80304394531250000000e+03) (122, -8.68035033345222473145e-02) (123, -4.44638617336750030518e-02) (124, -9.21998694539070129395e-02) (125, -9.87765267491340637207e-02) (126, 5.84226958453655242920e-02) (127, 8.14787447452545166016e-02) (128, -1.47595973685383796692e-02) (129, 2.27169506251811981201e-02) (130, -6.91403597593307495117e-02) (131, -8.11226367950439453125e-02) (132, -3.03345788270235061646e-02) (133, 7.62089863419532775879e-02) (134, 6.64877668023109436035e-02) (135, -4.98586297035217285156e-02) (136, 3.22602665983140468597e-03) (137, -2.18094885349273681641e-02) (138, 2.17156317085027694702e-02) (139, 3.22799757122993469238e-02) (140, 7.19962045550346374512e-02) (141, -2.31660883873701095581e-02) (142, 7.73417279124259948730e-02) (143, -8.54878872632980346680e-02) (144, -7.39888474345207214355e-02) (145, 9.69391465187072753906e-02) (146, 5.82766421139240264893e-02) (147, 3.24530862271785736084e-02) (148, -5.05373924970626831055e-02) (149, 5.82901202142238616943e-02) (150, -2.07826423645019531250e+01) (0, -3.83891259765625000000e+03) (1, -3.83899658203125000000e+03) (2, -2.51308750000000000000e+04) (3, -2.51308007812500000000e+04) (4, -1.00014794921875000000e+04) (5, -1.00014208984375000000e+04) (6, -6.50128613281250000000e+03) (7, -6.50139648437500000000e+03) (8, 2.20841015625000000000e+04) (9, 2.20839726562500000000e+04) (10, 1.40607275390625000000e+04) (11, 1.40606767578125000000e+04) (12, -1.57830019531250000000e+04) (13, -5.55390527343750000000e+03) (14, -2.12698398437500000000e+04) (15, -1.10406406250000000000e+04) (16, -2.14035937500000000000e+04) (17, -1.86954160156250000000e+04) (18, 2.04821054687500000000e+04) (19, 6.04281347656250000000e+03) (20, 2.42591015625000000000e+04) (21, 2.08177070312500000000e+04) (22, 1.87179804687500000000e+04) (23, 4.82471826171875000000e+03) (24, 1.09954345703125000000e+04) (25, 2.76545312500000000000e+04) (26, 2.18002460937500000000e+04) (27, 3.86380820312500000000e+04) (28, 1.64971313476562500000e+03) (29, 2.57252949218750000000e+04) (30, -4.14505351562500000000e+04) (31, -2.50987255859375000000e+03) (32, -3.94117163085937500000e+03) (33, -3.00288613281250000000e+04) (34, -1.39999345703125000000e+04) (35, -3.01229609375000000000e+04) (36, -9.22095703125000000000e+02) (37, -2.43932382812500000000e+04) (38, -1.67716425781250000000e+04) (39, -2.18389609375000000000e+04) (40, 1.10007197265625000000e+04) (41, 2.68486914062500000000e+04) (42, 1.97865585937500000000e+04) (43, 1.66367558593750000000e+04) (44, 1.14296513671875000000e+04) (45, 1.27880590820312500000e+03) (46, 1.12518212890625000000e+04) (47, -3.71923876953125000000e+03) (48, 3.97973852539062500000e+03) (49, -8.19505761718750000000e+03) (50, 1.81048446655273437500e+02) (51, -4.92867675781250000000e+03) (52, 1.43747265625000000000e+04) (53, 2.14063945312500000000e+04) (54, 7.34656201171875000000e+03) (55, -8.26553613281250000000e+03) (56, -2.05811445312500000000e+04) (57, -7.20636535644531250000e+02) (58, -5.05099670410156250000e+02) (59, -2.29456796875000000000e+04) (60, 1.87532714843750000000e+03) (61, -8.23033593750000000000e+03) (62, -1.69466152343750000000e+04) (63, -2.00049145507812500000e+03) (64, 5.50239648437500000000e+03) (65, -4.68733447265625000000e+03) (66, 1.28213300781250000000e+04) (67, -2.59935996093750000000e+04) (68, 2.54346171875000000000e+04) (69, -3.83658398437500000000e+04) (70, 3.34900703125000000000e+04) (71, -6.95678076171875000000e+03) (72, 1.63509121093750000000e+04) (73, -5.57890429687500000000e+03) (74, 5.78319335937500000000e+02) (75, -1.26413583984375000000e+04) (76, -6.71426940917968750000e+02) (77, -1.78401406250000000000e+04) (78, -7.26677734375000000000e+03) (79, -1.40137597656250000000e+04) (80, 9.72294335937500000000e+03) (81, -1.30436884765625000000e+04) (82, -7.19499511718750000000e+03) (83, -8.94785156250000000000e+03) (84, -3.43463867187500000000e+04) (85, 1.61367468261718750000e+03) (86, -3.36005664062500000000e+04) (87, -8.88569921875000000000e+03) (88, -3.61802617187500000000e+04) (89, -1.66774726562500000000e+04) (90, -2.43829609375000000000e+04) (91, -7.47449902343750000000e+03) (92, -3.38804335937500000000e+04) (93, -7.38286718750000000000e+03) (94, -3.45239335937500000000e+04) (95, -1.66374843750000000000e+04) (96, -3.89977109375000000000e+04) (97, -9.60254785156250000000e+03) (98, -4.13073945312500000000e+04) (99, -6.63764526367187500000e+02) (100, -2.97676210937500000000e+04) (101, 6.62881054687500000000e+03) (102, -3.15276621093750000000e+04) (103, 1.68291552734375000000e+03) (104, -3.36105585937500000000e+04) (105, 1.13470227050781250000e+03) (106, -2.00043144531250000000e+04) (107, 4.11057226562500000000e+03) (108, -7.64252099609375000000e+03) (109, 5.24887841796875000000e+03) (110, -1.37088671875000000000e+03) (111, 3.76429345703125000000e+03) (112, -1.76723522949218750000e+03) (113, 3.84347851562500000000e+03) (114, -1.96532788085937500000e+03) (115, 3.92261523437500000000e+03) (116, -2.00490368652343750000e+03) (117, 3.93861816406250000000e+03) (118, -2.02865124511718750000e+03) (119, 3.96227954101562500000e+03) (120, -2.02870202636718750000e+03) (121, 3.96226928710937500000e+03) (122, 8.89110639691352844238e-02) (123, 7.56390243768692016602e-02) (124, -7.45069235563278198242e-02) (125, 5.70449084043502807617e-02) (126, -3.51702459156513214111e-02) (127, 2.30251811444759368896e-02) (128, 7.79191628098487854004e-02) (129, -9.89442765712738037109e-02) (130, -5.36158643662929534912e-02) (131, 3.96666349843144416809e-03) (132, 9.06420126557350158691e-02) (133, 7.18513056635856628418e-02) (134, -5.80104440450668334961e-02) (135, -5.51782548427581787109e-02) (136, -9.78800505399703979492e-02) (137, 2.93683130294084548950e-02) (138, 4.62238714098930358887e-02) (139, -8.35633873939514160156e-02) (140, -6.27122595906257629395e-02) (141, 2.70636342465877532959e-02) (142, 9.23167392611503601074e-02) (143, 3.01696243695914745331e-03) (144, -5.88611885905265808105e-02) (145, -1.76214110106229782104e-02) (146, 7.25114531815052032471e-03) (147, 7.83418118953704833984e-02) (148, -5.96455894410610198975e-02) (149, -2.89493557065725326538e-02) (150, -1.79213581085205078125e+01) (0, 1.95562871093750000000e+04) (1, 1.95562382812500000000e+04) (2, -3.34312695312500000000e+04) (3, -3.34311523437500000000e+04) (4, -8.63411914062500000000e+03) (5, -8.63408203125000000000e+03) (6, 1.37307832031250000000e+04) (7, 1.37306425781250000000e+04) (8, 3.44780078125000000000e+04) (9, 3.44780585937500000000e+04) (10, 5.58430546875000000000e+04) (11, 5.58430039062500000000e+04) (12, 6.93514550781250000000e+03) (13, 2.47723046875000000000e+04) (14, -6.18113525390625000000e+03) (15, 1.16560791015625000000e+04) (16, 9.51897851562500000000e+03) (17, 1.72531250000000000000e+04) (18, -1.46967792968750000000e+04) (19, -1.57664023437500000000e+04) (20, -2.22143183593750000000e+04) (21, -1.56461950683593750000e+03) (22, -2.94789375000000000000e+04) (23, -8.00143212890625000000e+03) (24, -7.74465332031250000000e+03) (25, 3.87343320312500000000e+04) (26, -7.44100390625000000000e+03) (27, 4.09007734375000000000e+04) (28, -4.57278750000000000000e+04) (29, 3.55256210937500000000e+04) (30, -7.01970937500000000000e+04) (31, 3.20212207031250000000e+04) (32, 2.36537719726562500000e+03) (33, -1.44583701171875000000e+04) (34, -2.07635156250000000000e+03) (35, -1.18050673828125000000e+04) (36, -1.66290917968750000000e+04) (37, -2.94832714843750000000e+04) (38, -2.41892695312500000000e+04) (39, -1.29650332031250000000e+04) (40, 1.39001230468750000000e+04) (41, -1.11695957031250000000e+04) (42, 3.90404609375000000000e+04) (43, -1.38291816406250000000e+04) (44, 2.49665859375000000000e+04) (45, -3.57365156250000000000e+04) (46, 2.52576171875000000000e+04) (47, -1.56249951171875000000e+04) (48, 1.45687666015625000000e+04) (49, -6.39628564453125000000e+03) (50, 1.94706152343750000000e+04) (51, -1.05549130859375000000e+04) (52, 3.48202460937500000000e+04) (53, 3.54131679687500000000e+04) (54, 5.71099511718750000000e+03) (55, 2.68239453125000000000e+04) (56, -2.91519394531250000000e+04) (57, 1.65730957031250000000e+04) (58, -7.06157519531250000000e+03) (59, -2.91819555664062500000e+03) (60, 1.48564394531250000000e+04) (61, 7.10632080078125000000e+03) (62, -1.99523164062500000000e+04) (63, -1.55445820312500000000e+04) (64, 2.43913945312500000000e+04) (65, -3.14586367187500000000e+04) (66, 3.92274570312500000000e+04) (67, -5.35113359375000000000e+04) (68, 3.70515820312500000000e+04) (69, -5.52498750000000000000e+04) (70, 3.91789140625000000000e+04) (71, -2.68947304687500000000e+04) (72, 2.00136386718750000000e+04) (73, -1.71807695312500000000e+04) (74, -7.09061328125000000000e+03) (75, -1.03194853515625000000e+04) (76, -1.01798691406250000000e+04) (77, 1.03845715332031250000e+03) (78, -1.03039414062500000000e+04) (79, 1.70601989746093750000e+03) (80, 8.10219873046875000000e+03) (81, -2.75136328125000000000e+03) (82, -8.89433496093750000000e+03) (83, 4.21775634765625000000e+03) (84, -2.02373535156250000000e+04) (85, 9.93360253906250000000e+03) (86, -2.62503632812500000000e+04) (87, -2.61457690429687500000e+03) (88, -2.86433183593750000000e+04) (89, -3.11092211914062500000e+03) (90, -9.54836621093750000000e+03) (91, 1.26196425781250000000e+04) (92, -9.68235449218750000000e+03) (93, 1.28345537109375000000e+04) (94, -1.11545449218750000000e+04) (95, 2.07473789062500000000e+04) (96, -1.40788828125000000000e+04) (97, 1.94431093750000000000e+04) (98, -1.99790468750000000000e+04) (99, 1.60552568359375000000e+04) (100, -2.85495507812500000000e+04) (101, 1.17390537109375000000e+04) (102, -2.85270761718750000000e+04) (103, -3.63477294921875000000e+03) (104, -2.86499824218750000000e+04) (105, 2.76336767578125000000e+03) (106, -1.48534667968750000000e+04) (107, -4.22420703125000000000e+03) (108, 1.72980090332031250000e+03) (109, -2.97401171875000000000e+03) (110, 1.00619226074218750000e+03) (111, -2.76277319335937500000e+03) (112, 1.29716174316406250000e+03) (113, -2.82102734375000000000e+03) (114, 1.44257690429687500000e+03) (115, -2.87912011718750000000e+03) (116, 1.47162829589843750000e+03) (117, -2.89075512695312500000e+03) (118, 1.48903076171875000000e+03) (119, -2.90816528320312500000e+03) (120, 1.48905126953125000000e+03) (121, -2.90824047851562500000e+03) (122, -3.02787944674491882324e-02) (123, 1.21913021430373191833e-02) (124, -2.43873093277215957642e-02) (125, -2.04510185867547988892e-02) (126, -5.96376098692417144775e-02) (127, 1.78367719054222106934e-02) (128, 8.40333104133605957031e-02) (129, -5.76263628900051116943e-02) (130, 1.16820428520441055298e-02) (131, -8.61611813306808471680e-02) (132, 9.20123234391212463379e-02) (133, 3.46184410154819488525e-02) (134, -1.63837990839965641499e-04) (135, -8.61561745405197143555e-02) (136, -5.01740910112857818604e-02) (137, -5.50467111170291900635e-02) (138, 2.52011977136135101318e-02) (139, 5.10161630809307098389e-02) (140, 2.62954141944646835327e-02) (141, 6.55534565448760986328e-02) (142, 8.65653995424509048462e-03) (143, 1.15816295146942138672e-02) (144, -6.62066563963890075684e-02) (145, -2.96634878031909465790e-03) (146, -4.85383681952953338623e-02) (147, 9.12542790174484252930e-02) (148, -6.46078139543533325195e-02) (149, 6.18943199515342712402e-02) (150, 3.02843322753906250000e+01) (0, -1.55164716796875000000e+04) (1, -1.55165732421875000000e+04) (2, 1.56030890625000000000e+05) (3, 1.56030921875000000000e+05) (4, 6.67598671875000000000e+04) (5, 6.67598437500000000000e+04) (6, 2.05794628906250000000e+04) (7, 2.05794082031250000000e+04) (8, -1.24774273437500000000e+05) (9, -1.24774210937500000000e+05) (10, -1.10745250000000000000e+05) (11, -1.10745304687500000000e+05) (12, 8.14378173828125000000e+03) (13, -4.99357421875000000000e+04) (14, 6.29493320312500000000e+04) (15, 4.87004492187500000000e+03) (16, -5.23841523437500000000e+04) (17, -7.86698281250000000000e+04) (18, -4.66697265625000000000e+04) (19, -3.44754023437500000000e+04) (20, -2.86010894775390625000e+02) (21, -3.83231523437500000000e+04) (22, 2.05491425781250000000e+04) (23, -2.41531738281250000000e+04) (24, 1.44828812500000000000e+05) (25, -4.80732812500000000000e+04) (26, 3.37611875000000000000e+04) (27, -1.08489890625000000000e+05) (28, 1.07307890625000000000e+05) (29, -1.60688703125000000000e+05) (30, 2.49149187500000000000e+05) (31, -4.63801757812500000000e+04) (32, 1.38166174316406250000e+03) (33, 1.22704820312500000000e+05) (34, 9.95029687500000000000e+03) (35, 1.21910656250000000000e+05) (36, 2.08430917968750000000e+04) (37, 3.57607812500000000000e+04) (38, 5.07064179687500000000e+04) (39, 3.97573359375000000000e+04) (40, -3.73501054687500000000e+04) (41, -4.94926210937500000000e+04) (42, -1.02431148437500000000e+05) (43, 2.47478369140625000000e+03) (44, -4.98256757812500000000e+04) (45, 6.01972890625000000000e+04) (46, -5.93426015625000000000e+04) (47, 3.37005820312500000000e+04) (48, -2.64307363281250000000e+04) (49, 1.16146357421875000000e+04) (50, -2.75132929687500000000e+04) (51, 2.15854907226562500000e+03) (52, -1.56239062500000000000e+05) (53, -1.17197500000000000000e+05) (54, -5.46262304687500000000e+04) (55, 4.79630000000000000000e+04) (56, 7.88281015625000000000e+04) (57, -1.35181816406250000000e+04) (58, 2.02765468750000000000e+04) (59, 3.69266015625000000000e+04) (60, -9.20800078125000000000e+04) (61, -4.38215468750000000000e+04) (62, 9.33899023437500000000e+03) (63, 1.11579599609375000000e+04) (64, -9.61095625000000000000e+04) (65, 4.31785078125000000000e+04) (66, -1.20699468750000000000e+05) (67, 1.08929234375000000000e+05) (68, -1.68947875000000000000e+05) (69, 1.61970671875000000000e+05) (70, -1.66108125000000000000e+05) (71, 3.38638750000000000000e+04) (72, -1.07588914062500000000e+05) (73, 9.03101660156250000000e+03) (74, -3.01716152343750000000e+04) (75, 1.15360400390625000000e+04) (76, -6.43635449218750000000e+03) (77, 2.11437207031250000000e+04) (78, 2.52935742187500000000e+04) (79, 7.90339013671875000000e+03) (80, 7.14093701171875000000e+03) (81, 1.25199169921875000000e+04) (82, 1.04890312500000000000e+05) (83, -8.25610859375000000000e+04) (84, 1.90355671875000000000e+05) (85, -8.11653593750000000000e+04) (86, 1.39105593750000000000e+05) (87, -3.22631816406250000000e+04) (88, 1.33533656250000000000e+05) (89, 2.79628417968750000000e+04) (90, 7.92736875000000000000e+04) (91, -3.70758828125000000000e+04) (92, 9.73016875000000000000e+04) (93, -3.76384570312500000000e+04) (94, 9.49394140625000000000e+04) (95, 4.94670166015625000000e+03) (96, 1.16281718750000000000e+05) (97, -1.91483203125000000000e+04) (98, 1.42148593750000000000e+05) (99, -3.89080898437500000000e+04) (100, 1.45671843750000000000e+05) (101, -2.71229824218750000000e+04) (102, 1.54880312500000000000e+05) (103, -4.42695214843750000000e+03) (104, 1.63083562500000000000e+05) (105, 2.51280253906250000000e+04) (106, 8.20249609375000000000e+04) (107, -3.68510571289062500000e+03) (108, 5.03174921875000000000e+04) (109, -1.46599267578125000000e+04) (110, 1.27244055175781250000e+03) (111, -3.49361474609375000000e+03) (112, 1.64010168457031250000e+03) (113, -3.56710351562500000000e+03) (114, 1.82395080566406250000e+03) (115, -3.64063940429687500000e+03) (116, 1.86071728515625000000e+03) (117, -3.65538549804687500000e+03) (118, 1.88293908691406250000e+03) (119, -3.67742138671875000000e+03) (120, 1.88297814941406250000e+03) (121, -3.67748193359375000000e+03) (122, -9.87042561173439025879e-02) (123, -8.21546092629432678223e-02) (124, 6.29418715834617614746e-02) (125, -4.44544516503810882568e-02) (126, -4.99083846807479858398e-03) (127, -8.39726347476243972778e-03) (128, -4.45752777159214019775e-02) (129, -6.09786845743656158447e-02) (130, -8.81450697779655456543e-02) (131, 7.56282731890678405762e-02) (132, 6.08852207660675048828e-02) (133, 9.46542769670486450195e-02) (134, 6.04849085211753845215e-02) (135, -1.22919641435146331787e-02) (136, -3.58270406723022460938e-02) (137, -4.14245091378688812256e-02) (138, -3.74630913138389587402e-02) (139, -8.83566066622734069824e-02) (140, -2.74410657584667205811e-02) (141, 8.93122330307960510254e-02) (142, 2.05593686550855636597e-02) (143, 1.01883718743920326233e-02) (144, 5.91630861163139343262e-02) (145, 3.22295390069484710693e-02) (146, -7.03231105580925941467e-03) (147, 6.19888417422771453857e-02) (148, -2.04292256385087966919e-02) (149, -4.68148142099380493164e-02) (150, 8.22114639282226562500e+01) (0, -4.52286679687500000000e+04) (1, -4.52285742187500000000e+04) (2, -5.21133945312500000000e+04) (3, -5.21134375000000000000e+04) (4, -2.61178808593750000000e+04) (5, -2.61178183593750000000e+04) (6, -6.09534570312500000000e+04) (7, -6.09536250000000000000e+04) (8, 2.48353339843750000000e+04) (9, 2.48353144531250000000e+04) (10, 1.39219462890625000000e+04) (11, 1.39219384765625000000e+04) (12, -6.08286523437500000000e+04) (13, -4.58413281250000000000e+04) (14, -7.97428125000000000000e+04) (15, -6.47554140625000000000e+04) (16, -5.14556289062500000000e+04) (17, -5.22486992187500000000e+04) (18, 5.88375625000000000000e+04) (19, 1.75588925781250000000e+04) (20, 7.68476406250000000000e+04) (21, 5.61713554687500000000e+04) (22, 9.51032031250000000000e+04) (23, 4.03114335937500000000e+04) (24, 1.12852007812500000000e+05) (25, -2.72967832031250000000e+04) (26, 1.01552187500000000000e+05) (27, -7.34169775390625000000e+03) (28, 1.11871015625000000000e+05) (29, 4.06339648437500000000e+03) (30, 2.34197714843750000000e+04) (31, -5.39029257812500000000e+04) (32, 5.49957265625000000000e+04) (33, -4.21328945312500000000e+04) (34, 1.48233603515625000000e+04) (35, -8.68395234375000000000e+04) (36, 5.42043281250000000000e+04) (37, -2.16053789062500000000e+04) (38, 7.75236376953125000000e+03) (39, -2.71010332031250000000e+04) (40, 4.89606601562500000000e+04) (41, 4.25116875000000000000e+04) (42, 4.78941523437500000000e+04) (43, -1.17598349609375000000e+04) (44, 4.58417890625000000000e+04) (45, 1.63407119140625000000e+04) (46, 2.96965429687500000000e+04) (47, 2.04826318359375000000e+03) (48, 5.68973193359375000000e+03) (49, -2.38121557617187500000e+03) (50, -1.22166142578125000000e+04) (51, 1.26358789062500000000e+03) (52, 4.85804980468750000000e+03) (53, 7.72746250000000000000e+04) (54, 5.09596015625000000000e+04) (55, 9.93769531250000000000e+03) (56, 9.90068740844726562500e+01) (57, 1.02506865234375000000e+04) (58, -1.72411035156250000000e+04) (59, -3.14131308593750000000e+04) (60, -2.87169472656250000000e+04) (61, 2.30053125000000000000e+04) (62, -3.67653007812500000000e+04) (63, 4.55940468750000000000e+04) (64, -9.21589843750000000000e+03) (65, 7.95210107421875000000e+03) (66, -3.53687280273437500000e+03) (67, -3.45194140625000000000e+04) (68, -5.43776000976562500000e+02) (69, -5.20545507812500000000e+04) (70, 2.94138632812500000000e+04) (71, -4.89193554687500000000e+03) (72, -1.71134804687500000000e+04) (73, -5.82597363281250000000e+03) (74, -3.22173730468750000000e+04) (75, -3.17529843750000000000e+04) (76, -3.03072519531250000000e+04) (77, -4.52914726562500000000e+04) (78, -5.24423554687500000000e+04) (79, -4.57819023437500000000e+04) (80, -2.76306953125000000000e+04) (81, -4.03620195312500000000e+04) (82, -3.65321796875000000000e+04) (83, -1.54218427734375000000e+04) (84, -3.68437304687500000000e+04) (85, 3.22723085937500000000e+04) (86, -2.29090546875000000000e+04) (87, 4.35668632812500000000e+04) (88, -8.88109179687500000000e+03) (89, 3.62546191406250000000e+03) (90, -2.16328691406250000000e+04) (91, -3.20727294921875000000e+03) (92, -3.87588125000000000000e+04) (93, -2.80833056640625000000e+03) (94, -4.07681992187500000000e+04) (95, -9.08756530761718750000e+02) (96, -4.86782851562500000000e+04) (97, 7.37374316406250000000e+03) (98, -4.11811640625000000000e+04) (99, 4.23782421875000000000e+04) (100, -1.51214912109375000000e+04) (101, 6.71615937500000000000e+04) (102, -1.77492792968750000000e+04) (103, 3.40268554687500000000e+04) (104, -2.15136933593750000000e+04) (105, 3.25504453125000000000e+04) (106, -3.39940063476562500000e+03) (107, 3.55093710937500000000e+04) (108, -1.25204882812500000000e+04) (109, 1.37150644531250000000e+04) (110, -4.23955615234375000000e+03) (111, 1.16405849609375000000e+04) (112, -5.46501074218750000000e+03) (113, 1.18855214843750000000e+04) (114, -6.07759423828125000000e+03) (115, 1.21306552734375000000e+04) (116, -6.20008837890625000000e+03) (117, 1.21796142578125000000e+04) (118, -6.27355615234375000000e+03) (119, 1.22531640625000000000e+04) (120, -6.27357128906250000000e+03) (121, 1.22530927734375000000e+04) (122, 3.25779020786285400391e-02) (123, 5.89973218739032745361e-02) (124, 7.33472630381584167480e-02) (125, 8.84867757558822631836e-02) (126, -9.96642559766769409180e-02) (127, -5.10623604059219360352e-02) (128, 3.31390872597694396973e-02) (129, -9.76285934448242187500e-02) (130, -5.09566850960254669189e-02) (131, -3.42856943607330322266e-02) (132, 3.90232093632221221924e-02) (133, -9.17745903134346008301e-02) (134, 2.10971850901842117310e-02) (135, -8.99748355150222778320e-02) (136, 5.21685630083084106445e-02) (137, -3.54679338634014129639e-02) (138, -9.85887125134468078613e-02) (139, 8.53889659047126770020e-02) (140, 5.57958334684371948242e-02) (141, 4.40910980105400085449e-02) (142, 5.37712797522544860840e-02) (143, 6.08412884175777435303e-02) (144, 8.64085257053375244141e-02) (145, -6.61191642284393310547e-02) (146, -2.76434533298015594482e-02) (147, 4.33031003922224044800e-03) (148, -7.87323247641324996948e-03) (149, -5.80054409801959991455e-02) (150, -5.60593185424804687500e+01) (0, -7.42252343750000000000e+03) (1, -7.42251171875000000000e+03) (2, -1.44185562500000000000e+05) (3, -1.44185671875000000000e+05) (4, -5.53882539062500000000e+04) (5, -5.53881757812500000000e+04) (6, -2.18759042968750000000e+04) (7, -2.18758300781250000000e+04) (8, 9.84347265625000000000e+04) (9, 9.84346875000000000000e+04) (10, 7.94986171875000000000e+04) (11, 7.94986015625000000000e+04) (12, 1.74616357421875000000e+03) (13, 4.34682382812500000000e+04) (14, -4.43227617187500000000e+04) (15, -2.60052954101562500000e+03) (16, 6.74785390625000000000e+04) (17, 8.53251640625000000000e+04) (18, 4.41880117187500000000e+04) (19, 4.71459882812500000000e+04) (20, -9.18030957031250000000e+03) (21, 2.24084707031250000000e+04) (22, -2.53448496093750000000e+04) (23, 1.89757402343750000000e+04) (24, -1.50391437500000000000e+05) (25, 1.22489902343750000000e+04) (26, -3.55675859375000000000e+04) (27, 6.24400234375000000000e+04) (28, -9.03745390625000000000e+04) (29, 1.32862343750000000000e+05) (30, -1.97182031250000000000e+05) (31, 3.43377109375000000000e+04) (32, -1.24004003906250000000e+04) (33, -1.00037820312500000000e+05) (34, -6.09330957031250000000e+03) (35, -9.27613593750000000000e+04) (36, -2.36490097656250000000e+04) (37, -2.11418007812500000000e+04) (38, -3.76661914062500000000e+04) (39, -2.90010449218750000000e+04) (40, 2.77696601562500000000e+04) (41, 4.47035703125000000000e+04) (42, 7.77290781250000000000e+04) (43, -1.90875534057617187500e+02) (44, 3.59900507812500000000e+04) (45, -4.90754101562500000000e+04) (46, 5.00373046875000000000e+04) (47, -2.96800039062500000000e+04) (48, 3.11190507812500000000e+04) (49, -3.85359741210937500000e+03) (50, 3.50585703125000000000e+04) (51, 2.03248339843750000000e+04) (52, 1.33375125000000000000e+05) (53, 7.69495781250000000000e+04) (54, 4.47629843750000000000e+04) (55, -6.13196835937500000000e+04) (56, -6.14668828125000000000e+04) (57, 1.11616240234375000000e+04) (58, -9.41590820312500000000e+03) (59, -1.45320380859375000000e+04) (60, 1.07936687500000000000e+05) (61, 4.16999218750000000000e+04) (62, 2.20945097656250000000e+04) (63, -6.87084619140625000000e+03) (64, 8.72354765625000000000e+04) (65, -2.01528300781250000000e+04) (66, 9.82486328125000000000e+04) (67, -6.22937148437500000000e+04) (68, 1.33616906250000000000e+05) (69, -1.06967492187500000000e+05) (70, 1.27907265625000000000e+05) (71, -1.21709658203125000000e+04) (72, 9.32472968750000000000e+04) (73, 2.25924829101562500000e+03) (74, 2.66300058593750000000e+04) (75, 4.55024853515625000000e+03) (76, 1.39123352050781250000e+03) (77, -3.40482250976562500000e+03) (78, -2.69420644531250000000e+04) (79, 1.47928847656250000000e+04) (80, -1.41334951171875000000e+04) (81, 6.61867126464843750000e+02) (82, -9.85575468750000000000e+04) (83, 9.03186171875000000000e+04) (84, -1.65982843750000000000e+05) (85, 8.09149062500000000000e+04) (86, -1.19367218750000000000e+05) (87, 3.98725820312500000000e+04) (88, -1.11691937500000000000e+05) (89, -1.76261406250000000000e+04) (90, -6.37232812500000000000e+04) (91, 4.23380937500000000000e+04) (92, -7.75503515625000000000e+04) (93, 4.26824843750000000000e+04) (94, -7.52562812500000000000e+04) (95, -2.04308776855468750000e+02) (96, -9.51491875000000000000e+04) (97, 2.30793710937500000000e+04) (98, -1.18452046875000000000e+05) (99, 3.70710937500000000000e+04) (100, -1.23739429687500000000e+05) (101, 2.25345527343750000000e+04) (102, -1.32214187500000000000e+05) (103, 4.80270556640625000000e+03) (104, -1.40131875000000000000e+05) (105, -2.20064179687500000000e+04) (106, -7.28618515625000000000e+04) (107, 3.63524902343750000000e+03) (108, -4.48163398437500000000e+04) (109, 1.86322812500000000000e+04) (110, -3.30577758789062500000e+03) (111, 9.07667578125000000000e+03) (112, -4.26130078125000000000e+03) (113, 9.26784375000000000000e+03) (114, -4.73896582031250000000e+03) (115, 9.45877539062500000000e+03) (116, -4.83443408203125000000e+03) (117, 9.49700878906250000000e+03) (118, -4.89195214843750000000e+03) (119, 9.55441503906250000000e+03) (120, -4.89194384765625000000e+03) (121, 9.55449804687500000000e+03) (122, -5.39259873330593109131e-02) (123, -4.26951646804809570312e-02) (124, 8.31026211380958557129e-02) (125, 9.44152250885963439941e-02) (126, -2.00075674802064895630e-02) (127, 8.49238038063049316406e-02) (128, 7.90604725480079650879e-02) (129, 1.05519415810704231262e-02) (130, -8.66494029760360717773e-02) (131, 6.42285030335187911987e-03) (132, -7.17706382274627685547e-02) (133, -7.74496048688888549805e-03) (134, -8.58124643564224243164e-02) (135, -7.33975321054458618164e-02) (136, 9.29876640439033508301e-02) (137, -2.04627737402915954590e-02) (138, 3.46779674291610717773e-02) (139, -5.55973574519157409668e-02) (140, 7.13207125663757324219e-02) (141, -1.85764022171497344971e-02) (142, 3.42691205441951751709e-02) (143, -6.45581856369972229004e-02) (144, -4.84360642731189727783e-02) (145, -4.66377325356006622314e-02) (146, -5.13693094253540039062e-02) (147, -5.35783097147941589355e-02) (148, -1.81281641125679016113e-02) (149, -4.76753450930118560791e-02) (150, -1.02778312683105468750e+02) (0, 2.94223515625000000000e+04) (1, 2.94223027343750000000e+04) (2, 5.25888037109375000000e+03) (3, 5.25903076171875000000e+03) (4, 1.11608603515625000000e+04) (5, 1.11610292968750000000e+04) (6, 2.27943183593750000000e+04) (7, 2.27943007812500000000e+04) (8, 2.18043027343750000000e+04) (9, 2.18042695312500000000e+04) (10, 4.08391328125000000000e+04) (11, 4.08391875000000000000e+04) (12, 4.26483007812500000000e+03) (13, 1.49495625000000000000e+04) (14, -7.26222412109375000000e+02) (15, 9.95866210937500000000e+03) (16, -1.67901953125000000000e+04) (17, -1.10758232421875000000e+04) (18, -1.74652363281250000000e+04) (19, -3.21923300781250000000e+04) (20, -1.20910537109375000000e+04) (21, 7.93251831054687500000e+02) (22, -2.53435468750000000000e+04) (23, -3.20212548828125000000e+03) (24, 2.88359648437500000000e+04) (25, 6.03532070312500000000e+04) (26, 4.98975000000000000000e+03) (27, 6.08737656250000000000e+04) (28, -2.17062343750000000000e+04) (29, 7.84746582031250000000e+03) (30, -4.74070156250000000000e+04) (31, 1.81713046875000000000e+04) (32, -1.13580771484375000000e+04) (33, -4.97923779296875000000e+03) (34, -2.30191992187500000000e+04) (35, -7.31198876953125000000e+03) (36, -2.00283867187500000000e+04) (37, -2.54036464843750000000e+04) (38, -2.99420976562500000000e+04) (39, 7.97943554687500000000e+03) (40, 1.17738574218750000000e+04) (41, -3.49321508789062500000e+03) (42, 8.33547363281250000000e+03) (43, -4.97022558593750000000e+03) (44, 1.37625332031250000000e+04) (45, -2.29437539062500000000e+04) (46, 8.08627734375000000000e+03) (47, -1.59338671875000000000e+04) (48, -1.26263549804687500000e+03) (49, -2.46548750000000000000e+04) (50, 2.39751391601562500000e+03) (51, -4.39083906250000000000e+04) (52, 6.66463574218750000000e+03) (53, 2.93037939453125000000e+03) (54, -4.85014404296875000000e+03) (55, 3.36830703125000000000e+04) (56, -1.57219326171875000000e+04) (57, 3.06690454101562500000e+03) (58, -7.02546826171875000000e+03) (59, -1.05515849609375000000e+04) (60, -1.66237382812500000000e+04) (61, -1.19243945312500000000e+04) (62, -4.13343750000000000000e+04) (63, -5.88237695312500000000e+03) (64, -6.20793261718750000000e+03) (65, -1.80427851562500000000e+04) (66, -8.78801367187500000000e+03) (67, -3.39213515625000000000e+04) (68, 2.02880625000000000000e+04) (69, -4.62414765625000000000e+04) (70, 3.39459140625000000000e+04) (71, -4.50704492187500000000e+04) (72, 1.55707783203125000000e+04) (73, -3.47495039062500000000e+04) (74, 3.98003637695312500000e+03) (75, -3.58116328125000000000e+04) (76, 3.50175732421875000000e+03) (77, -1.85329179687500000000e+04) (78, 7.49257128906250000000e+03) (79, -2.44150039062500000000e+04) (80, 1.94623691406250000000e+04) (81, -2.12782207031250000000e+04) (82, 2.01305273437500000000e+04) (83, -4.15134570312500000000e+04) (84, 1.48912939453125000000e+04) (85, -3.34546367187500000000e+04) (86, -2.67223022460937500000e+03) (87, -3.53426210937500000000e+04) (88, -8.97837988281250000000e+03) (89, -2.47819921875000000000e+04) (90, -1.90169885253906250000e+03) (91, -2.74076621093750000000e+04) (92, -3.50829150390625000000e+03) (93, -2.72980117187500000000e+04) (94, -1.06859316406250000000e+04) (95, -5.20282373046875000000e+03) (96, -9.72554687500000000000e+03) (97, -4.82498437500000000000e+03) (98, -1.87347988281250000000e+04) (99, -7.83275488281250000000e+03) (100, -1.75334843750000000000e+04) (101, -7.05798681640625000000e+03) (102, -1.77198378906250000000e+04) (103, -1.23959052734375000000e+04) (104, -1.79368027343750000000e+04) (105, -1.52727812500000000000e+04) (106, -1.64440136718750000000e+04) (107, -6.19745263671875000000e+03) (108, -6.04525830078125000000e+03) (109, -5.65956982421875000000e+03) (110, 2.73885424804687500000e+03) (111, -7.51991308593750000000e+03) (112, 3.53042968750000000000e+03) (113, -7.67820654296875000000e+03) (114, 3.92613623046875000000e+03) (115, -7.83649316406250000000e+03) (116, 4.00540942382812500000e+03) (117, -7.86821533203125000000e+03) (118, 4.05284716796875000000e+03) (119, -7.91575781250000000000e+03) (120, 4.05292211914062500000e+03) (121, -7.91581738281250000000e+03) (122, -3.61601077020168304443e-02) (123, 8.67998301982879638672e-02) (124, 1.94344446063041687012e-02) (125, -8.56669768691062927246e-02) (126, -2.57352590560913085938e-02) (127, -5.60664013028144836426e-02) (128, -8.86340159922838211060e-03) (129, -9.37329139560461044312e-03) (130, -1.41406140755861997604e-03) (131, -3.65460403263568878174e-02) (132, -2.24036015570163726807e-02) (133, 2.60930713266134262085e-02) (134, 2.66604274511337280273e-02) (135, 5.91313019394874572754e-02) (136, 3.89676131308078765869e-02) (137, 9.45583358407020568848e-02) (138, 5.56232556700706481934e-02) (139, 4.61356565356254577637e-02) (140, -7.63532100245356559753e-03) (141, -3.65643203258514404297e-02) (142, -1.23852575197815895081e-02) (143, -9.88862216472625732422e-02) (144, -7.37757086753845214844e-02) (145, 1.59374494105577468872e-02) (146, 9.19263809919357299805e-02) (147, 7.03788995742797851562e-02) (148, -5.22846728563308715820e-02) (149, -2.06280574202537536621e-02) (150, 6.29769134521484375000e+01) (0, 6.21773046875000000000e+04) (1, 6.21773984375000000000e+04) (2, 1.34275687500000000000e+05) (3, 1.34275765625000000000e+05) (4, 4.85854804687500000000e+04) (5, 4.85855898437500000000e+04) (6, 1.09851414062500000000e+05) (7, 1.09851414062500000000e+05) (8, -5.54839531250000000000e+04) (9, -5.54838164062500000000e+04) (10, 2.13438730468750000000e+04) (11, 2.13437929687500000000e+04) (12, 8.34419765625000000000e+04) (13, 6.26391796875000000000e+04) (14, 9.66467578125000000000e+04) (15, 7.58441015625000000000e+04) (16, 1.50710478515625000000e+04) (17, 9.38310058593750000000e+03) (18, -1.09903562500000000000e+05) (19, -6.29467929687500000000e+04) (20, -1.05229343750000000000e+05) (21, -7.95035234375000000000e+04) (22, -1.39611187500000000000e+05) (23, -2.98065644531250000000e+04) (24, -1.31096140625000000000e+05) (25, 5.10448476562500000000e+04) (26, -1.68926984375000000000e+05) (27, 1.32105761718750000000e+03) (28, -1.75724359375000000000e+05) (29, -4.09809492187500000000e+04) (30, -2.99243144531250000000e+04) (31, 6.54772265625000000000e+04) (32, -8.23113125000000000000e+04) (33, 1.00007921875000000000e+05) (34, -3.78561640625000000000e+04) (35, 1.42683515625000000000e+05) (36, -9.90335000000000000000e+04) (37, 3.45537343750000000000e+04) (38, -3.85189609375000000000e+04) (39, 6.75596406250000000000e+04) (40, -3.67368007812500000000e+04) (41, -8.84318671875000000000e+04) (42, -9.04341093750000000000e+04) (43, -2.67264003906250000000e+04) (44, -3.12848750000000000000e+04) (45, -2.32418535156250000000e+04) (46, -2.67815312500000000000e+04) (47, 1.05978964843750000000e+04) (48, 1.28847009277343750000e+03) (49, -1.30818310546875000000e+04) (50, 1.85302890625000000000e+04) (51, -5.10055390625000000000e+04) (52, -1.02727001953125000000e+04) (53, -8.76700625000000000000e+04) (54, -3.39356132812500000000e+04) (55, 3.84674648437500000000e+04) (56, 8.43915859375000000000e+04) (57, 3.69916442871093750000e+02) (58, 5.76159492187500000000e+04) (59, 6.19764492187500000000e+04) (60, -6.71350146484375000000e+03) (61, -6.57667109375000000000e+04) (62, -7.73275939941406250000e+02) (63, -9.49664062500000000000e+04) (64, -1.11007216796875000000e+04) (65, -5.86796601562500000000e+04) (66, -3.22382363281250000000e+04) (67, -4.98001464843750000000e+03) (68, -6.39282500000000000000e+04) (69, 5.38407929687500000000e+04) (70, -5.47776953125000000000e+04) (71, -3.67277578125000000000e+04) (72, -1.87984531250000000000e+04) (73, -1.67635273437500000000e+04) (74, 2.36910390625000000000e+04) (75, 1.76705898437500000000e+04) (76, 2.76599003906250000000e+04) (77, 4.39963476562500000000e+04) (78, 7.19725859375000000000e+04) (79, 3.87972226562500000000e+04) (80, 3.91337031250000000000e+04) (81, 5.09039492187500000000e+04) (82, 9.17932421875000000000e+04) (83, -8.51785449218750000000e+03) (84, 1.10642906250000000000e+05) (85, -6.19016445312500000000e+04) (86, 7.56680703125000000000e+04) (87, -5.84207070312500000000e+04) (88, 6.99088281250000000000e+04) (89, -5.36500292968750000000e+03) (90, 4.79960625000000000000e+04) (91, -4.85419453125000000000e+04) (92, 8.29699531250000000000e+04) (93, -4.94162773437500000000e+04) (94, 8.38909921875000000000e+04) (95, -4.43374218750000000000e+03) (96, 1.08050070312500000000e+05) (97, -2.71374687500000000000e+04) (98, 1.15356695312500000000e+05) (99, -8.16906484375000000000e+04) (100, 7.98681093750000000000e+04) (101, -1.14177750000000000000e+05) (102, 8.92331875000000000000e+04) (103, -5.14950546875000000000e+04) (104, 9.92693906250000000000e+04) (105, -1.59602060546875000000e+04) (106, 3.73118750000000000000e+04) (107, -4.59983593750000000000e+04) (108, 5.31578789062500000000e+04) (109, -3.36312539062500000000e+04) (110, 8.41444824218750000000e+03) (111, -2.31034160156250000000e+04) (112, 1.08464296875000000000e+04) (113, -2.35897851562500000000e+04) (114, 1.20623417968750000000e+04) (115, -2.40762578125000000000e+04) (116, 1.23056132812500000000e+04) (117, -2.41735585937500000000e+04) (118, 1.24515429687500000000e+04) (119, -2.43193183593750000000e+04) (120, 1.24516201171875000000e+04) (121, -2.43194472656250000000e+04) (122, 9.80005636811256408691e-02) (123, 3.72581779956817626953e-02) (124, 5.17199262976646423340e-02) (125, 9.67311188578605651855e-02) (126, -2.09482684731483459473e-02) (127, -8.33730772137641906738e-02) (128, -1.64735279977321624756e-02) (129, 2.59781163185834884644e-02) (130, 6.05083741247653961182e-02) (131, -7.63763785362243652344e-02) (132, -8.18821415305137634277e-02) (133, -4.90792915225028991699e-02) (134, 4.75540049374103546143e-02) (135, 8.19690972566604614258e-02) (136, 9.47686582803726196289e-02) (137, -2.27634180337190628052e-02) (138, -4.28920388221740722656e-02) (139, -2.56347912363708019257e-03) (140, -3.50545719265937805176e-02) (141, -9.25303716212511062622e-03) (142, -8.15885290503501892090e-02) (143, 3.94454002380371093750e-02) (144, -6.99003562331199645996e-02) (145, -6.52807950973510742188e-02) (146, 9.36068817973136901855e-02) (147, 2.34943516552448272705e-02) (148, -3.28517667949199676514e-02) (149, 3.43214720487594604492e-04) (150, 1.72350646972656250000e+02) (0, 4.42410469055175781250e+01) (1, 4.43504219055175781250e+01) (2, -2.41679433593750000000e+04) (3, -2.41678652343750000000e+04) (4, -9.40581542968750000000e+03) (5, -9.40581933593750000000e+03) (6, -3.95208740234375000000e+03) (7, -3.95202587890625000000e+03) (8, 1.82498750000000000000e+04) (9, 1.82498769531250000000e+04) (10, 1.47675732421875000000e+04) (11, 1.47674990234375000000e+04) (12, -9.26259667968750000000e+03) (13, -6.20416992187500000000e+02) (14, -1.59809726562500000000e+04) (15, -7.33888867187500000000e+03) (16, -1.78853925781250000000e+04) (17, -1.67803164062500000000e+04) (18, 1.89868671875000000000e+04) (19, 5.74909716796875000000e+03) (20, 2.61732617187500000000e+04) (21, 2.12079160156250000000e+04) (22, 1.99748046875000000000e+04) (23, 3.98266162109375000000e+03) (24, 1.31017675781250000000e+04) (25, 2.53649667968750000000e+04) (26, 2.18029511718750000000e+04) (27, 3.55102539062500000000e+04) (28, 3.56831030273437500000e+03) (29, 2.21656562500000000000e+04) (30, -3.71927500000000000000e+04) (31, -2.56594433593750000000e+03) (32, -5.57226269531250000000e+03) (33, -2.67417167968750000000e+04) (34, -1.57583505859375000000e+04) (35, -2.56032382812500000000e+04) (36, -4.18122021484375000000e+03) (37, -1.76392128906250000000e+04) (38, -1.97128144531250000000e+04) (39, -1.43775478515625000000e+04) (40, 9.04537207031250000000e+03) (41, 2.99092207031250000000e+04) (42, 1.84480527343750000000e+04) (43, 1.98921289062500000000e+04) (44, 9.00495898437500000000e+03) (45, 5.83033544921875000000e+03) (46, 8.29541699218750000000e+03) (47, 4.29984405517578125000e+02) (48, 1.90569958496093750000e+03) (49, -5.49918310546875000000e+03) (50, -1.40156555175781250000e+03) (51, -4.02686352539062500000e+03) (52, 1.63547695312500000000e+04) (53, 2.21418613281250000000e+04) (54, 9.53982226562500000000e+03) (55, -5.76078759765625000000e+03) (56, -1.38787646484375000000e+04) (57, -2.19605895996093750000e+02) (58, 5.72402893066406250000e+02) (59, -1.86694726562500000000e+04) (60, 1.00339862060546875000e+03) (61, -1.21561728515625000000e+04) (62, -1.76765351562500000000e+04) (63, -6.70365332031250000000e+03) (64, 1.44742248535156250000e+03) (65, -7.89140673828125000000e+03) (66, 7.25046093750000000000e+03) (67, -2.72288906250000000000e+04) (68, 2.01532929687500000000e+04) (69, -3.98317460937500000000e+04) (70, 3.03316093750000000000e+04) (71, -7.64103222656250000000e+03) (72, 1.50295390625000000000e+04) (73, -6.72908740234375000000e+03) (74, 4.92514282226562500000e+02) (75, -1.41034814453125000000e+04) (76, -7.71886169433593750000e+02) (77, -1.84405742187500000000e+04) (78, -6.27719775390625000000e+03) (79, -1.47472158203125000000e+04) (80, 9.73266113281250000000e+03) (81, -1.21965869140625000000e+04) (82, -4.76526220703125000000e+03) (83, -7.57509326171875000000e+03) (84, -2.97816210937500000000e+04) (85, 3.30213867187500000000e+03) (86, -2.88638554687500000000e+04) (87, -7.43740283203125000000e+03) (88, -3.14225156250000000000e+04) (89, -1.46025400390625000000e+04) (90, -2.32411601562500000000e+04) (91, -9.48321093750000000000e+03) (92, -3.23578144531250000000e+04) (93, -9.41752050781250000000e+03) (94, -3.29353906250000000000e+04) (95, -1.81942128906250000000e+04) (96, -3.65622656250000000000e+04) (97, -1.11722167968750000000e+04) (98, -3.90414765625000000000e+04) (99, -4.00027441406250000000e+03) (100, -2.68382421875000000000e+04) (101, 3.28763769531250000000e+03) (102, -2.84268867187500000000e+04) (103, -1.79071762084960937500e+02) (104, -3.03942109375000000000e+04) (105, -6.34154174804687500000e+02) (106, -1.98815722656250000000e+04) (107, 3.45811962890625000000e+03) (108, -7.36967919921875000000e+03) (109, 4.61638818359375000000e+03) (110, -1.14857104492187500000e+03) (111, 3.15370825195312500000e+03) (112, -1.48062304687500000000e+03) (113, 3.22014770507812500000e+03) (114, -1.64651440429687500000e+03) (115, 3.28641235351562500000e+03) (116, -1.67982604980468750000e+03) (117, 3.29977978515625000000e+03) (118, -1.69961950683593750000e+03) (119, 3.31961767578125000000e+03) (120, -1.69969323730468750000e+03) (121, 3.31960498046875000000e+03) (122, -3.69911529123783111572e-02) (123, 9.95768420398235321045e-03) (124, 8.82753133773803710938e-02) (125, 9.77130141109228134155e-03) (126, 8.65143686532974243164e-02) (127, 4.23140190541744232178e-02) (128, -8.50359350442886352539e-02) (129, 2.23430786281824111938e-02) (130, 7.22725614905357360840e-02) (131, 1.69460233300924301147e-02) (132, 3.20894643664360046387e-02) (133, 2.91083082556724548340e-02) (134, -5.67426532506942749023e-02) (135, -5.54184131324291229248e-02) (136, -2.51866728067398071289e-02) (137, 6.15402013063430786133e-02) (138, -4.96160723268985748291e-02) (139, -3.56165505945682525635e-02) (140, 7.43074044585227966309e-02) (141, 7.90339633822441101074e-02) (142, -9.70737561583518981934e-02) (143, -8.36210697889328002930e-02) (144, 6.39875978231430053711e-02) (145, 3.64079885184764862061e-02) (146, -2.67065912485122680664e-02) (147, 8.20645540952682495117e-02) (148, -1.82467065751552581787e-02) (149, -8.39726850390434265137e-02) (150, -1.02394294738769531250e+01) (0, 3.92273437500000000000e+03) (1, 3.92265234375000000000e+03) (2, -3.38370156250000000000e+04) (3, -3.38370625000000000000e+04) (4, -1.33793642578125000000e+04) (5, -1.33793994140625000000e+04) (6, -5.88962656250000000000e+04) (7, -5.88961171875000000000e+04) (8, 3.54121484375000000000e+04) (9, 3.54122851562500000000e+04) (10, 2.90907460937500000000e+04) (11, 2.90907265625000000000e+04) (12, -8.31129531250000000000e+04) (13, -6.03512773437500000000e+04) (14, -9.03655390625000000000e+04) (15, -6.76039375000000000000e+04) (16, -1.18584687500000000000e+05) (17, -1.13878062500000000000e+05) (18, 4.70396445312500000000e+04) (19, -2.71870058593750000000e+04) (20, 1.21756257812500000000e+05) (21, 8.78315078125000000000e+04) (22, 1.63384562500000000000e+05) (23, 4.31933554687500000000e+04) (24, 2.52581375000000000000e+05) (25, 5.41994687500000000000e+04) (26, 1.82141093750000000000e+05) (27, 5.62500195312500000000e+04) (28, 1.67441140625000000000e+05) (29, -8.21212500000000000000e+03) (30, 5.25827343750000000000e+04) (31, -4.96757070312500000000e+04) (32, 1.06851648437500000000e+05) (33, -3.55859570312500000000e+04) (34, 2.78659238281250000000e+04) (35, -1.07075664062500000000e+05) (36, 8.56027187500000000000e+04) (37, -2.89743066406250000000e+04) (38, 7.08116333007812500000e+02) (39, -4.76194492187500000000e+04) (40, 5.40004609375000000000e+04) (41, 4.63592578125000000000e+04) (42, 8.40555156250000000000e+04) (43, -3.89679679870605468750e+01) (44, 4.78025664062500000000e+04) (45, 2.38454277343750000000e+04) (46, 2.22402773437500000000e+04) (47, 1.12757968750000000000e+04) (48, -2.37349042968750000000e+04) (49, 7.47469970703125000000e+03) (50, -4.74471875000000000000e+04) (51, -2.77210781250000000000e+04) (52, -3.64526757812500000000e+04) (53, 1.06764289062500000000e+05) (54, -1.54447460937500000000e+03) (55, 7.77661093750000000000e+04) (56, -5.28491484375000000000e+04) (57, 2.39706855468750000000e+04) (58, -3.52479179687500000000e+04) (59, -6.00119062500000000000e+04) (60, -8.84816250000000000000e+04) (61, -1.09980263671875000000e+04) (62, -8.05976171875000000000e+04) (63, 2.00338750000000000000e+04) (64, -2.30964941406250000000e+04) (65, -2.17631445312500000000e+04) (66, -1.19669619140625000000e+04) (67, -8.74593046875000000000e+04) (68, 1.02704130859375000000e+04) (69, -1.10281710937500000000e+05) (70, 4.44646601562500000000e+04) (71, -2.84022089843750000000e+04) (72, -2.44322285156250000000e+04) (73, -2.34337421875000000000e+04) (74, -4.89627851562500000000e+04) (75, -6.50982226562500000000e+04) (76, -3.37939687500000000000e+04) (77, -6.23572656250000000000e+04) (78, -4.89383867187500000000e+04) (79, -8.62706328125000000000e+04) (80, -2.43943847656250000000e+04) (81, -3.71065664062500000000e+04) (82, -3.04716308593750000000e+04) (83, -7.04326953125000000000e+04) (84, -1.70107597656250000000e+04) (85, -5.33555712890625000000e+03) (86, -3.88170781250000000000e+04) (87, -2.16570214843750000000e+03) (88, -3.67380390625000000000e+04) (89, -1.88332675781250000000e+04) (90, -3.26920800781250000000e+04) (91, -4.78343115234375000000e+03) (92, -5.51773085937500000000e+04) (93, -4.26271826171875000000e+03) (94, -5.39902148437500000000e+04) (95, -1.87125156250000000000e+04) (96, -5.67345820312500000000e+04) (97, -9.26929296875000000000e+03) (98, -3.61472968750000000000e+04) (99, 4.70910507812500000000e+04) (100, 3.97478076171875000000e+03) (101, 8.33159062500000000000e+04) (102, 3.76263085937500000000e+03) (103, 2.57598671875000000000e+04) (104, 2.20480444335937500000e+03) (105, 2.40422070312500000000e+04) (106, 5.59929199218750000000e+03) (107, 3.29562773437500000000e+04) (108, -1.02332128906250000000e+04) (109, -5.92182373046875000000e+02) (110, 1.13377856445312500000e+03) (111, -3.11298876953125000000e+03) (112, 1.46140820312500000000e+03) (113, -3.17862500000000000000e+03) (114, 1.62539648437500000000e+03) (115, -3.24413940429687500000e+03) (116, 1.65802331542968750000e+03) (117, -3.25718579101562500000e+03) (118, 1.67774548339843750000e+03) (119, -3.27694384765625000000e+03) (120, 1.67782507324218750000e+03) (121, -3.27685498046875000000e+03) (122, 7.17929389793425798416e-04) (123, -3.72389517724514007568e-02) (124, 8.39199200272560119629e-02) (125, -8.99903923273086547852e-02) (126, 9.19967070221900939941e-02) (127, -8.05733203887939453125e-02) (128, 5.66007941961288452148e-02) (129, -6.77009224891662597656e-02) (130, 8.10292065143585205078e-02) (131, 3.35908116539940237999e-04) (132, 1.67182069271802902222e-02) (133, 5.57279475033283233643e-02) (134, 7.20644667744636535645e-02) (135, 3.00496462732553482056e-02) (136, 3.17674130201339721680e-02) (137, -9.72506180405616760254e-02) (138, 5.20918183028697967529e-02) (139, -5.67822456359863281250e-02) (140, 9.82803329825401306152e-02) (141, -8.08137804269790649414e-02) (142, -7.96412825584411621094e-02) (143, -9.61428508162498474121e-02) (144, -1.47517712321132421494e-03) (145, 6.87135830521583557129e-02) (146, 6.91612996160984039307e-03) (147, 4.52898349612951278687e-03) (148, 3.30367460846900939941e-02) (149, 7.35379531979560852051e-02) (150, 4.81755638122558593750e+01) (0, -6.22341171875000000000e+04) (1, -6.22340703125000000000e+04) (2, -1.34427687500000000000e+05) (3, -1.34427625000000000000e+05) (4, -4.86205039062500000000e+04) (5, -4.86205351562500000000e+04) (6, -1.09873476562500000000e+05) (7, -1.09873476562500000000e+05) (8, 5.55941015625000000000e+04) (9, 5.55942304687500000000e+04) (10, -2.11638457031250000000e+04) (11, -2.11638203125000000000e+04) (12, -8.34451250000000000000e+04) (13, -6.25803203125000000000e+04) (14, -9.67542734375000000000e+04) (15, -7.58895390625000000000e+04) (16, -1.51699326171875000000e+04) (17, -9.44654980468750000000e+03) (18, 1.09890390625000000000e+05) (19, 6.28531953125000000000e+04) (20, 1.05262312500000000000e+05) (21, 7.95653828125000000000e+04) (22, 1.39615406250000000000e+05) (23, 2.98383574218750000000e+04) (24, 1.31082656250000000000e+05) (25, -5.09362812500000000000e+04) (26, 1.68922109375000000000e+05) (27, -1.13960058593750000000e+03) (28, 1.75557515625000000000e+05) (29, 4.10929453125000000000e+04) (30, 2.94904335937500000000e+04) (31, -6.55567890625000000000e+04) (32, 8.21072031250000000000e+04) (33, -1.00149367187500000000e+05) (34, 3.75829531250000000000e+04) (35, -1.42859328125000000000e+05) (36, 9.88097734375000000000e+04) (37, -3.46531015625000000000e+04) (38, 3.82247070312500000000e+04) (39, -6.76478593750000000000e+04) (40, 3.66092500000000000000e+04) (41, 8.84603906250000000000e+04) (42, 9.03883046875000000000e+04) (43, 2.67170781250000000000e+04) (44, 3.12458632812500000000e+04) (45, 2.31521718750000000000e+04) (46, 2.67096464843750000000e+04) (47, -1.06694521484375000000e+04) (48, -1.41500915527343750000e+03) (49, 1.29973330078125000000e+04) (50, -1.86673750000000000000e+04) (51, 5.08146445312500000000e+04) (52, 1.03365205078125000000e+04) (53, 8.76802031250000000000e+04) (54, 3.38667421875000000000e+04) (55, -3.85859218750000000000e+04) (56, -8.45805312500000000000e+04) (57, -5.27508666992187500000e+02) (58, -5.77221757812500000000e+04) (59, -6.21958085937500000000e+04) (60, 6.66429736328125000000e+03) (61, 6.56265390625000000000e+04) (62, 5.99660949707031250000e+02) (63, 9.48174062500000000000e+04) (64, 1.10690292968750000000e+04) (65, 5.84698984375000000000e+04) (66, 3.22799667968750000000e+04) (67, 4.64226904296875000000e+03) (68, 6.40971679687500000000e+04) (69, -5.42486718750000000000e+04) (70, 5.49226523437500000000e+04) (71, 3.64067929687500000000e+04) (72, 1.88192714843750000000e+04) (73, 1.64971289062500000000e+04) (74, -2.37308242187500000000e+04) (75, -1.79692910156250000000e+04) (76, -2.77126582031250000000e+04) (77, -4.42511015625000000000e+04) (78, -7.20391640625000000000e+04) (79, -3.90538867187500000000e+04) (80, -3.91176289062500000000e+04) (81, -5.10237773437500000000e+04) (82, -9.18736171875000000000e+04) (83, 8.40643164062500000000e+03) (84, -1.10813468750000000000e+05) (85, 6.17889609375000000000e+04) (86, -7.57923437500000000000e+04) (87, 5.82902421875000000000e+04) (88, -7.00312421875000000000e+04) (89, 5.19627978515625000000e+03) (90, -4.80485585937500000000e+04) (91, 4.84202929687500000000e+04) (92, -8.30456562500000000000e+04) (93, 4.92954609375000000000e+04) (94, -8.40153984375000000000e+04) (95, 4.37691845703125000000e+03) (96, -1.08193179687500000000e+05) (97, 2.70940214843750000000e+04) (98, -1.15505976562500000000e+05) (99, 8.17236484375000000000e+04) (100, -8.00189531250000000000e+04) (101, 1.14210843750000000000e+05) (102, -8.93971484375000000000e+04) (103, 5.15283789062500000000e+04) (104, -9.94442578125000000000e+04) (105, 1.59438183593750000000e+04) (106, -3.73876445312500000000e+04) (107, 4.60399492187500000000e+04) (108, -5.32349062500000000000e+04) (109, 3.36464960937500000000e+04) (110, -8.41356445312500000000e+03) (111, 2.31010917968750000000e+04) (112, -1.08454023437500000000e+04) (113, 2.35873281250000000000e+04) (114, -1.20610986328125000000e+04) (115, 2.40735957031250000000e+04) (116, -1.23042587890625000000e+04) (117, 2.41709882812500000000e+04) (118, -1.24501914062500000000e+04) (119, 2.43167617187500000000e+04) (120, -1.24501894531250000000e+04) (121, 2.43168691406250000000e+04) (122, -6.20059892535209655762e-02) (123, -5.25375455617904663086e-03) (124, -6.53623417019844055176e-02) (125, 5.93877620995044708252e-02) (126, -4.80361990630626678467e-02) (127, -4.36305627226829528809e-02) (128, -7.85437673330307006836e-02) (129, 2.29673776775598526001e-02) (130, 1.15838013589382171631e-02) (131, 9.92815867066383361816e-02) (132, -3.73628661036491394043e-02) (133, -1.02313570678234100342e-02) (134, 8.25227871537208557129e-02) (135, 6.56603425741195678711e-02) (136, 6.35652095079421997070e-02) (137, 3.11436168849468231201e-02) (138, -6.14041574299335479736e-02) (139, 1.88177525997161865234e-02) (140, -9.28199738264083862305e-02) (141, -9.73765403032302856445e-02) (142, 6.66533038020133972168e-03) (143, -8.20420533418655395508e-02) (144, -8.17571487277746200562e-03) (145, -3.72719503939151763916e-02) (146, -6.35480433702468872070e-02) (147, -4.29621264338493347168e-02) (148, -9.43681150674819946289e-02) (149, 6.99988976120948791504e-02) (150, -1.72403732299804687500e+02) (0, -1.09259643554687500000e+01) (1, -1.09747924804687500000e+01) (2, -2.43403339843750000000e+04) (3, -2.43404082031250000000e+04) (4, -9.41447460937500000000e+03) (5, -9.41453320312500000000e+03) (6, -3.96618652343750000000e+03) (7, -3.96609082031250000000e+03) (8, 1.83134804687500000000e+04) (9, 1.83134003906250000000e+04) (10, 1.48763593750000000000e+04) (11, 1.48763554687500000000e+04) (12, -9.16890722656250000000e+03) (13, -5.03585510253906250000e+02) (14, -1.59271201171875000000e+04) (15, -7.26194677734375000000e+03) (16, -1.78196445312500000000e+04) (17, -1.67085234375000000000e+04) (18, 1.89522597656250000000e+04) (19, 5.71929101562500000000e+03) (20, 2.61732832031250000000e+04) (21, 2.12235546875000000000e+04) (22, 1.99943300781250000000e+04) (23, 4.05816723632812500000e+03) (24, 1.28723945312500000000e+04) (25, 2.53802714843750000000e+04) (26, 2.16198925781250000000e+04) (27, 3.55517890625000000000e+04) (28, 3.46964990234375000000e+03) (29, 2.22251640625000000000e+04) (30, -3.73570039062500000000e+04) (31, -2.55789404296875000000e+03) (32, -5.65447314453125000000e+03) (33, -2.68097597656250000000e+04) (34, -1.58358222656250000000e+04) (35, -2.56353359375000000000e+04) (36, -4.26307373046875000000e+03) (37, -1.75916367187500000000e+04) (38, -1.98083281250000000000e+04) (39, -1.42993125000000000000e+04) (40, 9.01329980468750000000e+03) (41, 2.99551679687500000000e+04) (42, 1.84766621093750000000e+04) (43, 1.98749062500000000000e+04) (44, 9.04727343750000000000e+03) (45, 5.84435205078125000000e+03) (46, 8.32774121093750000000e+03) (47, 4.22338073730468750000e+02) (48, 1.91076721191406250000e+03) (49, -5.53228515625000000000e+03) (50, -1.39525073242187500000e+03) (51, -4.09583764648437500000e+03) (52, 1.65628203125000000000e+04) (53, 2.21448437500000000000e+04) (54, 9.59772070312500000000e+03) (55, -5.93656787109375000000e+03) (56, -1.38358105468750000000e+04) (57, -3.72803619384765625000e+02) (58, 5.77333435058593750000e+02) (59, -1.88034277343750000000e+04) (60, 1.06479394531250000000e+03) (61, -1.22889707031250000000e+04) (62, -1.76485878906250000000e+04) (63, -6.77462011718750000000e+03) (64, 1.49030249023437500000e+03) (65, -7.97908789062500000000e+03) (66, 7.29264062500000000000e+03) (67, -2.73151757812500000000e+04) (68, 2.02527343750000000000e+04) (69, -3.99474453125000000000e+04) (70, 3.04148398437500000000e+04) (71, -7.70022167968750000000e+03) (72, 1.50492968750000000000e+04) (73, -6.75033251953125000000e+03) (74, 4.63958099365234375000e+02) (75, -1.41264648437500000000e+04) (76, -8.40461242675781250000e+02) (77, -1.84783613281250000000e+04) (78, -6.35327539062500000000e+03) (79, -1.47814160156250000000e+04) (80, 9.65653906250000000000e+03) (81, -1.22014326171875000000e+04) (82, -4.90419433593750000000e+03) (83, -7.48085888671875000000e+03) (84, -2.99825449218750000000e+04) (85, 3.31535742187500000000e+03) (86, -2.89298261718750000000e+04) (87, -7.48631738281250000000e+03) (88, -3.14768300781250000000e+04) (89, -1.47055976562500000000e+04) (90, -2.32966132812500000000e+04) (91, -9.58047265625000000000e+03) (92, -3.24443281250000000000e+04) (93, -9.51517578125000000000e+03) (94, -3.30252265625000000000e+04) (95, -1.82959218750000000000e+04) (96, -3.66592148437500000000e+04) (97, -1.12612480468750000000e+04) (98, -3.91376367187500000000e+04) (99, -4.07029711914062500000e+03) (100, -2.68805410156250000000e+04) (101, 3.26141528320312500000e+03) (102, -2.84765371093750000000e+04) (103, -1.75488265991210937500e+02) (104, -3.04506191406250000000e+04) (105, -6.70011474609375000000e+02) (106, -1.99181738281250000000e+04) (107, 3.46859814453125000000e+03) (108, -7.41556494140625000000e+03) (109, 4.63720556640625000000e+03) (110, -1.15272558593750000000e+03) (111, 3.16470825195312500000e+03) (112, -1.48580004882812500000e+03) (113, 3.23139135742187500000e+03) (114, -1.65224572753906250000e+03) (115, 3.29811083984375000000e+03) (116, -1.68560876464843750000e+03) (117, 3.31138012695312500000e+03) (118, -1.70570324707031250000e+03) (119, 3.33129882812500000000e+03) (120, -1.70569494628906250000e+03) (121, 3.33133886718750000000e+03) (122, -4.41452190279960632324e-02) (123, -2.79434528201818466187e-02) (124, 3.48548926413059234619e-02) (125, -2.99878474324941635132e-02) (126, -9.70424860715866088867e-02) (127, 7.26461932063102722168e-02) (128, 5.86757473647594451904e-02) (129, 2.74223163723945617676e-02) (130, 2.12465338408946990967e-02) (131, 6.36473670601844787598e-02) (132, -7.96278640627861022949e-02) (133, 1.04264938272535800934e-03) (134, -7.73456767201423645020e-02) (135, 4.76261004805564880371e-02) (136, 6.27348897978663444519e-03) (137, -4.08818796277046203613e-02) (138, -5.15759214758872985840e-02) (139, 7.06905573606491088867e-02) (140, 4.57196161150932312012e-02) (141, -3.34297344088554382324e-02) (142, -9.38462466001510620117e-02) (143, -7.67831951379776000977e-02) (144, 5.76132535934448242188e-02) (145, -9.47451591491699218750e-02) (146, -9.28898528218269348145e-02) (147, 6.80393353104591369629e-03) (148, 3.31417135894298553467e-02) (149, -4.96293753385543823242e-02) (150, -1.00502653121948242188e+01) (0, -4.71230908203125000000e+03) (1, -4.71234521484375000000e+03) (2, 8.12126953125000000000e+03) (3, 8.12130468750000000000e+03) (4, -1.42338037109375000000e+03) (5, -1.42337255859375000000e+03) (6, -1.37821943359375000000e+04) (7, -1.37821972656250000000e+04) (8, -2.14118613281250000000e+04) (9, -2.14117246093750000000e+04) (10, -3.01694667968750000000e+04) (11, -3.01696328125000000000e+04) (12, -6.77375732421875000000e+03) (13, -1.52251835937500000000e+04) (14, 3.77378295898437500000e+03) (15, -4.67759570312500000000e+03) (16, -8.89595031738281250000e+02) (17, -8.89689160156250000000e+03) (18, 9.60618774414062500000e+02) (19, 7.38021337890625000000e+03) (20, 5.87370166015625000000e+03) (21, -1.71144531250000000000e+04) (22, -1.82392407226562500000e+03) (23, -1.48100419921875000000e+04) (24, -5.17855371093750000000e+03) (25, -2.52241601562500000000e+04) (26, 4.53889746093750000000e+03) (27, -2.47920351562500000000e+04) (28, 1.63720712890625000000e+04) (29, -1.31226093750000000000e+04) (30, 3.01022812500000000000e+04) (31, -1.78479511718750000000e+04) (32, -1.59465087890625000000e+03) (33, -9.13610742187500000000e+03) (34, 3.13027978515625000000e+03) (35, 8.22691699218750000000e+03) (36, -1.87679931640625000000e+03) (37, 6.62344335937500000000e+03) (38, 2.42088916015625000000e+03) (39, -1.61219958496093750000e+03) (40, -3.53691748046875000000e+03) (41, 9.77964160156250000000e+03) (42, -2.45640351562500000000e+04) (43, 7.99807226562500000000e+03) (44, -1.00744453125000000000e+04) (45, 2.07895664062500000000e+04) (46, -1.28996689453125000000e+04) (47, 5.86701220703125000000e+03) (48, -8.09125878906250000000e+03) (49, -3.14085766601562500000e+03) (50, -1.12144228515625000000e+04) (51, 6.07429980468750000000e+03) (52, -8.33120507812500000000e+03) (53, -1.23159296875000000000e+04) (54, 3.88271514892578125000e+02) (55, -1.24529042968750000000e+04) (56, 5.31204394531250000000e+03) (57, -4.18748388671875000000e+03) (58, -1.12054943847656250000e+03) (59, 4.52587524414062500000e+02) (60, 1.88188110351562500000e+03) (61, -1.41051474609375000000e+04) (62, 1.34856982421875000000e+04) (63, -8.00020654296875000000e+03) (64, -1.18279628906250000000e+04) (65, 2.94255346679687500000e+03) (66, -1.32651298828125000000e+04) (67, 1.07097841796875000000e+04) (68, -1.66393066406250000000e+04) (69, 1.58006767578125000000e+04) (70, -4.88012109375000000000e+03) (71, 1.97186171875000000000e+04) (72, -7.38177343750000000000e+03) (73, 2.19241914062500000000e+04) (74, 5.26944531250000000000e+03) (75, 1.59041826171875000000e+04) (76, -2.77120239257812500000e+02) (77, -2.59395581054687500000e+03) (78, -1.12313977050781250000e+03) (79, -1.82533776855468750000e+03) (80, 1.45950073242187500000e+03) (81, -6.16760742187500000000e+03) (82, 2.90797290039062500000e+03) (83, -2.85587622070312500000e+03) (84, -4.88303613281250000000e+03) (85, 6.41923144531250000000e+03) (86, -4.02347802734375000000e+03) (87, 9.15379296875000000000e+03) (88, -2.38340478515625000000e+03) (89, 4.48822949218750000000e+03) (90, -7.22032519531250000000e+03) (91, 2.10010913085937500000e+03) (92, -1.01765126953125000000e+04) (93, 1.97757739257812500000e+03) (94, -7.30843554687500000000e+03) (95, -1.05357412109375000000e+04) (96, -7.22932617187500000000e+03) (97, -8.47821972656250000000e+03) (98, -3.28094238281250000000e+03) (99, 