FANN_FLO_2.1
num_layers=4
learning_rate=0.700000
connection_rate=1.000000
network_type=0
learning_momentum=0.000000
training_algorithm=0
train_error_function=1
train_stop_function=0
cascade_output_change_fraction=0.010000
quickprop_decay=-0.000100
quickprop_mu=1.750000
rprop_increase_factor=1.200000
rprop_decrease_factor=0.500000
rprop_delta_min=0.000000
rprop_delta_max=50.000000
rprop_delta_zero=0.100000
cascade_output_stagnation_epochs=12
cascade_candidate_change_fraction=0.010000
cascade_candidate_stagnation_epochs=12
cascade_max_out_epochs=150
cascade_max_cand_epochs=150
cascade_num_candidate_groups=2
bit_fail_limit=3.49999994039535522461e-01
cascade_candidate_limit=1.00000000000000000000e+03
cascade_weight_multiplier=4.00000005960464477539e-01
cascade_activation_functions_count=10
cascade_activation_functions=3 5 7 8 10 11 14 15 16 17 
cascade_activation_steepnesses_count=4
cascade_activation_steepnesses=2.50000000000000000000e-01 5.00000000000000000000e-01 7.50000000000000000000e-01 1.00000000000000000000e+00 
layer_sizes=151 81 31 23 
scale_included=0
neurons (num_inputs, activation_function, activation_steepness)=(0, 0, 0.00000000000000000000e+00) (0, 0, 0.00000000000000000000e+00) (0, 0, 0.00000000000000000000e+00) (0, 0, 0.00000000000000000000e+00) (0, 0, 0.00000000000000000000e+00) (0, 0, 0.00000000000000000000e+00) (0, 0, 0.00000000000000000000e+00) (0, 0, 0.00000000000000000000e+00) (0, 0, 0.00000000000000000000e+00) (0, 0, 0.00000000000000000000e+00) (0, 0, 0.00000000000000000000e+00) (0, 0, 0.00000000000000000000e+00) (0, 0, 0.00000000000000000000e+00) (0, 0, 0.00000000000000000000e+00) (0, 0, 0.00000000000000000000e+00) (0, 0, 0.00000000000000000000e+00) (0, 0, 0.00000000000000000000e+00) (0, 0, 0.00000000000000000000e+00) (0, 0, 0.00000000000000000000e+00) (0, 0, 0.00000000000000000000e+00) (0, 0, 0.00000000000000000000e+00) (0, 0, 0.00000000000000000000e+00) (0, 0, 0.00000000000000000000e+00) (0, 0, 0.00000000000000000000e+00) (0, 0, 0.00000000000000000000e+00) (0, 0, 0.00000000000000000000e+00) (0, 0, 0.00000000000000000000e+00) (0, 0, 0.00000000000000000000e+00) (0, 0, 0.00000000000000000000e+00) (0, 0, 0.00000000000000000000e+00) (0, 0, 0.00000000000000000000e+00) (0, 0, 0.00000000000000000000e+00) (0, 0, 0.00000000000000000000e+00) (0, 0, 0.00000000000000000000e+00) (0, 0, 0.00000000000000000000e+00) (0, 0, 0.00000000000000000000e+00) (0, 0, 0.00000000000000000000e+00) (0, 0, 0.00000000000000000000e+00) (0, 0, 0.00000000000000000000e+00) (0, 0, 0.00000000000000000000e+00) (0, 0, 0.00000000000000000000e+00) (0, 0, 0.00000000000000000000e+00) (0, 0, 0.00000000000000000000e+00) (0, 0, 0.00000000000000000000e+00) (0, 0, 0.00000000000000000000e+00) (0, 0, 0.00000000000000000000e+00) (0, 0, 0.00000000000000000000e+00) (0, 0, 0.00000000000000000000e+00) (0, 0, 0.00000000000000000000e+00) (0, 0, 0.00000000000000000000e+00) (0, 0, 0.00000000000000000000e+00) (0, 0, 0.00000000000000000000e+00) (0, 0, 0.00000000000000000000e+00) (0, 0, 0.00000000000000000000e+00) (0, 0, 0.00000000000000000000e+00) (0, 0, 0.00000000000000000000e+00) (0, 0, 0.00000000000000000000e+00) (0, 0, 0.00000000000000000000e+00) (0, 0, 0.00000000000000000000e+00) (0, 0, 0.00000000000000000000e+00) (0, 0, 0.00000000000000000000e+00) (0, 0, 0.00000000000000000000e+00) (0, 0, 0.00000000000000000000e+00) (0, 0, 0.00000000000000000000e+00) (0, 0, 0.00000000000000000000e+00) (0, 0, 0.00000000000000000000e+00) (0, 0, 0.00000000000000000000e+00) (0, 0, 0.00000000000000000000e+00) (0, 0, 0.00000000000000000000e+00) (0, 0, 0.00000000000000000000e+00) (0, 0, 0.00000000000000000000e+00) (0, 0, 0.00000000000000000000e+00) (0, 0, 0.00000000000000000000e+00) (0, 0, 0.00000000000000000000e+00) (0, 0, 0.00000000000000000000e+00) (0, 0, 0.00000000000000000000e+00) (0, 0, 0.00000000000000000000e+00) (0, 0, 0.00000000000000000000e+00) (0, 0, 0.00000000000000000000e+00) (0, 0, 0.00000000000000000000e+00) (0, 0, 0.00000000000000000000e+00) (0, 0, 0.00000000000000000000e+00) (0, 0, 0.00000000000000000000e+00) (0, 0, 0.00000000000000000000e+00) (0, 0, 0.00000000000000000000e+00) (0, 0, 0.00000000000000000000e+00) (0, 0, 0.00000000000000000000e+00) (0, 0, 0.00000000000000000000e+00) (0, 0, 0.00000000000000000000e+00) (0, 0, 0.00000000000000000000e+00) (0, 0, 0.00000000000000000000e+00) (0, 0, 0.00000000000000000000e+00) (0, 0, 0.00000000000000000000e+00) (0, 0, 0.00000000000000000000e+00) (0, 0, 0.00000000000000000000e+00) (0, 0, 0.00000000000000000000e+00) (0, 0, 0.00000000000000000000e+00) (0, 0, 0.00000000000000000000e+00) (0, 0, 0.00000000000000000000e+00) (0, 0, 0.00000000000000000000e+00) (0, 0, 0.00000000000000000000e+00) (0, 0, 0.00000000000000000000e+00) (0, 0, 0.00000000000000000000e+00) (0, 0, 0.00000000000000000000e+00) (0, 0, 0.00000000000000000000e+00) (0, 0, 0.00000000000000000000e+00) (0, 0, 0.00000000000000000000e+00) (0, 0, 0.00000000000000000000e+00) (0, 0, 0.00000000000000000000e+00) (0, 0, 0.00000000000000000000e+00) (0, 0, 0.00000000000000000000e+00) (0, 0, 0.00000000000000000000e+00) (0, 0, 0.00000000000000000000e+00) (0, 0, 0.00000000000000000000e+00) (0, 0, 0.00000000000000000000e+00) (0, 0, 0.00000000000000000000e+00) (0, 0, 0.00000000000000000000e+00) (0, 0, 0.00000000000000000000e+00) (0, 0, 0.00000000000000000000e+00) (0, 0, 0.00000000000000000000e+00) (0, 0, 0.00000000000000000000e+00) (0, 0, 0.00000000000000000000e+00) (0, 0, 0.00000000000000000000e+00) (0, 0, 0.00000000000000000000e+00) (0, 0, 0.00000000000000000000e+00) (0, 0, 0.00000000000000000000e+00) (0, 0, 0.00000000000000000000e+00) (0, 0, 0.00000000000000000000e+00) (0, 0, 0.00000000000000000000e+00) (0, 0, 0.00000000000000000000e+00) (0, 0, 0.00000000000000000000e+00) (0, 0, 0.00000000000000000000e+00) (0, 0, 0.00000000000000000000e+00) (0, 0, 0.00000000000000000000e+00) (0, 0, 0.00000000000000000000e+00) (0, 0, 0.00000000000000000000e+00) (0, 0, 0.00000000000000000000e+00) (0, 0, 0.00000000000000000000e+00) (0, 0, 0.00000000000000000000e+00) (0, 0, 0.00000000000000000000e+00) (0, 0, 0.00000000000000000000e+00) (0, 0, 0.00000000000000000000e+00) (0, 0, 0.00000000000000000000e+00) (0, 0, 0.00000000000000000000e+00) (0, 0, 0.00000000000000000000e+00) (0, 0, 0.00000000000000000000e+00) (0, 0, 0.00000000000000000000e+00) (0, 0, 0.00000000000000000000e+00) (0, 0, 0.00000000000000000000e+00) (0, 0, 0.00000000000000000000e+00) (0, 0, 0.00000000000000000000e+00) (151, 6, 5.00000000000000000000e-01) (151, 6, 5.00000000000000000000e-01) (151, 6, 5.00000000000000000000e-01) (151, 6, 5.00000000000000000000e-01) (151, 6, 5.00000000000000000000e-01) (151, 6, 5.00000000000000000000e-01) (151, 6, 5.00000000000000000000e-01) (151, 6, 5.00000000000000000000e-01) (151, 6, 5.00000000000000000000e-01) (151, 6, 5.00000000000000000000e-01) (151, 6, 5.00000000000000000000e-01) (151, 6, 5.00000000000000000000e-01) (151, 6, 5.00000000000000000000e-01) (151, 6, 5.00000000000000000000e-01) (151, 6, 5.00000000000000000000e-01) (151, 6, 5.00000000000000000000e-01) (151, 6, 5.00000000000000000000e-01) (151, 6, 5.00000000000000000000e-01) (151, 6, 5.00000000000000000000e-01) (151, 6, 5.00000000000000000000e-01) (151, 6, 5.00000000000000000000e-01) (151, 6, 5.00000000000000000000e-01) (151, 6, 5.00000000000000000000e-01) (151, 6, 5.00000000000000000000e-01) (151, 6, 5.00000000000000000000e-01) (151, 6, 5.00000000000000000000e-01) (151, 6, 5.00000000000000000000e-01) (151, 6, 5.00000000000000000000e-01) (151, 6, 5.00000000000000000000e-01) (151, 6, 5.00000000000000000000e-01) (151, 6, 5.00000000000000000000e-01) (151, 6, 5.00000000000000000000e-01) (151, 6, 5.00000000000000000000e-01) (151, 6, 5.00000000000000000000e-01) (151, 6, 5.00000000000000000000e-01) (151, 6, 5.00000000000000000000e-01) (151, 6, 5.00000000000000000000e-01) (151, 6, 5.00000000000000000000e-01) (151, 6, 5.00000000000000000000e-01) (151, 6, 5.00000000000000000000e-01) (151, 6, 5.00000000000000000000e-01) (151, 6, 5.00000000000000000000e-01) (151, 6, 5.00000000000000000000e-01) (151, 6, 5.00000000000000000000e-01) (151, 6, 5.00000000000000000000e-01) (151, 6, 5.00000000000000000000e-01) (151, 6, 5.00000000000000000000e-01) (151, 6, 5.00000000000000000000e-01) (151, 6, 5.00000000000000000000e-01) (151, 6, 5.00000000000000000000e-01) (151, 6, 5.00000000000000000000e-01) (151, 6, 5.00000000000000000000e-01) (151, 6, 5.00000000000000000000e-01) (151, 6, 5.00000000000000000000e-01) (151, 6, 5.00000000000000000000e-01) (151, 6, 5.00000000000000000000e-01) (151, 6, 5.00000000000000000000e-01) (151, 6, 5.00000000000000000000e-01) (151, 6, 5.00000000000000000000e-01) (151, 6, 5.00000000000000000000e-01) (151, 6, 5.00000000000000000000e-01) (151, 6, 5.00000000000000000000e-01) (151, 6, 5.00000000000000000000e-01) (151, 6, 5.00000000000000000000e-01) (151, 6, 5.00000000000000000000e-01) (151, 6, 5.00000000000000000000e-01) (151, 6, 5.00000000000000000000e-01) (151, 6, 5.00000000000000000000e-01) (151, 6, 5.00000000000000000000e-01) (151, 6, 5.00000000000000000000e-01) (151, 6, 5.00000000000000000000e-01) (151, 6, 5.00000000000000000000e-01) (151, 6, 5.00000000000000000000e-01) (151, 6, 5.00000000000000000000e-01) (151, 6, 5.00000000000000000000e-01) (151, 6, 5.00000000000000000000e-01) (151, 6, 5.00000000000000000000e-01) (151, 6, 5.00000000000000000000e-01) (151, 6, 5.00000000000000000000e-01) (151, 6, 5.00000000000000000000e-01) (0, 6, 0.00000000000000000000e+00) (81, 6, 5.00000000000000000000e-01) (81, 6, 5.00000000000000000000e-01) (81, 6, 5.00000000000000000000e-01) (81, 6, 5.00000000000000000000e-01) (81, 6, 5.00000000000000000000e-01) (81, 6, 5.00000000000000000000e-01) (81, 6, 5.00000000000000000000e-01) (81, 6, 5.00000000000000000000e-01) (81, 6, 5.00000000000000000000e-01) (81, 6, 5.00000000000000000000e-01) (81, 6, 5.00000000000000000000e-01) (81, 6, 5.00000000000000000000e-01) (81, 6, 5.00000000000000000000e-01) (81, 6, 5.00000000000000000000e-01) (81, 6, 5.00000000000000000000e-01) (81, 6, 5.00000000000000000000e-01) (81, 6, 5.00000000000000000000e-01) (81, 6, 5.00000000000000000000e-01) (81, 6, 5.00000000000000000000e-01) (81, 6, 5.00000000000000000000e-01) (81, 6, 5.00000000000000000000e-01) (81, 6, 5.00000000000000000000e-01) (81, 6, 5.00000000000000000000e-01) (81, 6, 5.00000000000000000000e-01) (81, 6, 5.00000000000000000000e-01) (81, 6, 5.00000000000000000000e-01) (81, 6, 5.00000000000000000000e-01) (81, 6, 5.00000000000000000000e-01) (81, 6, 5.00000000000000000000e-01) (81, 6, 5.00000000000000000000e-01) (0, 6, 0.00000000000000000000e+00) (31, 12, 5.00000000000000000000e-01) (31, 12, 5.00000000000000000000e-01) (31, 12, 5.00000000000000000000e-01) (31, 12, 5.00000000000000000000e-01) (31, 12, 5.00000000000000000000e-01) (31, 12, 5.00000000000000000000e-01) (31, 12, 5.00000000000000000000e-01) (31, 12, 5.00000000000000000000e-01) (31, 12, 5.00000000000000000000e-01) (31, 12, 5.00000000000000000000e-01) (31, 12, 5.00000000000000000000e-01) (31, 12, 5.00000000000000000000e-01) (31, 12, 5.00000000000000000000e-01) (31, 12, 5.00000000000000000000e-01) (31, 12, 5.00000000000000000000e-01) (31, 12, 5.00000000000000000000e-01) (31, 12, 5.00000000000000000000e-01) (31, 12, 5.00000000000000000000e-01) (31, 12, 5.00000000000000000000e-01) (31, 12, 5.00000000000000000000e-01) (31, 12, 5.00000000000000000000e-01) (31, 12, 5.00000000000000000000e-01) (0, 12, 0.00000000000000000000e+00) 
connections (connected_to_neuron, weight)=(0, 9.89149700000000000000e+06) (1, -2.60267125000000000000e+06) (2, 4.73723850000000000000e+06) (3, -2.80293975000000000000e+06) (4, 4.68256656250000000000e+05) (5, -1.73967828125000000000e+05) (6, 2.61829025000000000000e+06) (7, 2.68181175000000000000e+06) (8, 1.70472480468750000000e+04) (9, -1.76215812500000000000e+06) (10, -9.81961625000000000000e+05) (11, -1.31835350000000000000e+06) (12, -8.43598125000000000000e+05) (13, -3.79583406250000000000e+05) (14, -7.39949900000000000000e+06) (15, -1.57140487500000000000e+06) (16, -2.34163800000000000000e+06) (17, -5.97313562500000000000e+05) (18, 6.27760250000000000000e+06) (19, 2.22383475000000000000e+06) (20, 7.68681950000000000000e+06) (21, -5.58618600000000000000e+06) (22, 1.09264980000000000000e+07) (23, -8.73980400000000000000e+06) (24, -4.36219450000000000000e+06) (25, 7.18153050000000000000e+06) (26, -4.67757850000000000000e+06) (27, -3.39076925000000000000e+06) (28, 1.53767475000000000000e+06) (29, -2.73987875000000000000e+06) (30, 4.01860475000000000000e+06) (31, -1.64051212500000000000e+06) (32, 4.07203150000000000000e+06) (33, -4.92077800000000000000e+06) (34, 4.73594750000000000000e+06) (35, -3.77589850000000000000e+06) (36, 9.63557400000000000000e+06) (37, 2.26358000000000000000e+06) (38, 9.54468000000000000000e+06) (39, 1.13507800000000000000e+07) (40, 3.90427450000000000000e+06) (41, 9.92888200000000000000e+06) (42, 8.41977100000000000000e+06) (43, 9.14049500000000000000e+06) (44, 6.67273812500000000000e+05) (45, -1.29522880000000000000e+07) (46, 2.84434350000000000000e+06) (47, -8.46980900000000000000e+06) (48, -7.87761000000000000000e+06) (49, -8.46026400000000000000e+06) (50, 5.61706300000000000000e+06) (51, 1.22808160000000000000e+07) (52, 3.09426350000000000000e+06) (53, -4.72026550000000000000e+06) (54, 1.49783720000000000000e+07) (55, 3.28832250000000000000e+06) (56, 9.83109200000000000000e+06) (57, 4.57077750000000000000e+06) (58, 3.89145500000000000000e+05) (59, -9.07883562500000000000e+05) (60, -6.65106250000000000000e+06) (61, 6.63384050000000000000e+06) (62, -5.74211800000000000000e+06) (63, 5.48732700000000000000e+06) (64, -1.38250060000000000000e+07) (65, 3.27066725000000000000e+06) (66, -1.15710530000000000000e+07) (67, 5.52857600000000000000e+06) (68, 3.82234000000000000000e+06) (69, 6.36166050000000000000e+06) (70, 8.64773125000000000000e+05) (71, 8.90518600000000000000e+06) (72, 7.20721437500000000000e+05) (73, 1.00835870000000000000e+07) (74, -4.17799750000000000000e+06) (75, 1.33116270000000000000e+07) (76, 5.13917400000000000000e+06) (77, 1.41240750000000000000e+07) (78, 6.47627400000000000000e+06) (79, 7.94187600000000000000e+06) (80, 2.61281000000000000000e+06) (81, 8.27238950000000000000e+06) (82, 4.74333050000000000000e+06) (83, 7.58109450000000000000e+06) (84, 5.94351250000000000000e+06) (85, 4.82132950000000000000e+06) (86, -8.48251750000000000000e+05) (87, 3.75122750000000000000e+06) (88, 2.00561337500000000000e+06) (89, 6.99835800000000000000e+06) (90, 9.34822900000000000000e+06) (91, 4.80392750000000000000e+06) (92, 8.89836900000000000000e+06) (93, 7.01104750000000000000e+06) (94, 9.24046500000000000000e+06) (95, 1.94135787500000000000e+06) (96, 5.94545700000000000000e+06) (97, -2.17444375000000000000e+05) (98, 4.44128550000000000000e+06) (99, 7.34937250000000000000e+05) (100, 1.40993325000000000000e+06) (101, 1.69276275000000000000e+06) (102, 1.46695862500000000000e+06) (103, 1.74279625000000000000e+06) (104, 1.37608925000000000000e+06) (105, 8.22352062500000000000e+05) (106, 1.45400637500000000000e+06) (107, -1.63921875000000000000e+05) (108, 1.86487512500000000000e+06) (109, -1.27488775000000000000e+06) (110, 1.26431600000000000000e+06) (111, -8.89328375000000000000e+05) (112, 9.39056202769279479980e-02) (113, -5.27746863663196563721e-02) (114, -6.52565285563468933105e-02) (115, 2.29492764919996261597e-02) (116, -3.42213772237300872803e-02) (117, -6.24125599861145019531e-02) (118, 3.78941595554351806641e-02) (119, -7.78240114450454711914e-02) (120, -8.33682268857955932617e-02) (121, -8.14878940582275390625e-02) (122, 7.21156150102615356445e-02) (123, -3.11514623463153839111e-02) (124, 3.64334248006343841553e-02) (125, -4.14622798562049865723e-02) (126, 1.67925294954329729080e-03) (127, -6.09095804393291473389e-02) (128, 7.03359320759773254395e-02) (129, -5.37372045218944549561e-02) (130, -6.54089376330375671387e-02) (131, -3.20603288710117340088e-02) (132, 4.81817424297332763672e-02) (133, -9.25795361399650573730e-02) (134, -8.49241614341735839844e-02) (135, 4.34644147753715515137e-02) (136, 8.67087841033935546875e-02) (137, -4.15300540626049041748e-02) (138, -8.07116702198982238770e-02) (139, 2.69882492721080780029e-02) (140, 5.26514351367950439453e-02) (141, -2.21302900463342666626e-02) (142, 9.08054560422897338867e-02) (143, 4.65570539236068725586e-02) (144, 2.50950232148170471191e-02) (145, -7.44510740041732788086e-02) (146, -3.04936692118644714355e-02) (147, 9.08736512064933776855e-02) (148, -3.68636362254619598389e-02) (149, -3.44067822265625000000e+03) (150, -3.67671679687500000000e+04) (0, -2.38052150000000000000e+06) (1, -4.09150225000000000000e+06) (2, -2.13462600000000000000e+06) (3, 9.86950156250000000000e+04) (4, 1.47752250000000000000e+06) (5, -2.84505250000000000000e+06) (6, -8.22990375000000000000e+05) (7, 2.86599650000000000000e+06) (8, 5.48818750000000000000e+06) (9, -3.09675575000000000000e+06) (10, -3.58658100000000000000e+06) (11, 4.52597562500000000000e+05) (12, 4.25442200000000000000e+06) (13, -1.47281950000000000000e+06) (14, -1.03676820000000000000e+07) (15, -6.55877950000000000000e+06) (16, -2.09603609375000000000e+05) (17, 7.19549200000000000000e+06) (18, 9.09095600000000000000e+06) (19, 2.01330462500000000000e+06) (20, -3.63601075000000000000e+06) (21, -5.12631950000000000000e+06) (22, -1.23167270000000000000e+07) (23, 4.51189900000000000000e+06) (24, -3.70990575000000000000e+06) (25, 1.02405980000000000000e+07) (26, 4.44816250000000000000e+06) (27, -2.97111125000000000000e+06) (28, -9.89871700000000000000e+06) (29, 2.05573703125000000000e+05) (30, 3.67937850000000000000e+06) (31, -3.76671775000000000000e+06) (32, -4.77433850000000000000e+06) (33, -6.35686650000000000000e+06) (34, -2.18181325000000000000e+06) (35, -7.81242650000000000000e+06) (36, 1.83120087500000000000e+06) (37, 4.02082575000000000000e+06) (38, 4.23284850000000000000e+06) (39, 1.78296400000000000000e+06) (40, 2.71916325000000000000e+06) (41, -3.18789375000000000000e+06) (42, 7.66453250000000000000e+06) (43, 5.52576900000000000000e+06) (44, 2.92254700000000000000e+06) (45, -1.23862530000000000000e+07) (46, -8.51988750000000000000e+05) (47, 1.98006625000000000000e+06) (48, -1.22542620000000000000e+07) (49, 4.24291950000000000000e+06) (50, -6.04490450000000000000e+06) (51, 2.89963100000000000000e+06) (52, 3.46739875000000000000e+06) (53, 2.12718225000000000000e+06) (54, 8.07646625000000000000e+05) (55, 1.47062275000000000000e+06) (56, 3.19311900000000000000e+06) (57, 5.77481000000000000000e+06) (58, 2.25666250000000000000e+06) (59, 5.93609150000000000000e+06) (60, -8.04073600000000000000e+06) (61, 1.81522287500000000000e+06) (62, -1.31024300000000000000e+07) (63, 8.14686800000000000000e+06) (64, -1.48704410000000000000e+07) (65, -3.45495150000000000000e+06) (66, -6.38441450000000000000e+06) (67, -3.75720925000000000000e+06) (68, 2.01892662500000000000e+06) (69, -2.20775775000000000000e+06) (70, -3.99317925000000000000e+06) (71, -1.39567075000000000000e+06) (72, 6.95386625000000000000e+05) (73, 1.61595212500000000000e+06) (74, -3.18919575000000000000e+06) (75, 1.86955087500000000000e+06) (76, 1.45844775000000000000e+06) (77, 9.12713300000000000000e+06) (78, -9.39748200000000000000e+06) (79, 7.66962900000000000000e+06) (80, -4.64047650000000000000e+06) (81, 1.29527580000000000000e+07) (82, -8.07488625000000000000e+05) (83, 5.07684000000000000000e+06) (84, -1.16122675000000000000e+06) (85, 4.68672800000000000000e+06) (86, 5.74369250000000000000e+05) (87, 5.42406300000000000000e+06) (88, 2.10683925000000000000e+06) (89, 1.51276637500000000000e+06) (90, 6.18700950000000000000e+06) (91, 1.95694078125000000000e+05) (92, 5.47472400000000000000e+06) (93, 3.07103775000000000000e+06) (94, 3.98472250000000000000e+06) (95, -1.63760343750000000000e+05) (96, -7.18661640625000000000e+04) (97, -4.04888225000000000000e+06) (98, 8.36015062500000000000e+05) (99, -5.36358750000000000000e+06) (100, -5.60133875000000000000e+05) (101, -1.41073425000000000000e+06) (102, -5.92118000000000000000e+05) (103, -1.04897075000000000000e+06) (104, -8.30475437500000000000e+05) (105, -6.32303250000000000000e+05) (106, -8.92460875000000000000e+05) (107, 1.55871328125000000000e+05) (108, -1.16540975000000000000e+06) (109, 7.90295937500000000000e+05) (110, -6.85635687500000000000e+05) (111, 4.82280781250000000000e+05) (112, 6.10561668872833251953e-02) (113, -5.28691112995147705078e-02) (114, -1.10484259203076362610e-02) (115, -1.62114948034286499023e-02) (116, 3.32727208733558654785e-02) (117, 8.33269208669662475586e-02) (118, 1.60826556384563446045e-02) (119, -1.59186904784291982651e-03) (120, -7.28314369916915893555e-02) (121, -5.42563525959849357605e-03) (122, -2.58232038468122482300e-02) (123, -6.51422590017318725586e-02) (124, 3.56675274670124053955e-02) (125, -8.18690136075019836426e-02) (126, -9.40590500831604003906e-02) (127, 4.38271183520555496216e-03) (128, -4.98310066759586334229e-02) (129, 8.36676582694053649902e-02) (130, 1.60364285111427307129e-02) (131, -8.37445724755525588989e-03) (132, -7.46737793087959289551e-02) (133, 8.25039148330688476562e-02) (134, -1.37131108203902840614e-04) (135, -2.98164077103137969971e-02) (136, 6.04008771479129791260e-02) (137, -2.43088249117136001587e-02) (138, 5.45611381530761718750e-02) (139, -5.45208621770143508911e-03) (140, -4.99225743114948272705e-02) (141, -2.96954121440649032593e-02) (142, -6.27411529421806335449e-02) (143, -8.88664051890373229980e-02) (144, 1.74354780465364456177e-02) (145, 2.62104216963052749634e-02) (146, -5.07790083065629005432e-03) (147, -4.92918007075786590576e-02) (148, 9.53733827918767929077e-03) (149, 9.73642285156250000000e+03) (150, -1.82753437500000000000e+04) (0, -1.56062900000000000000e+06) (1, 1.21801960000000000000e+07) (2, 1.57914175000000000000e+06) (3, 1.38633750000000000000e+07) (4, 1.23925580000000000000e+07) (5, 2.53978875000000000000e+06) (6, 9.56966000000000000000e+06) (7, -5.82856450000000000000e+06) (8, 5.83305750000000000000e+06) (9, -1.36719870000000000000e+07) (10, 2.26966475000000000000e+06) (11, -4.36310550000000000000e+06) (12, 5.60545150000000000000e+06) (13, 9.07010500000000000000e+06) (14, -4.88743800000000000000e+06) (15, 6.61827250000000000000e+06) (16, 4.91311350000000000000e+06) (17, -8.00910300000000000000e+06) (18, 8.12207500000000000000e+06) (19, -8.96261700000000000000e+06) (20, 1.51787050000000000000e+06) (21, 9.51490700000000000000e+06) (22, 9.41001000000000000000e+06) (23, 1.43268290000000000000e+07) (24, -1.54211062500000000000e+06) (25, 1.01863300000000000000e+07) (26, 1.13724650000000000000e+07) (27, 2.08700750000000000000e+06) (28, -2.79960812500000000000e+05) (29, -1.00336421875000000000e+05) (30, 3.62919825000000000000e+06) (31, -1.17923040000000000000e+07) (32, 3.30178968750000000000e+05) (33, -1.45412112500000000000e+06) (34, -5.79378687500000000000e+05) (35, -1.41191562500000000000e+06) (36, -4.62208350000000000000e+06) (37, 1.52631515625000000000e+05) (38, -3.76128750000000000000e+06) (39, -7.69935950000000000000e+06) (40, -9.58680700000000000000e+06) (41, -1.09898830000000000000e+07) (42, -5.87912850000000000000e+06) (43, -1.04763720000000000000e+07) (44, -6.72878450000000000000e+06) (45, -1.76470262500000000000e+06) (46, 3.11860312500000000000e+05) (47, 7.43327750000000000000e+06) (48, 2.18613120000000000000e+07) (49, 6.19876100000000000000e+06) (50, 1.72181740000000000000e+07) (51, -1.42604890000000000000e+07) (52, -2.46200550000000000000e+06) (53, 3.08327950000000000000e+06) (54, 1.19632980000000000000e+07) (55, -1.97207262500000000000e+06) (56, -5.54357300000000000000e+06) (57, 4.22634800000000000000e+06) (58, -7.92995100000000000000e+06) (59, 1.68749300000000000000e+07) (60, -2.03405680000000000000e+07) (61, -8.39220100000000000000e+06) (62, -1.26166120000000000000e+07) (63, -2.50201360000000000000e+07) (64, -1.18584110000000000000e+07) (65, -2.19399100000000000000e+07) (66, -8.72910500000000000000e+06) (67, -1.14080920000000000000e+07) (68, 5.98626600000000000000e+06) (69, 7.59216850000000000000e+06) (70, 1.38831580000000000000e+07) (71, -2.61406562500000000000e+05) (72, 8.75803400000000000000e+06) (73, 4.67609593750000000000e+05) (74, 2.94682450000000000000e+06) (75, 1.37906328125000000000e+05) (76, 1.25893660000000000000e+07) (77, 6.07676150000000000000e+06) (78, -1.78779512500000000000e+06) (79, 3.61964650000000000000e+06) (80, -1.07973887500000000000e+06) (81, 7.84278100000000000000e+06) (82, -2.17919703125000000000e+05) (83, -1.39556218750000000000e+05) (84, -3.49257225000000000000e+06) (85, 6.41153250000000000000e+06) (86, 1.16567400000000000000e+07) (87, 7.08272000000000000000e+06) (88, -1.38736300000000000000e+06) (89, -2.95030800000000000000e+06) (90, -1.34218560000000000000e+07) (91, 3.14599250000000000000e+06) (92, -1.21339840000000000000e+07) (93, -4.94582050000000000000e+06) (94, -1.59928120000000000000e+07) (95, -2.23301775000000000000e+06) (96, -1.37376010000000000000e+07) (97, -2.35685550000000000000e+06) (98, -6.76012750000000000000e+06) (99, -3.41271225000000000000e+06) (100, -4.61414750000000000000e+06) (101, -1.81340075000000000000e+06) (102, -4.75446200000000000000e+06) (103, -3.91681625000000000000e+06) (104, -3.11541725000000000000e+06) (105, -8.93968937500000000000e+05) (106, -3.20020100000000000000e+06) (107, 1.45214515625000000000e+05) (108, -3.76766100000000000000e+06) (109, 2.61124825000000000000e+06) (110, -3.13336775000000000000e+06) (111, 2.20403150000000000000e+06) (112, -6.92199915647506713867e-02) (113, -8.20414200425148010254e-02) (114, 2.50726449303328990936e-03) (115, 2.83752195537090301514e-02) (116, 9.92404073476791381836e-02) (117, -8.19293558597564697266e-02) (118, -4.71742302179336547852e-02) (119, 4.45289723575115203857e-03) (120, 3.73518057167530059814e-02) (121, 7.62567594647407531738e-02) (122, -4.04933653771877288818e-02) (123, -4.08414565026760101318e-02) (124, -9.25008356571197509766e-02) (125, -4.10869112238287925720e-03) (126, -9.44082140922546386719e-02) (127, -7.30523541569709777832e-02) (128, -1.36567447334527969360e-02) (129, -5.98234236240386962891e-02) (130, -7.49857304617762565613e-03) (131, -5.07718324661254882812e-02) (132, 1.80310588330030441284e-02) (133, -7.67679959535598754883e-02) (134, -3.54224704205989837646e-02) (135, 7.74920359253883361816e-02) (136, -7.52906501293182373047e-02) (137, -4.34074811637401580811e-02) (138, -6.00221715867519378662e-02) (139, 5.91854974627494812012e-02) (140, 5.40448985993862152100e-02) (141, -1.43205542117357254028e-02) (142, 1.55683708726428449154e-04) (143, 8.48249047994613647461e-02) (144, 3.63802933134138584137e-03) (145, -9.73370522260665893555e-02) (146, 1.32001228630542755127e-02) (147, 2.87843286059796810150e-03) (148, -7.92664065957069396973e-02) (149, 1.42693125000000000000e+04) (150, -1.81827859375000000000e+05) (0, 3.87694775000000000000e+06) (1, -8.96270900000000000000e+06) (2, -1.08183890625000000000e+05) (3, -1.08736100000000000000e+07) (4, 2.70456775000000000000e+06) (5, 1.02096390000000000000e+07) (6, 7.40045500000000000000e+06) (7, -1.53117650000000000000e+06) (8, -4.66064900000000000000e+06) (9, 6.65512200000000000000e+06) (10, 1.14141150000000000000e+06) (11, 7.26032200000000000000e+06) (12, -2.15643125000000000000e+06) (13, 5.57479000000000000000e+05) (14, 5.27473450000000000000e+06) (15, 2.48190725000000000000e+06) (16, -1.18362590000000000000e+07) (17, 3.85894700000000000000e+06) (18, -3.14811000000000000000e+06) (19, 5.26250500000000000000e+06) (20, -6.06595050000000000000e+06) (21, 5.88599400000000000000e+06) (22, -4.01660950000000000000e+06) (23, 1.13049660000000000000e+07) (24, 7.06261800000000000000e+06) (25, 1.11809370000000000000e+07) (26, 1.17190740000000000000e+07) (27, -8.28071050000000000000e+06) (28, -2.66998350000000000000e+06) (29, -7.44159850000000000000e+06) (30, 1.00452450000000000000e+07) (31, -1.75048387500000000000e+06) (32, 9.31452700000000000000e+06) (33, 1.12522470000000000000e+07) (34, 1.18554660000000000000e+07) (35, 1.98087296875000000000e+05) (36, -2.20261350000000000000e+06) (37, 3.47416843750000000000e+05) (38, -2.31875750000000000000e+06) (39, -1.25833887500000000000e+06) (40, -1.15681900000000000000e+07) (41, -8.23936687500000000000e+05) (42, 3.19510600000000000000e+06) (43, 3.06845550000000000000e+06) (44, 1.04026280000000000000e+07) (45, -8.71241937500000000000e+05) (46, -5.01086800000000000000e+06) (47, -3.20406937500000000000e+05) (48, 3.86460600000000000000e+06) (49, -4.08538125000000000000e+06) (50, -8.87666125000000000000e+05) (51, 1.74663700000000000000e+07) (52, -4.37720500000000000000e+06) (53, 3.05466725000000000000e+06) (54, -3.31672350000000000000e+06) (55, 5.56493300000000000000e+06) (56, -2.00117363281250000000e+04) (57, -3.95631725000000000000e+06) (58, 3.12367250000000000000e+06) (59, -1.05013480000000000000e+07) (60, 8.54054300000000000000e+06) (61, -1.43032460000000000000e+07) (62, 1.08787590000000000000e+07) (63, -8.87498400000000000000e+06) (64, 9.15736000000000000000e+06) (65, -4.51203150000000000000e+06) (66, 1.45616380000000000000e+07) (67, -3.85523625000000000000e+06) (68, 7.69023437500000000000e+05) (69, -9.08094125000000000000e+05) (70, 4.73357250000000000000e+06) (71, 6.05925750000000000000e+06) (72, 1.32513300000000000000e+07) (73, 6.34001100000000000000e+06) (74, 1.67340560000000000000e+07) (75, 1.34081012500000000000e+06) (76, -8.62691750000000000000e+05) (77, -1.15961789062500000000e+05) (78, 8.69726900000000000000e+06) (79, -3.62287200000000000000e+06) (80, 2.35698725000000000000e+06) (81, -7.76900200000000000000e+06) (82, -6.63275812500000000000e+05) (83, -1.09208312500000000000e+06) (84, 5.08355468750000000000e+05) (85, -1.54313212500000000000e+06) (86, -6.29943100000000000000e+06) (87, -4.54194450000000000000e+06) (88, -9.74249600000000000000e+06) (89, 5.16273900000000000000e+06) (90, -4.88202050000000000000e+06) (91, 2.62153650000000000000e+06) (92, -3.79572675000000000000e+06) (93, -6.15990900000000000000e+06) (94, -6.72997650000000000000e+06) (95, -4.74299650000000000000e+06) (96, 6.02656250000000000000e+05) (97, 4.17522350000000000000e+06) (98, 6.83207500000000000000e+05) (99, 6.53877700000000000000e+06) (100, -6.82074600000000000000e+06) (101, 2.05033525000000000000e+06) (102, -6.92209950000000000000e+06) (103, -3.46689875000000000000e+06) (104, -3.15800650000000000000e+06) (105, 5.29621937500000000000e+05) (106, -3.24802350000000000000e+06) (107, 1.50322100000000000000e+06) (108, -1.54080775000000000000e+06) (109, 1.04695618750000000000e+06) (110, -9.40572937500000000000e+05) (111, 6.61605437500000000000e+05) (112, -2.65071634203195571899e-02) (113, -9.01337340474128723145e-02) (114, -4.86043393611907958984e-02) (115, 1.61809995770454406738e-02) (116, 2.91867628693580627441e-02) (117, -4.24721948802471160889e-02) (118, 7.61432051658630371094e-02) (119, 9.23404563218355178833e-03) (120, -7.44281560182571411133e-02) (121, -4.67105768620967864990e-02) (122, 8.75746905803680419922e-02) (123, -4.64317351579666137695e-02) (124, 5.61501970514655113220e-03) (125, 4.40579056739807128906e-02) (126, 6.39549596235156059265e-03) (127, 8.35931394249200820923e-03) (128, 8.31472687423229217529e-03) (129, 1.16612492129206657410e-02) (130, -4.04026471078395843506e-02) (131, 8.67056399583816528320e-02) (132, -5.39542324841022491455e-02) (133, -7.95835033059120178223e-02) (134, 5.48220165073871612549e-02) (135, 8.45299959182739257812e-02) (136, -6.70525208115577697754e-02) (137, -1.92818772047758102417e-02) (138, 6.49730935692787170410e-02) (139, -2.14357534423470497131e-03) (140, 4.96204718947410583496e-02) (141, -5.52950091660022735596e-02) (142, -8.56772959232330322266e-02) (143, -7.68866911530494689941e-02) (144, -4.54287379980087280273e-02) (145, -3.42816337943077087402e-02) (146, 3.92943099141120910645e-02) (147, 8.37580263614654541016e-02) (148, 2.32461709529161453247e-02) (149, -2.67407167968750000000e+04) (150, -1.11166562500000000000e+05) (0, -6.68977650000000000000e+06) (1, 1.97814212500000000000e+06) (2, -1.25643512500000000000e+06) (3, -2.41650750000000000000e+06) (4, 5.20704450000000000000e+06) (5, -3.06728500000000000000e+06) (6, -3.01433225000000000000e+06) (7, -8.79482578125000000000e+04) (8, 1.38478203125000000000e+04) (9, 3.69036025000000000000e+06) (10, -4.65070450000000000000e+06) (11, 1.49984662500000000000e+06) (12, 1.96891800000000000000e+06) (13, -5.29401050000000000000e+06) (14, -1.34743950000000000000e+06) (15, -6.03989200000000000000e+06) (16, 4.27805000000000000000e+06) (17, 4.32320150000000000000e+06) (18, 2.40642800000000000000e+06) (19, 4.99907750000000000000e+06) (20, -3.63804675000000000000e+06) (21, -1.07182720000000000000e+07) (22, -1.42283890000000000000e+07) (23, 6.16785300000000000000e+06) (24, -1.03026581250000000000e+06) (25, 4.06630750000000000000e+06) (26, 6.93691400000000000000e+06) (27, -1.29583060000000000000e+07) (28, -1.04764200000000000000e+07) (29, -3.49919300000000000000e+06) (30, 1.70473280000000000000e+07) (31, -1.71172837500000000000e+06) (32, 2.08102537500000000000e+06) (33, 2.41537906250000000000e+05) (34, -2.55715015625000000000e+05) (35, -6.07960900000000000000e+06) (36, -1.91303187500000000000e+06) (37, 5.38057800000000000000e+06) (38, -3.87281850000000000000e+06) (39, 1.53523460000000000000e+07) (40, 6.05245500000000000000e+06) (41, 4.93217700000000000000e+06) (42, 4.64627800000000000000e+06) (43, 9.24455400000000000000e+06) (44, 2.52498250000000000000e+06) (45, 2.61402000000000000000e+06) (46, -4.09791750000000000000e+06) (47, 7.01514300000000000000e+06) (48, -1.87837500000000000000e+07) (49, -1.00369590000000000000e+07) (50, -3.90669275000000000000e+06) (51, 2.25984925000000000000e+06) (52, 5.10057450000000000000e+06) (53, 2.71719700000000000000e+06) (54, -1.60454487500000000000e+06) (55, 2.69220100000000000000e+06) (56, 6.38329850000000000000e+06) (57, 1.23025050000000000000e+07) (58, 5.60076600000000000000e+06) (59, 4.20222781250000000000e+05) (60, 2.29390450000000000000e+06) (61, 1.32803237500000000000e+06) (62, 4.15661656250000000000e+05) (63, 1.40734070000000000000e+07) (64, -1.50357600000000000000e+06) (65, 3.93563275000000000000e+06) (66, 6.60412350000000000000e+06) (67, 2.09073962500000000000e+06) (68, 4.63200650000000000000e+06) (69, -3.42008750000000000000e+05) (70, -4.84119100000000000000e+06) (71, 5.30321450000000000000e+06) (72, -4.30877656250000000000e+04) (73, 9.45991100000000000000e+06) (74, 9.92713562500000000000e+05) (75, 5.09544300000000000000e+06) (76, -2.55200100000000000000e+06) (77, 1.05909640000000000000e+07) (78, -5.20538400000000000000e+06) (79, 8.50665300000000000000e+06) (80, -1.98514850000000000000e+06) (81, 1.20526990000000000000e+07) (82, 1.64479325000000000000e+06) (83, 7.63941600000000000000e+06) (84, 1.94949750000000000000e+06) (85, 6.07669550000000000000e+06) (86, -3.22166050000000000000e+06) (87, 5.90492800000000000000e+06) (88, -3.76089775000000000000e+06) (89, 6.06474900000000000000e+06) (90, 7.89774550000000000000e+06) (91, 1.13049703125000000000e+05) (92, 7.83609950000000000000e+06) (93, -4.05847531250000000000e+05) (94, 5.70960000000000000000e+06) (95, -4.58049218750000000000e+05) (96, 3.36225275000000000000e+06) (97, -1.03828112500000000000e+06) (98, 4.47313900000000000000e+06) (99, -2.19954125000000000000e+06) (100, -1.89507212500000000000e+06) (101, 6.80797812500000000000e+05) (102, -1.92972750000000000000e+06) (103, -9.32223125000000000000e+05) (104, -8.36160562500000000000e+05) (105, 5.35007500000000000000e+05) (106, -8.14713437500000000000e+05) (107, 2.10323109375000000000e+05) (108, -3.13271000000000000000e+05) (109, 2.32351765625000000000e+05) (110, -5.08604812500000000000e+05) (111, 3.57756093750000000000e+05) (112, 2.33363416045904159546e-02) (113, 8.07032808661460876465e-02) (114, -7.46561810374259948730e-02) (115, 5.72156198322772979736e-02) (116, 8.31565260887145996094e-03) (117, 4.11644391715526580811e-02) (118, -2.48869340866804122925e-02) (119, 1.53121994808316230774e-02) (120, 4.27110753953456878662e-02) (121, -2.61650457978248596191e-02) (122, 8.43437016010284423828e-02) (123, -7.79980346560478210449e-02) (124, -9.94427013210952281952e-04) (125, -3.32121253013610839844e-02) (126, -4.83778826892375946045e-02) (127, -1.36450387071818113327e-03) (128, 8.83643999695777893066e-02) (129, 2.87811867892742156982e-02) (130, 2.95170769095420837402e-02) (131, 5.74942156672477722168e-02) (132, -1.63717735558748245239e-02) (133, -3.11143007129430770874e-02) (134, -7.51030966639518737793e-02) (135, -3.40426713228225708008e-02) (136, -3.95344570279121398926e-02) (137, 4.00716392323374748230e-03) (138, 2.96357084152987226844e-05) (139, -1.00042845588177442551e-03) (140, -9.60777029395103454590e-02) (141, 6.52914494276046752930e-02) (142, 9.52226370573043823242e-02) (143, 2.72586401551961898804e-02) (144, 4.59947325289249420166e-02) (145, -7.94335454702377319336e-02) (146, -1.55257415026426315308e-02) (147, -4.56896163523197174072e-02) (148, 6.17308951914310455322e-02) (149, -1.38596474609375000000e+04) (150, -4.11265312500000000000e+04) (0, -5.73030350000000000000e+06) (1, 6.17303400000000000000e+06) (2, -1.26784037500000000000e+06) (3, -1.36415765625000000000e+05) (4, 4.22908450000000000000e+06) (5, 8.22483150000000000000e+06) (6, 2.08952475000000000000e+06) (7, -3.15614800000000000000e+06) (8, -4.37901800000000000000e+06) (9, -9.62963687500000000000e+05) (10, 5.02322375000000000000e+05) (11, 3.09818625000000000000e+05) (12, -5.10312650000000000000e+06) (13, -9.22489625000000000000e+05) (14, 1.47531078125000000000e+05) (15, 2.34971575000000000000e+06) (16, 2.33865900000000000000e+06) (17, -2.88890025000000000000e+06) (18, -4.28795300000000000000e+06) (19, 1.64800587500000000000e+06) (20, -4.10688150000000000000e+06) (21, -5.51071700000000000000e+06) (22, 6.68590500000000000000e+06) (23, -5.01592100000000000000e+06) (24, -1.63038412500000000000e+06) (25, -1.19028575000000000000e+06) (26, -2.08300762500000000000e+06) (27, -1.55992187500000000000e+06) (28, 4.93152700000000000000e+06) (29, -3.13761475000000000000e+06) (30, 1.97643212500000000000e+06) (31, 4.01543475000000000000e+06) (32, 6.05897250000000000000e+06) (33, 4.73690300000000000000e+06) (34, 4.25829450000000000000e+06) (35, 3.32294075000000000000e+06) (36, -5.37244550000000000000e+06) (37, -9.54467500000000000000e+06) (38, -7.98468750000000000000e+06) (39, 7.02154150000000000000e+06) (40, -2.63921300000000000000e+06) (41, 8.16940400000000000000e+06) (42, -1.03094000000000000000e+07) (43, 1.26599810000000000000e+07) (44, -1.03487300000000000000e+07) (45, -8.12867500000000000000e+05) (46, 2.23155800000000000000e+06) (47, -7.68351750000000000000e+05) (48, 6.77384187500000000000e+05) (49, -9.17592900000000000000e+06) (50, 1.16555530000000000000e+07) (51, -1.49770862500000000000e+06) (52, -1.18646762500000000000e+06) (53, -1.30074600000000000000e+06) (54, 1.14970750000000000000e+07) (55, 1.36055190000000000000e+07) (56, 5.59563150000000000000e+06) (57, 3.54260275000000000000e+06) (58, -2.86999875000000000000e+06) (59, -5.71773500000000000000e+06) (60, -3.57915225000000000000e+06) (61, 4.84380700000000000000e+06) (62, -3.11880175000000000000e+06) (63, 4.77343950000000000000e+06) (64, 4.66554100000000000000e+06) (65, 7.35887850000000000000e+06) (66, -4.07470500000000000000e+05) (67, 4.87350850000000000000e+06) (68, 1.03626812500000000000e+05) (69, 8.81138800000000000000e+06) (70, 2.10864700000000000000e+06) (71, 7.69366800000000000000e+06) (72, 5.44880850000000000000e+06) (73, 7.19692300000000000000e+06) (74, 3.68871250000000000000e+06) (75, 3.95234875000000000000e+06) (76, 8.92023375000000000000e+05) (77, -6.52544937500000000000e+05) (78, 3.50874125000000000000e+06) (79, 1.60373087500000000000e+06) (80, 6.41618750000000000000e+05) (81, -4.96256812500000000000e+05) (82, -1.52637359375000000000e+05) (83, 2.08137287500000000000e+06) (84, 1.61478687500000000000e+06) (85, -2.35822600000000000000e+06) (86, 2.41751050000000000000e+06) (87, -4.63596050000000000000e+06) (88, 7.78469900000000000000e+06) (89, 2.05728062500000000000e+06) (90, 3.14983550000000000000e+06) (91, 4.26561050000000000000e+06) (92, 4.24656250000000000000e+06) (93, -2.08769562500000000000e+06) (94, 3.53880625000000000000e+06) (95, -4.54396992187500000000e+04) (96, 5.88887650000000000000e+06) (97, 4.51055750000000000000e+06) (98, 4.74689900000000000000e+06) (99, 4.72664900000000000000e+06) (100, -1.80528087500000000000e+06) (101, 3.17750150000000000000e+06) (102, -1.79544500000000000000e+06) (103, 3.63684875000000000000e+05) (104, 1.73261031250000000000e+05) (105, 1.10710312500000000000e+06) (106, 2.43321312500000000000e+05) (107, 1.64948296875000000000e+05) (108, 1.10420987500000000000e+06) (109, -7.41631687500000000000e+05) (110, 5.32982687500000000000e+05) (111, -3.74903687500000000000e+05) (112, -6.50907754898071289062e-02) (113, 4.78244647383689880371e-02) (114, 5.84348179399967193604e-02) (115, 7.15435817837715148926e-02) (116, 1.30912223830819129944e-02) (117, 4.62310798466205596924e-02) (118, -6.63655549287796020508e-02) (119, -5.51732145249843597412e-02) (120, 3.12100164592266082764e-02) (121, 8.76330658793449401855e-02) (122, -8.62094834446907043457e-02) (123, -9.49467793107032775879e-02) (124, 4.43262420594692230225e-03) (125, 2.41640489548444747925e-02) (126, -8.65914374589920043945e-02) (127, 8.13702717423439025879e-02) (128, -8.74431207776069641113e-02) (129, -7.73219242691993713379e-02) (130, 9.38492119312286376953e-02) (131, 4.66418489813804626465e-02) (132, 8.38233530521392822266e-03) (133, -7.58801251649856567383e-02) (134, 5.46722263097763061523e-02) (135, 1.26546965911984443665e-02) (136, 4.49081957340240478516e-02) (137, -5.63259143382310867310e-03) (138, -3.08618154376745223999e-02) (139, -1.46271102130413055420e-02) (140, 1.33784608915448188782e-02) (141, 6.99266046285629272461e-03) (142, 3.11351194977760314941e-02) (143, 4.82876859605312347412e-02) (144, -4.51828762888908386230e-02) (145, -1.04300631210207939148e-02) (146, 1.98312643915414810181e-02) (147, 6.79083466529846191406e-02) (148, -6.41989856958389282227e-02) (149, -8.54569921875000000000e+03) (150, -9.04150703125000000000e+04) (0, 1.64468762500000000000e+06) (1, 2.52253500000000000000e+06) (2, -4.79769650000000000000e+06) (3, 1.73277300000000000000e+06) (4, -3.12139975000000000000e+06) (5, -1.65887562500000000000e+06) (6, 7.52157687500000000000e+05) (7, -8.61680625000000000000e+05) (8, 4.53847343750000000000e+05) (9, -8.55910300000000000000e+06) (10, 3.14296675000000000000e+06) (11, -9.26827100000000000000e+06) (12, 6.67646600000000000000e+06) (13, 2.24599775000000000000e+06) (14, 4.07555150000000000000e+06) (15, 3.45736562500000000000e+05) (16, 1.28556570000000000000e+07) (17, 4.37494937500000000000e+05) (18, -3.50552675000000000000e+06) (19, 1.37206500000000000000e+05) (20, 1.24670970000000000000e+07) (21, 4.82450550000000000000e+06) (22, 4.80710600000000000000e+06) (23, 3.25244025000000000000e+06) (24, -2.26061200000000000000e+06) (25, 3.38008075000000000000e+06) (26, -1.38473510000000000000e+07) (27, -2.53919937500000000000e+05) (28, 1.08948037500000000000e+06) (29, 2.24571200000000000000e+06) (30, 1.64264400000000000000e+06) (31, 7.52000450000000000000e+06) (32, -1.90992537500000000000e+06) (33, -6.22787600000000000000e+06) (34, -1.07099450000000000000e+07) (35, 7.67800550000000000000e+06) (36, 1.74886360000000000000e+07) (37, 1.23503490000000000000e+07) (38, 4.37375750000000000000e+06) (39, -1.55439837500000000000e+06) (40, -2.05263037500000000000e+06) (41, 1.18423180000000000000e+07) (42, 1.58925662500000000000e+06) (43, 5.60555150000000000000e+06) (44, -7.55746900000000000000e+06) (45, -1.37709740000000000000e+07) (46, 1.92799350000000000000e+06) (47, -2.42742260000000000000e+07) (48, 1.03690520000000000000e+07) (49, 8.91668800000000000000e+06) (50, 3.69385900000000000000e+06) (51, -2.36332275000000000000e+06) (52, 1.30128425000000000000e+06) (53, -1.03295990000000000000e+07) (54, 1.59852570000000000000e+07) (55, -7.85678300000000000000e+06) (56, 1.03831680000000000000e+07) (57, 7.99403000000000000000e+06) (58, -1.03606130000000000000e+07) (59, 1.89071360000000000000e+07) (60, -4.22353250000000000000e+06) (61, 2.09021480000000000000e+07) (62, 2.64735812500000000000e+05) (63, 8.67612900000000000000e+06) (64, -6.78035700000000000000e+06) (65, -9.97394400000000000000e+06) (66, -1.19887600000000000000e+07) (67, -6.45647200000000000000e+06) (68, 5.31749200000000000000e+06) (69, -7.57938250000000000000e+06) (70, 1.63304070000000000000e+07) (71, -1.23619100000000000000e+07) (72, -1.16013180000000000000e+07) (73, -1.04926540000000000000e+07) (74, -1.74982000000000000000e+07) (75, -5.51689437500000000000e+05) (76, 3.71431150000000000000e+06) (77, -2.89299075000000000000e+06) (78, 6.44894050000000000000e+06) (79, -5.52795000000000000000e+06) (80, 7.97332750000000000000e+05) (81, -1.24855430000000000000e+07) (82, -2.12038850000000000000e+06) (83, -6.96771400000000000000e+06) (84, -2.19408775000000000000e+06) (85, -8.06577200000000000000e+06) (86, 6.09902750000000000000e+06) (87, -1.26762490000000000000e+07) (88, 1.69815460000000000000e+07) (89, -1.16277550000000000000e+07) (90, -7.52417400000000000000e+06) (91, -1.79517650000000000000e+06) (92, -8.63523000000000000000e+06) (93, -3.78605150000000000000e+06) (94, -1.00461112500000000000e+06) (95, 3.22964600000000000000e+06) (96, 1.02800212500000000000e+06) (97, 4.35160800000000000000e+06) (98, -2.15376425000000000000e+06) (99, 7.72880350000000000000e+06) (100, 4.11267850000000000000e+06) (101, 2.39678350000000000000e+06) (102, 4.23180400000000000000e+06) (103, 3.98825175000000000000e+06) (104, 3.73590775000000000000e+06) (105, -1.49853675000000000000e+06) (106, 3.78631925000000000000e+06) (107, -1.89453725000000000000e+06) (108, 1.11005262500000000000e+06) (109, -7.65348625000000000000e+05) (110, 8.58126750000000000000e+05) (111, -6.03612312500000000000e+05) (112, -9.16385129094123840332e-02) (113, -7.48795196413993835449e-02) (114, -7.50053077936172485352e-02) (115, -8.05884748697280883789e-02) (116, -9.77358128875494003296e-03) (117, 7.36911147832870483398e-02) (118, 7.05808550119400024414e-02) (119, 3.27692972496151924133e-03) (120, 2.42906138300895690918e-02) (121, 9.35273841023445129395e-02) (122, 5.81631921231746673584e-02) (123, 1.75725631415843963623e-02) (124, 8.69200453162193298340e-02) (125, -1.01248528808355331421e-02) (126, -7.91580229997634887695e-02) (127, -7.85079523921012878418e-02) (128, 7.89341554045677185059e-02) (129, -4.79064211249351501465e-02) (130, 5.34494034945964813232e-02) (131, 3.27632203698158264160e-02) (132, 9.25686433911323547363e-02) (133, -5.28509803116321563721e-02) (134, -2.04637497663497924805e-02) (135, 3.33968698978424072266e-02) (136, -1.65189653635025024414e-02) (137, 9.22978892922401428223e-02) (138, -6.97313845157623291016e-02) (139, -2.74764876812696456909e-02) (140, -6.61282613873481750488e-02) (141, 9.78022739291191101074e-02) (142, 2.26806271821260452271e-02) (143, -5.77667728066444396973e-02) (144, -7.70772472023963928223e-02) (145, 4.76753227412700653076e-02) (146, -3.83552424609661102295e-02) (147, 1.31491720676422119141e-02) (148, 2.13664360344409942627e-02) (149, 1.43700781250000000000e+04) (150, 7.95944384765625000000e+03) (0, -3.18718850000000000000e+06) (1, 2.88181100000000000000e+06) (2, -6.27862950000000000000e+06) (3, -1.85239025000000000000e+06) (4, 2.41459525000000000000e+06) (5, 2.63861525000000000000e+06) (6, -2.15972075000000000000e+06) (7, -1.11912850000000000000e+07) (8, -1.01792340000000000000e+07) (9, 2.12662350000000000000e+06) (10, 3.21823425000000000000e+06) (11, 4.49596850000000000000e+06) (12, 7.11732250000000000000e+05) (13, 5.38207550000000000000e+06) (14, 1.46167220000000000000e+07) (15, 3.57010075000000000000e+06) (16, 7.27974750000000000000e+06) (17, -1.10138900000000000000e+07) (18, -8.33946800000000000000e+06) (19, -1.12607575000000000000e+06) (20, -2.43251950000000000000e+06) (21, 7.91631450000000000000e+06) (22, -4.81964600000000000000e+06) (23, 1.84659087500000000000e+06) (24, -6.40531950000000000000e+06) (25, -3.35812650000000000000e+06) (26, 4.07377000000000000000e+05) (27, 8.00587375000000000000e+05) (28, -2.21903075000000000000e+06) (29, 1.84429412500000000000e+06) (30, -1.72608450000000000000e+06) (31, 7.53576450000000000000e+06) (32, 1.09452625000000000000e+06) (33, 5.21334250000000000000e+06) (34, -3.08725950000000000000e+06) (35, 1.06037360000000000000e+07) (36, -8.25884250000000000000e+05) (37, -3.18761200000000000000e+06) (38, -1.31472800000000000000e+07) (39, -3.49337175000000000000e+06) (40, 3.11557650000000000000e+06) (41, -6.05290039062500000000e+03) (42, -2.08924387500000000000e+06) (43, 5.16126000000000000000e+06) (44, 1.74050046875000000000e+05) (45, 7.47765200000000000000e+06) (46, 2.12307350000000000000e+06) (47, 5.87123500000000000000e+05) (48, -1.18197130000000000000e+07) (49, 8.76008300000000000000e+06) (50, -4.88654800000000000000e+06) (51, 1.40693800000000000000e+07) (52, -7.90931000000000000000e+06) (53, 7.29694400000000000000e+06) (54, -8.07952000000000000000e+06) (55, -2.42621050000000000000e+06) (56, -7.01478200000000000000e+06) (57, 7.22701350000000000000e+06) (58, -2.64234500000000000000e+06) (59, 1.98540980000000000000e+07) (60, 1.04503250000000000000e+07) (61, -2.97202350000000000000e+06) (62, 1.34367380000000000000e+07) (63, -1.82711520000000000000e+07) (64, 2.48779340000000000000e+07) (65, -1.14707350000000000000e+07) (66, 6.50942650000000000000e+06) (67, -8.41288400000000000000e+06) (68, -9.75771100000000000000e+06) (69, -1.14377600000000000000e+07) (70, 1.24045765625000000000e+05) (71, -1.46924000000000000000e+07) (72, -7.41715950000000000000e+06) (73, -1.33439660000000000000e+07) (74, -2.14187000000000000000e+05) (75, -9.42614800000000000000e+06) (76, -6.73361400000000000000e+06) (77, -2.02950880000000000000e+07) (78, -1.04018789062500000000e+05) (79, -1.82448520000000000000e+07) (80, 1.73273362500000000000e+06) (81, -2.32547900000000000000e+07) (82, -2.78944825000000000000e+06) (83, -1.91232820000000000000e+07) (84, -4.36567100000000000000e+06) (85, -1.45439390000000000000e+07) (86, -1.86806562500000000000e+06) (87, -1.41777570000000000000e+07) (88, -3.69657800000000000000e+06) (89, -1.46606690000000000000e+07) (90, -1.37538100000000000000e+07) (91, -1.16000780000000000000e+07) (92, -1.44983090000000000000e+07) (93, -6.90213250000000000000e+06) (94, -1.30973270000000000000e+07) (95, -1.39051625000000000000e+06) (96, -6.38531450000000000000e+06) (97, 2.51484175000000000000e+06) (98, -5.52357750000000000000e+06) (99, 2.88631100000000000000e+06) (100, 5.22766312500000000000e+05) (101, -1.45269687500000000000e+05) (102, 5.38190062500000000000e+05) (103, 3.08895968750000000000e+05) (104, 3.11672187500000000000e+05) (105, -6.78044687500000000000e+05) (106, 2.65761468750000000000e+05) (107, -5.59941289062500000000e+04) (108, -1.92656890625000000000e+05) (109, 1.12368656250000000000e+05) (110, 1.84295718750000000000e+05) (111, -1.29634953125000000000e+05) (112, -5.79260304220952093601e-05) (113, -2.10370924323797225952e-02) (114, 1.19470665231347084045e-02) (115, 8.49763900041580200195e-02) (116, 3.15187163650989532471e-02) (117, 1.85368973761796951294e-02) (118, -3.34635898470878601074e-02) (119, -1.92034449428319931030e-02) (120, -5.03962263464927673340e-02) (121, 2.71125864237546920776e-02) (122, 4.47677150368690490723e-02) (123, -5.21527081727981567383e-02) (124, 9.48524102568626403809e-02) (125, 6.71564713120460510254e-02) (126, -6.94436654448509216309e-02) (127, -3.88670191168785095215e-02) (128, -9.56398546695709228516e-02) (129, 7.94842243194580078125e-02) (130, 1.40300753992050886154e-03) (131, 4.69411574304103851318e-02) (132, 1.97828840464353561401e-02) (133, 2.72763594985008239746e-02) (134, -2.69236117601394653320e-02) (135, -4.72339689731597900391e-02) (136, 7.91007205843925476074e-02) (137, -4.29374119266867637634e-03) (138, -6.45545423030853271484e-02) (139, -4.06455360352993011475e-02) (140, -5.39842806756496429443e-02) (141, 7.28289112448692321777e-02) (142, 6.29152581095695495605e-02) (143, 4.59577962756156921387e-02) (144, -4.82081808149814605713e-02) (145, -2.51376796513795852661e-02) (146, 3.09341829270124435425e-02) (147, 8.33105370402336120605e-02) (148, 9.33992192149162292480e-02) (149, -6.43186279296875000000e+03) (150, 5.80930898437500000000e+04) (0, -1.05643300000000000000e+07) (1, -1.84718150000000000000e+06) (2, -1.05890370000000000000e+07) (3, -2.46476500000000000000e+06) (4, 8.14349100000000000000e+06) (5, -7.19081550000000000000e+06) (6, -1.63636937500000000000e+06) (7, 7.45645400000000000000e+06) (8, 4.37864400000000000000e+06) (9, -4.69887343750000000000e+05) (10, 8.56046700000000000000e+06) (11, 5.62850550000000000000e+06) (12, 1.63083280000000000000e+07) (13, -1.21735150000000000000e+06) (14, 4.11524475000000000000e+06) (15, 1.36715200000000000000e+06) (16, 3.62693575000000000000e+06) (17, 4.98360187500000000000e+05) (18, 6.92789450000000000000e+06) (19, 2.47721400000000000000e+06) (20, 7.94339500000000000000e+06) (21, 1.55110220000000000000e+07) (22, -6.64480600000000000000e+06) (23, 3.66454925000000000000e+06) (24, -1.34623750000000000000e+07) (25, 7.46802300000000000000e+06) (26, 6.68967900000000000000e+06) (27, -8.11904312500000000000e+05) (28, 4.13650075000000000000e+06) (29, 1.46158230000000000000e+07) (30, 1.39887170000000000000e+07) (31, -2.73971925000000000000e+06) (32, -1.18568070000000000000e+07) (33, -2.63347175000000000000e+06) (34, -1.06280020000000000000e+07) (35, -1.96726712500000000000e+06) (36, -1.81628200000000000000e+07) (37, 5.65641050000000000000e+06) (38, -1.54190680000000000000e+07) (39, 1.41275820000000000000e+07) (40, -3.17790275000000000000e+06) (41, 8.64738500000000000000e+06) (42, 1.82918500000000000000e+06) (43, 8.02270500000000000000e+05) (44, 5.29169550000000000000e+06) (45, 1.11588880000000000000e+07) (46, 3.61397300000000000000e+06) (47, 9.21667500000000000000e+06) (48, 2.32921660000000000000e+07) (49, -1.58163187500000000000e+06) (50, 6.59242800000000000000e+06) (51, -1.30660990000000000000e+07) (52, 6.78130550000000000000e+06) (53, 5.47613375000000000000e+05) (54, 9.34160900000000000000e+06) (55, -1.13179380000000000000e+07) (56, 5.73079562500000000000e+05) (57, 6.73941700000000000000e+06) (58, 8.19236650000000000000e+06) (59, 8.21744000000000000000e+06) (60, -3.41370675000000000000e+06) (61, -7.17962250000000000000e+06) (62, -3.28828400000000000000e+06) (63, -1.29982062500000000000e+06) (64, 1.75083137500000000000e+06) (65, -4.63039650000000000000e+06) (66, 6.33548250000000000000e+06) (67, -2.83529150000000000000e+06) (68, 1.35307010000000000000e+07) (69, -3.18670750000000000000e+06) (70, 1.12224170000000000000e+07) (71, -9.81181200000000000000e+06) (72, -7.17420000000000000000e+06) (73, -3.68068800000000000000e+06) (74, -9.84747000000000000000e+06) (75, -3.07100300000000000000e+06) (76, 2.27081325000000000000e+06) (77, 2.94581425000000000000e+06) (78, -1.30820930000000000000e+07) (79, 7.13883828125000000000e+04) (80, -6.54511400000000000000e+06) (81, 5.68400050000000000000e+06) (82, -4.34608350000000000000e+06) (83, -1.80121675000000000000e+06) (84, -7.65582600000000000000e+06) (85, 3.19701750000000000000e+06) (86, 6.21868750000000000000e+06) (87, 4.04662975000000000000e+06) (88, 7.47672500000000000000e+06) (89, -5.58823400000000000000e+06) (90, -4.91347400000000000000e+06) (91, -1.09363137500000000000e+06) (92, -6.09196600000000000000e+06) (93, -2.53364100000000000000e+06) (94, -6.82460450000000000000e+06) (95, -1.52458900000000000000e+06) (96, -7.53992550000000000000e+06) (97, -3.77940725000000000000e+06) (98, -3.23276075000000000000e+06) (99, -5.32889700000000000000e+06) (100, -4.76402950000000000000e+06) (101, -2.12240325000000000000e+06) (102, -4.89812400000000000000e+06) (103, -4.14010650000000000000e+06) (104, -3.37112225000000000000e+06) (105, -1.32555962500000000000e+06) (106, -3.52985625000000000000e+06) (107, 6.40335125000000000000e+05) (108, -3.86600700000000000000e+06) (109, 2.64574925000000000000e+06) (110, -2.66700725000000000000e+06) (111, 1.87599125000000000000e+06) (112, -5.64517937600612640381e-02) (113, -5.58901391923427581787e-02) (114, -9.35199931263923645020e-02) (115, -5.46433553099632263184e-02) (116, 2.70491093397140502930e-02) (117, -5.05314283072948455811e-02) (118, 1.16163212805986404419e-02) (119, -7.06911310553550720215e-02) (120, -3.74769344925880432129e-02) (121, 2.12071444839239120483e-02) (122, 6.73826709389686584473e-02) (123, -7.34329298138618469238e-02) (124, 9.60120260715484619141e-02) (125, -1.76527854055166244507e-02) (126, 3.13989669084548950195e-02) (127, 4.87641580402851104736e-02) (128, -6.52851983904838562012e-02) (129, 4.28484156727790832520e-02) (130, 1.36033492162823677063e-02) (131, -3.44337038695812225342e-02) (132, -9.28634926676750183105e-02) (133, 2.55602616816759109497e-02) (134, -2.04586866311728954315e-03) (135, 9.78169143199920654297e-02) (136, -5.96607215702533721924e-02) (137, -3.58213186264038085938e-02) (138, 8.88522714376449584961e-02) (139, 8.70845541357994079590e-02) (140, -1.51110170409083366394e-02) (141, 5.03204688429832458496e-02) (142, -9.61745530366897583008e-02) (143, 2.84371897578239440918e-02) (144, 9.44303348660469055176e-02) (145, -8.96945446729660034180e-02) (146, 7.37938359379768371582e-02) (147, 2.14794408529996871948e-02) (148, -4.02259677648544311523e-02) (149, 1.09580273437500000000e+04) (150, -1.17719273437500000000e+05) (0, 1.32757420000000000000e+07) (1, -3.18752460000000000000e+07) (2, 2.07130100000000000000e+07) (3, -8.64488300000000000000e+06) (4, 1.02135990000000000000e+07) (5, -1.08561660000000000000e+07) (6, 6.21359450000000000000e+06) (7, 4.32700550000000000000e+06) (8, 3.05486325000000000000e+06) (9, -3.66266475000000000000e+06) (10, 1.47544725000000000000e+06) (11, 3.34448425000000000000e+06) (12, -3.88277468750000000000e+05) (13, -3.00597437500000000000e+05) (14, -5.03867150000000000000e+06) (15, 5.67099550000000000000e+06) (16, 1.47129412500000000000e+06) (17, 1.18367810000000000000e+07) (18, 1.40698530000000000000e+07) (19, 6.94791050000000000000e+06) (20, 2.13067375000000000000e+06) (21, 1.50015325000000000000e+06) (22, -1.03711830000000000000e+07) (23, -1.50603980000000000000e+07) (24, -1.80757720000000000000e+07) (25, 1.10880600000000000000e+07) (26, -7.26243600000000000000e+06) (27, 1.01212020000000000000e+07) (28, 1.82274680000000000000e+07) (29, -8.80401062500000000000e+05) (30, 6.55416900000000000000e+06) (31, -7.94894800000000000000e+06) (32, -1.89417920000000000000e+07) (33, -7.34733050000000000000e+06) (34, -1.64971200000000000000e+07) (35, -4.00291950000000000000e+06) (36, -8.99781500000000000000e+06) (37, 9.79803500000000000000e+06) (38, 1.48045440000000000000e+07) (39, -4.50568900000000000000e+06) (40, 1.50029310000000000000e+07) (41, 6.25269950000000000000e+06) (42, 2.26668800000000000000e+06) (43, -1.17618000000000000000e+06) (44, -4.51480000000000000000e+06) (45, -3.61880350000000000000e+06) (46, 4.81230300000000000000e+06) (47, 3.39867925000000000000e+06) (48, 2.18594296875000000000e+05) (49, 8.05302150000000000000e+06) (50, -1.42653700000000000000e+07) (51, -1.14077930000000000000e+07) (52, -9.05104700000000000000e+06) (53, 5.51528200000000000000e+06) (54, -1.62259171875000000000e+05) (55, -7.15286150000000000000e+06) (56, 3.21723550000000000000e+06) (57, -5.92518600000000000000e+06) (58, -3.72552775000000000000e+06) (59, -7.56823600000000000000e+06) (60, -1.72865580000000000000e+07) (61, 1.08735850000000000000e+07) (62, -7.39327000000000000000e+06) (63, 1.55628670000000000000e+07) (64, 1.16284060000000000000e+07) (65, 1.24268900000000000000e+07) (66, 8.41046900000000000000e+06) (67, 1.69347680000000000000e+07) (68, 1.17070825000000000000e+06) (69, 5.95943800000000000000e+06) (70, 2.10957550000000000000e+06) (71, 9.36724687500000000000e+05) (72, -2.88912750000000000000e+06) (73, 3.20382825000000000000e+06) (74, -1.01676830000000000000e+07) (75, 7.21641650000000000000e+06) (76, 1.89963337500000000000e+06) (77, 3.26759050000000000000e+06) (78, -9.57416900000000000000e+06) (79, 1.13593400000000000000e+07) (80, -3.61026325000000000000e+06) (81, 1.65295240000000000000e+07) (82, -1.53415109375000000000e+05) (83, 9.78294700000000000000e+06) (84, 8.27961975097656250000e+02) (85, 5.26175900000000000000e+06) (86, -7.32685312500000000000e+05) (87, 6.36554500000000000000e+06) (88, 6.30698300000000000000e+06) (89, 1.24804987500000000000e+06) (90, 9.88621000000000000000e+06) (91, -2.59436000000000000000e+05) (92, 8.21146000000000000000e+06) (93, 4.44170950000000000000e+06) (94, 9.67191800000000000000e+06) (95, 1.89320237500000000000e+06) (96, 1.75338537500000000000e+06) (97, -4.78391600000000000000e+06) (98, 1.17360862500000000000e+06) (99, -7.27005050000000000000e+06) (100, -4.50031718750000000000e+05) (101, -3.90578175000000000000e+06) (102, -5.23243187500000000000e+05) (103, -2.28301400000000000000e+06) (104, -1.99645100000000000000e+06) (105, 1.87236609375000000000e+05) (106, -2.04092600000000000000e+06) (107, 6.65810187500000000000e+05) (108, -1.34593650000000000000e+06) (109, 9.28615187500000000000e+05) (110, -1.05076212500000000000e+06) (111, 7.39113312500000000000e+05) (112, 9.15209278464317321777e-02) (113, 6.61353096365928649902e-02) (114, -6.76576122641563415527e-02) (115, -4.74698953330516815186e-02) (116, -5.46372793614864349365e-02) (117, -9.18533876538276672363e-02) (118, 6.79911077022552490234e-02) (119, 4.90643866360187530518e-02) (120, 3.76561358571052551270e-02) (121, -7.02102109789848327637e-02) (122, -8.72974246740341186523e-02) (123, -4.51932661235332489014e-02) (124, -4.78908680379390716553e-02) (125, 7.83568546175956726074e-02) (126, 1.17051750421524047852e-02) (127, 9.79962572455406188965e-02) (128, 9.07361358404159545898e-02) (129, -3.90235893428325653076e-02) (130, 1.07614370062947273254e-02) (131, 4.59427870810031890869e-02) (132, -9.52161289751529693604e-03) (133, -4.31735217571258544922e-02) (134, -9.49239730834960937500e-02) (135, -1.11316516995429992676e-02) (136, 3.28612551093101501465e-02) (137, 1.97921786457300186157e-02) (138, 4.35569584369659423828e-02) (139, -3.63994054496288299561e-02) (140, -2.73560900241136550903e-02) (141, -9.51130166649818420410e-02) (142, 9.06965732574462890625e-02) (143, -3.58351655304431915283e-02) (144, 7.10222944617271423340e-02) (145, -7.69610479474067687988e-02) (146, 1.66949406266212463379e-02) (147, -8.36149901151657104492e-02) (148, -6.88144266605377197266e-02) (149, 5.51376796875000000000e+04) (150, -4.37642382812500000000e+04) (0, 1.84824900000000000000e+07) (1, -8.70405600000000000000e+06) (2, 3.89885125000000000000e+06) (3, 7.77159100000000000000e+06) (4, 7.39133650000000000000e+06) (5, 1.10540990000000000000e+07) (6, 6.09507250000000000000e+05) (7, 1.18641400000000000000e+06) (8, -1.43173420000000000000e+07) (9, -7.64125200000000000000e+06) (10, -1.10749090000000000000e+07) (11, 1.32445281250000000000e+05) (12, -1.29671080000000000000e+07) (13, 1.36295830000000000000e+07) (14, -7.68170200000000000000e+06) (15, -2.55666925000000000000e+06) (16, 1.88326046875000000000e+05) (17, -1.17509230000000000000e+07) (18, 6.50230550000000000000e+06) (19, 1.59147500000000000000e+05) (20, -3.27207825000000000000e+06) (21, -8.56228500000000000000e+06) (22, -8.72218500000000000000e+06) (23, -8.52800250000000000000e+05) (24, 2.81571500000000000000e+05) (25, -1.05468050000000000000e+07) (26, 1.16022610000000000000e+07) (27, -4.75915800000000000000e+06) (28, -1.31240640000000000000e+07) (29, 9.95421500000000000000e+06) (30, 8.39788700000000000000e+06) (31, 1.12280870000000000000e+07) (32, 1.15749810000000000000e+07) (33, -6.82444200000000000000e+06) (34, 1.52784090000000000000e+07) (35, 3.27182675000000000000e+06) (36, -1.09916420000000000000e+07) (37, -2.68246425000000000000e+06) (38, -7.28120900000000000000e+06) (39, 3.92273450000000000000e+06) (40, -9.34811937500000000000e+05) (41, -8.23486200000000000000e+06) (42, 5.50630050000000000000e+06) (43, 2.17559200000000000000e+06) (44, -1.13190540000000000000e+07) (45, 5.67117900000000000000e+06) (46, 1.61347170000000000000e+07) (47, -3.31992550000000000000e+06) (48, 1.75983112500000000000e+06) (49, 1.32909650000000000000e+07) (50, -4.35085750000000000000e+06) (51, 1.59423870000000000000e+07) (52, -6.39752300000000000000e+06) (53, 5.16868450000000000000e+06) (54, 2.12208500000000000000e+07) (55, -2.41889800000000000000e+06) (56, 5.66245400000000000000e+06) (57, 1.70965460000000000000e+07) (58, -1.70085220000000000000e+07) (59, 2.76812140000000000000e+07) (60, -1.38163440000000000000e+07) (61, 1.60423790000000000000e+07) (62, -4.74508850000000000000e+06) (63, -9.33572300000000000000e+06) (64, -4.91543125000000000000e+04) (65, -5.80790800000000000000e+06) (66, -8.78758700000000000000e+06) (67, 5.24000700000000000000e+06) (68, -7.94664500000000000000e+06) (69, 5.47487100000000000000e+06) (70, 7.09839950000000000000e+06) (71, 7.59998750000000000000e+04) (72, 1.19560637500000000000e+06) (73, 4.71538300000000000000e+06) (74, 9.06190312500000000000e+05) (75, 1.39480350000000000000e+07) (76, 6.94170450000000000000e+06) (77, -2.94932475000000000000e+06) (78, 3.74465775000000000000e+06) (79, -7.08147300000000000000e+06) (80, 3.57128525000000000000e+06) (81, -1.02592550000000000000e+07) (82, 2.27232950000000000000e+06) (83, -1.29005570000000000000e+07) (84, 1.95349450000000000000e+06) (85, -1.18395560000000000000e+07) (86, 5.04479600000000000000e+06) (87, -1.17301320000000000000e+07) (88, 8.99542900000000000000e+06) (89, -1.03514060000000000000e+07) (90, -3.87938800000000000000e+06) (91, -5.05248300000000000000e+06) (92, -4.84284100000000000000e+06) (93, 6.00372375000000000000e+05) (94, -9.06502000000000000000e+06) (95, -1.86309300000000000000e+06) (96, -3.03206650000000000000e+06) (97, 2.13521575000000000000e+06) (98, -2.04883387500000000000e+06) (99, 2.03846862500000000000e+06) (100, 6.64251937500000000000e+05) (101, 1.36917375000000000000e+06) (102, 7.25274562500000000000e+05) (103, 1.15357275000000000000e+06) (104, 7.89399937500000000000e+05) (105, -1.24092531250000000000e+05) (106, 7.25564750000000000000e+05) (107, 6.74749250000000000000e+05) (108, 1.38743237500000000000e+06) (109, -1.00582468750000000000e+06) (110, 1.87427112500000000000e+06) (111, -1.31837512500000000000e+06) (112, 9.36757028102874755859e-02) (113, -1.44128454849123954773e-02) (114, -7.26196765899658203125e-02) (115, -6.81386739015579223633e-02) (116, -5.77060654759407043457e-02) (117, -2.90787982521578669548e-04) (118, 3.48019637167453765869e-02) (119, -1.54843898490071296692e-02) (120, 8.22745785117149353027e-02) (121, -2.39503011107444763184e-02) (122, 6.84978738427162170410e-02) (123, 5.20538277924060821533e-02) (124, 9.79983359575271606445e-02) (125, 6.49622529745101928711e-02) (126, -3.58236469328403472900e-02) (127, -3.33099067211151123047e-02) (128, 1.12152555957436561584e-02) (129, 3.02803721278905868530e-02) (130, 8.35208445787429809570e-02) (131, -9.08554047346115112305e-02) (132, 9.24906879663467407227e-03) (133, -5.37835583090782165527e-02) (134, 3.59806828200817108154e-02) (135, -4.68466244637966156006e-02) (136, -6.06888085603713989258e-02) (137, 1.12303742207586765289e-03) (138, 1.23280053958296775818e-02) (139, 2.30161324143409729004e-02) (140, 7.90016055107116699219e-02) (141, -4.48363721370697021484e-02) (142, 7.67760276794433593750e-02) (143, 7.26772993803024291992e-02) (144, 4.07507829368114471436e-02) (145, -9.58436504006385803223e-02) (146, -9.54613760113716125488e-02) (147, 8.30447152256965637207e-02) (148, 3.86556424200534820557e-03) (149, -1.15526621093750000000e+04) (150, 6.05181884765625000000e+03) (0, -3.11615000000000000000e+06) (1, 1.04459710000000000000e+07) (2, 7.17510150000000000000e+06) (3, 4.99521050000000000000e+06) (4, 6.40638400000000000000e+06) (5, -3.52294656250000000000e+05) (6, 5.13084300000000000000e+06) (7, -1.59782430000000000000e+07) (8, 1.05859200000000000000e+06) (9, -4.34559750000000000000e+06) (10, -1.33280531250000000000e+05) (11, -7.16194437500000000000e+05) (12, -7.44246850000000000000e+06) (13, 6.08018250000000000000e+06) (14, 2.19745875000000000000e+06) (15, 2.61953050000000000000e+06) (16, 8.79816600000000000000e+06) (17, -7.55431000000000000000e+06) (18, -1.43381420000000000000e+07) (19, 1.92684171875000000000e+05) (20, -4.19192300000000000000e+06) (21, -5.67623900000000000000e+06) (22, 5.74802875000000000000e+05) (23, 5.22952900000000000000e+06) (24, 7.77418200000000000000e+06) (25, -8.64855300000000000000e+06) (26, 9.10477000000000000000e+06) (27, -3.83059675000000000000e+06) (28, -3.57017350000000000000e+06) (29, 9.37605000000000000000e+06) (30, -5.11106350000000000000e+06) (31, 7.93163650000000000000e+06) (32, 1.02315862500000000000e+06) (33, 4.14120156250000000000e+05) (34, -1.05866250000000000000e+07) (35, 1.68294020000000000000e+07) (36, -3.27352200000000000000e+06) (37, -2.00322250000000000000e+06) (38, -7.09487950000000000000e+06) (39, 2.38095150000000000000e+06) (40, 5.21346650000000000000e+06) (41, -7.78322450000000000000e+06) (42, 3.26510075000000000000e+06) (43, -5.97588300000000000000e+06) (44, 1.05747610000000000000e+07) (45, 1.38934100000000000000e+07) (46, 8.84720800000000000000e+06) (47, -3.53020650000000000000e+06) (48, -1.20109600000000000000e+07) (49, 9.22769600000000000000e+06) (50, 4.26282968750000000000e+05) (51, -1.71003675000000000000e+06) (52, 4.70483800000000000000e+06) (53, 4.31720150000000000000e+06) (54, 2.57043750000000000000e+06) (55, 6.64476200000000000000e+06) (56, 3.98349500000000000000e+05) (57, 1.51619080000000000000e+07) (58, -1.33481960000000000000e+07) (59, 2.77154980000000000000e+07) (60, 4.33312500000000000000e+05) (61, 9.66537700000000000000e+06) (62, 3.66468700000000000000e+06) (63, 1.25399787500000000000e+06) (64, 5.41274500000000000000e+06) (65, -1.10658830000000000000e+07) (66, -4.37314200000000000000e+06) (67, -1.07064730000000000000e+07) (68, -6.48722700000000000000e+06) (69, -1.18644390000000000000e+07) (70, 2.51896300000000000000e+06) (71, -9.25765400000000000000e+06) (72, -3.80404000000000000000e+06) (73, -4.34322650000000000000e+06) (74, 3.40754075000000000000e+06) (75, -1.99308650000000000000e+06) (76, -1.45070800000000000000e+06) (77, -5.90605650000000000000e+06) (78, 3.87391400000000000000e+06) (79, -7.81430250000000000000e+06) (80, 5.26048800000000000000e+06) (81, -1.08221010000000000000e+07) (82, 4.39134200000000000000e+06) (83, -9.82587300000000000000e+06) (84, 3.64525850000000000000e+06) (85, -7.67020350000000000000e+06) (86, 2.83826400000000000000e+06) (87, -5.56285950000000000000e+06) (88, -3.83177200000000000000e+06) (89, -9.32447300000000000000e+06) (90, -7.32241550000000000000e+06) (91, -8.74134100000000000000e+06) (92, -7.00710700000000000000e+06) (93, -3.32430450000000000000e+06) (94, -7.91479500000000000000e+06) (95, -2.25102675000000000000e+06) (96, -3.01363400000000000000e+06) (97, -2.03232390625000000000e+05) (98, -4.11590850000000000000e+06) (99, 8.63195562500000000000e+05) (100, 3.67986750000000000000e+06) (101, 3.60560250000000000000e+05) (102, 3.76601675000000000000e+06) (103, 2.66607100000000000000e+06) (104, 2.47023675000000000000e+06) (105, -1.23704600000000000000e+06) (106, 2.46923025000000000000e+06) (107, -1.06194375000000000000e+06) (108, 7.44845875000000000000e+05) (109, -5.30032437500000000000e+05) (110, 8.44230250000000000000e+05) (111, -5.93837250000000000000e+05) (112, 6.21891021728515625000e-02) (113, -9.62345376610755920410e-02) (114, 2.65188328921794891357e-02) (115, 4.65232804417610168457e-02) (116, -3.23632545769214630127e-02) (117, 8.90618339180946350098e-02) (118, 9.04383957386016845703e-02) (119, 3.42984572052955627441e-02) (120, -3.55841293931007385254e-02) (121, -4.91242967545986175537e-02) (122, -4.22072596848011016846e-02) (123, 6.48154458031058311462e-03) (124, 7.09166377782821655273e-02) (125, 7.55205331370234489441e-03) (126, 5.21764857694506645203e-03) (127, -6.81634321808815002441e-02) (128, 6.63974508643150329590e-02) (129, -4.83965650200843811035e-02) (130, -8.27187895774841308594e-02) (131, 9.72287282347679138184e-02) (132, -5.11461272835731506348e-02) (133, 4.35469634830951690674e-02) (134, -7.34547823667526245117e-02) (135, 2.15642321854829788208e-02) (136, 6.88299834728240966797e-02) (137, 9.06622633337974548340e-02) (138, 5.16907833516597747803e-02) (139, -5.36204352974891662598e-02) (140, 7.50224068760871887207e-02) (141, 7.96738266944885253906e-02) (142, -6.31738305091857910156e-02) (143, 3.72115038335323333740e-02) (144, 8.34392905235290527344e-02) (145, 6.33450001478195190430e-02) (146, -1.62652153521776199341e-02) (147, -4.89239692687988281250e-02) (148, 5.24068325757980346680e-02) (149, -7.40599121093750000000e+03) (150, 9.33349316406250000000e+03) (0, 1.05551840000000000000e+07) (1, 1.66774662500000000000e+06) (2, 7.87745500000000000000e+06) (3, -5.19027500000000000000e+06) (4, 6.71193050000000000000e+06) (5, 1.74788000000000000000e+06) (6, 7.40773150000000000000e+06) (7, 2.08849212500000000000e+06) (8, 8.70639500000000000000e+06) (9, 3.04617468750000000000e+05) (10, -4.78145250000000000000e+05) (11, -2.45076500000000000000e+06) (12, 2.33675175000000000000e+06) (13, -1.05426240000000000000e+07) (14, -3.42688100000000000000e+06) (15, -5.24298850000000000000e+06) (16, -6.19845550000000000000e+06) (17, -7.24817187500000000000e+05) (18, -3.49183554687500000000e+04) (19, -3.12842500000000000000e+06) (20, -1.01862890000000000000e+07) (21, -6.97507150000000000000e+06) (22, 3.72803775000000000000e+06) (23, -7.01902700000000000000e+06) (24, 1.53261087500000000000e+06) (25, 8.50468400000000000000e+06) (26, 9.04630100000000000000e+06) (27, -3.94037550000000000000e+06) (28, 6.00718800000000000000e+06) (29, -1.13557120000000000000e+07) (30, 2.15675275000000000000e+06) (31, -1.29596970000000000000e+07) (32, -1.64806156250000000000e+05) (33, 1.14873050000000000000e+06) (34, 9.57182400000000000000e+06) (35, -1.01282750000000000000e+07) (36, 9.59552800000000000000e+06) (37, -4.70127400000000000000e+06) (38, 1.18483820000000000000e+07) (39, 1.17138025000000000000e+06) (40, 6.01538250000000000000e+06) (41, 1.54151203125000000000e+05) (42, 5.95803900000000000000e+06) (43, 3.47338625000000000000e+06) (44, 1.24835590000000000000e+07) (45, -1.52869550000000000000e+06) (46, -1.00371243750000000000e+06) (47, 3.23218500000000000000e+06) (48, -1.05141620000000000000e+07) (49, -9.66250000000000000000e+06) (50, 1.83227050000000000000e+06) (51, 3.49943325000000000000e+06) (52, 3.70377300000000000000e+06) (53, -3.99559900000000000000e+06) (54, 1.27566862500000000000e+06) (55, 7.77191500000000000000e+06) (56, 1.00777080000000000000e+07) (57, -6.41588600000000000000e+06) (58, 1.58098450000000000000e+07) (59, -1.41307660000000000000e+07) (60, 3.35816250000000000000e+06) (61, -4.11455075000000000000e+06) (62, -2.97888025000000000000e+06) (63, 1.36922270000000000000e+07) (64, -2.46060625000000000000e+06) (65, 9.49783800000000000000e+06) (66, 1.61188725000000000000e+06) (67, 1.71008300000000000000e+06) (68, 9.32089700000000000000e+06) (69, 3.75347550000000000000e+06) (70, 1.56499275000000000000e+06) (71, 1.14300690000000000000e+07) (72, 1.37734540000000000000e+07) (73, 1.46039500000000000000e+07) (74, 1.03273890000000000000e+07) (75, 1.03832390000000000000e+07) (76, 1.47247050000000000000e+06) (77, 2.08059560000000000000e+07) (78, 1.30771975000000000000e+06) (79, 1.30374380000000000000e+07) (80, -1.33119375000000000000e+06) (81, 1.64701770000000000000e+07) (82, 1.34215962500000000000e+06) (83, 1.49518790000000000000e+07) (84, 2.17594075000000000000e+06) (85, 1.26516110000000000000e+07) (86, -3.06024375000000000000e+05) (87, 1.00584460000000000000e+07) (88, 1.97021375000000000000e+06) (89, 1.29701850000000000000e+07) (90, 9.09433200000000000000e+06) (91, 1.03406600000000000000e+07) (92, 8.28028450000000000000e+06) (93, 4.66998550000000000000e+06) (94, 5.83053500000000000000e+06) (95, -9.44163687500000000000e+05) (96, 3.11388700000000000000e+06) (97, -1.17742150000000000000e+06) (98, 3.75663350000000000000e+06) (99, -3.88849218750000000000e+05) (100, -4.78852300000000000000e+06) (101, 2.98132281250000000000e+05) (102, -4.87427050000000000000e+06) (103, -3.00487850000000000000e+06) (104, -2.73246450000000000000e+06) (105, 2.88899156250000000000e+05) (106, -2.82635250000000000000e+06) (107, 1.33981662500000000000e+06) (108, -1.41304700000000000000e+06) (109, 9.54274937500000000000e+05) (110, -7.66993812500000000000e+05) (111, 5.39508875000000000000e+05) (112, 7.55837513133883476257e-03) (113, -3.49810929037630558014e-03) (114, 1.38133605942130088806e-02) (115, 3.99118475615978240967e-02) (116, -4.67302128672599792480e-02) (117, -3.06271612644195556641e-02) (118, 6.24672062695026397705e-02) (119, 8.75117033720016479492e-02) (120, -2.44400780647993087769e-02) (121, -6.83577358722686767578e-02) (122, 9.22435428947210311890e-04) (123, 3.41724678874015808105e-02) (124, -7.93224722146987915039e-02) (125, 2.02456898987293243408e-02) (126, -9.82444919645786285400e-03) (127, 2.61177662760019302368e-02) (128, -3.18093262612819671631e-02) (129, 3.92535403370857238770e-02) (130, 7.30296373367309570312e-02) (131, -4.73130960017442703247e-03) (132, 9.42075401544570922852e-02) (133, -3.33948619663715362549e-02) (134, -2.92565068230032920837e-03) (135, -1.78158972412347793579e-02) (136, -5.89845329523086547852e-02) (137, -4.21674773097038269043e-02) (138, 7.12204799056053161621e-02) (139, 8.09752643108367919922e-02) (140, -8.07716697454452514648e-02) (141, 6.09068498015403747559e-02) (142, 7.34333842992782592773e-02) (143, 2.67867092043161392212e-02) (144, -4.25912588834762573242e-02) (145, -1.27532528713345527649e-02) (146, -3.33014428615570068359e-02) (147, 1.06785288080573081970e-02) (148, 5.66195882856845855713e-02) (149, -9.52291894531250000000e+03) (150, -4.17805078125000000000e+04) (0, 3.52592575000000000000e+06) (1, -1.01089020000000000000e+07) (2, 6.20474650000000000000e+06) (3, 4.84702800000000000000e+06) (4, 2.62771350000000000000e+06) (5, 6.28894500000000000000e+06) (6, 8.86729600000000000000e+06) (7, -1.08367690000000000000e+07) (8, -6.69758200000000000000e+06) (9, -1.24991560000000000000e+07) (10, 2.42441800000000000000e+06) (11, -3.56976796875000000000e+04) (12, -9.21376200000000000000e+06) (13, 4.90328850000000000000e+06) (14, -1.11462850000000000000e+06) (15, 8.01335450000000000000e+06) (16, 4.20630950000000000000e+06) (17, -5.47027300000000000000e+06) (18, -3.57125800000000000000e+06) (19, -3.94393975000000000000e+06) (20, 2.22828775000000000000e+06) (21, 8.58287200000000000000e+06) (22, 7.78491300000000000000e+06) (23, 4.27924650000000000000e+06) (24, -2.29784550000000000000e+06) (25, -2.25304500000000000000e+06) (26, 4.79887200000000000000e+06) (27, 9.82901600000000000000e+06) (28, 1.82643440000000000000e+07) (29, 2.74808725000000000000e+06) (30, 4.79915062500000000000e+05) (31, 1.69177500000000000000e+06) (32, 2.61468300000000000000e+06) (33, 1.22630920000000000000e+07) (34, -2.78030250000000000000e+06) (35, 1.69892180000000000000e+07) (36, -1.20329070000000000000e+07) (37, -6.95551687500000000000e+05) (38, 8.15105312500000000000e+05) (39, -1.01828780000000000000e+07) (40, -5.12634450000000000000e+06) (41, -1.48774962500000000000e+06) (42, -1.00260620000000000000e+07) (43, -5.02929050000000000000e+06) (44, -7.42669300000000000000e+06) (45, -2.30142828125000000000e+05) (46, 1.15205520000000000000e+07) (47, -4.91711000000000000000e+06) (48, 3.64638320000000000000e+07) (49, 6.25979900000000000000e+06) (50, 1.32353670000000000000e+07) (51, -1.46471350000000000000e+07) (52, -1.05592710000000000000e+07) (53, 5.36799450000000000000e+06) (54, 1.47411470000000000000e+07) (55, -5.05280400000000000000e+06) (56, -8.08991900000000000000e+06) (57, -1.30682060000000000000e+07) (58, -2.38926560000000000000e+07) (59, 1.03537390000000000000e+07) (60, -1.32915910000000000000e+07) (61, 1.03368190000000000000e+07) (62, -4.30522150000000000000e+06) (63, -9.22063600000000000000e+06) (64, 1.66980680000000000000e+07) (65, -1.02977710000000000000e+07) (66, 4.09163320312500000000e+04) (67, -2.64233575000000000000e+06) (68, -1.00459260000000000000e+07) (69, 5.62410812500000000000e+05) (70, 1.16774160000000000000e+07) (71, -1.19804670000000000000e+07) (72, 6.81516000000000000000e+06) (73, -1.15229460000000000000e+07) (74, 4.60573100000000000000e+06) (75, -6.42258850000000000000e+06) (76, 9.04231100000000000000e+06) (77, -1.69806240000000000000e+07) (78, 3.46052300000000000000e+06) (79, -4.67926600000000000000e+06) (80, 1.26683462500000000000e+06) (81, -7.61899650000000000000e+06) (82, -1.67429187500000000000e+06) (83, -5.76762300000000000000e+06) (84, -2.41564275000000000000e+06) (85, -5.93748150000000000000e+06) (86, 8.40418400000000000000e+06) (87, -6.22260450000000000000e+06) (88, 6.47287150000000000000e+06) (89, -1.01534920000000000000e+07) (90, -1.35022420000000000000e+07) (91, -1.33504562500000000000e+06) (92, -1.31713940000000000000e+07) (93, -5.06428200000000000000e+06) (94, -1.12741280000000000000e+07) (95, -4.12855050000000000000e+06) (96, -4.88879700000000000000e+06) (97, 7.62066125000000000000e+05) (98, -5.64074150000000000000e+06) (99, 1.80898075000000000000e+06) (100, -2.34437300000000000000e+06) (101, -1.70546875000000000000e+06) (102, -2.42457600000000000000e+06) (103, -2.41834275000000000000e+06) (104, -2.09369987500000000000e+06) (105, 2.23438265625000000000e+05) (106, -2.13020350000000000000e+06) (107, 6.00421250000000000000e+05) (108, -1.48558550000000000000e+06) (109, 1.03064162500000000000e+06) (110, -1.25224100000000000000e+06) (111, 8.80834625000000000000e+05) (112, 4.55224774777889251709e-02) (113, 2.78795473277568817139e-02) (114, 6.31860282737761735916e-04) (115, -2.93985102325677871704e-02) (116, 4.25766110420227050781e-02) (117, 8.32754969596862792969e-02) (118, 8.31059738993644714355e-02) (119, 2.54363678395748138428e-02) (120, 4.72383685410022735596e-02) (121, 6.95644840598106384277e-02) (122, 5.60627728700637817383e-02) (123, -3.69019992649555206299e-02) (124, 4.86850664019584655762e-02) (125, 7.48678073287010192871e-02) (126, -9.94554087519645690918e-02) (127, -9.44722518324851989746e-02) (128, -9.62509959936141967773e-02) (129, 4.86266911029815673828e-02) (130, -1.83198992162942886353e-02) (131, -2.77927834540605545044e-02) (132, -1.60581227391958236694e-02) (133, 1.45107358694076538086e-02) (134, 9.03762578964233398438e-02) (135, -3.40945608913898468018e-02) (136, -6.86231181025505065918e-02) (137, -8.43719765543937683105e-02) (138, 3.38247418403625488281e-02) (139, -6.81915357708930969238e-02) (140, -6.41199899837374687195e-03) (141, 6.47317320108413696289e-02) (142, 5.87286166846752166748e-02) (143, -6.08895234763622283936e-02) (144, -7.38872308284044265747e-03) (145, -4.06395234167575836182e-02) (146, 9.71196684986352920532e-03) (147, -6.48121163249015808105e-02) (148, -5.73640242218971252441e-02) (149, 2.11497773437500000000e+04) (150, -1.29505640625000000000e+05) (0, -4.74457750000000000000e+06) (1, -2.32533625000000000000e+06) (2, 4.65375200000000000000e+06) (3, -1.13621400000000000000e+07) (4, 5.96225300000000000000e+06) (5, 4.89328875000000000000e+05) (6, -2.69803675000000000000e+06) (7, -2.07264862500000000000e+06) (8, -6.19967700000000000000e+06) (9, 6.08170400000000000000e+06) (10, -4.52142100000000000000e+06) (11, 1.23725037500000000000e+06) (12, -3.19288437500000000000e+05) (13, -3.30210500000000000000e+06) (14, 1.82296625000000000000e+06) (15, -4.10664400000000000000e+06) (16, -3.49764375000000000000e+06) (17, 2.94422325000000000000e+06) (18, -9.95053300000000000000e+06) (19, 1.33223375000000000000e+06) (20, -6.45066850000000000000e+06) (21, -4.04130550000000000000e+06) (22, -9.20427700000000000000e+06) (23, 9.51381400000000000000e+06) (24, -2.34783125000000000000e+06) (25, 2.53015250000000000000e+06) (26, 4.31966650000000000000e+06) (27, -2.23001460000000000000e+07) (28, -3.32622000000000000000e+06) (29, -1.94457840000000000000e+07) (30, 1.01028240000000000000e+07) (31, -8.33417600000000000000e+06) (32, 7.07511950000000000000e+06) (33, 7.89607100000000000000e+06) (34, 2.10961425000000000000e+06) (35, -3.60089062500000000000e+05) (36, 8.36944800000000000000e+06) (37, 1.46452690000000000000e+07) (38, 3.41711125000000000000e+06) (39, 6.52522550000000000000e+06) (40, 7.72546400000000000000e+06) (41, 1.24406980000000000000e+07) (42, -3.84016000000000000000e+06) (43, 7.99919500000000000000e+06) (44, 1.55837950000000000000e+06) (45, -4.00295750000000000000e+06) (46, -1.41961000000000000000e+07) (47, -1.94177512500000000000e+06) (48, -1.62654010000000000000e+07) (49, -1.83491060000000000000e+07) (50, -1.04584462500000000000e+06) (51, 3.94205475000000000000e+06) (52, 1.19434162500000000000e+06) (53, -2.52522550000000000000e+06) (54, -6.67794125000000000000e+05) (55, 1.08205210000000000000e+07) (56, 1.68834440000000000000e+07) (57, 9.14207400000000000000e+06) (58, 6.97665450000000000000e+06) (59, -1.55781640000000000000e+07) (60, 4.97304800000000000000e+06) (61, -8.70416900000000000000e+06) (62, 5.79091650000000000000e+06) (63, 8.55959400000000000000e+06) (64, 1.02888960000000000000e+07) (65, 9.32180600000000000000e+06) (66, 1.84138160000000000000e+07) (67, 6.41083850000000000000e+06) (68, 9.86307900000000000000e+06) (69, 4.67734200000000000000e+06) (70, -1.09595362500000000000e+06) (71, 1.32220510000000000000e+07) (72, 4.72698400000000000000e+06) (73, 8.85367100000000000000e+06) (74, 6.25947950000000000000e+06) (75, 1.80409468750000000000e+05) (76, -5.17275450000000000000e+06) (77, 4.39077500000000000000e+06) (78, 5.38531250000000000000e+06) (79, 8.82176600000000000000e+06) (80, 3.74567200000000000000e+06) (81, 4.51528850000000000000e+06) (82, 2.98333475000000000000e+06) (83, 1.11160870000000000000e+07) (84, 6.22131300000000000000e+06) (85, 3.62062450000000000000e+06) (86, -4.01658375000000000000e+06) (87, -2.89618650000000000000e+06) (88, 1.49517487500000000000e+06) (89, 8.89896500000000000000e+06) (90, 6.90726300000000000000e+06) (91, 5.12292000000000000000e+06) (92, 8.11575850000000000000e+06) (93, -3.50603750000000000000e+06) (94, 7.91047200000000000000e+06) (95, 2.61778700000000000000e+06) (96, 1.03823830000000000000e+07) (97, 9.40655800000000000000e+06) (98, 8.48059200000000000000e+06) (99, 1.01104560000000000000e+07) (100, -2.50134175000000000000e+06) (101, 5.52676400000000000000e+06) (102, -2.47271200000000000000e+06) (103, 1.02636675000000000000e+06) (104, 5.81024000000000000000e+05) (105, 2.42027100000000000000e+06) (106, 7.40649437500000000000e+05) (107, 2.86730312500000000000e+05) (108, 2.55731425000000000000e+06) (109, -1.71936475000000000000e+06) (110, 1.26320187500000000000e+06) (111, -8.88544812500000000000e+05) (112, 4.49772439897060394287e-02) (113, 9.87476333975791931152e-02) (114, 4.14250530302524566650e-02) (115, 9.21000540256500244141e-02) (116, 5.69079481065273284912e-02) (117, 2.73553729057312011719e-02) (118, 9.79681164026260375977e-02) (119, -5.42585365474224090576e-02) (120, -5.55657111108303070068e-02) (121, -7.22069758921861648560e-04) (122, 7.39919021725654602051e-02) (123, -6.83673620223999023438e-02) (124, -7.73996710777282714844e-02) (125, 1.27854179590940475464e-02) (126, 4.46082912385463714600e-02) (127, 4.74785156548023223877e-02) (128, -5.56843504309654235840e-02) (129, 3.05739436298608779907e-02) (130, 6.97259185835719108582e-03) (131, 6.73714801669120788574e-02) (132, -6.79538547992706298828e-02) (133, 3.62863205373287200928e-02) (134, 7.90171399712562561035e-02) (135, -4.09475117921829223633e-02) (136, 5.67089505493640899658e-02) (137, 8.91029164195060729980e-02) (138, 7.95078948140144348145e-02) (139, -5.84793090820312500000e-02) (140, 5.16420826315879821777e-02) (141, 3.48426178097724914551e-02) (142, 4.98174317181110382080e-02) (143, -3.38067230768501758575e-03) (144, 3.35902459919452667236e-02) (145, -8.75751953572034835815e-03) (146, -1.12806186079978942871e-02) (147, -9.50180552899837493896e-03) (148, -8.14021453261375427246e-02) (149, 3.95888476562500000000e+03) (150, -3.51800273437500000000e+04) (0, 1.17757890000000000000e+07) (1, -1.75065140000000000000e+07) (2, -1.06993262500000000000e+06) (3, -1.21532290000000000000e+07) (4, -1.17465460000000000000e+07) (5, -8.03536562500000000000e+04) (6, -8.44717000000000000000e+06) (7, 1.53099410000000000000e+07) (8, -6.56761650000000000000e+06) (9, 4.73867600000000000000e+06) (10, -3.06063650000000000000e+06) (11, -8.38366625000000000000e+05) (12, -2.02252450000000000000e+06) (13, 3.86710175000000000000e+06) (14, 4.80542500000000000000e+06) (15, 8.08088625000000000000e+05) (16, -1.50801050000000000000e+06) (17, 4.31102600000000000000e+06) (18, -2.88891975000000000000e+06) (19, 3.35800425000000000000e+06) (20, -3.84435500000000000000e+06) (21, 6.37122500000000000000e+05) (22, 1.35088240000000000000e+07) (23, -2.01318480000000000000e+07) (24, -6.83904062500000000000e+05) (25, -8.45267700000000000000e+06) (26, -1.21964810000000000000e+07) (27, 1.40892640000000000000e+07) (28, 1.21880790000000000000e+07) (29, 4.62691850000000000000e+06) (30, -1.13091320000000000000e+07) (31, 1.69583140000000000000e+07) (32, -6.11339800000000000000e+06) (33, -5.30541950000000000000e+06) (34, 4.43601600000000000000e+06) (35, -5.95068250000000000000e+05) (36, 4.57288000000000000000e+06) (37, -2.99466325000000000000e+06) (38, -2.62297675000000000000e+06) (39, -7.73670050000000000000e+06) (40, -1.99052550000000000000e+06) (41, 1.11388960000000000000e+07) (42, -1.47922030000000000000e+07) (43, 7.94469050000000000000e+06) (44, -2.12679540000000000000e+07) (45, 1.40126950000000000000e+06) (46, 5.44133550000000000000e+06) (47, -1.42964420000000000000e+07) (48, 7.66712100000000000000e+06) (49, -8.96791625000000000000e+05) (50, -1.03819940000000000000e+07) (51, 6.84255200000000000000e+06) (52, -6.22511450000000000000e+06) (53, -9.29623800000000000000e+06) (54, 8.13381150000000000000e+06) (55, 1.61087737500000000000e+06) (56, 1.92855960000000000000e+07) (57, -8.21113200000000000000e+06) (58, 4.48172700000000000000e+06) (59, -2.56378340000000000000e+07) (60, -1.98497175000000000000e+06) (61, 7.42530250000000000000e+06) (62, -3.00947025000000000000e+06) (63, 1.50981860000000000000e+07) (64, 1.12514470000000000000e+07) (65, 2.37703880000000000000e+07) (66, -3.32885812500000000000e+05) (67, 1.92053500000000000000e+07) (68, 3.46395550000000000000e+06) (69, 9.11045900000000000000e+06) (70, 6.12976200000000000000e+06) (71, 4.27674850000000000000e+06) (72, -7.05703600000000000000e+06) (73, 8.04444187500000000000e+05) (74, -1.30076140000000000000e+07) (75, 8.92131300000000000000e+06) (76, -2.63774625000000000000e+06) (77, -1.49911912500000000000e+06) (78, 4.71684250000000000000e+06) (79, -3.25610750000000000000e+06) (80, 2.43875593750000000000e+05) (81, -9.78271300000000000000e+06) (82, -1.99160175000000000000e+06) (83, -1.25349400000000000000e+06) (84, 5.27647000000000000000e+05) (85, -1.01128850000000000000e+07) (86, 8.55453687500000000000e+05) (87, -1.48525370000000000000e+07) (88, 2.35065380000000000000e+07) (89, -4.32276200000000000000e+06) (90, 6.20938400000000000000e+06) (91, 3.90010000000000000000e+06) (92, 4.81756000000000000000e+06) (93, 5.80745000000000000000e+06) (94, 9.64183600000000000000e+06) (95, 5.69600200000000000000e+06) (96, 1.04987090000000000000e+07) (97, 7.61821050000000000000e+06) (98, 5.25619900000000000000e+06) (99, 1.07667230000000000000e+07) (100, 2.29596375000000000000e+06) (101, 4.84510450000000000000e+06) (102, 2.41036150000000000000e+06) (103, 3.87361875000000000000e+06) (104, 3.20563150000000000000e+06) (105, 1.60186237500000000000e+06) (106, 3.41119525000000000000e+06) (107, -9.58049875000000000000e+05) (108, 3.58085800000000000000e+06) (109, -2.42296500000000000000e+06) (110, 2.02020537500000000000e+06) (111, -1.42102612500000000000e+06) (112, -5.64833842217922210693e-02) (113, 5.58845847845077514648e-02) (114, 1.37512879446148872375e-02) (115, -7.85407349467277526855e-02) (116, -6.87668249011039733887e-02) (117, 1.72218624502420425415e-02) (118, 7.82778561115264892578e-02) (119, -6.06065206229686737061e-02) (120, 3.15595269203186035156e-02) (121, 7.11629763245582580566e-02) (122, -9.31420475244522094727e-02) (123, -7.61146424338221549988e-03) (124, 2.03373525291681289673e-02) (125, 4.60844933986663818359e-02) (126, -5.44352903962135314941e-02) (127, -5.93114979565143585205e-02) (128, -2.19032727181911468506e-02) (129, -4.00391593575477600098e-02) (130, 8.63770097494125366211e-02) (131, 7.99625888466835021973e-02) (132, -2.82176434993743896484e-02) (133, 8.14104527235031127930e-02) (134, -8.23313929140567779541e-03) (135, -4.80612143874168395996e-02) (136, -4.83104139566421508789e-02) (137, -4.71024736762046813965e-02) (138, 8.50609093904495239258e-02) (139, -1.59392096102237701416e-02) (140, -4.12453077733516693115e-02) (141, -4.13963310420513153076e-02) (142, -9.41760092973709106445e-02) (143, 2.27131159044802188873e-03) (144, -8.55117440223693847656e-02) (145, 1.95752829313278198242e-02) (146, 2.37305779010057449341e-02) (147, -5.42785711586475372314e-02) (148, -6.32028579711914062500e-02) (149, 2.72997910156250000000e+04) (150, 2.31071218750000000000e+05) (0, -2.64264320000000000000e+07) (1, 5.08334000000000000000e+06) (2, -2.08539660000000000000e+07) (3, -3.81617100000000000000e+06) (4, -2.60989800000000000000e+06) (5, 4.95331250000000000000e+06) (6, 1.19782075000000000000e+06) (7, 1.49142200000000000000e+07) (8, 8.66549000000000000000e+06) (9, 1.76526400000000000000e+07) (10, 1.09457930000000000000e+07) (11, 2.12697460000000000000e+07) (12, 2.35467600000000000000e+07) (13, 1.50557690000000000000e+07) (14, 1.76131020000000000000e+07) (15, 2.33314480000000000000e+07) (16, -1.81372237500000000000e+06) (17, 4.63146280000000000000e+07) (18, 8.71918400000000000000e+06) (19, 3.52073000000000000000e+07) (20, 8.59904500000000000000e+06) (21, 2.26611180000000000000e+07) (22, -5.49991100000000000000e+06) (23, 3.83092280000000000000e+07) (24, 4.84882550000000000000e+06) (25, 2.79989820000000000000e+07) (26, 1.73992540000000000000e+07) (27, -1.16415710000000000000e+07) (28, -1.80416420000000000000e+07) (29, 4.22456200000000000000e+06) (30, 3.10459240000000000000e+07) (31, 5.61175250000000000000e+06) (32, 1.36068850000000000000e+07) (33, 1.92087920000000000000e+07) (34, 1.08213510000000000000e+07) (35, 4.21390000000000000000e+06) (36, 8.16950800000000000000e+06) (37, 3.01362540000000000000e+07) (38, -5.44063100000000000000e+06) (39, 1.65049970000000000000e+07) (40, -2.13324675000000000000e+06) (41, 1.44183440000000000000e+07) (42, 7.55679200000000000000e+06) (43, -6.01456100000000000000e+06) (44, -2.06608175000000000000e+06) (45, -2.40393640000000000000e+07) (46, -2.70750400000000000000e+07) (47, 1.09943900000000000000e+06) (48, -1.00071130000000000000e+07) (49, -1.12654690000000000000e+07) (50, -1.08084210000000000000e+07) (51, 5.29304350000000000000e+06) (52, -2.69155275000000000000e+06) (53, -8.53839400000000000000e+06) (54, -9.64303000000000000000e+06) (55, -1.02292120000000000000e+07) (56, 2.75174500000000000000e+06) (57, 7.62329300000000000000e+06) (58, 1.40112210000000000000e+07) (59, -4.67210200000000000000e+06) (60, 2.32537520000000000000e+07) (61, -2.60411000000000000000e+07) (62, 1.85276220000000000000e+07) (63, -1.79234460000000000000e+07) (64, -3.25821500000000000000e+06) (65, -1.17949410000000000000e+07) (66, 3.21707460000000000000e+07) (67, 7.68680781250000000000e+04) (68, 2.79619420000000000000e+07) (69, -1.00150500000000000000e+07) (70, 9.60573900000000000000e+06) (71, 1.67700562500000000000e+06) (72, 2.57100975000000000000e+06) (73, -3.71532750000000000000e+06) (74, 2.09414100000000000000e+06) (75, -8.43808600000000000000e+06) (76, -2.55557475000000000000e+06) (77, 1.76803612500000000000e+06) (78, 1.58418325000000000000e+06) (79, 5.69806550000000000000e+06) (80, 1.90895484375000000000e+05) (81, 3.43802125000000000000e+06) (82, 1.33001950000000000000e+06) (83, 5.91802250000000000000e+06) (84, 3.89258875000000000000e+06) (85, 1.87073350000000000000e+06) (86, 9.24964312500000000000e+05) (87, -3.64107650000000000000e+06) (88, 6.31509650000000000000e+06) (89, 3.68500200000000000000e+06) (90, 6.70731800000000000000e+06) (91, 2.03457662500000000000e+06) (92, 6.05508400000000000000e+06) (93, -2.08233062500000000000e+06) (94, 8.77620600000000000000e+06) (95, 6.56004900000000000000e+06) (96, 6.64769550000000000000e+06) (97, 8.01734300000000000000e+06) (98, 7.75448400000000000000e+06) (99, 6.92201550000000000000e+06) (100, -1.48641362500000000000e+06) (101, 4.76178400000000000000e+06) (102, -1.43869087500000000000e+06) (103, 1.41076625000000000000e+06) (104, 1.12599750000000000000e+06) (105, 4.78867031250000000000e+05) (106, 1.17427900000000000000e+06) (107, -1.23776195312500000000e+05) (108, 1.40172212500000000000e+06) (109, -9.63423562500000000000e+05) (110, 1.03438337500000000000e+06) (111, -7.27592187500000000000e+05) (112, -2.93893702328205108643e-02) (113, -2.39490438252687454224e-02) (114, 1.60656776279211044312e-02) (115, -6.86691105365753173828e-02) (116, 2.17080898582935333252e-02) (117, 9.82813164591789245605e-02) (118, 4.11365143954753875732e-02) (119, -5.58076836168766021729e-02) (120, 6.08762614428997039795e-02) (121, -4.09737222071271389723e-05) (122, -2.89502870291471481323e-02) (123, -1.71684101223945617676e-02) (124, 7.60866254568099975586e-02) (125, 2.99774855375289916992e-03) (126, 3.51012460887432098389e-02) (127, -1.44728121813386678696e-03) (128, -6.57373443245887756348e-02) (129, 2.66965292394161224365e-02) (130, 2.70062265917658805847e-03) (131, 9.32679176330566406250e-02) (132, 8.27828198671340942383e-02) (133, 9.01444181799888610840e-02) (134, 2.90112998336553573608e-02) (135, 2.46421694755554199219e-02) (136, -9.94486957788467407227e-02) (137, 9.24752727150917053223e-02) (138, 6.14401660859584808350e-02) (139, -3.64196226000785827637e-02) (140, 8.83166342973709106445e-02) (141, 4.31234426796436309814e-02) (142, 8.39435607194900512695e-02) (143, -4.10727411508560180664e-02) (144, -8.08256044983863830566e-02) (145, 9.23471543501364067197e-06) (146, -9.74185019731521606445e-03) (147, 4.08824905753135681152e-02) (148, -1.70945003628730773926e-03) (149, -3.15605156250000000000e+04) (150, -1.84538921875000000000e+05) (0, -1.24526250000000000000e+07) (1, 7.88774800000000000000e+06) (2, 9.75373300000000000000e+06) (3, 7.20483100000000000000e+06) (4, -5.21503400000000000000e+06) (5, -1.80673100000000000000e+07) (6, -4.14958950000000000000e+06) (7, 1.11820412500000000000e+06) (8, 1.20078590000000000000e+07) (9, 6.16615750000000000000e+06) (10, -6.85296687500000000000e+05) (11, -6.20559187500000000000e+05) (12, -9.77412937500000000000e+05) (13, -6.88131400000000000000e+06) (14, 1.24931337500000000000e+06) (15, 3.70085975000000000000e+06) (16, 1.00723140000000000000e+07) (17, 1.79534800000000000000e+07) (18, 2.39417500000000000000e+06) (19, 4.99559050000000000000e+06) (20, 1.00858193750000000000e+06) (21, -9.94929100000000000000e+06) (22, -1.16042490000000000000e+07) (23, -8.68019300000000000000e+06) (24, 4.57100550000000000000e+06) (25, -1.77060780000000000000e+07) (26, -8.88314100000000000000e+06) (27, 3.18715225000000000000e+06) (28, -6.97929375000000000000e+05) (29, 3.58677875000000000000e+06) (30, 2.27411575000000000000e+06) (31, -1.14540920000000000000e+07) (32, 5.53623750000000000000e+05) (33, -3.61822950000000000000e+06) (34, -1.09515220000000000000e+07) (35, -4.17755575000000000000e+06) (36, 4.27636250000000000000e+06) (37, 7.16571300000000000000e+06) (38, -1.57882687500000000000e+06) (39, 3.77388650000000000000e+06) (40, 9.79196100000000000000e+06) (41, 4.19434300000000000000e+06) (42, -4.09880475000000000000e+06) (43, -1.29279610000000000000e+07) (44, -2.67084725000000000000e+06) (45, 7.40588250000000000000e+06) (46, -1.16691160000000000000e+07) (47, 9.11771700000000000000e+06) (48, -1.30896560000000000000e+07) (49, 5.53868550000000000000e+06) (50, -4.18067975000000000000e+06) (51, -2.63430860000000000000e+07) (52, 1.24434180000000000000e+07) (53, 4.20436687500000000000e+05) (54, -1.72666120000000000000e+07) (55, -1.04745700000000000000e+07) (56, -1.54970900000000000000e+07) (57, 1.12472825000000000000e+06) (58, 3.66332125000000000000e+06) 