FANN_FLO_2.1
num_layers=4
learning_rate=0.700000
connection_rate=1.000000
network_type=0
learning_momentum=0.000000
training_algorithm=0
train_error_function=1
train_stop_function=0
cascade_output_change_fraction=0.010000
quickprop_decay=-0.000100
quickprop_mu=1.750000
rprop_increase_factor=1.200000
rprop_decrease_factor=0.500000
rprop_delta_min=0.000000
rprop_delta_max=50.000000
rprop_delta_zero=0.100000
cascade_output_stagnation_epochs=12
cascade_candidate_change_fraction=0.010000
cascade_candidate_stagnation_epochs=12
cascade_max_out_epochs=150
cascade_max_cand_epochs=150
cascade_num_candidate_groups=2
bit_fail_limit=3.49999994039535522461e-01
cascade_candidate_limit=1.00000000000000000000e+03
cascade_weight_multiplier=4.00000005960464477539e-01
cascade_activation_functions_count=10
cascade_activation_functions=3 5 7 8 10 11 14 15 16 17 
cascade_activation_steepnesses_count=4
cascade_activation_steepnesses=2.50000000000000000000e-01 5.00000000000000000000e-01 7.50000000000000000000e-01 1.00000000000000000000e+00 
layer_sizes=151 71 31 15 
scale_included=0
neurons (num_inputs, activation_function, activation_steepness)=(0, 0, 0.00000000000000000000e+00) (0, 0, 0.00000000000000000000e+00) (0, 0, 0.00000000000000000000e+00) (0, 0, 0.00000000000000000000e+00) (0, 0, 0.00000000000000000000e+00) (0, 0, 0.00000000000000000000e+00) (0, 0, 0.00000000000000000000e+00) (0, 0, 0.00000000000000000000e+00) (0, 0, 0.00000000000000000000e+00) (0, 0, 0.00000000000000000000e+00) (0, 0, 0.00000000000000000000e+00) (0, 0, 0.00000000000000000000e+00) (0, 0, 0.00000000000000000000e+00) (0, 0, 0.00000000000000000000e+00) (0, 0, 0.00000000000000000000e+00) (0, 0, 0.00000000000000000000e+00) (0, 0, 0.00000000000000000000e+00) (0, 0, 0.00000000000000000000e+00) (0, 0, 0.00000000000000000000e+00) (0, 0, 0.00000000000000000000e+00) (0, 0, 0.00000000000000000000e+00) (0, 0, 0.00000000000000000000e+00) (0, 0, 0.00000000000000000000e+00) (0, 0, 0.00000000000000000000e+00) (0, 0, 0.00000000000000000000e+00) (0, 0, 0.00000000000000000000e+00) (0, 0, 0.00000000000000000000e+00) (0, 0, 0.00000000000000000000e+00) (0, 0, 0.00000000000000000000e+00) (0, 0, 0.00000000000000000000e+00) (0, 0, 0.00000000000000000000e+00) (0, 0, 0.00000000000000000000e+00) (0, 0, 0.00000000000000000000e+00) (0, 0, 0.00000000000000000000e+00) (0, 0, 0.00000000000000000000e+00) (0, 0, 0.00000000000000000000e+00) (0, 0, 0.00000000000000000000e+00) (0, 0, 0.00000000000000000000e+00) (0, 0, 0.00000000000000000000e+00) (0, 0, 0.00000000000000000000e+00) (0, 0, 0.00000000000000000000e+00) (0, 0, 0.00000000000000000000e+00) (0, 0, 0.00000000000000000000e+00) (0, 0, 0.00000000000000000000e+00) (0, 0, 0.00000000000000000000e+00) (0, 0, 0.00000000000000000000e+00) (0, 0, 0.00000000000000000000e+00) (0, 0, 0.00000000000000000000e+00) (0, 0, 0.00000000000000000000e+00) (0, 0, 0.00000000000000000000e+00) (0, 0, 0.00000000000000000000e+00) (0, 0, 0.00000000000000000000e+00) (0, 0, 0.00000000000000000000e+00) (0, 0, 0.00000000000000000000e+00) (0, 0, 0.00000000000000000000e+00) (0, 0, 0.00000000000000000000e+00) (0, 0, 0.00000000000000000000e+00) (0, 0, 0.00000000000000000000e+00) (0, 0, 0.00000000000000000000e+00) (0, 0, 0.00000000000000000000e+00) (0, 0, 0.00000000000000000000e+00) (0, 0, 0.00000000000000000000e+00) (0, 0, 0.00000000000000000000e+00) (0, 0, 0.00000000000000000000e+00) (0, 0, 0.00000000000000000000e+00) (0, 0, 0.00000000000000000000e+00) (0, 0, 0.00000000000000000000e+00) (0, 0, 0.00000000000000000000e+00) (0, 0, 0.00000000000000000000e+00) (0, 0, 0.00000000000000000000e+00) (0, 0, 0.00000000000000000000e+00) (0, 0, 0.00000000000000000000e+00) (0, 0, 0.00000000000000000000e+00) (0, 0, 0.00000000000000000000e+00) (0, 0, 0.00000000000000000000e+00) (0, 0, 0.00000000000000000000e+00) (0, 0, 0.00000000000000000000e+00) (0, 0, 0.00000000000000000000e+00) (0, 0, 0.00000000000000000000e+00) (0, 0, 0.00000000000000000000e+00) (0, 0, 0.00000000000000000000e+00) (0, 0, 0.00000000000000000000e+00) (0, 0, 0.00000000000000000000e+00) (0, 0, 0.00000000000000000000e+00) (0, 0, 0.00000000000000000000e+00) (0, 0, 0.00000000000000000000e+00) (0, 0, 0.00000000000000000000e+00) (0, 0, 0.00000000000000000000e+00) (0, 0, 0.00000000000000000000e+00) (0, 0, 0.00000000000000000000e+00) (0, 0, 0.00000000000000000000e+00) (0, 0, 0.00000000000000000000e+00) (0, 0, 0.00000000000000000000e+00) (0, 0, 0.00000000000000000000e+00) (0, 0, 0.00000000000000000000e+00) (0, 0, 0.00000000000000000000e+00) (0, 0, 0.00000000000000000000e+00) (0, 0, 0.00000000000000000000e+00) (0, 0, 0.00000000000000000000e+00) (0, 0, 0.00000000000000000000e+00) (0, 0, 0.00000000000000000000e+00) (0, 0, 0.00000000000000000000e+00) (0, 0, 0.00000000000000000000e+00) (0, 0, 0.00000000000000000000e+00) (0, 0, 0.00000000000000000000e+00) (0, 0, 0.00000000000000000000e+00) (0, 0, 0.00000000000000000000e+00) (0, 0, 0.00000000000000000000e+00) (0, 0, 0.00000000000000000000e+00) (0, 0, 0.00000000000000000000e+00) (0, 0, 0.00000000000000000000e+00) (0, 0, 0.00000000000000000000e+00) (0, 0, 0.00000000000000000000e+00) (0, 0, 0.00000000000000000000e+00) (0, 0, 0.00000000000000000000e+00) (0, 0, 0.00000000000000000000e+00) (0, 0, 0.00000000000000000000e+00) (0, 0, 0.00000000000000000000e+00) (0, 0, 0.00000000000000000000e+00) (0, 0, 0.00000000000000000000e+00) (0, 0, 0.00000000000000000000e+00) (0, 0, 0.00000000000000000000e+00) (0, 0, 0.00000000000000000000e+00) (0, 0, 0.00000000000000000000e+00) (0, 0, 0.00000000000000000000e+00) (0, 0, 0.00000000000000000000e+00) (0, 0, 0.00000000000000000000e+00) (0, 0, 0.00000000000000000000e+00) (0, 0, 0.00000000000000000000e+00) (0, 0, 0.00000000000000000000e+00) (0, 0, 0.00000000000000000000e+00) (0, 0, 0.00000000000000000000e+00) (0, 0, 0.00000000000000000000e+00) (0, 0, 0.00000000000000000000e+00) (0, 0, 0.00000000000000000000e+00) (0, 0, 0.00000000000000000000e+00) (0, 0, 0.00000000000000000000e+00) (0, 0, 0.00000000000000000000e+00) (0, 0, 0.00000000000000000000e+00) (0, 0, 0.00000000000000000000e+00) (0, 0, 0.00000000000000000000e+00) (0, 0, 0.00000000000000000000e+00) (0, 0, 0.00000000000000000000e+00) (0, 0, 0.00000000000000000000e+00) (0, 0, 0.00000000000000000000e+00) (0, 0, 0.00000000000000000000e+00) (0, 0, 0.00000000000000000000e+00) (0, 0, 0.00000000000000000000e+00) (0, 0, 0.00000000000000000000e+00) (0, 0, 0.00000000000000000000e+00) (0, 0, 0.00000000000000000000e+00) (151, 6, 5.00000000000000000000e-01) (151, 6, 5.00000000000000000000e-01) (151, 6, 5.00000000000000000000e-01) (151, 6, 5.00000000000000000000e-01) (151, 6, 5.00000000000000000000e-01) (151, 6, 5.00000000000000000000e-01) (151, 6, 5.00000000000000000000e-01) (151, 6, 5.00000000000000000000e-01) (151, 6, 5.00000000000000000000e-01) (151, 6, 5.00000000000000000000e-01) (151, 6, 5.00000000000000000000e-01) (151, 6, 5.00000000000000000000e-01) (151, 6, 5.00000000000000000000e-01) (151, 6, 5.00000000000000000000e-01) (151, 6, 5.00000000000000000000e-01) (151, 6, 5.00000000000000000000e-01) (151, 6, 5.00000000000000000000e-01) (151, 6, 5.00000000000000000000e-01) (151, 6, 5.00000000000000000000e-01) (151, 6, 5.00000000000000000000e-01) (151, 6, 5.00000000000000000000e-01) (151, 6, 5.00000000000000000000e-01) (151, 6, 5.00000000000000000000e-01) (151, 6, 5.00000000000000000000e-01) (151, 6, 5.00000000000000000000e-01) (151, 6, 5.00000000000000000000e-01) (151, 6, 5.00000000000000000000e-01) (151, 6, 5.00000000000000000000e-01) (151, 6, 5.00000000000000000000e-01) (151, 6, 5.00000000000000000000e-01) (151, 6, 5.00000000000000000000e-01) (151, 6, 5.00000000000000000000e-01) (151, 6, 5.00000000000000000000e-01) (151, 6, 5.00000000000000000000e-01) (151, 6, 5.00000000000000000000e-01) (151, 6, 5.00000000000000000000e-01) (151, 6, 5.00000000000000000000e-01) (151, 6, 5.00000000000000000000e-01) (151, 6, 5.00000000000000000000e-01) (151, 6, 5.00000000000000000000e-01) (151, 6, 5.00000000000000000000e-01) (151, 6, 5.00000000000000000000e-01) (151, 6, 5.00000000000000000000e-01) (151, 6, 5.00000000000000000000e-01) (151, 6, 5.00000000000000000000e-01) (151, 6, 5.00000000000000000000e-01) (151, 6, 5.00000000000000000000e-01) (151, 6, 5.00000000000000000000e-01) (151, 6, 5.00000000000000000000e-01) (151, 6, 5.00000000000000000000e-01) (151, 6, 5.00000000000000000000e-01) (151, 6, 5.00000000000000000000e-01) (151, 6, 5.00000000000000000000e-01) (151, 6, 5.00000000000000000000e-01) (151, 6, 5.00000000000000000000e-01) (151, 6, 5.00000000000000000000e-01) (151, 6, 5.00000000000000000000e-01) (151, 6, 5.00000000000000000000e-01) (151, 6, 5.00000000000000000000e-01) (151, 6, 5.00000000000000000000e-01) (151, 6, 5.00000000000000000000e-01) (151, 6, 5.00000000000000000000e-01) (151, 6, 5.00000000000000000000e-01) (151, 6, 5.00000000000000000000e-01) (151, 6, 5.00000000000000000000e-01) (151, 6, 5.00000000000000000000e-01) (151, 6, 5.00000000000000000000e-01) (151, 6, 5.00000000000000000000e-01) (151, 6, 5.00000000000000000000e-01) (151, 6, 5.00000000000000000000e-01) (0, 6, 0.00000000000000000000e+00) (71, 6, 5.00000000000000000000e-01) (71, 6, 5.00000000000000000000e-01) (71, 6, 5.00000000000000000000e-01) (71, 6, 5.00000000000000000000e-01) (71, 6, 5.00000000000000000000e-01) (71, 6, 5.00000000000000000000e-01) (71, 6, 5.00000000000000000000e-01) (71, 6, 5.00000000000000000000e-01) (71, 6, 5.00000000000000000000e-01) (71, 6, 5.00000000000000000000e-01) (71, 6, 5.00000000000000000000e-01) (71, 6, 5.00000000000000000000e-01) (71, 6, 5.00000000000000000000e-01) (71, 6, 5.00000000000000000000e-01) (71, 6, 5.00000000000000000000e-01) (71, 6, 5.00000000000000000000e-01) (71, 6, 5.00000000000000000000e-01) (71, 6, 5.00000000000000000000e-01) (71, 6, 5.00000000000000000000e-01) (71, 6, 5.00000000000000000000e-01) (71, 6, 5.00000000000000000000e-01) (71, 6, 5.00000000000000000000e-01) (71, 6, 5.00000000000000000000e-01) (71, 6, 5.00000000000000000000e-01) (71, 6, 5.00000000000000000000e-01) (71, 6, 5.00000000000000000000e-01) (71, 6, 5.00000000000000000000e-01) (71, 6, 5.00000000000000000000e-01) (71, 6, 5.00000000000000000000e-01) (71, 6, 5.00000000000000000000e-01) (0, 6, 0.00000000000000000000e+00) (31, 12, 5.00000000000000000000e-01) (31, 12, 5.00000000000000000000e-01) (31, 12, 5.00000000000000000000e-01) (31, 12, 5.00000000000000000000e-01) (31, 12, 5.00000000000000000000e-01) (31, 12, 5.00000000000000000000e-01) (31, 12, 5.00000000000000000000e-01) (31, 12, 5.00000000000000000000e-01) (31, 12, 5.00000000000000000000e-01) (31, 12, 5.00000000000000000000e-01) (31, 12, 5.00000000000000000000e-01) (31, 12, 5.00000000000000000000e-01) (31, 12, 5.00000000000000000000e-01) (31, 12, 5.00000000000000000000e-01) (0, 12, 0.00000000000000000000e+00) 
connections (connected_to_neuron, weight)=(0, -3.63953750000000000000e+05) (1, 9.73644687500000000000e+05) (2, -3.70736812500000000000e+05) (3, 7.02461500000000000000e+05) (4, -2.58444796875000000000e+05) (5, 4.85152312500000000000e+05) (6, -1.77633031250000000000e+05) (7, 2.06906578125000000000e+05) (8, -2.55580390625000000000e+04) (9, -1.87225750000000000000e+05) (10, -5.05789062500000000000e+04) (11, -5.17097687500000000000e+05) (12, 9.25141328125000000000e+04) (13, -6.02374687500000000000e+05) (14, 8.16432421875000000000e+04) (15, -6.27712500000000000000e+05) (16, 1.30380554687500000000e+05) (17, -4.20550812500000000000e+05) (18, 2.29816812500000000000e+05) (19, -2.58328953125000000000e+05) (20, -1.03561304687500000000e+05) (21, -2.07819656250000000000e+05) (22, -1.83826796875000000000e+04) (23, 6.76328359375000000000e+04) (24, -1.69725898437500000000e+04) (25, 4.88312531250000000000e+05) (26, 2.08483222656250000000e+04) (27, 2.79353203125000000000e+04) (28, 1.44121250000000000000e+05) (29, 5.59186445312500000000e+04) (30, -1.98306234375000000000e+05) (31, 4.87231484375000000000e+04) (32, -3.14486125000000000000e+05) (33, 8.98256250000000000000e+04) (34, -7.18959453125000000000e+04) (35, 1.32593375000000000000e+05) (36, 1.42124453125000000000e+05) (37, -1.34867078125000000000e+05) (38, 8.07102343750000000000e+04) (39, -2.11387125000000000000e+05) (40, 3.71205703125000000000e+04) (41, -4.72991687500000000000e+05) (42, 1.56040062500000000000e+05) (43, -9.57013046875000000000e+04) (44, 1.66570796875000000000e+05) (45, -1.29622382812500000000e+04) (46, 3.01694843750000000000e+05) (47, 2.73643281250000000000e+05) (48, 2.80242562500000000000e+05) (49, 6.16207812500000000000e+05) (50, -8.64618281250000000000e+04) (51, 3.26862437500000000000e+05) (52, 8.10293847656250000000e+03) (53, 1.25602273437500000000e+05) (54, 1.85040281250000000000e+05) (55, 1.84482062500000000000e+05) (56, 2.19620898437500000000e+04) (57, -1.13391425781250000000e+04) (58, 1.05781074218750000000e+04) (59, -5.53662929687500000000e+04) (60, 1.57466176897287368774e-02) (61, 6.72294497489929199219e-02) (62, 3.25504876673221588135e-02) (63, 2.56175324320793151855e-02) (64, 3.82424406707286834717e-02) (65, 3.31213176250457763672e-02) (66, -2.97363009303808212280e-02) (67, -3.01503464579582214355e-02) (68, -8.91968831419944763184e-02) (69, -6.73554763197898864746e-02) (70, -8.33775773644447326660e-02) (71, -3.02351167192682623863e-04) (72, -4.36091423034667968750e-02) (73, -7.27084726095199584961e-02) (74, 2.59029213339090347290e-02) (75, -3.25262360274791717529e-02) (76, -7.50725269317626953125e-02) (77, 4.91850264370441436768e-02) (78, 2.64165308326482772827e-02) (79, -1.89988836646080017090e-02) (80, 6.47205933928489685059e-02) (81, -9.91422906517982482910e-02) (82, -4.44595329463481903076e-02) (83, -7.06158131361007690430e-02) (84, 2.16278359293937683105e-02) (85, 2.76575377210974693298e-03) (86, -4.57347333431243896484e-02) (87, -8.42875801026821136475e-03) (88, -8.28246399760246276855e-03) (89, 4.37165312469005584717e-02) (90, -7.95840397477149963379e-02) (91, -9.25358459353446960449e-02) (92, 1.09459832310676574707e-02) (93, 5.29664531350135803223e-02) (94, 3.30816842615604400635e-02) (95, -5.08115738630294799805e-02) (96, -1.39122288674116134644e-02) (97, -9.66546162962913513184e-02) (98, 1.90380811691284179688e-02) (99, -3.10910958796739578247e-03) (100, -6.40100911259651184082e-02) (101, 3.56605052947998046875e-02) (102, 9.65885445475578308105e-02) (103, -7.61922961100935935974e-03) (104, 6.29520341753959655762e-02) (105, 2.24914606660604476929e-02) (106, 5.98545372486114501953e-02) (107, 8.78795087337493896484e-02) (108, -2.83235143870115280151e-02) (109, -1.37289343401789665222e-02) (110, -3.11193764209747314453e-02) (111, -6.36029243469238281250e-02) (112, -1.28712262958288192749e-02) (113, 2.44210902601480484009e-02) (114, -3.42187397181987762451e-02) (115, -9.12433937191963195801e-02) (116, -7.28131532669067382812e-02) (117, 2.00465284287929534912e-02) (118, 3.27851623296737670898e-04) (119, 1.89043805003166198730e-02) (120, -3.62369418144226074219e-02) (121, 2.07438170909881591797e-02) (122, 2.63685341924428939819e-02) (123, 7.47090429067611694336e-02) (124, -2.62897312641143798828e-02) (125, -4.05497848987579345703e-02) (126, -7.61025324463844299316e-02) (127, 5.97980432212352752686e-02) (128, -3.72043997049331665039e-02) (129, 4.29355502128601074219e-02) (130, -4.33110706508159637451e-02) (131, -1.21448643039911985397e-03) (132, -2.14039478451013565063e-02) (133, -4.67225313186645507812e-02) (134, 9.11662876605987548828e-02) (135, -5.84519170224666595459e-02) (136, 7.57689327001571655273e-02) (137, 5.10208196938037872314e-02) (138, -7.05724135041236877441e-02) (139, -5.25545850396156311035e-02) (140, -6.27081170678138732910e-02) (141, -1.69178424403071403503e-03) (142, -1.61575078964233398438e-02) (143, 2.44206618517637252808e-02) (144, -7.72706940770149230957e-02) (145, 4.96237538754940032959e-02) (146, 3.31772714853286743164e-02) (147, -5.00838495790958404541e-02) (148, -3.03297173231840133667e-02) (149, -6.64948821067810058594e-02) (150, 1.17367321777343750000e+03) (0, -1.45144062500000000000e+05) (1, -1.97568320312500000000e+04) (2, -1.54364859375000000000e+05) (3, -1.00900835937500000000e+05) (4, -1.45807156250000000000e+05) (5, -3.93960039062500000000e+04) (6, -1.25923929687500000000e+05) (7, -1.43217968750000000000e+04) (8, -5.94008007812500000000e+04) (9, 6.61567890625000000000e+04) (10, -8.28975000000000000000e+04) (11, 1.88235484375000000000e+05) (12, -3.99619335937500000000e+04) (13, 3.07949531250000000000e+05) (14, -6.23594921875000000000e+04) (15, 3.89970531250000000000e+05) (16, -1.76980890625000000000e+05) (17, 4.77108093750000000000e+05) (18, -2.14778296875000000000e+05) (19, 3.97674875000000000000e+05) (20, -1.93419875000000000000e+05) (21, 3.26571250000000000000e+05) (22, -2.19832609375000000000e+05) (23, 1.97671093750000000000e+05) (24, -3.84725406250000000000e+05) (25, 5.12032265625000000000e+04) (26, -2.24453796875000000000e+05) (27, -6.53766875000000000000e+04) (28, -4.38971687500000000000e+05) (29, 3.04583218750000000000e+05) (30, -1.26200507812500000000e+05) (31, 4.54272281250000000000e+05) (32, -2.04321523437500000000e+04) (33, 6.12790562500000000000e+05) (34, -1.65732187500000000000e+05) (35, 4.61798218750000000000e+05) (36, -1.75389421875000000000e+05) (37, 4.60537875000000000000e+05) (38, -3.16263750000000000000e+04) (39, 3.64183875000000000000e+05) (40, -1.25417648437500000000e+05) (41, 1.29812851562500000000e+05) (42, -1.33770703125000000000e+05) (43, -1.12767281250000000000e+05) (44, 1.66442906250000000000e+05) (45, -1.55194484375000000000e+05) (46, 1.98889140625000000000e+05) (47, -6.30688750000000000000e+04) (48, 8.22710937500000000000e+04) (49, -4.49290429687500000000e+04) (50, 1.06495734375000000000e+05) (51, 1.25874316406250000000e+04) (52, 1.49597562500000000000e+05) (53, -2.05126679687500000000e+04) (54, -1.16233408203125000000e+04) (55, 1.07820656250000000000e+05) (56, 1.68540937500000000000e+04) (57, 7.37927578125000000000e+04) (58, -1.92905000000000000000e+04) (59, 1.00967312500000000000e+05) (60, 6.95183500647544860840e-02) (61, -2.58342269808053970337e-02) (62, -6.58646002411842346191e-02) (63, 1.05697261169552803040e-02) (64, 3.36761735379695892334e-02) (65, -2.14339146623387932777e-04) (66, -2.04196851700544357300e-02) (67, 4.78258579969406127930e-02) (68, -2.52422597259283065796e-03) (69, -6.36518523097038269043e-02) (70, 7.94104263186454772949e-02) (71, 7.01412931084632873535e-02) (72, -6.24378286302089691162e-02) (73, 2.72153876721858978271e-02) (74, 9.63782593607902526855e-02) (75, 3.64998430013656616211e-02) (76, 8.24070349335670471191e-02) (77, -8.22652354836463928223e-02) (78, 8.93009733408689498901e-03) (79, -3.99381993338465690613e-03) (80, -3.63615937530994415283e-02) (81, -9.77016463875770568848e-02) (82, 5.30471559613943099976e-03) (83, -6.76026120781898498535e-02) (84, 4.47102182079106569290e-04) (85, 3.47233004868030548096e-02) (86, 4.67410273849964141846e-02) (87, 5.30000999569892883301e-02) (88, 1.74392051994800567627e-02) (89, -4.34145368635654449463e-02) (90, -7.03723728656768798828e-02) (91, -1.30424508824944496155e-02) (92, 3.07512395083904266357e-02) (93, -3.62369716167449951172e-02) (94, 9.75272729992866516113e-02) (95, -3.55725884437561035156e-02) (96, 6.35486915707588195801e-02) (97, -2.28924099355936050415e-02) (98, -8.77467319369316101074e-02) (99, -3.89755368232727050781e-02) (100, 1.34557420387864112854e-02) (101, 9.16636884212493896484e-02) (102, -6.88342452049255371094e-02) (103, 5.10179139673709869385e-02) (104, 1.88790764659643173218e-02) (105, -7.24559873342514038086e-02) (106, -1.24822435900568962097e-02) (107, 1.28610944375395774841e-03) (108, -5.47212176024913787842e-02) (109, 9.64478552341461181641e-02) (110, 9.72922891378402709961e-02) (111, 8.91719292849302291870e-03) (112, 9.87462103366851806641e-02) (113, 2.59700533933937549591e-03) (114, 4.13145832717418670654e-02) (115, -8.06691125035285949707e-04) (116, -6.26796931028366088867e-02) (117, -1.19443899020552635193e-02) (118, -4.78065907955169677734e-02) (119, 5.47595098614692687988e-02) (120, 4.46410775184631347656e-02) (121, -1.81789640337228775024e-02) (122, -5.82829415798187255859e-02) (123, -2.46076863259077072144e-02) (124, 4.55840677022933959961e-02) (125, -6.07556663453578948975e-02) (126, 3.98197285830974578857e-02) (127, 9.13275685161352157593e-03) (128, 1.63519233465194702148e-02) (129, 5.20729944109916687012e-02) (130, 7.01572224497795104980e-02) (131, -7.01923370361328125000e-02) (132, 4.37366850674152374268e-02) (133, -9.86770242452621459961e-02) (134, 8.08255821466445922852e-02) (135, -3.73842380940914154053e-02) (136, -7.11330100893974304199e-02) (137, -3.16566638648509979248e-02) (138, 6.39018714427947998047e-02) (139, -2.58542243391275405884e-02) (140, -3.52088101208209991455e-02) (141, 6.11941628158092498779e-02) (142, 8.30629691481590270996e-02) (143, -3.64626049995422363281e-02) (144, -3.62088344991207122803e-02) (145, 2.43775546550750732422e-02) (146, 6.27307072281837463379e-02) (147, 1.11147132702171802521e-03) (148, -8.75668376684188842773e-02) (149, -8.50758850574493408203e-02) (150, -4.14324890136718750000e+02) (0, -1.32165531250000000000e+05) (1, 4.86674437500000000000e+05) (2, -1.62215390625000000000e+05) (3, 2.19595687500000000000e+05) (4, -1.50868703125000000000e+05) (5, -3.35345937500000000000e+04) (6, -4.97581953125000000000e+04) (7, -1.43133359375000000000e+05) (8, 7.32991250000000000000e+04) (9, -2.53244140625000000000e+05) (10, 7.57467578125000000000e+04) (11, -2.56663953125000000000e+05) (12, 1.25976765625000000000e+05) (13, -1.49743437500000000000e+05) (14, 1.38045687500000000000e+05) (15, 6.24455224609375000000e+03) (16, 1.10328226562500000000e+05) (17, 2.55996671875000000000e+05) (18, 1.06006664062500000000e+05) (19, 3.71440500000000000000e+05) (20, 6.57592031250000000000e+04) (21, 4.95568343750000000000e+05) (22, -6.57736015625000000000e+04) (23, 4.74366250000000000000e+05) (24, -1.70913937500000000000e+05) (25, 3.15696562500000000000e+05) (26, -1.36355921875000000000e+05) (27, -1.83157597656250000000e+04) (28, -4.27198406250000000000e+05) (29, 7.62240234375000000000e+04) (30, -3.51904687500000000000e+04) (31, 1.55407406250000000000e+05) (32, -4.51726806640625000000e+03) (33, 4.22888187500000000000e+05) (34, -4.55410250000000000000e+05) (35, 4.02671875000000000000e+05) (36, -2.99355062500000000000e+05) (37, 3.88124656250000000000e+05) (38, -3.03788625000000000000e+05) (39, 5.24632687500000000000e+05) (40, -4.35490843750000000000e+05) (41, 1.19773476562500000000e+05) (42, -3.60496375000000000000e+05) (43, -6.98491640625000000000e+04) (44, -1.93103093750000000000e+05) (45, -2.69004125000000000000e+05) (46, -6.98975625000000000000e+04) (47, -9.70350468750000000000e+04) (48, -1.30012359375000000000e+05) (49, 8.30576875000000000000e+04) (50, -1.05331460937500000000e+05) (51, 1.57981156250000000000e+05) (52, -1.13489101562500000000e+05) (53, 2.22359671875000000000e+05) (54, 9.76179394531250000000e+03) (55, 1.79370906250000000000e+05) (56, -1.22417243957519531250e+02) (57, 9.17897167968750000000e+03) (58, -1.67030253906250000000e+04) (59, 8.74243984375000000000e+04) (60, 6.19624517858028411865e-02) (61, 9.81346815824508666992e-02) (62, 4.21509630978107452393e-02) (63, -3.14811780117452144623e-03) (64, 7.23040923476219177246e-02) (65, -2.24796161055564880371e-02) (66, -2.59294714778661727905e-02) (67, -1.66941247880458831787e-02) (68, 8.51760879158973693848e-02) (69, -9.72488522529602050781e-02) (70, -5.25080412626266479492e-02) (71, -8.28089341521263122559e-02) (72, -4.69490364193916320801e-02) (73, -5.32999262213706970215e-03) (74, 1.73019990324974060059e-02) (75, -7.37070441246032714844e-02) (76, -9.43344011902809143066e-02) (77, 4.81246560811996459961e-02) (78, 5.13441078364849090576e-02) (79, -5.11779300868511199951e-02) (80, -2.64390949159860610962e-02) (81, 2.35019787214696407318e-03) (82, -1.10693927854299545288e-02) (83, -4.51950952410697937012e-02) (84, -3.76258008182048797607e-02) (85, 8.95286127924919128418e-02) (86, 5.56478276848793029785e-02) (87, 5.57936690747737884521e-02) (88, 1.33467800915241241455e-02) (89, -2.27988660335540771484e-02) (90, 9.50417667627334594727e-02) (91, -2.46907696127891540527e-02) (92, -2.46641859412193298340e-02) (93, 3.71927283704280853271e-02) (94, 7.21611157059669494629e-02) (95, -5.23600950837135314941e-02) (96, -8.52868929505348205566e-02) (97, -5.37683591246604919434e-02) (98, 3.09457797557115554810e-02) (99, 9.98891964554786682129e-02) (100, -5.10172098875045776367e-02) (101, 7.84377381205558776855e-02) (102, -8.29197391867637634277e-02) (103, 2.03375844284892082214e-03) (104, -2.68922541290521621704e-02) (105, 3.43822613358497619629e-02) (106, 2.83267125487327575684e-02) (107, -2.12266538292169570923e-02) (108, -1.74930840730667114258e-02) (109, -2.03291829675436019897e-02) (110, 2.75954157114028930664e-02) (111, 5.60678243637084960938e-02) (112, 8.20210129022598266602e-02) (113, -8.34739804267883300781e-02) (114, -8.91272723674774169922e-02) (115, -5.56047856807708740234e-02) (116, -9.39453691244125366211e-02) (117, 6.65205568075180053711e-02) (118, -9.98111143708229064941e-02) (119, 1.94014124572277069092e-02) (120, -5.62783144414424896240e-02) (121, 9.52306464314460754395e-02) (122, 9.47106406092643737793e-02) (123, 1.90575011074542999268e-02) (124, 3.24233733117580413818e-02) (125, 6.68717548251152038574e-02) (126, 6.66974037885665893555e-02) (127, 4.71364855766296386719e-02) (128, -8.68966057896614074707e-02) (129, -2.35681375488638877869e-03) (130, 4.70256842672824859619e-02) (131, -3.79138104617595672607e-02) (132, -2.39190738648176193237e-02) (133, 6.41059428453445434570e-02) (134, 6.41199499368667602539e-02) (135, 4.91886734962463378906e-02) (136, -1.51179521344602108002e-03) (137, -7.55333853885531425476e-03) (138, -7.20379799604415893555e-02) (139, 8.09951201081275939941e-02) (140, 7.21174776554107666016e-02) (141, 5.55574335157871246338e-02) (142, 3.70629429817199707031e-02) (143, 5.41384965181350708008e-02) (144, 7.20834583044052124023e-02) (145, 4.79356721043586730957e-02) (146, 9.85337123274803161621e-02) (147, 7.81380906701087951660e-02) (148, 1.44562246277928352356e-02) (149, 9.87225994467735290527e-02) (150, -1.95197949218750000000e+03) (0, 1.59016203125000000000e+05) (1, 4.88675062500000000000e+05) (2, 9.94388437500000000000e+04) (3, 2.95369062500000000000e+05) (4, 8.59536718750000000000e+03) (5, 1.34405906250000000000e+05) (6, -1.46342968750000000000e+04) (7, -2.94325214843750000000e+04) (8, 3.12463037109375000000e+03) (9, -2.01329500000000000000e+05) (10, -7.04540468750000000000e+04) (11, -3.18268875000000000000e+05) (12, 2.30412441406250000000e+04) (13, -3.40049250000000000000e+05) (14, 9.93147578125000000000e+04) (15, -3.24888500000000000000e+05) (16, 6.26932890625000000000e+04) (17, -1.70668562500000000000e+05) (18, 5.64145000000000000000e+04) (19, -8.73632656250000000000e+04) (20, 1.04634421875000000000e+05) (21, -6.16115039062500000000e+03) (22, 4.64468359375000000000e+04) (23, 1.52544203125000000000e+05) (24, 7.64825703125000000000e+04) (25, 1.82599468750000000000e+05) (26, 1.00947835937500000000e+05) (27, 1.65540273437500000000e+04) (28, 1.67635906250000000000e+05) (29, -4.20045859375000000000e+04) (30, 1.38438468750000000000e+05) (31, -8.42146171875000000000e+04) (32, 2.33008406250000000000e+05) (33, 1.55993484375000000000e+05) (34, -4.92401601562500000000e+04) (35, -3.66713085937500000000e+04) (36, -6.76754765625000000000e+04) (37, -2.12695859375000000000e+04) (38, 1.30884335937500000000e+05) (39, 1.59233500000000000000e+05) (40, 1.83696000000000000000e+05) (41, 1.10273710937500000000e+05) (42, 1.86549046875000000000e+05) (43, -4.22818906250000000000e+05) (44, 2.00251203125000000000e+05) (45, -4.62709250000000000000e+05) (46, 1.82070359375000000000e+05) (47, -5.92066000000000000000e+05) (48, -6.54460937500000000000e+04) (49, -5.35452812500000000000e+05) (50, 6.26968593750000000000e+04) (51, -3.95644625000000000000e+05) (52, 4.19532773437500000000e+04) (53, -2.23430531250000000000e+05) (54, -3.82860156250000000000e+03) (55, -8.19505234375000000000e+04) (56, -1.39704418945312500000e+03) (57, 6.46914882812500000000e+04) (58, -1.36202226562500000000e+04) (59, 7.12884765625000000000e+04) (60, 5.55322878062725067139e-02) (61, -6.46585151553153991699e-02) (62, -3.66079783998429775238e-03) (63, -3.61240915954113006592e-02) (64, 2.57177297025918960571e-02) (65, 9.53354239463806152344e-02) (66, -1.40385515987873077393e-03) (67, -2.47841235250234603882e-02) (68, 3.82644645869731903076e-02) (69, -9.31705161929130554199e-02) (70, -3.06067825295031070709e-03) (71, -7.72304907441139221191e-02) (72, 3.56016047298908233643e-02) (73, -4.70257438719272613525e-02) (74, 2.49314885586500167847e-02) (75, -5.09815514087677001953e-02) (76, 7.44062988087534904480e-03) (77, 9.39390733838081359863e-02) (78, -5.44317699968814849854e-02) (79, 5.27851060032844543457e-02) (80, -4.22457233071327209473e-02) (81, 6.24606525525450706482e-03) (82, 6.11251592636108398438e-02) (83, -2.80654579401016235352e-02) (84, 6.81148990988731384277e-02) (85, -1.34007167071104049683e-02) (86, -9.14366841316223144531e-02) (87, 7.91103988885879516602e-02) (88, 2.77411937713623046875e-02) (89, -5.42213022708892822266e-02) (90, -4.63112071156501770020e-02) (91, -1.67265180498361587524e-02) (92, -1.88798196613788604736e-02) (93, 5.00279963016510009766e-02) (94, 4.71493899822235107422e-02) (95, -9.31620895862579345703e-02) (96, 4.53634187579154968262e-02) (97, -5.42544648051261901855e-02) (98, -1.79462134838104248047e-02) (99, -1.63721181452274322510e-02) (100, -4.74249832332134246826e-02) (101, 7.89931118488311767578e-02) (102, 6.39739260077476501465e-03) (103, 8.81766229867935180664e-02) (104, -6.80326372385025024414e-02) (105, -6.86711221933364868164e-02) (106, -6.28049299120903015137e-02) (107, 3.94079945981502532959e-02) (108, -7.47320502996444702148e-02) (109, -1.72366984188556671143e-02) (110, -7.80690135434269905090e-03) (111, -1.69777683913707733154e-02) (112, 8.90093669295310974121e-02) (113, -4.66817431151866912842e-02) (114, 5.49567751586437225342e-02) (115, 5.71242645382881164551e-02) (116, 3.99175398051738739014e-02) (117, 6.35200962424278259277e-02) (118, 3.62346619367599487305e-02) (119, -3.23412679135799407959e-02) (120, -9.07012075185775756836e-02) (121, 8.99234563112258911133e-02) (122, 5.09322136640548706055e-02) (123, -9.58102848380804061890e-03) (124, 3.99514548480510711670e-02) (125, -1.91839633043855428696e-03) (126, -2.74311797693371772766e-03) (127, -1.46851260215044021606e-02) (128, 4.38271388411521911621e-02) (129, 7.93106704950332641602e-02) (130, 6.89427554607391357422e-02) (131, 9.64021533727645874023e-02) (132, 5.83037771284580230713e-02) (133, -2.46598497033119201660e-02) (134, 8.45787748694419860840e-02) (135, 9.02711451053619384766e-02) (136, 6.66903099045157432556e-03) (137, -7.82261565327644348145e-02) (138, 2.96791382133960723877e-02) (139, 3.19369845092296600342e-02) (140, 4.53714607283473014832e-03) (141, -7.81277641654014587402e-02) (142, -8.50407853722572326660e-02) (143, -6.45348802208900451660e-03) (144, -2.48095076531171798706e-02) (145, 6.99159875512123107910e-02) (146, -4.93292249739170074463e-02) (147, -8.48919674754142761230e-02) (148, 3.34360823035240173340e-02) (149, 8.69054421782493591309e-02) (150, 3.71104339599609375000e+02) (0, 6.46562773437500000000e+04) (1, -4.16436906250000000000e+05) (2, 9.90188515625000000000e+04) (3, -2.43862703125000000000e+05) (4, 2.52916289062500000000e+04) (5, -1.50449031250000000000e+05) (6, -7.46531953125000000000e+04) (7, -4.47170468750000000000e+04) (8, -2.14023031250000000000e+05) (9, 1.41933953125000000000e+05) (10, -2.18483515625000000000e+05) (11, 2.69434468750000000000e+05) (12, -2.35725687500000000000e+05) (13, 2.86402593750000000000e+05) (14, -1.98763359375000000000e+05) (15, 2.68915750000000000000e+05) (16, -1.41458562500000000000e+05) (17, 5.33546445312500000000e+04) (18, -1.06646281250000000000e+05) (19, -9.53100625000000000000e+04) (20, 3.79744335937500000000e+04) (21, 2.46246074218750000000e+04) (22, 4.99614296875000000000e+04) (23, -1.90253593750000000000e+04) (24, 1.86493390625000000000e+05) (25, -1.94204375000000000000e+05) (26, 1.31387859375000000000e+05) (27, -5.27887187500000000000e+04) (28, -3.06168000000000000000e+05) (29, 3.87693906250000000000e+04) (30, -3.33601914062500000000e+04) (31, -8.08951328125000000000e+04) (32, -1.54470312500000000000e+05) (33, 1.68003671875000000000e+05) (34, 1.19160968750000000000e+05) (35, -3.31122812500000000000e+04) (36, -2.09563890625000000000e+05) (37, 3.35254156250000000000e+05) (38, -3.10772675781250000000e+04) (39, 8.66813437500000000000e+04) (40, 1.53670156250000000000e+05) (41, 3.90412218750000000000e+05) (42, 1.56473562500000000000e+05) (43, 5.37596187500000000000e+05) (44, 9.15468515625000000000e+04) (45, 5.45030125000000000000e+05) (46, 1.30491242187500000000e+05) (47, 4.69038125000000000000e+05) (48, 2.37469593750000000000e+05) (49, 3.42688312500000000000e+05) (50, 8.30526406250000000000e+04) (51, 3.44967687500000000000e+05) (52, 1.35355812500000000000e+05) (53, 4.31586406250000000000e+05) (54, 4.34762744140625000000e+03) (55, 1.77205093750000000000e+05) (56, -2.32268867187500000000e+04) (57, -5.77703750000000000000e+04) (58, 1.56128681640625000000e+04) (59, -8.17183281250000000000e+04) (60, 3.14463786780834197998e-02) (61, 1.15583157166838645935e-02) (62, 8.43027159571647644043e-02) (63, -7.77023658156394958496e-02) (64, 2.81702782958745956421e-02) (65, 6.34868741035461425781e-02) (66, -7.00707510113716125488e-02) (67, -2.34371777623891830444e-02) (68, -2.69182436168193817139e-02) (69, -6.03439137339591979980e-02) (70, 5.63087232876569032669e-04) (71, -7.60196195915341377258e-03) (72, -7.95791000127792358398e-02) (73, 9.65732261538505554199e-02) (74, 7.97394961118698120117e-02) (75, -5.24361468851566314697e-02) (76, 4.91720177233219146729e-02) (77, 2.53772679716348648071e-02) (78, -7.22460374236106872559e-02) (79, 8.01333039999008178711e-02) (80, -4.10095006227493286133e-02) (81, -7.07177864387631416321e-03) (82, 9.39942374825477600098e-02) (83, -9.75485742092132568359e-02) (84, -4.19541597366333007812e-02) (85, -1.56986843794584274292e-02) (86, -6.90494626760482788086e-02) (87, -6.97718653827905654907e-03) (88, 1.72532605938613414764e-03) (89, 5.95958679914474487305e-02) (90, 3.12952212989330291748e-02) (91, -6.68282955884933471680e-02) (92, -2.88458168506622314453e-02) (93, 1.55979394912719726562e-02) (94, -4.45306599140167236328e-02) (95, 9.93244647979736328125e-02) (96, -2.09151878952980041504e-02) (97, -1.46014075726270675659e-02) (98, -2.41127163171768188477e-02) (99, 5.21665699779987335205e-02) (100, 2.50546783208847045898e-02) (101, 7.64503702521324157715e-02) (102, -5.54353930056095123291e-02) (103, 4.54755835235118865967e-02) (104, 7.30236023664474487305e-02) (105, -7.56959021091461181641e-02) (106, 9.30394381284713745117e-02) (107, 2.21956167370080947876e-02) (108, 4.96813692152500152588e-02) (109, -7.92066007852554321289e-02) (110, 2.32892250642180442810e-03) (111, -9.13281291723251342773e-02) (112, 1.37216188013553619385e-02) (113, -3.67684382945299148560e-03) (114, -8.88767093420028686523e-02) (115, 7.17674642801284790039e-02) (116, 8.06244760751724243164e-02) (117, -5.79261705279350280762e-02) (118, -3.52097265422344207764e-02) (119, -1.76502019166946411133e-02) (120, -9.83303040266036987305e-02) (121, 9.60854962468147277832e-02) (122, 1.55215011909604072571e-02) (123, -2.71761212497949600220e-02) (124, 1.16834342479705810547e-02) (125, 7.09908455610275268555e-02) (126, -2.78516598045825958252e-02) (127, 9.07682478427886962891e-02) (128, -4.36105653643608093262e-02) (129, 4.80356253683567047119e-02) (130, 4.29348163306713104248e-02) (131, 8.14441144466400146484e-02) (132, 2.44859941303730010986e-02) (133, 8.74994248151779174805e-02) (134, 2.69196946173906326294e-02) (135, -2.49040732160210609436e-03) (136, -8.81964713335037231445e-02) (137, 1.99591293931007385254e-02) (138, -8.02947878837585449219e-02) (139, 6.14848993718624114990e-02) (140, 4.07525263726711273193e-02) (141, 2.20341328531503677368e-02) (142, 7.01567679643630981445e-02) (143, -4.55258563160896301270e-02) (144, -8.16427096724510192871e-02) (145, 8.12800601124763488770e-02) (146, -7.37583935260772705078e-02) (147, 9.89817604422569274902e-02) (148, -7.66461119055747985840e-02) (149, -8.96812230348587036133e-03) (150, 4.86121337890625000000e+02) (0, 2.41076445312500000000e+04) (1, -3.36771468750000000000e+05) (2, 1.02256992187500000000e+05) (3, -9.56630078125000000000e+04) (4, 3.27511035156250000000e+04) (5, 1.45540078125000000000e+05) (6, -5.03188710937500000000e+04) (7, 1.92795968750000000000e+05) (8, -8.54276406250000000000e+04) (9, 2.68133562500000000000e+05) (10, -8.73135078125000000000e+04) (11, 3.19488218750000000000e+05) (12, 8.31286425781250000000e+03) (13, 3.20663625000000000000e+05) (14, -3.33296757812500000000e+04) (15, 2.67223593750000000000e+05) (16, -6.28675488281250000000e+03) (17, 1.41113843750000000000e+05) (18, 3.47565742187500000000e+04) (19, 1.57239031250000000000e+05) (20, -1.21304257812500000000e+05) (21, 2.37659203125000000000e+05) (22, -1.57268281250000000000e+05) (23, 4.81646156250000000000e+05) (24, -2.96887406250000000000e+05) (25, 8.27490125000000000000e+05) (26, 1.59681015625000000000e+05) (27, 7.17552812500000000000e+04) (28, -6.21466687500000000000e+05) (29, 1.02038273437500000000e+05) (30, -6.91097937500000000000e+05) (31, 3.81207781250000000000e+05) (32, -7.09427187500000000000e+05) (33, 4.37918250000000000000e+05) (34, -1.42743609375000000000e+05) (35, 4.86343945312500000000e+03) (36, 1.84680703125000000000e+04) (37, 3.37211156250000000000e+05) (38, -2.53131859375000000000e+05) (39, 1.61466152343750000000e+04) (40, -2.86010031250000000000e+05) (41, 2.01330750000000000000e+05) (42, -2.30923703125000000000e+05) (43, 8.78572875000000000000e+05) (44, -9.44268281250000000000e+04) (45, 9.17307750000000000000e+05) (46, -9.72264648437500000000e+03) (47, 1.09072837500000000000e+06) (48, 2.47741031250000000000e+05) (49, 1.22957850000000000000e+06) (50, -5.90541640625000000000e+04) (51, 9.91157000000000000000e+05) (52, -7.43490312500000000000e+04) (53, 8.60223500000000000000e+05) (54, -2.03557929687500000000e+04) (55, 6.81476062500000000000e+05) (56, 4.06192187500000000000e+04) (57, 5.03900937500000000000e+04) (58, 1.53412695312500000000e+04) (59, -8.02968593750000000000e+04) (60, -5.96291422843933105469e-02) (61, -1.73102151602506637573e-02) (62, 8.75148996710777282715e-02) (63, -7.45533825829625129700e-03) (64, -4.00201901793479919434e-02) (65, 7.84683898091316223145e-02) (66, 4.35192734003067016602e-02) (67, -9.48862656950950622559e-02) (68, 3.94176915287971496582e-02) (69, 8.40629339218139648438e-02) (70, 7.44810029864311218262e-02) (71, -8.16015824675559997559e-02) (72, 5.71104735136032104492e-02) (73, 4.95257154107093811035e-02) (74, 3.98965775966644287109e-02) (75, -4.98386919498443603516e-02) (76, -4.28324267268180847168e-02) (77, -9.85782518982887268066e-02) (78, -2.49810274690389633179e-02) (79, -8.26342925429344177246e-02) (80, -7.73208513855934143066e-02) (81, 9.31683629751205444336e-02) (82, 7.08726495504379272461e-02) (83, 2.57029104977846145630e-02) (84, 7.47662410140037536621e-02) (85, 7.21625313162803649902e-02) (86, 2.88503207266330718994e-02) (87, -9.89073365926742553711e-02) (88, -5.25230430066585540771e-02) (89, -6.88968598842620849609e-02) (90, -4.49846265837550163269e-03) (91, -1.21521819382905960083e-02) (92, 1.37929217889904975891e-02) (93, -1.69835649430751800537e-02) (94, 8.03924798965454101562e-02) (95, 7.37727358937263488770e-02) (96, -3.85151728987693786621e-02) (97, 2.39117518067359924316e-02) (98, 7.88864716887474060059e-02) (99, -9.90974828600883483887e-02) (100, 7.97468889504671096802e-03) (101, 5.33674694597721099854e-02) (102, -8.06990638375282287598e-02) (103, -3.49148400127887725830e-02) (104, 2.89318105205893516541e-03) (105, 5.91975152492523193359e-02) (106, 1.52464723214507102966e-02) (107, 6.00607581436634063721e-02) (108, 6.06192648410797119141e-02) (109, 9.02654454112052917480e-02) (110, 7.74264633655548095703e-02) (111, 8.32984149456024169922e-02) (112, 8.34338068962097167969e-02) (113, 4.82991114258766174316e-02) (114, 9.00132581591606140137e-03) (115, 5.82000426948070526123e-02) (116, 2.04616375267505645752e-02) (117, -6.21483549475669860840e-02) (118, 5.92927075922489166260e-02) (119, 6.79385960102081298828e-02) (120, -3.10452170670032501221e-02) (121, -4.52057570219039916992e-02) (122, -4.42135855555534362793e-02) (123, 8.27477052807807922363e-02) (124, 3.78106795251369476318e-02) (125, -6.38211071491241455078e-02) (126, 5.65204396843910217285e-02) (127, 9.92955043911933898926e-02) (128, 6.00906461477279663086e-02) (129, 3.54069061577320098877e-02) (130, -9.98019799590110778809e-02) (131, -3.19346636533737182617e-02) (132, -1.12256286665797233582e-02) (133, -8.05010348558425903320e-02) (134, 3.31504978239536285400e-02) (135, 9.16675552725791931152e-02) (136, 7.86964818835258483887e-02) (137, -5.16030304133892059326e-02) (138, 5.17283082008361816406e-02) (139, 3.93157452344894409180e-02) (140, -6.13375864923000335693e-02) (141, 2.91547738015651702881e-02) (142, 2.26141586899757385254e-02) (143, -7.79037848114967346191e-02) (144, -2.25461162626743316650e-02) (145, -6.83845132589340209961e-02) (146, 8.02962556481361389160e-02) (147, 9.79155227541923522949e-02) (148, -3.05328685790300369263e-02) (149, 3.95889654755592346191e-02) (150, 1.19020214843750000000e+03) (0, -1.85086734375000000000e+05) (1, -6.62963500000000000000e+05) (2, -1.26649632812500000000e+05) (3, -5.42784375000000000000e+05) (4, -2.52740507812500000000e+04) (5, -2.66770437500000000000e+05) (6, -2.80762675781250000000e+04) (7, -1.20284234375000000000e+05) (8, -4.50030859375000000000e+04) (9, 8.86687968750000000000e+04) (10, 6.50240673828125000000e+03) (11, 2.78679250000000000000e+05) (12, 3.42959765625000000000e+04) (13, 4.07936156250000000000e+05) (14, 2.46379804687500000000e+04) (15, 4.17563375000000000000e+05) (16, 3.14527500000000000000e+04) (17, 3.12259125000000000000e+05) (18, 5.18289492187500000000e+04) (19, 1.74967375000000000000e+05) (20, 1.31838017578125000000e+04) (21, 2.81750136718750000000e+04) (22, 9.63051250000000000000e+04) (23, -8.06753515625000000000e+04) (24, 1.11453466796875000000e+04) (25, -1.20284578125000000000e+05) (26, -3.07819062500000000000e+04) (27, -1.33513906250000000000e+05) (28, -1.08362492187500000000e+05) (29, -2.58674414062500000000e+04) (30, -6.32602343750000000000e+04) (31, 2.02459921875000000000e+05) (32, -1.34925203125000000000e+05) (33, 1.73607125000000000000e+05) (34, 9.45658020019531250000e+02) (35, 1.37851625000000000000e+05) (36, -1.26803875000000000000e+05) (37, 1.60333765625000000000e+05) (38, -1.89008203125000000000e+05) (39, -1.47459156250000000000e+05) (40, -3.04450718750000000000e+05) (41, -2.23668031250000000000e+05) (42, -3.03391125000000000000e+05) (43, 3.83135375000000000000e+05) (44, -4.41314843750000000000e+05) (45, 3.88941781250000000000e+05) (46, -4.15695093750000000000e+05) (47, 4.62591593750000000000e+05) (48, -1.77306859375000000000e+05) (49, 3.80985906250000000000e+05) (50, -2.40499203125000000000e+05) (51, 2.82312625000000000000e+05) (52, -1.97315593750000000000e+05) (53, 1.15004007812500000000e+05) (54, 1.11121679687500000000e+04) (55, 1.34981343750000000000e+05) (56, -3.40604492187500000000e+04) (57, -7.57003046875000000000e+04) (58, 9.03446191406250000000e+03) (59, -4.72864492187500000000e+04) (60, -2.31490023434162139893e-02) (61, 7.56860375404357910156e-02) (62, 2.76421904563903808594e-02) (63, 1.94009374827146530151e-02) (64, -8.70279446244239807129e-02) (65, -1.98708940297365188599e-02) (66, -5.85523340851068496704e-03) (67, 8.07749759405851364136e-03) (68, 1.03060835972428321838e-02) (69, -9.96220111846923828125e-02) (70, -7.89069831371307373047e-02) (71, 5.35800233483314514160e-02) (72, -6.17013648152351379395e-02) (73, -7.99160599708557128906e-02) (74, -1.27470225561410188675e-03) (75, -7.25943371653556823730e-02) (76, -6.17992319166660308838e-02) (77, 3.74094583094120025635e-02) (78, 4.63955551385879516602e-02) (79, 2.38404739648103713989e-02) (80, -7.86391869187355041504e-02) (81, 3.45840491354465484619e-02) (82, 1.56654696911573410034e-02) (83, -2.02658623456954956055e-02) (84, 1.45853115245699882507e-02) (85, -6.42280280590057373047e-02) (86, 8.99833142757415771484e-02) (87, 1.80148221552371978760e-02) (88, -3.55437621474266052246e-02) (89, 5.00238612294197082520e-02) (90, -8.56602862477302551270e-02) (91, 4.13072369992733001709e-02) (92, 2.57098954170942306519e-02) (93, 4.19819056987762451172e-02) (94, -3.92918251454830169678e-02) (95, 3.86819504201412200928e-02) (96, -7.78889879584312438965e-02) (97, 5.48529438674449920654e-02) (98, -5.32405525445938110352e-02) (99, 3.24170961976051330566e-02) (100, 5.52309341728687286377e-02) (101, -3.21475379168987274170e-02) (102, -1.40028810128569602966e-02) (103, 9.35295745730400085449e-02) (104, -1.20636001229286193848e-02) (105, 8.47224146127700805664e-02) (106, -7.90647640824317932129e-02) (107, 2.61371694505214691162e-02) (108, 2.21318751573562622070e-02) (109, 6.73307925462722778320e-02) (110, -5.00223562121391296387e-02) (111, 4.34926897287368774414e-02) (112, 1.91483867820352315903e-03) (113, 6.56431093811988830566e-02) (114, -7.67731741070747375488e-02) (115, -8.34998488426208496094e-02) (116, -9.85849201679229736328e-02) (117, -8.67898613214492797852e-02) (118, 3.45149710774421691895e-02) (119, -3.41286770999431610107e-02) (120, 6.32340013980865478516e-02) (121, 4.88546863198280334473e-02) (122, -9.28214415907859802246e-02) (123, -1.10561037436127662659e-02) (124, -9.16340947151184082031e-03) (125, -3.21132652461528778076e-02) (126, -7.23741576075553894043e-02) (127, 1.29476021975278854370e-02) (128, -7.72603228688240051270e-02) (129, -2.56147086620330810547e-02) (130, -5.46353049576282501221e-02) (131, 7.79706165194511413574e-02) (132, 4.22377549111843109131e-02) (133, 3.13618183135986328125e-02) (134, 7.15001821517944335938e-02) (135, -6.98258504271507263184e-02) (136, 1.60842332988977432251e-02) (137, 9.24354195594787597656e-02) (138, 5.63113242387771606445e-02) (139, -6.17838911712169647217e-02) (140, 5.97662068903446197510e-02) (141, -9.37110334634780883789e-02) (142, 8.17087963223457336426e-02) (143, -3.83189581334590911865e-02) (144, 7.19320774078369140625e-02) (145, -9.50643718242645263672e-02) (146, -2.18188073486089706421e-02) (147, 7.33471587300300598145e-02) (148, -8.18542316555976867676e-02) (149, -8.73038321733474731445e-02) (150, -2.31568542480468750000e+02) (0, -9.89734250000000000000e+05) (1, 1.70540362500000000000e+06) (2, -9.56042062500000000000e+05) (3, 1.07980037500000000000e+06) (4, -4.58667250000000000000e+05) (5, 3.61527593750000000000e+05) (6, -9.98121796875000000000e+04) (7, -2.13077140625000000000e+05) (8, 3.60845968750000000000e+05) (9, -9.08309375000000000000e+05) (10, 5.35477812500000000000e+05) (11, -1.46185925000000000000e+06) (12, 7.96192187500000000000e+05) (13, -1.67616762500000000000e+06) (14, 9.34658875000000000000e+05) (15, -1.62960937500000000000e+06) (16, 1.17417500000000000000e+06) (17, -1.22405650000000000000e+06) (18, 1.26126500000000000000e+06) (19, -8.29691062500000000000e+05) (20, 9.50335062500000000000e+05) (21, -5.73716500000000000000e+05) (22, 9.93935000000000000000e+05) (23, -3.42356343750000000000e+05) (24, 1.05894612500000000000e+06) (25, 1.28392328125000000000e+05) (26, 8.44323984375000000000e+04) (27, -3.00450957031250000000e+04) (28, 5.75771125000000000000e+05) (29, -3.90334843750000000000e+04) (30, 3.09014500000000000000e+05) (31, -5.52326718750000000000e+04) (32, 2.49945671875000000000e+05) (33, -1.96644203125000000000e+05) (34, -3.63742875000000000000e+05) (35, 3.32494384765625000000e+03) (36, -1.36738500000000000000e+05) (37, -4.61549343750000000000e+05) (38, -3.98922718750000000000e+05) (39, -2.23019484375000000000e+05) (40, -1.89308281250000000000e+05) (41, -5.35634312500000000000e+05) (42, -8.29634843750000000000e+04) (43, 1.11281906250000000000e+05) (44, -4.51586625000000000000e+05) (45, -3.91634296875000000000e+04) (46, -2.83702968750000000000e+05) (47, 2.57833578125000000000e+05) (48, -1.55528437500000000000e+05) (49, 4.40472718750000000000e+05) (50, -1.67437796875000000000e+05) (51, 3.72882718750000000000e+05) (52, -1.49710140625000000000e+05) (53, 1.74148703125000000000e+05) (54, 2.79835843750000000000e+05) (55, 1.76852531250000000000e+05) (56, -8.16250830078125000000e+03) (57, 6.86361250000000000000e+04) (58, -7.24967773437500000000e+02) (59, 3.79415014648437500000e+03) (60, 7.88521915674209594727e-02) (61, 1.46141871809959411621e-02) (62, -7.74424001574516296387e-02) (63, 3.16573232412338256836e-02) (64, -4.71440479159355163574e-02) (65, 7.54131376743316650391e-02) (66, 3.68498973548412322998e-02) (67, 5.38150034844875335693e-03) (68, -7.37818256020545959473e-02) (69, 7.37752066925168037415e-03) (70, -5.06949424743652343750e-03) (71, -5.06419800221920013428e-02) (72, -1.13951126113533973694e-02) (73, 9.94735807180404663086e-02) (74, 8.70704278349876403809e-02) (75, -8.81061851978302001953e-02) (76, 9.05109122395515441895e-02) (77, -3.04704643785953521729e-02) (78, 9.33285355567932128906e-02) (79, -3.95220853388309478760e-02) (80, -4.69533167779445648193e-02) (81, -2.88748443126678466797e-02) (82, 6.91407993435859680176e-02) (83, 4.39108312129974365234e-02) (84, -7.30075240135192871094e-02) (85, 7.81805962324142456055e-02) (86, 1.40540571883320808411e-02) (87, -3.41338776051998138428e-02) (88, 6.57785013318061828613e-02) (89, 3.68235222995281219482e-02) (90, -9.41081345081329345703e-02) (91, 4.46306951344013214111e-02) (92, -4.85622920095920562744e-02) (93, -7.15505331754684448242e-02) (94, -2.37119849771261215210e-02) (95, 4.29366156458854675293e-03) (96, -9.61373969912528991699e-02) (97, -8.68620872497558593750e-02) (98, -9.03248414397239685059e-02) (99, -6.99192211031913757324e-02) (100, 2.05154344439506530762e-02) (101, 4.60566719993948936462e-03) (102, -2.05612014979124069214e-02) (103, -9.08796787261962890625e-02) (104, 4.07925015315413475037e-03) (105, -3.34907770156860351562e-02) (106, -7.89858624339103698730e-02) (107, -5.40983583778142929077e-03) (108, 3.60387600958347320557e-02) (109, -8.56573283672332763672e-02) (110, 5.50680831074714660645e-02) (111, 8.90854448080062866211e-02) (112, -1.45321749150753021240e-02) (113, 2.42088753730058670044e-02) (114, 3.29962745308876037598e-02) (115, 1.24603025615215301514e-02) (116, 2.38946801982820034027e-03) (117, -5.29496707022190093994e-02) (118, 7.83264264464378356934e-02) (119, -3.18320281803607940674e-02) (120, 8.38738530874252319336e-02) (121, 8.42182934284210205078e-02) (122, -8.72013345360755920410e-02) (123, -6.46884441375732421875e-02) (124, -8.73322412371635437012e-02) (125, -1.09133198857307434082e-02) (126, 3.96052226424217224121e-02) (127, -8.34696367383003234863e-02) (128, 2.22459412179887294769e-03) (129, 4.92803826928138732910e-02) (130, -5.33888600766658782959e-02) (131, -7.72599726915359497070e-02) (132, -4.61139492690563201904e-02) (133, 2.60499417781829833984e-02) (134, -6.81396499276161193848e-02) (135, 5.79653009772300720215e-02) (136, 9.25591662526130676270e-02) (137, -4.71255145967006683350e-02) (138, -4.74445372819900512695e-02) (139, 2.85979229956865310669e-02) (140, -3.27828451991081237793e-02) (141, -9.23764556646347045898e-02) (142, 1.76833663135766983032e-02) (143, 5.26849813759326934814e-02) (144, 3.18324193358421325684e-02) (145, -4.93203587830066680908e-02) (146, -3.48547175526618957520e-02) (147, -6.57781139016151428223e-02) (148, -2.27002822794020175934e-03) (149, -5.65282925963401794434e-02) (150, -1.30023034667968750000e+03) (0, -2.75133437500000000000e+05) (1, 1.35722312500000000000e+05) (2, -2.90037781250000000000e+05) (3, -2.03615046875000000000e+05) (4, -1.47934031250000000000e+05) (5, -3.97909687500000000000e+05) (6, -3.00940234375000000000e+04) (7, -4.95529875000000000000e+05) (8, 1.01913195800781250000e+03) (9, -5.33246187500000000000e+05) (10, 9.73032734375000000000e+04) (11, -5.13310468750000000000e+05) (12, 5.55119687500000000000e+04) (13, -4.44239781250000000000e+05) (14, 1.11612460937500000000e+05) (15, -3.53568406250000000000e+05) (16, 7.85229531250000000000e+04) (17, -2.63755875000000000000e+05) (18, 5.72840585937500000000e+04) (19, -3.12192375000000000000e+05) (20, 1.80940015625000000000e+05) (21, -5.51193625000000000000e+05) (22, 3.43292531250000000000e+05) (23, -8.69303000000000000000e+05) (24, 3.80621531250000000000e+05) (25, -1.23794412500000000000e+06) (26, 7.80954531250000000000e+04) (27, -2.41182078125000000000e+05) (28, 6.79511000000000000000e+05) (29, -3.27747281250000000000e+05) (30, 9.13588187500000000000e+05) (31, -3.31684406250000000000e+05) (32, 1.27478700000000000000e+06) (33, 4.65571750000000000000e+05) (34, 6.78781625000000000000e+05) (35, 4.35800656250000000000e+05) (36, 4.07737343750000000000e+05) (37, 1.78035000000000000000e+05) (38, 5.35002562500000000000e+05) (39, -8.21864609375000000000e+04) (40, 8.94908312500000000000e+05) (41, -1.59371218750000000000e+05) (42, 7.69992437500000000000e+05) (43, -5.00530531250000000000e+05) (44, 3.61338875000000000000e+05) (45, -5.76345625000000000000e+05) (46, 2.25917546875000000000e+05) (47, -8.11053125000000000000e+05) (48, -7.02750078125000000000e+04) (49, -1.01815593750000000000e+06) (50, 4.04146281250000000000e+05) (51, -3.81657750000000000000e+05) (52, 1.27393460937500000000e+05) (53, -3.81539812500000000000e+05) (54, -4.06380468750000000000e+04) (55, -2.20790687500000000000e+05) (56, -8.49830468750000000000e+04) (57, 2.44589203125000000000e+05) (58, -2.96667128906250000000e+04) (59, 1.55277203125000000000e+05) (60, -6.68617784976959228516e-02) (61, 2.84355762414634227753e-03) (62, -2.40459013730287551880e-02) (63, -9.66779887676239013672e-02) (64, 6.43076002597808837891e-02) (65, -8.72742570936679840088e-03) (66, -8.61364305019378662109e-02) (67, -6.99531510472297668457e-02) (68, 6.31116554141044616699e-02) (69, -1.87067538499832153320e-02) (70, -9.77140963077545166016e-02) (71, -5.92482760548591613770e-02) (72, -4.77778166532516479492e-02) (73, 3.76478163525462150574e-03) (74, 7.80788362026214599609e-02) (75, -4.72996756434440612793e-02) (76, 6.63438364863395690918e-02) (77, 3.30582857131958007812e-02) (78, -2.47131679207086563110e-02) (79, -5.71024455130100250244e-02) (80, 5.82455396652221679688e-02) (81, -5.14203719794750213623e-02) (82, -9.93569046258926391602e-02) (83, -3.87358553707599639893e-02) (84, -9.73792187869548797607e-03) (85, 9.22654420137405395508e-02) (86, 7.39465281367301940918e-02) (87, -4.89861778914928436279e-02) (88, -1.70901361852884292603e-02) (89, 3.05145625025033950806e-02) (90, -7.14351683855056762695e-02) (91, 1.60480849444866180420e-02) (92, -6.66418820619583129883e-02) (93, 4.51893219724297523499e-03) (94, 1.93701013922691345215e-02) (95, 9.76657271385192871094e-02) (96, 9.57915112376213073730e-02) (97, 3.32336723804473876953e-02) (98, -7.22874253988265991211e-02) (99, 5.89031614363193511963e-02) (100, -8.54730829596519470215e-02) (101, -7.00015202164649963379e-02) (102, 9.96548905968666076660e-02) (103, -3.32508981227874755859e-02) (104, 3.37632596492767333984e-02) (105, 7.77337253093719482422e-02) (106, 1.94494277238845825195e-02) (107, 1.07098465377930551767e-04) (108, 1.07920058071613311768e-02) (109, 9.47362631559371948242e-02) (110, 4.30046543478965759277e-02) (111, -3.09624541550874710083e-02) (112, -5.66841140389442443848e-02) (113, 4.36477512121200561523e-02) (114, 3.03016938269138336182e-02) (115, 3.35779674351215362549e-02) (116, 3.59131880104541778564e-02) (117, 4.24821721389889717102e-03) (118, 8.45917910337448120117e-02) (119, -8.11769515275955200195e-02) (120, -6.52372241020202636719e-02) (121, -8.68433788418769836426e-02) (122, 3.48711386322975158691e-02) (123, -3.18791009485721588135e-02) (124, 1.76755543798208236694e-02) (125, -4.57587614655494689941e-02) (126, -3.42133790254592895508e-02) (127, 1.34670613333582878113e-02) (128, 8.74749124050140380859e-02) (129, -6.50080339983105659485e-03) (130, -2.76297777891159057617e-02) (131, -9.79981720447540283203e-02) (132, 2.34976764768362045288e-02) (133, -2.79748924076557159424e-02) (134, -3.12490724027156829834e-02) (135, -4.27390635013580322266e-02) (136, -5.02411723136901855469e-02) (137, 8.82003530859947204590e-02) (138, 5.73680363595485687256e-02) (139, 6.05508349835872650146e-02) (140, 8.29366147518157958984e-02) (141, 3.72690992662683129311e-04) (142, -7.04116225242614746094e-02) (143, -7.37475007772445678711e-02) (144, -5.59795573353767395020e-02) (145, 5.98900727927684783936e-02) (146, 5.98304718732833862305e-02) (147, 7.99336358904838562012e-02) (148, -3.58617119491100311279e-02) (149, 4.44222614169120788574e-02) (150, -4.92526489257812500000e+02) (0, 1.48264525000000000000e+06) (1, 1.46153984375000000000e+05) (2, 1.42777412500000000000e+06) (3, 2.30745937500000000000e+05) (4, 1.20229812500000000000e+06) (5, 1.85657828125000000000e+05) (6, 1.09835362500000000000e+06) (7, 3.02102968750000000000e+05) (8, 9.11507875000000000000e+05) (9, 4.32980312500000000000e+05) (10, 7.17902875000000000000e+05) (11, 5.98382375000000000000e+05) (12, 3.95414093750000000000e+05) (13, 6.69384437500000000000e+05) (14, 1.99670703125000000000e+05) (15, 8.01834687500000000000e+05) (16, -2.52388652343750000000e+04) (17, 8.32383562500000000000e+05) (18, -2.79383375000000000000e+05) (19, 9.36748562500000000000e+05) (20, -4.70119343750000000000e+05) (21, 9.70020937500000000000e+05) (22, -7.87416875000000000000e+05) (23, 8.13002187500000000000e+05) (24, -1.28043312500000000000e+06) (25, 5.65355625000000000000e+05) (26, -6.95438250000000000000e+05) (27, 8.76471640625000000000e+04) (28, -8.50837562500000000000e+05) (29, -4.05258937500000000000e+05) (30, -1.11936950000000000000e+06) (31, 4.48246093750000000000e+05) (32, -9.92202187500000000000e+05) (33, 2.87884468750000000000e+05) (34, -1.32878012500000000000e+06) (35, 6.92817125000000000000e+05) (36, -8.57652312500000000000e+05) (37, 7.27486250000000000000e+05) (38, -1.12039775000000000000e+06) (39, 9.56250562500000000000e+05) (40, -1.61707662500000000000e+06) (41, 3.49025531250000000000e+05) (42, -1.49311425000000000000e+06) (43, 6.43796500000000000000e+05) (44, -9.99465000000000000000e+05) (45, 2.18377203125000000000e+05) (46, -8.18718125000000000000e+05) (47, 2.89965156250000000000e+05) (48, -3.90501781250000000000e+05) (49, 5.35884437500000000000e+05) (50, -6.43957437500000000000e+05) (51, -2.62473515625000000000e+04) (52, -5.38422687500000000000e+05) (53, 2.70185843750000000000e+05) (54, -2.63657562500000000000e+05) (55, 2.89969093750000000000e+05) (56, 3.12748652343750000000e+04) (57, -1.52817125000000000000e+05) (58, -2.83691015625000000000e+03) (59, 1.48481132812500000000e+04) (60, 5.38738407194614410400e-02) (61, 9.33027192950248718262e-02) (62, -1.12882005050778388977e-02) (63, -4.08083461225032806396e-02) (64, 1.44484275951981544495e-02) (65, 5.16780726611614227295e-02) (66, -6.02360963821411132812e-02) (67, -7.65368044376373291016e-02) (68, -5.25470674037933349609e-02) (69, -9.09423455595970153809e-02) (70, 7.82193150371313095093e-03) (71, -3.04644200950860977173e-02) (72, -6.05568774044513702393e-02) (73, 6.95264637470245361328e-02) (74, 4.14236895740032196045e-02) (75, -9.70545783638954162598e-02) (76, -2.26722732186317443848e-02) (77, 2.03781984746456146240e-02) (78, 4.93233762681484222412e-02) (79, -8.05739313364028930664e-02) (80, 6.37671425938606262207e-02) (81, -6.08721822500228881836e-02) (82, 7.87581056356430053711e-02) (83, 7.19632059335708618164e-02) (84, 1.94713694509118795395e-03) (85, 8.15763473510742187500e-02) (86, 8.89868438243865966797e-02) (87, -2.32860189862549304962e-03) (88, 8.77112522721290588379e-02) (89, 9.47716832160949707031e-02) (90, -9.56110656261444091797e-03) (91, 4.15850952267646789551e-02) (92, 8.80744010210037231445e-02) (93, 7.91506916284561157227e-02) (94, -9.92232561111450195312e-02) (95, 2.52282666042447090149e-03) (96, 3.08287665247917175293e-02) (97, -5.94593510031700134277e-02) (98, 2.59860213845968246460e-02) (99, 7.82817006111145019531e-02) (100, -5.04016950726509094238e-02) (101, -6.61920458078384399414e-02) (102, -5.21827228367328643799e-02) (103, -1.09585728496313095093e-02) (104, -9.66655835509300231934e-02) (105, 8.92409682273864746094e-02) (106, -8.01315251737833023071e-03) (107, -1.93378552794456481934e-02) (108, 9.61916707456111907959e-03) (109, -5.86897805333137512207e-02) (110, 8.82140375324524939060e-05) (111, -2.66136936843395233154e-02) (112, -1.95619575679302215576e-02) (113, -2.11536791175603866577e-02) (114, -5.46504855155944824219e-02) (115, 8.23851823806762695312e-02) (116, -3.95773351192474365234e-02) (117, -6.56636431813240051270e-02) (118, -1.99434235692024230957e-02) (119, -5.18660806119441986084e-02) (120, -7.08919614553451538086e-02) (121, 7.04954713582992553711e-02) (122, 8.97190123796463012695e-02) (123, -8.28175693750381469727e-02) (124, 4.96461652219295501709e-02) (125, 9.04957577586174011230e-02) (126, 1.97052620351314544678e-02) (127, -1.95250697433948516846e-02) (128, -6.89635947346687316895e-02) (129, -5.43087162077426910400e-02) (130, -4.12433706223964691162e-02) (131, -1.93652864545583724976e-02) (132, -2.05007642507553100586e-02) (133, 6.57390849664807319641e-03) (134, 6.96761459112167358398e-02) (135, -1.71663463115692138672e-02) (136, -4.18512197211384773254e-03) (137, -3.83370108902454376221e-02) (138, 6.34957998991012573242e-02) (139, -9.45659577846527099609e-02) (140, 2.97321029938757419586e-03) (141, -3.64159867167472839355e-02) (142, -2.11796481162309646606e-02) (143, 8.34112539887428283691e-02) (144, 4.24303337931632995605e-02) (145, 2.41698678582906723022e-02) (146, 6.57964348793029785156e-02) (147, -9.71470028162002563477e-02) (148, 5.85062243044376373291e-02) (149, -5.41469939053058624268e-02) (150, -3.45833276367187500000e+03) (0, -2.35827406250000000000e+05) (1, -8.73312562500000000000e+05) (2, -1.79149656250000000000e+05) (3, -8.14229375000000000000e+05) (4, 1.39163250000000000000e+05) (5, -4.98345937500000000000e+05) (6, 2.79166375000000000000e+05) (7, -2.23745656250000000000e+05) (8, 3.04639656250000000000e+05) (9, 3.85703359375000000000e+04) (10, 4.29240125000000000000e+05) (11, 2.41967390625000000000e+05) (12, 2.73568437500000000000e+05) (13, 4.23484937500000000000e+05) (14, 1.75997250000000000000e+05) (15, 5.27006312500000000000e+05) (16, 1.47495015625000000000e+05) (17, 4.55984093750000000000e+05) (18, 1.91579484375000000000e+05) (19, 3.50751656250000000000e+05) (20, 6.05115156250000000000e+04) (21, 5.71048632812500000000e+04) (22, 1.75095890625000000000e+05) (23, -3.76952406250000000000e+05) (24, 7.79443046875000000000e+04) (25, -7.03657687500000000000e+05) (26, -3.48332125000000000000e+05) (27, -4.41158187500000000000e+05) (28, 3.75431687500000000000e+05) (29, -1.51768265625000000000e+05) (30, 1.47282687500000000000e+05) (31, -2.60404500000000000000e+05) (32, -3.29258398437500000000e+04) (33, -4.14639593750000000000e+05) (34, -1.11258132812500000000e+05) (35, -1.39610953125000000000e+05) (36, -4.71033251953125000000e+03) (37, -1.59678484375000000000e+05) (38, -3.55487304687500000000e+04) (39, -3.18324343750000000000e+05) (40, -8.90651250000000000000e+04) (41, -5.29454250000000000000e+05) (42, -6.99660156250000000000e+04) (43, 2.10678609375000000000e+05) (44, -1.82383921875000000000e+05) (45, 3.32680437500000000000e+05) (46, -1.62826328125000000000e+05) (47, 4.02313125000000000000e+05) (48, 1.83474359375000000000e+05) (49, 4.63539656250000000000e+05) (50, 6.99052968750000000000e+04) (51, 2.73006156250000000000e+05) (52, -4.35149267578125000000e+03) (53, 3.47171250000000000000e+04) (54, 6.58421171875000000000e+04) (55, 8.47173437500000000000e+04) (56, -3.86993906250000000000e+04) (57, -4.32507617187500000000e+04) (58, 1.47206757812500000000e+04) (59, -7.70492109375000000000e+04) (60, 5.60758970677852630615e-02) (61, 6.22998923063278198242e-02) (62, -1.66372638195753097534e-02) (63, -5.53297773003578186035e-02) (64, 5.88820241391658782959e-02) (65, 5.03191724419593811035e-02) (66, -7.40806572139263153076e-04) (67, 8.66658538579940795898e-02) (68, 4.17775660753250122070e-02) (69, -9.96822640299797058105e-02) (70, -2.33122240751981735229e-02) (71, 3.42920329421758651733e-03) (72, -9.33975204825401306152e-02) (73, 9.58251953125000000000e-03) (74, 1.47733185440301895142e-02) (75, -7.53126591444015502930e-02) (76, -4.49737831950187683105e-02) (77, -4.13564369082450866699e-02) (78, 5.03871850669384002686e-02) (79, 7.46818631887435913086e-02) (80, -1.46425480488687753677e-03) (81, 8.91360640525817871094e-02) (82, 7.15226605534553527832e-02) (83, -1.96612882427871227264e-03) (84, -8.02456736564636230469e-02) (85, -7.10401311516761779785e-02) (86, 9.95682775974273681641e-02) (87, 6.64118453860282897949e-02) (88, 1.27899162471294403076e-02) (89, -9.40080359578132629395e-02) (90, 8.76148417592048645020e-02) (91, -3.11341900378465652466e-02) (92, 6.82918578386306762695e-02) (93, -2.90224216878414154053e-02) (94, 1.35360341519117355347e-02) (95, 2.71738823503255844116e-02) (96, -7.87032470107078552246e-02) (97, -8.72047767043113708496e-02) (98, 1.38397328555583953857e-02) (99, 6.30743205547332763672e-02) (100, -8.68870392441749572754e-02) (101, 9.05275121331214904785e-02) (102, -3.34964804351329803467e-02) (103, -8.02845507860183715820e-02) (104, 1.10029337520245462656e-04) (105, 8.12768414616584777832e-02) (106, -5.55972121655941009521e-02) (107, 5.51362484693527221680e-02) (108, -6.00795969367027282715e-02) (109, 9.47899743914604187012e-02) (110, 2.98181101679801940918e-02) (111, 3.84561493992805480957e-02) (112, 8.39260369539260864258e-02) (113, 1.34077109396457672119e-03) (114, -6.35099783539772033691e-02) (115, -9.63196381926536560059e-02) (116, 3.03006414324045181274e-02) (117, -6.39417022466659545898e-02) (118, 7.00922161340713500977e-02) (119, -5.69094456732273101807e-02) (120, -5.79497329890727996826e-02) (121, 5.77070601284503936768e-02) (122, 1.19563676416873931885e-02) (123, -8.96578803658485412598e-02) (124, -7.13153630495071411133e-02) (125, -7.45076015591621398926e-02) (126, 3.75160090625286102295e-02) (127, -5.00186122953891754150e-02) (128, -6.17123730480670928955e-02) (129, -4.86442595720291137695e-02) (130, -8.69442969560623168945e-02) (131, -4.85994070768356323242e-02) (132, -5.81167526543140411377e-02) (133, -2.04407721757888793945e-02) (134, -2.88839600980281829834e-02) (135, 4.19932790100574493408e-02) (136, -3.91639322042465209961e-02) (137, 1.55188301578164100647e-02) (138, -2.87047331221401691437e-03) (139, 7.56471534259617328644e-04) (140, 1.03088049218058586121e-02) (141, -7.30523616075515747070e-02) (142, -6.07873797416687011719e-02) (143, -5.76515682041645050049e-03) (144, 2.82884072512388229370e-02) (145, -2.42973584681749343872e-02) (146, -2.08479003049433231354e-03) (147, -4.14109528064727783203e-02) (148, 1.17609426379203796387e-02) (149, -3.19925770163536071777e-02) (150, -8.68424438476562500000e+02) (0, -9.64247265625000000000e+04) (1, -2.66151000000000000000e+05) (2, -8.83987343750000000000e+04) (3, -2.38406578125000000000e+05) (4, -2.91436953125000000000e+04) (5, -1.39504656250000000000e+05) (6, 1.90242753906250000000e+04) (7, -2.09465644531250000000e+04) (8, -1.07040292968750000000e+04) (9, 4.82159804687500000000e+04) (10, 3.09055585937500000000e+04) (11, 1.10354140625000000000e+05) (12, -3.45094531250000000000e+04) (13, 1.49843109375000000000e+05) (14, -5.96196796875000000000e+04) (15, 1.26327148437500000000e+05) (16, -9.09721562500000000000e+04) (17, 5.54483007812500000000e+04) (18, -7.42117109375000000000e+04) (19, -3.70872812500000000000e+04) (20, -9.20420468750000000000e+04) (21, -2.32080265625000000000e+05) (22, -2.89176875000000000000e+04) (23, -3.30741531250000000000e+05) (24, 1.05052929687500000000e+04) (25, -3.81109406250000000000e+05) (26, 1.75847480468750000000e+04) (27, 8.02379609375000000000e+04) (28, 1.62395687500000000000e+05) (29, 7.29191718750000000000e+04) (30, 1.91941046875000000000e+05) (31, -1.42749343750000000000e+05) (32, 1.90743625000000000000e+05) (33, 3.91515472412109375000e+02) (34, 3.10269281250000000000e+05) (35, 1.74074687500000000000e+05) (36, 1.86850734375000000000e+05) (37, 6.51827617187500000000e+04) (38, 9.82487656250000000000e+04) (39, -8.89425000000000000000e+04) (40, 8.90463867187500000000e+03) (41, -1.37004890625000000000e+05) (42, -3.46098046875000000000e+04) (43, -1.85628046875000000000e+05) (44, -7.06050000000000000000e+04) (45, -2.24925375000000000000e+05) (46, -1.52576609375000000000e+05) (47, -1.89504046875000000000e+05) (48, -1.12006593750000000000e+05) (49, -2.13986906250000000000e+05) (50, -3.12374394531250000000e+04) (51, -1.08906492187500000000e+05) (52, -1.04146455078125000000e+04) (53, -1.39587203125000000000e+05) (54, -1.17978583984375000000e+04) (55, -1.78727937500000000000e+05) (56, -5.00296600341796875000e+02) (57, 1.27290468750000000000e+04) (58, -3.18378662109375000000e+03) (59, 1.66636230468750000000e+04) (60, 7.35003128647804260254e-02) (61, 7.14022368192672729492e-02) (62, 9.69064310193061828613e-02) (63, -1.48674640804529190063e-02) (64, 3.45740392804145812988e-02) (65, 1.35159498313441872597e-04) (66, -4.88361194729804992676e-02) (67, 3.68742160499095916748e-02) (68, 5.03322947770357131958e-03) (69, 2.15757377445697784424e-02) (70, -8.34096148610115051270e-02) (71, -3.70436199009418487549e-02) (72, 9.42380633205175399780e-03) (73, -7.48768448829650878906e-02) (74, -8.42121392488479614258e-02) (75, -5.73268299922347068787e-03) (76, -6.64114505052566528320e-02) (77, 5.52095053717494010925e-03) (78, 3.69423367083072662354e-02) (79, 5.75054176151752471924e-02) (80, -7.07148239016532897949e-02) (81, 3.82053367793560028076e-02) (82, 7.18254595994949340820e-03) (83, -8.59718248248100280762e-02) (84, 3.72689403593540191650e-02) (85, 7.68547877669334411621e-02) (86, 8.80383551120758056641e-02) (87, -9.01642143726348876953e-02) (88, -3.55626493692398071289e-02) (89, -9.00952368974685668945e-02) (90, -3.23331803083419799805e-02) (91, -6.20623417198657989502e-02) (92, 8.13070014119148254395e-02) (93, -3.54267470538616180420e-02) (94, 2.30701956897974014282e-02) (95, 1.58810410648584365845e-02) (96, 6.47084116935729980469e-02) (97, 7.42340758442878723145e-02) (98, -4.72447462379932403564e-02) (99, -3.02583593875169754028e-02) (100, -4.19018557295203208923e-03) (101, -3.06543558835983276367e-02) (102, 3.26980203390121459961e-02) (103, -9.47663784027099609375e-02) (104, -5.53120160475373268127e-03) (105, 4.84858825802803039551e-02) (106, -4.99062647577375173569e-04) (107, 2.80573517084121704102e-02) (108, -4.59931679069995880127e-02) (109, -6.35567232966423034668e-02) (110, -1.44372330978512763977e-02) (111, -1.67079921811819076538e-02) (112, 7.46486112475395202637e-02) (113, 9.27453115582466125488e-02) (114, -2.67981435172259807587e-03) (115, 1.19175529107451438904e-02) (116, 6.96001052856445312500e-02) (117, -1.46414590999484062195e-02) (118, 2.17533409595489501953e-02) (119, -6.59625455737113952637e-02) (120, -4.73669590428471565247e-03) (121, 8.94201621413230895996e-02) (122, -2.80248895287513732910e-02) (123, -2.34296955168247222900e-02) (124, -4.60065864026546478271e-02) (125, 9.50453057885169982910e-02) (126, 9.24513489007949829102e-02) (127, -8.12981799244880676270e-02) (128, 6.92793875932693481445e-02) (129, -5.47933988273143768311e-02) (130, -1.15565340965986251831e-02) (131, -3.49108017981052398682e-02) (132, 1.45522458478808403015e-02) (133, -7.88585171103477478027e-02) (134, -2.96771805733442306519e-02) (135, -9.09789577126502990723e-02) (136, 6.96273669600486755371e-02) (137, 6.98237568140029907227e-02) (138, 3.70783954858779907227e-02) (139, -7.63657987117767333984e-02) (140, -9.37329679727554321289e-02) (141, -7.73588344454765319824e-02) (142, 6.92620780318975448608e-03) (143, 8.09156447649002075195e-02) (144, -8.46135243773460388184e-02) (145, -9.57536101341247558594e-02) (146, -7.16680288314819335938e-03) (147, 8.49865823984146118164e-02) (148, -1.03950649499893188477e-02) (149, -8.54134634137153625488e-02) (150, 2.09894790649414062500e+02) (0, 1.15270492187500000000e+05) (1, 5.19048095703125000000e+03) (2, 1.47518390625000000000e+05) (3, 2.29188562500000000000e+05) (4, 4.58158046875000000000e+04) (5, 2.66693968750000000000e+05) (6, -2.99685234375000000000e+04) (7, 2.79376531250000000000e+05) (8, 1.22208310546875000000e+04) (9, 9.67215546875000000000e+04) (10, -9.07394335937500000000e+03) (11, -1.14899054687500000000e+05) (12, 1.30847132812500000000e+05) (13, -2.92558000000000000000e+05) (14, 2.12341156250000000000e+05) (15, -4.88557656250000000000e+05) (16, 3.99723875000000000000e+05) (17, -5.37069062500000000000e+05) (18, 4.51206937500000000000e+05) (19, -3.47640968750000000000e+05) (20, 1.05912554687500000000e+05) (21, -1.67296734375000000000e+05) (22, 5.59899921875000000000e+04) (23, 2.73544593750000000000e+05) (24, 2.49879863281250000000e+04) (25, 8.07653562500000000000e+05) (26, -1.29612320312500000000e+05) (27, 8.59033046875000000000e+04) (28, -1.65345828125000000000e+05) (29, 7.47391640625000000000e+04) (30, -4.69091906250000000000e+05) (31, -1.09855914062500000000e+05) (32, -6.56674187500000000000e+05) (33, -4.49775093750000000000e+05) (34, 1.18000343750000000000e+05) (35, -7.79111875000000000000e+05) (36, 1.51136843750000000000e+05) (37, -5.90739000000000000000e+05) (38, 2.26050125000000000000e+05) (39, -6.28730125000000000000e+05) (40, 2.13057734375000000000e+05) (41, -2.91866656250000000000e+05) (42, 2.17389015625000000000e+05) (43, 4.52017750000000000000e+05) (44, 6.42468320312500000000e+04) (45, 6.35833625000000000000e+05) (46, 7.55295312500000000000e+04) (47, 5.94883312500000000000e+05) (48, 1.43690328125000000000e+05) (49, 6.49967437500000000000e+05) (50, -1.02399248046875000000e+04) (51, 5.02328843750000000000e+05) (52, 2.31125898437500000000e+04) (53, 3.24414312500000000000e+05) (54, 2.14535421875000000000e+05) (55, 1.08646000000000000000e+05) (56, -3.79044570312500000000e+04) (57, -1.29512765625000000000e+05) (58, 1.25825898437500000000e+04) (59, -6.58576718750000000000e+04) (60, 1.61688011139631271362e-02) (61, 4.03998419642448425293e-02) (62, -9.65182781219482421875e-02) (63, 7.53375217318534851074e-02) (64, -6.68145939707756042480e-02) (65, -6.98854997754096984863e-02) (66, -7.49364215880632400513e-03) (67, -8.79845768213272094727e-02) (68, 1.06371659785509109497e-02) (69, -1.36228697374463081360e-02) (70, -5.38307242095470428467e-02) (71, -9.74367465823888778687e-03) (72, -5.46066947281360626221e-02) (73, -9.92638394236564636230e-02) (74, -1.64757762104272842407e-02) (75, 9.06963720917701721191e-02) (76, 4.60389032959938049316e-02) (77, -5.38094551302492618561e-04) (78, -8.08630976825952529907e-03) (79, -4.80987429618835449219e-02) (80, -2.48522348701953887939e-02) (81, 7.26794674992561340332e-02) (82, 2.45902556926012039185e-02) (83, -6.67770355939865112305e-02) (84, 3.99199090898036956787e-02) (85, 4.50215451419353485107e-02) (86, 8.90739932656288146973e-02) (87, 9.78814065456390380859e-02) (88, -9.39716771245002746582e-02) (89, 2.76874061673879623413e-02) (90, -6.38311058282852172852e-02) (91, 2.21971217542886734009e-02) (92, -3.19127514958381652832e-02) (93, -6.03493824601173400879e-02) (94, -2.46535590849816799164e-03) (95, 1.27265823539346456528e-03) (96, -3.02348863333463668823e-02) (97, 9.00410041213035583496e-02) (98, 1.32880853489041328430e-02) (99, 8.04022848606109619141e-02) (100, -2.35818680375814437866e-02) (101, 5.94573654234409332275e-02) (102, -2.93413940817117691040e-02) (103, 2.18114387243986129761e-02) (104, 6.01935274899005889893e-02) (105, 5.41828311979770660400e-02) (106, 1.25078074634075164795e-02) (107, 6.23242929577827453613e-03) (108, -4.63552661240100860596e-02) (109, -9.55785065889358520508e-02) (110, 5.81336878240108489990e-02) (111, 2.87925023585557937622e-02) (112, 7.71009698510169982910e-02) (113, -1.72760579735040664673e-02) (114, 6.20154701173305511475e-02) (115, 1.70208737254142761230e-02) (116, -7.22545161843299865723e-02) (117, 5.10894581675529479980e-02) (118, 1.49022778496146202087e-02) (119, -6.62261918187141418457e-02) (120, -2.12231371551752090454e-02) (121, 5.10711744427680969238e-02) (122, 5.59709295630455017090e-02) (123, 4.68641109764575958252e-02) (124, 9.07217934727668762207e-02) (125, -4.64944280683994293213e-02) (126, -5.18632307648658752441e-02) (127, -3.95130962133407592773e-02) (128, -5.64534254372119903564e-02) (129, 6.14248551428318023682e-02) (130, -5.91108165681362152100e-02) (131, 1.99647080153226852417e-02) (132, 2.08822172135114669800e-02) (133, 1.15477899089455604553e-02) (134, -5.82238547503948211670e-02) (135, -1.89242567867040634155e-02) (136, -3.42693813145160675049e-02) (137, 5.42839542031288146973e-02) (138, 8.73081758618354797363e-02) (139, 1.93753559142351150513e-02) (140, 5.87054491043090820312e-02) (141, 4.54418584704399108887e-02) (142, -5.18321432173252105713e-02) (143, 3.58064174652099609375e-02) (144, -7.18341991305351257324e-02) (145, -8.98166745901107788086e-02) (146, -4.71727140247821807861e-02) (147, -4.40887138247489929199e-02) (148, 6.12727850675582885742e-02) (149, 6.77295699715614318848e-02) (150, 1.37348449707031250000e+03) (0, 7.29517750000000000000e+05) (1, -3.16438843750000000000e+05) (2, 6.68093062500000000000e+05) (3, -2.77207187500000000000e+05) (4, 9.18654750000000000000e+05) (5, -1.75822140625000000000e+05) (6, 9.94302500000000000000e+05) (7, 1.33749296875000000000e+05) (8, 6.84788437500000000000e+05) (9, 6.02838625000000000000e+05) (10, 6.45722812500000000000e+05) (11, 9.36817437500000000000e+05) (12, -5.35370605468750000000e+03) (13, 1.07422025000000000000e+06) (14, -1.38501031250000000000e+05) (15, 1.25716275000000000000e+06) (16, -3.53702906250000000000e+05) (17, 9.46012437500000000000e+05) (18, -5.50899625000000000000e+05) (19, 5.65971625000000000000e+05) (20, -1.89972656250000000000e+05) (21, -3.97292226562500000000e+04) (22, -8.37077421875000000000e+04) (23, -1.36183000000000000000e+06) (24, -7.33594335937500000000e+03) (25, -2.92069550000000000000e+06) (26, -2.64671031250000000000e+05) (27, -1.29425575000000000000e+06) (28, 7.56528875000000000000e+05) (29, -1.74504200000000000000e+06) (30, 1.81216828125000000000e+05) (31, -7.32528250000000000000e+05) (32, 1.14701117187500000000e+05) (33, -2.37703359375000000000e+05) (34, -2.37703765625000000000e+05) (35, 4.90341796875000000000e+04) (36, -2.57287875000000000000e+05) (37, -3.83685664062500000000e+04) (38, -5.04455224609375000000e+03) (39, 1.87523328125000000000e+05) (40, -1.64776031250000000000e+05) (41, -3.99059218750000000000e+05) (42, -1.45099171875000000000e+05) (43, 2.09284968750000000000e+05) (44, 6.74817382812500000000e+03) (45, 1.46699312500000000000e+05) (46, 7.31816875000000000000e+04) (47, 3.32570117187500000000e+04) (48, 4.65674093750000000000e+05) (49, 8.92270937500000000000e+04) (50, 2.21476140625000000000e+05) (51, -4.16918281250000000000e+05) (52, 1.97853937500000000000e+05) (53, -2.68940406250000000000e+05) (54, 5.25487500000000000000e+04) (55, -3.11314593750000000000e+05) (56, 1.85080410156250000000e+04) (57, -2.08098390625000000000e+05) (58, 1.84952285156250000000e+04) (59, -9.68043750000000000000e+04) (60, 6.88832923769950866699e-02) (61, -2.06332025118172168732e-03) (62, -8.27650353312492370605e-02) (63, -3.85142825543880462646e-02) (64, -5.14617450535297393799e-02) (65, 7.13747218251228332520e-02) (66, -3.63893210887908935547e-02) (67, -1.69857731088995933533e-03) (68, 6.05649985373020172119e-02) (69, -6.42549321055412292480e-02) (70, -9.22724045813083648682e-03) (71, 4.62306588888168334961e-02) (72, -8.12219232320785522461e-02) (73, 4.59169745445251464844e-02) (74, -5.07460795342922210693e-02) (75, 2.42574959993362426758e-02) (76, 5.51020866259932518005e-03) (77, 5.07105253636837005615e-02) (78, -8.20860639214515686035e-02) (79, 2.38364171236753463745e-02) (80, -6.20913542807102203369e-02) (81, -8.08772370219230651855e-02) (82, 5.96010498702526092529e-02) (83, -4.37098592519760131836e-02) (84, 7.60518312454223632812e-02) (85, 4.86105196177959442139e-02) (86, -6.59791901707649230957e-02) (87, -1.11554493196308612823e-03) (88, 4.36921156942844390869e-02) (89, -7.29880630970001220703e-02) (90, 4.88934293389320373535e-02) (91, 1.25754037871956825256e-02) (92, 2.49486137181520462036e-02) (93, 6.61283954977989196777e-02) (94, 7.40611255168914794922e-02) (95, 7.34868720173835754395e-02) (96, 3.75031158328056335449e-02) (97, -6.23282007873058319092e-02) (98, -2.82117091119289398193e-02) (99, -1.93188514094799757004e-03) (100, -2.65831276774406433105e-02) (101, 6.25610500574111938477e-02) (102, -5.57012259960174560547e-02) (103, -7.80504802241921424866e-03) (104, 8.47802497446537017822e-03) (105, -6.44730357453227043152e-03) (106, -8.35475549101829528809e-02) (107, -8.60117673873901367188e-02) (108, -5.57367764413356781006e-02) (109, -6.56336173415184020996e-02) (110, 3.78246530890464782715e-02) (111, -1.78281310945749282837e-02) (112, -4.65108491480350494385e-02) (113, -2.57430109195411205292e-03) (114, 3.84620092809200286865e-02) (115, -7.04590231180191040039e-02) (116, -5.39637841284275054932e-02) (117, 7.24828168749809265137e-02) (118, 2.84254346042871475220e-02) (119, 8.97283330559730529785e-02) (120, 9.94947552680969238281e-02) (121, -2.26811375468969345093e-02) (122, 2.30373512022197246552e-03) (123, 2.44433656334877014160e-02) (124, -5.65527416765689849854e-02) (125, -2.36351415514945983887e-02) (126, -2.06976709887385368347e-03) (127, 8.09503793716430664062e-02) (128, 1.40366600826382637024e-02) (129, 6.97185248136520385742e-02) (130, -2.09815092384815216064e-02) (131, 8.74535366892814636230e-02) (132, 3.22795771062374114990e-02) (133, 2.33172662556171417236e-02) (134, -2.03515160828828811646e-02) (135, -5.92424012720584869385e-02) (136, -8.31300392746925354004e-02) (137, -3.89906810596585273743e-03) (138, -4.52541671693325042725e-02) (139, -3.88668142259120941162e-02) (140, 3.04673183709383010864e-02) (141, 9.25704836845397949219e-02) (142, 4.33050543069839477539e-02) (143, 8.39564725756645202637e-02) (144, -1.00038163363933563232e-02) (145, -1.82329360395669937134e-02) (146, -8.65025520324707031250e-02) (147, 3.60324010252952575684e-02) (148, -4.57501225173473358154e-02) (149, 4.19228821992874145508e-02) (150, -3.87545458984375000000e+03) (0, -6.47363710937500000000e+04) (1, 1.32886640625000000000e+05) (2, -7.79561718750000000000e+04) (3, 3.43765390625000000000e+04) (4, -7.79633593750000000000e+04) (5, -3.74350351562500000000e+04) (6, -1.53113515625000000000e+04) (7, -2.76378847656250000000e+04) (8, 4.57908984375000000000e+04) (9, -1.04278734375000000000e+05) (10, 6.27659023437500000000e+04) (11, -1.50478484375000000000e+05) (12, 9.55592031250000000000e+04) (13, -1.28959226562500000000e+05) (14, 1.19417468750000000000e+05) (15, -1.39695578125000000000e+05) (16, 1.45570109375000000000e+05) (17, -1.41267558593750000000e+04) (18, 1.36252718750000000000e+05) (19, 1.07941757812500000000e+05) (20, -1.69781406250000000000e+04) (21, 7.18521484375000000000e+04) (22, -6.36842929687500000000e+04) (23, 1.23487687500000000000e+05) (24, -7.96583203125000000000e+04) (25, 1.89112343750000000000e+05) (26, -1.74032250000000000000e+05) (27, -7.77220703125000000000e+04) (28, -2.69170196533203125000e+02) (29, 6.89335625000000000000e+04) (30, 9.12550234375000000000e+04) (31, -1.03204320312500000000e+05) (32, -1.34391828125000000000e+05) (33, -1.07271929687500000000e+05) (34, -1.99492937500000000000e+05) (35, 1.47558000000000000000e+05) (36, -2.12941816406250000000e+04) (37, 3.02792539062500000000e+04) (38, 3.74598867187500000000e+04) (39, 1.91672609375000000000e+05) (40, -6.14740976562500000000e+04) (41, -3.72044494628906250000e+02) (42, 2.82280883789062500000e+03) (43, -2.69879500000000000000e+05) (44, 1.99393359375000000000e+04) (45, -3.16482750000000000000e+05) (46, 7.92154453125000000000e+04) (47, -2.46229406250000000000e+05) (48, -1.13396855468750000000e+04) (49, -2.29578718750000000000e+05) (50, 2.84451601562500000000e+04) (51, -2.30976328125000000000e+05) (52, -3.57746601562500000000e+04) (53, -1.58654609375000000000e+05) (54, 5.21417304687500000000e+04) (55, -7.39935468750000000000e+04) (56, 4.70384619140625000000e+03) (57, 3.87757656250000000000e+04) (58, -1.62821582031250000000e+04) (59, 8.52217812500000000000e+04) (60, -8.85720103979110717773e-02) (61, 6.03729709982872009277e-02) (62, -9.07814726233482360840e-02) (63, -1.78172159940004348755e-02) (64, -9.35830026865005493164e-02) (65, -5.55485598742961883545e-02) (66, -8.43734219670295715332e-02) (67, 5.68903610110282897949e-02) (68, 5.58025762438774108887e-02) (69, 9.27097573876380920410e-02) (70, 2.58297044783830642700e-02) (71, 1.29904653877019882202e-02) (72, -7.54919229075312614441e-03) (73, 6.88564672600477933884e-04) (74, -5.17053194344043731689e-02) (75, -6.18330053985118865967e-02) (76, 6.11154288053512573242e-02) (77, -9.75271835923194885254e-02) (78, -5.32717145979404449463e-02) (79, -9.67887789011001586914e-02) (80, -6.97292760014533996582e-02) (81, 7.92678669095039367676e-02) (82, 5.74432760477066040039e-02) (83, 2.42588706314563751221e-02) (84, 7.90907889604568481445e-02) (85, -9.22319516539573669434e-02) (86, 7.44334459304809570312e-02) (87, 2.79641170054674148560e-02) (88, 6.76829889416694641113e-02) (89, 1.68268550187349319458e-02) (90, -1.98622681200504302979e-02) (91, 7.91109800338745117188e-02) (92, -2.28001754730939865112e-02) (93, -1.06437383219599723816e-02) (94, -3.87062355875968933105e-02) (95, -1.63831748068332672119e-02) (96, 3.38077023625373840332e-02) (97, -2.30796560645103454590e-02) (98, -5.94928152859210968018e-02) (99, -1.03897210210561752319e-02) (100, -3.03698983043432235718e-02) (101, 6.63368925452232360840e-02) (102, -9.73992571234703063965e-02) (103, 6.20809122920036315918e-02) (104, -3.29745486378669738770e-02) (105, -4.91045750677585601807e-02) (106, -9.97520983219146728516e-02) (107, -7.18591213226318359375e-02) (108, -4.66317534446716308594e-02) (109, -5.30238077044486999512e-02) (110, -6.86478912830352783203e-02) (111, -1.63610298186540603638e-02) (112, -7.37559422850608825684e-02) (113, 8.87953862547874450684e-02) (114, -9.21021625399589538574e-02) (115, -9.46651548147201538086e-02) (116, 9.65634360909461975098e-02) (117, 8.23312923312187194824e-02) (118, 3.32989655435085296631e-02) (119, 6.42464235424995422363e-02) (120, -8.41857690829783678055e-04) (121, -8.65633040666580200195e-02) (122, 4.33574020862579345703e-02) (123, 7.63579681515693664551e-02) (124, 2.79296073131263256073e-03) (125, -9.53488349914550781250e-02) (126, -4.00252081453800201416e-02) (127, -6.33993372321128845215e-02) (128, -1.84284914284944534302e-02) (129, 4.81977418530732393265e-04) (130, 2.62109432369470596313e-02) (131, 5.12016117572784423828e-02) (132, -3.31811346113681793213e-02) (133, 2.88116876035928726196e-02) (134, 1.32825206965208053589e-02) (135, 3.38443182408809661865e-02) (136, 7.97071158885955810547e-02) (137, 1.35304275900125503540e-02) (138, 6.19852021336555480957e-02) (139, -6.69246390461921691895e-02) (140, 6.05066232383251190186e-02) (141, 9.33373123407363891602e-02) (142, 1.67143307626247406006e-02) (143, 8.67506861686706542969e-02) (144, 8.21326971054077148438e-02) (145, 2.46121715754270553589e-02) (146, 9.20855328440666198730e-02) (147, 7.86961242556571960449e-02) (148, 6.94345915690064430237e-03) (149, 2.53844987601041793823e-02) (150, -5.76126098632812500000e+02) (0, -3.19478156250000000000e+05) (1, -7.22309187500000000000e+05) (2, -2.85629437500000000000e+05) (3, -4.99947468750000000000e+05) (4, -1.85495984375000000000e+05) (5, -1.54890156250000000000e+05) (6, -1.68980125000000000000e+05) (7, 1.08764515625000000000e+05) (8, -7.13658515625000000000e+04) (9, 2.83364281250000000000e+05) (10, -1.23451728515625000000e+04) (11, 3.89289250000000000000e+05) (12, 5.14281914062500000000e+04) (13, 4.65581281250000000000e+05) (14, 3.72748281250000000000e+04) (15, 3.75057000000000000000e+05) (16, 4.43617617187500000000e+04) (17, 3.26262812500000000000e+05) (18, 1.16539226562500000000e+05) (19, 2.11761343750000000000e+05) (20, 1.61439804687500000000e+04) (21, 1.26766933593750000000e+04) (22, 9.46743359375000000000e+03) (23, 3.05065312500000000000e+04) (24, -9.88901093750000000000e+04) (25, 1.70525687500000000000e+05) (26, -3.67117125000000000000e+05) (27, -1.27780468750000000000e+05) (28, -4.53304687500000000000e+05) (29, 2.86755937500000000000e+05) (30, -3.88399218750000000000e+05) (31, 2.35135500000000000000e+05) (32, -6.40289125000000000000e+05) (33, -1.19864312500000000000e+05) (34, -1.16648734375000000000e+05) (35, -1.21997343750000000000e+05) (36, 6.36054931640625000000e+03) (37, -1.32551347656250000000e+04) (38, 3.26518378906250000000e+04) (39, -7.63630761718750000000e+03) (40, -2.54779843750000000000e+05) (41, -1.11260851562500000000e+05) (42, -2.02530343750000000000e+05) (43, 1.05760734375000000000e+05) (44, 1.20077812500000000000e+05) (45, 2.51690390625000000000e+05) (46, 1.66791687500000000000e+05) (47, 3.40539812500000000000e+05) (48, 2.25044843750000000000e+05) (49, 3.97334687500000000000e+05) (50, -1.34595351562500000000e+04) (51, 1.92257890625000000000e+05) (52, 1.04581328125000000000e+05) (53, 1.07957601562500000000e+05) (54, 3.59735312500000000000e+04) (55, -1.52586999511718750000e+03) (56, 3.48595937500000000000e+04) (57, -1.48076421875000000000e+05) (58, 1.42620966796875000000e+04) (59, -7.46481562500000000000e+04) (60, 7.76980742812156677246e-02) (61, 6.94222003221511840820e-02) (62, 1.53044341132044792175e-02) (63, 3.17837819457054138184e-02) (64, -4.16044555604457855225e-02) (65, 9.81554910540580749512e-02) (66, 2.74836532771587371826e-02) (67, -6.16799965500831604004e-02) (68, 2.34408993273973464966e-02) (69, -9.86016616225242614746e-02) (70, 9.07670855522155761719e-02) (71, 9.16426479816436767578e-02) (72, -2.02612020075321197510e-02) (73, -3.30616012215614318848e-02) (74, -3.04203983396291732788e-02) (75, -8.68329778313636779785e-03) (76, 8.01164731383323669434e-02) (77, -8.90392158180475234985e-03) (78, -8.41608271002769470215e-02) (79, -5.61682805418968200684e-02) (80, -8.18227231502532958984e-02) (81, -1.36184375733137130737e-02) (82, -8.14092308282852172852e-02) (83, -5.58394901454448699951e-02) (84, -8.03417935967445373535e-02) (85, -8.85569024831056594849e-03) (86, 5.11784665286540985107e-02) (87, 4.02812734246253967285e-02) (88, -4.64221350848674774170e-02) (89, 1.79272685199975967407e-02) (90, 5.51942251622676849365e-02) (91, -6.87240660190582275391e-02) (92, -1.26505317166447639465e-02) (93, -2.95013431459665298462e-02) (94, 6.30597174167633056641e-02) (95, 4.57450151443481445312e-02) (96, -3.13458554446697235107e-02) (97, -9.45663172751665115356e-03) (98, 8.40650200843811035156e-02) (99, 9.20950472354888916016e-02) (100, -8.05828813463449478149e-03) (101, 7.48321041464805603027e-02) (102, 8.37376937270164489746e-02) (103, 7.16805085539817810059e-02) (104, -5.82294985651969909668e-02) (105, -4.66827079653739929199e-02) (106, -3.70027869939804077148e-02) (107, -7.81130269169807434082e-02) (108, 4.44133728742599487305e-02) (109, -2.11636163294315338135e-02) (110, -3.42813096940517425537e-02) (111, 6.25906512141227722168e-02) (112, 6.52179494500160217285e-02) (113, -1.56905390322208404541e-02) (114, -9.32488441467285156250e-02) (115, 8.48761573433876037598e-02) (116, 7.54537731409072875977e-02) (117, 5.79296238720417022705e-02) (118, 2.51574274152517318726e-02) (119, -7.09683671593666076660e-02) (120, -2.41431090980768203735e-02) (121, -1.96483507752418518066e-02) (122, -3.96924316883087158203e-02) (123, 6.32063597440719604492e-02) (124, 5.08503094315528869629e-02) (125, -7.66327157616615295410e-02) (126, 8.95137339830398559570e-03) (127, -8.04955512285232543945e-02) (128, 1.39106549322605133057e-02) (129, -6.98360940441489219666e-03) (130, -8.84005054831504821777e-02) (131, -9.41476374864578247070e-02) (132, -3.21515053510665893555e-02) (133, 9.53371897339820861816e-02) (134, 7.75328800082206726074e-02) (135, 9.61899664252996444702e-03) (136, -5.13455234467983245850e-02) (137, -5.94699122011661529541e-02) (138, 3.15059684216976165771e-02) (139, 9.30678546428680419922e-02) (140, 1.93664729595184326172e-02) (141, 9.72246602177619934082e-02) (142, 5.56585006415843963623e-02) (143, -1.54155818745493888855e-02) (144, -1.84658840298652648926e-02) (145, 6.24096617102622985840e-02) (146, -3.05394288152456283569e-02) (147, -4.30121123790740966797e-02) (148, 2.03392822295427322388e-02) (149, 9.46180000901222229004e-02) (150, 2.86539581298828125000e+02) (0, -1.60472859375000000000e+05) (1, -9.12424062500000000000e+04) (2, -1.59340000000000000000e+05) (3, -1.81289343750000000000e+05) (4, -5.41516835937500000000e+04) (5, -1.81949625000000000000e+05) (6, 2.97859042968750000000e+04) (7, -1.18053000000000000000e+05) (8, 7.53618203125000000000e+04) (9, 1.05233583984375000000e+04) (10, 1.35087078125000000000e+05) (11, 1.53999843750000000000e+05) (12, 6.04391250000000000000e+04) (13, 2.68590875000000000000e+05) (14, -6.88910498046875000000e+03) (15, 3.83544031250000000000e+05) (16, -1.05713023437500000000e+05) (17, 4.34336437500000000000e+05) (18, -1.35601250000000000000e+05) (19, 3.83516375000000000000e+05) (20, -8.98261484375000000000e+04) (21, 2.58056515625000000000e+05) (22, -9.61543359375000000000e+04) (23, 7.51911767578125000000e+03) (24, -1.59719218750000000000e+05) (25, -2.94567156250000000000e+05) (26, -2.67926093750000000000e+05) (27, -1.70943027343750000000e+04) (28, -4.24047406250000000000e+05) (29, 2.32573950195312500000e+03) (30, 1.21295367187500000000e+05) (31, 2.70326812500000000000e+05) (32, 1.21483320312500000000e+05) (33, 4.23626156250000000000e+05) (34, -6.12352890625000000000e+04) (35, 3.73868375000000000000e+05) (36, 8.75877343750000000000e+03) (37, 3.80241500000000000000e+05) (38, -2.96860664062500000000e+04) (39, 2.04898562500000000000e+05) (40, 2.16625996093750000000e+04) (41, 3.60094335937500000000e+04) (42, 4.06626640625000000000e+04) (43, 1.47077441406250000000e+04) (44, 1.06555046875000000000e+05) (45, -5.68827265625000000000e+04) (46, 1.24190593750000000000e+05) (47, -1.51448798828125000000e+04) (48, 1.02236710937500000000e+05) (49, -9.95983437500000000000e+04) (50, 1.90101906250000000000e+05) (51, 3.42547148437500000000e+04) (52, 3.66724882812500000000e+04) (53, 1.34798183593750000000e+04) (54, -9.58188476562500000000e+03) (55, -1.47930212402343750000e+03) (56, 6.24132519531250000000e+03) (57, 6.59082109375000000000e+04) (58, -9.57796484375000000000e+03) (59, 5.01318085937500000000e+04) (60, -4.94557768106460571289e-02) (61, -2.90146376937627792358e-02) (62, 4.84191700816154479980e-02) (63, 1.06369715649634599686e-03) (64, 9.42239072173833847046e-03) (65, -6.35912716388702392578e-02) (66, 7.74031281471252441406e-02) (67, 1.75537951290607452393e-02) (68, 9.27521958947181701660e-02) (69, -9.33044997509568929672e-04) (70, -9.07097682356834411621e-02) (71, 1.04659534990787506104e-02) (72, -2.23453138023614883423e-02) (73, 9.04840752482414245605e-02) (74, -4.26014997065067291260e-02) (75, 8.50350316613912582397e-03) (76, -6.13318160176277160645e-02) (77, 4.31688353419303894043e-02) (78, -5.97321167588233947754e-02) (79, 9.43726673722267150879e-02) (80, -7.17081420589238405228e-04) (81, -3.39843221008777618408e-02) (82, 7.69639834761619567871e-02) (83, 2.29654107242822647095e-02) (84, 4.14053909480571746826e-02) (85, -2.89734471589326858521e-02) (86, -4.24957275390625000000e-03) (87, -7.11533203721046447754e-02) (88, 4.60209548473358154297e-02) (89, -2.53741443157196044922e-02) (90, -5.13211786746978759766e-02) (91, 9.65651795268058776855e-02) (92, 4.56112213432788848877e-02) (93, 9.70979928970336914062e-02) (94, -2.37112399190664291382e-03) (95, -4.49663922190666198730e-02) (96, -6.64932802319526672363e-02) (97, -2.49680001288652420044e-02) (98, 7.25874081254005432129e-02) (99, -7.37410858273506164551e-02) (100, 7.40989521145820617676e-02) (101, 8.18776413798332214355e-02) (102, 3.67248728871345520020e-02) (103, -4.82463613152503967285e-02) (104, 7.23617076873779296875e-02) (105, 9.41233709454536437988e-02) (106, 6.02571442723274230957e-02) (107, -8.89701098203659057617e-02) (108, 3.72922085225582122803e-02) (109, -9.94749739766120910645e-02) (110, -9.45974439382553100586e-02) (111, -6.34248778223991394043e-02) (112, -3.34592908620834350586e-02) (113, 8.23665335774421691895e-02) (114, 5.95405362546443939209e-02) (115, -9.20539051294326782227e-02) (116, -4.66069132089614868164e-02) (117, -4.47090379893779754639e-02) (118, -6.32072240114212036133e-02) (119, 9.94140431284904479980e-02) (120, 2.99168191850185394287e-02) (121, -1.45284021273255348206e-02) (122, 9.59792211651802062988e-02) (123, -2.44719609618186950684e-02) (124, -1.74304097890853881836e-02) (125, -6.39190338551998138428e-03) (126, 3.05616483092308044434e-02) (127, 1.60763133317232131958e-02) (128, 6.86400979757308959961e-02) (129, 3.14905331470072269440e-03) (130, 4.23352308571338653564e-02) (131, 4.27390523254871368408e-02) (132, -1.49733088910579681396e-02) (133, -2.09398996084928512573e-02) (134, 9.44926962256431579590e-02) (135, -4.26116026937961578369e-02) (136, -2.68165264278650283813e-02) (137, 5.47498352825641632080e-02) (138, -3.15817072987556457520e-02) (139, -8.95243212580680847168e-02) (140, 5.52748665213584899902e-02) (141, -2.61791516095399856567e-02) (142, -5.29491938650608062744e-02) (143, -7.81844258308410644531e-02) (144, -4.38126176595687866211e-02) (145, -9.34086591005325317383e-02) (146, -7.02383294701576232910e-02) (147, 9.58047248423099517822e-03) (148, -3.81176918745040893555e-02) (149, -3.34455519914627075195e-02) (150, -8.89464599609375000000e+02) (0, 4.70176640625000000000e+04) (1, -1.58620825000000000000e+06) (2, 1.10968890625000000000e+05) (3, -1.16081125000000000000e+06) (4, 2.16426625000000000000e+05) (5, -6.56438875000000000000e+05) (6, 1.52152156250000000000e+05) (7, -1.44145828125000000000e+05) (8, -8.87576406250000000000e+04) (9, 4.04062968750000000000e+05) (10, 5.58870019531250000000e+03) (11, 7.78910062500000000000e+05) (12, -2.59229046875000000000e+05) (13, 9.13886250000000000000e+05) (14, -3.05405593750000000000e+05) (15, 8.04393125000000000000e+05) (16, -3.11767656250000000000e+05) (17, 4.04457281250000000000e+05) (18, -3.42273625000000000000e+05) (19, 1.26198429687500000000e+05) (20, -5.44593945312500000000e+04) (21, -3.06914562500000000000e+05) (22, 1.03163468750000000000e+05) (23, -6.52035187500000000000e+05) (24, 1.37701593750000000000e+05) (25, -1.06269075000000000000e+06) (26, 2.69147562500000000000e+05) (27, -3.21639812500000000000e+05) (28, 1.48947140625000000000e+05) (29, -5.67198812500000000000e+05) (30, 4.58704257812500000000e+04) (31, -4.12105406250000000000e+05) (32, 8.63576718750000000000e+04) (33, -4.36768937500000000000e+05) (34, 4.32717281250000000000e+05) (35, 2.67675917968750000000e+04) (36, 2.12253734375000000000e+05) (37, 9.10041875000000000000e+04) (38, 2.27707156250000000000e+05) (39, -1.88232109375000000000e+05) (40, -1.71280062500000000000e+05) (41, -2.83964406250000000000e+05) (42, -2.55804406250000000000e+05) (43, 7.52834130859375000000e+03) (44, -3.97153375000000000000e+05) (45, 3.41712109375000000000e+04) (46, -4.97816000000000000000e+05) (47, 1.24259843750000000000e+04) (48, -3.00054125000000000000e+05) (49, -4.73089726562500000000e+04) (50, -2.31953453125000000000e+05) (51, -7.12580000000000000000e+04) (52, -1.20262390625000000000e+05) (53, -1.22740890625000000000e+05) (54, -2.70078968750000000000e+05) (55, -2.48337453125000000000e+05) (56, 2.28427265625000000000e+04) (57, -4.98950507812500000000e+04) (58, 1.41306894531250000000e+04) (59, -7.39609609375000000000e+04) (60, -4.57118786871433258057e-02) (61, 1.01786544546484947205e-02) (62, 8.24021175503730773926e-02) (63, 3.89242358505725860596e-02) (64, -2.43931394070386886597e-02) (65, -8.72206911444664001465e-02) (66, -4.18440140783786773682e-02) (67, -6.03831000626087188721e-02) (68, -5.89546859264373779297e-02) (69, 2.80596874654293060303e-02) (70, 7.08488747477531433105e-02) (71, 7.03491941094398498535e-02) (72, -9.02943126857280731201e-03) (73, -8.79581794142723083496e-02) (74, -1.42823774367570877075e-02) (75, -7.40512683987617492676e-02) (76, 