FANN_FLO_2.1
num_layers=4
learning_rate=0.700000
connection_rate=1.000000
network_type=0
learning_momentum=0.000000
training_algorithm=0
train_error_function=1
train_stop_function=0
cascade_output_change_fraction=0.010000
quickprop_decay=-0.000100
quickprop_mu=1.750000
rprop_increase_factor=1.200000
rprop_decrease_factor=0.500000
rprop_delta_min=0.000000
rprop_delta_max=50.000000
rprop_delta_zero=0.100000
cascade_output_stagnation_epochs=12
cascade_candidate_change_fraction=0.010000
cascade_candidate_stagnation_epochs=12
cascade_max_out_epochs=150
cascade_max_cand_epochs=150
cascade_num_candidate_groups=2
bit_fail_limit=3.49999994039535522461e-01
cascade_candidate_limit=1.00000000000000000000e+03
cascade_weight_multiplier=4.00000005960464477539e-01
cascade_activation_functions_count=10
cascade_activation_functions=3 5 7 8 10 11 14 15 16 17 
cascade_activation_steepnesses_count=4
cascade_activation_steepnesses=2.50000000000000000000e-01 5.00000000000000000000e-01 7.50000000000000000000e-01 1.00000000000000000000e+00 
layer_sizes=151 71 31 5 
scale_included=0
neurons (num_inputs, activation_function, activation_steepness)=(0, 0, 0.00000000000000000000e+00) (0, 0, 0.00000000000000000000e+00) (0, 0, 0.00000000000000000000e+00) (0, 0, 0.00000000000000000000e+00) (0, 0, 0.00000000000000000000e+00) (0, 0, 0.00000000000000000000e+00) (0, 0, 0.00000000000000000000e+00) (0, 0, 0.00000000000000000000e+00) (0, 0, 0.00000000000000000000e+00) (0, 0, 0.00000000000000000000e+00) (0, 0, 0.00000000000000000000e+00) (0, 0, 0.00000000000000000000e+00) (0, 0, 0.00000000000000000000e+00) (0, 0, 0.00000000000000000000e+00) (0, 0, 0.00000000000000000000e+00) (0, 0, 0.00000000000000000000e+00) (0, 0, 0.00000000000000000000e+00) (0, 0, 0.00000000000000000000e+00) (0, 0, 0.00000000000000000000e+00) (0, 0, 0.00000000000000000000e+00) (0, 0, 0.00000000000000000000e+00) (0, 0, 0.00000000000000000000e+00) (0, 0, 0.00000000000000000000e+00) (0, 0, 0.00000000000000000000e+00) (0, 0, 0.00000000000000000000e+00) (0, 0, 0.00000000000000000000e+00) (0, 0, 0.00000000000000000000e+00) (0, 0, 0.00000000000000000000e+00) (0, 0, 0.00000000000000000000e+00) (0, 0, 0.00000000000000000000e+00) (0, 0, 0.00000000000000000000e+00) (0, 0, 0.00000000000000000000e+00) (0, 0, 0.00000000000000000000e+00) (0, 0, 0.00000000000000000000e+00) (0, 0, 0.00000000000000000000e+00) (0, 0, 0.00000000000000000000e+00) (0, 0, 0.00000000000000000000e+00) (0, 0, 0.00000000000000000000e+00) (0, 0, 0.00000000000000000000e+00) (0, 0, 0.00000000000000000000e+00) (0, 0, 0.00000000000000000000e+00) (0, 0, 0.00000000000000000000e+00) (0, 0, 0.00000000000000000000e+00) (0, 0, 0.00000000000000000000e+00) (0, 0, 0.00000000000000000000e+00) (0, 0, 0.00000000000000000000e+00) (0, 0, 0.00000000000000000000e+00) (0, 0, 0.00000000000000000000e+00) (0, 0, 0.00000000000000000000e+00) (0, 0, 0.00000000000000000000e+00) (0, 0, 0.00000000000000000000e+00) (0, 0, 0.00000000000000000000e+00) (0, 0, 0.00000000000000000000e+00) (0, 0, 0.00000000000000000000e+00) (0, 0, 0.00000000000000000000e+00) (0, 0, 0.00000000000000000000e+00) (0, 0, 0.00000000000000000000e+00) (0, 0, 0.00000000000000000000e+00) (0, 0, 0.00000000000000000000e+00) (0, 0, 0.00000000000000000000e+00) (0, 0, 0.00000000000000000000e+00) (0, 0, 0.00000000000000000000e+00) (0, 0, 0.00000000000000000000e+00) (0, 0, 0.00000000000000000000e+00) (0, 0, 0.00000000000000000000e+00) (0, 0, 0.00000000000000000000e+00) (0, 0, 0.00000000000000000000e+00) (0, 0, 0.00000000000000000000e+00) (0, 0, 0.00000000000000000000e+00) (0, 0, 0.00000000000000000000e+00) (0, 0, 0.00000000000000000000e+00) (0, 0, 0.00000000000000000000e+00) (0, 0, 0.00000000000000000000e+00) (0, 0, 0.00000000000000000000e+00) (0, 0, 0.00000000000000000000e+00) (0, 0, 0.00000000000000000000e+00) (0, 0, 0.00000000000000000000e+00) (0, 0, 0.00000000000000000000e+00) (0, 0, 0.00000000000000000000e+00) (0, 0, 0.00000000000000000000e+00) (0, 0, 0.00000000000000000000e+00) (0, 0, 0.00000000000000000000e+00) (0, 0, 0.00000000000000000000e+00) (0, 0, 0.00000000000000000000e+00) (0, 0, 0.00000000000000000000e+00) (0, 0, 0.00000000000000000000e+00) (0, 0, 0.00000000000000000000e+00) (0, 0, 0.00000000000000000000e+00) (0, 0, 0.00000000000000000000e+00) (0, 0, 0.00000000000000000000e+00) (0, 0, 0.00000000000000000000e+00) (0, 0, 0.00000000000000000000e+00) (0, 0, 0.00000000000000000000e+00) (0, 0, 0.00000000000000000000e+00) (0, 0, 0.00000000000000000000e+00) (0, 0, 0.00000000000000000000e+00) (0, 0, 0.00000000000000000000e+00) (0, 0, 0.00000000000000000000e+00) (0, 0, 0.00000000000000000000e+00) (0, 0, 0.00000000000000000000e+00) (0, 0, 0.00000000000000000000e+00) (0, 0, 0.00000000000000000000e+00) (0, 0, 0.00000000000000000000e+00) (0, 0, 0.00000000000000000000e+00) (0, 0, 0.00000000000000000000e+00) (0, 0, 0.00000000000000000000e+00) (0, 0, 0.00000000000000000000e+00) (0, 0, 0.00000000000000000000e+00) (0, 0, 0.00000000000000000000e+00) (0, 0, 0.00000000000000000000e+00) (0, 0, 0.00000000000000000000e+00) (0, 0, 0.00000000000000000000e+00) (0, 0, 0.00000000000000000000e+00) (0, 0, 0.00000000000000000000e+00) (0, 0, 0.00000000000000000000e+00) (0, 0, 0.00000000000000000000e+00) (0, 0, 0.00000000000000000000e+00) (0, 0, 0.00000000000000000000e+00) (0, 0, 0.00000000000000000000e+00) (0, 0, 0.00000000000000000000e+00) (0, 0, 0.00000000000000000000e+00) (0, 0, 0.00000000000000000000e+00) (0, 0, 0.00000000000000000000e+00) (0, 0, 0.00000000000000000000e+00) (0, 0, 0.00000000000000000000e+00) (0, 0, 0.00000000000000000000e+00) (0, 0, 0.00000000000000000000e+00) (0, 0, 0.00000000000000000000e+00) (0, 0, 0.00000000000000000000e+00) (0, 0, 0.00000000000000000000e+00) (0, 0, 0.00000000000000000000e+00) (0, 0, 0.00000000000000000000e+00) (0, 0, 0.00000000000000000000e+00) (0, 0, 0.00000000000000000000e+00) (0, 0, 0.00000000000000000000e+00) (0, 0, 0.00000000000000000000e+00) (0, 0, 0.00000000000000000000e+00) (0, 0, 0.00000000000000000000e+00) (0, 0, 0.00000000000000000000e+00) (0, 0, 0.00000000000000000000e+00) (0, 0, 0.00000000000000000000e+00) (0, 0, 0.00000000000000000000e+00) (0, 0, 0.00000000000000000000e+00) (0, 0, 0.00000000000000000000e+00) (0, 0, 0.00000000000000000000e+00) (0, 0, 0.00000000000000000000e+00) (0, 0, 0.00000000000000000000e+00) (0, 0, 0.00000000000000000000e+00) (0, 0, 0.00000000000000000000e+00) (0, 0, 0.00000000000000000000e+00) (0, 0, 0.00000000000000000000e+00) (151, 6, 5.00000000000000000000e-01) (151, 6, 5.00000000000000000000e-01) (151, 6, 5.00000000000000000000e-01) (151, 6, 5.00000000000000000000e-01) (151, 6, 5.00000000000000000000e-01) (151, 6, 5.00000000000000000000e-01) (151, 6, 5.00000000000000000000e-01) (151, 6, 5.00000000000000000000e-01) (151, 6, 5.00000000000000000000e-01) (151, 6, 5.00000000000000000000e-01) (151, 6, 5.00000000000000000000e-01) (151, 6, 5.00000000000000000000e-01) (151, 6, 5.00000000000000000000e-01) (151, 6, 5.00000000000000000000e-01) (151, 6, 5.00000000000000000000e-01) (151, 6, 5.00000000000000000000e-01) (151, 6, 5.00000000000000000000e-01) (151, 6, 5.00000000000000000000e-01) (151, 6, 5.00000000000000000000e-01) (151, 6, 5.00000000000000000000e-01) (151, 6, 5.00000000000000000000e-01) (151, 6, 5.00000000000000000000e-01) (151, 6, 5.00000000000000000000e-01) (151, 6, 5.00000000000000000000e-01) (151, 6, 5.00000000000000000000e-01) (151, 6, 5.00000000000000000000e-01) (151, 6, 5.00000000000000000000e-01) (151, 6, 5.00000000000000000000e-01) (151, 6, 5.00000000000000000000e-01) (151, 6, 5.00000000000000000000e-01) (151, 6, 5.00000000000000000000e-01) (151, 6, 5.00000000000000000000e-01) (151, 6, 5.00000000000000000000e-01) (151, 6, 5.00000000000000000000e-01) (151, 6, 5.00000000000000000000e-01) (151, 6, 5.00000000000000000000e-01) (151, 6, 5.00000000000000000000e-01) (151, 6, 5.00000000000000000000e-01) (151, 6, 5.00000000000000000000e-01) (151, 6, 5.00000000000000000000e-01) (151, 6, 5.00000000000000000000e-01) (151, 6, 5.00000000000000000000e-01) (151, 6, 5.00000000000000000000e-01) (151, 6, 5.00000000000000000000e-01) (151, 6, 5.00000000000000000000e-01) (151, 6, 5.00000000000000000000e-01) (151, 6, 5.00000000000000000000e-01) (151, 6, 5.00000000000000000000e-01) (151, 6, 5.00000000000000000000e-01) (151, 6, 5.00000000000000000000e-01) (151, 6, 5.00000000000000000000e-01) (151, 6, 5.00000000000000000000e-01) (151, 6, 5.00000000000000000000e-01) (151, 6, 5.00000000000000000000e-01) (151, 6, 5.00000000000000000000e-01) (151, 6, 5.00000000000000000000e-01) (151, 6, 5.00000000000000000000e-01) (151, 6, 5.00000000000000000000e-01) (151, 6, 5.00000000000000000000e-01) (151, 6, 5.00000000000000000000e-01) (151, 6, 5.00000000000000000000e-01) (151, 6, 5.00000000000000000000e-01) (151, 6, 5.00000000000000000000e-01) (151, 6, 5.00000000000000000000e-01) (151, 6, 5.00000000000000000000e-01) (151, 6, 5.00000000000000000000e-01) (151, 6, 5.00000000000000000000e-01) (151, 6, 5.00000000000000000000e-01) (151, 6, 5.00000000000000000000e-01) (151, 6, 5.00000000000000000000e-01) (0, 6, 0.00000000000000000000e+00) (71, 6, 5.00000000000000000000e-01) (71, 6, 5.00000000000000000000e-01) (71, 6, 5.00000000000000000000e-01) (71, 6, 5.00000000000000000000e-01) (71, 6, 5.00000000000000000000e-01) (71, 6, 5.00000000000000000000e-01) (71, 6, 5.00000000000000000000e-01) (71, 6, 5.00000000000000000000e-01) (71, 6, 5.00000000000000000000e-01) (71, 6, 5.00000000000000000000e-01) (71, 6, 5.00000000000000000000e-01) (71, 6, 5.00000000000000000000e-01) (71, 6, 5.00000000000000000000e-01) (71, 6, 5.00000000000000000000e-01) (71, 6, 5.00000000000000000000e-01) (71, 6, 5.00000000000000000000e-01) (71, 6, 5.00000000000000000000e-01) (71, 6, 5.00000000000000000000e-01) (71, 6, 5.00000000000000000000e-01) (71, 6, 5.00000000000000000000e-01) (71, 6, 5.00000000000000000000e-01) (71, 6, 5.00000000000000000000e-01) (71, 6, 5.00000000000000000000e-01) (71, 6, 5.00000000000000000000e-01) (71, 6, 5.00000000000000000000e-01) (71, 6, 5.00000000000000000000e-01) (71, 6, 5.00000000000000000000e-01) (71, 6, 5.00000000000000000000e-01) (71, 6, 5.00000000000000000000e-01) (71, 6, 5.00000000000000000000e-01) (0, 6, 0.00000000000000000000e+00) (31, 3, 5.00000000000000000000e-01) (31, 3, 5.00000000000000000000e-01) (31, 3, 5.00000000000000000000e-01) (31, 3, 5.00000000000000000000e-01) (0, 3, 0.00000000000000000000e+00) 
connections (connected_to_neuron, weight)=(0, -8.85418987274169921875e+00) (1, 1.27083969116210937500e+01) (2, -7.72327756881713867188e+00) (3, 1.29349803924560546875e+01) (4, -6.83760690689086914062e+00) (5, 9.78441715240478515625e+00) (6, -5.30822992324829101562e+00) (7, 6.87655687332153320312e+00) (8, -4.07279062271118164062e+00) (9, 4.56732988357543945312e+00) (10, -2.81161975860595703125e+00) (11, 1.24966609477996826172e+00) (12, -1.65859591960906982422e+00) (13, -1.17754614353179931641e+00) (14, -2.48548105359077453613e-01) (15, -3.61825132369995117188e+00) (16, -7.31136679649353027344e-01) (17, -2.54830288887023925781e+00) (18, 1.81685313582420349121e-01) (19, -2.28535246849060058594e+00) (20, -8.83680105209350585938e-01) (21, -4.77735567092895507812e+00) (22, 1.35502040386199951172e+00) (23, -7.33508095145225524902e-02) (24, 7.88417518138885498047e-01) (25, -1.90487778186798095703e+00) (26, 2.12882828712463378906e+00) (27, -2.14458394050598144531e+00) (28, 1.68794289231300354004e-01) (29, -2.41004681587219238281e+00) (30, 8.77391621470451354980e-02) (31, -9.17013466358184814453e-01) (32, -7.42735266685485839844e-01) (33, 6.83278679847717285156e-01) (34, 1.02702796459197998047e+00) (35, 1.93523073196411132812e+00) (36, 7.92848527431488037109e-01) (37, 1.84474146366119384766e+00) (38, -2.99784183502197265625e-01) (39, -1.20744836330413818359e+00) (40, 2.52329492568969726562e+00) (41, 3.59138393402099609375e+00) (42, 2.59372806549072265625e+00) (43, 1.73739039897918701172e+00) (44, 2.76995825767517089844e+00) (45, -2.00179886817932128906e+00) (46, 5.10029137134552001953e-01) (47, -1.71529686450958251953e+00) (48, 2.24309515953063964844e+00) (49, -2.03160691261291503906e+00) (50, -2.28208231925964355469e+00) (51, 1.85838043689727783203e+00) (52, 2.08605766296386718750e+00) (53, 1.17751193046569824219e+00) (54, 2.56560611724853515625e+00) (55, -1.60009533166885375977e-01) (56, 2.32522058486938476562e+00) (57, 7.09273993968963623047e-01) (58, -1.13383769989013671875e-01) (59, 8.88489246368408203125e-01) (60, -2.99656510353088378906e+00) (61, -1.65483936667442321777e-01) (62, -3.94356632232666015625e+00) (63, -2.46330952644348144531e+00) (64, -3.99976158142089843750e+00) (65, -1.31928503513336181641e+00) (66, -2.67740869522094726562e+00) (67, -4.86427831649780273438e+00) (68, -2.61301541328430175781e+00) (69, -3.51399350166320800781e+00) (70, -1.11158454418182373047e+00) (71, -2.25483465194702148438e+00) (72, -7.87053048610687255859e-01) (73, -4.65175008773803710938e+00) (74, -5.92011976242065429688e+00) (75, -4.01284265518188476562e+00) (76, -8.18980693817138671875e+00) (77, -5.18908071517944335938e+00) (78, -5.92722177505493164062e+00) (79, -5.66117048263549804688e+00) (80, -4.66458988189697265625e+00) (81, -3.08862018585205078125e+00) (82, -4.23864126205444335938e+00) (83, -6.21549427509307861328e-01) (84, -2.99213290214538574219e+00) (85, -3.05548191070556640625e+00) (86, -2.17162817716598510742e-01) (87, -3.44098591804504394531e+00) (88, -1.07024168968200683594e+00) (89, -2.85180139541625976562e+00) (90, -7.81554579734802246094e-01) (91, -2.52458047866821289062e+00) (92, -1.69121593236923217773e-01) (93, -2.59827780723571777344e+00) (94, -6.76549300551414489746e-02) (95, -4.04980087280273437500e+00) (96, -4.09285783767700195312e-01) (97, 5.46807982027530670166e-02) (98, -9.65678811073303222656e-01) (99, -4.23979222774505615234e-01) (100, 5.62017738819122314453e-01) (101, -4.47829365730285644531e-01) (102, -3.66805456578731536865e-02) (103, -6.18824005126953125000e-01) (104, 1.95512041449546813965e-01) (105, -7.95920610427856445312e-01) (106, 5.93451082706451416016e-01) (107, -7.94028341770172119141e-01) (108, 4.82196778059005737305e-01) (109, -8.95689427852630615234e-01) (110, 1.69508659839630126953e+00) (111, -1.82662382721900939941e-01) (112, 9.21183705329895019531e-01) (113, -7.00336620211601257324e-02) (114, 1.18078947067260742188e+00) (115, -1.33067622780799865723e-01) (116, 1.48888623714447021484e+00) (117, -8.73826593160629272461e-02) (118, 1.21065461635589599609e+00) (119, -8.72687101364135742188e-02) (120, 1.85457062721252441406e+00) (121, -9.53968286514282226562e-01) (122, 1.69995999336242675781e+00) (123, -1.05987715721130371094e+00) (124, 1.02146852016448974609e+00) (125, -1.00186932086944580078e+00) (126, -5.33698558807373046875e-01) (127, -1.49464285373687744141e+00) (128, -9.10457015037536621094e-01) (129, -1.39912950992584228516e+00) (130, -7.33312070369720458984e-01) (131, -1.24576544761657714844e+00) (132, -7.65521943569183349609e-01) (133, -1.28442382812500000000e+00) (134, -5.80697476863861083984e-01) (135, -1.31502878665924072266e+00) (136, -5.54531276226043701172e-01) (137, -1.40215933322906494141e+00) (138, -4.49952781200408935547e-01) (139, -1.29551732540130615234e+00) (140, -3.95533651113510131836e-01) (141, -6.12546920776367187500e-01) (142, -4.74692463874816894531e-01) (143, -5.70278584957122802734e-01) (144, -8.96391496062278747559e-02) (145, -6.12208664417266845703e-01) (146, -2.00345844030380249023e-01) (147, -4.61791425943374633789e-01) (148, -2.49450862407684326172e-01) (149, -5.02315044403076171875e-01) (150, 8.42612609267234802246e-02) (0, 1.18396606445312500000e+01) (1, -7.14808654785156250000e+00) (2, 9.64296436309814453125e+00) (3, -7.29551315307617187500e+00) (4, 7.77125787734985351562e+00) (5, -6.39875173568725585938e+00) (6, 4.89644908905029296875e+00) (7, -5.05004549026489257812e+00) (8, 2.79146480560302734375e+00) (9, -3.94100975990295410156e+00) (10, 4.70827341079711914062e-01) (11, -2.71926856040954589844e+00) (12, -1.64402747154235839844e+00) (13, -1.62078034877777099609e+00) (14, -2.94469094276428222656e+00) (15, 2.11395546793937683105e-02) (16, -2.61495518684387207031e+00) (17, 1.46015834808349609375e+00) (18, -4.43602895736694335938e+00) (19, 7.86768674850463867188e-01) (20, -2.57689237594604492188e+00) (21, 1.64635026454925537109e+00) (22, -2.40624952316284179688e+00) (23, 1.39821124076843261719e+00) (24, -6.46805763244628906250e-01) (25, 1.04261219501495361328e+00) (26, -1.93909740447998046875e+00) (27, 6.00894749164581298828e-01) (28, 5.14616847038269042969e-01) (29, 4.25364911556243896484e-01) (30, 4.73609119653701782227e-01) (31, 2.02406859397888183594e+00) (32, -2.04202160239219665527e-01) (33, 2.70444840192794799805e-01) (34, -7.35589444637298583984e-01) (35, -1.09276056289672851562e+00) (36, -1.54221570119261741638e-02) (37, -3.73101413249969482422e-01) (38, 8.40738117694854736328e-01) (39, 5.32624900341033935547e-01) (40, -1.54512739181518554688e+00) (41, -4.10510957241058349609e-01) (42, -9.67888116836547851562e-01) (43, 8.89881670475006103516e-01) (44, -1.94277381896972656250e+00) (45, 1.92127978801727294922e+00) (46, -1.82148471474647521973e-01) (47, -1.31868988275527954102e-01) (48, -1.27728521823883056641e+00) (49, 7.51493811607360839844e-01) (50, 1.17912757396697998047e+00) (51, -3.71451902389526367188e+00) (52, -9.03159439563751220703e-01) (53, -1.34642076492309570312e+00) (54, -1.45814239978790283203e+00) (55, -1.90910995006561279297e+00) (56, -1.23674309253692626953e+00) (57, -1.60532021522521972656e+00) (58, -3.98258149623870849609e-01) (59, -2.32606315612792968750e+00) (60, -6.31422340869903564453e-01) (61, 4.26363438367843627930e-01) (62, 5.04789352416992187500e-01) (63, 4.54310178756713867188e+00) (64, -1.51443913578987121582e-01) (65, 1.38752579689025878906e+00) (66, -1.26838958263397216797e+00) (67, 1.01447308063507080078e+00) (68, -3.03230977058410644531e+00) (69, 1.80333685874938964844e+00) (70, -1.50830626487731933594e+00) (71, 1.35508108139038085938e+00) (72, -2.45371532440185546875e+00) (73, 3.87018728256225585938e+00) (74, 2.09061264991760253906e+00) (75, 3.08036351203918457031e+00) (76, 4.95646238327026367188e+00) (77, 2.78290390968322753906e+00) (78, 1.51232755184173583984e+00) (79, 4.61318826675415039062e+00) (80, 1.16707611083984375000e+00) (81, 4.09177112579345703125e+00) (82, 8.02101865410804748535e-02) (83, 1.13857758045196533203e+00) (84, -3.38336765766143798828e-01) (85, 2.36982107162475585938e+00) (86, -9.78834986686706542969e-01) (87, 3.92517709732055664062e+00) (88, -1.18194890022277832031e+00) (89, 3.59285902976989746094e+00) (90, -1.73772788047790527344e+00) (91, 2.73591542243957519531e+00) (92, -2.59384846687316894531e+00) (93, 2.73997712135314941406e+00) (94, -1.78857541084289550781e+00) (95, 3.86232280731201171875e+00) (96, -1.08383762836456298828e+00) (97, 5.04756510257720947266e-01) (98, 4.93289202451705932617e-01) (99, 1.68618246912956237793e-01) (100, -5.57826161384582519531e-01) (101, 3.38583618402481079102e-01) (102, -3.41132521629333496094e-01) (103, 2.91425824165344238281e-01) (104, -7.53932237625122070312e-01) (105, 4.50601994991302490234e-01) (106, -8.04061174392700195312e-01) (107, 3.90601187944412231445e-01) (108, -9.18402433395385742188e-01) (109, 4.48695659637451171875e-01) (110, -1.47264385223388671875e+00) (111, -4.99424114823341369629e-02) (112, -4.81729537248611450195e-01) (113, -1.10549353063106536865e-01) (114, -7.94000089168548583984e-01) (115, -1.40279039740562438965e-01) (116, -9.37689542770385742188e-01) (117, -1.87817990779876708984e-01) (118, -9.46505784988403320312e-01) (119, -1.99454501271247863770e-01) (120, -1.48809039592742919922e+00) (121, 1.19712746143341064453e+00) (122, -1.45763444900512695312e+00) (123, 1.34910082817077636719e+00) (124, -2.84167855978012084961e-01) (125, 1.33055567741394042969e+00) (126, 1.10136806964874267578e+00) (127, 1.69901657104492187500e+00) (128, 1.22226452827453613281e+00) (129, 1.74976789951324462891e+00) (130, 9.90902066230773925781e-01) (131, 1.69395434856414794922e+00) (132, 9.08605277538299560547e-01) (133, 1.72043752670288085938e+00) (134, 8.15871417522430419922e-01) (135, 1.72983825206756591797e+00) (136, 7.79531240463256835938e-01) (137, 1.74953877925872802734e+00) (138, 8.18986713886260986328e-01) (139, 1.64631628990173339844e+00) (140, 4.86615926027297973633e-01) (141, 8.47447395324707031250e-01) (142, 6.70706748962402343750e-01) (143, 8.93933892250061035156e-01) (144, 2.01453357934951782227e-01) (145, 8.89388382434844970703e-01) (146, 2.95726656913757324219e-01) (147, 8.67212951183319091797e-01) (148, 2.97021359205245971680e-01) (149, 8.49912583827972412109e-01) (150, -1.17175290361046791077e-02) (0, -6.47736978530883789062e+00) (1, -8.52840518951416015625e+00) (2, -5.05241823196411132812e+00) (3, -6.52577447891235351562e+00) (4, -3.84981727600097656250e+00) (5, -4.00013399124145507812e+00) (6, -2.40943503379821777344e+00) (7, -2.01175832748413085938e+00) (8, -1.19000005722045898438e+00) (9, -3.04598122835159301758e-01) (10, 1.46419197320938110352e-01) (11, 2.03594827651977539062e+00) (12, 1.15937769412994384766e+00) (13, 4.24265384674072265625e+00) (14, -9.96090233325958251953e-01) (15, 5.04541444778442382812e+00) (16, -4.85876083374023437500e-01) (17, 1.35326409339904785156e+00) (18, 5.48169374465942382812e-01) (19, 9.33269500732421875000e-01) (20, 1.49177420139312744141e+00) (21, 3.20522522926330566406e+00) (22, 9.68013405799865722656e-01) (23, -2.41087555885314941406e+00) (24, 1.29803061485290527344e+00) (25, 4.94913876056671142578e-01) (26, 6.57057344913482666016e-01) (27, 1.03981542587280273438e+00) (28, -9.95012879371643066406e-01) (29, 2.53023123741149902344e+00) (30, -1.26450300216674804688e-01) (31, -1.98903071880340576172e+00) (32, 1.72106695175170898438e+00) (33, 2.91613638401031494141e-01) (34, -2.32152557373046875000e+00) (35, -1.23918950557708740234e-01) (36, -1.23464143276214599609e+00) (37, -2.04006958007812500000e+00) (38, -6.77659809589385986328e-01) (39, 1.02837824821472167969e+00) (40, -1.84684979915618896484e+00) (41, -3.88334774971008300781e+00) (42, -1.64632225036621093750e+00) (43, -2.85671591758728027344e+00) (44, -1.09477043151855468750e+00) (45, 3.60600233078002929688e-01) (46, -1.52550339698791503906e+00) (47, 4.42599922418594360352e-01) (48, -3.27598905563354492188e+00) (49, 3.97710037231445312500e+00) (50, -1.23064351081848144531e+00) (51, 1.44403302669525146484e+00) (52, -3.41356492042541503906e+00) (53, 3.31807821989059448242e-01) (54, -3.48092555999755859375e+00) (55, 3.19231486320495605469e+00) (56, -3.50752401351928710938e+00) (57, 1.19806981086730957031e+00) (58, -2.57110643386840820312e+00) (59, 1.52062869071960449219e+00) (60, 2.37324619293212890625e+00) (61, -7.69253075122833251953e-01) (62, 1.56158399581909179688e+00) (63, -4.20921182632446289062e+00) (64, 1.40731477737426757812e+00) (65, -1.17616808414459228516e+00) (66, 1.11314761638641357422e+00) (67, 2.62682414054870605469e+00) (68, 3.52067637443542480469e+00) (69, 3.26405286788940429688e+00) (70, 1.02887082099914550781e+00) (71, 1.53012120723724365234e+00) (72, 2.53549814224243164062e+00) (73, 9.71240162849426269531e-01) (74, 1.84092056751251220703e+00) (75, 2.87432122230529785156e+00) (76, 3.00680804252624511719e+00) (77, 4.06332874298095703125e+00) (78, 5.22639894485473632812e+00) (79, -4.64653551578521728516e-01) (80, 5.05424833297729492188e+00) (81, -5.06708383560180664062e-01) (82, 5.39350986480712890625e+00) (83, -1.79349756240844726562e+00) (84, 4.01432657241821289062e+00) (85, -6.97567641735076904297e-01) (86, 7.64618277549743652344e-01) (87, -1.54464697837829589844e+00) (88, 1.54629087448120117188e+00) (89, -1.84269106388092041016e+00) (90, 1.83763206005096435547e+00) (91, -1.22703206539154052734e+00) (92, 1.68419671058654785156e+00) (93, -1.14498233795166015625e+00) (94, 4.36165034770965576172e-01) (95, -1.06427764892578125000e+00) (96, 4.88672316074371337891e-01) (97, 3.04201960563659667969e-01) (98, 7.07496926188468933105e-02) (99, 2.54646271467208862305e-01) (100, 7.32314825057983398438e-01) (101, 4.01124000549316406250e-01) (102, 1.08498835563659667969e+00) (103, 5.17292737960815429688e-01) (104, 1.18166244029998779297e+00) (105, 7.74545729160308837891e-01) (106, 1.13625121116638183594e+00) (107, 4.04522120952606201172e-01) (108, 1.08362352848052978516e+00) (109, 2.71216988563537597656e-01) (110, 3.95032376050949096680e-01) (111, 6.11114680767059326172e-01) (112, -4.79961484670639038086e-01) (113, 6.20088040828704833984e-01) (114, -7.24504113197326660156e-01) (115, 6.33337199687957763672e-01) (116, -7.39571750164031982422e-01) (117, 5.24593293666839599609e-01) (118, -1.02866864204406738281e+00) (119, 6.04377925395965576172e-01) (120, -6.21244311332702636719e-01) (121, -4.50416475534439086914e-01) (122, -8.60293924808502197266e-01) (123, -4.65306937694549560547e-01) (124, -1.68268954753875732422e+00) (125, -4.20875698328018188477e-01) (126, -1.08694446086883544922e+00) (127, -1.91931739449501037598e-01) (128, -7.53894686698913574219e-01) (129, -1.17315709590911865234e+00) (130, -6.04284226894378662109e-01) (131, -1.25348997116088867188e+00) (132, -6.28490805625915527344e-01) (133, -1.16699314117431640625e+00) (134, -4.58353549242019653320e-01) (135, -1.12971210479736328125e+00) (136, -5.08989751338958740234e-01) (137, -1.22807109355926513672e+00) (138, -4.69217568635940551758e-01) (139, -1.23332560062408447266e+00) (140, -3.72870236635208129883e-01) (141, -5.65166175365447998047e-01) (142, -4.30988460779190063477e-01) (143, -4.23550635576248168945e-01) (144, -8.93751382827758789062e-02) (145, -5.58096647262573242188e-01) (146, -1.10841870307922363281e-01) (147, -4.39113616943359375000e-01) (148, -1.45702600479125976562e-01) (149, -5.52823722362518310547e-01) (150, 3.67577746510505676270e-02) (0, 7.33082234859466552734e-01) (1, 8.35433101654052734375e+00) (2, 4.50120300054550170898e-01) (3, 7.02782773971557617188e+00) (4, -5.34722022712230682373e-02) (5, 5.55241918563842773438e+00) (6, -4.02196288108825683594e-01) (7, 3.71874523162841796875e+00) (8, -5.11044025421142578125e-01) (9, 1.91874492168426513672e+00) (10, -9.13288831710815429688e-01) (11, 1.33297622203826904297e-01) (12, -1.22625148296356201172e+00) (13, -1.24612581729888916016e+00) (14, -9.23276096582412719727e-02) (15, -3.17797636985778808594e+00) (16, -3.40039551258087158203e-01) (17, -1.79186356067657470703e+00) (18, -7.99001097679138183594e-01) (19, -1.80014276504516601562e+00) (20, -1.18524014949798583984e+00) (21, -3.22984743118286132812e+00) (22, -6.08022093772888183594e-01) (23, 1.64506340026855468750e+00) (24, -1.11295938491821289062e+00) (25, -1.07134208083152770996e-01) (26, -2.88857191801071166992e-01) (27, 5.40165185928344726562e-01) (28, 5.88963150978088378906e-01) (29, -5.77104806900024414062e-01) (30, 9.34803634881973266602e-02) (31, 1.23302865028381347656e+00) (32, -3.35395485162734985352e-02) (33, 7.99189269542694091797e-01) (34, 1.68402099609375000000e+00) (35, 1.04506719112396240234e+00) (36, 2.17201828956604003906e+00) (37, 9.21048820018768310547e-01) (38, 1.68800258636474609375e+00) (39, -5.66050589084625244141e-01) (40, 2.66539001464843750000e+00) (41, 2.18885159492492675781e+00) (42, 2.75380492210388183594e+00) (43, 2.36611747741699218750e+00) (44, 2.58899879455566406250e+00) (45, 1.89627930521965026855e-01) (46, 4.38409477472305297852e-01) (47, -1.34888195991516113281e+00) (48, 1.92764103412628173828e+00) (49, -1.59293162822723388672e+00) (50, -1.78309285640716552734e+00) (51, 2.16492772102355957031e+00) (52, 2.85386383533477783203e-01) (53, 1.19807779788970947266e+00) (54, 3.12706053256988525391e-01) (55, 1.62615790963172912598e-01) (56, -8.15514087677001953125e-01) (57, 1.34038555622100830078e+00) (58, -3.87236714363098144531e-01) (59, 2.67994785308837890625e+00) (60, -2.95201444625854492188e+00) (61, 9.64021742343902587891e-01) (62, -2.11255598068237304688e+00) (63, 3.47439020872116088867e-01) (64, -1.69516944885253906250e+00) (65, 4.88270260393619537354e-02) (66, -1.84954273700714111328e+00) (67, -2.20242786407470703125e+00) (68, -2.76048541069030761719e+00) (69, -2.06685709953308105469e+00) (70, 2.94634371995925903320e-01) (71, -1.27062010765075683594e+00) (72, -1.93473383784294128418e-01) (73, -1.48979544639587402344e+00) (74, -1.84363734722137451172e+00) (75, -2.45346522331237792969e+00) (76, -2.95970487594604492188e+00) (77, -3.26547956466674804688e+00) (78, -1.79600143432617187500e+00) (79, -2.40316867828369140625e+00) (80, -1.47661256790161132812e+00) (81, 1.21828891336917877197e-01) (82, -2.31176924705505371094e+00) (83, 2.63672256469726562500e+00) (84, -1.43378210067749023438e+00) (85, 2.70640730857849121094e-01) (86, -8.40645015239715576172e-01) (87, 4.28316444158554077148e-01) (88, -8.59182059764862060547e-01) (89, 4.95495796203613281250e-01) (90, -1.11733865737915039062e+00) (91, 8.95279347896575927734e-01) (92, -1.11737024784088134766e+00) (93, 8.89687836170196533203e-01) (94, -1.70051610469818115234e+00) (95, -2.17595119029283523560e-02) (96, -1.09521639347076416016e+00) (97, 1.23758822679519653320e-01) (98, -5.11364459991455078125e-01) (99, -4.28510874509811401367e-01) (100, 9.58760455250740051270e-03) (101, -4.81991678476333618164e-01) (102, -3.39050024747848510742e-01) (103, -5.73395550251007080078e-01) (104, -9.78790819644927978516e-02) (105, -5.74188053607940673828e-01) (106, -1.53936818242073059082e-01) (107, -4.07046765089035034180e-01) (108, -4.73412908613681793213e-02) (109, -5.52906274795532226562e-01) (110, 3.76115113496780395508e-01) (111, -1.74790441989898681641e-01) (112, 3.69095087051391601562e-01) (113, -2.39202067255973815918e-01) (114, 6.59925460815429687500e-01) (115, -2.72453576326370239258e-01) (116, 6.61559224128723144531e-01) (117, -1.24192081391811370850e-01) (118, 6.03452205657958984375e-01) (119, -1.17671780288219451904e-01) (120, 6.07026457786560058594e-01) (121, 2.54287153482437133789e-01) (122, 5.33968031406402587891e-01) (123, 2.92231559753417968750e-01) (124, 8.99364292621612548828e-01) (125, 2.94618964195251464844e-01) (126, 4.48374956846237182617e-01) (127, 1.65630117058753967285e-01) (128, 3.33131760358810424805e-01) (129, 3.51204186677932739258e-01) (130, 2.41834029555320739746e-01) (131, 3.20461690425872802734e-01) (132, 2.21809610724449157715e-01) (133, 3.56060206890106201172e-01) (134, 2.06756040453910827637e-01) (135, 2.99745231866836547852e-01) (136, 1.00692741572856903076e-01) (137, 3.66101145744323730469e-01) (138, 1.30567073822021484375e-01) (139, 3.58160734176635742188e-01) (140, 8.36879089474678039551e-02) (141, 2.87996381521224975586e-01) (142, 1.71513125300407409668e-01) (143, 1.84312567114830017090e-01) (144, 1.97596885263919830322e-02) (145, 2.19316065311431884766e-01) (146, 5.90935908257961273193e-02) (147, 2.81598269939422607422e-01) (148, 3.55875156819820404053e-02) (149, 2.75445163249969482422e-01) (150, 2.92796976864337921143e-02) (0, -3.32639336585998535156e+00) (1, 9.79553127288818359375e+00) (2, -3.15028953552246093750e+00) (3, 5.13204908370971679688e+00) (4, -2.50396633148193359375e+00) (5, 3.24437499046325683594e+00) (6, -1.66285860538482666016e+00) (7, 3.68124336004257202148e-01) (8, -6.68337881565093994141e-01) (9, -3.03847527503967285156e+00) (10, -1.07779867947101593018e-01) (11, -4.88789558410644531250e+00) (12, 8.55165600776672363281e-01) (13, -6.90650081634521484375e+00) (14, 4.07682991027832031250e+00) (15, -8.32164096832275390625e+00) (16, 3.83520913124084472656e+00) (17, -9.88674259185791015625e+00) (18, 4.61674451828002929688e+00) (19, -6.57861280441284179688e+00) (20, 1.01857030391693115234e+00) (21, -9.27460956573486328125e+00) (22, 4.07408761978149414062e+00) (23, 1.74532282352447509766e+00) (24, 2.77954745292663574219e+00) (25, 2.34554100036621093750e+00) (26, 5.17443943023681640625e+00) (27, 1.33584260940551757812e+00) (28, 4.33511114120483398438e+00) (29, -1.38935971260070800781e+00) (30, 2.39801955223083496094e+00) (31, 3.14007461071014404297e-01) (32, 2.13038372993469238281e+00) (33, -2.85620594024658203125e+00) (34, 7.26735925674438476562e+00) (35, -4.18701219558715820312e+00) (36, 6.29583263397216796875e+00) (37, -3.60994791984558105469e+00) (38, 5.61118364334106445312e+00) (39, -5.60996055603027343750e+00) (40, 6.88882923126220703125e+00) (41, -4.08706665039062500000e+00) (42, 5.50065040588378906250e+00) (43, -6.05102539062500000000e+00) (44, 5.46074819564819335938e+00) (45, -9.45918941497802734375e+00) (46, -2.09359812736511230469e+00) (47, -6.93154096603393554688e+00) (48, -2.88372725248336791992e-01) (49, -9.12090718746185302734e-01) (50, -4.18037652969360351562e-01) (51, 3.70808148384094238281e+00) (52, -2.36644029617309570312e+00) (53, 3.01912450790405273438e+00) (54, -7.94320106506347656250e-01) (55, 2.71561288833618164062e+00) (56, -6.19561970233917236328e-01) (57, 5.51801729202270507812e+00) (58, -1.33859610557556152344e+00) (59, 3.81765770912170410156e+00) (60, -1.53340268135070800781e+00) (61, -3.83897364139556884766e-01) (62, -2.53425025939941406250e+00) (63, -7.06166565418243408203e-01) (64, -1.84171092510223388672e+00) (65, 1.24048009514808654785e-01) (66, -1.22648131847381591797e+00) (67, -7.97651529312133789062e-01) (68, -2.20058631896972656250e+00) (69, -5.56526565551757812500e+00) (70, -2.90106916427612304688e+00) (71, -6.11544132232666015625e+00) (72, -4.64924526214599609375e+00) (73, -7.66596746444702148438e+00) (74, -4.40982055664062500000e+00) (75, -1.28593416213989257812e+01) (76, -6.78682041168212890625e+00) (77, -1.32131538391113281250e+01) (78, -8.38271236419677734375e+00) (79, -7.54480552673339843750e+00) (80, -1.98992118239402770996e-02) (81, -3.47341394424438476562e+00) (82, -1.35177385807037353516e+00) (83, -5.02192854881286621094e-01) (84, -1.12251532077789306641e+00) (85, -2.81339973211288452148e-01) (86, 7.93367903679609298706e-03) (87, -2.15957927703857421875e+00) (88, 6.12133324146270751953e-01) (89, -2.01603102684020996094e+00) (90, 1.33606815338134765625e+00) (91, -1.31550276279449462891e+00) (92, 2.27529001235961914062e+00) (93, -1.36805319786071777344e+00) (94, 2.92236423492431640625e+00) (95, -2.06956529617309570312e+00) (96, 2.58057922124862670898e-01) (97, -4.13560199737548828125e+00) (98, 3.27776163816452026367e-01) (99, -3.23022723197937011719e+00) (100, -1.41274273395538330078e+00) (101, -3.18296456336975097656e+00) (102, -1.39203345775604248047e+00) (103, -2.60665225982666015625e+00) (104, -1.09994399547576904297e+00) (105, -2.38026905059814453125e+00) (106, -7.92367160320281982422e-01) (107, -2.22534251213073730469e+00) (108, -5.40136098861694335938e-01) (109, -2.12540626525878906250e+00) (110, -3.68024259805679321289e-01) (111, -2.39417886734008789062e+00) (112, -1.31617045402526855469e+00) (113, -2.23939466476440429688e+00) (114, -7.58369505405426025391e-01) (115, -2.28575420379638671875e+00) (116, -3.20039421319961547852e-01) (117, -2.12524437904357910156e+00) (118, 1.44010335206985473633e-01) (119, -2.01466035842895507812e+00) (120, 1.07288074493408203125e+00) (121, -3.68738818168640136719e+00) (122, 1.39389455318450927734e+00) (123, -3.68060302734375000000e+00) (124, 3.21234077215194702148e-01) (125, -3.64902281761169433594e+00) (126, -5.90009510517120361328e-01) (127, -4.00328636169433593750e+00) (128, -1.19795501232147216797e+00) (129, -1.77251398563385009766e+00) (130, -9.36499059200286865234e-01) (131, -1.77428901195526123047e+00) (132, -8.91374766826629638672e-01) (133, -1.69063854217529296875e+00) (134, -7.77856111526489257812e-01) (135, -1.73176550865173339844e+00) (136, -8.41829836368560791016e-01) (137, -1.68983685970306396484e+00) (138, -6.92404270172119140625e-01) (139, -1.66426408290863037109e+00) (140, -6.83047056198120117188e-01) (141, -8.58212471008300781250e-01) (142, -5.61440646648406982422e-01) (143, -8.90418469905853271484e-01) (144, -2.78004527091979980469e-01) (145, -8.37319076061248779297e-01) (146, -2.51664757728576660156e-01) (147, -8.71659874916076660156e-01) (148, -3.26740950345993041992e-01) (149, -9.52761650085449218750e-01) (150, -2.30254344642162322998e-02) (0, -9.89983558654785156250e+00) (1, 7.75909614562988281250e+00) (2, -8.25935459136962890625e+00) (3, 9.34658718109130859375e+00) (4, -7.07646036148071289062e+00) (5, 7.79680395126342773438e+00) (6, -5.71183013916015625000e+00) (7, 6.78896760940551757812e+00) (8, -4.41484832763671875000e+00) (9, 6.78237247467041015625e+00) (10, -3.31484889984130859375e+00) (11, 5.10601234436035156250e+00) (12, -1.99406468868255615234e+00) (13, 4.92748594284057617188e+00) (14, -1.84573018550872802734e+00) (15, 3.30522966384887695312e+00) (16, -2.74488162994384765625e+00) (17, 2.92784357070922851562e+00) (18, -1.95761275291442871094e+00) (19, 1.58114957809448242188e+00) (20, -2.30332255363464355469e+00) (21, 1.06554949283599853516e+00) (22, -4.40189063549041748047e-01) (23, 1.44149124622344970703e+00) (24, -6.79679453372955322266e-01) (25, -1.00553250312805175781e+00) (26, -8.72278571128845214844e-01) (27, 1.37749195098876953125e+00) (28, -1.71635210514068603516e+00) (29, 2.91024565696716308594e+00) (30, -6.12521290779113769531e-01) (31, 2.59357899427413940430e-01) (32, 7.66474127769470214844e-01) (33, 2.78718638420104980469e+00) (34, -2.06654357910156250000e+00) (35, 3.16475129127502441406e+00) (36, -5.35546004772186279297e-01) (37, 3.56916332244873046875e+00) (38, -1.12267017364501953125e+00) (39, 3.06270956993103027344e+00) (40, 3.68342161178588867188e-01) (41, 4.30605459213256835938e+00) (42, 5.77100872993469238281e-01) (43, 3.52106261253356933594e+00) (44, 1.09263765811920166016e+00) (45, 2.94723057746887207031e+00) (46, -2.34448838233947753906e+00) (47, 3.37042760848999023438e+00) (48, -1.08574438095092773438e+00) (49, 5.86787700653076171875e+00) (50, -4.09941673278808593750e+00) (51, 6.02895927429199218750e+00) (52, -1.52925455570220947266e+00) (53, 3.28303027153015136719e+00) (54, -2.08615183830261230469e+00) (55, 2.76137614250183105469e+00) (56, -3.16094946861267089844e+00) (57, 1.78624093532562255859e-01) (58, -3.70953273773193359375e+00) (59, 2.39985203742980957031e+00) (60, -4.36346578598022460938e+00) (61, 1.14063525199890136719e+00) (62, -3.28971958160400390625e+00) (63, -3.43444681167602539062e+00) (64, -1.62450313568115234375e+00) (65, -2.01231002807617187500e+00) (66, -1.24613523483276367188e+00) (67, -4.03412294387817382812e+00) (68, 3.73774170875549316406e-01) (69, -2.49977350234985351562e+00) (70, 1.71738970279693603516e+00) (71, -1.01501441001892089844e+00) (72, 2.59977102279663085938e+00) (73, -2.67815542221069335938e+00) (74, -2.84947538375854492188e+00) (75, 1.26229918003082275391e+00) (76, -3.51498389244079589844e+00) (77, 1.13627207279205322266e+00) (78, 1.02440273761749267578e+00) (79, -4.82145643234252929688e+00) (80, -1.50074772536754608154e-02) (81, -8.72452110052108764648e-02) (82, -6.84909343719482421875e-01) (83, -5.02271115779876708984e-01) (84, -1.81599885225296020508e-01) (85, -3.59209060668945312500e+00) (86, 5.91151177883148193359e-01) (87, -1.79165852069854736328e+00) (88, 8.28640878200531005859e-01) (89, -1.82837355136871337891e+00) (90, 3.89317899942398071289e-01) (91, -7.64124035835266113281e-01) (92, 2.69303768873214721680e-01) (93, -8.51200819015502929688e-01) (94, -1.24472463130950927734e+00) (95, -1.13536810874938964844e+00) (96, 7.49793171882629394531e-01) (97, 2.58281016349792480469e+00) (98, -2.70242422819137573242e-01) (99, 7.71775603294372558594e-01) (100, 2.03045797348022460938e+00) (101, 7.63209521770477294922e-01) (102, 1.93280184268951416016e+00) (103, 5.47793865203857421875e-01) (104, 1.96353864669799804688e+00) (105, 2.04851314425468444824e-01) (106, 2.06712055206298828125e+00) (107, -6.06561265885829925537e-02) (108, 1.84504997730255126953e+00) (109, -3.21306556463241577148e-01) (110, 2.40955185890197753906e+00) (111, 7.69531309604644775391e-01) (112, 1.09942102432250976562e+00) (113, 6.29145085811614990234e-01) (114, 1.03702914714813232422e+00) (115, 7.02531754970550537109e-01) (116, 8.59957396984100341797e-01) (117, 6.59094572067260742188e-01) (118, 2.45170563459396362305e-01) (119, 4.74778652191162109375e-01) (120, 1.46343499422073364258e-01) (121, 2.18128156661987304688e+00) (122, -1.09830081462860107422e-01) (123, 2.07339334487915039062e+00) (124, 8.82784426212310791016e-01) (125, 1.99680125713348388672e+00) (126, 1.40214100480079650879e-01) (127, 1.92029273509979248047e+00) (128, 4.72993940114974975586e-01) (129, 6.49917423725128173828e-02) (130, 2.15911015868186950684e-01) (131, -1.42435565590858459473e-01) (132, 2.80552387237548828125e-01) (133, 8.21834243834018707275e-03) (134, 4.92342263460159301758e-01) (135, -1.24870009720325469971e-01) (136, 3.39315861463546752930e-01) (137, -2.76460722088813781738e-02) (138, 5.06829500198364257812e-01) (139, -3.48358787596225738525e-02) (140, 6.42532706260681152344e-01) (141, 8.96495819091796875000e-01) (142, 6.10839903354644775391e-01) (143, 8.28325212001800537109e-01) (144, 3.85225087404251098633e-01) (145, 9.22690153121948242188e-01) (146, 1.93775549530982971191e-01) (147, 8.92259180545806884766e-01) (148, 2.86901950836181640625e-01) (149, 8.21045637130737304688e-01) (150, 4.73364889621734619141e-02) (0, -1.27041292190551757812e+01) (1, 2.04418540000915527344e+00) (2, -1.06665859222412109375e+01) (3, 3.71049118041992187500e+00) (4, -8.53105354309082031250e+00) (5, 4.55368471145629882812e+00) (6, -5.93850755691528320312e+00) (7, 5.14905214309692382812e+00) (8, -3.83093023300170898438e+00) (9, 5.07306289672851562500e+00) (10, -1.49205112457275390625e+00) (11, 5.77381038665771484375e+00) (12, 4.43980872631072998047e-01) (13, 6.30189752578735351562e+00) (14, -3.20144861936569213867e-01) (15, 4.84933853149414062500e+00) (16, -3.40383440256118774414e-01) (17, 1.35609257221221923828e+00) (18, 1.55489432811737060547e+00) (19, 1.13561570644378662109e+00) (20, 1.60152590274810791016e+00) (21, 1.88627147674560546875e+00) (22, 1.66924536228179931641e+00) (23, 2.95002669095993041992e-01) (24, -8.63967657089233398438e-01) (25, -1.47839772701263427734e+00) (26, -6.44528716802597045898e-02) (27, 7.28577375411987304688e-01) (28, -3.40308570861816406250e+00) (29, 1.45547866821289062500e+00) (30, -2.01302957534790039062e+00) (31, -1.43604850769042968750e+00) (32, -4.16147947311401367188e-01) (33, 2.33833193778991699219e+00) (34, -4.89279317855834960938e+00) (35, 3.37809538841247558594e+00) (36, -2.32330799102783203125e+00) (37, 2.23437309265136718750e+00) (38, -1.75881385803222656250e+00) (39, 3.62559986114501953125e+00) (40, -1.10090696811676025391e+00) (41, 1.57978308200836181641e+00) (42, -8.91487479209899902344e-01) (43, 1.29747986793518066406e+00) (44, 8.02043303847312927246e-02) (45, 2.58681631088256835938e+00) (46, -2.47557759284973144531e-01) (47, 3.08718419075012207031e+00) (48, -1.39991796016693115234e+00) (49, 8.00831508636474609375e+00) (50, -4.31379032135009765625e+00) (51, 7.72223806381225585938e+00) (52, -3.63039922714233398438e+00) (53, 2.50886225700378417969e+00) (54, -3.99987602233886718750e+00) (55, 4.01919603347778320312e+00) (56, -4.52811956405639648438e+00) (57, 2.64448928833007812500e+00) (58, -4.33246564865112304688e+00) (59, 4.27406024932861328125e+00) (60, -7.39144325256347656250e-01) (61, 3.73224347829818725586e-01) (62, -9.16490375995635986328e-01) (63, -6.00762987136840820312e+00) (64, -1.57680189609527587891e+00) (65, -1.25253963470458984375e+00) (66, -1.87650191783905029297e+00) (67, 9.91474449634552001953e-01) (68, 9.69170510768890380859e-01) (69, 3.21386814117431640625e+00) (70, 6.45110547542572021484e-01) (71, 2.39683270454406738281e+00) (72, 2.17614006996154785156e+00) (73, 1.60842344164848327637e-01) (74, 3.38650345802307128906e-01) (75, 4.11638307571411132812e+00) (76, 2.96577364206314086914e-01) (77, 4.45153903961181640625e+00) (78, 3.20608377456665039062e+00) (79, -1.39181113243103027344e+00) (80, -3.35189253091812133789e-01) (81, 5.39477705955505371094e-01) (82, 1.02651107311248779297e+00) (83, 1.45134103298187255859e+00) (84, 1.60087513923645019531e+00) (85, -2.76298254728317260742e-01) (86, -2.05932661890983581543e-01) (87, -1.65923833847045898438e+00) (88, 2.81964629888534545898e-01) (89, -1.66802525520324707031e+00) (90, 2.13356211781501770020e-01) (91, -5.33007383346557617188e-01) (92, 5.89686274528503417969e-01) (93, -4.59698110818862915039e-01) (94, -7.97061085700988769531e-01) (95, -7.14055776596069335938e-01) (96, 6.09969735145568847656e-01) (97, 1.31608200073242187500e+00) (98, 5.34037172794342041016e-01) (99, 5.90005695819854736328e-01) (100, 1.27076756954193115234e+00) (101, 6.47726118564605712891e-01) (102, 1.24763059616088867188e+00) (103, 6.20721042156219482422e-01) (104, 1.34781861305236816406e+00) (105, 6.52790963649749755859e-01) (106, 1.42749786376953125000e+00) (107, -4.65921647846698760986e-02) (108, 1.51754450798034667969e+00) (109, 9.81467030942440032959e-03) (110, 1.12812173366546630859e+00) (111, 6.39488935470581054688e-01) (112, 3.58129553496837615967e-02) (113, 6.92543625831604003906e-01) (114, 1.54190436005592346191e-02) (115, 7.68420457839965820312e-01) (116, 3.04403360933065414429e-02) (117, 7.47881710529327392578e-01) (118, -1.63673177361488342285e-01) (119, 8.73172760009765625000e-01) (120, 5.09687364101409912109e-01) (121, -1.15261888504028320312e+00) (122, 2.66572266817092895508e-01) (123, -1.20933210849761962891e+00) (124, -1.32333755493164062500e+00) (125, -1.22123360633850097656e+00) (126, -1.76442205905914306641e+00) (127, -1.23716676235198974609e+00) (128, -1.44714224338531494141e+00) (129, -2.17790007591247558594e+00) (130, -1.08370423316955566406e+00) (131, -2.05876564979553222656e+00) (132, -1.06075525283813476562e+00) (133, -2.08029460906982421875e+00) (134, -9.21965718269348144531e-01) (135, -2.17261123657226562500e+00) (136, -1.01754283905029296875e+00) (137, -1.99848628044128417969e+00) (138, -9.34801101684570312500e-01) (139, -2.00452494621276855469e+00) (140, -6.81582629680633544922e-01) (141, -1.15627408027648925781e+00) (142, -8.53542208671569824219e-01) (143, -1.04042232036590576172e+00) (144, -3.89204353094100952148e-01) (145, -1.07062578201293945312e+00) (146, -4.26226556301116943359e-01) (147, -1.10158061981201171875e+00) (148, -3.08777064085006713867e-01) (149, -1.16747808456420898438e+00) (150, -3.90238426625728607178e-02) (0, 1.35686016082763671875e+00) (1, -7.52896606922149658203e-01) (2, 7.07794964313507080078e-01) (3, -1.84940397739410400391e+00) (4, 5.51196038722991943359e-01) (5, -7.90133118629455566406e-01) (6, 4.77594912052154541016e-01) (7, -6.57863140106201171875e-01) (8, 2.82754283398389816284e-02) (9, -2.02796387672424316406e+00) (10, -4.05341058969497680664e-01) (11, -4.43352580070495605469e-01) (12, -5.21215736865997314453e-01) (13, -6.80679738521575927734e-01) (14, 2.21446609497070312500e+00) (15, -2.34878754615783691406e+00) (16, 1.83859205245971679688e+00) (17, -3.11053323745727539062e+00) (18, 1.85790765285491943359e+00) (19, -2.51060080528259277344e+00) (20, 1.06084096431732177734e+00) (21, -2.77118444442749023438e+00) (22, -1.74486741423606872559e-01) (23, 9.03997123241424560547e-02) (24, -1.26671290397644042969e+00) (25, -3.57929885387420654297e-01) (26, -8.28408356755971908569e-03) (27, 2.33404302597045898438e+00) (28, 1.15247309207916259766e+00) (29, 1.50177583098411560059e-01) (30, 4.86928135156631469727e-01) (31, 2.16884422302246093750e+00) (32, -3.25987756252288818359e-01) (33, -1.82159340381622314453e+00) (34, 1.98248490691184997559e-01) (35, -1.94518983364105224609e+00) (36, -9.24953296780586242676e-02) (37, -6.58830821514129638672e-01) (38, 8.22364151477813720703e-01) (39, -4.92312498390674591064e-02) (40, 7.49394237995147705078e-01) (41, -8.92313644289970397949e-02) (42, 2.66341447830200195312e-01) (43, 5.24679422378540039062e-01) (44, 3.85299593210220336914e-01) (45, 7.12563157081604003906e-01) (46, 1.13273465633392333984e+00) (47, -1.95138478279113769531e+00) (48, 2.66336512565612792969e+00) (49, -1.30709362030029296875e+00) (50, 1.55939531326293945312e+00) (51, -7.35946232452988624573e-03) (52, -4.42283958196640014648e-01) (53, -1.50633406639099121094e+00) (54, 3.06303083896636962891e-01) (55, 1.72947824001312255859e-01) (56, -2.63590753078460693359e-01) (57, 3.69756102561950683594e+00) (58, 5.52467346191406250000e-01) (59, 2.20202708244323730469e+00) (60, 1.05441820621490478516e+00) (61, -1.10554766654968261719e+00) (62, 1.60530734062194824219e+00) (63, -9.10844564437866210938e-01) (64, 2.96145409345626831055e-01) (65, 9.88713026046752929688e-01) (66, -1.24994121491909027100e-01) (67, 2.44975090026855468750e+00) (68, -8.69152426719665527344e-01) (69, -1.64323046803474426270e-01) (70, -2.56007313728332519531e-01) (71, -8.10304462909698486328e-01) (72, -1.36802029609680175781e+00) (73, 3.83373171091079711914e-01) (74, 1.21980130672454833984e+00) (75, -1.13203454017639160156e+00) (76, 1.70115602016448974609e+00) (77, -1.99111092090606689453e+00) (78, -4.63696300983428955078e-01) (79, 7.88753509521484375000e-01) (80, -5.65041303634643554688e-01) (81, -2.23587583750486373901e-02) (82, -6.46022975444793701172e-01) (83, 2.24854850769042968750e+00) (84, -1.14146125316619873047e+00) (85, 2.69078755378723144531e+00) (86, -1.29060733318328857422e+00) (87, 8.94039928913116455078e-01) (88, -9.74462389945983886719e-01) (89, 7.36253798007965087891e-01) (90, -9.29036498069763183594e-01) (91, 1.07761466503143310547e+00) (92, -9.24789547920227050781e-01) (93, 1.06500208377838134766e+00) (94, -1.30186545848846435547e+00) (95, 6.28106057643890380859e-01) (96, -1.59364330768585205078e+00) (97, -8.13164353370666503906e-01) (98, -3.54305565357208251953e-01) (99, -1.14748299121856689453e-01) (100, -9.61841404438018798828e-01) (101, -1.02271839976310729980e-01) (102, -9.96640503406524658203e-01) (103, -1.21430881321430206299e-01) (104, -7.56300568580627441406e-01) (105, 1.37679144740104675293e-01) (106, -8.51808607578277587891e-01) (107, 3.83269935846328735352e-01) (108, -7.33092606067657470703e-01) (109, 4.07512694597244262695e-01) (110, -4.20101821422576904297e-01) (111, 3.35012376308441162109e-01) (112, -3.49342375993728637695e-02) (113, 3.42049390077590942383e-01) (114, 6.23640529811382293701e-02) (115, 3.78923863172531127930e-01) (116, 1.73531174659729003906e-01) (117, 4.16144669055938720703e-01) (118, 2.33292430639266967773e-01) (119, 4.65855687856674194336e-01) (120, 5.75064599514007568359e-01) (121, -1.53993582725524902344e+00) (122, 7.86557257175445556641e-01) (123, -1.58631837368011474609e+00) (124, -7.75061249732971191406e-01) (125, -1.47878336906433105469e+00) (126, -1.08809340000152587891e+00) (127, -1.63075172901153564453e+00) (128, -1.15186023712158203125e+00) (129, -1.00320935249328613281e+00) (130, -7.67654597759246826172e-01) (131, -1.05213606357574462891e+00) (132, -6.47657275199890136719e-01) (133, -1.00157344341278076172e+00) (134, -7.96423733234405517578e-01) (135, -1.04057991504669189453e+00) (136, -7.15139031410217285156e-01) (137, -9.75800395011901855469e-01) (138, -7.19612061977386474609e-01) (139, -8.77998948097229003906e-01) (140, -8.78123164176940917969e-01) (141, -1.14795410633087158203e+00) (142, -8.36604237556457519531e-01) (143, -1.24891090393066406250e+00) (144, -3.50131064653396606445e-01) (145, -1.18331825733184814453e+00) (146, -4.45156961679458618164e-01) (147, -1.10799551010131835938e+00) (148, -3.90303611755371093750e-01) (149, -1.12796068191528320312e+00) (150, 8.79713594913482666016e-02) (0, 1.88389554619789123535e-01) (1, 1.31766748428344726562e+01) (2, 2.63741135597229003906e-01) (3, 1.50222358703613281250e+01) (4, -5.11348009109497070312e-01) (5, 1.02047376632690429688e+01) (6, -7.77213692665100097656e-01) (7, 7.11578226089477539062e+00) (8, -1.00804865360260009766e+00) (9, 6.74824905395507812500e+00) (10, -1.07541918754577636719e+00) (11, 1.50661861896514892578e+00) (12, -1.51417493820190429688e+00) (13, -6.41691207885742187500e-01) (14, -3.15031385421752929688e+00) (15, -3.16475123167037963867e-01) (16, -3.03260946273803710938e+00) (17, 3.22863864898681640625e+00) (18, -3.36313843727111816406e+00) (19, 1.15376389026641845703e+00) (20, -3.19743704795837402344e+00) (21, -8.41929316520690917969e-01) (22, -9.87360954284667968750e-01) (23, 1.88919031620025634766e+00) (24, 5.00586628913879394531e-01) (25, 2.45568484067916870117e-01) (26, -1.97070524096488952637e-01) (27, -2.14084362983703613281e+00) (28, -8.33666622638702392578e-01) (29, 1.03285574913024902344e+00) (30, 7.55623757839202880859e-01) (31, 1.95551097393035888672e+00) (32, 3.30591022968292236328e-01) (33, 4.51068544387817382812e+00) (34, 1.60678601264953613281e+00) (35, 4.66647434234619140625e+00) (36, 1.57713615894317626953e+00) (37, 3.52074289321899414062e+00) (38, -4.93627995252609252930e-01) (39, -1.17126893997192382812e+00) (40, 1.05984747409820556641e+00) (41, 2.40390062332153320312e+00) (42, 2.60579800605773925781e+00) (43, 1.13269045948982238770e-01) (44, 1.96876120567321777344e+00) (45, -3.14799499511718750000e+00) (46, 1.36195987462997436523e-01) (47, -2.10293030738830566406e+00) (48, 6.01936817169189453125e-01) (49, -4.42213678359985351562e+00) (50, -1.92348492145538330078e+00) (51, -1.38682305812835693359e+00) (52, 4.97628402709960937500e+00) (53, 2.64044547080993652344e+00) (54, 4.07598543167114257812e+00) (55, -1.24397456645965576172e+00) (56, 3.56639146804809570312e+00) (57, -4.02153444290161132812e+00) (58, 9.65991199016571044922e-01) (59, -1.96951818466186523438e+00) (60, -4.05899572372436523438e+00) (61, 1.22030711174011230469e+00) (62, -4.65418577194213867188e+00) (63, 3.13785314559936523438e+00) (64, -2.25869488716125488281e+00) (65, -6.89308762550354003906e-01) (66, -1.22206699848175048828e+00) (67, -7.43387365341186523438e+00) (68, -1.71805489063262939453e+00) (69, -4.85110902786254882812e+00) (70, 1.37245059013366699219e+00) (71, -3.05098819732666015625e+00) (72, 2.01287531852722167969e+00) (73, -5.49526643753051757812e+00) (74, -3.76944851875305175781e+00) (75, -3.33228874206542968750e+00) (76, -6.41979742050170898438e+00) (77, -3.49750828742980957031e+00) (78, -3.79010987281799316406e+00) (79, -4.76600313186645507812e+00) (80, -2.08729267120361328125e+00) (81, -1.34309697151184082031e+00) (82, -2.56112933158874511719e+00) (83, -2.49545764923095703125e+00) (84, -1.26781952381134033203e+00) (85, -5.87411832809448242188e+00) (86, 2.29731869697570800781e+00) (87, -1.47448015213012695312e+00) (88, 1.55091130733489990234e+00) (89, -1.06561148166656494141e+00) (90, 1.04451739788055419922e+00) (91, -9.56306159496307373047e-01) (92, 6.76661252975463867188e-01) (93, -1.30601108074188232422e+00) (94, 3.90224337577819824219e-01) (95, -1.85624790191650390625e+00) (96, 1.07466077804565429688e+00) (97, 3.39648413658142089844e+00) (98, -4.58427518606185913086e-01) (99, 1.43112862110137939453e+00) (100, 2.25137186050415039062e+00) (101, 9.80397164821624755859e-01) (102, 1.49482190608978271484e+00) (103, 2.81619876623153686523e-01) (104, 1.12482678890228271484e+00) (105, -4.53295916318893432617e-01) (106, 1.43366372585296630859e+00) (107, -5.54083168506622314453e-01) (108, 1.00706732273101806641e+00) (109, -5.52878439426422119141e-01) (110, 1.98878514766693115234e+00) (111, -1.63276463747024536133e-01) (112, 1.19712305068969726562e+00) (113, -3.05829286575317382812e-01) (114, 1.31324887275695800781e+00) (115, -1.86833277344703674316e-01) (116, 1.11822962760925292969e+00) (117, -1.87451094388961791992e-01) (118, 4.58357363939285278320e-01) (119, -3.63941818475723266602e-01) (120, -1.42364665865898132324e-01) (121, 3.73097276687622070312e+00) (122, -5.90507209300994873047e-01) (123, 3.76455426216125488281e+00) (124, 2.53754115104675292969e+00) (125, 3.66089749336242675781e+00) (126, 2.07633423805236816406e+00) (127, 3.56584811210632324219e+00) (128, 2.22304105758666992188e+00) (129, 2.08869504928588867188e+00) (130, 1.49692547321319580078e+00) (131, 1.93121266365051269531e+00) (132, 1.37757766246795654297e+00) (133, 1.89110267162322998047e+00) (134, 1.51280069351196289062e+00) (135, 1.94837987422943115234e+00) (136, 1.57366192340850830078e+00) (137, 1.90012395381927490234e+00) (138, 1.57888567447662353516e+00) (139, 1.86229109764099121094e+00) (140, 1.53938603401184082031e+00) (141, 2.24984812736511230469e+00) (142, 1.59028244018554687500e+00) (143, 2.24412894248962402344e+00) (144, 7.62388110160827636719e-01) (145, 2.18579673767089843750e+00) (146, 7.05919563770294189453e-01) (147, 2.18191647529602050781e+00) (148, 7.33363807201385498047e-01) (149, 2.28050327301025390625e+00) (150, 8.72754752635955810547e-02) (0, 3.57526731491088867188e+00) (1, -5.76033687591552734375e+00) (2, 2.86602163314819335938e+00) (3, -6.30891704559326171875e+00) (4, 2.53211617469787597656e+00) (5, -4.60321712493896484375e+00) (6, 2.37397885322570800781e+00) (7, -3.18095970153808593750e+00) (8, 1.84449863433837890625e+00) (9, -2.66128826141357421875e+00) (10, 1.65819895267486572266e+00) (11, -8.45894217491149902344e-01) (12, 1.62023568153381347656e+00) (13, 1.13941125571727752686e-01) (14, 1.00371944904327392578e+00) (15, 1.06106197834014892578e+00) (16, 1.62443649768829345703e+00) (17, -5.98459661006927490234e-01) (18, 1.52229166030883789062e+00) (19, -8.16352903842926025391e-01) (20, 3.30830907821655273438e+00) (21, 4.52379971742630004883e-01) (22, 1.52364921569824218750e+00) (23, -3.65442395210266113281e-01) (24, -9.61212888360023498535e-02) (25, 3.34596306085586547852e-01) (26, 2.50161528587341308594e-01) (27, 5.42623460292816162109e-01) (28, -1.16147887706756591797e+00) (29, -9.99413251876831054688e-01) (30, -2.30719193816184997559e-01) (31, 6.03647589683532714844e-01) (32, -1.02056264877319335938e+00) (33, -2.42920741438865661621e-01) (34, -2.04335451126098632812e+00) (35, -2.93768137693405151367e-01) (36, -1.93854272365570068359e-01) (37, -5.55104792118072509766e-01) (38, 2.36934572458267211914e-01) (39, 6.37911438941955566406e-01) (40, -1.50333893299102783203e+00) (41, -2.15237569808959960938e+00) (42, -1.34054231643676757812e+00) (43, -1.19550740718841552734e+00) (44, -1.48485612869262695312e+00) (45, 1.12801395356655120850e-01) (46, 2.07650709152221679688e+00) (47, -7.07003176212310791016e-01) (48, 3.72846603393554687500e-01) (49, 1.26514661312103271484e+00) (50, 2.28594613075256347656e+00) (51, -2.51262158155441284180e-01) (52, -1.84889042377471923828e+00) (53, -1.75810480117797851562e+00) (54, -1.80594432353973388672e+00) (55, -1.23364794254302978516e+00) (56, -1.71185517311096191406e+00) (57, -6.41426667571067810059e-02) (58, -2.07899546623229980469e+00) (59, -3.75276774168014526367e-01) (60, 4.03810560703277587891e-01) (61, -3.37566792964935302734e-01) (62, -4.19458359479904174805e-01) (63, 1.32530391216278076172e-01) (64, -1.44822704792022705078e+00) (65, 7.77961671352386474609e-01) (66, -2.36933922767639160156e+00) (67, 2.65519309043884277344e+00) (68, -1.94898331165313720703e+00) (69, 3.29369258880615234375e+00) (70, -1.36323714256286621094e+00) (71, 1.59201133251190185547e+00) (72, -1.14781165122985839844e+00) (73, 2.72074341773986816406e+00) (74, 3.13204216957092285156e+00) (75, 2.43970608711242675781e+00) (76, 5.85191011428833007812e+00) (77, 2.60310149192810058594e+00) (78, 3.51993751525878906250e+00) (79, 4.00356626510620117188e+00) (80, 2.25650739669799804688e+00) (81, 1.66852879524230957031e+00) (82, 2.10946083068847656250e+00) (83, 1.17467236518859863281e+00) (84, 1.45223486423492431641e+00) (85, 2.74254631996154785156e+00) (86, 1.46066769957542419434e-01) (87, 1.63359665870666503906e+00) (88, -1.95438563823699951172e-02) (89, 1.63125002384185791016e+00) (90, 9.02759954333305358887e-02) (91, 1.61411333084106445312e+00) (92, -7.94893354177474975586e-02) (93, 1.65693187713623046875e+00) (94, 2.51675188541412353516e-01) (95, 3.26510310173034667969e+00) (96, 1.79153668880462646484e+00) (97, 5.67062318325042724609e-01) (98, 1.77196669578552246094e+00) (99, -5.28693318367004394531e-01) (100, -1.78795501589775085449e-01) (101, -3.93480569124221801758e-01) (102, -4.61774468421936035156e-02) (103, -3.07018280029296875000e-01) (104, -3.47524285316467285156e-01) (105, -2.32457414269447326660e-01) (106, -4.53604400157928466797e-01) (107, -4.32750076055526733398e-01) (108, -2.35349953174591064453e-01) (109, -2.80768930912017822266e-01) (110, -1.36443352699279785156e+00) (111, -6.64189040660858154297e-01) (112, -1.95556473731994628906e+00) (113, -6.78739726543426513672e-01) (114, -2.39850425720214843750e+00) (115, -8.11181843280792236328e-01) (116, -2.49602699279785156250e+00) (117, -6.88476920127868652344e-01) (118, -2.15841078758239746094e+00) (119, -7.25879490375518798828e-01) (120, -1.93011856079101562500e+00) (121, -1.59664249420166015625e+00) (122, -1.81129586696624755859e+00) (123, -1.40938282012939453125e+00) (124, -2.40988779067993164062e+00) (125, -1.45085978507995605469e+00) (126, -1.00372755527496337891e+00) (127, -1.22271239757537841797e+00) (128, -6.42594039440155029297e-01) (129, -1.07540655136108398438e+00) (130, -5.98249137401580810547e-01) (131, -9.02005195617675781250e-01) (132, -4.36922550201416015625e-01) (133, -1.08114349842071533203e+00) (134, -3.57710063457489013672e-01) (135, -9.15634095668792724609e-01) (136, -4.44107472896575927734e-01) (137, -1.05877113342285156250e+00) (138, -3.88520121574401855469e-01) (139, -1.04619061946868896484e+00) (140, -3.53288322687149047852e-01) (141, -3.66656482219696044922e-01) (142, -1.99611738324165344238e-01) (143, -5.08343935012817382812e-01) (144, -1.77892595529556274414e-01) (145, -4.70477789640426635742e-01) (146, -1.97735831141471862793e-01) (147, -4.09885436296463012695e-01) (148, -2.26464688777923583984e-01) (149, -3.45186173915863037109e-01) (150, -8.99190679192543029785e-02) (0, -2.22300171852111816406e+00) (1, 1.00245075225830078125e+01) (2, -1.75755751132965087891e+00) (3, 1.05011062622070312500e+01) (4, -1.70351278781890869141e+00) (5, 7.18793869018554687500e+00) (6, -1.46583092212677001953e+00) (7, 5.04785203933715820312e+00) (8, -1.09675633907318115234e+00) (9, 4.45835161209106445312e+00) (10, -8.12273979187011718750e-01) (11, 9.99836742877960205078e-01) (12, -7.44211554527282714844e-01) (13, -5.83137750625610351562e-01) (14, -1.38010549545288085938e+00) (15, -1.12851929664611816406e+00) (16, -1.45712673664093017578e+00) (17, 1.52039384841918945312e+00) (18, -1.43646526336669921875e+00) (19, 1.40946638584136962891e+00) (20, -2.40969634056091308594e+00) (21, -2.36486822366714477539e-01) (22, -1.05304408073425292969e+00) (23, 2.00515675544738769531e+00) (24, 7.50801116228103637695e-02) (25, -4.70663666725158691406e-01) (26, 4.11624550819396972656e-01) (27, -1.52885437011718750000e+00) (28, 6.84964299201965332031e-01) (29, -1.40021610260009765625e+00) (30, -1.02343512699007987976e-02) (31, 6.17918908596038818359e-01) (32, 6.13020420074462890625e-01) (33, 1.91967976093292236328e+00) (34, 1.42140483856201171875e+00) (35, 1.62915730476379394531e+00) (36, 5.36303102970123291016e-01) (37, 7.78936445713043212891e-01) (38, -4.71166819334030151367e-01) (39, -2.25954747200012207031e+00) (40, 1.27742612361907958984e+00) (41, 1.67978477478027343750e+00) (42, 1.79498982429504394531e+00) (43, 6.69324457645416259766e-01) (44, 1.77184402942657470703e+00) (45, -1.69185817241668701172e+00) (46, -7.55084380507469177246e-02) (47, -1.27703499794006347656e+00) (48, 7.75966763496398925781e-01) (49, -3.54221296310424804688e+00) (50, -2.16782712936401367188e+00) (51, -1.13747529685497283936e-02) (52, 3.85856389999389648438e+00) (53, 1.09874629974365234375e+00) (54, 3.92165136337280273438e+00) (55, -9.90588665008544921875e-01) (56, 3.41736769676208496094e+00) (57, -8.23108255863189697266e-01) (58, 3.04742050170898437500e+00) (59, 2.20419144630432128906e+00) (60, -4.54856455326080322266e-01) (61, 1.29651212692260742188e+00) (62, -2.14432477951049804688e-01) (63, -6.27947133034467697144e-03) (64, 3.90264630317687988281e-01) (65, -6.25409126281738281250e-01) (66, 1.59173107147216796875e+00) (67, -4.64805936813354492188e+00) (68, 1.17245602607727050781e+00) (69, -4.39289903640747070312e+00) (70, 2.55394649505615234375e+00) (71, -3.04661345481872558594e+00) (72, 2.40890622138977050781e+00) (73, -4.76532554626464843750e+00) (74, -2.55509853363037109375e+00) (75, -3.15729713439941406250e+00) (76, -5.11138677597045898438e+00) (77, -3.58672595024108886719e+00) (78, -2.88394761085510253906e+00) (79, -4.09277868270874023438e+00) (80, -2.37774562835693359375e+00) (81, -1.71013498306274414062e+00) (82, -2.64596533775329589844e+00) (83, -8.11196684837341308594e-01) (84, -1.13663315773010253906e+00) (85, -3.81358361244201660156e+00) (86, 4.58113163709640502930e-01) (87, -1.34547531604766845703e+00) (88, 7.71543860435485839844e-01) (89, -1.13935518264770507812e+00) (90, 3.96750062704086303711e-01) (91, -1.04407560825347900391e+00) (92, 6.41368925571441650391e-01) (93, -1.13448691368103027344e+00) (94, 1.21343754231929779053e-01) (95, -2.14841532707214355469e+00) (96, -2.54143446683883666992e-01) (97, 1.53593099117279052734e+00) (98, -1.05259799957275390625e+00) (99, 1.36287844181060791016e+00) (100, 1.36121010780334472656e+00) (101, 9.66776907444000244141e-01) (102, 7.93411850929260253906e-01) (103, 4.90055292844772338867e-01) (104, 7.71286368370056152344e-01) (105, 1.49161353707313537598e-01) (106, 8.63726317882537841797e-01) (107, 1.60253286361694335938e-01) (108, 8.44208359718322753906e-01) (109, 5.97794167697429656982e-02) (110, 1.84697771072387695312e+00) (111, 5.77997267246246337891e-01) (112, 1.41909825801849365234e+00) (113, 5.58850228786468505859e-01) (114, 1.58536791801452636719e+00) (115, 4.93252605199813842773e-01) (116, 1.53679847717285156250e+00) (117, 5.87954938411712646484e-01) (118, 1.14859187602996826172e+00) (119, 6.30415380001068115234e-01) (120, 1.23580861091613769531e+00) (121, 1.22805213928222656250e+00) (122, 9.28239822387695312500e-01) (123, 1.17400407791137695312e+00) (124, 1.37033355236053466797e+00) (125, 1.16064345836639404297e+00) (126, 3.63312929868698120117e-01) (127, 1.03729832172393798828e+00) (128, 3.37853282690048217773e-01) (129, 7.89564624428749084473e-02) (130, 1.78652048110961914062e-01) (131, 8.49295482039451599121e-02) (132, 2.25368738174438476562e-01) (133, 6.79872259497642517090e-02) (134, 1.92209362983703613281e-01) (135, 1.11907444894313812256e-01) (136, 2.36732035875320434570e-01) (137, 6.45889267325401306152e-02) (138, 1.81985497474670410156e-01) (139, 4.88728433847427368164e-02) (140, 2.14344188570976257324e-01) (141, 3.93479526042938232422e-01) (142, 2.12011858820915222168e-01) (143, 4.22787010669708251953e-01) (144, 4.30446527898311614990e-02) (145, 3.60489606857299804688e-01) (146, 1.68360561132431030273e-01) (147, 3.29206645488739013672e-01) (148, 2.03874409198760986328e-01) (149, 4.70410376787185668945e-01) (150, -6.93116411566734313965e-02) (0, -4.19672203063964843750e+00) (1, 9.20763587951660156250e+00) (2, -3.95627212524414062500e+00) (3, 8.78689861297607421875e+00) (4, -3.62556529045104980469e+00) (5, 6.68219614028930664062e+00) (6, -3.02219510078430175781e+00) (7, 4.51883506774902343750e+00) (8, -2.23403739929199218750e+00) (9, 2.90817904472351074219e+00) (10, -1.89409124851226806641e+00) (11, 7.79538452625274658203e-01) (12, -1.07486355304718017578e+00) (13, -1.14598870277404785156e+00) (14, 1.28790676593780517578e+00) (15, -2.91697740554809570312e+00) (16, 1.16383063793182373047e+00) (17, -1.17862796783447265625e+00) (18, 1.58791244029998779297e+00) (19, -1.13877737522125244141e+00) (20, -4.66415643692016601562e-01) (21, -3.01164388656616210938e+00) (22, -1.15430898964405059814e-01) (23, 5.47101438045501708984e-01) (24, -1.18458885699510574341e-02) (25, 2.89089698344469070435e-02) (26, 4.45904791355133056641e-01) (27, 7.77875661849975585938e-01) (28, 1.94866880774497985840e-01) (29, 9.66588139533996582031e-01) (30, -3.75423729419708251953e-01) (31, 7.76348352432250976562e-01) (32, -1.46003878116607666016e+00) (33, 9.20151993632316589355e-02) (34, 1.71326625347137451172e+00) (35, 1.20351791381835937500e+00) (36, 2.90071040391921997070e-01) (37, 2.36177253723144531250e+00) (38, -1.73537299036979675293e-01) (39, 2.45861243456602096558e-02) (40, 2.03833985328674316406e+00) (41, 3.31023502349853515625e+00) (42, 2.12153744697570800781e+00) (43, 2.01474606990814208984e-01) (44, 2.16687226295471191406e+00) (45, -2.40670108795166015625e+00) (46, 3.80485475063323974609e-01) (47, -1.29675281047821044922e+00) (48, 2.64758777618408203125e+00) (49, -3.39475226402282714844e+00) (50, -9.74481403827667236328e-02) (51, 6.94913029670715332031e-01) (52, 3.06119704246520996094e+00) (53, 1.98534822463989257812e+00) (54, 3.54567122459411621094e+00) (55, 1.06673181056976318359e+00) (56, 2.75922036170959472656e+00) (57, 1.65583956241607666016e+00) (58, 1.18027210235595703125e+00) (59, -1.99195638298988342285e-01) (60, -1.54103600978851318359e+00) (61, -5.51517844200134277344e-01) (62, -1.92049360275268554688e+00) (63, 6.78141653537750244141e-01) (64, -1.84145104885101318359e+00) (65, 1.23279333114624023438e+00) (66, -7.97499895095825195312e-01) (67, -1.24895989894866943359e+00) (68, -1.09552979469299316406e+00) (69, -1.92116749286651611328e+00) (70, -5.45553803443908691406e-01) (71, -7.50365555286407470703e-01) (72, -8.93885076045989990234e-01) (73, -2.31207752227783203125e+00) (74, -3.19712877273559570312e+00) (75, -3.17094087600708007812e+00) (76, -6.56227588653564453125e+00) (77, -3.66779899597167968750e+00) (78, -5.84547853469848632812e+00) (79, -3.08695912361145019531e+00) (80, -4.35486364364624023438e+00) (81, -2.25762033462524414062e+00) (82, -3.54653954505920410156e+00) (83, -2.66941457986831665039e-01) (84, -2.81251454353332519531e+00) (85, -2.14977407455444335938e+00) (86, 1.83992117643356323242e-01) (87, -2.76054096221923828125e+00) (88, -5.22953629493713378906e-01) (89, -2.14807343482971191406e+00) (90, -1.87730103731155395508e-01) (91, -1.79363417625427246094e+00) (92, 3.04041415452957153320e-01) (93, -1.86275625228881835938e+00) (94, 3.29352080821990966797e-01) (95, -3.06389307975769042969e+00) (96, -3.18966418504714965820e-01) (97, -8.85778427124023437500e-01) (98, -4.83526021242141723633e-01) (99, -1.88504736870527267456e-02) (100, 2.76213467121124267578e-01) (101, 3.60349863767623901367e-02) (102, -3.44475656747817993164e-01) (103, -4.58633154630661010742e-02) (104, -6.54626414179801940918e-02) (105, -2.59335130453109741211e-01) (106, 6.82765021920204162598e-02) (107, 1.89515665173530578613e-01) (108, 2.34950736165046691895e-01) (109, 9.61385145783424377441e-02) (110, 9.03816103935241699219e-01) (111, 3.43118198215961456299e-02) (112, 1.14198517799377441406e+00) (113, 8.21233615279197692871e-02) (114, 1.65771090984344482422e+00) (115, 1.86822608113288879395e-01) (116, 1.82293903827667236328e+00) (117, 2.80588328838348388672e-01) (118, 1.80753064155578613281e+00) (119, 1.94667920470237731934e-01) (120, 1.92973756790161132812e+00) (121, -2.36213430762290954590e-01) (122, 1.95591056346893310547e+00) (123, -2.55381166934967041016e-01) (124, 1.54800260066986083984e+00) (125, -2.57262557744979858398e-01) (126, 1.28607943654060363770e-01) (127, -5.63792943954467773438e-01) (128, -1.55898258090019226074e-01) (129, -1.70957252383232116699e-01) (130, -1.78126826882362365723e-01) (131, -4.32164669036865234375e-02) (132, -1.72950625419616699219e-02) (133, -8.07971283793449401855e-02) (134, -1.47323638200759887695e-01) (135, -4.57300245761871337891e-02) (136, -1.28025323152542114258e-01) (137, -8.02724435925483703613e-03) (138, -1.81559711694717407227e-01) (139, -7.08379969000816345215e-02) (140, -2.69905686378479003906e-01) (141, -3.48625302314758300781e-01) (142, -1.53764948248863220215e-01) (143, -2.93978035449981689453e-01) (144, -8.34405049681663513184e-02) (145, -2.34787836670875549316e-01) (146, 6.31025526672601699829e-04) (147, -2.90361613035202026367e-01) (148, -9.15834978222846984863e-02) (149, -2.28019312024116516113e-01) (150, 5.09718246757984161377e-02) (0, 3.98908114433288574219e+00) (1, 3.37341976165771484375e+00) (2, 2.85386371612548828125e+00) (3, 1.07755589485168457031e+00) (4, 2.43831634521484375000e+00) (5, 9.56523478031158447266e-01) (6, 2.44622182846069335938e+00) (7, -2.14453577995300292969e-01) (8, 2.24281311035156250000e+00) (9, -1.83213436603546142578e+00) (10, 1.85695099830627441406e+00) (11, -2.29853320121765136719e+00) (12, 2.05524158477783203125e+00) (13, -3.68777871131896972656e+00) (14, 3.94095563888549804688e+00) (15, -3.54746818542480468750e+00) (16, 4.67912387847900390625e+00) (17, -2.25919604301452636719e+00) (18, 4.70773983001708984375e+00) (19, -2.93513631820678710938e+00) (20, 4.61153984069824218750e+00) (21, -4.04943847656250000000e+00) (22, 1.28989052772521972656e+00) (23, -2.77499985694885253906e+00) (24, -1.43559896945953369141e+00) (25, -1.62327802181243896484e+00) (26, 8.55700969696044921875e-01) (27, -1.71209621429443359375e+00) (28, -2.53084748983383178711e-01) (29, -2.25710964202880859375e+00) (30, -1.98448568582534790039e-01) (31, 2.11986851692199707031e+00) (32, -2.19008398056030273438e+00) (33, -2.32057288289070129395e-01) (34, 2.34314703941345214844e+00) (35, -6.64190769195556640625e-01) (36, 2.86002969741821289062e+00) (37, -1.23874461650848388672e+00) (38, 2.63919949531555175781e+00) (39, -3.03932356834411621094e+00) (40, 3.18197822570800781250e+00) (41, -2.95623803138732910156e+00) (42, 3.30214929580688476562e+00) (43, -3.02012372016906738281e+00) (44, 3.03450465202331542969e+00) (45, -4.68631887435913085938e+00) (46, 5.59548950195312500000e+00) (47, -4.38035249710083007812e+00) (48, 6.07088804244995117188e+00) (49, -6.84778356552124023438e+00) (50, 7.77004909515380859375e+00) (51, -2.81652569770812988281e+00) (52, 4.77504777908325195312e+00) (53, -2.17011356353759765625e+00) (54, 5.80479955673217773438e+00) (55, -2.16590833663940429688e+00) (56, 4.80169677734375000000e+00) (57, 2.01398134231567382812e+00) (58, 2.60628890991210937500e+00) (59, 7.92935907840728759766e-01) (60, 1.16216826438903808594e+00) (61, -1.26337718963623046875e+00) (62, 6.04271776974201202393e-02) (63, 2.67331290245056152344e+00) (64, -2.16333001852035522461e-01) (65, 3.20424175262451171875e+00) (66, -1.43217027187347412109e+00) (67, 2.71279811859130859375e+00) (68, -1.67349374294281005859e+00) (69, -4.18801754713058471680e-01) (70, 7.08030045032501220703e-01) (71, -4.78340148925781250000e-01) (72, 1.79277569055557250977e-01) (73, -7.67553821206092834473e-02) (74, 3.17157649993896484375e+00) (75, -3.97342061996459960938e+00) (76, 3.15771484375000000000e+00) (77, -4.50249910354614257812e+00) (78, -1.18286073207855224609e+00) (79, 3.13910412788391113281e+00) (80, 5.36129117012023925781e-01) (81, 4.67043936252593994141e-01) (82, 6.74354970455169677734e-01) (83, 2.26141047477722167969e+00) (84, 5.71413159370422363281e-01) (85, 2.49787783622741699219e+00) (86, 1.95283699035644531250e+00) (87, 1.29924857616424560547e+00) (88, 1.68177783489227294922e+00) (89, 1.68997514247894287109e+00) (90, 2.11713504791259765625e+00) (91, 2.55400753021240234375e+00) (92, 2.44439983367919921875e+00) (93, 2.50745368003845214844e+00) (94, 2.12550473213195800781e+00) (95, 2.45948719978332519531e+00) (96, 1.52151644229888916016e+00) (97, -1.20080769062042236328e+00) (98, 1.77051782608032226562e+00) (99, -1.85491693019866943359e+00) (100, -3.46032232046127319336e-01) (101, -1.65381252765655517578e+00) (102, -9.57506835460662841797e-01) (103, -1.80802536010742187500e+00) (104, -6.86198830604553222656e-01) (105, -1.64173221588134765625e+00) (106, -7.18603014945983886719e-01) (107, -2.11311841011047363281e+00) (108, -4.78444963693618774414e-01) (109, -1.92877769470214843750e+00) (110, -1.12464559078216552734e+00) (111, -1.94965708255767822266e+00) (112, -2.07570028305053710938e+00) (113, -1.87418019771575927734e+00) (114, -1.84440124034881591797e+00) (115, -1.82386314868927001953e+00) (116, -1.71976006031036376953e+00) (117, -1.83242654800415039062e+00) (118, -1.26522696018218994141e+00) (119, -1.87747681140899658203e+00) (120, -7.51703441143035888672e-01) (121, -2.87752532958984375000e+00) (122, -4.44277554750442504883e-01) (123, -2.73863840103149414062e+00) (124, -1.00126659870147705078e+00) (125, -2.69358325004577636719e+00) (126, -7.81091511249542236328e-01) (127, -2.82429933547973632812e+00) (128, -7.87452876567840576172e-01) (129, -1.33060705661773681641e+00) (130, -6.30924999713897705078e-01) (131, -1.23817825317382812500e+00) (132, -5.76885521411895751953e-01) (133, -1.22151517868041992188e+00) (134, -4.38714027404785156250e-01) (135, -1.19696056842803955078e+00) (136, -5.65414905548095703125e-01) (137, -1.32119190692901611328e+00) (138, -5.97671926021575927734e-01) (139, -1.29799103736877441406e+00) (140, -4.75457519292831420898e-01) (141, -5.27495265007019042969e-01) (142, -3.12139511108398437500e-01) (143, -6.37057840824127197266e-01) (144, -2.04606354236602783203e-01) (145, -4.85511571168899536133e-01) (146, -2.81506299972534179688e-01) (147, -4.53669548034667968750e-01) (148, -1.76750063896179199219e-01) (149, -5.81022381782531738281e-01) (150, -6.08878061175346374512e-02) (0, 1.86506009101867675781e+00) (1, -5.34069490432739257812e+00) (2, 1.50006508827209472656e+00) (3, -5.45615816116333007812e+00) (4, 1.60953712463378906250e+00) (5, -3.94355297088623046875e+00) (6, 1.41217148303985595703e+00) (7, -3.01296377182006835938e+00) (8, 1.11414802074432373047e+00) (9, -2.65676450729370117188e+00) (10, 1.04990422725677490234e+00) (11, -8.76802504062652587891e-01) (12, 8.43436181545257568359e-01) (13, 5.07128536701202392578e-02) (14, 1.18536126613616943359e+00) (15, 3.38154554367065429688e-01) (16, 3.50601315498352050781e-01) (17, -1.51857054233551025391e+00) (18, 2.81338214874267578125e-01) (19, -5.52214980125427246094e-01) (20, 1.03432826697826385498e-01) (21, 1.91378578543663024902e-01) (22, -4.86042886972427368164e-01) (23, -1.17290651798248291016e+00) (24, 7.99784481525421142578e-01) (25, 7.21309661865234375000e-01) (26, 7.56263196468353271484e-01) (27, 1.47752237319946289062e+00) (28, 6.83895885944366455078e-01) (29, 1.77703246474266052246e-01) (30, -8.16938281059265136719e-01) (31, -1.80990743637084960938e+00) (32, 1.38526096940040588379e-01) (33, -2.41485357284545898438e+00) (34, 8.21179151535034179688e-01) (35, -1.61893606185913085938e+00) (36, 8.98326337337493896484e-01) (37, -1.48476183414459228516e+00) (38, 1.89278471469879150391e+00) (39, 4.17362779378890991211e-01) (40, 9.90917444229125976562e-01) (41, -6.67070865631103515625e-01) (42, -7.87281692028045654297e-01) (43, -6.06566667556762695312e-03) (44, -9.68438684940338134766e-01) (45, 1.06405448913574218750e+00) (46, -1.85905873775482177734e+00) (47, -2.38046929240226745605e-01) (48, -1.48222398757934570312e+00) (49, 1.12634992599487304688e+00) (50, 1.41277039051055908203e+00) (51, -5.92619180679321289062e-01) (52, -7.83450722694396972656e-01) (53, -3.65346610546112060547e-01) (54, -4.31367844343185424805e-01) (55, 1.08914577960968017578e+00) (56, -8.43958795070648193359e-01) (57, 1.86587631702423095703e+00) (58, 5.02513408660888671875e-01) (59, 1.14264035224914550781e+00) (60, 2.35661530494689941406e+00) (61, -9.23860192298889160156e-01) (62, 2.09898090362548828125e+00) (63, -1.98666250705718994141e+00) (64, 1.14438390731811523438e+00) (65, -4.64295923709869384766e-01) (66, 5.98054289817810058594e-01) (67, 1.97785294055938720703e+00) (68, 2.74303853511810302734e-01) (69, 9.73692238330841064453e-01) (70, -1.25854456424713134766e+00) (71, 1.02754688262939453125e+00) (72, -1.92289996147155761719e+00) (73, 2.20529198646545410156e+00) (74, -2.15771466493606567383e-01) (75, 2.46073052287101745605e-01) (76, 7.47381746768951416016e-01) (77, 1.64127439260482788086e-01) (78, -2.82438158988952636719e-01) (79, 8.13131153583526611328e-01) (80, 2.29175376892089843750e+00) (81, 6.06036245822906494141e-01) (82, 1.84578752517700195312e+00) (83, -1.93590670824050903320e-01) (84, 6.88014924526214599609e-01) (85, 1.01232290267944335938e+00) (86, -1.09696137905120849609e+00) (87, -2.46379077434539794922e-01) (88, -3.07038307189941406250e-01) (89, -4.63130652904510498047e-01) (90, -2.62356996536254882812e-01) (91, -4.28563475608825683594e-01) (92, -1.89008623361587524414e-01) (93, -3.18170219659805297852e-01) (94, -5.16202151775360107422e-01) (95, -5.21100535988807678223e-02) (96, -8.83457422256469726562e-01) (97, -8.07421147823333740234e-01) (98, 4.15992317721247673035e-03) (99, -2.64218837022781372070e-01) (100, -2.80058413743972778320e-01) (101, -6.13852357491850852966e-03) (102, 3.22844743728637695312e-01) (103, 5.97468495368957519531e-01) (104, 4.57994073629379272461e-01) (105, 9.40321326255798339844e-01) (106, 5.35916328430175781250e-01) (107, 7.82125592231750488281e-01) (108, 5.48058986663818359375e-01) (109, 8.90525102615356445312e-01) (110, 7.53833651542663574219e-02) (111, 6.64640188217163085938e-01) (112, 2.04627756029367446899e-02) (113, 5.87658107280731201172e-01) (114, 1.00051969289779663086e-01) (115, 6.73836469650268554688e-01) (116, 5.15631176531314849854e-02) (117, 7.32484936714172363281e-01) (118, 1.11863121390342712402e-01) (119, 6.48195922374725341797e-01) (120, 2.54811584949493408203e-01) (121, -8.08226406574249267578e-01) (122, 3.04917752742767333984e-01) (123, -7.92842149734497070312e-01) (124, -8.90279233455657958984e-01) (125, -8.36705267429351806641e-01) (126, -8.96331548690795898438e-01) (127, -7.87414312362670898438e-01) (128, -8.43783259391784667969e-01) (129, -9.16740596294403076172e-01) (130, -5.43146431446075439453e-01) (131, -7.97319710254669189453e-01) (132, -4.93987470865249633789e-01) (133, -7.55404233932495117188e-01) (134, -6.56616032123565673828e-01) (135, -7.22979307174682617188e-01) (136, -5.24992287158966064453e-01) (137, -7.25085616111755371094e-01) (138, -6.10586881637573242188e-01) (139, -8.27458322048187255859e-01) (140, -5.61206459999084472656e-01) (141, -8.56769621372222900391e-01) (142, -6.46805942058563232422e-01) (143, -7.37391710281372070312e-01) (144, -3.08529943227767944336e-01) (145, -7.34522163867950439453e-01) (146, -3.15545916557312011719e-01) (147, -7.24382519721984863281e-01) (148, -2.78840899467468261719e-01) (149, -7.07718789577484130859e-01) (150, -9.44410488009452819824e-02) (0, -1.02717399597167968750e+00) (1, -1.11013679504394531250e+01) (2, -1.39061343669891357422e+00) (3, -1.19701642990112304688e+01) (4, -6.27444684505462646484e-01) (5, -7.54010868072509765625e+00) (6, 2.29310303926467895508e-01) (7, -5.26544141769409179688e+00) (8, 6.17694139480590820312e-01) (9, -5.94952487945556640625e+00) (10, 1.09691667556762695312e+00) (11, -9.87409889698028564453e-01) (12, 1.81435644626617431641e+00) (13, 6.08806371688842773438e-01) (14, 3.95852565765380859375e+00) (15, -1.04515843093395233154e-01) (16, 3.49015331268310546875e+00) (17, -4.75347518920898437500e+00) (18, 4.04188537597656250000e+00) (19, -2.47200417518615722656e+00) (20, 3.90991687774658203125e+00) (21, -8.00549089908599853516e-01) (22, 1.73803865909576416016e+00) (23, -3.75630640983581542969e+00) (24, -5.04800915718078613281e-01) (25, -3.34876745939254760742e-01) (26, 4.67978924512863159180e-01) (27, 2.33525657653808593750e+00) (28, 7.67395675182342529297e-01) (29, 1.26510131359100341797e+00) (30, 6.14725947380065917969e-02) (31, -9.21839356422424316406e-01) (32, 4.19190943241119384766e-01) (33, -3.28046417236328125000e+00) (34, -2.62970387935638427734e-01) (35, -3.55141711235046386719e+00) (36, 6.76766037940979003906e-01) (37, -2.60030460357666015625e+00) (38, 2.08099985122680664062e+00) (39, 1.34583532810211181641e+00) (40, 5.63162386417388916016e-01) (41, -2.69884443283081054688e+00) (42, -1.69321477413177490234e+00) (43, -6.23512148857116699219e-01) (44, -1.21919071674346923828e+00) (45, 2.15033388137817382812e+00) (46, -1.35546997189521789551e-01) (47, 4.87650424242019653320e-01) (48, 2.94037789106369018555e-01) (49, 2.26100635528564453125e+00) (50, 3.23956084251403808594e+00) (51, 6.68685853481292724609e-01) (52, -2.81357145309448242188e+00) (53, -2.77052927017211914062e+00) (54, -2.51475620269775390625e+00) (55, 1.23569238185882568359e+00) (56, -2.42298269271850585938e+00) (57, 4.31073951721191406250e+00) (58, -7.46865630149841308594e-01) (59, 1.84684991836547851562e+00) (60, 4.34641599655151367188e+00) (61, -2.59275484085083007812e+00) (62, 4.21206617355346679688e+00) (63, -3.23986625671386718750e+00) (64, 2.13184976577758789062e+00) (65, 1.11803388595581054688e+00) (66, 1.35144340991973876953e+00) (67, 6.60109519958496093750e+00) (68, 2.17427253723144531250e+00) (69, 3.63101601600646972656e+00) (70, -4.32314991950988769531e-01) (71, 2.01710295677185058594e+00) (72, -5.07981479167938232422e-01) (73, 4.35061120986938476562e+00) (74, 3.27127170562744140625e+00) (75, 1.41219770908355712891e+00) (76, 4.95610332489013671875e+00) (77, 1.76562011241912841797e+00) (78, 2.34970450401306152344e+00) (79, 2.78593635559082031250e+00) (80, 2.61296629905700683594e+00) (81, 3.14405709505081176758e-02) (82, 3.33059549331665039062e+00) (83, 1.28924179077148437500e+00) (84, 1.55091786384582519531e+00) (85, 4.44159412384033203125e+00) (86, -1.15779292583465576172e+00) (87, 4.31014537811279296875e-01) (88, -2.78715640306472778320e-01) (89, 1.25273540616035461426e-01) (90, 3.05863380432128906250e-01) (91, 6.23087823390960693359e-01) (92, 6.82933032512664794922e-01) (93, 7.80412733554840087891e-01) (94, 5.34066677093505859375e-01) (95, 1.10885322093963623047e+00) (96, -7.67188310623168945312e-01) (97, -1.91915202140808105469e+00) (98, 4.76945191621780395508e-01) (99, -1.22145080566406250000e+00) (100, -1.25447285175323486328e+00) (101, -6.63866221904754638672e-01) (102, -5.80230355262756347656e-01) (103, 1.34677067399024963379e-01) (104, -5.25038540363311767578e-02) (105, 9.24331068992614746094e-01) (106, -3.16270202398300170898e-01) (107, 1.09849023818969726562e+00) (108, -7.91722387075424194336e-02) (109, 1.12115120887756347656e+00) (110, -1.07158780097961425781e+00) (111, 5.05841910839080810547e-01) (112, -7.30105698108673095703e-01) (113, 6.53496742248535156250e-01) (114, -6.10091805458068847656e-01) (115, 5.08560359477996826172e-01) (116, -4.87700700759887695312e-01) (117, 6.99319958686828613281e-01) (118, -1.04563206434249877930e-01) (119, 7.74997591972351074219e-01) (120, 5.16247332096099853516e-01) (121, -3.21705293655395507812e+00) (122, 8.80146384239196777344e-01) (123, -3.15712165832519531250e+00) (124, -2.05073952674865722656e+00) (125, -3.27101492881774902344e+00) (126, -2.30667853355407714844e+00) (127, -3.29556822776794433594e+00) (128, -2.18121552467346191406e+00) (129, -2.24071407318115234375e+00) (130, -1.47099113464355468750e+00) (131, -2.13530802726745605469e+00) (132, -1.55798375606536865234e+00) (133, -2.01055145263671875000e+00) (134, -1.45258629322052001953e+00) (135, -2.19932556152343750000e+00) (136, -1.44063389301300048828e+00) (137, -2.12935280799865722656e+00) (138, -1.43540930747985839844e+00) (139, -2.12924408912658691406e+00) (140, -1.51751744747161865234e+00) (141, -2.21786928176879882812e+00) (142, -1.61574041843414306641e+00) (143, -2.09361171722412109375e+00) (144, -7.73167252540588378906e-01) (145, -2.12245750427246093750e+00) (146, -6.38380110263824462891e-01) (147, -2.10494828224182128906e+00) (148, -7.61358201503753662109e-01) (149, -2.20225095748901367188e+00) (150, -3.04388208314776420593e-03) (0, 3.69974732398986816406e+00) (1, -7.76350593566894531250e+00) (2, 3.15230274200439453125e+00) (3, -7.22517919540405273438e+00) (4, 2.96175217628479003906e+00) (5, -5.73459672927856445312e+00) (6, 2.31856155395507812500e+00) (7, -3.61264586448669433594e+00) (8, 1.70020174980163574219e+00) (9, -1.83053779602050781250e+00) (10, 1.50866162776947021484e+00) (11, -3.73551756143569946289e-01) (12, 1.03250694274902343750e+00) (13, 1.29729127883911132812e+00) (14, -1.23825407028198242188e+00) (15, 3.57078623771667480469e+00) (16, -4.45522367954254150391e-01) (17, 2.48746490478515625000e+00) (18, -7.09244668483734130859e-01) (19, 9.12773668766021728516e-01) (20, 9.10398006439208984375e-01) (21, 2.70122408866882324219e+00) (22, 3.63053530454635620117e-02) (23, -2.58871763944625854492e-01) (24, -7.25084781646728515625e-01) (25, 5.57888567447662353516e-01) (26, -1.42824053764343261719e+00) (27, -1.42943695187568664551e-01) (28, -1.72453749179840087891e+00) (29, -1.77517786622047424316e-01) (30, -4.75558251142501831055e-01) (31, 3.01298260688781738281e-01) (32, -1.83788165450096130371e-01) (33, 7.72748172283172607422e-01) (34, -2.70003223419189453125e+00) (35, 3.13972532749176025391e-01) (36, -1.43859851360321044922e+00) (37, -5.90184092521667480469e-01) (38, -1.10050952434539794922e+00) (39, 9.02844667434692382812e-01) (40, -3.12924981117248535156e+00) (41, -3.04117155075073242188e+00) (42, -2.24214243888854980469e+00) (43, -2.30586862564086914062e+00) (44, -2.27275156974792480469e+00) (45, -8.14106240868568420410e-02) (46, 7.60125100612640380859e-01) (47, 1.36060327291488647461e-01) (48, -2.07386803627014160156e+00) (49, 2.21147871017456054688e+00) (50, 7.49204277992248535156e-01) (51, -1.32448840141296386719e+00) (52, -2.88217306137084960938e+00) (53, -1.14502477645874023438e+00) (54, -3.05151152610778808594e+00) (55, -1.16586375236511230469e+00) (56, -2.49604535102844238281e+00) (57, -2.02955412864685058594e+00) (58, -2.39956402778625488281e+00) (59, -1.15496957302093505859e+00) (60, 8.27498063445091247559e-02) (61, 4.67630028724670410156e-01) (62, 2.09639623761177062988e-01) (63, 1.14213395118713378906e+00) (64, -9.46177840232849121094e-02) (65, 5.34704685211181640625e-01) (66, -9.41910207271575927734e-01) (67, 2.21004676818847656250e+00) (68, -2.83498167991638183594e-01) (69, 3.19117641448974609375e+00) (70, -5.53988873958587646484e-01) (71, 1.59437835216522216797e+00) (72, -1.66174340993165969849e-02) (73, 2.15330457687377929688e+00) (74, 3.66046023368835449219e+00) (75, 3.28827095031738281250e+00) (76, 6.47041416168212890625e+00) (77, 3.99858236312866210938e+00) (78, 4.63116598129272460938e+00) (79, 3.85120773315429687500e+00) (80, 2.83256697654724121094e+00) (81, 1.79047107696533203125e+00) (82, 2.98396611213684082031e+00) (83, -3.98836165666580200195e-01) (84, 2.10900545120239257812e+00) (85, 1.27083170413970947266e+00) (86, 4.80401396751403808594e-01) (87, 2.21660876274108886719e+00) (88, 6.86453700065612792969e-01) (89, 1.83047616481781005859e+00) (90, 4.68194842338562011719e-01) (91, 1.42885899543762207031e+00) (92, 7.26508125662803649902e-02) (93, 1.52020704746246337891e+00) (94, 2.95428276062011718750e-01) (95, 3.00621986389160156250e+00) (96, 1.74333584308624267578e+00) (97, 7.92596161365509033203e-01) (98, 1.31000185012817382812e+00) (99, 7.66810998320579528809e-02) (100, 1.70184329152107238770e-01) (101, 1.69667035341262817383e-01) (102, 2.91280061006546020508e-01) (103, -2.40211654454469680786e-02) (104, 4.49737487360835075378e-03) (105, -3.42609882354736328125e-02) (106, -9.23162251710891723633e-02) (107, -3.24858069419860839844e-01) (108, -1.28579422831535339355e-01) (109, -4.23413872718811035156e-01) (110, -9.49308633804321289062e-01) (111, -5.95165371894836425781e-01) (112, -1.66027081012725830078e+00) (113, -5.03794670104980468750e-01) (114, -2.14672398567199707031e+00) (115, -6.16611182689666748047e-01) (116, -2.34859204292297363281e+00) (117, -7.01073169708251953125e-01) (118, -2.22125220298767089844e+00) (119, -6.36344134807586669922e-01) (120, -2.27388358116149902344e+00) (121, -1.71868473291397094727e-01) (122, -2.19860291481018066406e+00) (123, -1.63771003484725952148e-01) (124, -1.94393360614776611328e+00) (125, -1.31599336862564086914e-01) (126, -3.22181671857833862305e-01) (127, 2.45727688074111938477e-01) (128, 1.51550367474555969238e-01) (129, -8.04363787174224853516e-02) (130, 7.99513980746269226074e-02) (131, -9.07247513532638549805e-02) (132, 2.39443127065896987915e-02) (133, -9.47455614805221557617e-02) (134, 1.14701658487319946289e-01) (135, -1.59722954034805297852e-01) (136, 8.39492827653884887695e-02) (137, -9.00237411260604858398e-02) (138, 1.04304656386375427246e-01) (139, -1.32859021425247192383e-01) (140, 3.24011743068695068359e-01) (141, 2.60203301906585693359e-01) (142, 3.11804711818695068359e-01) (143, 3.69623631238937377930e-01) (144, 2.05302491784095764160e-01) (145, 2.76279121637344360352e-01) (146, 8.44588279724121093750e-02) (147, 2.79703050851821899414e-01) (148, 1.55268937349319458008e-01) (149, 4.40754324197769165039e-01) (150, -8.82923379540443420410e-02) (0, 6.46842813491821289062e+00) (1, -6.55957841873168945312e+00) (2, 5.81068801879882812500e+00) (3, -4.25739097595214843750e+00) (4, 4.65051937103271484375e+00) (5, -3.90661191940307617188e+00) (6, 3.29496669769287109375e+00) (7, -2.12038874626159667969e+00) (8, 1.94989013671875000000e+00) (9, 4.35342937707901000977e-01) (10, 1.15839016437530517578e+00) (11, 6.72076880931854248047e-01) (12, -1.22947245836257934570e-01) (13, 2.47620201110839843750e+00) (14, -4.38762235641479492188e+00) (15, 5.41508579254150390625e+00) (16, -4.03997802734375000000e+00) (17, 5.85679960250854492188e+00) (18, -5.16844415664672851562e+00) (19, 2.83952188491821289062e+00) (20, -2.34737658500671386719e+00) (21, 4.53952169418334960938e+00) (22, -1.91366553306579589844e+00) (23, 3.00824499130249023438e+00) (24, -7.73565709590911865234e-01) (25, 1.92889332771301269531e+00) (26, -2.63694167137145996094e+00) (27, -2.97460913658142089844e-01) (28, -1.81001508235931396484e+00) (29, 3.29795926809310913086e-01) (30, 1.30836606025695800781e-01) (31, 6.11511528491973876953e-01) (32, 1.25513508915901184082e-01) (33, 2.70585846900939941406e+00) (34, -3.13702535629272460938e+00) (35, 2.24496006965637207031e+00) (36, -1.37416100502014160156e+00) (37, 6.40449941158294677734e-01) (38, -1.09813284873962402344e+00) (39, 1.48373579978942871094e+00) (40, -3.10100913047790527344e+00) (41, -1.13045394420623779297e+00) (42, -2.32472324371337890625e+00) (43, -3.34959328174591064453e-01) (44, -3.02280306816101074219e+00) (45, 1.35411322116851806641e+00) (46, -2.93669968843460083008e-01) (47, 8.20869579911231994629e-02) (48, -4.07756805419921875000e+00) (49, 3.62950730323791503906e+00) (50, -1.65567994117736816406e+00) (51, -6.82559907436370849609e-01) (52, -2.55339837074279785156e+00) (53, 5.00414371490478515625e-01) (54, -3.56430006027221679688e+00) (55, -5.25573432445526123047e-01) (56, -2.75386810302734375000e+00) (57, -3.69929933547973632812e+00) (58, -2.78918027877807617188e+00) (59, -2.17645144462585449219e+00) (60, -2.29200935363769531250e+00) (61, 2.56564640998840332031e+00) (62, -1.71399366855621337891e+00) (63, 2.86510848999023437500e+00) (64, -8.48434209823608398438e-01) (65, -6.29914760589599609375e-01) (66, -1.41943705081939697266e+00) (67, -1.05012953281402587891e+00) (68, -1.05863630771636962891e+00) (69, 1.88714456558227539062e+00) (70, 2.31538172811269760132e-02) (71, 1.28500139713287353516e+00) (72, 4.12892967462539672852e-01) (73, 1.70326578617095947266e+00) (74, 3.32519936561584472656e+00) (75, 4.04363441467285156250e+00) (76, 6.74544143676757812500e+00) (77, 4.67955350875854492188e+00) (78, 6.36925220489501953125e+00) (79, 2.74903941154479980469e+00) (80, 4.26229524612426757812e+00) (81, 2.80552744865417480469e+00) (82, 3.43366432189941406250e+00) (83, -8.11467766761779785156e-01) (84, 2.96837258338928222656e+00) (85, 1.70063123106956481934e-01) (86, 1.08313703536987304688e+00) (87, 2.41970252990722656250e+00) (88, 6.04621648788452148438e-01) (89, 2.27420902252197265625e+00) (90, -1.07110500335693359375e-01) (91, 1.54138886928558349609e+00) (92, -9.80089843273162841797e-01) (93, 1.47673976421356201172e+00) (94, -7.76836693286895751953e-01) (95, 3.55571746826171875000e+00) (96, 1.39196097850799560547e+00) (97, 2.71417355537414550781e+00) (98, 1.12286365032196044922e+00) (99, 1.36759340763092041016e+00) (100, 1.09846365451812744141e+00) (101, 1.14665782451629638672e+00) (102, 1.22432291507720947266e+00) (103, 8.17284405231475830078e-01) (104, 5.99217057228088378906e-01) (105, 6.65296554565429687500e-01) (106, 3.48481386899948120117e-01) (107, 4.56831932067871093750e-01) (108, 1.72936365008354187012e-01) (109, 2.52278029918670654297e-01) (110, -5.67989587783813476562e-01) (111, 1.80081084370613098145e-01) (112, -8.08510720729827880859e-01) (113, 1.61555215716361999512e-01) (114, -1.48099911212921142578e+00) (115, -1.64661034941673278809e-01) (116, -1.73765814304351806641e+00) (117, -1.53666883707046508789e-01) (118, -2.13423776626586914062e+00) (119, -2.57935851812362670898e-01) (120, -3.04706907272338867188e+00) (121, 3.19240546226501464844e+00) (122, -3.24749183654785156250e+00) (123, 3.11118316650390625000e+00) (124, -8.42612028121948242188e-01) (125, 3.05813312530517578125e+00) (126, 1.17432987689971923828e+00) (127, 3.70718574523925781250e+00) (128, 1.95576226711273193359e+00) (129, 1.87448632717132568359e+00) (130, 1.31909787654876708984e+00) (131, 1.88079392910003662109e+00) (132, 1.28434324264526367188e+00) (133, 1.76339936256408691406e+00) (134, 1.20694327354431152344e+00) (135, 1.85144567489624023438e+00) (136, 1.32759189605712890625e+00) (137, 1.79682517051696777344e+00) (138, 1.28348088264465332031e+00) (139, 1.79854834079742431641e+00) (140, 1.24176561832427978516e+00) (141, 1.88239800930023193359e+00) (142, 1.36458992958068847656e+00) (143, 1.85410976409912109375e+00) (144, 6.39425396919250488281e-01) (145, 1.70802021026611328125e+00) (146, 6.28171205520629882812e-01) (147, 1.81073844432830810547e+00) (148, 6.18704319000244140625e-01) (149, 1.72787117958068847656e+00) (150, 6.33704885840415954590e-02) (0, -1.33199300765991210938e+01) (1, 5.80178260803222656250e+00) (2, -1.06529769897460937500e+01) (3, 8.86242771148681640625e+00) (4, -9.12072753906250000000e+00) (5, 7.34439420700073242188e+00) (6, -7.07361793518066406250e+00) (7, 7.44040155410766601562e+00) (8, -5.27214527130126953125e+00) (9, 8.59928703308105468750e+00) (10, -3.18670177459716796875e+00) (11, 6.90531873703002929688e+00) (12, -1.82953071594238281250e+00) (13, 7.35087108612060546875e+00) (14, -4.44580078125000000000e+00) (15, 7.08812284469604492188e+00) (16, -5.56803369522094726562e+00) (17, 4.86784362792968750000e+00) (18, -4.30104970932006835938e+00) (19, 3.07959413528442382812e+00) (20, -3.62606167793273925781e+00) (21, 3.62172198295593261719e+00) (22, 3.38421493768692016602e-01) (23, 5.15450000762939453125e+00) (24, 9.48397696018218994141e-01) (25, 3.94283533096313476562e-01) (26, -4.32041496038436889648e-01) (27, 2.66708761453628540039e-01) (28, -3.40526413917541503906e+00) (29, 1.32565605640411376953e+00) (30, -1.95710301399230957031e+00) (31, -2.34630775451660156250e+00) (32, -4.04869407415390014648e-01) (33, 2.40997266769409179688e+00) (34, -5.05447101593017578125e+00) (35, 5.35496425628662109375e+00) (36, -3.65541076660156250000e+00) (37, 4.20530748367309570312e+00) (38, -4.15638637542724609375e+00) (39, 4.30386352539062500000e+00) (40, -3.01909732818603515625e+00) (41, 4.29178762435913085938e+00) (42, -3.28118634223937988281e+00) (43, 3.30896496772766113281e+00) (44, -2.64015078544616699219e+00) (45, 3.40794181823730468750e+00) (46, -4.61524963378906250000e+00) (47, 4.04770374298095703125e+00) (48, -6.09996795654296875000e+00) (49, 1.06355056762695312500e+01) (50, -9.70968627929687500000e+00) (51, 9.21239662170410156250e+00) (52, -3.90262150764465332031e+00) (53, 4.94301891326904296875e+00) (54, -4.88402986526489257812e+00) (55, 3.89428281784057617188e+00) (56, -4.44072771072387695312e+00) (57, -1.33261382579803466797e+00) (58, -4.51563501358032226562e+00) (59, 1.42778611183166503906e+00) (60, -3.83031821250915527344e+00) (61, 2.28968572616577148438e+00) (62, -4.10787630081176757812e+00) (63, -5.37661886215209960938e+00) (64, -3.03839421272277832031e+00) (65, -4.33993482589721679688e+00) (66, -2.05081176757812500000e+00) (67, -5.02860641479492187500e+00) (68, 2.66786068677902221680e-01) (69, 7.70443916320800781250e-01) (70, -5.10249376296997070312e-01) (71, 1.39002442359924316406e+00) (72, 1.12878406047821044922e+00) (73, -1.53497338294982910156e+00) (74, -4.26097440719604492188e+00) (75, 4.67444181442260742188e+00) (76, -4.19372701644897460938e+00) (77, 4.66091775894165039062e+00) (78, 1.47953021526336669922e+00) (79, -3.93355226516723632812e+00) (80, -1.82616817951202392578e+00) (81, 6.80868804454803466797e-01) (82, -1.49992775917053222656e+00) (83, -5.77923893928527832031e-01) (84, 5.42655289173126220703e-01) (85, 