FANN_FLO_2.1
num_layers=4
learning_rate=0.700000
connection_rate=1.000000
network_type=0
learning_momentum=0.000000
training_algorithm=0
train_error_function=1
train_stop_function=0
cascade_output_change_fraction=0.010000
quickprop_decay=-0.000100
quickprop_mu=1.750000
rprop_increase_factor=1.200000
rprop_decrease_factor=0.500000
rprop_delta_min=0.000000
rprop_delta_max=50.000000
rprop_delta_zero=0.100000
cascade_output_stagnation_epochs=12
cascade_candidate_change_fraction=0.010000
cascade_candidate_stagnation_epochs=12
cascade_max_out_epochs=150
cascade_max_cand_epochs=150
cascade_num_candidate_groups=2
bit_fail_limit=3.49999994039535522461e-01
cascade_candidate_limit=1.00000000000000000000e+03
cascade_weight_multiplier=4.00000005960464477539e-01
cascade_activation_functions_count=10
cascade_activation_functions=3 5 7 8 10 11 14 15 16 17 
cascade_activation_steepnesses_count=4
cascade_activation_steepnesses=2.50000000000000000000e-01 5.00000000000000000000e-01 7.50000000000000000000e-01 1.00000000000000000000e+00 
layer_sizes=201 76 33 9 
scale_included=0
neurons (num_inputs, activation_function, activation_steepness)=(0, 0, 0.00000000000000000000e+00) (0, 0, 0.00000000000000000000e+00) (0, 0, 0.00000000000000000000e+00) (0, 0, 0.00000000000000000000e+00) (0, 0, 0.00000000000000000000e+00) (0, 0, 0.00000000000000000000e+00) (0, 0, 0.00000000000000000000e+00) (0, 0, 0.00000000000000000000e+00) (0, 0, 0.00000000000000000000e+00) (0, 0, 0.00000000000000000000e+00) (0, 0, 0.00000000000000000000e+00) (0, 0, 0.00000000000000000000e+00) (0, 0, 0.00000000000000000000e+00) (0, 0, 0.00000000000000000000e+00) (0, 0, 0.00000000000000000000e+00) (0, 0, 0.00000000000000000000e+00) (0, 0, 0.00000000000000000000e+00) (0, 0, 0.00000000000000000000e+00) (0, 0, 0.00000000000000000000e+00) (0, 0, 0.00000000000000000000e+00) (0, 0, 0.00000000000000000000e+00) (0, 0, 0.00000000000000000000e+00) (0, 0, 0.00000000000000000000e+00) (0, 0, 0.00000000000000000000e+00) (0, 0, 0.00000000000000000000e+00) (0, 0, 0.00000000000000000000e+00) (0, 0, 0.00000000000000000000e+00) (0, 0, 0.00000000000000000000e+00) (0, 0, 0.00000000000000000000e+00) (0, 0, 0.00000000000000000000e+00) (0, 0, 0.00000000000000000000e+00) (0, 0, 0.00000000000000000000e+00) (0, 0, 0.00000000000000000000e+00) (0, 0, 0.00000000000000000000e+00) (0, 0, 0.00000000000000000000e+00) (0, 0, 0.00000000000000000000e+00) (0, 0, 0.00000000000000000000e+00) (0, 0, 0.00000000000000000000e+00) (0, 0, 0.00000000000000000000e+00) (0, 0, 0.00000000000000000000e+00) (0, 0, 0.00000000000000000000e+00) (0, 0, 0.00000000000000000000e+00) (0, 0, 0.00000000000000000000e+00) (0, 0, 0.00000000000000000000e+00) (0, 0, 0.00000000000000000000e+00) (0, 0, 0.00000000000000000000e+00) (0, 0, 0.00000000000000000000e+00) (0, 0, 0.00000000000000000000e+00) (0, 0, 0.00000000000000000000e+00) (0, 0, 0.00000000000000000000e+00) (0, 0, 0.00000000000000000000e+00) (0, 0, 0.00000000000000000000e+00) (0, 0, 0.00000000000000000000e+00) (0, 0, 0.00000000000000000000e+00) (0, 0, 0.00000000000000000000e+00) (0, 0, 0.00000000000000000000e+00) (0, 0, 0.00000000000000000000e+00) (0, 0, 0.00000000000000000000e+00) (0, 0, 0.00000000000000000000e+00) (0, 0, 0.00000000000000000000e+00) (0, 0, 0.00000000000000000000e+00) (0, 0, 0.00000000000000000000e+00) (0, 0, 0.00000000000000000000e+00) (0, 0, 0.00000000000000000000e+00) (0, 0, 0.00000000000000000000e+00) (0, 0, 0.00000000000000000000e+00) (0, 0, 0.00000000000000000000e+00) (0, 0, 0.00000000000000000000e+00) (0, 0, 0.00000000000000000000e+00) (0, 0, 0.00000000000000000000e+00) (0, 0, 0.00000000000000000000e+00) (0, 0, 0.00000000000000000000e+00) (0, 0, 0.00000000000000000000e+00) (0, 0, 0.00000000000000000000e+00) (0, 0, 0.00000000000000000000e+00) (0, 0, 0.00000000000000000000e+00) (0, 0, 0.00000000000000000000e+00) (0, 0, 0.00000000000000000000e+00) (0, 0, 0.00000000000000000000e+00) (0, 0, 0.00000000000000000000e+00) (0, 0, 0.00000000000000000000e+00) (0, 0, 0.00000000000000000000e+00) (0, 0, 0.00000000000000000000e+00) (0, 0, 0.00000000000000000000e+00) (0, 0, 0.00000000000000000000e+00) (0, 0, 0.00000000000000000000e+00) (0, 0, 0.00000000000000000000e+00) (0, 0, 0.00000000000000000000e+00) (0, 0, 0.00000000000000000000e+00) (0, 0, 0.00000000000000000000e+00) (0, 0, 0.00000000000000000000e+00) (0, 0, 0.00000000000000000000e+00) (0, 0, 0.00000000000000000000e+00) (0, 0, 0.00000000000000000000e+00) (0, 0, 0.00000000000000000000e+00) (0, 0, 0.00000000000000000000e+00) (0, 0, 0.00000000000000000000e+00) (0, 0, 0.00000000000000000000e+00) (0, 0, 0.00000000000000000000e+00) (0, 0, 0.00000000000000000000e+00) (0, 0, 0.00000000000000000000e+00) (0, 0, 0.00000000000000000000e+00) (0, 0, 0.00000000000000000000e+00) (0, 0, 0.00000000000000000000e+00) (0, 0, 0.00000000000000000000e+00) (0, 0, 0.00000000000000000000e+00) (0, 0, 0.00000000000000000000e+00) (0, 0, 0.00000000000000000000e+00) (0, 0, 0.00000000000000000000e+00) (0, 0, 0.00000000000000000000e+00) (0, 0, 0.00000000000000000000e+00) (0, 0, 0.00000000000000000000e+00) (0, 0, 0.00000000000000000000e+00) (0, 0, 0.00000000000000000000e+00) (0, 0, 0.00000000000000000000e+00) (0, 0, 0.00000000000000000000e+00) (0, 0, 0.00000000000000000000e+00) (0, 0, 0.00000000000000000000e+00) (0, 0, 0.00000000000000000000e+00) (0, 0, 0.00000000000000000000e+00) (0, 0, 0.00000000000000000000e+00) (0, 0, 0.00000000000000000000e+00) (0, 0, 0.00000000000000000000e+00) (0, 0, 0.00000000000000000000e+00) (0, 0, 0.00000000000000000000e+00) (0, 0, 0.00000000000000000000e+00) (0, 0, 0.00000000000000000000e+00) (0, 0, 0.00000000000000000000e+00) (0, 0, 0.00000000000000000000e+00) (0, 0, 0.00000000000000000000e+00) (0, 0, 0.00000000000000000000e+00) (0, 0, 0.00000000000000000000e+00) (0, 0, 0.00000000000000000000e+00) (0, 0, 0.00000000000000000000e+00) (0, 0, 0.00000000000000000000e+00) (0, 0, 0.00000000000000000000e+00) (0, 0, 0.00000000000000000000e+00) (0, 0, 0.00000000000000000000e+00) (0, 0, 0.00000000000000000000e+00) (0, 0, 0.00000000000000000000e+00) (0, 0, 0.00000000000000000000e+00) (0, 0, 0.00000000000000000000e+00) (0, 0, 0.00000000000000000000e+00) (0, 0, 0.00000000000000000000e+00) (0, 0, 0.00000000000000000000e+00) (0, 0, 0.00000000000000000000e+00) (0, 0, 0.00000000000000000000e+00) (0, 0, 0.00000000000000000000e+00) (0, 0, 0.00000000000000000000e+00) (0, 0, 0.00000000000000000000e+00) (0, 0, 0.00000000000000000000e+00) (0, 0, 0.00000000000000000000e+00) (0, 0, 0.00000000000000000000e+00) (0, 0, 0.00000000000000000000e+00) (0, 0, 0.00000000000000000000e+00) (0, 0, 0.00000000000000000000e+00) (0, 0, 0.00000000000000000000e+00) (0, 0, 0.00000000000000000000e+00) (0, 0, 0.00000000000000000000e+00) (0, 0, 0.00000000000000000000e+00) (0, 0, 0.00000000000000000000e+00) (0, 0, 0.00000000000000000000e+00) (0, 0, 0.00000000000000000000e+00) (0, 0, 0.00000000000000000000e+00) (0, 0, 0.00000000000000000000e+00) (0, 0, 0.00000000000000000000e+00) (0, 0, 0.00000000000000000000e+00) (0, 0, 0.00000000000000000000e+00) (0, 0, 0.00000000000000000000e+00) (0, 0, 0.00000000000000000000e+00) (0, 0, 0.00000000000000000000e+00) (0, 0, 0.00000000000000000000e+00) (0, 0, 0.00000000000000000000e+00) (0, 0, 0.00000000000000000000e+00) (0, 0, 0.00000000000000000000e+00) (0, 0, 0.00000000000000000000e+00) (0, 0, 0.00000000000000000000e+00) (0, 0, 0.00000000000000000000e+00) (0, 0, 0.00000000000000000000e+00) (0, 0, 0.00000000000000000000e+00) (0, 0, 0.00000000000000000000e+00) (0, 0, 0.00000000000000000000e+00) (0, 0, 0.00000000000000000000e+00) (0, 0, 0.00000000000000000000e+00) (0, 0, 0.00000000000000000000e+00) (0, 0, 0.00000000000000000000e+00) (0, 0, 0.00000000000000000000e+00) (0, 0, 0.00000000000000000000e+00) (0, 0, 0.00000000000000000000e+00) (0, 0, 0.00000000000000000000e+00) (0, 0, 0.00000000000000000000e+00) (0, 0, 0.00000000000000000000e+00) (0, 0, 0.00000000000000000000e+00) (0, 0, 0.00000000000000000000e+00) (0, 0, 0.00000000000000000000e+00) (0, 0, 0.00000000000000000000e+00) (0, 0, 0.00000000000000000000e+00) (0, 0, 0.00000000000000000000e+00) (0, 0, 0.00000000000000000000e+00) (0, 0, 0.00000000000000000000e+00) (0, 0, 0.00000000000000000000e+00) (201, 6, 5.00000000000000000000e-01) (201, 6, 5.00000000000000000000e-01) (201, 6, 5.00000000000000000000e-01) (201, 6, 5.00000000000000000000e-01) (201, 6, 5.00000000000000000000e-01) (201, 6, 5.00000000000000000000e-01) (201, 6, 5.00000000000000000000e-01) (201, 6, 5.00000000000000000000e-01) (201, 6, 5.00000000000000000000e-01) (201, 6, 5.00000000000000000000e-01) (201, 6, 5.00000000000000000000e-01) (201, 6, 5.00000000000000000000e-01) (201, 6, 5.00000000000000000000e-01) (201, 6, 5.00000000000000000000e-01) (201, 6, 5.00000000000000000000e-01) (201, 6, 5.00000000000000000000e-01) (201, 6, 5.00000000000000000000e-01) (201, 6, 5.00000000000000000000e-01) (201, 6, 5.00000000000000000000e-01) (201, 6, 5.00000000000000000000e-01) (201, 6, 5.00000000000000000000e-01) (201, 6, 5.00000000000000000000e-01) (201, 6, 5.00000000000000000000e-01) (201, 6, 5.00000000000000000000e-01) (201, 6, 5.00000000000000000000e-01) (201, 6, 5.00000000000000000000e-01) (201, 6, 5.00000000000000000000e-01) (201, 6, 5.00000000000000000000e-01) (201, 6, 5.00000000000000000000e-01) (201, 6, 5.00000000000000000000e-01) (201, 6, 5.00000000000000000000e-01) (201, 6, 5.00000000000000000000e-01) (201, 6, 5.00000000000000000000e-01) (201, 6, 5.00000000000000000000e-01) (201, 6, 5.00000000000000000000e-01) (201, 6, 5.00000000000000000000e-01) (201, 6, 5.00000000000000000000e-01) (201, 6, 5.00000000000000000000e-01) (201, 6, 5.00000000000000000000e-01) (201, 6, 5.00000000000000000000e-01) (201, 6, 5.00000000000000000000e-01) (201, 6, 5.00000000000000000000e-01) (201, 6, 5.00000000000000000000e-01) (201, 6, 5.00000000000000000000e-01) (201, 6, 5.00000000000000000000e-01) (201, 6, 5.00000000000000000000e-01) (201, 6, 5.00000000000000000000e-01) (201, 6, 5.00000000000000000000e-01) (201, 6, 5.00000000000000000000e-01) (201, 6, 5.00000000000000000000e-01) (201, 6, 5.00000000000000000000e-01) (201, 6, 5.00000000000000000000e-01) (201, 6, 5.00000000000000000000e-01) (201, 6, 5.00000000000000000000e-01) (201, 6, 5.00000000000000000000e-01) (201, 6, 5.00000000000000000000e-01) (201, 6, 5.00000000000000000000e-01) (201, 6, 5.00000000000000000000e-01) (201, 6, 5.00000000000000000000e-01) (201, 6, 5.00000000000000000000e-01) (201, 6, 5.00000000000000000000e-01) (201, 6, 5.00000000000000000000e-01) (201, 6, 5.00000000000000000000e-01) (201, 6, 5.00000000000000000000e-01) (201, 6, 5.00000000000000000000e-01) (201, 6, 5.00000000000000000000e-01) (201, 6, 5.00000000000000000000e-01) (201, 6, 5.00000000000000000000e-01) (201, 6, 5.00000000000000000000e-01) (201, 6, 5.00000000000000000000e-01) (201, 6, 5.00000000000000000000e-01) (201, 6, 5.00000000000000000000e-01) (201, 6, 5.00000000000000000000e-01) (201, 6, 5.00000000000000000000e-01) (201, 6, 5.00000000000000000000e-01) (0, 6, 0.00000000000000000000e+00) (76, 6, 5.00000000000000000000e-01) (76, 6, 5.00000000000000000000e-01) (76, 6, 5.00000000000000000000e-01) (76, 6, 5.00000000000000000000e-01) (76, 6, 5.00000000000000000000e-01) (76, 6, 5.00000000000000000000e-01) (76, 6, 5.00000000000000000000e-01) (76, 6, 5.00000000000000000000e-01) (76, 6, 5.00000000000000000000e-01) (76, 6, 5.00000000000000000000e-01) (76, 6, 5.00000000000000000000e-01) (76, 6, 5.00000000000000000000e-01) (76, 6, 5.00000000000000000000e-01) (76, 6, 5.00000000000000000000e-01) (76, 6, 5.00000000000000000000e-01) (76, 6, 5.00000000000000000000e-01) (76, 6, 5.00000000000000000000e-01) (76, 6, 5.00000000000000000000e-01) (76, 6, 5.00000000000000000000e-01) (76, 6, 5.00000000000000000000e-01) (76, 6, 5.00000000000000000000e-01) (76, 6, 5.00000000000000000000e-01) (76, 6, 5.00000000000000000000e-01) (76, 6, 5.00000000000000000000e-01) (76, 6, 5.00000000000000000000e-01) (76, 6, 5.00000000000000000000e-01) (76, 6, 5.00000000000000000000e-01) (76, 6, 5.00000000000000000000e-01) (76, 6, 5.00000000000000000000e-01) (76, 6, 5.00000000000000000000e-01) (76, 6, 5.00000000000000000000e-01) (76, 6, 5.00000000000000000000e-01) (0, 6, 0.00000000000000000000e+00) (33, 3, 5.00000000000000000000e-01) (33, 3, 5.00000000000000000000e-01) (33, 3, 5.00000000000000000000e-01) (33, 3, 5.00000000000000000000e-01) (33, 3, 5.00000000000000000000e-01) (33, 3, 5.00000000000000000000e-01) (33, 3, 5.00000000000000000000e-01) (33, 3, 5.00000000000000000000e-01) (0, 3, 0.00000000000000000000e+00) 
connections (connected_to_neuron, weight)=(0, -3.05101778358221054077e-02) (1, -6.11545741558074951172e-02) (2, -3.35300303995609283447e-02) (3, -7.85521715879440307617e-02) (4, 1.09020330011844635010e-01) (5, 7.26067740470170974731e-03) (6, 4.19067367911338806152e-02) (7, -4.89560216665267944336e-02) (8, -1.17678074166178703308e-02) (9, -8.22762548923492431641e-02) (10, 3.54677364230155944824e-02) (11, -4.04442660510540008545e-02) (12, -1.17894234135746955872e-02) (13, 9.34502184391021728516e-02) (14, 9.17627662420272827148e-02) (15, 1.12115614116191864014e-01) (16, 8.66023227572441101074e-02) (17, 1.10937930643558502197e-01) (18, -3.94620709121227264404e-02) (19, 4.04004678130149841309e-02) (20, 7.15839071199297904968e-03) (21, 7.19716921448707580566e-02) (22, 9.53148491680622100830e-03) (23, 1.37830851599574089050e-02) (24, -1.61295686848461627960e-03) (25, 7.14958459138870239258e-02) (26, 3.19769345223903656006e-02) (27, 6.57680481672286987305e-02) (28, -3.17863374948501586914e-02) (29, -2.38840263336896896362e-02) (30, -7.06957129295915365219e-04) (31, 2.26659160107374191284e-02) (32, 7.16914329677820205688e-03) (33, 7.27763622999191284180e-02) (34, 7.06484615802764892578e-02) (35, 1.87353193759918212891e-02) (36, -2.34936196357011795044e-02) (37, 5.90280033648014068604e-02) (38, 1.76825731992721557617e-01) (39, 7.65127539634704589844e-02) (40, -1.31856109946966171265e-02) (41, -2.46585775166749954224e-02) (42, 1.11598856747150421143e-01) (43, 9.65971499681472778320e-02) (44, -7.13187009096145629883e-02) (45, 5.05631752312183380127e-02) (46, 3.37960124015808105469e-02) (47, 8.90709906816482543945e-02) (48, 1.13801879342645406723e-03) (49, 8.21954086422920227051e-02) (50, -4.40923348069190979004e-02) (51, 7.80626758933067321777e-02) (52, 2.79014389961957931519e-02) (53, 9.48159024119377136230e-03) (54, 1.13027612678706645966e-03) (55, -8.81394594907760620117e-02) (56, -5.86504153907299041748e-02) (57, 7.86008313298225402832e-02) (58, 2.06516176462173461914e-01) (59, -1.00986880715936422348e-03) (60, -1.06160983443260192871e-01) (61, -1.93518716841936111450e-02) (62, 7.70548656582832336426e-02) (63, 6.26808553934097290039e-02) (64, -9.98787488788366317749e-03) (65, 5.74996657669544219971e-02) (66, 1.03911682963371276855e-01) (67, 8.69114883244037628174e-03) (68, 1.12829543650150299072e-01) (69, 1.85463409870862960815e-02) (70, -5.45466225594282150269e-03) (71, 8.73230118304491043091e-03) (72, 8.69597420096397399902e-02) (73, -5.21856658160686492920e-02) (74, -9.96452793478965759277e-02) (75, 9.73765105009078979492e-02) (76, 9.18892100453376770020e-02) (77, 9.51527282595634460449e-02) (78, 1.71047702431678771973e-01) (79, -6.06926791369915008545e-02) (80, 4.21424023807048797607e-02) (81, 4.61582429707050323486e-02) (82, 5.48930019140243530273e-02) (83, -6.27150386571884155273e-02) (84, -6.77805393934249877930e-02) (85, 1.11598730087280273438e-01) (86, 4.72991056740283966064e-02) (87, 9.59103368222713470459e-03) (88, 1.25080540776252746582e-01) (89, 1.88811257481575012207e-01) (90, 1.23592570424079895020e-01) (91, 1.21785812079906463623e-01) (92, 1.60279899835586547852e-01) (93, 5.72878234088420867920e-02) (94, 8.58231633901596069336e-02) (95, -4.94250021874904632568e-02) (96, -4.48442213237285614014e-02) (97, 3.62458918243646621704e-03) (98, 2.66484171152114868164e-01) (99, -4.45280484855175018311e-02) (100, 5.23841567337512969971e-02) (101, -9.92185026407241821289e-02) (102, 4.43894527852535247803e-02) (103, 1.89795799087733030319e-03) (104, -4.99420091509819030762e-02) (105, 4.10764589905738830566e-02) (106, -1.67653728276491165161e-02) (107, -8.09312611818313598633e-02) (108, -3.54393087327480316162e-02) (109, 1.09922826290130615234e-01) (110, -2.93957325629889965057e-03) (111, 7.12944567203521728516e-02) (112, 2.73629557341337203979e-02) (113, -6.90759420394897460938e-02) (114, 3.12713062157854437828e-04) (115, 1.06838747859001159668e-01) (116, -8.23478996753692626953e-02) (117, 9.26150530576705932617e-02) (118, 5.06735779345035552979e-02) (119, 3.64247970283031463623e-02) (120, -4.24307435750961303711e-02) (121, 8.62705782055854797363e-02) (122, -1.24777317978441715240e-03) (123, 5.17376661300659179688e-02) (124, 6.79805800318717956543e-02) (125, 1.24971307814121246338e-01) (126, 3.69755737483501434326e-02) (127, 1.07256360352039337158e-01) (128, 1.39151319861412048340e-01) (129, 1.94437965750694274902e-01) (130, 2.16271281242370605469e-01) (131, 1.19854964315891265869e-01) (132, 1.97191849350929260254e-01) (133, 2.19390746206045150757e-02) (134, 9.98685657978057861328e-02) (135, 3.50713171064853668213e-02) (136, -1.77165772765874862671e-02) (137, 5.99825419485569000244e-02) (138, 1.88912332057952880859e-01) (139, 3.80884744226932525635e-02) (140, 1.09958872199058532715e-02) (141, 4.72671054303646087646e-02) (142, 1.15441001951694488525e-01) (143, -1.31673114374279975891e-02) (144, 8.64025503396987915039e-02) (145, 3.31113710999488830566e-02) (146, 1.23623304069042205811e-01) (147, 1.16704374551773071289e-01) (148, 6.00045248866081237793e-02) (149, 1.29759341478347778320e-01) (150, 1.03034581989049911499e-02) (151, -1.49425463750958442688e-02) (152, 6.02935403585433959961e-02) (153, 1.37725740671157836914e-01) (154, 4.32563014328479766846e-02) (155, -2.06432510167360305786e-02) (156, 2.11004465818405151367e-01) (157, 1.57017379999160766602e-01) (158, 2.59227246046066284180e-01) (159, 9.10505875945091247559e-02) (160, 1.27206379547715187073e-02) (161, 6.38466775417327880859e-02) (162, 5.00972233712673187256e-02) (163, 1.44763872027397155762e-01) (164, 3.51730734109878540039e-02) (165, 1.38700634241104125977e-01) (166, -5.34964911639690399170e-02) (167, 4.16736342012882232666e-02) (168, 1.91048849374055862427e-02) (169, 2.03570708632469177246e-01) (170, 2.13143587112426757812e-01) (171, 1.39736875891685485840e-01) (172, 5.22942021489143371582e-02) (173, 4.23670634627342224121e-02) (174, 2.27017223834991455078e-01) (175, 2.34407588839530944824e-01) (176, 1.44001811742782592773e-01) (177, 1.47057384252548217773e-01) (178, 2.29116916656494140625e-01) (179, 8.60427990555763244629e-02) (180, 4.75776055827736854553e-03) (181, -3.36124151945114135742e-02) (182, -6.81078955531120300293e-02) (183, -6.37717843055725097656e-02) (184, -3.77879627048969268799e-02) (185, 5.86829558014869689941e-02) (186, -3.02073080092668533325e-02) (187, -9.43961143493652343750e-02) (188, 2.20272988080978393555e-02) (189, -6.79392293095588684082e-02) (190, 5.43724894523620605469e-02) (191, -1.52035593055188655853e-03) (192, 6.31921216845512390137e-02) (193, -3.39807644486427307129e-02) (194, -2.36274506896734237671e-02) (195, 3.68718034587800502777e-03) (196, -7.98757299780845642090e-02) (197, 4.36109444126486778259e-03) (198, 8.16662162542343139648e-02) (199, 3.28601850196719169617e-03) (200, 1.74167007207870483398e-02) (0, -3.01004517823457717896e-02) (1, -8.33545997738838195801e-02) (2, 1.12136006355285644531e-01) (3, -6.36419951915740966797e-02) (4, 8.37377831339836120605e-02) (5, 6.16338662803173065186e-02) (6, 4.11168597638607025146e-02) (7, 4.10668086260557174683e-03) (8, 2.68694851547479629517e-02) (9, -1.07396207749843597412e-02) (10, -8.43955874443054199219e-02) (11, 7.32215046882629394531e-02) (12, 2.83225551247596740723e-02) (13, -5.51299192011356353760e-02) (14, -1.18050694465637207031e-01) (15, -2.39621289074420928955e-02) (16, 2.34038457274436950684e-02) (17, -7.18733295798301696777e-02) (18, 1.28018215298652648926e-01) (19, 4.38053607940673828125e-02) (20, 7.52947926521301269531e-02) (21, -3.56225743889808654785e-02) (22, -1.65291745215654373169e-02) (23, -5.97553662955760955811e-02) (24, 5.91853670775890350342e-02) (25, 7.45064467191696166992e-02) (26, -3.70218493044376373291e-02) (27, -7.71243423223495483398e-02) (28, 8.44164192676544189453e-03) (29, 4.13212515413761138916e-02) (30, -8.54658409953117370605e-02) (31, -7.96870216727256774902e-02) (32, 6.91364631056785583496e-02) (33, -8.73501077294349670410e-02) (34, -8.38348567485809326172e-02) (35, 6.12394735217094421387e-02) (36, 1.03988572955131530762e-01) (37, 3.48535440862178802490e-02) (38, -4.54919412732124328613e-02) (39, 1.07539761811494827271e-02) (40, -3.66133474744856357574e-03) (41, -6.43628090620040893555e-02) (42, -2.96395514160394668579e-02) (43, 5.72267994284629821777e-02) (44, 2.72785080596804618835e-03) (45, -1.65210627019405364990e-02) (46, -5.66349364817142486572e-02) (47, -9.80580970644950866699e-02) (48, 3.21887917816638946533e-02) (49, -6.82897567749023437500e-02) (50, 1.02502048015594482422e-01) (51, 5.08883744478225708008e-02) (52, 4.03908379375934600830e-02) (53, 5.69204911589622497559e-02) (54, -1.07158251106739044189e-01) (55, 4.19675372540950775146e-02) (56, 4.08876240253448486328e-02) (57, -1.01343099959194660187e-03) (58, 7.21703246235847473145e-02) (59, -5.62361925840377807617e-02) (60, -5.71661591529846191406e-02) (61, 2.88881417363882064819e-02) (62, -8.87198299169540405273e-02) (63, 5.35617284476757049561e-02) (64, -6.70216511934995651245e-03) (65, -4.00682836771011352539e-02) (66, 4.11558188498020172119e-02) (67, -9.29688755422830581665e-03) (68, -8.17636847496032714844e-02) (69, -1.02954410016536712646e-01) (70, -8.39195773005485534668e-02) (71, 1.56867206096649169922e-02) (72, 2.30895876884460449219e-02) (73, 5.60253486037254333496e-02) (74, 5.79774193465709686279e-02) (75, -4.45771142840385437012e-02) (76, 6.95337206125259399414e-02) (77, 9.40001681447029113770e-02) (78, -7.38824233412742614746e-02) (79, -7.13657885789871215820e-02) (80, -6.82403594255447387695e-02) (81, -4.59689572453498840332e-02) (82, 1.15282900631427764893e-01) (83, 7.00415894389152526855e-02) (84, 4.47329953312873840332e-02) (85, -1.42063856124877929688e-01) (86, -9.49592888355255126953e-02) (87, -2.33018752187490463257e-02) (88, -4.64889258146286010742e-02) (89, 2.49115265905857086182e-02) (90, 6.97982311248779296875e-02) (91, 5.02379015088081359863e-02) (92, 2.75452043861150741577e-02) (93, 1.98457501828670501709e-02) (94, 8.02086479961872100830e-03) (95, 1.09264273196458816528e-02) (96, 2.83872745931148529053e-02) (97, -6.33396059274673461914e-02) (98, 1.25252660363912582397e-02) (99, 3.92888560891151428223e-02) (100, -2.57111247628927230835e-02) (101, 9.68270748853683471680e-02) (102, -1.94199718534946441650e-02) (103, 6.02057352662086486816e-02) (104, 2.65184938907623291016e-02) (105, -9.29471924901008605957e-02) (106, 7.58341178297996520996e-02) (107, 1.18693605065345764160e-01) (108, 1.16439104080200195312e-01) (109, -6.02443814277648925781e-02) (110, -5.76133690774440765381e-02) (111, -1.06160603463649749756e-01) (112, -4.87972386181354522705e-02) (113, -1.25695839524269104004e-01) (114, 5.55021837353706359863e-02) (115, -1.09321057796478271484e-01) (116, -8.66752788424491882324e-02) (117, -6.12100660800933837891e-02) (118, -2.72748563438653945923e-02) (119, 2.24246196448802947998e-02) (120, -5.52832745015621185303e-02) (121, -2.67314072698354721069e-02) (122, -6.79409652948379516602e-02) (123, 2.34820153564214706421e-02) (124, 9.76981036365032196045e-03) (125, 9.79238077998161315918e-02) (126, 1.02863691747188568115e-01) (127, 1.32879599928855895996e-01) (128, -8.49775746464729309082e-02) (129, 2.24340185523033142090e-02) (130, 3.28468158841133117676e-02) (131, -5.40661402046680450439e-02) (132, 1.63314640522003173828e-02) (133, -1.01535722613334655762e-01) (134, -1.35650590062141418457e-01) (135, -1.25269800424575805664e-01) (136, -9.94188636541366577148e-02) (137, -9.82529222965240478516e-02) (138, -1.42886847257614135742e-01) (139, -1.01438783109188079834e-01) (140, -5.35382404923439025879e-02) (141, -5.62272630631923675537e-02) (142, -3.55395413935184478760e-02) (143, 9.39273275434970855713e-03) (144, 1.70153949875384569168e-03) (145, -9.74249839782714843750e-02) (146, 2.18307804316282272339e-02) (147, -3.36480583064258098602e-03) (148, -2.84911878407001495361e-02) (149, -2.07493770867586135864e-02) (150, 6.88294619321823120117e-02) (151, -1.49003583937883377075e-02) (152, 1.62554588168859481812e-02) (153, -8.77197235822677612305e-02) (154, -8.58541876077651977539e-02) (155, -1.60004749894142150879e-01) (156, -4.03154268860816955566e-02) (157, -1.87407001852989196777e-01) (158, -1.79001271724700927734e-01) (159, 5.02796620130538940430e-02) (160, 1.00358702242374420166e-01) (161, 8.94312039017677307129e-02) (162, 1.38641418889164924622e-02) (163, 2.99049131572246551514e-02) (164, 9.75932553410530090332e-02) (165, 3.47414240241050720215e-02) (166, 7.90328308939933776855e-02) (167, -4.45754788815975189209e-02) (168, 1.61260329186916351318e-02) (169, -1.78969934582710266113e-01) (170, -5.38286902010440826416e-02) (171, 2.28734370321035385132e-02) (172, -1.27652034163475036621e-01) (173, -1.78008843213319778442e-02) (174, -1.20491705834865570068e-01) (175, -6.59518539905548095703e-02) (176, -5.86251821368932723999e-03) (177, -3.62935550510883331299e-02) (178, -1.01142507046461105347e-02) (179, 3.57376672327518463135e-02) (180, -5.94050399959087371826e-02) (181, 7.00376182794570922852e-02) (182, -1.29291815683245658875e-02) (183, 4.14773523807525634766e-02) (184, 9.33183655142784118652e-02) (185, 1.41499545425176620483e-02) (186, 6.94734007120132446289e-02) (187, 5.40027283132076263428e-02) (188, 1.49710616096854209900e-02) (189, 8.40308815240859985352e-02) (190, 2.91894786059856414795e-02) (191, -3.70563231408596038818e-02) (192, 5.03653250634670257568e-02) (193, 8.53685513138771057129e-02) (194, 5.21073937416076660156e-02) (195, -1.08858169987797737122e-02) (196, -6.23801210895180702209e-03) (197, 1.68028809130191802979e-02) (198, 3.27563025057315826416e-02) (199, -1.02044843137264251709e-01) (200, 2.54040001891553401947e-03) (0, -8.48282203078269958496e-02) (1, 6.37930184602737426758e-02) (2, 7.96804055571556091309e-02) (3, 4.18976135551929473877e-02) (4, -7.36204683780670166016e-02) (5, -2.68265213817358016968e-02) (6, -4.16468568146228790283e-02) (7, -1.03941924870014190674e-01) (8, -3.50946970283985137939e-02) (9, -2.71860361099243164062e-02) (10, -7.75727331638336181641e-02) (11, -7.21930339932441711426e-02) (12, 4.76446002721786499023e-02) (13, 3.24843153357505798340e-02) (14, -1.50467053055763244629e-01) (15, -6.65816813707351684570e-02) (16, 2.01671347022056579590e-02) (17, 2.68820542842149734497e-02) (18, 8.07056725025177001953e-02) (19, -2.88453940302133560181e-02) (20, -2.51850094646215438843e-02) (21, -1.01030759513378143311e-01) (22, -1.26776188611984252930e-01) (23, -2.32518222182989120483e-02) (24, 1.09862849116325378418e-01) (25, 4.95068170130252838135e-02) (26, 8.50823521614074707031e-02) (27, 3.92482569441199302673e-03) (28, 4.87115383148193359375e-02) (29, -5.78804463148117065430e-02) (30, -4.99753393232822418213e-02) (31, -9.91786271333694458008e-02) (32, -8.95789265632629394531e-02) (33, -6.84263631701469421387e-02) (34, 2.84938644617795944214e-02) (35, -8.30430239439010620117e-02) (36, 2.19861119985580444336e-02) (37, -1.42611905932426452637e-01) (38, -9.49289798736572265625e-02) (39, 5.49403801560401916504e-02) (40, -3.00333127379417419434e-02) (41, -6.38340637087821960449e-02) (42, -1.19662046432495117188e-01) (43, -1.08117923140525817871e-01) (44, -1.08848638832569122314e-01) (45, -1.12157404422760009766e-01) (46, -2.81008724123239517212e-02) (47, 1.94715685211122035980e-03) (48, 5.03879673779010772705e-02) (49, -6.26734942197799682617e-02) (50, -5.90603426098823547363e-02) (51, -3.20255681872367858887e-02) (52, -9.34293214231729507446e-03) (53, -1.01168006658554077148e-02) (54, 1.48226404562592506409e-02) (55, 3.74682769179344177246e-02) (56, -2.64500249177217483521e-02) (57, 6.27174004912376403809e-02) (58, -1.20755739510059356689e-01) (59, -6.78579509258270263672e-02) (60, 9.26343202590942382812e-02) (61, -6.30173906683921813965e-02) (62, -8.02704468369483947754e-02) (63, 4.38551045954227447510e-02) (64, -6.25775679945945739746e-02) (65, 6.05368167161941528320e-02) (66, -9.02015119791030883789e-02) (67, 7.13368132710456848145e-02) (68, -1.28707379102706909180e-01) (69, -5.90845979750156402588e-02) (70, 5.03001883625984191895e-02) (71, -1.85177065432071685791e-02) (72, 2.40289494395256042480e-02) (73, 1.04985266923904418945e-01) (74, 6.11799396574497222900e-02) (75, 4.14504930377006530762e-02) (76, 1.24375887215137481689e-01) (77, 7.86071792244911193848e-02) (78, -7.19787701964378356934e-02) (79, 7.29447826743125915527e-02) (80, -5.27546443045139312744e-02) (81, 5.30593506991863250732e-02) (82, -4.35340665280818939209e-02) (83, 4.20442484319210052490e-02) (84, -1.06596171855926513672e-01) (85, -1.27504065632820129395e-01) (86, -1.37108832597732543945e-01) (87, -5.05932644009590148926e-02) (88, -2.07434501498937606812e-02) (89, -1.26297086477279663086e-01) (90, 1.00725311785936355591e-02) (91, 6.46746680140495300293e-02) (92, -7.64692649245262145996e-02) (93, 1.52172863483428955078e-01) (94, -3.41333113610744476318e-02) (95, 5.85248954594135284424e-02) (96, 9.67621058225631713867e-02) (97, 2.66961026936769485474e-02) (98, -2.73621231317520141602e-02) (99, 7.77637064456939697266e-02) (100, -5.40805272758007049561e-02) (101, 1.54792927205562591553e-02) (102, -3.86199876666069030762e-02) (103, 7.39413425326347351074e-02) (104, -1.16158379241824150085e-02) (105, 8.16230475902557373047e-02) (106, 1.19938105344772338867e-02) (107, -1.14176385104656219482e-02) (108, 1.16487748920917510986e-01) (109, -8.35340693593025207520e-02) (110, -7.01696053147315979004e-02) (111, -1.16306595504283905029e-01) (112, 6.48158490657806396484e-02) (113, -2.47744955122470855713e-02) (114, 4.09512743353843688965e-02) (115, 5.72141259908676147461e-02) (116, 2.02351473271846771240e-02) (117, 9.49443504214286804199e-02) (118, -6.34898096323013305664e-02) (119, 1.73654295504093170166e-02) (120, -6.19938969612121582031e-02) (121, -5.95410242676734924316e-02) (122, -3.36963832378387451172e-02) (123, -5.33598661422729492188e-02) (124, -6.63660243153572082520e-02) (125, -8.01830589771270751953e-02) (126, -2.56011243909597396851e-02) (127, -5.39836809039115905762e-02) (128, -1.07593044638633728027e-01) (129, -9.82257351279258728027e-02) (130, -1.41653180122375488281e-01) (131, -8.78980010747909545898e-02) (132, -3.05861253291368484497e-02) (133, -1.58873852342367172241e-02) (134, -1.70384272933006286621e-01) (135, -1.74352586269378662109e-01) (136, -5.71135506033897399902e-02) (137, 1.61423794925212860107e-02) (138, -1.13488815724849700928e-01) (139, -1.46675780415534973145e-02) (140, 7.44832903146743774414e-02) (141, 2.46114507317543029785e-02) (142, 1.90912000834941864014e-02) (143, 7.60356197133660316467e-04) (144, -2.91769281029701232910e-02) (145, -5.82850910723209381104e-02) (146, 1.58407017588615417480e-02) (147, 5.62598146498203277588e-02) (148, -4.95056025683879852295e-02) (149, -5.85926920175552368164e-02) (150, -3.25131788849830627441e-02) (151, 5.45634552836418151855e-02) (152, -4.88298013806343078613e-03) (153, 1.81635059416294097900e-02) (154, -4.71097268164157867432e-02) (155, -1.42483832314610481262e-02) (156, -2.97312643378973007202e-02) (157, -7.86956027150154113770e-02) (158, -5.03307245671749114990e-02) (159, 5.23981712758541107178e-02) (160, 1.10512286424636840820e-01) (161, -7.69936144351959228516e-02) (162, -5.53259998559951782227e-02) (163, -3.79568114876747131348e-02) (164, -2.08279415965080261230e-02) (165, -7.11480602622032165527e-02) (166, -1.59582942724227905273e-02) (167, -1.16689257323741912842e-01) (168, 5.27194887399673461914e-02) (169, -3.68389226496219635010e-02) (170, -7.47910290956497192383e-02) (171, -1.14581836387515068054e-02) (172, -6.83565586805343627930e-02) (173, -8.27639475464820861816e-02) (174, -1.35960802435874938965e-01) (175, -4.91263344883918762207e-02) (176, -1.50308404117822647095e-02) (177, -1.76608324050903320312e-01) (178, -1.23020313680171966553e-01) (179, -3.54586765170097351074e-02) (180, -4.93827834725379943848e-02) (181, -7.23611265420913696289e-02) (182, -7.66900181770324707031e-02) (183, 4.67908419668674468994e-02) (184, 7.71891549229621887207e-02) (185, -3.02220247685909271240e-02) (186, -1.52622759342193603516e-02) (187, 3.89063879847526550293e-02) (188, 9.52480435371398925781e-02) (189, -1.02388244122266769409e-02) (190, 1.36499786749482154846e-02) (191, 2.85734478384256362915e-02) (192, -6.93619390949606895447e-03) (193, 2.93143764138221740723e-02) (194, 9.19560119509696960449e-02) (195, -1.49960950016975402832e-01) (196, 7.33880177140235900879e-02) (197, -3.30143496394157409668e-02) (198, -1.45986378192901611328e-01) (199, 4.68396209180355072021e-02) (200, -8.92343148589134216309e-02) (0, 1.21959764510393142700e-02) (1, -2.21910197287797927856e-02) (2, -9.88644808530807495117e-02) (3, -1.03133678436279296875e-01) (4, 1.12659178674221038818e-01) (5, 5.62163032591342926025e-02) (6, 8.28664228320121765137e-02) (7, -1.08987815678119659424e-01) (8, 2.48699765652418136597e-02) (9, 9.89328371360898017883e-04) (10, 9.45415627211332321167e-03) (11, 4.65890243649482727051e-02) (12, -1.47911871317774057388e-03) (13, 1.39314666390419006348e-01) (14, 8.96478220820426940918e-02) (15, 9.61716771125793457031e-02) (16, 3.00453249365091323853e-02) (17, 1.04171596467494964600e-01) (18, 1.39561206102371215820e-01) (19, 1.29395574331283569336e-01) (20, 7.43298754096031188965e-02) (21, -5.59249557554721832275e-02) (22, -1.72300696372985839844e-01) (23, -2.68906671553850173950e-02) (24, -1.97296738624572753906e-02) (25, -8.75152572989463806152e-02) (26, -1.73698533326387405396e-02) (27, 8.54239240288734436035e-02) (28, -5.44221177697181701660e-02) (29, -1.85755565762519836426e-02) (30, -8.70498549193143844604e-03) (31, -8.39676707983016967773e-02) (32, 1.07379615306854248047e-01) (33, 1.74536239355802536011e-02) (34, 4.72871307283639907837e-03) (35, 9.58000719547271728516e-02) (36, -8.55729077011346817017e-03) (37, 7.22212865948677062988e-02) (38, 1.87661498785018920898e-01) (39, 9.34236198663711547852e-02) (40, -8.66953842341899871826e-03) (41, -1.14400960505008697510e-01) (42, 8.16441047936677932739e-03) (43, 1.62780508399009704590e-02) (44, -1.32252275943756103516e-01) (45, -1.41729131340980529785e-01) (46, 8.16323421895503997803e-03) (47, -5.21605908870697021484e-02) (48, -3.42381969094276428223e-02) (49, 3.92705528065562248230e-03) (50, -9.15361009538173675537e-03) (51, -1.42508139833807945251e-02) (52, 1.44931105896830558777e-02) (53, 6.62214159965515136719e-02) (54, 1.82372406125068664551e-01) (55, 6.44662678241729736328e-02) (56, 8.32796618342399597168e-02) (57, 1.56043944880366325378e-02) (58, 1.67582780122756958008e-01) (59, -6.13803267478942871094e-02) (60, 3.70452273637056350708e-03) (61, -1.22213348746299743652e-01) (62, -1.10909491777420043945e-01) (63, -5.49024865031242370605e-02) (64, -8.18548426032066345215e-02) (65, -6.45689144730567932129e-02) (66, -7.78283327817916870117e-02) (67, -7.14410319924354553223e-02) (68, -8.05567279458045959473e-02) (69, -1.66236072778701782227e-01) (70, 2.31022518128156661987e-02) (71, 8.68154987692832946777e-02) (72, 1.09311705455183982849e-02) (73, -1.07033122330904006958e-02) (74, 6.83918744325637817383e-02) (75, 6.22096136212348937988e-02) (76, 1.54202789068222045898e-01) (77, 1.40470147132873535156e-01) (78, 2.93571799993515014648e-01) (79, 4.20829802751541137695e-02) (80, -6.07373118400573730469e-02) (81, -8.86003673076629638672e-02) (82, -1.02269753813743591309e-01) (83, -4.42943274974822998047e-02) (84, -6.24290257692337036133e-02) (85, -3.08027863502502441406e-02) (86, -1.56622990965843200684e-01) (87, -1.40115574002265930176e-01) (88, -1.81057319045066833496e-01) (89, 3.70692461729049682617e-02) (90, 8.74302834272384643555e-02) (91, -1.22376065701246261597e-02) (92, 1.69909894466400146484e-01) (93, 2.97421813011169433594e-01) (94, 1.20520234107971191406e-01) (95, 8.56351181864738464355e-02) (96, -3.75415980815887451172e-02) (97, 7.43454368785023689270e-03) (98, 4.41991001367568969727e-01) (99, 5.45752681791782379150e-02) (100, -4.56890873610973358154e-02) (101, -1.68205369263887405396e-02) (102, 1.05185331776738166809e-02) (103, -1.29913520067930221558e-02) (104, -4.23964392393827438354e-03) (105, -4.74313572049140930176e-02) (106, 4.17902395129203796387e-02) (107, 9.02115926146507263184e-02) (108, 4.70110923051834106445e-02) (109, 6.94915726780891418457e-02) (110, 8.19234773516654968262e-02) (111, 1.19664669036865234375e-01) (112, -1.87757564708590507507e-03) (113, -6.77700713276863098145e-02) (114, -8.82511064410209655762e-02) (115, -4.00910712778568267822e-02) (116, -4.29476387798786163330e-02) (117, -9.94369154796004295349e-04) (118, 1.98438137769699096680e-01) (119, 2.32905596494674682617e-02) (120, -2.95630954205989837646e-02) (121, -2.35920920968055725098e-02) (122, -7.77006074786186218262e-02) (123, -3.50760668516159057617e-02) (124, -3.68842855095863342285e-03) (125, -2.80295498669147491455e-02) (126, 8.52566659450531005859e-02) (127, 8.38486477732658386230e-02) (128, -2.02234145253896713257e-02) (129, 2.01843809336423873901e-02) (130, -4.16762940585613250732e-02) (131, -5.88440783321857452393e-02) (132, 4.30556125938892364502e-02) (133, -3.31348553299903869629e-03) (134, -1.50553643703460693359e-01) (135, -6.79554566740989685059e-02) (136, -1.62779152393341064453e-01) (137, 1.04962363839149475098e-02) (138, 1.57518371939659118652e-01) (139, 1.47072046995162963867e-01) (140, 2.11197198950685560703e-04) (141, 8.30693393945693969727e-02) (142, 1.18561819195747375488e-01) (143, 1.75201613456010818481e-02) (144, -3.92246544361114501953e-02) (145, -1.09545625746250152588e-01) (146, 1.32885143160820007324e-01) (147, 9.05646458268165588379e-02) (148, 8.91233459115028381348e-02) (149, 6.12379424273967742920e-02) (150, -1.50149345397949218750e-01) (151, -5.15050925314426422119e-02) (152, 5.56663833558559417725e-02) (153, -9.24276635050773620605e-02) (154, 8.10273215174674987793e-02) (155, -1.38162419199943542480e-01) (156, -1.29247352480888366699e-01) (157, -1.93236351013183593750e-01) (158, 1.57544091343879699707e-01) (159, 2.23741326481103897095e-02) (160, 9.41614881157875061035e-02) (161, -4.94332276284694671631e-02) (162, -2.10860365768894553185e-04) (163, 3.17279785871505737305e-01) (164, -1.33404567837715148926e-01) (165, 6.93719238042831420898e-02) (166, -4.13303934037685394287e-02) (167, -1.03318892419338226318e-01) (168, -1.60771638154983520508e-01) (169, 1.00788362324237823486e-02) (170, -9.53571200370788574219e-02) (171, -1.01489223539829254150e-01) (172, -1.10855691134929656982e-01) (173, -7.59583190083503723145e-02) (174, 3.68305109441280364990e-02) (175, 3.21490131318569183350e-02) (176, -7.24402070045471191406e-02) (177, -4.52182674780488014221e-03) (178, -3.09205497615039348602e-03) (179, 9.23381969332695007324e-02) (180, 8.63407459110021591187e-03) (181, -3.35916131734848022461e-02) (182, 1.16665035486221313477e-01) (183, -1.01365305483341217041e-01) (184, -1.77939292043447494507e-02) (185, 1.21234124526381492615e-02) (186, -7.77158141136169433594e-02) (187, 7.74871185421943664551e-03) (188, 9.10560712218284606934e-02) (189, 9.16097238659858703613e-02) (190, -7.74988532066345214844e-02) (191, 6.17398060858249664307e-02) (192, -8.33603888750076293945e-02) (193, -3.30651812255382537842e-02) (194, 6.59764632582664489746e-02) (195, 2.40771397948265075684e-02) (196, 1.96899976581335067749e-02) (197, -5.95511496067047119141e-02) (198, 7.69311115145683288574e-02) (199, 4.70368191599845886230e-02) (200, 6.16463646292686462402e-02) (0, 4.59867604076862335205e-02) (1, 5.83825632929801940918e-02) (2, -1.04227643460035324097e-02) (3, -3.60806025564670562744e-02) (4, 7.97341763973236083984e-02) (5, 8.21002870798110961914e-02) (6, 5.11009469628334045410e-02) (7, -1.96915883570909500122e-02) (8, -9.82598513364791870117e-02) (9, -1.68635472655296325684e-02) (10, 1.77535619586706161499e-02) (11, -6.81212320923805236816e-02) (12, -4.69445660710334777832e-02) (13, 2.01394371688365936279e-02) (14, -4.62578870356082916260e-02) (15, 5.92450611293315887451e-02) (16, 6.26306533813476562500e-02) (17, 1.27935916185379028320e-01) (18, 1.09840825200080871582e-01) (19, 1.31606422364711761475e-02) (20, -8.93916487693786621094e-02) (21, 1.03616742417216300964e-02) (22, 1.66651234030723571777e-02) (23, 7.36217061057686805725e-03) (24, 6.43496364355087280273e-02) (25, -8.75032469630241394043e-02) (26, -1.36373899877071380615e-02) (27, 3.44827584922313690186e-02) (28, 4.65279705822467803955e-02) (29, 1.02146737277507781982e-01) (30, 2.65787951648235321045e-02) (31, 7.69506581127643585205e-03) (32, 5.04960678517818450928e-02) (33, 8.69246423244476318359e-02) (34, 2.82497312873601913452e-02) (35, -4.15708161890506744385e-02) (36, 8.30050185322761535645e-02) (37, -1.82235669344663619995e-02) (38, 8.26628953218460083008e-02) (39, -2.14465288445353507996e-03) (40, 1.34055823087692260742e-01) (41, -1.68272834271192550659e-02) (42, 7.50071033835411071777e-02) (43, -1.43983751535415649414e-01) (44, -1.01977355778217315674e-01) (45, -6.33952766656875610352e-02) (46, 1.12928345799446105957e-01) (47, 4.79689724743366241455e-02) (48, -9.61891654878854751587e-03) (49, 7.18077570199966430664e-02) (50, 6.40920028090476989746e-02) (51, -2.22940947860479354858e-02) (52, -1.04761729016900062561e-02) (53, 5.71470744907855987549e-02) (54, -1.02382622659206390381e-01) (55, 1.61162033677101135254e-01) (56, -5.14420494437217712402e-02) (57, 5.16757369041442871094e-03) (58, 2.50254627317190170288e-02) (59, 3.79251614212989807129e-02) (60, -5.80392330884933471680e-02) (61, -1.41020910814404487610e-02) (62, -6.32925541140139102936e-04) (63, 6.52096047997474670410e-02) (64, -1.10007278621196746826e-01) (65, -1.46143749356269836426e-01) (66, -7.26471617817878723145e-02) (67, -8.45308378338813781738e-02) (68, -1.36629454791545867920e-02) (69, 1.22082822024822235107e-01) (70, 5.69191239774227142334e-02) (71, -4.73939366638660430908e-02) (72, -1.81727129966020584106e-02) (73, 1.07097491621971130371e-01) (74, 7.67982229590415954590e-02) (75, 1.22524872422218322754e-02) (76, 3.44467945396900177002e-02) (77, 1.81805051397532224655e-03) (78, -7.12136849761009216309e-02) (79, 2.28677242994308471680e-02) (80, -7.94751346111297607422e-02) (81, -3.65530177950859069824e-02) (82, -4.96396087110042572021e-02) (83, 6.08885474503040313721e-02) (84, -6.70857876539230346680e-02) (85, -4.83781732618808746338e-02) (86, -3.43378335237503051758e-02) (87, -1.26215830445289611816e-01) (88, -7.79866352677345275879e-02) (89, -1.22619317844510078430e-02) (90, 1.12236842513084411621e-01) (91, 1.16340577602386474609e-01) (92, 4.92595806717872619629e-02) (93, 5.67918308079242706299e-02) (94, -4.41166721284389495850e-02) (95, 9.14448127150535583496e-02) (96, -4.16750535368919372559e-02) (97, -2.29303501546382904053e-02) (98, 3.58014144003391265869e-02) (99, 2.87105925381183624268e-02) (100, -1.86306182295083999634e-02) (101, 4.22046892344951629639e-02) (102, -1.18266411125659942627e-01) (103, 4.64110262691974639893e-02) (104, 8.58126394450664520264e-03) (105, -2.59507093578577041626e-02) (106, -8.98538976907730102539e-02) (107, 1.19697466492652893066e-01) (108, 1.44223466515541076660e-01) (109, 1.47550135850906372070e-01) (110, -5.95627026632428169250e-03) (111, 1.07437893748283386230e-02) (112, 1.33637905120849609375e-01) (113, 1.53591716662049293518e-02) (114, -9.31353773921728134155e-03) (115, 1.99832450598478317261e-02) (116, 1.58780980855226516724e-02) (117, -1.24863602221012115479e-01) (118, 1.38865187764167785645e-02) (119, -5.13703599572181701660e-02) (120, -3.46786491572856903076e-02) (121, 4.66191284358501434326e-02) (122, 2.73822154849767684937e-02) (123, -3.65074835717678070068e-02) (124, -1.33010149002075195312e-01) (125, 7.43766501545906066895e-02) (126, 4.53357165679335594177e-03) (127, -5.34348860383033752441e-02) (128, -2.76623852550983428955e-02) (129, -3.84993404150009155273e-02) (130, -1.59123361110687255859e-01) (131, 5.21890185773372650146e-02) (132, -1.41146540641784667969e-01) (133, -1.42083927989006042480e-01) (134, -4.79576140642166137695e-02) (135, -2.46892347931861877441e-02) (136, -4.24415320158004760742e-02) (137, 2.02960730530321598053e-03) (138, -1.09443373978137969971e-01) (139, -2.85913236439228057861e-02) (140, -4.94559630751609802246e-02) (141, 6.60753473639488220215e-02) (142, -3.47990840673446655273e-02) (143, -1.17460727691650390625e-01) (144, 1.90125331282615661621e-02) (145, 2.92493472807109355927e-03) (146, 9.13203731179237365723e-02) (147, -7.15366303920745849609e-02) (148, -2.46992167085409164429e-02) (149, 6.50559216737747192383e-02) (150, -1.03079698979854583740e-01) (151, -8.11415985226631164551e-02) (152, -1.36066479608416557312e-02) (153, 7.09105059504508972168e-02) (154, 7.59058147668838500977e-02) (155, -2.26829219609498977661e-02) (156, -6.64735361933708190918e-02) (157, -1.12140342593193054199e-01) (158, -2.11553141474723815918e-01) (159, -8.57340767979621887207e-02) (160, 1.69186949729919433594e-01) (161, -6.87654837965965270996e-02) (162, -4.12778854370117187500e-02) (163, 1.05503641068935394287e-01) (164, -1.05749875307083129883e-01) (165, 2.22145114094018936157e-02) (166, 1.74723900854587554932e-02) (167, -4.47603054344654083252e-02) (168, -7.56156370043754577637e-02) (169, -2.70765423774719238281e-01) (170, -1.78098425269126892090e-01) (171, -3.87615934014320373535e-02) (172, -3.89207862317562103271e-02) (173, -8.03650841116905212402e-02) (174, -7.77444168925285339355e-02) (175, -1.65456131100654602051e-01) (176, -1.08741149306297302246e-01) (177, 3.20872329175472259521e-02) (178, -1.94085150957107543945e-01) (179, -1.04589454829692840576e-01) (180, 2.95434202998876571655e-02) (181, -2.32539307326078414917e-02) (182, -4.67135459184646606445e-02) (183, -2.14115642011165618896e-02) (184, -4.50119040906429290771e-02) (185, -8.96245688199996948242e-02) (186, -9.87437218427658081055e-02) (187, -8.78004133701324462891e-02) (188, 4.30353451520204544067e-03) (189, -5.88644184172153472900e-02) (190, -3.00756003707647323608e-02) (191, -3.19245420396327972412e-02) (192, -4.82108294963836669922e-02) (193, -1.03971734642982482910e-02) (194, -4.41649481654167175293e-02) (195, -7.51125589013099670410e-02) (196, -6.20397850871086120605e-02) (197, -1.17238298058509826660e-01) (198, -1.88691690564155578613e-01) (199, 7.05034984275698661804e-03) (200, -3.06050539016723632812e-01) (0, -3.36676016449928283691e-02) (1, 1.40777407214045524597e-02) (2, 1.06676191091537475586e-01) (3, 6.89992457628250122070e-02) (4, -4.39740084111690521240e-02) (5, -4.73154932260513305664e-02) (6, 1.02663598954677581787e-01) (7, 1.02458365261554718018e-01) (8, -1.75371356308460235596e-02) (9, -5.73436096310615539551e-02) (10, 4.30996203795075416565e-03) (11, 6.61411434412002563477e-02) (12, -1.73041988164186477661e-02) (13, 7.57101848721504211426e-02) (14, -1.26874931156635284424e-02) (15, 1.08762709423899650574e-02) (16, 4.73884046077728271484e-02) (17, -3.14705744385719299316e-02) (18, -9.86895859241485595703e-02) (19, 7.72158950567245483398e-02) (20, 1.17558166384696960449e-02) (21, 2.80246529728174209595e-02) (22, -7.81148299574851989746e-03) (23, -8.03425759077072143555e-02) (24, 9.67544317245483398438e-02) (25, 4.81111034750938415527e-02) (26, -3.14100868999958038330e-02) (27, 7.15557411313056945801e-02) (28, 1.66146587580442428589e-02) (29, -8.95126163959503173828e-02) (30, 7.82805681228637695312e-02) (31, 2.52673476934432983398e-02) (32, 2.11848709732294082642e-02) (33, 8.20872187614440917969e-02) (34, -1.54472775757312774658e-02) (35, 4.04553003609180450439e-02) (36, -9.04009863734245300293e-02) (37, 4.26528835669159889221e-03) (38, 7.87425786256790161133e-02) (39, -3.51217091083526611328e-02) (40, -9.81841422617435455322e-03) (41, 5.50862308591604232788e-03) (42, -4.37530037015676498413e-03) (43, 1.31260693073272705078e-01) (44, -3.58121097087860107422e-02) (45, 2.83884275704622268677e-02) (46, 5.80910220742225646973e-02) (47, -3.89307960867881774902e-02) (48, 3.31899411976337432861e-02) (49, 4.01473380625247955322e-02) (50, 1.04295276105403900146e-01) (51, 1.10578708350658416748e-01) (52, 1.02577954530715942383e-01) (53, -9.56203639507293701172e-02) (54, -7.62169063091278076172e-02) (55, 1.79358366876840591431e-02) (56, 2.60038692504167556763e-02) (57, -1.38299232348799705505e-02) (58, -1.50260422378778457642e-02) (59, -7.82252699136734008789e-02) (60, -3.30200567841529846191e-02) (61, 1.81543100625276565552e-02) (62, 1.36782228946685791016e-01) (63, 1.10209278762340545654e-01) (64, 1.74210779368877410889e-02) (65, -3.94615381956100463867e-02) (66, 5.37050925195217132568e-02) (67, 6.65154233574867248535e-02) (68, 7.26646408438682556152e-02) (69, 4.43855188786983489990e-02) (70, 1.01775057613849639893e-01) (71, -9.60296317934989929199e-02) (72, 8.02831898909062147141e-04) (73, -5.31604625284671783447e-02) (74, 8.74279886484146118164e-02) (75, 6.93991035223007202148e-02) (76, 1.70096680521965026855e-02) (77, 3.90465818345546722412e-02) (78, 1.41659900546073913574e-01) (79, -6.31286501884460449219e-02) (80, 9.56293269991874694824e-02) (81, 5.33194318413734436035e-02) (82, -7.22016319632530212402e-02) (83, 9.86559763550758361816e-02) (84, 1.42425239086151123047e-01) (85, 1.87734868377447128296e-02) (86, 9.36262533068656921387e-02) (87, 7.42259845137596130371e-02) (88, 7.58331567049026489258e-02) (89, 1.04124359786510467529e-01) (90, 1.03074580430984497070e-01) (91, 6.54434338212013244629e-02) (92, 1.19972497224807739258e-01) (93, -4.42311279475688934326e-02) (94, 1.07485085725784301758e-01) (95, -9.18881669640541076660e-02) (96, -7.06934137269854545593e-03) (97, -2.32543293386697769165e-02) (98, 9.58466008305549621582e-02) (99, -6.68436810374259948730e-02) (100, 2.42960862815380096436e-02) (101, 1.55505014117807149887e-03) (102, -9.19474512338638305664e-02) (103, -3.89505811035633087158e-02) (104, 5.97967840731143951416e-02) (105, -8.17698761820793151855e-02) (106, -7.81777799129486083984e-02) (107, -2.85690044984221458435e-03) (108, 1.22590204700827598572e-02) (109, 1.92523315548896789551e-01) (110, 7.62961283326148986816e-02) (111, 2.31214091181755065918e-02) (112, 1.17552578449249267578e-01) (113, 1.41509369015693664551e-01) (114, 3.09392716735601425171e-02) (115, 6.34523481130599975586e-02) (116, -1.11710719764232635498e-01) (117, -1.01005665957927703857e-01) (118, 1.92813966423273086548e-02) (119, 1.85159780085086822510e-02) (120, -3.61329615116119384766e-02) (121, -8.54525938630104064941e-02) (122, -2.65419986099004745483e-02) (123, -1.31096974015235900879e-01) (124, -5.16199432313442230225e-02) (125, 1.70290451496839523315e-02) (126, -1.46838739514350891113e-01) (127, -1.52579978108406066895e-01) (128, -9.65232029557228088379e-02) (129, 4.06188741326332092285e-02) (130, -5.15852607786655426025e-02) (131, 6.43025040626525878906e-02) (132, -6.18571601808071136475e-02) (133, -1.02606751024723052979e-02) (134, 3.65689746104180812836e-03) (135, 1.75712108612060546875e-01) (136, -1.56618969049304723740e-03) (137, -6.51094764471054077148e-02) (138, 8.51679742336273193359e-02) (139, 1.11326351761817932129e-01) (140, -1.16106919944286346436e-01) (141, -3.55151221156120300293e-02) (142, -3.33181209862232208252e-02) (143, 9.58073735237121582031e-02) (144, 6.30630627274513244629e-02) (145, 1.02911151945590972900e-01) (146, 5.39929643273353576660e-02) (147, -5.34863583743572235107e-02) (148, -9.15446653962135314941e-02) (149, -1.49441480636596679688e-01) (150, -5.65734785050153732300e-03) (151, -1.76877398043870925903e-02) (152, -1.06754139065742492676e-01) (153, 7.32641667127609252930e-02) (154, -2.16554105281829833984e-02) (155, 9.13378968834877014160e-02) (156, 1.30947113037109375000e-01) (157, 5.28447553515434265137e-02) (158, 1.06427647173404693604e-01) (159, -7.40977153182029724121e-02) (160, -6.51497542858123779297e-02) (161, 9.77883785963058471680e-02) (162, 2.27404572069644927979e-02) (163, -7.78937786817550659180e-02) (164, -7.52388909459114074707e-02) (165, -1.22390978038311004639e-01) (166, -1.16291455924510955811e-01) (167, -6.76901638507843017578e-02) (168, -1.02588467299938201904e-01) (169, -8.89050439000129699707e-02) (170, 2.87254117429256439209e-02) (171, -5.67650385200977325439e-02) (172, 5.26019604876637458801e-03) (173, -7.42455050349235534668e-02) (174, 5.80649115145206451416e-02) (175, 2.33795656822621822357e-03) (176, -9.78488400578498840332e-02) (177, 1.46861299872398376465e-02) (178, -4.85534220933914184570e-02) (179, -2.46140453964471817017e-02) (180, -1.71157941222190856934e-02) (181, -1.07477881014347076416e-01) (182, 1.98220703750848770142e-02) (183, 8.71050171554088592529e-03) (184, 6.70003816485404968262e-02) (185, 6.29295259714126586914e-02) (186, -1.09841845929622650146e-01) (187, 6.06664158403873443604e-02) (188, -3.24578545987606048584e-02) (189, 5.70675991475582122803e-02) (190, 8.16918238997459411621e-02) (191, -4.11251448094844818115e-02) (192, 4.75894734263420104980e-02) (193, 4.99816164374351501465e-02) (194, -1.02480361238121986389e-02) (195, -5.29541186988353729248e-02) (196, 8.06868597865104675293e-02) (197, 2.76686362922191619873e-02) (198, 1.19177669286727905273e-01) (199, 1.71764194965362548828e-02) (200, 4.01835003867745399475e-03) (0, -2.01683235354721546173e-03) (1, 7.39983692765235900879e-02) (2, -2.41839559748768806458e-03) (3, 5.37005923688411712646e-02) (4, -7.74652510881423950195e-02) (5, 9.15012359619140625000e-02) (6, 3.52514907717704772949e-02) (7, 4.40565869212150573730e-02) (8, -2.95918695628643035889e-02) (9, 1.04971311986446380615e-01) (10, -6.66434839367866516113e-02) (11, -1.47012462839484214783e-02) (12, -2.70230490714311599731e-02) (13, 5.24888001382350921631e-02) (14, 9.64395105838775634766e-02) (15, -8.12600106000900268555e-02) (16, -2.40201838314533233643e-02) (17, -1.44769884645938873291e-02) (18, -3.32495234906673431396e-02) (19, -2.99216713756322860718e-02) (20, -1.14329762756824493408e-01) (21, 1.39833644032478332520e-01) (22, -1.69462636113166809082e-02) (23, 8.33690240979194641113e-02) (24, 2.58629508316516876221e-02) (25, -7.35767465084791183472e-03) (26, 2.06551551818847656250e-02) (27, 8.65056142210960388184e-02) (28, 8.07975158095359802246e-02) (29, -4.02895584702491760254e-02) (30, 8.41355174779891967773e-02) (31, -4.53261099755764007568e-02) (32, -8.89477580785751342773e-02) (33, -1.02871023118495941162e-02) (34, -4.76247295737266540527e-02) (35, -7.79880359768867492676e-02) (36, -1.02711610496044158936e-01) (37, 1.02180406451225280762e-01) (38, -9.00782048702239990234e-02) (39, -1.45192770287394523621e-02) (40, -1.82361155748367309570e-02) (41, -5.36414310336112976074e-02) (42, 9.17065143585205078125e-02) (43, -3.87739762663841247559e-02) (44, 9.81641784310340881348e-02) (45, -1.18091050535440444946e-02) (46, 3.38121876120567321777e-02) (47, 3.99702526628971099854e-02) (48, -2.21662595868110656738e-02) (49, 1.06267392635345458984e-01) (50, 5.71061447262763977051e-02) (51, -1.31929842755198478699e-02) (52, 1.10060453414916992188e-01) (53, 4.82902750372886657715e-02) (54, 5.14998193830251693726e-03) (55, -7.69261792302131652832e-02) (56, -1.25176742672920227051e-01) (57, -5.81640303134918212891e-02) (58, -6.15512095391750335693e-02) (59, -8.43034610152244567871e-02) (60, -3.37645970284938812256e-02) (61, -2.00890433043241500854e-02) (62, 5.25580672547221183777e-03) (63, -7.33453184366226196289e-02) (64, 9.19693112373352050781e-02) (65, 3.88703644275665283203e-02) (66, 3.53594608604907989502e-02) (67, 1.46961972117424011230e-01) (68, -3.84866073727607727051e-02) (69, 1.38042166829109191895e-01) (70, 8.90277698636054992676e-03) (71, 6.48826211690902709961e-02) (72, -1.79415196180343627930e-01) (73, -1.59392785280942916870e-02) (74, 2.64427382498979568481e-02) (75, -3.37005257606506347656e-02) (76, -1.12213060259819030762e-01) (77, -3.47150340676307678223e-02) (78, -1.34956277906894683838e-02) (79, -5.62875345349311828613e-02) (80, -5.31718470156192779541e-02) (81, -6.01617954671382904053e-02) (82, 2.42173224687576293945e-02) (83, -5.88676035404205322266e-02) (84, -5.00620827078819274902e-02) (85, 1.05858996510505676270e-01) (86, 4.13023605942726135254e-02) (87, 1.00670643150806427002e-02) (88, -1.19990214705467224121e-01) (89, -1.01526379585266113281e-01) (90, -9.16702449321746826172e-02) (91, -1.64258092641830444336e-01) (92, -9.88101288676261901855e-02) (93, -1.00658938288688659668e-01) (94, 7.03342407941818237305e-02) (95, -1.93959698081016540527e-01) (96, -8.22934731841087341309e-02) (97, 3.25759425759315490723e-02) (98, 7.75587558746337890625e-02) (99, 3.09710092842578887939e-02) (100, -7.45040476322174072266e-02) (101, 5.27524277567863464355e-02) (102, -4.77660894393920898438e-02) (103, -5.71252964437007904053e-02) (104, -4.14545051753520965576e-02) (105, -6.00721463561058044434e-02) (106, -1.17291688919067382812e-01) (107, -1.22059300541877746582e-01) (108, -7.05446526408195495605e-02) (109, -6.44562765955924987793e-02) (110, -1.11672900617122650146e-01) (111, 1.22834192588925361633e-02) (112, 1.35834682732820510864e-02) (113, -4.72341030836105346680e-02) (114, -6.04725219309329986572e-02) (115, 1.48892223834991455078e-01) (116, 1.05061560869216918945e-01) (117, 5.24595156311988830566e-02) (118, 8.48047360777854919434e-02) (119, 1.08691416680812835693e-01) (120, 1.14542348310351371765e-02) (121, 2.43906434625387191772e-02) (122, -3.91339175403118133545e-02) (123, -1.30175665020942687988e-01) (124, -8.68325233459472656250e-02) (125, -5.22153787314891815186e-02) (126, -8.80653038620948791504e-02) (127, -3.03215049207210540771e-02) (128, -9.25335362553596496582e-02) (129, -1.93168222904205322266e-02) (130, -5.22215291857719421387e-02) (131, -1.77638437598943710327e-02) (132, -4.38995249569416046143e-02) (133, 1.22175991535186767578e-01) (134, -2.72569321095943450928e-02) (135, 1.77633523941040039062e-01) (136, -9.93722751736640930176e-02) (137, 8.37629195302724838257e-03) (138, 2.22953408956527709961e-01) (139, 4.39100004732608795166e-02) (140, -1.21839903295040130615e-01) (141, -3.90146039426326751709e-02) (142, -1.16360522806644439697e-01) (143, -4.16723154485225677490e-02) (144, -1.53707519173622131348e-01) (145, -5.28413876891136169434e-02) (146, -2.16915626078844070435e-02) (147, -1.51371583342552185059e-01) (148, -1.76500663161277770996e-01) (149, 1.59100126475095748901e-02) (150, -2.34511680901050567627e-02) (151, 1.13282427191734313965e-01) (152, 8.55535268783569335938e-02) (153, -1.82224325835704803467e-02) (154, -6.17968849837779998779e-02) (155, 3.43220010399818420410e-02) (156, 3.92023026943206787109e-02) (157, 5.75713664293289184570e-02) (158, 2.20417127013206481934e-01) (159, 6.50596693158149719238e-02) (160, -5.20998574793338775635e-02) (161, -1.20006009936332702637e-01) (162, -1.54564091935753822327e-02) (163, -7.98172354698181152344e-02) (164, 1.79207827895879745483e-02) (165, -9.81801971793174743652e-02) (166, -1.30301222205162048340e-01) (167, 1.10949045047163963318e-02) (168, -1.36883094906806945801e-01) (169, -7.40419253706932067871e-02) (170, -2.36917715519666671753e-02) (171, -1.25898540019989013672e-01) (172, -4.92420494556427001953e-02) (173, -1.17745688185095787048e-02) (174, 1.16008564829826354980e-01) (175, 7.93676078319549560547e-02) (176, -3.34650166332721710205e-02) (177, 8.29450041055679321289e-02) (178, 1.81810617446899414062e-01) (179, 9.53352004289627075195e-02) (180, -5.52902445197105407715e-02) (181, -1.05911083519458770752e-01) (182, -1.74472369253635406494e-02) (183, 7.71371200680732727051e-02) (184, -2.37447395920753479004e-02) (185, -3.38801257312297821045e-02) (186, 5.15489839017391204834e-02) (187, 7.81566053628921508789e-02) (188, -7.57696926593780517578e-02) (189, 4.90943193435668945312e-02) (190, -1.41109223477542400360e-03) (191, -4.50004749000072479248e-02) (192, 9.27087739109992980957e-02) (193, -3.65176796913146972656e-02) (194, 6.70063346624374389648e-02) (195, 2.03218951821327209473e-01) (196, 4.95950579643249511719e-02) (197, -7.79888257384300231934e-02) (198, 1.22803881764411926270e-01) (199, 1.28305777907371520996e-01) (200, -5.27022071182727813721e-02) (0, -4.55790646374225616455e-02) (1, 7.40284174680709838867e-02) (2, 2.96209845691919326782e-02) (3, 2.27453578263521194458e-02) (4, 7.54296481609344482422e-02) (5, -6.70525431632995605469e-02) (6, 8.61588642001152038574e-02) (7, -9.71493218094110488892e-03) (8, -9.16727036237716674805e-02) (9, 2.83055957406759262085e-02) (10, 1.00739248096942901611e-01) (11, -8.71161967515945434570e-02) (12, 1.01447999477386474609e-01) (13, 4.97041083872318267822e-02) (14, -1.35597391054034233093e-02) (15, 7.74304568767547607422e-03) (16, 4.38106358051300048828e-02) (17, 3.20376232266426086426e-02) (18, 7.44360238313674926758e-02) (19, 8.75798505148850381374e-05) (20, 5.25245442986488342285e-02) (21, 5.28839081525802612305e-02) (22, -1.28121897578239440918e-01) (23, -5.59709928929805755615e-02) (24, 8.17320570349693298340e-02) (25, -8.31562578678131103516e-02) (26, -7.57193937897682189941e-02) (27, 5.98987601697444915771e-02) (28, -9.16961431503295898438e-02) (29, 1.14016987383365631104e-01) (30, -6.66576251387596130371e-02) (31, 1.01668117567896842957e-02) (32, 1.28602430224418640137e-01) (33, 5.25565445423126220703e-02) (34, -7.63083845376968383789e-02) (35, 6.70873373746871948242e-02) (36, 9.79775413870811462402e-02) (37, 1.04635305702686309814e-01) (38, -5.24046970531344413757e-03) (39, 6.94215074181556701660e-02) (40, 2.82301157712936401367e-02) (41, -1.11458078026771545410e-01) (42, 7.15332403779029846191e-02) (43, -5.42190745472908020020e-02) (44, 4.95061613619327545166e-02) (45, -6.13723099231719970703e-02) (46, -7.62090608477592468262e-02) (47, -2.02708411961793899536e-02) (48, 7.10957422852516174316e-02) (49, 6.84096291661262512207e-02) (50, -7.68572017550468444824e-02) (51, 9.60369557142257690430e-02) (52, 8.59023705124855041504e-02) (53, 9.99924447387456893921e-03) (54, -5.37421479821205139160e-02) (55, 2.07152590155601501465e-02) (56, 3.49471271038055419922e-02) (57, -2.27206237614154815674e-02) (58, 7.13319033384323120117e-02) (59, 2.41101067513227462769e-02) (60, -2.95548830181360244751e-02) (61, -1.10954337287694215775e-03) (62, -7.23407864570617675781e-02) (63, -1.07218757271766662598e-01) (64, -1.30686789751052856445e-01) (65, -9.65230166912078857422e-02) (66, 7.55688399076461791992e-02) (67, 6.32383152842521667480e-02) (68, -8.85708555579185485840e-02) (69, -6.47280216217041015625e-02) (70, 7.06401094794273376465e-02) (71, 4.47706505656242370605e-02) (72, 1.55204543843865394592e-02) (73, 1.30242273211479187012e-01) (74, -1.15842521190643310547e-02) (75, 1.42675302922725677490e-02) (76, 1.14711150527000427246e-01) (77, 3.74992489814758300781e-02) (78, 2.07705467939376831055e-01) (79, -2.86144614219665527344e-02) (80, -8.46126824617385864258e-02) (81, 8.31161364912986755371e-02) (82, -3.24176028370857238770e-02) (83, 7.07601904869079589844e-02) (84, -7.30006694793701171875e-02) (85, -3.91645431518554687500e-02) (86, -1.00297987461090087891e-01) (87, 1.34165864437818527222e-02) (88, -4.11720434203743934631e-03) (89, 1.57023668289184570312e-02) (90, 4.08373475074768066406e-02) (91, -6.16239868104457855225e-02) (92, -3.01166437566280364990e-02) (93, 2.16364786028861999512e-01) (94, -1.81302316486835479736e-02) (95, 3.17806228995323181152e-02) (96, 8.91775041818618774414e-02) (97, -8.75492915511131286621e-02) (98, 9.87119302153587341309e-02) (99, -9.27353128790855407715e-02) (100, -1.51549885049462318420e-02) (101, -8.11982080340385437012e-02) (102, 4.13678213953971862793e-02) (103, 5.40139675140380859375e-02) (104, 8.93810540437698364258e-02) (105, -8.72392132878303527832e-02) (106, -9.36791896820068359375e-02) (107, 2.15518102049827575684e-02) (108, 2.08232067525386810303e-02) (109, 1.50106713175773620605e-01) (110, 1.02169454097747802734e-01) (111, -5.05302138626575469971e-02) (112, 7.54216313362121582031e-02) (113, 7.74989798665046691895e-02) (114, -4.18049283325672149658e-02) (115, -1.40241459012031555176e-01) (116, -2.36908365041017532349e-02) (117, -1.67527550365775823593e-03) (118, 8.25627893209457397461e-02) (119, 2.05739159137010574341e-02) (120, -3.32960709929466247559e-02) (121, -4.64850515127182006836e-02) (122, -1.22059741988778114319e-02) (123, -9.52213928103446960449e-02) (124, -1.09268844127655029297e-01) (125, 4.61019314825534820557e-02) (126, 1.75771322101354598999e-02) (127, -1.26132771372795104980e-01) (128, 6.17771781980991363525e-02) (129, 5.41385561227798461914e-02) (130, -1.51257812976837158203e-01) (131, -9.09328684210777282715e-02) (132, 7.75671517476439476013e-03) (133, 2.15940698981285095215e-02) (134, -1.62771210074424743652e-01) (135, -1.00750550627708435059e-02) (136, -1.68542146682739257812e-01) (137, -1.15826852619647979736e-01) (138, -5.51739186048507690430e-02) (139, 3.40001434087753295898e-02) (140, -9.93820801377296447754e-02) (141, 6.64127916097640991211e-02) (142, -1.47066667675971984863e-01) (143, -1.33645907044410705566e-02) (144, 6.24200142920017242432e-02) (145, -1.56541690230369567871e-01) (146, 5.37706315517425537109e-02) (147, -3.18321809172630310059e-02) (148, -6.98827020823955535889e-03) (149, 6.85625448822975158691e-02) (150, -1.57992430031299591064e-02) (151, -4.54072058200836181641e-02) (152, -1.21920138597488403320e-01) (153, -1.10527977347373962402e-01) (154, 4.13772203028202056885e-02) (155, -1.52605965733528137207e-01) (156, -1.04222819209098815918e-01) (157, -1.76654875278472900391e-01) (158, -1.05304889380931854248e-01) (159, 3.90583872795104980469e-02) (160, -1.02183884009718894958e-02) (161, -1.96643173694610595703e-02) (162, -9.34539362788200378418e-03) (163, 2.38645989447832107544e-02) (164, -1.11909188330173492432e-01) (165, 4.18736785650253295898e-03) (166, -1.18021957576274871826e-01) (167, -9.37446728348731994629e-02) (168, -6.32972940802574157715e-02) (169, -2.18568518757820129395e-01) (170, -3.44941616058349609375e-02) (171, -9.43927764892578125000e-02) (172, -2.24379122257232666016e-01) (173, 6.68752193450927734375e-02) (174, -1.24487325549125671387e-01) (175, -7.29040428996086120605e-02) (176, -1.61272868514060974121e-01) (177, -1.20209284126758575439e-01) (178, -1.83768063783645629883e-01) (179, -1.31118642166256904602e-02) (180, 1.21358893811702728271e-01) (181, 5.43411262333393096924e-02) (182, 2.54077464342117309570e-02) (183, 8.88942554593086242676e-02) (184, 7.03217610716819763184e-02) (185, -7.43072181940078735352e-02) (186, -8.82351100444793701172e-02) (187, 2.84833125770092010498e-02) (188, -8.61144065856933593750e-03) (189, -2.41912417113780975342e-02) (190, -1.33849717676639556885e-02) (191, 1.47695876657962799072e-02) (192, 4.60662245750427246094e-02) (193, 1.14576313644647598267e-02) (194, 4.49499599635601043701e-02) (195, 6.56628087162971496582e-02) (196, 8.23610872030258178711e-02) (197, 3.42969819903373718262e-02) (198, -1.77320260554552078247e-02) (199, 3.84422019124031066895e-02) (200, -5.91778531670570373535e-02) (0, -8.18838104605674743652e-02) (1, -1.21481381356716156006e-01) (2, -8.70161503553390502930e-02) (3, -6.60733655095100402832e-02) (4, -3.03035248070955276489e-02) (5, 6.06824867427349090576e-02) (6, 2.10808664560317993164e-02) (7, 8.26807285193353891373e-04) (8, -9.84369069337844848633e-02) (9, 1.08785159885883331299e-01) (10, 2.40251999348402023315e-02) (11, 3.15292961895465850830e-02) (12, -2.64880736358463764191e-03) (13, -3.67900058627128601074e-02) (14, -4.83761690557003021240e-02) (15, 1.94097943603992462158e-02) (16, 1.67037919163703918457e-02) (17, -5.91687671840190887451e-02) (18, -7.92143493890762329102e-03) (19, 9.66077670454978942871e-02) (20, -2.96294951112940907478e-04) (21, -4.24677412956953048706e-03) (22, -9.69860777258872985840e-02) (23, -7.58553519845008850098e-02) (24, -8.38365871459245681763e-03) (25, -5.59538714587688446045e-02) (26, -6.72588050365447998047e-02) (27, -5.55883944034576416016e-02) (28, 4.86658141016960144043e-02) (29, 6.34863600134849548340e-02) (30, -1.11633501946926116943e-02) (31, -7.25990906357765197754e-02) (32, 8.66118967533111572266e-02) (33, 1.32297407835721969604e-02) (34, 1.99099536985158920288e-03) (35, -5.51136098802089691162e-02) (36, 4.01442311704158782959e-03) (37, -6.63246214389801025391e-02) (38, 7.40147307515144348145e-02) (39, -1.42920752987265586853e-02) (40, -1.03795133531093597412e-01) (41, -1.14171519875526428223e-01) (42, -1.11303098499774932861e-01) (43, -3.48081439733505249023e-02) (44, -3.29727232456207275391e-02) (45, -2.74964738637208938599e-02) (46, -8.92456918954849243164e-02) (47, -1.55163928866386413574e-01) (48, 1.95905398577451705933e-02) (49, -6.33302107453346252441e-02) (50, 8.83713439106941223145e-02) (51, -4.32299748063087463379e-02) (52, -3.82491610944271087646e-02) (53, 2.73568052798509597778e-02) (54, 1.79355442523956298828e-02) (55, 4.15443927049636840820e-02) (56, 9.95667651295661926270e-02) (57, 7.39177986979484558105e-02) (58, 1.46353423595428466797e-01) (59, 6.40564486384391784668e-02) (60, 1.67268551886081695557e-02) (61, -9.01089757680892944336e-02) (62, -1.41885012388229370117e-01) (63, -9.58973467350006103516e-02) (64, -2.27778702974319458008e-02) (65, -4.32641282677650451660e-02) (66, -4.01799418032169342041e-02) (67, -1.44612118601799011230e-01) (68, -4.85862232744693756104e-02) (69, -1.42430961132049560547e-01) (70, -1.67522337287664413452e-02) (71, 3.93397435545921325684e-02) (72, -3.16472537815570831299e-03) (73, 6.22835978865623474121e-02) (74, -2.07356624305248260498e-02) (75, 7.88635611534118652344e-02) (76, 9.34118870645761489868e-03) (77, 8.62897466868162155151e-03) (78, 1.65659770369529724121e-01) (79, 7.04598352313041687012e-02) (80, 5.31258359551429748535e-02) (81, 4.92748953402042388916e-02) (82, -4.44934889674186706543e-02) (83, 6.29463717341423034668e-02) (84, -1.28901913762092590332e-01) (85, -3.86974494904279708862e-03) (86, -1.06561161577701568604e-01) (87, -1.53250709176063537598e-01) (88, -7.90224224328994750977e-02) (89, -1.25633388757705688477e-01) (90, 8.65633711218833923340e-02) (91, -6.28664046525955200195e-02) (92, -3.01281139254570007324e-02) (93, 2.42569580674171447754e-01) (94, 5.72482915595173835754e-03) (95, -2.50811390578746795654e-02) (96, 5.24756778031587600708e-03) (97, -1.07071861624717712402e-01) (98, 9.36381891369819641113e-02) (99, -1.15383312106132507324e-01) (100, -6.58142641186714172363e-02) (101, -2.85309716127812862396e-03) (102, 3.21695916354656219482e-02) (103, -2.17024553567171096802e-02) (104, 9.29228663444519042969e-02) (105, 8.12917947769165039062e-02) (106, -8.13810303807258605957e-02) (107, -6.93135187029838562012e-02) (108, 1.43698719330132007599e-03) (109, 7.18702077865600585938e-02) (110, 8.50215926766395568848e-02) (111, -1.02076262235641479492e-01) (112, 1.18874404579401016235e-02) (113, -1.20662055909633636475e-01) (114, 6.37825876474380493164e-02) (115, 1.48069821298122406006e-02) (116, -9.65795516967773437500e-02) (117, -3.54397334158420562744e-02) (118, 1.01983547210693359375e-01) (119, 9.34332311153411865234e-02) (120, 2.15607080608606338501e-02) (121, 5.40285222232341766357e-02) (122, -6.84892907738685607910e-02) (123, 7.35243409872055053711e-02) (124, 6.01775981485843658447e-02) (125, 9.69416201114654541016e-02) (126, -4.93908971548080444336e-02) (127, -1.67938619852066040039e-02) (128, 7.20147266983985900879e-02) (129, -9.05339494347572326660e-02) (130, -1.08323007822036743164e-01) (131, -1.57385274767875671387e-01) (132, -3.03867645561695098877e-02) (133, 3.17553132772445678711e-02) (134, -7.87788853049278259277e-02) (135, -9.10428464412689208984e-02) (136, -1.07190916314721107483e-02) (137, -1.18168275803327560425e-02) (138, 4.66713756322860717773e-02) (139, -2.25272383540868759155e-02) (140, 4.75311614573001861572e-02) (141, 7.92237091809511184692e-03) (142, -1.56368426978588104248e-02) (143, -1.05192415416240692139e-01) (144, 5.82889914512634277344e-02) (145, -1.09745606780052185059e-01) (146, 6.94948881864547729492e-02) (147, 4.27252501249313354492e-02) (148, 2.99488054588437080383e-03) (149, 9.89903658628463745117e-02) (150, -6.94590341299772262573e-03) (151, -3.23170050978660583496e-02) (152, -8.10498604550957679749e-05) (153, 1.08853122219443321228e-02) (154, -7.47722759842872619629e-03) (155, -1.45152986049652099609e-01) (156, -1.01626768708229064941e-01) (157, -1.54041275382041931152e-01) (158, -6.80272653698921203613e-02) (159, -2.06385944038629531860e-02) (160, 2.15564165264368057251e-02) (161, -1.93524975329637527466e-02) (162, 3.61991412937641143799e-02) (163, 2.54927133210003376007e-03) (164, -9.25556048750877380371e-02) (165, 1.17750950157642364502e-01) (166, 2.16603409498929977417e-02) (167, -8.45993161201477050781e-02) (168, -2.52539031207561492920e-02) (169, -7.19211548566818237305e-02) (170, -9.95567515492439270020e-02) (171, 4.85532805323600769043e-02) (172, -1.70809954404830932617e-01) (173, 4.88491356372833251953e-02) (174, -1.47847071290016174316e-01) (175, -6.04901053011417388916e-02) (176, -1.58725142478942871094e-01) (177, -6.95127714425325393677e-03) (178, -5.46541027724742889404e-02) (179, -6.97913467884063720703e-02) (180, 4.25727814435958862305e-02) (181, 1.18411332368850708008e-01) (182, -3.03484946489334106445e-02) (183, -1.04295559227466583252e-01) (184, 5.89951053261756896973e-02) (185, 2.63551026582717895508e-02) (186, -6.48565590381622314453e-02) (187, -5.40764629840850830078e-02) (188, -9.41568166017532348633e-02) (189, 1.24051114544272422791e-02) (190, 2.70114019513130187988e-02) (191, 1.15816267207264900208e-02) (192, -8.48922803997993469238e-02) (193, -7.70285129547119140625e-02) (194, 5.45902401208877563477e-02) (195, -5.54224923253059387207e-02) (196, -9.18123051524162292480e-02) (197, -3.16991191357374191284e-03) (198, 3.80436405539512634277e-02) (199, 3.63823585212230682373e-02) (200, -4.16806861758232116699e-02) (0, -7.50064775347709655762e-02) (1, 2.06397082656621932983e-02) (2, -6.41521960496902465820e-02) (3, 1.36121109127998352051e-01) (4, 4.49801376089453697205e-03) (5, 9.90490540862083435059e-02) (6, -5.74277639389038085938e-02) (7, 2.09652315825223922729e-02) (8, -4.60404753684997558594e-02) (9, -2.53951419144868850708e-02) (10, -6.23336248099803924561e-02) (11, -2.72939112037420272827e-02) (12, 2.39159679040312767029e-03) (13, -2.82343663275241851807e-02) (14, 2.84136176109313964844e-01) (15, -1.00013636052608489990e-01) (16, -7.59478434920310974121e-02) (17, 6.48798793554306030273e-02) (18, -1.10196977853775024414e-01) (19, 5.57546988129615783691e-02) (20, 6.43760487437248229980e-02) (21, 1.02058283984661102295e-01) (22, 1.33492588996887207031e-01) (23, 1.06298156082630157471e-01) (24, 8.94986018538475036621e-02) (25, 3.16869057714939117432e-02) (26, -7.96851590275764465332e-02) (27, -4.36740890145301818848e-02) (28, 1.12374380230903625488e-01) (29, 6.52136802673339843750e-02) (30, -4.08653058111667633057e-02) (31, 6.61381334066390991211e-02) (32, -1.71435456722974777222e-02) (33, -6.05252198874950408936e-03) (34, 1.32894605398178100586e-01) (35, -1.03931631892919540405e-02) (36, -1.15836389362812042236e-01) (37, 1.90321698784828186035e-01) (38, -7.51140862703323364258e-02) (39, -5.13371005654335021973e-02) (40, -1.02465547621250152588e-01) (41, 3.01132444292306900024e-02) (42, 9.00966003537178039551e-02) (43, 8.82705822587013244629e-02) (44, 5.03384210169315338135e-02) (45, 9.37852561473846435547e-02) (46, 1.88969090580940246582e-01) (47, 1.49056300520896911621e-01) (48, 1.27759560942649841309e-01) (49, 1.40311606228351593018e-02) (50, 4.83622029423713684082e-02) (51, 8.30800831317901611328e-02) (52, 1.10680453479290008545e-01) (53, -1.91051401197910308838e-02) (54, 1.18798524141311645508e-01) (55, -9.43341776728630065918e-02) (56, 4.05363813042640686035e-02) (57, 7.93568193912506103516e-02) (58, 6.97220712900161743164e-02) (59, 7.41609260439872741699e-02) (60, 3.42842191457748413086e-03) (61, 1.27068251371383666992e-01) (62, 1.67714238166809082031e-01) (63, 8.20198655128479003906e-02) (64, 2.61922869831323623657e-02) (65, 6.16286359727382659912e-02) (66, -1.98299088515341281891e-03) (67, 1.05211690068244934082e-01) (68, 1.11362986266613006592e-01) (69, 1.37594565749168395996e-01) (70, 1.03291466832160949707e-01) (71, 5.19721806049346923828e-02) (72, -1.80925309658050537109e-01) (73, 1.52612403035163879395e-02) (74, -4.79360744357109069824e-02) (75, -7.19885304570198059082e-02) (76, -1.66803047060966491699e-01) (77, 3.77840660512447357178e-02) (78, 1.12470224499702453613e-01) (79, -4.93714660406112670898e-02) (80, 1.43375934567302465439e-03) (81, -5.62085583806037902832e-02) (82, 8.71123969554901123047e-02) (83, -3.12202773056924343109e-03) (84, 1.28886029124259948730e-01) (85, 1.13876208662986755371e-01) (86, 9.80540588498115539551e-02) (87, 1.27837106585502624512e-01) (88, 1.97232980281114578247e-02) (89, 1.06076523661613464355e-01) (90, 1.38772828504443168640e-02) (91, -6.41054958105087280273e-02) (92, -1.00956186652183532715e-01) (93, -1.44741401076316833496e-01) (94, 1.23379096388816833496e-01) (95, -1.34898692369461059570e-01) (96, -1.60627141594886779785e-01) (97, 9.68016237020492553711e-02) (98, 1.06709733605384826660e-01) (99, 8.88906121253967285156e-02) (100, -1.33012123405933380127e-02) (101, -9.19498130679130554199e-02) (102, -3.06600630283355712891e-02) (103, 2.59088355960557237267e-05) (104, 3.93740087747573852539e-02) (105, -8.55007544159889221191e-02) (106, -1.05298183858394622803e-01) (107, -1.09963499009609222412e-01) (108, -3.22071984410285949707e-02) (109, 2.86592636257410049438e-02) (110, -5.63476048409938812256e-02) (111, -9.54068303108215332031e-02) (112, 1.31172671914100646973e-01) (113, 6.36367425322532653809e-02) (114, 6.85395747423171997070e-02) (115, 1.22451126575469970703e-01) (116, -1.24302938580513000488e-01) (117, -6.38574063777923583984e-02) (118, 1.73033088445663452148e-01) (119, 5.70031888782978057861e-02) (120, -3.10900947079062461853e-03) (121, 1.62052910309284925461e-03) (122, -2.98026669770479202271e-02) (123, -2.31876656413078308105e-01) (124, -2.18557357788085937500e-01) (125, -1.22356742620468139648e-01) (126, -1.26745283603668212891e-01) (127, -2.09878370165824890137e-01) (128, -1.23608633875846862793e-01) (129, -4.43481877446174621582e-02) (130, -1.39066591858863830566e-01) (131, 7.32582733035087585449e-02) (132, 1.73357259482145309448e-02) (133, 1.07198312878608703613e-01) (134, 2.88685243576765060425e-02) (135, 1.80789679288864135742e-01) (136, -1.20822742581367492676e-01) (137, -5.38165681064128875732e-02) (138, 2.37376838922500610352e-01) (139, 1.07445530593395233154e-01) (140, -1.69228434562683105469e-01) (141, -2.80463322997093200684e-02) (142, -9.91987064480781555176e-02) (143, -2.30896115303039550781e-01) (144, -1.98566973209381103516e-01) (145, -1.41717597842216491699e-01) (146, -5.89447841048240661621e-02) (147, -1.17629557847976684570e-01) (148, -1.18612267076969146729e-01) (149, -8.70120003819465637207e-02) (150, 5.24543747305870056152e-02) (151, 4.71990145742893218994e-02) (152, -9.32407677173614501953e-02) (153, -6.30065202713012695312e-02) (154, 5.47091849148273468018e-02) (155, 1.43906697630882263184e-01) (156, -2.54339631646871566772e-02) (157, 5.37664592266082763672e-02) (158, 2.19987094402313232422e-01) (159, 4.19268794357776641846e-02) (160, -6.81550130248069763184e-02) (161, -1.69415116310119628906e-01) (162, -1.58994406461715698242e-01) (163, -2.40797489881515502930e-01) (164, -3.16139489412307739258e-01) (165, -2.80877232551574707031e-01) (166, -6.29617422819137573242e-02) (167, -2.97593057155609130859e-01) (168, -1.86651885509490966797e-01) (169, -2.32173368334770202637e-01) (170, -2.56019890308380126953e-01) (171, -1.50265902280807495117e-01) (172, -6.83608576655387878418e-02) (173, 2.13355869054794311523e-02) (174, 6.05583563446998596191e-02) (175, -1.18939906358718872070e-01) (176, -1.97520419955253601074e-01) (177, 1.08457468450069427490e-01) (178, -5.61371706426143646240e-02) (179, 2.11184501647949218750e-01) (180, -3.51159460842609405518e-02) (181, -6.16527758538722991943e-02) (182, -6.62507489323616027832e-03) (183, 3.25064919888973236084e-02) (184, -1.19721610099077224731e-02) (185, -1.32967025041580200195e-01) (186, -1.64960235357284545898e-01) (187, 3.21389734745025634766e-02) (188, 1.72549597918987274170e-02) (189, 7.50306695699691772461e-02) (190, -3.73404957354068756104e-02) (191, 6.08096756041049957275e-02) (192, -8.29501748085021972656e-02) (193, 5.21234758198261260986e-02) (194, -7.27928578853607177734e-02) (195, 7.42828398942947387695e-02) (196, -1.04698814451694488525e-01) (197, -8.64529535174369812012e-02) (198, 1.03780888020992279053e-01) (199, 1.86790898442268371582e-01) (200, 1.96162983775138854980e-02) (0, -3.77525277435779571533e-02) (1, 2.81370561569929122925e-02) (2, -5.07555380463600158691e-02) (3, -8.78728106617927551270e-02) (4, -2.82310545444488525391e-02) (5, -4.63737137615680694580e-02) (6, -1.97895858436822891235e-02) (7, -6.90720602869987487793e-03) (8, 6.02623708546161651611e-02) (9, 3.48088587634265422821e-03) (10, 1.24199941754341125488e-01) (11, -7.41716921329498291016e-02) (12, 7.86295533180236816406e-02) (13, 7.61199221014976501465e-02) (14, 1.34218364953994750977e-01) (15, -1.09363481402397155762e-01) (16, 3.88907268643379211426e-02) (17, 1.10667282715439796448e-02) (18, -1.80011037737131118774e-02) (19, 2.94448882341384887695e-02) (20, 3.50130945444107055664e-02) (21, 2.75486218743026256561e-03) (22, 2.87369918078184127808e-02) (23, 3.14513705670833587646e-02) (24, -3.50601249374449253082e-03) (25, 2.64652576297521591187e-02) (26, -3.94600536674261093140e-03) (27, 4.31367792189121246338e-02) (28, 7.56878331303596496582e-02) (29, 4.24432829022407531738e-02) (30, 8.94709303975105285645e-03) (31, -4.03684787452220916748e-02) (32, -4.08925339579582214355e-02) (33, 9.32616069912910461426e-02) (34, 5.81679828464984893799e-02) (35, -1.38358652591705322266e-01) (36, -9.60591882467269897461e-02) (37, -3.61094363033771514893e-02) (38, -8.19051712751388549805e-02) (39, -8.04561972618103027344e-02) (40, -5.42252957820892333984e-02) (41, -5.05458675324916839600e-02) (42, -9.83821526169776916504e-02) (43, -1.85245815664529800415e-02) (44, -5.98037652671337127686e-02) (45, 5.53386695683002471924e-02) (46, -4.48391884565353393555e-02) (47, 7.30252936482429504395e-02) (48, -7.61806145310401916504e-02) (49, -1.22632481157779693604e-01) (50, -3.63761116750538349152e-03) (51, -6.31324872374534606934e-02) (52, 3.35121825337409973145e-02) (53, -1.15978516638278961182e-01) (54, 1.23369395732879638672e-01) (55, -6.14751018583774566650e-02) (56, -5.58903859928250312805e-03) (57, 6.19298741221427917480e-02) (58, -6.58022686839103698730e-02) (59, 5.06741218268871307373e-02) (60, -3.07930577546358108521e-02) (61, -1.08978133648633956909e-02) (62, -1.75899490714073181152e-01) (63, -3.00159119069576263428e-02) (64, -6.47642277181148529053e-03) (65, 4.26532290875911712646e-02) (66, 4.32785041630268096924e-02) (67, -2.35603600740432739258e-02) (68, -1.94332245737314224243e-02) (69, -6.65302127599716186523e-02) (70, 3.54928672313690185547e-02) (71, -8.06921422481536865234e-02) (72, 2.94320899993181228638e-02) (73, 5.00412955880165100098e-02) (74, -4.02443520724773406982e-02) (75, -1.57405316829681396484e-01) (76, -7.81507119536399841309e-02) (77, 7.32403174042701721191e-02) (78, -8.49247649312019348145e-02) (79, -7.21809267997741699219e-02) (80, 9.80678647756576538086e-02) (81, 1.99522282928228378296e-02) (82, -3.88239994645118713379e-02) (83, -1.92001685500144958496e-02) (84, -3.17678079009056091309e-02) (85, -1.38366013765335083008e-01) (86, 3.43592055141925811768e-02) (87, -4.49209026992321014404e-02) (88, 9.38867218792438507080e-03) (89, -2.87369698286056518555e-01) (90, -2.04940140247344970703e-01) (91, -1.97411477565765380859e-01) (92, -1.04488305747509002686e-01) (93, -1.55811607837677001953e-01) (94, -3.07970680296421051025e-02) (95, -1.70781582593917846680e-01) (96, 5.31726591289043426514e-02) (97, 1.49546608328819274902e-01) (98, 1.77874788641929626465e-01) (99, -2.30477214790880680084e-03) (100, -4.31330762803554534912e-02) (101, 1.39666842296719551086e-02) (102, 3.39313223958015441895e-02) (103, -5.30422888696193695068e-02) (104, -1.94126330316066741943e-02) (105, -8.99882316589355468750e-02) (106, -3.75387668609619140625e-02) (107, -1.34629368782043457031e-01) (108, -2.13432937860488891602e-01) (109, -1.90495610237121582031e-01) (110, -1.38612478971481323242e-01) (111, -1.27338275313377380371e-01) (112, -1.83803036808967590332e-01) (113, -1.79896950721740722656e-02) (114, -2.09499392658472061157e-02) (115, 1.11108429729938507080e-01) (116, 1.14805079996585845947e-01) (117, 5.35585395991802215576e-02) (118, 3.99207621812820434570e-02) (119, 5.11040203273296356201e-02) (120, -3.36026437580585479736e-02) (121, -7.80005231499671936035e-02) (122, -7.06826299428939819336e-02) (123, -8.21759051177650690079e-04) (124, -1.87917500734329223633e-02) (125, -5.38953095674514770508e-02) (126, 2.13738698512315750122e-02) (127, -6.97330310940742492676e-02) (128, -1.06571409851312637329e-02) (129, -4.51137637719511985779e-03) (130, 4.80403192341327667236e-02) (131, 2.29877629317343235016e-03) (132, 1.20984576642513275146e-01) (133, -3.19679342210292816162e-02) (134, -7.80997099354863166809e-03) (135, 2.09311619400978088379e-02) (136, -4.63347248733043670654e-02) (137, -3.47588770091533660889e-02) (138, 1.11904658377170562744e-01) (139, -6.00382573902606964111e-02) (140, 1.93016659468412399292e-02) (141, 1.32257007062435150146e-02) (142, -1.05289481580257415771e-01) (143, -3.35920453071594238281e-02) (144, -3.06632649153470993042e-02) (145, 5.01042008399963378906e-02) (146, -5.90542815625667572021e-02) (147, -8.48772749304771423340e-02) (148, -6.21012933552265167236e-02) (149, -3.85085754096508026123e-02) (150, -2.72449851036071777344e-02) (151, 7.24437162280082702637e-02) (152, 7.98549354076385498047e-02) (153, -5.13609237968921661377e-02) (154, -5.80532215535640716553e-02) (155, 5.92401288449764251709e-02) (156, 2.56745275110006332397e-02) (157, 3.16257737576961517334e-02) (158, 1.72163233160972595215e-01) (159, 8.46568271517753601074e-02) (160, -1.02211134508252143860e-02) (161, -1.10892027616500854492e-01) (162, -4.66786101460456848145e-02) (163, -8.18369686603546142578e-02) (164, 2.82285343855619430542e-02) (165, 7.86774531006813049316e-02) (166, 6.36693164706230163574e-02) (167, 7.28566795587539672852e-02) (168, 1.51229083538055419922e-01) (169, 3.59137177467346191406e-01) (170, 2.04100087285041809082e-02) (171, 5.02174235880374908447e-02) (172, 1.16018518805503845215e-01) (173, 1.48635774850845336914e-01) (174, 7.96912163496017456055e-02) (175, 1.23238667845726013184e-01) (176, -3.48352896980941295624e-03) (177, -1.23551204800605773926e-01) (178, 1.66657328605651855469e-01) (179, 6.45100772380828857422e-02) (180, -8.44449177384376525879e-02) (181, 7.68400877714157104492e-02) (182, -3.18529866635799407959e-02) (183, 1.45906517282128334045e-02) (184, -6.87096789479255676270e-02) (185, -2.51555419526994228363e-03) (186, -4.60225231945514678955e-02) (187, 3.44156548380851745605e-02) (188, -3.14196050167083740234e-02) (189, 7.51546472311019897461e-02) (190, -3.17616276443004608154e-02) (191, -1.95119692943990230560e-03) (192, -9.12073776125907897949e-02) (193, -2.94289621524512767792e-03) (194, 6.00870605558156967163e-03) (195, 5.32183274626731872559e-02) (196, -6.62644356489181518555e-02) (197, 7.89831504225730895996e-02) (198, 5.71693554520606994629e-02) (199, 8.95612463355064392090e-02) (200, 1.49474680423736572266e-01) (0, -8.17923024296760559082e-02) (1, -4.64840978384017944336e-02) (2, 7.68930315971374511719e-02) (3, 7.89484903216361999512e-02) (4, -9.93072539567947387695e-02) (5, -2.51516122370958328247e-02) (6, 8.17015767097473144531e-02) (7, -5.39633072912693023682e-02) (8, 8.38997885584831237793e-02) (9, -2.84092267975211143494e-03) (10, -2.27277558296918869019e-02) (11, 6.83981180191040039062e-02) (12, 7.87305384874343872070e-02) (13, -8.53215083479881286621e-02) (14, 1.52164846658706665039e-01) (15, -2.23759096115827560425e-02) (16, -6.52875676751136779785e-02) (17, 5.77369332313537597656e-02) (18, 6.49263011291623115540e-03) (19, -8.45396220684051513672e-02) (20, 7.49068260192871093750e-02) (21, 1.20829828083515167236e-02) (22, 1.59944240003824234009e-02) (23, -2.08365377038717269897e-02) (24, 1.56241372227668762207e-01) (25, 8.95566493272781372070e-02) (26, 1.73374824225902557373e-02) (27, 6.78338706493377685547e-02) (28, -2.82106157392263412476e-02) (29, -9.97907575219869613647e-03) (30, 3.07203531265258789062e-02) (31, -7.57972523570060729980e-02) (32, 2.89204176515340805054e-02) (33, -4.71644010394811630249e-03) (34, 6.18100278079509735107e-02) (35, -3.28093282878398895264e-02) (36, -5.72019373066723346710e-04) (37, 9.84946545213460922241e-03) (38, -5.71449957787990570068e-02) (39, -2.74897236377000808716e-02) (40, -1.27435833215713500977e-01) (41, 6.07200013473629951477e-03) (42, 1.69171150773763656616e-02) (43, 1.41554161906242370605e-01) (44, 1.46455131471157073975e-04) (45, 2.68178768455982208252e-02) (46, 1.22233472764492034912e-01) (47, 9.75630730390548706055e-02) (48, 1.40942409634590148926e-01) (49, 5.69997839629650115967e-02) (50, 6.84517398476600646973e-02) (51, 9.07133817672729492188e-02) (52, 3.41548249125480651855e-02) (53, -9.67881754040718078613e-02) (54, -6.63854703307151794434e-02) (55, -5.79159446060657501221e-02) (56, 2.53389477729797363281e-02) (57, 2.55414955317974090576e-02) (58, -8.17941129207611083984e-02) (59, 8.78385379910469055176e-02) (60, -6.74782246351242065430e-02) (61, 1.22476808726787567139e-01) (62, 7.12160766124725341797e-02) (63, 7.50303491950035095215e-02) (64, 2.78292503207921981812e-02) (65, 1.11801952123641967773e-01) (66, -2.15976275503635406494e-02) (67, 2.28653699159622192383e-01) (68, 1.09793931245803833008e-01) (69, 2.53388375043869018555e-01) (70, 1.08124781399965286255e-02) (71, -5.35563705489039421082e-03) (72, -1.38140842318534851074e-01) (73, 6.71836137771606445312e-02) (74, -1.60771906375885009766e-02) (75, -8.22041183710098266602e-02) (76, -1.43644928932189941406e-01) (77, -8.30088183283805847168e-02) (78, -7.90150016546249389648e-02) (79, -6.81673660874366760254e-02) (80, -3.42543944716453552246e-02) (81, 7.42987841367721557617e-02) (82, -1.02763608098030090332e-01) (83, 1.34394317865371704102e-01) (84, 1.46087622269988059998e-02) (85, 6.62701278924942016602e-02) (86, 6.07812181115150451660e-02) (87, 1.94025740027427673340e-01) (88, 1.37059465050697326660e-01) (89, 1.72372311353683471680e-01) (90, 1.00641630589962005615e-01) (91, 4.49835360050201416016e-02) (92, -4.92843165993690490723e-02) (93, -2.01478853821754455566e-01) (94, -7.75438407436013221741e-03) (95, -5.33673912286758422852e-02) (96, 2.65530534088611602783e-02) (97, 9.23206191509962081909e-03) (98, 3.55908833444118499756e-03) (99, -5.79785089939832687378e-03) (100, 2.34362483024597167969e-02) (101, -6.51621446013450622559e-02) (102, -1.51999682188034057617e-01) (103, 5.03474287688732147217e-02) (104, -7.93133825063705444336e-02) (105, -8.86709522455930709839e-03) (106, -8.13042968511581420898e-02) (107, -1.65711920708417892456e-02) (108, 3.53759042918682098389e-02) (109, -1.25151108950376510620e-02) (110, 4.19155322015285491943e-03) (111, 4.35556508600711822510e-02) (112, 5.36817708052694797516e-04) (113, 1.24061435461044311523e-01) (114, 1.64605841040611267090e-01) (115, -5.89945018291473388672e-02) (116, 1.16928461939096450806e-02) (117, -9.12440121173858642578e-02) (118, -8.95072445273399353027e-02) (119, 5.87225519120693206787e-02) (120, 3.47862951457500457764e-02) (121, -1.00456029176712036133e-01) (122, -7.55417393520474433899e-03) (123, -2.08259493112564086914e-01) (124, -2.05396577715873718262e-01) (125, -3.40605862438678741455e-02) (126, -8.84858593344688415527e-02) (127, -2.68384635448455810547e-01) (128, -9.54483970999717712402e-02) (129, -4.40193302929401397705e-02) (130, -8.02456066012382507324e-02) (131, -4.97750826179981231689e-02) (132, -2.70050279796123504639e-02) (133, 3.20040769875049591064e-02) (134, 1.23894669115543365479e-01) (135, 1.41120985150337219238e-01) (136, -1.19184136390686035156e-01) (137, -1.35254830121994018555e-01) (138, -8.23341384530067443848e-02) (139, 2.43249684572219848633e-02) (140, -1.43182441592216491699e-01) (141, 3.86718139052391052246e-02) (142, -1.36842727661132812500e-01) (143, -1.24521054327487945557e-01) (144, -9.63005144149065017700e-03) (145, -1.32909223437309265137e-01) (146, -9.60649326443672180176e-02) (147, -1.41762793064117431641e-02) (148, -1.17009431123733520508e-01) (149, -5.12540228664875030518e-02) (150, -3.92710156738758087158e-02) (151, 1.96649297140538692474e-03) (152, 1.19068808853626251221e-02) (153, 5.51980957388877868652e-02) (154, -2.20626313239336013794e-02) (155, 2.17779085040092468262e-01) (156, 8.66955891251564025879e-02) (157, 2.73587908595800399780e-02) (158, -8.03168118000030517578e-02) (159, -4.97924201190471649170e-02) (160, 2.22545396536588668823e-02) (161, -6.30378723144531250000e-02) (162, -1.06160037219524383545e-01) (163, -2.50258892774581909180e-01) (164, -2.67629176378250122070e-01) (165, -1.57166987657546997070e-01) (166, -2.96358438208699226379e-03) (167, -2.61096537113189697266e-01) (168, -1.24433413147926330566e-01) (169, -2.19856217503547668457e-01) (170, -8.13990607857704162598e-02) (171, -2.66418129205703735352e-01) (172, -9.15076732635498046875e-02) (173, -7.44832605123519897461e-02) (174, -3.09442672878503799438e-02) (175, -1.22356139123439788818e-01) (176, -1.05132937431335449219e-01) (177, -5.42842876166105270386e-03) (178, -5.07644340395927429199e-02) (179, 1.50654494762420654297e-01) (180, 4.35453988611698150635e-02) (181, -4.63281981647014617920e-02) (182, -4.68437969684600830078e-02) (183, 2.79329512268304824829e-02) (184, -9.14501994848251342773e-02) (185, 5.54915703833103179932e-03) (186, -2.61518619954586029053e-02) (187, 8.09951797127723693848e-02) (188, 6.52844309806823730469e-02) (189, 2.25101374089717864990e-02) (190, -4.42362725734710693359e-02) (191, -3.70192974805831909180e-02) (192, -4.91647124290466308594e-02) (193, 4.10778932273387908936e-02) (194, 7.93391559273004531860e-03) (195, -3.13775315880775451660e-02) (196, -2.24391650408506393433e-02) (197, -5.10651757940649986267e-03) (198, -2.18665390275418758392e-03) (199, 2.97744143754243850708e-02) (200, 8.30852333456277847290e-03) (0, 6.58421516418457031250e-02) (1, -7.22350478172302246094e-02) (2, 2.30680201202630996704e-02) (3, -1.05649471282958984375e-01) (4, 7.20562487840652465820e-02) (5, 8.39599519968032836914e-02) (6, 1.93910822272300720215e-02) (7, 2.24732588976621627808e-02) (8, -8.92634540796279907227e-02) (9, 2.94649265706539154053e-02) (10, 2.04971339553594589233e-03) (11, -1.55695686116814613342e-02) (12, 7.10476562380790710449e-02) (13, -9.70955789089202880859e-02) (14, -1.92828793078660964966e-02) (15, 8.89026746153831481934e-03) (16, 2.72409934550523757935e-02) (17, 2.67924908548593521118e-02) (18, 3.36683802306652069092e-02) (19, -5.18616959452629089355e-02) (20, 7.72216469049453735352e-02) (21, 2.61738407425582408905e-03) (22, -1.11895881593227386475e-01) (23, 3.02769374102354049683e-02) (24, -5.42765036225318908691e-02) (25, -5.32798916101455688477e-02) (26, -3.11534050852060317993e-02) (27, 5.03686591982841491699e-02) (28, 2.17481926083564758301e-02) (29, -2.76791886426508426666e-03) (30, -7.61273205280303955078e-02) (31, 3.92906963825225830078e-02) (32, 4.15661185979843139648e-02) (33, 5.23769035935401916504e-02) (34, 5.93547783792018890381e-02) (35, -6.62362668663263320923e-03) (36, 8.35125893354415893555e-02) (37, -1.40201039612293243408e-02) (38, 1.62045434117317199707e-01) (39, 7.41645544767379760742e-02) (40, 1.02878212928771972656e-01) (41, -2.75294855237007141113e-02) (42, -6.11427240073680877686e-02) (43, 2.06328779458999633789e-02) (44, -4.90630380809307098389e-02) (45, 2.50800549983978271484e-02) (46, -7.30199962854385375977e-02) (47, -1.35976284742355346680e-01) (48, -2.35648937523365020752e-02) (49, 2.53758882172405719757e-03) (50, -4.43139113485813140869e-02) (51, -7.10398033261299133301e-02) (52, -9.86777245998382568359e-03) (53, 5.07740750908851623535e-02) (54, 1.03243060410022735596e-01) (55, 8.82124677300453186035e-02) (56, -5.63756972551345825195e-02) (57, -7.09930285811424255371e-02) (58, 3.12139056622982025146e-02) (59, 5.48536330461502075195e-02) (60, -1.59077125135809183121e-03) (61, -5.01876045018434524536e-03) (62, -3.02188601344823837280e-02) (63, -6.98216557502746582031e-02) (64, -6.17049746215343475342e-02) (65, -8.74036103487014770508e-02) (66, -2.20893081277608871460e-02) (67, -1.31792381405830383301e-01) (68, -1.73445437103509902954e-02) (69, -5.52713125944137573242e-02) (70, 8.29035416245460510254e-02) (71, 3.26496884226799011230e-02) (72, 1.28087788820266723633e-01) (73, -3.32935191690921783447e-02) (74, 2.04822123050689697266e-02) (75, 3.53377807186916470528e-04) (76, 1.62384361028671264648e-01) (77, 6.79731443524360656738e-02) (78, -1.03870881721377372742e-02) (79, -4.16265912353992462158e-02) (80, -6.12994655966758728027e-03) (81, 2.88058090955018997192e-02) (82, 1.89476134255528450012e-03) (83, 8.79256799817085266113e-02) (84, -1.06113910675048828125e-01) (85, -5.70877604186534881592e-02) (86, -9.34214890003204345703e-03) (87, -1.12022928893566131592e-01) (88, -4.98750358819961547852e-02) (89, -3.66925485432147979736e-02) (90, -5.13080656528472900391e-02) (91, -3.96222062408924102783e-02) (92, 7.18623176217079162598e-02) (93, 1.09387353062629699707e-01) (94, -5.97924701869487762451e-02) (95, 8.32252576947212219238e-03) (96, 8.95279198884963989258e-02) (97, 4.65179346501827239990e-02) (98, -7.66670610755681991577e-03) (99, -3.28231230378150939941e-02) (100, -7.70453959703445434570e-02) (101, -5.42029365897178649902e-02) (102, -9.06502604484558105469e-02) (103, 8.99748876690864562988e-02) (104, -3.29279489815235137939e-02) (105, -4.57555195316672325134e-03) (106, -5.58425784111022949219e-02) (107, -2.04618461430072784424e-02) (108, -6.66751293465495109558e-03) (109, 3.78351993858814239502e-02) (110, 3.49876880645751953125e-02) (111, 3.73453609645366668701e-02) (112, -5.11673167347908020020e-02) (113, -1.29648283123970031738e-01) (114, -1.81834921240806579590e-02) (115, -4.73420396447181701660e-02) (116, -2.07487884908914566040e-02) (117, -4.63783554732799530029e-02) (118, -6.09365571290254592896e-03) (119, 9.02583226561546325684e-02) (120, 3.11849247664213180542e-02) (121, 3.91519367694854736328e-02) (122, -9.71689522266387939453e-02) (123, -1.94813068956136703491e-02) (124, -1.26213198527693748474e-02) (125, -1.00872786715626716614e-02) (126, 8.92584919929504394531e-02) (127, 1.70167237520217895508e-01) (128, 1.07910178601741790771e-01) (129, 9.44732576608657836914e-02) (130, -3.28617393970489501953e-02) (131, -9.83853340148925781250e-02) (132, -8.70225727558135986328e-02) (133, -5.60118518769741058350e-02) (134, 7.63703286647796630859e-02) (135, -9.02962461113929748535e-02) (136, 5.16825206577777862549e-02) (137, -6.13745264708995819092e-02) (138, 2.58882939815521240234e-02) (139, -4.59557361900806427002e-02) (140, 1.39141410589218139648e-01) (141, -6.89875753596425056458e-03) (142, 1.75509557127952575684e-01) (143, 1.37023955583572387695e-01) (144, 5.59590794146060943604e-02) (145, 4.46969158947467803955e-02) (146, 1.54169434681534767151e-02) (147, 1.07861548662185668945e-01) (148, 1.20187692344188690186e-01) (149, -3.78006398677825927734e-02) (150, 4.14560660719871520996e-02) (151, -8.15640948712825775146e-03) (152, 1.19377989321947097778e-02) (153, 6.03154599666595458984e-02) (154, 9.11391973495483398438e-02) (155, 3.20090502500534057617e-02) (156, -1.30202367901802062988e-01) (157, -9.23781991004943847656e-02) (158, 3.42340162023901939392e-03) (159, -1.18880316615104675293e-01) (160, -8.77019111067056655884e-03) (161, -3.34315709769725799561e-02) (162, -4.69425842165946960449e-02) (163, 