FANN_FLO_2.1
num_layers=4
learning_rate=0.700000
connection_rate=1.000000
network_type=0
learning_momentum=0.000000
training_algorithm=0
train_error_function=1
train_stop_function=0
cascade_output_change_fraction=0.010000
quickprop_decay=-0.000100
quickprop_mu=1.750000
rprop_increase_factor=1.200000
rprop_decrease_factor=0.500000
rprop_delta_min=0.000000
rprop_delta_max=50.000000
rprop_delta_zero=0.100000
cascade_output_stagnation_epochs=12
cascade_candidate_change_fraction=0.010000
cascade_candidate_stagnation_epochs=12
cascade_max_out_epochs=150
cascade_max_cand_epochs=150
cascade_num_candidate_groups=2
bit_fail_limit=3.49999994039535522461e-01
cascade_candidate_limit=1.00000000000000000000e+03
cascade_weight_multiplier=4.00000005960464477539e-01
cascade_activation_functions_count=10
cascade_activation_functions=3 5 7 8 10 11 14 15 16 17 
cascade_activation_steepnesses_count=4
cascade_activation_steepnesses=2.50000000000000000000e-01 5.00000000000000000000e-01 7.50000000000000000000e-01 1.00000000000000000000e+00 
layer_sizes=201 76 33 17 
scale_included=0
neurons (num_inputs, activation_function, activation_steepness)=(0, 0, 0.00000000000000000000e+00) (0, 0, 0.00000000000000000000e+00) (0, 0, 0.00000000000000000000e+00) (0, 0, 0.00000000000000000000e+00) (0, 0, 0.00000000000000000000e+00) (0, 0, 0.00000000000000000000e+00) (0, 0, 0.00000000000000000000e+00) (0, 0, 0.00000000000000000000e+00) (0, 0, 0.00000000000000000000e+00) (0, 0, 0.00000000000000000000e+00) (0, 0, 0.00000000000000000000e+00) (0, 0, 0.00000000000000000000e+00) (0, 0, 0.00000000000000000000e+00) (0, 0, 0.00000000000000000000e+00) (0, 0, 0.00000000000000000000e+00) (0, 0, 0.00000000000000000000e+00) (0, 0, 0.00000000000000000000e+00) (0, 0, 0.00000000000000000000e+00) (0, 0, 0.00000000000000000000e+00) (0, 0, 0.00000000000000000000e+00) (0, 0, 0.00000000000000000000e+00) (0, 0, 0.00000000000000000000e+00) (0, 0, 0.00000000000000000000e+00) (0, 0, 0.00000000000000000000e+00) (0, 0, 0.00000000000000000000e+00) (0, 0, 0.00000000000000000000e+00) (0, 0, 0.00000000000000000000e+00) (0, 0, 0.00000000000000000000e+00) (0, 0, 0.00000000000000000000e+00) (0, 0, 0.00000000000000000000e+00) (0, 0, 0.00000000000000000000e+00) (0, 0, 0.00000000000000000000e+00) (0, 0, 0.00000000000000000000e+00) (0, 0, 0.00000000000000000000e+00) (0, 0, 0.00000000000000000000e+00) (0, 0, 0.00000000000000000000e+00) (0, 0, 0.00000000000000000000e+00) (0, 0, 0.00000000000000000000e+00) (0, 0, 0.00000000000000000000e+00) (0, 0, 0.00000000000000000000e+00) (0, 0, 0.00000000000000000000e+00) (0, 0, 0.00000000000000000000e+00) (0, 0, 0.00000000000000000000e+00) (0, 0, 0.00000000000000000000e+00) (0, 0, 0.00000000000000000000e+00) (0, 0, 0.00000000000000000000e+00) (0, 0, 0.00000000000000000000e+00) (0, 0, 0.00000000000000000000e+00) (0, 0, 0.00000000000000000000e+00) (0, 0, 0.00000000000000000000e+00) (0, 0, 0.00000000000000000000e+00) (0, 0, 0.00000000000000000000e+00) (0, 0, 0.00000000000000000000e+00) (0, 0, 0.00000000000000000000e+00) (0, 0, 0.00000000000000000000e+00) (0, 0, 0.00000000000000000000e+00) (0, 0, 0.00000000000000000000e+00) (0, 0, 0.00000000000000000000e+00) (0, 0, 0.00000000000000000000e+00) (0, 0, 0.00000000000000000000e+00) (0, 0, 0.00000000000000000000e+00) (0, 0, 0.00000000000000000000e+00) (0, 0, 0.00000000000000000000e+00) (0, 0, 0.00000000000000000000e+00) (0, 0, 0.00000000000000000000e+00) (0, 0, 0.00000000000000000000e+00) (0, 0, 0.00000000000000000000e+00) (0, 0, 0.00000000000000000000e+00) (0, 0, 0.00000000000000000000e+00) (0, 0, 0.00000000000000000000e+00) (0, 0, 0.00000000000000000000e+00) (0, 0, 0.00000000000000000000e+00) (0, 0, 0.00000000000000000000e+00) (0, 0, 0.00000000000000000000e+00) (0, 0, 0.00000000000000000000e+00) (0, 0, 0.00000000000000000000e+00) (0, 0, 0.00000000000000000000e+00) (0, 0, 0.00000000000000000000e+00) (0, 0, 0.00000000000000000000e+00) (0, 0, 0.00000000000000000000e+00) (0, 0, 0.00000000000000000000e+00) (0, 0, 0.00000000000000000000e+00) (0, 0, 0.00000000000000000000e+00) (0, 0, 0.00000000000000000000e+00) (0, 0, 0.00000000000000000000e+00) (0, 0, 0.00000000000000000000e+00) (0, 0, 0.00000000000000000000e+00) (0, 0, 0.00000000000000000000e+00) (0, 0, 0.00000000000000000000e+00) (0, 0, 0.00000000000000000000e+00) (0, 0, 0.00000000000000000000e+00) (0, 0, 0.00000000000000000000e+00) (0, 0, 0.00000000000000000000e+00) (0, 0, 0.00000000000000000000e+00) (0, 0, 0.00000000000000000000e+00) (0, 0, 0.00000000000000000000e+00) (0, 0, 0.00000000000000000000e+00) (0, 0, 0.00000000000000000000e+00) (0, 0, 0.00000000000000000000e+00) (0, 0, 0.00000000000000000000e+00) (0, 0, 0.00000000000000000000e+00) (0, 0, 0.00000000000000000000e+00) (0, 0, 0.00000000000000000000e+00) (0, 0, 0.00000000000000000000e+00) (0, 0, 0.00000000000000000000e+00) (0, 0, 0.00000000000000000000e+00) (0, 0, 0.00000000000000000000e+00) (0, 0, 0.00000000000000000000e+00) (0, 0, 0.00000000000000000000e+00) (0, 0, 0.00000000000000000000e+00) (0, 0, 0.00000000000000000000e+00) (0, 0, 0.00000000000000000000e+00) (0, 0, 0.00000000000000000000e+00) (0, 0, 0.00000000000000000000e+00) (0, 0, 0.00000000000000000000e+00) (0, 0, 0.00000000000000000000e+00) (0, 0, 0.00000000000000000000e+00) (0, 0, 0.00000000000000000000e+00) (0, 0, 0.00000000000000000000e+00) (0, 0, 0.00000000000000000000e+00) (0, 0, 0.00000000000000000000e+00) (0, 0, 0.00000000000000000000e+00) (0, 0, 0.00000000000000000000e+00) (0, 0, 0.00000000000000000000e+00) (0, 0, 0.00000000000000000000e+00) (0, 0, 0.00000000000000000000e+00) (0, 0, 0.00000000000000000000e+00) (0, 0, 0.00000000000000000000e+00) (0, 0, 0.00000000000000000000e+00) (0, 0, 0.00000000000000000000e+00) (0, 0, 0.00000000000000000000e+00) (0, 0, 0.00000000000000000000e+00) (0, 0, 0.00000000000000000000e+00) (0, 0, 0.00000000000000000000e+00) (0, 0, 0.00000000000000000000e+00) (0, 0, 0.00000000000000000000e+00) (0, 0, 0.00000000000000000000e+00) (0, 0, 0.00000000000000000000e+00) (0, 0, 0.00000000000000000000e+00) (0, 0, 0.00000000000000000000e+00) (0, 0, 0.00000000000000000000e+00) (0, 0, 0.00000000000000000000e+00) (0, 0, 0.00000000000000000000e+00) (0, 0, 0.00000000000000000000e+00) (0, 0, 0.00000000000000000000e+00) (0, 0, 0.00000000000000000000e+00) (0, 0, 0.00000000000000000000e+00) (0, 0, 0.00000000000000000000e+00) (0, 0, 0.00000000000000000000e+00) (0, 0, 0.00000000000000000000e+00) (0, 0, 0.00000000000000000000e+00) (0, 0, 0.00000000000000000000e+00) (0, 0, 0.00000000000000000000e+00) (0, 0, 0.00000000000000000000e+00) (0, 0, 0.00000000000000000000e+00) (0, 0, 0.00000000000000000000e+00) (0, 0, 0.00000000000000000000e+00) (0, 0, 0.00000000000000000000e+00) (0, 0, 0.00000000000000000000e+00) (0, 0, 0.00000000000000000000e+00) (0, 0, 0.00000000000000000000e+00) (0, 0, 0.00000000000000000000e+00) (0, 0, 0.00000000000000000000e+00) (0, 0, 0.00000000000000000000e+00) (0, 0, 0.00000000000000000000e+00) (0, 0, 0.00000000000000000000e+00) (0, 0, 0.00000000000000000000e+00) (0, 0, 0.00000000000000000000e+00) (0, 0, 0.00000000000000000000e+00) (0, 0, 0.00000000000000000000e+00) (0, 0, 0.00000000000000000000e+00) (0, 0, 0.00000000000000000000e+00) (0, 0, 0.00000000000000000000e+00) (0, 0, 0.00000000000000000000e+00) (0, 0, 0.00000000000000000000e+00) (0, 0, 0.00000000000000000000e+00) (0, 0, 0.00000000000000000000e+00) (0, 0, 0.00000000000000000000e+00) (0, 0, 0.00000000000000000000e+00) (0, 0, 0.00000000000000000000e+00) (0, 0, 0.00000000000000000000e+00) (0, 0, 0.00000000000000000000e+00) (0, 0, 0.00000000000000000000e+00) (0, 0, 0.00000000000000000000e+00) (0, 0, 0.00000000000000000000e+00) (0, 0, 0.00000000000000000000e+00) (0, 0, 0.00000000000000000000e+00) (0, 0, 0.00000000000000000000e+00) (0, 0, 0.00000000000000000000e+00) (0, 0, 0.00000000000000000000e+00) (0, 0, 0.00000000000000000000e+00) (0, 0, 0.00000000000000000000e+00) (0, 0, 0.00000000000000000000e+00) (0, 0, 0.00000000000000000000e+00) (0, 0, 0.00000000000000000000e+00) (0, 0, 0.00000000000000000000e+00) (0, 0, 0.00000000000000000000e+00) (0, 0, 0.00000000000000000000e+00) (0, 0, 0.00000000000000000000e+00) (0, 0, 0.00000000000000000000e+00) (0, 0, 0.00000000000000000000e+00) (201, 6, 5.00000000000000000000e-01) (201, 6, 5.00000000000000000000e-01) (201, 6, 5.00000000000000000000e-01) (201, 6, 5.00000000000000000000e-01) (201, 6, 5.00000000000000000000e-01) (201, 6, 5.00000000000000000000e-01) (201, 6, 5.00000000000000000000e-01) (201, 6, 5.00000000000000000000e-01) (201, 6, 5.00000000000000000000e-01) (201, 6, 5.00000000000000000000e-01) (201, 6, 5.00000000000000000000e-01) (201, 6, 5.00000000000000000000e-01) (201, 6, 5.00000000000000000000e-01) (201, 6, 5.00000000000000000000e-01) (201, 6, 5.00000000000000000000e-01) (201, 6, 5.00000000000000000000e-01) (201, 6, 5.00000000000000000000e-01) (201, 6, 5.00000000000000000000e-01) (201, 6, 5.00000000000000000000e-01) (201, 6, 5.00000000000000000000e-01) (201, 6, 5.00000000000000000000e-01) (201, 6, 5.00000000000000000000e-01) (201, 6, 5.00000000000000000000e-01) (201, 6, 5.00000000000000000000e-01) (201, 6, 5.00000000000000000000e-01) (201, 6, 5.00000000000000000000e-01) (201, 6, 5.00000000000000000000e-01) (201, 6, 5.00000000000000000000e-01) (201, 6, 5.00000000000000000000e-01) (201, 6, 5.00000000000000000000e-01) (201, 6, 5.00000000000000000000e-01) (201, 6, 5.00000000000000000000e-01) (201, 6, 5.00000000000000000000e-01) (201, 6, 5.00000000000000000000e-01) (201, 6, 5.00000000000000000000e-01) (201, 6, 5.00000000000000000000e-01) (201, 6, 5.00000000000000000000e-01) (201, 6, 5.00000000000000000000e-01) (201, 6, 5.00000000000000000000e-01) (201, 6, 5.00000000000000000000e-01) (201, 6, 5.00000000000000000000e-01) (201, 6, 5.00000000000000000000e-01) (201, 6, 5.00000000000000000000e-01) (201, 6, 5.00000000000000000000e-01) (201, 6, 5.00000000000000000000e-01) (201, 6, 5.00000000000000000000e-01) (201, 6, 5.00000000000000000000e-01) (201, 6, 5.00000000000000000000e-01) (201, 6, 5.00000000000000000000e-01) (201, 6, 5.00000000000000000000e-01) (201, 6, 5.00000000000000000000e-01) (201, 6, 5.00000000000000000000e-01) (201, 6, 5.00000000000000000000e-01) (201, 6, 5.00000000000000000000e-01) (201, 6, 5.00000000000000000000e-01) (201, 6, 5.00000000000000000000e-01) (201, 6, 5.00000000000000000000e-01) (201, 6, 5.00000000000000000000e-01) (201, 6, 5.00000000000000000000e-01) (201, 6, 5.00000000000000000000e-01) (201, 6, 5.00000000000000000000e-01) (201, 6, 5.00000000000000000000e-01) (201, 6, 5.00000000000000000000e-01) (201, 6, 5.00000000000000000000e-01) (201, 6, 5.00000000000000000000e-01) (201, 6, 5.00000000000000000000e-01) (201, 6, 5.00000000000000000000e-01) (201, 6, 5.00000000000000000000e-01) (201, 6, 5.00000000000000000000e-01) (201, 6, 5.00000000000000000000e-01) (201, 6, 5.00000000000000000000e-01) (201, 6, 5.00000000000000000000e-01) (201, 6, 5.00000000000000000000e-01) (201, 6, 5.00000000000000000000e-01) (201, 6, 5.00000000000000000000e-01) (0, 6, 0.00000000000000000000e+00) (76, 6, 5.00000000000000000000e-01) (76, 6, 5.00000000000000000000e-01) (76, 6, 5.00000000000000000000e-01) (76, 6, 5.00000000000000000000e-01) (76, 6, 5.00000000000000000000e-01) (76, 6, 5.00000000000000000000e-01) (76, 6, 5.00000000000000000000e-01) (76, 6, 5.00000000000000000000e-01) (76, 6, 5.00000000000000000000e-01) (76, 6, 5.00000000000000000000e-01) (76, 6, 5.00000000000000000000e-01) (76, 6, 5.00000000000000000000e-01) (76, 6, 5.00000000000000000000e-01) (76, 6, 5.00000000000000000000e-01) (76, 6, 5.00000000000000000000e-01) (76, 6, 5.00000000000000000000e-01) (76, 6, 5.00000000000000000000e-01) (76, 6, 5.00000000000000000000e-01) (76, 6, 5.00000000000000000000e-01) (76, 6, 5.00000000000000000000e-01) (76, 6, 5.00000000000000000000e-01) (76, 6, 5.00000000000000000000e-01) (76, 6, 5.00000000000000000000e-01) (76, 6, 5.00000000000000000000e-01) (76, 6, 5.00000000000000000000e-01) (76, 6, 5.00000000000000000000e-01) (76, 6, 5.00000000000000000000e-01) (76, 6, 5.00000000000000000000e-01) (76, 6, 5.00000000000000000000e-01) (76, 6, 5.00000000000000000000e-01) (76, 6, 5.00000000000000000000e-01) (76, 6, 5.00000000000000000000e-01) (0, 6, 0.00000000000000000000e+00) (33, 3, 5.00000000000000000000e-01) (33, 3, 5.00000000000000000000e-01) (33, 3, 5.00000000000000000000e-01) (33, 3, 5.00000000000000000000e-01) (33, 3, 5.00000000000000000000e-01) (33, 3, 5.00000000000000000000e-01) (33, 3, 5.00000000000000000000e-01) (33, 3, 5.00000000000000000000e-01) (33, 3, 5.00000000000000000000e-01) (33, 3, 5.00000000000000000000e-01) (33, 3, 5.00000000000000000000e-01) (33, 3, 5.00000000000000000000e-01) (33, 3, 5.00000000000000000000e-01) (33, 3, 5.00000000000000000000e-01) (33, 3, 5.00000000000000000000e-01) (33, 3, 5.00000000000000000000e-01) (0, 3, 0.00000000000000000000e+00) 
connections (connected_to_neuron, weight)=(0, -5.00055216252803802490e-03) (1, -1.40566108748316764832e-02) (2, 1.33020430803298950195e-01) (3, 1.06708988547325134277e-01) (4, 1.28106981515884399414e-01) (5, 8.38918089866638183594e-02) (6, 2.03239172697067260742e-02) (7, 3.89896750450134277344e-01) (8, 3.13958793878555297852e-01) (9, 5.04975855350494384766e-01) (10, 1.23946577310562133789e-01) (11, 2.59698629379272460938e-01) (12, -9.68271046876907348633e-02) (13, -2.43409629911184310913e-02) (14, -2.31705252081155776978e-02) (15, 8.57480615377426147461e-03) (16, 7.36736506223678588867e-02) (17, -1.80217713117599487305e-01) (18, -2.51076012849807739258e-01) (19, 3.89629900455474853516e-01) (20, 1.97055131196975708008e-01) (21, 8.86885821819305419922e-02) (22, -3.04364897310733795166e-02) (23, -2.71109670400619506836e-01) (24, 7.62155279517173767090e-02) (25, 2.21119135618209838867e-01) (26, 1.34568259119987487793e-01) (27, -6.18718052282929420471e-03) (28, 6.96994066238403320312e-02) (29, 6.71334028244018554688e-01) (30, 2.13646382093429565430e-01) (31, 1.07329472899436950684e-01) (32, -9.75240468978881835938e-02) (33, 3.06020081043243408203e-02) (34, -4.00304347276687622070e-02) (35, -1.49786680936813354492e-01) (36, -4.88763391971588134766e-01) (37, 3.26886206865310668945e-01) (38, 2.70151406526565551758e-01) (39, -2.57348299026489257812e-01) (40, 3.66208073683083057404e-03) (41, 4.24318015575408935547e-01) (42, 1.03576537221670150757e-02) (43, 4.25762198865413665771e-02) (44, -2.09383442997932434082e-02) (45, -1.77180960774421691895e-01) (46, -3.20933759212493896484e-01) (47, 3.19680899381637573242e-01) (48, 1.58865854144096374512e-01) (49, 1.80913925170898437500e-01) (50, 6.69629573822021484375e-02) (51, 1.24536469578742980957e-01) (52, 4.90024350583553314209e-02) (53, 8.19786041975021362305e-02) (54, -2.54109531641006469727e-01) (55, 2.15516194701194763184e-01) (56, 9.38670933246612548828e-02) (57, -4.23479110002517700195e-01) (58, 1.31350532174110412598e-01) (59, 1.03170841932296752930e-01) (60, -8.15034285187721252441e-02) (61, -2.23213851451873779297e-01) (62, -7.14043527841567993164e-02) (63, 7.84597024321556091309e-02) (64, -6.17703311145305633545e-02) (65, -1.63697004318237304688e-01) (66, -1.68932482600212097168e-01) (67, 1.74614176154136657715e-01) (68, 8.64683557301759719849e-03) (69, 2.98726074397563934326e-02) (70, 1.53087884187698364258e-01) (71, 3.48876297473907470703e-01) (72, -6.58858001232147216797e-01) (73, -3.42533946037292480469e-01) (74, 1.83488085865974426270e-01) (75, -3.95344257354736328125e-01) (76, -1.96929395198822021484e-01) (77, 5.40344566106796264648e-02) (78, -1.42596289515495300293e-01) (79, 8.28313156962394714355e-02) (80, -3.87607216835021972656e-02) (81, -2.28822827339172363281e-01) (82, -1.52884781360626220703e-01) (83, -4.90861475467681884766e-01) (84, 1.49876132607460021973e-01) (85, -2.34387993812561035156e-01) (86, -7.36306250095367431641e-01) (87, -3.16924571990966796875e-01) (88, 2.58911043405532836914e-01) (89, -1.55564714223146438599e-02) (90, -9.47993770241737365723e-02) (91, 2.03062742948532104492e-01) (92, 3.57847183942794799805e-01) (93, 2.58005559444427490234e-01) (94, 2.85072743892669677734e-01) (95, 2.05094873905181884766e-01) (96, 1.68688613921403884888e-02) (97, 7.44662433862686157227e-02) (98, 2.32789665460586547852e-01) (99, -1.11724264919757843018e-01) (100, 4.89447712898254394531e-02) (101, -4.57414574921131134033e-02) (102, -1.44567325711250305176e-01) (103, -2.15317204594612121582e-01) (104, -2.24239215254783630371e-01) (105, -3.38572919368743896484e-01) (106, -2.51913487911224365234e-01) (107, -2.13307261466979980469e-01) (108, 1.04352615773677825928e-01) (109, 2.31766384094953536987e-02) (110, -9.12729874253273010254e-02) (111, 4.15337443351745605469e-01) (112, 2.33929663896560668945e-01) (113, 2.01419368386268615723e-01) (114, 1.08749523758888244629e-01) (115, 3.40034812688827514648e-01) (116, 6.37820884585380554199e-02) (117, 1.56950965523719787598e-01) (118, 1.67397290468215942383e-01) (119, -2.23253872245550155640e-02) (120, 2.02253181487321853638e-02) (121, 1.33147090673446655273e-02) (122, -4.43536490201950073242e-01) (123, -3.37306916713714599609e-01) (124, -3.75680118799209594727e-01) (125, -3.44241470098495483398e-01) (126, -2.12647929787635803223e-01) (127, -1.70165091753005981445e-01) (128, -7.33364969491958618164e-02) (129, -2.95204848051071166992e-01) (130, 9.81510877609252929688e-02) (131, 9.79632139205932617188e-02) (132, 2.92989194393157958984e-01) (133, 1.64412111043930053711e-01) (134, 4.85989689826965332031e-01) (135, 3.15844178199768066406e-01) (136, 2.01289698481559753418e-01) (137, 4.53952401876449584961e-01) (138, 5.52868187427520751953e-01) (139, -7.60408192873001098633e-02) (140, -8.98900907486677169800e-03) (141, -3.78632135689258575439e-02) (142, -2.53905385732650756836e-01) (143, -4.70264405012130737305e-01) (144, -3.23229819536209106445e-01) (145, -3.11904191970825195312e-01) (146, -7.06638813018798828125e-01) (147, -3.39264839887619018555e-01) (148, -3.41339051723480224609e-01) (149, -2.10912436246871948242e-01) (150, -2.40053892135620117188e-01) (151, -4.09450232982635498047e-02) (152, -1.60423606634140014648e-01) (153, 5.85577962920069694519e-03) (154, 1.06041654944419860840e-02) (155, 1.10323071479797363281e-01) (156, 5.86399435997009277344e-01) (157, 2.68736302852630615234e-01) (158, 4.75820332765579223633e-01) (159, 2.68890917301177978516e-01) (160, -3.09587717056274414062e-01) (161, -3.45032155513763427734e-01) (162, -3.41098964214324951172e-01) (163, -3.09630751609802246094e-01) (164, -3.79082322120666503906e-01) (165, -9.77977871894836425781e-01) (166, -6.05738103389739990234e-01) (167, -9.68955039978027343750e-01) (168, -4.37213242053985595703e-01) (169, -7.30614423751831054688e-01) (170, -2.71448582410812377930e-01) (171, -8.45116227865219116211e-02) (172, 7.62013942003250122070e-02) (173, -1.23520284891128540039e-01) (174, -8.85444954037666320801e-02) (175, -9.96743738651275634766e-02) (176, -1.17249995470046997070e-01) (177, 2.13639587163925170898e-01) (178, 4.48646873235702514648e-01) (179, -2.33742848038673400879e-01) (180, -9.09411534667015075684e-02) (181, 5.34462779760360717773e-02) (182, -9.80348810553550720215e-02) (183, -1.44812062382698059082e-01) (184, -1.58726796507835388184e-01) (185, 6.47297725081443786621e-02) (186, 1.29587933421134948730e-01) (187, -1.29466518759727478027e-01) (188, 3.87475341558456420898e-02) (189, 2.88067515939474105835e-02) (190, 1.14802546799182891846e-01) (191, -2.66354810446500778198e-02) (192, -7.90252313017845153809e-02) (193, -3.60669381916522979736e-02) (194, 7.89402276277542114258e-02) (195, 6.16919845342636108398e-02) (196, -1.66659094393253326416e-02) (197, -1.13349735736846923828e-01) (198, 4.11821715533733367920e-02) (199, -1.14994928240776062012e-01) (200, -1.50816470384597778320e-01) (0, -4.66935932636260986328e-02) (1, -8.31058248877525329590e-02) (2, -3.06982249021530151367e-01) (3, 4.17181849479675292969e-02) (4, 6.18787184357643127441e-02) (5, -1.49817112833261489868e-02) (6, -7.00699612498283386230e-02) (7, -3.44945788383483886719e-01) (8, -3.73761773109436035156e-01) (9, -2.60402411222457885742e-01) (10, -2.87451967597007751465e-02) (11, -2.34096378087997436523e-01) (12, 1.12243682146072387695e-01) (13, -3.70513089001178741455e-02) (14, 2.00570821762084960938e-01) (15, -5.66831566393375396729e-02) (16, -4.88748587667942047119e-02) (17, -7.10460692644119262695e-02) (18, 3.35559219121932983398e-01) (19, 2.46382579207420349121e-01) (20, -2.06372484564781188965e-01) (21, 1.65100470185279846191e-02) (22, -1.00955910980701446533e-01) (23, -3.59142012894153594971e-02) (24, 4.40712179988622665405e-03) (25, -3.13884526491165161133e-01) (26, -1.63103684782981872559e-01) (27, -1.85994550585746765137e-01) (28, -2.78621047735214233398e-01) (29, -7.18656897544860839844e-01) (30, -7.78440386056900024414e-02) (31, -3.78291338682174682617e-01) (32, 7.24171462934464216232e-04) (33, 1.32116749882698059082e-01) (34, -7.08340182900428771973e-02) (35, -1.03530839085578918457e-01) (36, 5.53518198430538177490e-02) (37, -2.16724351048469543457e-01) (38, -2.14311599731445312500e-01) (39, 1.42500936985015869141e-01) (40, -1.90496770665049552917e-03) (41, -4.95714515447616577148e-01) (42, 3.55186879634857177734e-01) (43, 1.36743620038032531738e-01) (44, 8.66377800703048706055e-02) (45, -4.60919924080371856689e-02) (46, 8.82510915398597717285e-02) (47, -3.02053362131118774414e-01) (48, -3.37049394845962524414e-01) (49, -1.66962519288063049316e-01) (50, -1.74316570162773132324e-01) (51, -2.68027245998382568359e-01) (52, 2.74657513946294784546e-02) (53, -6.31944015622138977051e-02) (54, 4.12180572748184204102e-02) (55, 2.38893777132034301758e-01) (56, -3.08555752038955688477e-01) (57, -4.25275623798370361328e-01) (58, -2.75376200675964355469e-01) (59, 9.98803228139877319336e-02) (60, 1.80773232132196426392e-02) (61, 2.51733332872390747070e-01) (62, 2.72385537624359130859e-01) (63, -3.24396863579750061035e-02) (64, 1.94690972566604614258e-01) (65, -2.58515402674674987793e-02) (66, 1.38542428612709045410e-01) (67, -5.41446469724178314209e-02) (68, 2.19042357057332992554e-02) (69, -4.29807037115097045898e-01) (70, -1.86072111129760742188e-01) (71, -1.15481063723564147949e-01) (72, 3.89977455139160156250e-01) (73, 1.41248762607574462891e-01) (74, -1.29720821976661682129e-01) (75, -3.37932497262954711914e-01) (76, 2.16634385287761688232e-03) (77, -1.40214681625366210938e-01) (78, 3.96230667829513549805e-01) (79, -8.67524221539497375488e-02) (80, 2.11900338530540466309e-01) (81, 4.30091351270675659180e-01) (82, 1.26899302005767822266e-01) (83, 7.75234282016754150391e-01) (84, 3.29903870820999145508e-01) (85, 1.19200348854064941406e-02) (86, 2.25389048457145690918e-01) (87, -1.32150530815124511719e-01) (88, -5.25326967239379882812e-01) (89, -3.34354579448699951172e-01) (90, -1.12791478633880615234e+00) (91, -3.90622973442077636719e-01) (92, 2.14326363056898117065e-02) (93, -6.98867678642272949219e-01) (94, -3.86045724153518676758e-01) (95, -5.96835136413574218750e-01) (96, -3.47859472036361694336e-01) (97, -2.54597663879394531250e-01) (98, 7.66068637371063232422e-01) (99, 2.10587084293365478516e-01) (100, 1.24413922429084777832e-01) (101, 3.51921729743480682373e-02) (102, 2.39549160003662109375e-01) (103, 2.52415090799331665039e-01) (104, 4.71250638365745544434e-02) (105, 1.47217065095901489258e-01) (106, 1.54429718852043151855e-01) (107, 9.74109768867492675781e-02) (108, -2.86991119384765625000e-01) (109, -1.56605497002601623535e-01) (110, -4.84982639551162719727e-01) (111, -7.00311958789825439453e-01) (112, -1.23955667018890380859e-01) (113, -1.32397696375846862793e-01) (114, -2.25691735744476318359e-01) (115, -4.08052772283554077148e-01) (116, 1.83644056320190429688e-01) (117, -2.50548839569091796875e-01) (118, 4.77392464876174926758e-01) (119, -4.98757325112819671631e-02) (120, 2.38498602993786334991e-03) (121, 2.37438514828681945801e-01) (122, 2.65029519796371459961e-01) (123, 4.29475843906402587891e-01) (124, 1.84725552797317504883e-01) (125, 1.42817795276641845703e-01) (126, 2.94278375804424285889e-02) (127, -9.01660397648811340332e-02) (128, 1.03141881525516510010e-01) (129, -4.46899712085723876953e-01) (130, -4.87648725509643554688e-01) (131, -2.54242330789566040039e-01) (132, -9.37709510326385498047e-02) (133, 6.61139562726020812988e-02) (134, -8.69807153940200805664e-02) (135, -2.30785384774208068848e-01) (136, -7.63335525989532470703e-02) (137, -2.51147240400314331055e-01) (138, 5.89606821537017822266e-01) (139, 1.39874100685119628906e-01) (140, 3.42594757676124572754e-02) (141, 2.95912176370620727539e-01) (142, 3.31657558679580688477e-01) (143, 2.47859165072441101074e-01) (144, 5.52773654460906982422e-01) (145, -4.51616607606410980225e-02) (146, 1.92170470952987670898e-01) (147, 3.28301101922988891602e-01) (148, 2.65419244766235351562e-01) (149, -4.62024241685867309570e-01) (150, 5.83709955215454101562e-01) (151, -9.50076505541801452637e-02) (152, 5.20945429801940917969e-01) (153, 1.88299447298049926758e-01) (154, 7.87805952131748199463e-03) (155, -1.08504734933376312256e-01) (156, -4.04527872800827026367e-01) (157, -2.94688642024993896484e-01) (158, 2.96305954456329345703e-01) (159, -5.52904643118381500244e-02) (160, -1.13519273698329925537e-01) (161, -5.32716587185859680176e-02) (162, -3.11042368412017822266e-02) (163, 2.73345649242401123047e-01) (164, -8.83159488439559936523e-02) (165, 7.17273771762847900391e-01) (166, 1.91004708409309387207e-01) (167, 1.05674542486667633057e-01) (168, 4.67356026172637939453e-01) (169, 7.16680765151977539062e-01) (170, 1.50710195302963256836e-01) (171, 3.17711263895034790039e-01) (172, 2.27218642830848693848e-01) (173, 5.76933681964874267578e-01) (174, 5.70915818214416503906e-01) (175, 4.48618888854980468750e-01) (176, 4.14796918630599975586e-01) (177, 4.25722926855087280273e-01) (178, 5.01860439777374267578e-01) (179, -2.62080729007720947266e-01) (180, 8.08808878064155578613e-02) (181, -8.30236524343490600586e-02) (182, -1.07142440974712371826e-01) (183, 7.47471153736114501953e-02) (184, 2.37179011106491088867e-01) (185, -1.93397119641304016113e-01) (186, -7.30509161949157714844e-02) (187, 3.23102041147649288177e-03) (188, 8.78993198275566101074e-02) (189, 3.73838134109973907471e-02) (190, 5.97105398774147033691e-02) (191, 1.26007869839668273926e-01) (192, 9.73383113741874694824e-02) (193, -1.45068215206265449524e-02) (194, 3.93513664603233337402e-02) (195, -6.32925406098365783691e-02) (196, -4.24613244831562042236e-02) (197, -2.06516027450561523438e-01) (198, 3.15388679504394531250e-01) (199, 1.07024863362312316895e-01) (200, 3.89067828655242919922e-01) (0, -9.75551530718803405762e-02) (1, -1.17095991969108581543e-01) (2, -3.45645919442176818848e-02) (3, -9.42551344633102416992e-02) (4, -2.46306397020816802979e-02) (5, -2.39614769816398620605e-02) (6, 9.22437012195587158203e-02) (7, -4.63101547211408615112e-03) (8, 1.38749061152338981628e-02) (9, 5.44457230716943740845e-03) (10, -1.58818662166595458984e-02) (11, -7.77263492345809936523e-02) (12, 2.04249750822782516479e-02) (13, 5.97269982099533081055e-02) (14, -3.45778511837124824524e-03) (15, -2.18944326043128967285e-02) (16, 3.95940132439136505127e-02) (17, -3.67860496044158935547e-02) (18, -1.21422968804836273193e-01) (19, 5.55637218058109283447e-02) (20, 6.53508305549621582031e-02) (21, 9.24489349126815795898e-02) (22, 3.42673137784004211426e-02) (23, 4.10057008266448974609e-02) (24, 1.33823946118354797363e-01) (25, -4.80998232960700988770e-02) (26, 1.50271251797676086426e-01) (27, 2.31758579611778259277e-01) (28, 2.22502693533897399902e-01) (29, 2.66677141189575195312e-01) (30, 3.32251787185668945312e-02) (31, 8.98948460817337036133e-02) (32, 2.47836351394653320312e-01) (33, 1.44767180085182189941e-01) (34, 1.58037483692169189453e-01) (35, 3.52817267179489135742e-01) (36, 2.40709066390991210938e-01) (37, 2.34025314450263977051e-01) (38, -3.07513713836669921875e-01) (39, 7.48311206698417663574e-02) (40, 4.17668782174587249756e-02) (41, 2.24219202995300292969e-01) (42, 1.56434178352355957031e-01) (43, 3.78869056701660156250e-01) (44, 2.34485432505607604980e-01) (45, 1.46653681993484497070e-01) (46, 4.12472665309906005859e-01) (47, 3.13732594251632690430e-01) (48, 1.38301521539688110352e-01) (49, 4.17142808437347412109e-01) (50, 9.44612473249435424805e-02) (51, -9.70269739627838134766e-02) (52, -9.51122399419546127319e-03) (53, 5.40595464408397674561e-02) (54, 1.43408656120300292969e-01) (55, 3.65587651729583740234e-01) (56, 4.34517264366149902344e-01) (57, 5.57917580008506774902e-02) (58, -1.28862127661705017090e-01) (59, 3.86707186698913574219e-02) (60, -8.72037261724472045898e-02) (61, 9.97690409421920776367e-02) (62, 1.42142325639724731445e-01) (63, 1.76115617156028747559e-01) (64, 3.87969493865966796875e-01) (65, 1.33375957608222961426e-01) (66, 3.32018673419952392578e-01) (67, -5.18583431839942932129e-02) (68, 1.21960885822772979736e-01) (69, -2.97650322318077087402e-02) (70, 7.84168615937232971191e-02) (71, 3.40413242578506469727e-01) (72, 3.72612237930297851562e-01) (73, 2.95007318258285522461e-01) (74, 2.23458692431449890137e-01) (75, 4.87444214522838592529e-02) (76, 1.38316359370946884155e-02) (77, 3.94903063774108886719e-01) (78, 3.50623875856399536133e-01) (79, 4.10061422735452651978e-03) (80, 7.64958420768380165100e-03) (81, 3.28742980957031250000e-01) (82, 9.52428653836250305176e-02) (83, 6.08202256262302398682e-02) (84, 1.61598905920982360840e-01) (85, 2.99892067909240722656e-01) (86, 2.18775019049644470215e-01) (87, 1.46493390202522277832e-01) (88, -8.22677835822105407715e-02) (89, 6.83551058173179626465e-02) (90, -2.73872554302215576172e-01) (91, 3.48922014236450195312e-01) (92, 6.66680112481117248535e-02) (93, -1.96687672287225723267e-02) (94, 8.16799625754356384277e-02) (95, -1.93320840597152709961e-01) (96, -1.49508580565452575684e-01) (97, 1.66501492261886596680e-01) (98, 4.48353625833988189697e-02) (99, 1.81854665279388427734e-02) (100, 2.96327248215675354004e-02) (101, 4.35521528124809265137e-02) (102, 2.06685543060302734375e-01) (103, 1.15713916718959808350e-01) (104, 3.71021181344985961914e-02) (105, 7.52628743648529052734e-02) (106, 6.77937120199203491211e-02) (107, 2.45351880788803100586e-01) (108, -4.55459468066692352295e-02) (109, 1.77040159702301025391e-01) (110, 1.20958369225263595581e-02) (111, 1.00246399641036987305e-01) (112, 1.99649166315793991089e-02) (113, -8.74656960368156433105e-02) (114, -1.61090373992919921875e-01) (115, 6.86184912919998168945e-02) (116, 3.12345698475837707520e-02) (117, -1.07065692543983459473e-01) (118, 1.60145193338394165039e-01) (119, 9.28204432129859924316e-02) (120, -4.22019464895129203796e-03) (121, 1.78107291460037231445e-01) (122, 2.36316412687301635742e-01) (123, 2.48519778251647949219e-01) (124, 5.69273643195629119873e-02) (125, 2.56651580333709716797e-01) (126, 1.32787050679326057434e-02) (127, 1.55355826020240783691e-01) (128, 5.68283610045909881592e-02) (129, -9.52571257948875427246e-02) (130, -6.23177438974380493164e-02) (131, 1.10794277861714363098e-02) (132, 1.57405789941549301147e-02) (133, -6.09036497771739959717e-02) (134, -1.54409110546112060547e-01) (135, 8.01871642470359802246e-02) (136, 6.22732453048229217529e-02) (137, 1.75760492682456970215e-01) (138, 1.91384330391883850098e-01) (139, -1.90633034799247980118e-03) (140, -5.67217878997325897217e-02) (141, 5.48681942746043205261e-03) (142, 9.60204973816871643066e-02) (143, 1.78709700703620910645e-01) (144, 4.14156079292297363281e-01) (145, 8.41739028692245483398e-02) (146, 3.92502397298812866211e-01) (147, 4.80504743754863739014e-02) (148, 3.54215651750564575195e-02) (149, -3.15122514963150024414e-01) (150, -1.03801235556602478027e-01) (151, -1.70535176992416381836e-01) (152, -4.25826758146286010742e-02) (153, -1.84205740690231323242e-01) (154, -6.30025751888751983643e-04) (155, 1.13680973649024963379e-01) (156, 2.90543492883443832397e-02) (157, -3.77774909138679504395e-02) (158, 7.01487362384796142578e-02) (159, -1.52508854866027832031e-01) (160, -8.45201164484024047852e-02) (161, -8.50574821233749389648e-02) (162, -2.81575530767440795898e-01) (163, 7.19992592930793762207e-02) (164, 8.59929844737052917480e-02) (165, 3.53153347969055175781e-02) (166, -4.98888641595840454102e-02) (167, -1.06529481709003448486e-01) (168, -4.05661761760711669922e-01) (169, -2.46165990829467773438e-01) (170, 1.33956400677561759949e-02) (171, 3.89317244291305541992e-01) (172, -2.45575919747352600098e-01) (173, -2.28734761476516723633e-01) (174, 8.86708945035934448242e-02) (175, -1.03508464992046356201e-01) (176, -3.40353280305862426758e-01) (177, -3.80935937166213989258e-01) (178, 2.37432718276977539062e-01) (179, 2.47724056243896484375e-01) (180, 8.80781561136245727539e-02) (181, -1.62140280008316040039e-02) (182, -6.92397430539131164551e-02) (183, -1.84319689869880676270e-02) (184, 7.90861595305614173412e-05) (185, -9.39459726214408874512e-02) (186, 1.33853973820805549622e-02) (187, -8.34065824747085571289e-02) (188, -2.91473958641290664673e-02) (189, 4.15140837430953979492e-02) (190, -1.20393775403499603271e-01) (191, -1.57938823103904724121e-01) (192, 6.10272400081157684326e-02) (193, 8.83065909147262573242e-03) (194, 1.08246639370918273926e-01) (195, -8.79333633929491043091e-03) (196, -3.95362563431262969971e-02) (197, -1.32664740085601806641e-01) (198, -1.61626473069190979004e-01) (199, 1.69907227158546447754e-01) (200, 1.76608160138130187988e-01) (0, -1.52179971337318420410e-02) (1, 6.84746801853179931641e-02) (2, 3.23200668208301067352e-03) (3, -2.22571045160293579102e-02) (4, -5.16767986118793487549e-02) (5, 1.41529604792594909668e-01) (6, 1.11293539404869079590e-01) (7, -9.34474989771842956543e-02) (8, -1.96010395884513854980e-01) (9, 2.10585817694664001465e-01) (10, 1.24131709337234497070e-01) (11, 2.88506329059600830078e-01) (12, 2.41845563054084777832e-01) (13, 2.69972741603851318359e-01) (14, 2.08212554454803466797e-01) (15, 1.40754252672195434570e-01) (16, 4.64409962296485900879e-02) (17, 4.07627448439598083496e-02) (18, 3.56841534376144409180e-01) (19, 2.58937150239944458008e-01) (20, -3.42083275318145751953e-02) (21, 2.54610747098922729492e-01) (22, 2.11299270391464233398e-01) (23, 2.45802596211433410645e-01) (24, 1.87357008457183837891e-01) (25, 2.74570018053054809570e-01) (26, 3.21298211812973022461e-01) (27, 1.45483776926994323730e-01) (28, 3.44723910093307495117e-01) (29, -5.57017140090465545654e-02) (30, 1.50121092796325683594e-01) (31, 1.59680917859077453613e-01) (32, 2.49098092317581176758e-01) (33, 4.63030725717544555664e-01) (34, 2.74775654077529907227e-01) (35, 3.14511477947235107422e-01) (36, 2.81595826148986816406e-01) (37, 5.66067337989807128906e-01) (38, 3.37773323059082031250e-01) (39, 3.36384214460849761963e-02) (40, 4.43583466112613677979e-02) (41, -1.24960556626319885254e-01) (42, 1.31097346544265747070e-01) (43, 2.99627333879470825195e-01) (44, 2.08500295877456665039e-01) (45, 3.48861724138259887695e-01) (46, 1.43516719341278076172e-01) (47, 4.64778363704681396484e-01) (48, -1.08879387378692626953e-01) (49, 3.57713580131530761719e-01) (50, 8.83551500737667083740e-03) (51, 3.69870811700820922852e-02) (52, 3.39519567787647247314e-02) (53, 1.63703486323356628418e-01) (54, -4.00582775473594665527e-02) (55, 6.56377002596855163574e-02) (56, 2.43988946080207824707e-01) (57, -4.84939739108085632324e-02) (58, -8.06946158409118652344e-02) (59, 2.08638850599527359009e-02) (60, 7.93151408433914184570e-02) (61, 7.23219960927963256836e-02) (62, -2.05220684409141540527e-01) (63, 1.07576243579387664795e-01) (64, -2.23505690693855285645e-01) (65, 1.73534363508224487305e-01) (66, 1.33497223258018493652e-01) (67, 9.26339924335479736328e-02) (68, 6.56544938683509826660e-02) (69, -1.07690393924713134766e-02) (70, -2.25624576210975646973e-01) (71, 4.37244698405265808105e-02) (72, -8.10400471091270446777e-02) (73, 1.85348063707351684570e-01) (74, -1.44750187173485755920e-02) (75, -5.73314547538757324219e-01) (76, 7.63905188068747520447e-03) (77, 1.67035788297653198242e-01) (78, 3.44858407974243164062e-01) (79, -9.22320112586021423340e-02) (80, 7.85334631800651550293e-02) (81, -1.53896547853946685791e-02) (82, 1.55419051647186279297e-01) (83, -1.41765130683779716492e-02) (84, -2.15180367231369018555e-01) (85, 4.11078810691833496094e-01) (86, -1.58522471785545349121e-01) (87, 3.07348966598510742188e-01) (88, -1.98969632387161254883e-01) (89, -1.45398303866386413574e-01) (90, 4.84187453985214233398e-02) (91, -3.46872299909591674805e-01) (92, 2.04415947198867797852e-01) (93, -8.57171416282653808594e-02) (94, -2.64805136248469352722e-03) (95, 3.60592566430568695068e-02) (96, 7.19169080257415771484e-02) (97, 1.66440293192863464355e-01) (98, 1.32454061508178710938e+00) (99, 2.53639280796051025391e-01) (100, 4.81650307774543762207e-02) (101, 1.25071436166763305664e-01) (102, 1.61146864295005798340e-01) (103, 2.06728577613830566406e-01) (104, -1.15873608738183975220e-02) (105, 1.31287723779678344727e-01) (106, 3.04200444370508193970e-02) (107, 1.15736946463584899902e-01) (108, -2.39780455827713012695e-01) (109, 1.50065407156944274902e-01) (110, -1.49388417601585388184e-01) (111, -2.95940697193145751953e-01) (112, 1.05252070352435112000e-02) (113, -2.05775141716003417969e-01) (114, 4.87313345074653625488e-02) (115, 1.37951970100402832031e-01) (116, 1.58811017870903015137e-01) (117, 3.11184674501419067383e-01) (118, 4.55257236957550048828e-01) (119, 1.52785718441009521484e-01) (120, 4.33807969093322753906e-02) (121, -2.47583203017711639404e-02) (122, 1.01272642612457275391e-01) (123, 1.28699809312820434570e-01) (124, 8.44481140375137329102e-02) (125, 1.44101157784461975098e-01) (126, -4.83154654502868652344e-02) (127, 1.54584318399429321289e-01) (128, -4.74199354648590087891e-01) (129, -6.51319742202758789062e-01) (130, 1.06207124888896942139e-01) (131, -4.55899626016616821289e-01) (132, -4.13223356008529663086e-02) (133, 5.70311620831489562988e-02) (134, 2.06746056675910949707e-01) (135, 1.92017346620559692383e-01) (136, -2.80272103846073150635e-02) (137, 1.14463865756988525391e-01) (138, 7.35198080539703369141e-01) (139, -3.59616614878177642822e-02) (140, -4.66365367174148559570e-02) (141, -2.02595978975296020508e-01) (142, 1.20183922350406646729e-01) (143, 1.51571527123451232910e-01) (144, -3.23298752307891845703e-01) (145, -9.64175686240196228027e-02) (146, -4.10584926605224609375e-01) (147, -1.32925227284431457520e-01) (148, -3.57189804315567016602e-01) (149, 2.24779188632965087891e-01) (150, -9.07479375600814819336e-02) (151, -2.60909080505371093750e-01) (152, 3.43400180339813232422e-01) (153, 8.17504078149795532227e-02) (154, 1.91192984580993652344e-01) (155, -3.19672435522079467773e-01) (156, -8.27773883938789367676e-02) (157, 2.86665499210357666016e-01) (158, 3.16862702369689941406e-01) (159, -8.41354951262474060059e-02) (160, -1.63886100053787231445e-01) (161, 4.78884845972061157227e-01) (162, 1.48075208067893981934e-01) (163, 4.17590916156768798828e-01) (164, 1.54049918055534362793e-01) (165, 4.95849132537841796875e-01) (166, 1.93730801343917846680e-01) (167, 2.98514604568481445312e-01) (168, -1.10782131552696228027e-01) (169, 1.20841152966022491455e-01) (170, -1.19568645954132080078e-01) (171, 2.00050517916679382324e-01) (172, -1.65895625948905944824e-01) (173, -4.15871739387512207031e-02) (174, 1.54566869139671325684e-01) (175, 7.01103448867797851562e-01) (176, 3.41817736625671386719e-01) (177, 1.54359757900238037109e-01) (178, 6.66388213634490966797e-01) (179, -8.37732255458831787109e-02) (180, -9.14762392640113830566e-02) (181, -7.94659927487373352051e-02) (182, 2.13297829031944274902e-02) (183, 2.04934328794479370117e-01) (184, 1.07028912752866744995e-02) (185, 1.35565936565399169922e-01) (186, 1.59631073474884033203e-02) (187, 1.40083715319633483887e-01) (188, -1.02656096220016479492e-01) (189, -1.35811939835548400879e-01) (190, 5.13494014739990234375e-03) (191, -1.34390383958816528320e-01) (192, -8.88018403202295303345e-03) (193, 2.30562195181846618652e-01) (194, 4.46246527135372161865e-02) (195, 1.22543558478355407715e-01) (196, 2.46282648295164108276e-02) (197, 4.24462929368019104004e-02) (198, 1.87420815229415893555e-01) (199, 2.10693657398223876953e-01) (200, 3.09264481067657470703e-01) (0, 9.12656635046005249023e-03) (1, -3.38669419288635253906e-02) (2, 1.00038796663284301758e-01) (3, -3.95649820566177368164e-02) (4, 7.06298202276229858398e-02) (5, 1.32861686870455741882e-02) (6, -1.39877915382385253906e-01) (7, -1.64558216929435729980e-01) (8, -3.13537210226058959961e-01) (9, -5.55764399468898773193e-02) (10, -1.52641935274004936218e-02) (11, 6.14367686212062835693e-02) (12, -4.56581786274909973145e-02) (13, -7.24105536937713623047e-02) (14, 3.72403264045715332031e-02) (15, 1.11835509538650512695e-01) (16, 1.09481392428278923035e-02) (17, 1.97114005684852600098e-01) (18, 6.62842914462089538574e-02) (19, 2.47136294841766357422e-01) (20, -2.09553942084312438965e-01) (21, 1.65277406573295593262e-01) (22, 1.52702433988451957703e-02) (23, 2.62434333562850952148e-01) (24, 1.49275781586766242981e-03) (25, -7.95594751834869384766e-02) (26, 2.27604001760482788086e-01) (27, -1.35395810008049011230e-01) (28, 2.64105331152677536011e-02) (29, -3.21709632873535156250e-01) (30, -2.69454345107078552246e-02) (31, -8.29357057809829711914e-02) (32, 4.49820421636104583740e-02) (33, -1.26673653721809387207e-01) (34, -2.22887322306632995605e-01) (35, -3.92694398760795593262e-02) (36, -2.27159291505813598633e-01) (37, -9.05298348516225814819e-03) (38, 3.08003604412078857422e-01) (39, 1.48189887404441833496e-01) (40, 2.93517559766769409180e-02) (41, -2.47121497988700866699e-01) (42, -7.14305671863257884979e-04) (43, 3.23610067367553710938e-01) (44, 1.39128446578979492188e-01) (45, -4.66515943408012390137e-02) (46, 4.22303169965744018555e-01) (47, -2.09425210952758789062e-01) (48, -2.89831489324569702148e-01) (49, -2.62946840375661849976e-02) (50, -3.66880334913730621338e-02) (51, -7.61056691408157348633e-02) (52, 2.17865556478500366211e-01) (53, -2.68947750329971313477e-01) (54, -1.18017569184303283691e-01) (55, 1.78548190742731094360e-02) (56, -4.50947999954223632812e-01) (57, -6.18425309658050537109e-01) (58, 2.05265790224075317383e-01) (59, -2.55533084273338317871e-02) (60, 9.28970426321029663086e-02) (61, -1.71117689460515975952e-02) (62, 1.32719259709119796753e-02) (63, -3.51509936153888702393e-02) (64, -6.92700445652008056641e-02) (65, -1.06910437345504760742e-01) (66, -3.84075976908206939697e-02) (67, -1.44613236188888549805e-01) (68, -1.92788317799568176270e-01) (69, -3.70937019586563110352e-01) (70, -2.47226729989051818848e-01) (71, 5.27695380151271820068e-02) (72, -1.12548926845192909241e-02) (73, -8.99344459176063537598e-02) (74, -8.94237980246543884277e-02) (75, -3.02165865898132324219e-01) (76, -8.05636718869209289551e-02) (77, -3.28324913978576660156e-01) (78, -1.64228782057762145996e-01) (79, -2.42741405963897705078e-02) (80, 1.59937776625156402588e-02) (81, 1.54864368960261344910e-02) (82, 2.24601045250892639160e-01) (83, 9.93650108575820922852e-02) (84, -2.64984667301177978516e-01) (85, 1.54626861214637756348e-01) (86, 1.18034459650516510010e-01) (87, -2.13042348623275756836e-01) (88, -2.75723695755004882812e-01) (89, -6.29453063011169433594e-01) (90, -2.03523740172386169434e-01) (91, -4.10160534083843231201e-02) (92, 2.62803826481103897095e-02) (93, -3.72861087322235107422e-01) (94, -1.06396615505218505859e-01) (95, 1.32921174168586730957e-01) (96, 1.92316442728042602539e-01) (97, -7.45793357491493225098e-02) (98, -1.45285978913307189941e-01) (99, 7.68100097775459289551e-02) (100, 8.52607656270265579224e-03) (101, 1.59180611371994018555e-01) (102, 2.97006458044052124023e-01) (103, 1.67288273572921752930e-01) (104, 2.91975978761911392212e-02) (105, 1.59629806876182556152e-01) (106, -3.16136293113231658936e-02) (107, -1.32214680314064025879e-01) (108, -1.57167926430702209473e-01) (109, 1.11686021089553833008e-01) (110, -5.56192435324192047119e-02) (111, -1.84951648116111755371e-01) (112, 9.72979366779327392578e-02) (113, 1.18423908948898315430e-01) (114, -8.76584798097610473633e-02) (115, 2.37711220979690551758e-02) (116, 2.18096017837524414062e-01) (117, 2.01806277036666870117e-01) (118, 6.69599249958992004395e-02) (119, -1.15519046783447265625e-01) (120, -1.69378165155649185181e-02) (121, 1.59355506300926208496e-01) (122, -6.51181861758232116699e-02) (123, -5.41856512427330017090e-02) (124, 4.43738661706447601318e-02) (125, -1.24894576147198677063e-02) (126, -2.55241151899099349976e-02) (127, -6.67360499501228332520e-02) (128, -1.74894839525222778320e-01) (129, -6.37509822845458984375e-01) (130, -1.87639936804771423340e-01) (131, -7.92607963085174560547e-02) (132, -2.33587116003036499023e-01) (133, 1.66437104344367980957e-02) (134, 4.29147258400917053223e-02) (135, -2.17499747872352600098e-01) (136, 2.54071950912475585938e-02) (137, -3.18550318479537963867e-02) (138, 5.33056080341339111328e-01) (139, 1.33054628968238830566e-01) (140, -2.17506065964698791504e-02) (141, 7.05785825848579406738e-02) (142, 1.35547682642936706543e-01) (143, 9.11505520343780517578e-02) (144, -1.56170517206192016602e-01) (145, 4.83323559165000915527e-02) (146, -3.71661245822906494141e-01) (147, 5.32595114782452583313e-03) (148, -9.27818715572357177734e-02) (149, -1.55368119478225708008e-01) (150, 5.47322094440460205078e-01) (151, 1.54759526252746582031e-01) (152, 4.89051431417465209961e-01) (153, 8.74931290745735168457e-02) (154, 2.35312096774578094482e-02) (155, -2.08625778555870056152e-01) (156, -2.57763653993606567383e-01) (157, -2.06797286868095397949e-01) (158, 3.35968984290957450867e-03) (159, 1.28007367253303527832e-01) (160, 6.05380046181380748749e-04) (161, -4.48968447744846343994e-02) (162, -6.71000182628631591797e-02) (163, -8.14301613718271255493e-03) (164, -2.93567180633544921875e-01) (165, 2.21040517091751098633e-01) (166, -3.74220460653305053711e-01) (167, -1.43390640616416931152e-01) (168, 5.52460327744483947754e-02) (169, 5.28433382511138916016e-01) (170, 5.54453544318675994873e-02) (171, 4.31846439838409423828e-01) (172, 4.12812888622283935547e-01) (173, 6.66541457176208496094e-01) (174, 3.93584251403808593750e-01) (175, 5.25555729866027832031e-01) (176, 8.64349782466888427734e-01) (177, -1.19787249714136123657e-02) (178, 5.67940883338451385498e-02) (179, -1.91384628415107727051e-01) (180, 4.87199276685714721680e-02) (181, -3.73540748842060565948e-03) (182, -9.06252767890691757202e-03) (183, -4.00228574872016906738e-02) (184, 3.19475233554840087891e-02) (185, -3.00902426242828369141e-02) (186, -9.25103053450584411621e-02) (187, 1.64865832775831222534e-02) (188, -3.22352629154920578003e-03) (189, -5.50154037773609161377e-02) (190, 8.45372751355171203613e-02) (191, 2.12958808988332748413e-02) (192, -9.71450097858905792236e-03) (193, -5.25282621383666992188e-02) (194, -3.81002984941005706787e-02) (195, 7.04309344291687011719e-02) (196, 2.36114356666803359985e-02) (197, 9.16136503219604492188e-02) (198, 3.85335832834243774414e-01) (199, -4.99721243977546691895e-02) (200, -1.82545572519302368164e-01) (0, 9.81298163533210754395e-02) (1, -9.26049798727035522461e-03) (2, -7.45067372918128967285e-02) (3, 7.95070454478263854980e-02) (4, -2.02150456607341766357e-02) (5, -9.08751413226127624512e-02) (6, -1.77503943443298339844e-01) (7, 1.49378058267757296562e-04) (8, -1.13073274493217468262e-01) (9, -3.69615666568279266357e-02) (10, 1.05914458632469177246e-01) (11, 1.47512823343276977539e-01) (12, -4.15283348411321640015e-03) (13, 2.11810953915119171143e-02) (14, 2.46415540575981140137e-01) (15, 1.84367243200540542603e-02) (16, 1.03043459355831146240e-01) (17, 3.81812602281570434570e-01) (18, 1.91132947802543640137e-01) (19, -1.08624503016471862793e-01) (20, 1.00827611982822418213e-01) (21, 9.79518424719572067261e-03) (22, -1.12572416663169860840e-01) (23, -6.87708184123039245605e-02) (24, 5.72470342740416526794e-03) (25, -2.10338328033685684204e-02) (26, -1.43244042992591857910e-01) (27, -1.91717445850372314453e-01) (28, -3.26169043779373168945e-01) (29, -5.72619974613189697266e-01) (30, -2.51444689929485321045e-02) (31, 4.85326685011386871338e-02) (32, 1.14073418080806732178e-01) (33, -8.39145556092262268066e-02) (34, 2.21397336572408676147e-02) (35, 1.07234373688697814941e-01) (36, 2.70076066255569458008e-01) (37, 2.57835477590560913086e-01) (38, -6.29135444760322570801e-02) (39, -8.45014005899429321289e-02) (40, -6.85452595353126525879e-02) (41, 1.72412410378456115723e-01) (42, 1.74807354807853698730e-01) (43, -2.09370151162147521973e-01) (44, -1.39360660687088966370e-02) (45, 5.73158450424671173096e-02) (46, -1.39414906501770019531e-01) (47, -9.65183973312377929688e-03) (48, 1.30503783002495765686e-02) (49, -1.85748174786567687988e-01) (50, -3.61351400613784790039e-01) (51, 3.11251711100339889526e-02) (52, 1.14959180355072021484e-01) (53, 4.42616529762744903564e-02) (54, 1.84748977422714233398e-01) (55, -1.63281708955764770508e-02) (56, 4.02388781309127807617e-01) (57, 4.06098335981369018555e-01) (58, -6.02776557207107543945e-02) (59, -1.81587543338537216187e-02) (60, 7.51326307654380798340e-02) (61, 2.58621007204055786133e-01) (62, 1.95864737033843994141e-01) (63, -1.69874608516693115234e-01) (64, 3.19829434156417846680e-02) (65, 8.97542312741279602051e-02) (66, 1.18583310395479202271e-02) (67, 7.30641782283782958984e-02) (68, 7.78575167059898376465e-02) (69, 2.73154854774475097656e-01) (70, 8.15220996737480163574e-02) (71, 1.25332161784172058105e-01) (72, 3.38106662034988403320e-01) (73, 3.84955346584320068359e-01) (74, 7.35123604536056518555e-02) (75, -2.33057197183370590210e-02) (76, -1.27972617745399475098e-01) (77, -8.47517140209674835205e-03) (78, -1.96662083268165588379e-01) (79, 3.94826717674732208252e-02) (80, -6.52156025171279907227e-02) (81, 3.43367069959640502930e-01) (82, 1.12023286521434783936e-01) (83, -2.42627207189798355103e-02) (84, 4.25291776657104492188e-01) (85, -7.75377750396728515625e-02) (86, 3.09006571769714355469e-01) (87, -8.75807851552963256836e-02) (88, -1.52078747749328613281e-01) (89, 3.43910664319992065430e-01) (90, 1.10958382487297058105e-01) (91, -5.77959977090358734131e-02) (92, 1.57695382833480834961e-01) (93, 2.57737457752227783203e-01) (94, 1.31034061312675476074e-01) (95, 2.24239766597747802734e-01) (96, -6.21766271069645881653e-03) (97, -4.81535568833351135254e-02) (98, -4.23638314008712768555e-01) (99, -1.44271984696388244629e-01) (100, -7.87109602242708206177e-03) (101, 1.79024949669837951660e-01) (102, 4.24582995474338531494e-02) (103, -4.97447364032268524170e-02) (104, 2.89209246635437011719e-01) (105, -7.87978693842887878418e-02) (106, -1.43748419359326362610e-02) (107, -2.19286486506462097168e-01) (108, 2.03191041946411132812e-01) (109, -1.17150358855724334717e-02) (110, 2.11446210741996765137e-01) (111, 2.52019584178924560547e-01) (112, 2.17035934329032897949e-02) (113, 9.89587903022766113281e-02) (114, -3.67552675306797027588e-02) (115, 1.02097116410732269287e-01) (116, -6.89693018794059753418e-02) (117, 4.17775735259056091309e-02) (118, 4.85142245888710021973e-02) (119, -5.51471412181854248047e-02) (120, 8.44698771834373474121e-02) (121, 2.13406503200531005859e-01) (122, 1.08090182766318321228e-02) (123, -1.96927174925804138184e-01) (124, 1.97825849056243896484e-01) (125, 1.26140877604484558105e-01) (126, -1.40478178858757019043e-01) (127, 5.77382668852806091309e-02) (128, 3.99287343025207519531e-02) (129, -7.52909407019615173340e-02) (130, 4.64652432128787040710e-03) (131, -7.39323049783706665039e-02) (132, 1.90172269940376281738e-01) (133, 1.72804802656173706055e-01) (134, -2.00745791196823120117e-01) (135, 2.03257054090499877930e-01) (136, -2.73848652839660644531e-01) (137, -3.96742582321166992188e-01) (138, 1.72534853219985961914e-01) (139, -3.84233705699443817139e-02) (140, -7.05124959349632263184e-02) (141, 2.40901578217744827271e-02) (142, 1.65028031915426254272e-02) (143, 3.53813856840133666992e-01) (144, 2.47314691543579101562e-01) (145, 2.52303898334503173828e-01) (146, 2.22268030047416687012e-01) (147, -9.31741576641798019409e-03) (148, 1.87225326895713806152e-01) (149, -2.96753030270338058472e-02) (150, -1.89387798309326171875e-01) (151, -2.86469280719757080078e-01) (152, -1.21624484658241271973e-01) (153, 2.35890783369541168213e-02) (154, 7.56533071398735046387e-02) (155, 4.46418970823287963867e-02) (156, 4.22522962093353271484e-01) (157, 1.95749506354331970215e-01) (158, 1.03171251714229583740e-01) (159, 1.14489965140819549561e-01) (160, -1.22264228761196136475e-01) (161, -5.65047636628150939941e-02) (162, -2.26530451327562332153e-02) (163, -3.34459125995635986328e-01) (164, 2.81040459871292114258e-01) (165, -1.65415570139884948730e-01) (166, -5.13047091662883758545e-02) (167, 1.11208051443099975586e-01) (168, 4.23704981803894042969e-02) (169, -1.67948633432388305664e-01) (170, -3.63196909427642822266e-01) (171, -3.55514883995056152344e-01) (172, -2.19909623265266418457e-01) (173, -6.20212517678737640381e-02) (174, -9.50487256050109863281e-02) (175, 1.66350677609443664551e-01) (176, -4.78243947029113769531e-01) (177, -4.52852755784988403320e-01) (178, -2.31143236160278320312e-01) (179, 1.88913308084011077881e-02) (180, -9.18050184845924377441e-02) (181, 4.08110693097114562988e-02) (182, 8.99046137928962707520e-02) (183, 7.10017681121826171875e-02) (184, -1.56188279390335083008e-01) (185, 2.46410891413688659668e-02) (186, 3.35073843598365783691e-02) (187, 3.72348688542842864990e-02) (188, 1.07846565544605255127e-01) (189, -9.49220061302185058594e-02) (190, 1.24709315598011016846e-01) (191, -1.07989303767681121826e-01) (192, -1.14664405584335327148e-01) (193, 3.23815606534481048584e-02) (194, 1.95109117776155471802e-02) (195, -1.09251677989959716797e-01) (196, 1.30571033805608749390e-02) (197, -9.26547423005104064941e-02) (198, -5.24057686328887939453e-01) (199, -1.07723437249660491943e-01) (200, -2.80858933925628662109e-01) (0, 7.20460638403892517090e-02) (1, 8.71661212295293807983e-03) (2, 7.40156322717666625977e-02) (3, 4.63966354727745056152e-02) (4, 8.60254913568496704102e-02) (5, -9.68415364623069763184e-02) (6, -1.63070484995841979980e-01) (7, 1.41532197594642639160e-01) (8, 4.52069565653800964355e-02) (9, 2.32517987489700317383e-01) (10, 1.63546621799468994141e-01) (11, 2.37123463302850723267e-02) (12, 6.45659491419792175293e-02) (13, 6.37111887335777282715e-02) (14, 1.58036634325981140137e-01) (15, -1.63403507322072982788e-02) (16, -1.54221117496490478516e-01) (17, 7.49236941337585449219e-02) (18, 2.08291247487068176270e-01) (19, 4.12789791822433471680e-01) (20, -8.96349828690290451050e-03) (21, -3.44360172748565673828e-02) (22, -9.79436188936233520508e-02) (23, -1.81994959712028503418e-02) (24, 4.06547077000141143799e-02) (25, 2.00001955032348632812e-01) (26, 3.86735908687114715576e-02) (27, -6.96859881281852722168e-02) (28, 1.78073754068464040756e-03) (29, 8.40217247605323791504e-02) (30, 1.84310004115104675293e-01) (31, -3.59360836446285247803e-02) (32, 2.59690076112747192383e-01) (33, 1.07139110565185546875e-01) (34, 4.09212149679660797119e-02) (35, 2.23544742912054061890e-02) (36, -1.13724656403064727783e-01) (37, -1.35137230157852172852e-01) (38, 6.90070316195487976074e-02) (39, 2.44421008974313735962e-02) (40, 1.23182777315378189087e-02) (41, -2.85616721957921981812e-02) (42, -1.62385001778602600098e-01) (43, -6.65527135133743286133e-02) (44, -3.77678245306015014648e-01) (45, -8.53392332792282104492e-02) (46, -8.03883746266365051270e-02) (47, 1.39294192194938659668e-01) (48, 1.18089795112609863281e-01) (49, -1.70611992478370666504e-01) (50, 1.96115359663963317871e-01) (51, 1.20417691767215728760e-01) (52, 1.82852774858474731445e-01) (53, 7.02235102653503417969e-02) (54, 4.67424802482128143311e-02) (55, 1.50140970945358276367e-01) (56, -2.24886029958724975586e-01) (57, -2.66953945159912109375e-01) (58, 1.66535779833793640137e-01) (59, -4.80770617723464965820e-02) (60, 8.47843438386917114258e-02) (61, -1.39960229396820068359e-01) (62, -1.82003140449523925781e-01) (63, -1.44267648458480834961e-01) (64, -2.65322774648666381836e-01) (65, -2.46461927890777587891e-01) (66, -4.44067209959030151367e-01) (67, 2.62155026197433471680e-01) (68, 3.85588034987449645996e-02) (69, 8.32466483116149902344e-02) (70, -8.80232527852058410645e-02) (71, 3.59053835272789001465e-02) (72, -8.48371461033821105957e-02) (73, -2.94539958238601684570e-01) (74, 3.77519577741622924805e-02) (75, -2.71218776702880859375e-01) (76, -2.68969416618347167969e-01) (77, -1.24415278434753417969e-01) (78, -2.50984053127467632294e-03) (79, -9.03189927339553833008e-02) (80, -9.05021727085113525391e-02) (81, -3.22633981704711914062e-01) (82, -1.56428337097167968750e-01) (83, -3.83470743894577026367e-01) (84, -5.96025884151458740234e-01) (85, -2.22023621201515197754e-01) (86, -3.20915788412094116211e-01) (87, -2.19576627016067504883e-01) (88, -2.23163738846778869629e-01) (89, -2.63423472642898559570e-01) (90, 2.98851996660232543945e-01) (91, -3.93457710742950439453e-01) (92, 4.47151996195316314697e-02) (93, -4.76177036762237548828e-01) (94, -5.13155721127986907959e-02) (95, -1.51877691969275474548e-02) (96, 4.33201752603054046631e-02) (97, 1.18778206408023834229e-01) (98, 3.21567654609680175781e-01) (99, 1.89392790198326110840e-02) (100, 3.55615653097629547119e-02) (101, -1.80126413702964782715e-01) (102, -1.31460100412368774414e-01) (103, -1.46439641714096069336e-01) (104, -4.89124990999698638916e-02) (105, -1.11779525876045227051e-01) (106, -1.67159780859947204590e-01) (107, -3.59894901514053344727e-01) (108, -4.81677092611789703369e-02) (109, -1.71481534838676452637e-01) (110, -3.65472644567489624023e-01) (111, -6.70208185911178588867e-02) (112, 6.79747909307479858398e-02) (113, -1.90338231623172760010e-02) (114, 3.41154355555772781372e-03) (115, 1.93545043468475341797e-01) (116, 7.57051631808280944824e-02) (117, 1.13723166286945343018e-01) (118, 1.50214031338691711426e-01) (119, -1.18689909577369689941e-01) (120, -3.89737188816070556641e-02) (121, -1.45081430673599243164e-01) (122, -1.91764801740646362305e-01) (123, -1.50946259498596191406e-01) (124, -3.18497598171234130859e-01) (125, -1.93396300077438354492e-01) (126, -2.47459076344966888428e-02) (127, -1.59131571650505065918e-01) (128, -1.46317388862371444702e-03) (129, -3.12022477388381958008e-01) (130, -9.27278865128755569458e-03) (131, 5.24147972464561462402e-02) (132, 1.07045657932758331299e-01) (133, -3.92182879149913787842e-02) (134, 2.59422034025192260742e-01) (135, -2.90591269731521606445e-02) (136, -1.30708277225494384766e-01) (137, -3.69004048407077789307e-02) (138, 6.06602191925048828125e-01) (139, 9.14022698998451232910e-02) (140, -3.27624706551432609558e-03) (141, 8.48973635584115982056e-03) (142, -1.09705857932567596436e-01) (143, -5.88864803314208984375e-01) (144, -3.32396537065505981445e-01) (145, -4.65714544057846069336e-01) (146, -4.23527121543884277344e-01) (147, -1.36252433061599731445e-01) (148, 8.05245116353034973145e-02) (149, -1.95250660181045532227e-01) (150, 3.15057158470153808594e-01) (151, 2.67448931932449340820e-01) (152, 1.92720144987106323242e-01) (153, 8.62396806478500366211e-02) (154, -6.11830241978168487549e-02) (155, 6.80800946429371833801e-03) (156, -3.66105228662490844727e-01) (157, -1.97625175118446350098e-01) (158, 4.16601985692977905273e-01) (159, 2.69872725009918212891e-01) (160, 2.81046740710735321045e-02) (161, 8.18922296166419982910e-02) (162, 1.01009264588356018066e-01) (163, 8.33030194044113159180e-02) (164, -1.07280105352401733398e-01) (165, -1.66741944849491119385e-02) (166, -2.41609334945678710938e-01) (167, -4.01532083749771118164e-01) (168, 1.94863392971456050873e-03) (169, 3.33628952503204345703e-01) (170, 1.18466205894947052002e-01) (171, 8.00234079360961914062e-02) (172, 2.67912715673446655273e-01) (173, 3.24000492691993713379e-02) (174, 2.30653211474418640137e-01) (175, 2.98619449138641357422e-01) (176, 5.44289648532867431641e-01) (177, 1.39663696289062500000e-01) (178, 1.02257594466209411621e-01) (179, -9.69772934913635253906e-02) (180, -1.01536743342876434326e-01) (181, -4.00121174752712249756e-02) (182, 2.16084648855030536652e-03) (183, 1.65907442569732666016e-02) (184, 7.07284361124038696289e-02) (185, -1.50362938642501831055e-01) (186, 7.59515911340713500977e-03) (187, -1.36149451136589050293e-01) (188, -5.80983683466911315918e-02) (189, -2.07921922206878662109e-01) (190, 9.06169228255748748779e-03) (191, 9.81616005301475524902e-02) (192, -1.23817503452301025391e-01) (193, 1.50087242946028709412e-03) (194, -5.64043521881103515625e-02) (195, -1.36710107326507568359e-02) (196, -7.94604346156120300293e-02) (197, 2.41302233189344406128e-03) (198, 3.41142624616622924805e-01) (199, -1.42196580767631530762e-01) (200, 3.81538905203342437744e-02) (0, 4.20504063367843627930e-02) (1, -3.23132425546646118164e-02) (2, 6.52796700596809387207e-02) (3, 1.67087584733963012695e-01) (4, 1.99300080537796020508e-01) (5, 1.18605114519596099854e-01) (6, 1.27286374568939208984e-01) (7, 1.76537334918975830078e-01) (8, 2.73503214120864868164e-01) (9, 3.01780402660369873047e-01) (10, 7.11091682314872741699e-02) (11, 8.22982098907232284546e-03) (12, 7.68752396106719970703e-02) (13, 1.37132508680224418640e-02) (14, 6.33560568094253540039e-02) (15, 1.94804906845092773438e-01) (16, 1.06595449149608612061e-01) (17, -3.57331298291683197021e-02) (18, -3.49313616752624511719e-02) (19, 5.50881847739219665527e-02) (20, 8.40049535036087036133e-02) (21, 1.42810985445976257324e-01) (22, 1.45211234688758850098e-01) (23, 7.24206492304801940918e-02) (24, 1.21505849063396453857e-01) (25, -1.24196723103523254395e-01) (26, 3.39540451765060424805e-01) (27, 1.97879523038864135742e-01) (28, 2.09466248750686645508e-01) (29, 4.81329560279846191406e-01) (30, 1.04351997375488281250e-01) (31, -7.22475871443748474121e-02) (32, 2.09705695509910583496e-01) (33, -6.68822613079100847244e-04) (34, 1.86866849660873413086e-01) (35, 2.95758336782455444336e-01) (36, -2.08571314811706542969e-01) (37, 4.22359853982925415039e-01) (38, -9.92026031017303466797e-02) (39, 7.82813951373100280762e-02) (40, -3.71517948806285858154e-02) (41, 8.11740756034851074219e-02) (42, 1.47482305765151977539e-01) (43, -4.07585315406322479248e-03) (44, 2.98207104206085205078e-01) (45, -1.70500040054321289062e-01) (46, 4.02063220739364624023e-01) (47, -1.61477088928222656250e-01) (48, -1.35457247495651245117e-01) (49, -3.17508727312088012695e-02) (50, 2.10772320628166198730e-01) (51, 1.31165593862533569336e-01) (52, 1.88902154564857482910e-01) (53, 1.13072320818901062012e-01) (54, 1.59166872501373291016e-01) (55, 3.94508808851242065430e-01) (56, 2.91965097188949584961e-01) (57, -2.45814815163612365723e-01) (58, -3.00486296415328979492e-01) (59, 5.46702044084668159485e-03) (60, 1.00673705339431762695e-01) (61, 7.11028799414634704590e-02) (62, 1.63438662886619567871e-01) (63, 1.69142872095108032227e-01) (64, 1.20324961841106414795e-01) (65, -1.00841484963893890381e-01) (66, 1.80878445506095886230e-01) (67, -1.65927887428551912308e-03) (68, -8.91915857791900634766e-02) (69, -1.68892979621887207031e-01) (70, 1.41435876488685607910e-01) (71, 1.42515361309051513672e-01) (72, 1.68675705790519714355e-01) (73, 1.38748049736022949219e-01) (74, -1.24238312244415283203e-01) (75, -2.99867421388626098633e-01) (76, -1.63708940148353576660e-01) (77, 9.45335254073143005371e-02) (78, 5.25070205330848693848e-02) (79, -1.34412497282028198242e-01) (80, 6.93185552954673767090e-02) (81, 3.54308277368545532227e-01) (82, 1.67873203754425048828e-01) (83, 2.03814700245857238770e-01) (84, 3.20743948221206665039e-01) (85, -1.56187117099761962891e-01) (86, 1.14901887718588113785e-03) (87, -1.48689433932304382324e-01) (88, 1.35449618101119995117e-01) (89, -2.49442264437675476074e-01) (90, -3.41867059469223022461e-01) (91, 2.50640153884887695312e-01) (92, -5.95547771081328392029e-03) (93, -6.09301626682281494141e-02) (94, 8.55208933353424072266e-03) (95, 1.82673215866088867188e-01) (96, 1.05229586362838745117e-01) (97, -3.41464310884475708008e-01) (98, 2.16786578297615051270e-01) (99, 1.19062280282378196716e-02) (100, 2.51989215612411499023e-02) (101, 6.22243955731391906738e-02) (102, 1.94573163986206054688e-01) (103, 1.83988302946090698242e-01) (104, -7.57571235299110412598e-02) (105, 1.39212831854820251465e-01) (106, 3.57863940298557281494e-02) (107, 4.49382737278938293457e-02) (108, -1.98927205055952072144e-02) (109, -1.58321276307106018066e-01) (110, -2.03713491559028625488e-01) (111, -8.10646191239356994629e-02) (112, 5.87803721427917480469e-02) (113, -4.51431386172771453857e-02) (114, -2.87997007369995117188e-01) (115, 1.83081209659576416016e-01) (116, 1.68592140078544616699e-01) (117, 4.07480411231517791748e-02) (118, -7.37100793048739433289e-03) (119, 9.56446006894111633301e-02) (120, 6.18769116699695587158e-02) (121, 2.00814470648765563965e-01) (122, -3.08637972921133041382e-02) (123, 7.91751518845558166504e-02) (124, -1.27505823969841003418e-01) (125, 5.84329366683959960938e-02) (126, -4.89233359694480895996e-02) (127, -3.34730185568332672119e-02) (128, -1.17656728252768516541e-02) (129, -1.39624089002609252930e-01) (130, 4.44193817675113677979e-02) (131, -5.41268549859523773193e-02) (132, -6.92080780863761901855e-02) (133, 7.92419984936714172363e-02) (134, -1.18425898253917694092e-01) (135, -6.97926729917526245117e-02) (136, 9.21883657574653625488e-02) (137, 1.60140886902809143066e-01) (138, 5.85383117198944091797e-01) (139, -4.57598119974136352539e-02) (140, -1.06968194246292114258e-01) (141, 5.53292706608772277832e-02) (142, 1.78970731794834136963e-02) (143, -6.65465816855430603027e-02) (144, 1.82169452309608459473e-01) (145, 5.13713918626308441162e-02) (146, 5.01558557152748107910e-02) (147, -1.22374802827835083008e-01) (148, 3.39728482067584991455e-02) (149, 1.47013783454895019531e-01) (150, -9.34885442256927490234e-02) (151, 2.26699963212013244629e-01) (152, 5.32456226646900177002e-02) (153, -1.48529306054115295410e-01) (154, 1.45428150892257690430e-01) (155, 1.63575023412704467773e-01) (156, 1.53193622827529907227e-01) (157, -1.04788579046726226807e-01) (158, 2.88867652416229248047e-01) (159, 1.81003108620643615723e-01) (160, -1.40614762902259826660e-01) (161, -3.40368419885635375977e-01) (162, -1.20749451220035552979e-01) (163, 7.46148973703384399414e-02) (164, -1.35110586881637573242e-01) (165, 2.59792357683181762695e-01) (166, -4.40953105688095092773e-01) (167, -1.75589233636856079102e-01) (168, -2.87341386079788208008e-01) (169, -8.82539451122283935547e-02) (170, -1.93951562047004699707e-01) (171, 5.46768493950366973877e-02) (172, 6.86321705579757690430e-02) (173, 1.79023474454879760742e-01) (174, 8.65978151559829711914e-02) (175, 2.59915977716445922852e-01) (176, -3.36803406476974487305e-01) (177, -3.23458105325698852539e-01) (178, 6.78275585174560546875e-01) (179, 1.68363098055124282837e-02) (180, 7.16452971100807189941e-02) (181, -7.50434473156929016113e-02) (182, 5.76677843928337097168e-02) (183, -5.36243058741092681885e-02) (184, -9.55180730670690536499e-03) (185, -1.20063625276088714600e-01) (186, 1.01026907563209533691e-01) (187, -2.01326042413711547852e-01) (188, 3.90283763408660888672e-02) (189, -7.34593495726585388184e-02) (190, 4.79099638760089874268e-02) (191, -5.74316270649433135986e-02) (192, 1.16917885839939117432e-01) (193, -1.91085860133171081543e-02) (194, 1.05798505246639251709e-01) (195, -3.51172983646392822266e-02) (196, -1.06962295249104499817e-02) (197, -2.96477407217025756836e-01) (198, -1.04338854551315307617e-01) (199, 3.15812267363071441650e-02) (200, -1.21652536094188690186e-01) (0, 1.13450370728969573975e-01) (1, 4.83823157846927642822e-02) (2, 1.23223304748535156250e-01) (3, -6.25201240181922912598e-02) (4, 5.01214638352394104004e-02) (5, -6.02770596742630004883e-02) (6, 9.06170979142189025879e-02) (7, 1.78446590900421142578e-01) (8, 1.68513312935829162598e-01) (9, 1.16246290504932403564e-01) (10, -9.77012142539024353027e-02) (11, -1.07566334307193756104e-01) (12, -9.77670177817344665527e-02) (13, -1.31408929824829101562e-01) (14, -2.12867811322212219238e-01) (15, -1.60169839859008789062e-01) (16, -1.13805204629898071289e-01) (17, -1.19334191549569368362e-03) (18, 2.15554147958755493164e-01) (19, -1.32480934262275695801e-01) (20, 1.19268886744976043701e-01) (21, -6.79752901196479797363e-02) (22, -1.88707727938890457153e-02) (23, -3.43198627233505249023e-01) (24, -4.13444697856903076172e-01) (25, 1.16908072959631681442e-03) (26, -2.85989463329315185547e-01) (27, -8.85563045740127563477e-02) (28, 6.30148947238922119141e-02) (29, -9.76044535636901855469e-02) (30, -4.43565957248210906982e-02) (31, 2.44912244379520416260e-02) (32, -2.29468017816543579102e-01) (33, 1.07303960248827934265e-02) (34, -2.19828728586435317993e-02) (35, 5.99831454455852508545e-02) (36, 1.78656071424484252930e-01) (37, -2.77706205844879150391e-01) (38, 9.31149348616600036621e-02) (39, -9.87382233142852783203e-02) (40, 7.96355307102203369141e-02) (41, 7.78286345303058624268e-03) (42, -2.47128665447235107422e-01) (43, -2.14161485433578491211e-01) (44, -3.73805791139602661133e-01) (45, 5.89041523635387420654e-02) (46, 2.40544393658638000488e-01) (47, -2.66821905970573425293e-02) (48, 1.17578297853469848633e-01) (49, 4.58968073129653930664e-01) (50, 1.21471226215362548828e-01) (51, -1.64910510182380676270e-01) (52, -8.14339444041252136230e-02) (53, -8.17073974758386611938e-03) (54, 9.62773617357015609741e-03) (55, -3.44246745109558105469e-01) (56, 7.64390975236892700195e-02) (57, 2.89536476135253906250e-01) (58, 2.70805567502975463867e-01) (59, 3.09962723404169082642e-02) (60, -9.58600416779518127441e-02) (61, -1.44097372889518737793e-01) (62, -9.64324325323104858398e-02) (63, 7.54653569310903549194e-03) (64, -2.14473024010658264160e-01) (65, 2.53731250762939453125e-01) (66, 7.85646140575408935547e-02) (67, -6.26070499420166015625e-02) (68, 8.46812650561332702637e-02) (69, 3.69361788034439086914e-02) (70, 2.81526744365692138672e-01) (71, 2.85723924636840820312e-01) (72, 3.44879657030105590820e-01) (73, 6.89462274312973022461e-02) (74, 2.49621435999870300293e-01) (75, 3.16908568143844604492e-01) (76, 1.88481211662292480469e-01) (77, -1.27905771136283874512e-01) (78, 1.96854144334793090820e-01) (79, 6.63280487060546875000e-02) (80, -2.54514589905738830566e-02) (81, -1.95238173007965087891e-01) (82, -4.33227807283401489258e-01) (83, -3.12875062227249145508e-01) (84, 2.30636566877365112305e-01) (85, -3.95651847124099731445e-01) (86, 3.04856687784194946289e-01) (87, -2.05444823950529098511e-02) (88, -4.23552617430686950684e-02) (89, 1.31740367412567138672e+00) (90, 4.16685909032821655273e-01) (91, 7.17300623655319213867e-02) (92, 3.84080827236175537109e-01) (93, 4.19190526008605957031e-01) (94, 3.02426278591156005859e-01) (95, -7.10272361175157129765e-05) (96, 1.90203785896301269531e-01) (97, 6.27861591055989265442e-03) (98, -4.07918810844421386719e-01) (99, -9.87284481525421142578e-02) (100, -1.39409955590963363647e-03) (101, 1.61646772176027297974e-02) (102, -3.17289799451828002930e-01) (103, -2.17238068580627441406e-01) (104, 2.36625410616397857666e-02) (105, -4.03491258621215820312e-01) (106, 2.33419597148895263672e-01) (107, 1.63814350962638854980e-01) (108, 1.57358929514884948730e-01) (109, 7.42577686905860900879e-02) (110, 5.22794067859649658203e-01) (111, 4.72758144140243530273e-01) (112, 8.00574198365211486816e-02) (113, 9.56453606486320495605e-02) (114, 2.41801030933856964111e-02) (115, -5.00208027660846710205e-02) (116, -1.94307655096054077148e-01) (117, -3.70044559240341186523e-01) (118, -6.25855505466461181641e-01) (119, -1.05347752571105957031e-01) (120, 5.95602691173553466797e-02) (121, -4.85431291162967681885e-02) (122, -1.87722489237785339355e-01) (123, -1.90024152398109436035e-02) (124, -1.10609762370586395264e-01) (125, -3.22849690914154052734e-01) (126, 1.01134054362773895264e-01) (127, 1.55224934220314025879e-01) (128, -1.04229860007762908936e-01) (129, 4.53436493873596191406e-01) (130, 3.52966971695423126221e-02) (131, 4.13075208663940429688e-01) (132, -2.77972836047410964966e-02) (133, 2.15779349207878112793e-01) (134, 1.20118167251348495483e-02) (135, 2.15768273919820785522e-02) (136, -7.48274251818656921387e-02) (137, 3.57812702655792236328e-01) (138, -8.67293059825897216797e-01) (139, -8.65641832351684570312e-02) (140, 4.26521785557270050049e-02) (141, 5.77112920582294464111e-02) (142, -1.04283109307289123535e-01) (143, -1.63062497973442077637e-01) (144, 3.92499081790447235107e-02) (145, -3.80172818899154663086e-01) (146, 8.53381082415580749512e-02) (147, 1.28398224711418151855e-01) (148, 2.83789992332458496094e-01) (149, 2.82303631305694580078e-01) (150, 2.16117098927497863770e-01) (151, 6.08207173645496368408e-02) (152, -3.26130658388137817383e-01) (153, -9.20994803309440612793e-02) (154, 1.22140888124704360962e-02) (155, -6.24262452125549316406e-01) (156, -2.85975903272628784180e-01) (157, 2.18750178813934326172e-01) (158, -3.93520206212997436523e-01) (159, -1.53218641877174377441e-01) (160, 3.47087174654006958008e-01) (161, 4.83365617692470550537e-02) (162, 1.39785230159759521484e-01) (163, -9.76892486214637756348e-02) (164, 3.96792963147163391113e-02) (165, -1.48504287004470825195e-01) (166, -9.74922627210617065430e-02) (167, -6.08587324619293212891e-01) (168, -2.28677392005920410156e-01) (169, -5.40218949317932128906e-01) (170, -1.09613358974456787109e-01) (171, -8.57058912515640258789e-02) (172, -3.34169268608093261719e-01) (173, -3.87968450784683227539e-01) (174, -3.80436062812805175781e-01) (175, -6.36176586151123046875e-01) (176, -4.02791313827037811279e-02) (177, -2.61581502854824066162e-02) (178, -6.17578685283660888672e-01) (179, -3.26235771179199218750e-01) (180, 1.10457027330994606018e-02) (181, 7.02558178454637527466e-03) (182, 3.01246680319309234619e-02) (183, 9.64591875672340393066e-02) (184, 5.76530992984771728516e-02) (185, 9.52252596616744995117e-02) (186, 4.06529083847999572754e-02) (187, 1.20451003313064575195e-02) (188, 9.10801440477371215820e-02) (189, -2.02192604541778564453e-01) (190, -1.63717463612556457520e-01) (191, -7.06556662917137145996e-02) (192, 1.16722196340560913086e-01) (193, 3.47825465723872184753e-03) (194, -3.88419255614280700684e-02) (195, -6.31287470459938049316e-02) (196, -7.49390944838523864746e-02) (197, 1.38253465294837951660e-01) (198, -1.43408969044685363770e-01) (199, 2.43427362293004989624e-02) (200, -6.16972148418426513672e-01) (0, 6.53252974152565002441e-02) (1, 3.05444076657295227051e-02) (2, 7.71187618374824523926e-02) (3, -1.58492773771286010742e-02) (4, 1.32878616452217102051e-01) (5, 1.07088819146156311035e-01) (6, -7.51609653234481811523e-02) (7, 6.00872635841369628906e-02) (8, 1.19282647967338562012e-01) (9, 7.41937607526779174805e-02) (10, 5.58272097259759902954e-03) (11, 6.79655745625495910645e-02) (12, 1.81816011667251586914e-01) (13, 3.03731203079223632812e-01) (14, 1.49400964379310607910e-01) (15, 6.18905127048492431641e-02) (16, -2.09629593882709741592e-04) (17, 8.41292589902877807617e-02) (18, 2.22035292536020278931e-02) (19, 7.60740041732788085938e-02) (20, 2.18337513506412506104e-02) (21, 7.61961713433265686035e-02) (22, 5.19414432346820831299e-02) (23, 1.77371039986610412598e-01) (24, 1.36013746261596679688e-01) (25, 1.20281107723712921143e-01) (26, 3.76144111156463623047e-01) (27, -3.87178324162960052490e-02) (28, -6.68111303821206092834e-03) (29, 2.54633784294128417969e-01) (30, 9.05179455876350402832e-02) (31, 2.00485557317733764648e-01) (32, 2.00806275010108947754e-01) (33, 2.03700289130210876465e-01) (34, 1.25772625207901000977e-01) (35, 1.78298026323318481445e-01) (36, 2.44014576077461242676e-01) (37, 6.40652030706405639648e-02) (38, -5.60041368007659912109e-01) (39, 4.67380993068218231201e-02) (40, -9.90207865834236145020e-02) (41, 2.19106853008270263672e-01) (42, -3.90047281980514526367e-02) (43, 1.36329665780067443848e-01) (44, 1.61040499806404113770e-02) (45, -6.41320198774337768555e-02) (46, -2.14541450142860412598e-01) (47, 1.50631666183471679688e-01) (48, 1.92729011178016662598e-02) (49, -6.41285926103591918945e-02) (50, -3.55803035199642181396e-02) (51, 5.81400208175182342529e-02) (52, 2.02495437115430831909e-02) (53, -9.02453660964965820312e-02) (54, -1.49590251967310905457e-02) (55, 1.32092863321304321289e-01) (56, -1.09942266717553138733e-02) (57, -1.38565316796302795410e-01) (58, 5.66269503906369209290e-03) (59, -1.78007420618087053299e-03) (60, 6.24404661357402801514e-02) (61, -5.75944818556308746338e-02) (62, -1.66961148381233215332e-01) (63, 1.69730186462402343750e-01) (64, -1.16125680506229400635e-01) (65, -5.68946786224842071533e-02) (66, -3.04659027606248855591e-02) (67, -1.04856163263320922852e-01) (68, 1.20212100446224212646e-01) (69, -1.40083208680152893066e-01) (70, -1.38607159256935119629e-01) (71, 5.96273355185985565186e-02) (72, -1.21015399694442749023e-01) (73, -6.08029589056968688965e-02) (74, 5.17638139426708221436e-02) (75, -7.41420909762382507324e-02) (76, -1.25801995396614074707e-01) (77, 1.19807533919811248779e-01) (78, -1.91425144672393798828e-01) (79, 8.99894814938306808472e-03) (80, 6.54176622629165649414e-02) (81, -1.51344344019889831543e-01) (82, -2.62348651885986328125e-02) (83, -1.55923515558242797852e-01) (84, -1.62400990724563598633e-01) (85, -2.97965458594262599945e-03) (86, -1.89356073737144470215e-01) (87, 3.17725017666816711426e-02) (88, -6.98243305087089538574e-02) (89, 2.39822402596473693848e-01) (90, -5.22420704364776611328e-01) (91, -2.01710872352123260498e-03) (92, 1.21541686356067657471e-01) (93, -4.71180528402328491211e-02) (94, -8.96094813942909240723e-02) (95, -9.46082621812820434570e-02) (96, -1.77445694804191589355e-01) (97, -3.37130129337310791016e-02) (98, 8.52039176970720291138e-03) (99, 4.38332334160804748535e-02) (100, -1.13337878137826919556e-02) (101, -2.09691390395164489746e-01) (102, 9.79939922690391540527e-02) (103, 6.24665804207324981689e-03) (104, 3.13983932137489318848e-02) (105, -1.01702138781547546387e-01) (106, -7.11213946342468261719e-02) (107, -5.05956374108791351318e-02) (108, -1.04104228317737579346e-01) (109, -1.54969012364745140076e-02) (110, 4.69805933535099029541e-02) (111, -5.55259026587009429932e-02) (112, 1.01491533219814300537e-01) (113, 1.19778230786323547363e-01) (114, -5.03318160772323608398e-02) (115, -4.11846600472927093506e-02) (116, -1.20874098502099514008e-03) (117, -1.90030843019485473633e-01) (118, -2.39045068621635437012e-01) (119, 4.98424507677555084229e-02) (120, 1.44065339118242263794e-02) (121, -1.75265565514564514160e-01) (122, 1.10818833112716674805e-01) (123, -2.47820913791656494141e-02) (124, 8.73770006000995635986e-03) (125, -9.42380651831626892090e-02) (126, 1.31034895777702331543e-01) (127, 1.38762027025222778320e-01) (128, 4.10371981561183929443e-02) (129, -2.63869285583496093750e-01) (130, -1.00416213274002075195e-01) (131, -1.97594717144966125488e-01) (132, 8.50546509027481079102e-02) (133, 2.08363831043243408203e-01) (134, 1.30284547805786132812e-01) (135, 9.40663143992424011230e-02) (136, 1.39719873666763305664e-01) (137, 3.20247799158096313477e-01) (138, -3.31484675407409667969e-01) (139, 9.24362801015377044678e-03) (140, 1.28071546554565429688e-01) (141, -2.03263387084007263184e-01) (142, 2.22280591726303100586e-01) (143, -2.50337064266204833984e-01) (144, 5.78208267688751220703e-02) (145, 1.48857638239860534668e-01) (146, -2.64766126871109008789e-01) (147, -5.87967783212661743164e-03) (148, -8.42644274234771728516e-02) (149, -1.26730799674987792969e-01) (150, -1.54858008027076721191e-01) (151, -3.66411954164505004883e-02) (152, 8.81557315587997436523e-02) (153, 9.59756970405578613281e-03) (154, 1.20274024084210395813e-02) (155, 1.25859826803207397461e-01) (156, 2.48189300298690795898e-01) (157, -2.36204177141189575195e-01) (158, -1.16821281611919403076e-01) (159, 1.45714320242404937744e-02) (160, -9.20513737946748733521e-03) (161, -1.17135560140013694763e-02) (162, 3.84202331304550170898e-01) (163, 1.18638686835765838623e-01) (164, 4.77418638765811920166e-02) (165, 1.29234790802001953125e-01) (166, 2.01322346925735473633e-01) (167, 2.52495706081390380859e-01) (168, 1.95931866765022277832e-02) (169, 2.71721780300140380859e-01) (170, -2.77903433889150619507e-02) (171, 2.53456860780715942383e-01) (172, 2.43277981877326965332e-01) (173, 5.31454905867576599121e-02) (174, 3.06113541126251220703e-01) (175, -6.98408409953117370605e-02) (176, 3.25841039419174194336e-01) (177, 1.19829244911670684814e-01) (178, -2.35247254371643066406e-01) (179, -6.67482498101890087128e-04) (180, 5.87524734437465667725e-02) (181, -4.55714017152786254883e-02) (182, 5.37253841757774353027e-02) (183, 8.00002887845039367676e-02) (184, 6.40758648514747619629e-02) (185, 1.38637900352478027344e-01) (186, 2.43934635072946548462e-02) (187, 4.38905227929353713989e-03) (188, 1.31254270672798156738e-02) (189, -8.66655781865119934082e-02) (190, -5.07582053542137145996e-02) (191, 3.48757981555536389351e-04) (192, -1.00899944081902503967e-02) (193, -3.89111451804637908936e-02) (194, -9.37758237123489379883e-02) (195, -3.06220743805170059204e-02) (196, -2.65005454421043395996e-02) (197, 1.00892692804336547852e-01) (198, 1.21351227164268493652e-01) (199, -8.10096561908721923828e-02) (200, -4.02659505605697631836e-01) (0, -1.38970524072647094727e-01) (1, 7.65771493315696716309e-02) (2, -2.10190027952194213867e-01) (3, 2.85822860896587371826e-02) (4, -2.29418590664863586426e-01) (5, -3.32871153950691223145e-02) (6, -5.74392862617969512939e-02) (7, -3.75025570392608642578e-01) (8, -2.18779250979423522949e-01) (9, -4.81413364410400390625e-01) (10, -9.55925732851028442383e-02) (11, -1.20513744652271270752e-01) (12, 1.28437042236328125000e-01) (13, -1.14287346601486206055e-01) (14, 1.06011509895324707031e-01) (15, 3.64823900163173675537e-02) (16, 9.14823189377784729004e-02) (17, 8.17646309733390808105e-02) (18, 1.15867778658866882324e-02) (19, -2.62018054723739624023e-01) (20, -1.91027358174324035645e-01) (21, -1.50477975606918334961e-01) (22, -2.13902160525321960449e-01) (23, 8.03268402814865112305e-02) (24, -4.07648146152496337891e-01) (25, -2.30197846889495849609e-01) (26, -3.97837370634078979492e-01) (27, -1.90550342202186584473e-01) (28, -4.87397968769073486328e-01) (29, -8.29677522182464599609e-01) (30, -3.34253698587417602539e-01) (31, -2.28075698018074035645e-01) (32, -1.35341629385948181152e-01) (33, -9.37712341547012329102e-02) (34, -3.23201715946197509766e-01) (35, -1.46283969283103942871e-01) (36, 1.88467174768447875977e-01) (37, -1.91325515508651733398e-01) (38, -2.01589077711105346680e-01) (39, -2.28925817646086215973e-03) (40, 2.97432523220777511597e-02) (41, -2.46759608387947082520e-01) (42, -5.18134199082851409912e-02) (43, -4.15140297263860702515e-03) (44, -1.34546786546707153320e-01) (45, -5.09464368224143981934e-02) (46, 1.34478107094764709473e-01) (47, -1.70092388987541198730e-01) (48, -2.46013835072517395020e-01) (49, -4.45972084999084472656e-01) (50, -2.36254602670669555664e-01) (51, -3.77553910017013549805e-01) (52, -1.38673245906829833984e-01) (53, -1.68946117162704467773e-01) (54, 5.04721775650978088379e-02) (55, -3.23843449354171752930e-01) (56, -2.46422633528709411621e-01) (57, 2.47448027133941650391e-01) (58, 5.00990673899650573730e-02) (59, -6.93276226520538330078e-02) (60, 6.74766227602958679199e-02) (61, 5.12707605957984924316e-02) (62, 7.07538425922393798828e-02) (63, -1.95114091038703918457e-01) (64, -2.34777748584747314453e-01) (65, 1.51380747556686401367e-01) (66, 6.20866194367408752441e-02) (67, -2.03225120902061462402e-01) (68, 1.07198879122734069824e-01) (69, -7.43790492415428161621e-02) (70, -2.67034351825714111328e-01) (71, -3.29328566789627075195e-01) (72, 4.80018228292465209961e-01) (73, 3.89293164014816284180e-01) (74, -1.23102655634284019470e-02) (75, 4.04114067554473876953e-01) (76, 3.83520185947418212891e-01) (77, 1.96104854345321655273e-01) (78, 4.52051535830833017826e-05) (79, -3.26894633471965789795e-02) (80, 4.00949791073799133301e-02) (81, 1.06302089989185333252e-01) (82, 2.39617243409156799316e-01) (83, 3.26473623514175415039e-01) (84, -2.65331089496612548828e-01) (85, 1.78285211324691772461e-01) (86, 4.61681634187698364258e-01) (87, 2.70014315843582153320e-01) (88, -3.33947658538818359375e-01) (89, 1.44492700695991516113e-01) (90, 3.04597198963165283203e-01) (91, 8.44733119010925292969e-02) (92, -5.64928073436021804810e-03) (93, 8.56707617640495300293e-02) (94, -1.04628708213567733765e-02) (95, 6.43911361694335937500e-02) (96, 2.09008350968360900879e-01) (97, 1.21398493647575378418e-01) (98, -7.58427083492279052734e-02) (99, -5.53305186331272125244e-02) (100, 1.92259829491376876831e-02) (101, 9.71178561449050903320e-02) (102, 1.41032904386520385742e-01) (103, 3.11282295733690261841e-02) (104, 1.14319495856761932373e-01) (105, 3.15478235483169555664e-01) (106, 2.45887145400047302246e-01) (107, 2.53277748823165893555e-01) (108, -1.32245928049087524414e-01) (109, 2.75013059377670288086e-01) (110, 1.77906632423400878906e-01) (111, -6.19138292968273162842e-02) (112, -1.92766070365905761719e-01) (113, -7.44634270668029785156e-02) (114, -1.33931254968047142029e-02) (115, -1.76070868968963623047e-01) (116, -6.37229010462760925293e-02) (117, -1.84777155518531799316e-01) (118, -2.99023068509995937347e-03) (119, 3.49305272102355957031e-02) (120, 3.48752364516258239746e-02) (121, -8.62929448485374450684e-02) (122, 2.28758618235588073730e-01) (123, 2.74920105934143066406e-01) (124, 2.41335719823837280273e-01) (125, 4.10010010004043579102e-01) (126, 2.57790744304656982422e-01) (127, 2.55383759737014770508e-01) (128, 2.04041376709938049316e-01) (129, 3.61524373292922973633e-01) (130, -3.36455442011356353760e-02) (131, -1.02681182324886322021e-01) (132, -3.26574653387069702148e-01) (133, -1.75393596291542053223e-01) (134, -2.35591948032379150391e-01) (135, -2.28154227137565612793e-01) (136, 1.02792968973517417908e-02) (137, -3.48699539899826049805e-01) (138, -6.22464537620544433594e-01) (139, -8.69330167770385742188e-02) (140, 9.43940132856369018555e-02) (141, -7.28798434138298034668e-02) (142, 2.16963201761245727539e-01) (143, 3.62016201019287109375e-01) (144, 8.95191133022308349609e-02) (145, 2.17211976647377014160e-01) (146, 5.37821292877197265625e-01) (147, 3.86033892631530761719e-01) (148, 3.74604970216751098633e-01) (149, -7.99637734889984130859e-02) (150, 2.19879150390625000000e-01) (151, -5.73241077363491058350e-02) (152, -4.21381071209907531738e-02) (153, 1.38850957155227661133e-01) (154, 6.04163669049739837646e-02) (155, -9.00695100426673889160e-02) (156, -3.14523011445999145508e-01) (157, -1.06092058122158050537e-01) (158, -1.16004668176174163818e-01) (159, -1.52689173817634582520e-01) (160, 2.47313991189002990723e-01) (161, 1.36770337820053100586e-01) (162, 3.20176959037780761719e-01) (163, 1.57310023903846740723e-01) (164, 8.01543146371841430664e-02) (165, 9.24871042370796203613e-02) (166, 1.77500739693641662598e-01) (167, 5.69413781166076660156e-01) (168, 9.08967927098274230957e-02) (169, 1.17118626832962036133e-01) (170, 5.53511343896389007568e-02) (171, -5.95693625509738922119e-02) (172, -1.51878327131271362305e-01) (173, 1.30279943346977233887e-01) (174, -4.37599755823612213135e-02) (175, -8.89712478965520858765e-03) (176, 3.38186591863632202148e-01) (177, -4.70316052436828613281e-01) (178, -2.74567842483520507812e-01) (179, 8.03728923201560974121e-02) (180, 7.09427520632743835449e-02) (181, 1.27284511923789978027e-01) (182, 3.28102782368659973145e-02) (183, -7.73119553923606872559e-02) (184, 1.41969785094261169434e-01) (185, 2.05610357224941253662e-02) (186, -2.27267667651176452637e-01) (187, 1.40114083886146545410e-01) (188, -9.85569357872009277344e-02) (189, -1.19863934814929962158e-01) (190, -4.99896258115768432617e-02) (191, 1.83254349976778030396e-02) (192, -9.13286283612251281738e-02) (193, -8.19029211997985839844e-02) (194, 2.98409629613161087036e-02) (195, -2.11984869092702865601e-02) (196, -6.32981583476066589355e-02) (197, 1.82156413793563842773e-01) (198, 2.37646028399467468262e-01) (199, -1.01808132603764533997e-02) (200, -5.70302382111549377441e-02) (0, -3.99600006639957427979e-02) (1, 5.19041195511817932129e-02) (2, 1.09101310372352600098e-01) (3, -1.55139137059450149536e-02) (4, 9.47908982634544372559e-02) (5, 1.19837388396263122559e-01) (6, 1.74694806337356567383e-01) (7, 1.83881983160972595215e-01) (8, 1.57867863774299621582e-01) (9, 2.00339838862419128418e-01) (10, -3.63238044083118438721e-02) (11, -5.03248684108257293701e-02) (12, -9.85739752650260925293e-02) (13, -6.58660307526588439941e-02) (14, -5.82225807011127471924e-02) (15, 1.20044611394405364990e-01) (16, 1.42270401120185852051e-01) (17, -5.67982681095600128174e-02) (18, -4.61526572704315185547e-01) (19, 2.98815459012985229492e-01) (20, -1.03740379214286804199e-01) (21, 1.32824152708053588867e-01) (22, 1.44285531714558601379e-02) (23, -1.73315517604351043701e-02) (24, 2.53427267074584960938e-01) (25, 1.12579360604286193848e-01) (26, 2.19813242554664611816e-01) (27, 4.04787957668304443359e-01) (28, 3.11329036951065063477e-01) (29, 4.28582280874252319336e-01) (30, 9.94379073381423950195e-02) (31, -2.33105748891830444336e-01) (32, 5.87250068783760070801e-02) (33, -2.28164553642272949219e-01) (34, -1.72201350331306457520e-01) (35, -6.82229921221733093262e-02) (36, -3.51847082376480102539e-01) (37, 1.85159415006637573242e-01) (38, -5.30478537082672119141e-01) (39, -8.99927318096160888672e-02) (40, 7.95748978853225708008e-02) (41, 2.76201546192169189453e-01) (42, -2.33448907732963562012e-01) (43, -2.20936566591262817383e-01) (44, 2.79539644718170166016e-01) (45, 1.00537732243537902832e-01) (46, 1.65492013096809387207e-01) (47, -3.93381714820861816406e-01) (48, 9.79119017720222473145e-02) (49, 1.93049326539039611816e-01) (50, 1.03082880377769470215e-01) (51, -1.29764959216117858887e-01) (52, 1.33472338318824768066e-01) (53, -9.17544141411781311035e-02) (54, 1.10633233562111854553e-02) (55, 5.83061203360557556152e-02) (56, 2.47073806822299957275e-02) (57, -2.54862487316131591797e-01) (58, -5.23563325405120849609e-01) (59, -3.59889306128025054932e-02) (60, -6.59609809517860412598e-02) (61, 2.86986976861953735352e-01) (62, -1.38361111283302307129e-01) (63, 6.03347048163414001465e-02) (64, 3.93726766109466552734e-01) (65, 3.55311483144760131836e-02) (66, 6.27044960856437683105e-02) (67, -8.06810855865478515625e-02) (68, 3.37415374815464019775e-02) (69, 4.26711946725845336914e-01) (70, -3.51530201733112335205e-02) (71, 3.73342007398605346680e-01) (72, -2.29668959975242614746e-01) (73, -9.39627364277839660645e-02) (74, 2.73508816957473754883e-01) (75, -2.36494511365890502930e-01) (76, -9.86973121762275695801e-02) (77, 1.72070115804672241211e-01) (78, -1.47342979907989501953e-01) (79, -4.34640683233737945557e-02) (80, 1.08299301937222480774e-02) (81, 1.94340169429779052734e-01) (82, 2.58034337311983108521e-02) (83, -4.88364547491073608398e-02) (84, 2.37455908209085464478e-02) (85, 2.17691153287887573242e-01) (86, 3.00461381673812866211e-01) (87, -5.10880172252655029297e-01) (88, 1.37846767902374267578e-01) (89, -2.80491579324007034302e-02) (90, -8.46259891986846923828e-02) (91, 8.93411934375762939453e-02) (92, 1.30587369203567504883e-01) (93, -1.75797402858734130859e-01) (94, -6.04664869606494903564e-02) (95, -1.95453122258186340332e-01) (96, -7.37438574433326721191e-02) (97, 1.65345981717109680176e-01) (98, -3.15130412578582763672e-01) (99, 5.16686104238033294678e-02) (100, -5.36802411079406738281e-02) (101, 2.70550735294818878174e-02) (102, -1.30249977111816406250e-01) (103, -3.72868366539478302002e-02) (104, -1.23080603778362274170e-01) (105, -1.05205811560153961182e-01) (106, -2.37340200692415237427e-02) (107, -2.38370567560195922852e-01) (108, -3.04324720054864883423e-02) (109, 5.86986362934112548828e-01) (110, -5.96207343041896820068e-02) (111, 3.70442569255828857422e-02) (112, 1.02041810750961303711e-01) (113, 1.66034802794456481934e-01) (114, 7.54614025354385375977e-02) (115, 1.56722277402877807617e-01) (116, -6.27826601266860961914e-02) (117, 2.89270758628845214844e-01) (118, 1.09872005879878997803e-01) (119, 6.95502534508705139160e-02) (120, -3.55880558490753173828e-02) (121, -5.28638362884521484375e-02) (122, -2.63465251773595809937e-02) (123, -1.16286426782608032227e-01) (124, -1.21472954750061035156e-01) (125, 5.97370676696300506592e-02) (126, -1.30824163556098937988e-01) (127, -1.82233959436416625977e-01) (128, -1.12196937203407287598e-01) (129, 8.73734056949615478516e-02) (130, 9.85249951481819152832e-02) (131, 4.58627603948116302490e-02) (132, 2.25802943110466003418e-01) (133, 1.46990388631820678711e-01) (134, -8.76761302351951599121e-02) (135, 9.23181325197219848633e-02) (136, 2.60348290205001831055e-01) (137, 8.89097899198532104492e-02) (138, 6.49168729782104492188e-01) (139, 2.86444835364818572998e-02) (140, -1.23905770480632781982e-01) (141, 4.88185025751590728760e-02) (142, -1.11769042909145355225e-01) (143, -2.42294684052467346191e-01) (144, 3.01321689039468765259e-02) (145, -1.58739328384399414062e-01) (146, -8.03377628326416015625e-02) (147, -2.33895868062973022461e-01) (148, 8.85697826743125915527e-02) (149, -2.03939914703369140625e-01) (150, 8.27956646680831909180e-02) (151, 6.70891553163528442383e-02) (152, 1.85704201459884643555e-01) (153, 1.28511652350425720215e-01) (154, -2.26171799004077911377e-02) (155, 4.59527790546417236328e-01) (156, 2.92884796857833862305e-01) (157, 1.42068311572074890137e-01) (158, -8.97415950894355773926e-02) (159, 1.50275588035583496094e-01) (160, -2.16333657503128051758e-01) (161, -2.60024338960647583008e-01) (162, -5.95112264156341552734e-01) (163, -5.87764978408813476562e-01) (164, -6.12245082855224609375e-01) (165, -7.48302757740020751953e-01) (166, -4.09476190805435180664e-01) (167, -6.64200127124786376953e-01) (168, -5.32938659191131591797e-01) (169, -2.59351402521133422852e-01) (170, -1.29283428192138671875e-01) (171, 1.26878556329756975174e-03) (172, -3.13670068979263305664e-01) (173, -2.46052332222461700439e-02) (174, -1.91543042659759521484e-01) (175, -1.54576629400253295898e-01) (176, -1.14466264843940734863e-01) (177, 3.03852647542953491211e-01) (178, 1.28910345956683158875e-02) (179, 2.43947803974151611328e-01) (180, 4.14360612630844116211e-02) (181, -5.48047721385955810547e-02) (182, -4.65983673930168151855e-02) (183, 4.73627373576164245605e-02) (184, -2.54054546356201171875e-01) (185, -8.98724794387817382812e-03) (186, 5.10308891534805297852e-02) (187, -1.38821825385093688965e-02) (188, 4.95223216712474822998e-02) (189, 2.31426924467086791992e-01) (190, -1.22539229691028594971e-01) (191, 1.00190006196498870850e-01) (192, -2.15265527367591857910e-02) (193, -1.18804061785340309143e-02) (194, 5.09672500193119049072e-02) (195, 4.83179241418838500977e-02) (196, 6.36674538254737854004e-02) (197, 2.04653948545455932617e-01) (198, -1.53205156326293945312e-01) (199, -7.64520764350891113281e-02) (200, 3.11627924442291259766e-01) (0, 7.57277458906173706055e-02) (1, 6.59734681248664855957e-02) (2, 1.79950669407844543457e-01) (3, 5.16440831124782562256e-02) (4, 1.07788689434528350830e-01) (5, 1.46394267678260803223e-01) (6, 4.68280017375946044922e-02) (7, 1.42154321074485778809e-01) (8, 1.25975728034973144531e-01) (9, 5.54236397147178649902e-02) (10, -8.35764855146408081055e-02) (11, 4.85954573377966880798e-03) (12, 8.18298757076263427734e-02) (13, -8.43875929713249206543e-02) (14, -2.26708687841892242432e-02) (15, 2.46616546064615249634e-02) (16, 1.30120301619172096252e-02) (17, 7.67599418759346008301e-02) (18, -1.25469043850898742676e-01) (19, -9.92938876152038574219e-02) (20, -1.78554877638816833496e-02) (21, -7.16458335518836975098e-02) (22, 9.38548222184181213379e-02) (23, -9.50232297182083129883e-02) (24, 1.00507892668247222900e-01) (25, -1.39522731304168701172e-01) (26, -4.70586586743593215942e-03) (27, -7.80488476157188415527e-02) (28, -3.94183024764060974121e-02) (29, 1.32097676396369934082e-01) (30, -1.75878986716270446777e-01) (31, -9.80416834354400634766e-02) (32, -1.66978985071182250977e-02) (33, 5.40992654860019683838e-02) (34, -5.98460249602794647217e-02) (35, -1.94867417216300964355e-01) (36, -1.21627837419509887695e-01) (37, -2.11499258875846862793e-01) (38, -7.23911374807357788086e-02) (39, -1.08155002817511558533e-02) (40, 6.40103891491889953613e-02) (41, 1.78000610321760177612e-02) (42, 3.72040271759033203125e-02) (43, 9.76110324263572692871e-02) (44, 1.26231119036674499512e-01) (45, -1.48877993226051330566e-01) (46, 1.52768254280090332031e-01) (47, -3.14456462860107421875e-01) (48, 1.63663074374198913574e-01) (49, 1.51607310399413108826e-02) (50, 2.14971184730529785156e-01) (51, -2.94275522232055664062e-01) (52, -7.22647085785865783691e-02) (53, 2.11673323065042495728e-02) (54, -1.38916775584220886230e-01) (55, -1.13722704350948333740e-01) (56, -1.12297587096691131592e-01) (57, -1.15003556013107299805e-01) (58, 4.98443134129047393799e-02) (59, -3.78314629197120666504e-02) (60, -6.19048513472080230713e-02) (61, -1.54067147523164749146e-02) (62, -3.97123172879219055176e-02) (63, 2.25570648908615112305e-01) (64, 1.22912518680095672607e-01) (65, -1.16041842848062515259e-02) (66, 3.10426540672779083252e-02) (67, 4.54419292509555816650e-03) (68, 8.77377912402153015137e-02) (69, -1.38380572199821472168e-01) (70, 1.11482240259647369385e-01) (71, -1.19372010231018066406e-01) (72, -1.49913594126701354980e-01) (73, -2.09648832678794860840e-01) (74, -5.82819133996963500977e-02) (75, -3.31191010773181915283e-02) (76, 2.91750021278858184814e-02) (77, 2.59066596627235412598e-02) (78, 9.58924144506454467773e-02) (79, -6.00497648119926452637e-02) (80, -5.35020790994167327881e-02) (81, -1.39750599861145019531e-01) (82, -1.32258489727973937988e-01) (83, 1.33577045053243637085e-02) (84, -3.19133847951889038086e-02) (85, -2.44943406432867050171e-02) (86, 1.70640617609024047852e-01) (87, 2.35088080167770385742e-01) (88, 2.66856014728546142578e-01) (89, 8.16867798566818237305e-02) (90, -4.31407064199447631836e-01) (91, -4.03716079890727996826e-02) (92, 9.73418205976486206055e-02) (93, -1.47657036781311035156e-01) (94, -3.09425741434097290039e-02) (95, -3.11641156673431396484e-01) (96, -1.15580454468727111816e-01) (97, -1.40888810157775878906e-01) (98, 2.86322534084320068359e-02) (99, 1.00347073748707771301e-02) (100, -4.93681728839874267578e-02) (101, -9.96951684355735778809e-02) (102, -9.58155319094657897949e-02) (103, 5.14410100877285003662e-02) (104, -3.87021042406558990479e-02) (105, -1.64766550064086914062e-01) (106, 1.35466992855072021484e-01) (107, 1.74067407846450805664e-01) (108, 4.90180179476737976074e-02) (109, 1.49060130119323730469e-01) (110, 1.32246598601341247559e-01) (111, -6.05339789763092994690e-03) (112, -1.00328903645277023315e-02) (113, 5.75767718255519866943e-02) (114, -7.17809349298477172852e-02) (115, -1.85098021756857633591e-03) (116, 2.43197903037071228027e-02) (117, -1.63791224360466003418e-01) (118, -2.43608891963958740234e-01) (119, 2.46941484510898590088e-02) (120, 5.33042177557945251465e-02) (121, -5.39374202489852905273e-02) (122, -2.18097761273384094238e-01) (123, -3.28829362988471984863e-02) (124, 6.15744180977344512939e-02) (125, -1.46451085805892944336e-01) (126, -3.20434235036373138428e-02) (127, -1.08464009827002882957e-04) (128, 2.24038325250148773193e-02) (129, 3.87775078415870666504e-02) (130, -4.60664592683315277100e-02) (131, -1.11092356964945793152e-02) (132, 1.40853710472583770752e-02) (133, 1.62658721208572387695e-01) (134, 1.02651588618755340576e-01) (135, 8.15360769629478454590e-02) (136, 7.70628377795219421387e-02) (137, 2.81439960002899169922e-01) (138, -3.28389219939708709717e-02) (139, 7.37309604883193969727e-02) (140, 5.86332939565181732178e-02) (141, 8.23601782321929931641e-02) (142, -8.03325138986110687256e-03) (143, -1.03123635053634643555e-01) (144, 1.39519289135932922363e-01) (145, -1.58050492405891418457e-01) (146, -8.17719921469688415527e-02) (147, 2.47463747859001159668e-01) (148, -6.53862347826361656189e-03) (149, 7.27667286992073059082e-02) (150, 7.98413604497909545898e-02) (151, -7.93731771409511566162e-03) (152, 2.79498875141143798828e-01) (153, 1.26207679510116577148e-01) (154, 1.35948047041893005371e-01) (155, 4.43220101296901702881e-02) (156, -1.06874806806445121765e-02) (157, 3.31311255693435668945e-01) (158, 