FANN_FLO_2.1
num_layers=4
learning_rate=0.700000
connection_rate=1.000000
network_type=0
learning_momentum=0.000000
training_algorithm=0
train_error_function=1
train_stop_function=0
cascade_output_change_fraction=0.010000
quickprop_decay=-0.000100
quickprop_mu=1.750000
rprop_increase_factor=1.200000
rprop_decrease_factor=0.500000
rprop_delta_min=0.000000
rprop_delta_max=50.000000
rprop_delta_zero=0.100000
cascade_output_stagnation_epochs=12
cascade_candidate_change_fraction=0.010000
cascade_candidate_stagnation_epochs=12
cascade_max_out_epochs=150
cascade_max_cand_epochs=150
cascade_num_candidate_groups=2
bit_fail_limit=3.49999994039535522461e-01
cascade_candidate_limit=1.00000000000000000000e+03
cascade_weight_multiplier=4.00000005960464477539e-01
cascade_activation_functions_count=10
cascade_activation_functions=3 5 7 8 10 11 14 15 16 17 
cascade_activation_steepnesses_count=4
cascade_activation_steepnesses=2.50000000000000000000e-01 5.00000000000000000000e-01 7.50000000000000000000e-01 1.00000000000000000000e+00 
layer_sizes=151 71 31 23 
scale_included=0
neurons (num_inputs, activation_function, activation_steepness)=(0, 0, 0.00000000000000000000e+00) (0, 0, 0.00000000000000000000e+00) (0, 0, 0.00000000000000000000e+00) (0, 0, 0.00000000000000000000e+00) (0, 0, 0.00000000000000000000e+00) (0, 0, 0.00000000000000000000e+00) (0, 0, 0.00000000000000000000e+00) (0, 0, 0.00000000000000000000e+00) (0, 0, 0.00000000000000000000e+00) (0, 0, 0.00000000000000000000e+00) (0, 0, 0.00000000000000000000e+00) (0, 0, 0.00000000000000000000e+00) (0, 0, 0.00000000000000000000e+00) (0, 0, 0.00000000000000000000e+00) (0, 0, 0.00000000000000000000e+00) (0, 0, 0.00000000000000000000e+00) (0, 0, 0.00000000000000000000e+00) (0, 0, 0.00000000000000000000e+00) (0, 0, 0.00000000000000000000e+00) (0, 0, 0.00000000000000000000e+00) (0, 0, 0.00000000000000000000e+00) (0, 0, 0.00000000000000000000e+00) (0, 0, 0.00000000000000000000e+00) (0, 0, 0.00000000000000000000e+00) (0, 0, 0.00000000000000000000e+00) (0, 0, 0.00000000000000000000e+00) (0, 0, 0.00000000000000000000e+00) (0, 0, 0.00000000000000000000e+00) (0, 0, 0.00000000000000000000e+00) (0, 0, 0.00000000000000000000e+00) (0, 0, 0.00000000000000000000e+00) (0, 0, 0.00000000000000000000e+00) (0, 0, 0.00000000000000000000e+00) (0, 0, 0.00000000000000000000e+00) (0, 0, 0.00000000000000000000e+00) (0, 0, 0.00000000000000000000e+00) (0, 0, 0.00000000000000000000e+00) (0, 0, 0.00000000000000000000e+00) (0, 0, 0.00000000000000000000e+00) (0, 0, 0.00000000000000000000e+00) (0, 0, 0.00000000000000000000e+00) (0, 0, 0.00000000000000000000e+00) (0, 0, 0.00000000000000000000e+00) (0, 0, 0.00000000000000000000e+00) (0, 0, 0.00000000000000000000e+00) (0, 0, 0.00000000000000000000e+00) (0, 0, 0.00000000000000000000e+00) (0, 0, 0.00000000000000000000e+00) (0, 0, 0.00000000000000000000e+00) (0, 0, 0.00000000000000000000e+00) (0, 0, 0.00000000000000000000e+00) (0, 0, 0.00000000000000000000e+00) (0, 0, 0.00000000000000000000e+00) (0, 0, 0.00000000000000000000e+00) (0, 0, 0.00000000000000000000e+00) (0, 0, 0.00000000000000000000e+00) (0, 0, 0.00000000000000000000e+00) (0, 0, 0.00000000000000000000e+00) (0, 0, 0.00000000000000000000e+00) (0, 0, 0.00000000000000000000e+00) (0, 0, 0.00000000000000000000e+00) (0, 0, 0.00000000000000000000e+00) (0, 0, 0.00000000000000000000e+00) (0, 0, 0.00000000000000000000e+00) (0, 0, 0.00000000000000000000e+00) (0, 0, 0.00000000000000000000e+00) (0, 0, 0.00000000000000000000e+00) (0, 0, 0.00000000000000000000e+00) (0, 0, 0.00000000000000000000e+00) (0, 0, 0.00000000000000000000e+00) (0, 0, 0.00000000000000000000e+00) (0, 0, 0.00000000000000000000e+00) (0, 0, 0.00000000000000000000e+00) (0, 0, 0.00000000000000000000e+00) (0, 0, 0.00000000000000000000e+00) (0, 0, 0.00000000000000000000e+00) (0, 0, 0.00000000000000000000e+00) (0, 0, 0.00000000000000000000e+00) (0, 0, 0.00000000000000000000e+00) (0, 0, 0.00000000000000000000e+00) (0, 0, 0.00000000000000000000e+00) (0, 0, 0.00000000000000000000e+00) (0, 0, 0.00000000000000000000e+00) (0, 0, 0.00000000000000000000e+00) (0, 0, 0.00000000000000000000e+00) (0, 0, 0.00000000000000000000e+00) (0, 0, 0.00000000000000000000e+00) (0, 0, 0.00000000000000000000e+00) (0, 0, 0.00000000000000000000e+00) (0, 0, 0.00000000000000000000e+00) (0, 0, 0.00000000000000000000e+00) (0, 0, 0.00000000000000000000e+00) (0, 0, 0.00000000000000000000e+00) (0, 0, 0.00000000000000000000e+00) (0, 0, 0.00000000000000000000e+00) (0, 0, 0.00000000000000000000e+00) (0, 0, 0.00000000000000000000e+00) (0, 0, 0.00000000000000000000e+00) (0, 0, 0.00000000000000000000e+00) (0, 0, 0.00000000000000000000e+00) (0, 0, 0.00000000000000000000e+00) (0, 0, 0.00000000000000000000e+00) (0, 0, 0.00000000000000000000e+00) (0, 0, 0.00000000000000000000e+00) (0, 0, 0.00000000000000000000e+00) (0, 0, 0.00000000000000000000e+00) (0, 0, 0.00000000000000000000e+00) (0, 0, 0.00000000000000000000e+00) (0, 0, 0.00000000000000000000e+00) (0, 0, 0.00000000000000000000e+00) (0, 0, 0.00000000000000000000e+00) (0, 0, 0.00000000000000000000e+00) (0, 0, 0.00000000000000000000e+00) (0, 0, 0.00000000000000000000e+00) (0, 0, 0.00000000000000000000e+00) (0, 0, 0.00000000000000000000e+00) (0, 0, 0.00000000000000000000e+00) (0, 0, 0.00000000000000000000e+00) (0, 0, 0.00000000000000000000e+00) (0, 0, 0.00000000000000000000e+00) (0, 0, 0.00000000000000000000e+00) (0, 0, 0.00000000000000000000e+00) (0, 0, 0.00000000000000000000e+00) (0, 0, 0.00000000000000000000e+00) (0, 0, 0.00000000000000000000e+00) (0, 0, 0.00000000000000000000e+00) (0, 0, 0.00000000000000000000e+00) (0, 0, 0.00000000000000000000e+00) (0, 0, 0.00000000000000000000e+00) (0, 0, 0.00000000000000000000e+00) (0, 0, 0.00000000000000000000e+00) (0, 0, 0.00000000000000000000e+00) (0, 0, 0.00000000000000000000e+00) (0, 0, 0.00000000000000000000e+00) (0, 0, 0.00000000000000000000e+00) (0, 0, 0.00000000000000000000e+00) (0, 0, 0.00000000000000000000e+00) (0, 0, 0.00000000000000000000e+00) (0, 0, 0.00000000000000000000e+00) (0, 0, 0.00000000000000000000e+00) (0, 0, 0.00000000000000000000e+00) (0, 0, 0.00000000000000000000e+00) (0, 0, 0.00000000000000000000e+00) (0, 0, 0.00000000000000000000e+00) (0, 0, 0.00000000000000000000e+00) (0, 0, 0.00000000000000000000e+00) (0, 0, 0.00000000000000000000e+00) (0, 0, 0.00000000000000000000e+00) (0, 0, 0.00000000000000000000e+00) (0, 0, 0.00000000000000000000e+00) (0, 0, 0.00000000000000000000e+00) (151, 6, 5.00000000000000000000e-01) (151, 6, 5.00000000000000000000e-01) (151, 6, 5.00000000000000000000e-01) (151, 6, 5.00000000000000000000e-01) (151, 6, 5.00000000000000000000e-01) (151, 6, 5.00000000000000000000e-01) (151, 6, 5.00000000000000000000e-01) (151, 6, 5.00000000000000000000e-01) (151, 6, 5.00000000000000000000e-01) (151, 6, 5.00000000000000000000e-01) (151, 6, 5.00000000000000000000e-01) (151, 6, 5.00000000000000000000e-01) (151, 6, 5.00000000000000000000e-01) (151, 6, 5.00000000000000000000e-01) (151, 6, 5.00000000000000000000e-01) (151, 6, 5.00000000000000000000e-01) (151, 6, 5.00000000000000000000e-01) (151, 6, 5.00000000000000000000e-01) (151, 6, 5.00000000000000000000e-01) (151, 6, 5.00000000000000000000e-01) (151, 6, 5.00000000000000000000e-01) (151, 6, 5.00000000000000000000e-01) (151, 6, 5.00000000000000000000e-01) (151, 6, 5.00000000000000000000e-01) (151, 6, 5.00000000000000000000e-01) (151, 6, 5.00000000000000000000e-01) (151, 6, 5.00000000000000000000e-01) (151, 6, 5.00000000000000000000e-01) (151, 6, 5.00000000000000000000e-01) (151, 6, 5.00000000000000000000e-01) (151, 6, 5.00000000000000000000e-01) (151, 6, 5.00000000000000000000e-01) (151, 6, 5.00000000000000000000e-01) (151, 6, 5.00000000000000000000e-01) (151, 6, 5.00000000000000000000e-01) (151, 6, 5.00000000000000000000e-01) (151, 6, 5.00000000000000000000e-01) (151, 6, 5.00000000000000000000e-01) (151, 6, 5.00000000000000000000e-01) (151, 6, 5.00000000000000000000e-01) (151, 6, 5.00000000000000000000e-01) (151, 6, 5.00000000000000000000e-01) (151, 6, 5.00000000000000000000e-01) (151, 6, 5.00000000000000000000e-01) (151, 6, 5.00000000000000000000e-01) (151, 6, 5.00000000000000000000e-01) (151, 6, 5.00000000000000000000e-01) (151, 6, 5.00000000000000000000e-01) (151, 6, 5.00000000000000000000e-01) (151, 6, 5.00000000000000000000e-01) (151, 6, 5.00000000000000000000e-01) (151, 6, 5.00000000000000000000e-01) (151, 6, 5.00000000000000000000e-01) (151, 6, 5.00000000000000000000e-01) (151, 6, 5.00000000000000000000e-01) (151, 6, 5.00000000000000000000e-01) (151, 6, 5.00000000000000000000e-01) (151, 6, 5.00000000000000000000e-01) (151, 6, 5.00000000000000000000e-01) (151, 6, 5.00000000000000000000e-01) (151, 6, 5.00000000000000000000e-01) (151, 6, 5.00000000000000000000e-01) (151, 6, 5.00000000000000000000e-01) (151, 6, 5.00000000000000000000e-01) (151, 6, 5.00000000000000000000e-01) (151, 6, 5.00000000000000000000e-01) (151, 6, 5.00000000000000000000e-01) (151, 6, 5.00000000000000000000e-01) (151, 6, 5.00000000000000000000e-01) (151, 6, 5.00000000000000000000e-01) (0, 6, 0.00000000000000000000e+00) (71, 6, 5.00000000000000000000e-01) (71, 6, 5.00000000000000000000e-01) (71, 6, 5.00000000000000000000e-01) (71, 6, 5.00000000000000000000e-01) (71, 6, 5.00000000000000000000e-01) (71, 6, 5.00000000000000000000e-01) (71, 6, 5.00000000000000000000e-01) (71, 6, 5.00000000000000000000e-01) (71, 6, 5.00000000000000000000e-01) (71, 6, 5.00000000000000000000e-01) (71, 6, 5.00000000000000000000e-01) (71, 6, 5.00000000000000000000e-01) (71, 6, 5.00000000000000000000e-01) (71, 6, 5.00000000000000000000e-01) (71, 6, 5.00000000000000000000e-01) (71, 6, 5.00000000000000000000e-01) (71, 6, 5.00000000000000000000e-01) (71, 6, 5.00000000000000000000e-01) (71, 6, 5.00000000000000000000e-01) (71, 6, 5.00000000000000000000e-01) (71, 6, 5.00000000000000000000e-01) (71, 6, 5.00000000000000000000e-01) (71, 6, 5.00000000000000000000e-01) (71, 6, 5.00000000000000000000e-01) (71, 6, 5.00000000000000000000e-01) (71, 6, 5.00000000000000000000e-01) (71, 6, 5.00000000000000000000e-01) (71, 6, 5.00000000000000000000e-01) (71, 6, 5.00000000000000000000e-01) (71, 6, 5.00000000000000000000e-01) (0, 6, 0.00000000000000000000e+00) (31, 12, 5.00000000000000000000e-01) (31, 12, 5.00000000000000000000e-01) (31, 12, 5.00000000000000000000e-01) (31, 12, 5.00000000000000000000e-01) (31, 12, 5.00000000000000000000e-01) (31, 12, 5.00000000000000000000e-01) (31, 12, 5.00000000000000000000e-01) (31, 12, 5.00000000000000000000e-01) (31, 12, 5.00000000000000000000e-01) (31, 12, 5.00000000000000000000e-01) (31, 12, 5.00000000000000000000e-01) (31, 12, 5.00000000000000000000e-01) (31, 12, 5.00000000000000000000e-01) (31, 12, 5.00000000000000000000e-01) (31, 12, 5.00000000000000000000e-01) (31, 12, 5.00000000000000000000e-01) (31, 12, 5.00000000000000000000e-01) (31, 12, 5.00000000000000000000e-01) (31, 12, 5.00000000000000000000e-01) (31, 12, 5.00000000000000000000e-01) (31, 12, 5.00000000000000000000e-01) (31, 12, 5.00000000000000000000e-01) (0, 12, 0.00000000000000000000e+00) 
connections (connected_to_neuron, weight)=(0, 6.61463100000000000000e+06) (1, 7.72611050000000000000e+06) (2, 4.82589000000000000000e+06) (3, 3.71676750000000000000e+06) (4, 4.52492900000000000000e+06) (5, 7.17887812500000000000e+05) (6, 3.91409225000000000000e+06) (7, -1.28899387500000000000e+06) (8, 1.32383937500000000000e+06) (9, -3.51341575000000000000e+06) (10, 1.23088125000000000000e+06) (11, -5.63251800000000000000e+06) (12, -1.73689900000000000000e+06) (13, -8.69918200000000000000e+06) (14, -8.58777937500000000000e+05) (15, -8.07601000000000000000e+06) (16, -2.04935762500000000000e+06) (17, -6.96978950000000000000e+06) (18, -5.08059625000000000000e+05) (19, -5.72772000000000000000e+06) (20, -4.56798875000000000000e+05) (21, -2.61099500000000000000e+06) (22, -5.18919656250000000000e+05) (23, -1.66986787500000000000e+06) (24, 4.37361650000000000000e+06) (25, 1.73891000000000000000e+06) (26, -6.60445687500000000000e+05) (27, 9.17527062500000000000e+05) (28, 1.16288862500000000000e+06) (29, -5.08289450000000000000e+06) (30, 6.71377150000000000000e+06) (31, 2.79180050000000000000e+06) (32, 6.53004250000000000000e+06) (33, 2.57227075000000000000e+06) (34, 3.23297375000000000000e+06) (35, -1.42938525000000000000e+06) (36, 3.09481850000000000000e+06) (37, -1.76812212500000000000e+06) (38, 9.65069750000000000000e+05) (39, -3.59327425000000000000e+06) (40, 1.32600890625000000000e+05) (41, -1.33235625000000000000e+06) (42, 7.15696640625000000000e+04) (43, -5.90555875000000000000e+05) (44, 8.59462875000000000000e+05) (45, -8.09457343750000000000e+04) (46, 4.92931937500000000000e+05) (47, 1.10052775000000000000e+06) (48, -3.98519925000000000000e+06) (49, -6.34205875000000000000e+05) (50, -2.38090150000000000000e+06) (51, -1.43732462500000000000e+06) (52, -2.33126200000000000000e+06) (53, 9.86213437500000000000e+05) (54, -2.78626875000000000000e+06) (55, 1.43317825000000000000e+06) (56, -2.12307675000000000000e+06) (57, 3.46935725000000000000e+06) (58, -2.45202843750000000000e+05) (59, -1.69838312500000000000e+06) (60, -9.50668187500000000000e+05) (61, -3.83038812500000000000e+05) (62, -2.44187000000000000000e+06) (63, 7.41633515625000000000e+04) (64, 1.25680550000000000000e+06) (65, 8.09828750000000000000e+05) (66, -1.65968112500000000000e+06) (67, 6.80829937500000000000e+05) (68, -1.51361700000000000000e+06) (69, -7.68390187500000000000e+05) (70, -2.00874337500000000000e+06) (71, 6.72838062500000000000e+05) (72, -1.77537212500000000000e+06) (73, 2.20827400000000000000e+06) (74, -2.70673250000000000000e+06) (75, 2.92974600000000000000e+06) (76, -3.09119225000000000000e+06) (77, 1.02551100000000000000e+06) (78, -3.56847975000000000000e+06) (79, 1.54977587500000000000e+06) (80, -1.75709762500000000000e+06) (81, 2.28959000000000000000e+06) (82, -2.69825275000000000000e+06) (83, 2.59893375000000000000e+06) (84, -2.79718350000000000000e+06) (85, 2.92877400000000000000e+06) (86, -3.35757600000000000000e+06) (87, 1.17124662500000000000e+06) (88, -2.14281675000000000000e+06) (89, 3.71527593750000000000e+05) (90, -1.60483512500000000000e+06) (91, 6.34927312500000000000e+05) (92, -1.57427287500000000000e+06) (93, 8.21934687500000000000e+05) (94, -1.22999987500000000000e+06) (95, 1.98425156250000000000e+05) (96, -5.32760375000000000000e+05) (97, -1.88426171875000000000e+05) (98, -5.46795250000000000000e+05) (99, -1.88426140625000000000e+05) (100, -1.38943162500000000000e+06) (101, 1.08066900000000000000e+06) (102, -1.40346612500000000000e+06) (103, 1.08066900000000000000e+06) (104, -3.26600447297096252441e-02) (105, -9.03561860322952270508e-02) (106, -3.65542396903038024902e-02) (107, 2.81831696629524230957e-02) (108, -9.46723595261573791504e-02) (109, 9.97240021824836730957e-02) (110, 9.26057547330856323242e-02) (111, -2.91797821410000324249e-03) (112, 7.25750252604484558105e-02) (113, -9.36728492379188537598e-02) (114, -7.66097605228424072266e-02) (115, -1.29947625100612640381e-02) (116, -9.23130661249160766602e-02) (117, 4.65762838721275329590e-02) (118, -1.02319503203034400940e-02) (119, 3.93515676259994506836e-02) (120, 7.02555105090141296387e-02) (121, 1.40930758789181709290e-02) (122, 4.17200177907943725586e-02) (123, 1.82427167892456054688e-02) (124, -1.36245768517255783081e-02) (125, -9.35278981924057006836e-02) (126, 5.81475012004375457764e-02) (127, -3.53464446961879730225e-02) (128, 2.37416978925466537476e-02) (129, 9.92707163095474243164e-02) (130, 8.36048200726509094238e-02) (131, 8.70347544550895690918e-02) (132, 7.90910124778747558594e-02) (133, -3.23937349021434783936e-02) (134, 3.47568616271018981934e-02) (135, -5.35690337419509887695e-02) (136, -2.27499175816774368286e-02) (137, 9.82026234269142150879e-02) (138, 7.46141374111175537109e-02) (139, -1.74222774803638458252e-02) (140, 9.79266315698623657227e-02) (141, 6.72198906540870666504e-02) (142, 7.96597450971603393555e-02) (143, 7.05016478896141052246e-02) (144, 7.35470429062843322754e-02) (145, -9.69500169157981872559e-02) (146, -4.24931161105632781982e-02) (147, 8.12339782714843750000e-02) (148, 4.96262684464454650879e-02) (149, 4.72749359905719757080e-02) (150, 3.10659570312500000000e+03) (0, -4.69900718750000000000e+05) (1, -2.51796925000000000000e+06) (2, 7.21572875000000000000e+05) (3, -1.14656900000000000000e+06) (4, 6.79328875000000000000e+05) (5, -1.01662643750000000000e+06) (6, 1.03268296875000000000e+05) (7, -1.42883825000000000000e+06) (8, 5.85700750000000000000e+05) (9, -4.20808312500000000000e+05) (10, 4.51370218750000000000e+05) (11, -3.54534812500000000000e+05) (12, 8.74132750000000000000e+05) (13, 3.81913718750000000000e+05) (14, -8.36809609375000000000e+04) (15, 2.05296765625000000000e+05) (16, -2.04202703125000000000e+05) (17, 6.29247625000000000000e+05) (18, 6.79042000000000000000e+05) (19, 1.23070825000000000000e+06) (20, 1.43033828125000000000e+05) (21, 7.17043125000000000000e+05) (22, -3.62093062500000000000e+05) (23, -6.14360562500000000000e+05) (24, -1.63830500000000000000e+06) (25, -8.06575625000000000000e+05) (26, -1.29565450000000000000e+06) (27, -1.32274737500000000000e+06) (28, 8.61056625000000000000e+05) (29, 5.99218312500000000000e+05) (30, -3.03241937500000000000e+05) (31, -2.29564171875000000000e+05) (32, -9.53517312500000000000e+05) (33, 5.93020812500000000000e+05) (34, -1.39846156250000000000e+05) (35, 1.79143437500000000000e+06) (36, -5.37821937500000000000e+05) (37, 8.70077875000000000000e+05) (38, 4.18329750000000000000e+05) (39, 1.86729425000000000000e+06) (40, 1.79707875000000000000e+06) (41, 1.04690662500000000000e+06) (42, -8.62913984375000000000e+04) (43, 1.49726462500000000000e+06) (44, -1.42730337500000000000e+06) (45, 1.61591662500000000000e+06) (46, -1.07476462500000000000e+06) (47, -3.19455429687500000000e+04) (48, 9.79818875000000000000e+05) (49, -1.07415412500000000000e+06) (50, -3.51073343750000000000e+05) (51, -2.34895750000000000000e+06) (52, -7.00496687500000000000e+05) (53, -1.17542162500000000000e+06) (54, 2.63009156250000000000e+05) (55, -2.37934800000000000000e+06) (56, 2.85236218750000000000e+05) (57, -2.06726150000000000000e+06) (58, 3.44975812500000000000e+05) (59, -1.77471660156250000000e+04) (60, 9.17206625000000000000e+05) (61, 2.83856687500000000000e+05) (62, 2.46390650000000000000e+06) (63, -3.65425343750000000000e+05) (64, 1.75713500000000000000e+06) (65, -1.29710900000000000000e+06) (66, 1.18218137500000000000e+06) (67, -1.13051537500000000000e+06) (68, 7.76036625000000000000e+05) (69, -1.40568975000000000000e+06) (70, 5.51168312500000000000e+05) (71, -2.10532625000000000000e+06) (72, 1.97152375000000000000e+05) (73, -2.69644575000000000000e+06) (74, 1.54518421875000000000e+05) (75, -2.96792675000000000000e+06) (76, 9.13762000000000000000e+05) (77, -8.77707125000000000000e+05) (78, 8.40346625000000000000e+05) (79, -1.09333862500000000000e+06) (80, 4.05849093750000000000e+05) (81, -1.31075825000000000000e+06) (82, 7.32458062500000000000e+05) (83, -1.46696925000000000000e+06) (84, 6.82035750000000000000e+05) (85, -1.62254762500000000000e+06) (86, 3.71058437500000000000e+05) (87, -1.24128600000000000000e+06) (88, 3.37663187500000000000e+05) (89, -1.21229625000000000000e+06) (90, -1.59398875000000000000e+05) (91, -1.29300875000000000000e+06) (92, -1.59179703125000000000e+05) (93, -1.31120512500000000000e+06) (94, -4.94191625000000000000e+05) (95, -7.37617062500000000000e+05) (96, -6.17314687500000000000e+05) (97, -6.77398562500000000000e+05) (98, -6.23234625000000000000e+05) (99, -6.77398562500000000000e+05) (100, -5.86081562500000000000e+05) (101, 4.55841250000000000000e+05) (102, -5.92001500000000000000e+05) (103, 4.55841281250000000000e+05) (104, -1.33264623582363128662e-02) (105, 4.83196824789047241211e-02) (106, 9.84521582722663879395e-02) (107, -3.21249291300773620605e-02) (108, -6.89385533332824707031e-02) (109, 9.18827578425407409668e-03) (110, -8.26768949627876281738e-02) (111, -8.92267078161239624023e-02) (112, 5.10604493319988250732e-02) (113, -5.45421466231346130371e-02) (114, -4.96460720896720886230e-02) (115, 2.71643009036779403687e-02) (116, -6.67788162827491760254e-02) (117, -1.37508884072303771973e-02) (118, -5.63545562326908111572e-02) (119, 1.90618541091680526733e-02) (120, -6.38614296913146972656e-02) (121, -4.37242425978183746338e-02) (122, 8.87035503983497619629e-02) (123, 3.82875762879848480225e-02) (124, -5.92911057174205780029e-02) (125, 8.92379730939865112305e-02) (126, -6.73305289819836616516e-03) (127, 1.07230031862854957581e-02) (128, -8.44997391104698181152e-02) (129, -2.95748300850391387939e-02) (130, 7.63682201504707336426e-02) (131, 7.47225433588027954102e-02) (132, -6.83699175715446472168e-02) (133, 4.32373881340026855469e-02) (134, 7.01387524604797363281e-02) (135, 1.83036196976900100708e-02) (136, -8.44293180853128433228e-03) (137, 6.85909166932106018066e-02) (138, 8.61786901950836181641e-02) (139, 2.26185172796249389648e-02) (140, -2.22208127379417419434e-02) (141, -9.64982062578201293945e-02) (142, 3.33918072283267974854e-02) (143, -7.11603611707687377930e-02) (144, -5.10403513908386230469e-02) (145, 8.37457403540611267090e-02) (146, 5.60039393603801727295e-02) (147, -1.78191661834716796875e-02) (148, -3.00051514059305191040e-02) (149, 9.96493846178054809570e-02) (150, 1.77886450195312500000e+03) (0, -5.29088250000000000000e+05) (1, -1.57842487500000000000e+06) (2, 8.00701312500000000000e+05) (3, -5.81513125000000000000e+05) (4, 1.96582171875000000000e+05) (5, -6.78443125000000000000e+05) (6, 8.07419218750000000000e+04) (7, -5.41783375000000000000e+05) (8, -1.52634492187500000000e+04) (9, -1.23199429687500000000e+05) (10, 2.03913125000000000000e+05) (11, 3.20110750000000000000e+05) (12, -2.06074062500000000000e+05) (13, -1.05075335937500000000e+05) (14, 5.02487593750000000000e+05) (15, 1.19810810546875000000e+04) (16, 3.31177843750000000000e+05) (17, -7.50165437500000000000e+05) (18, 8.74625875000000000000e+05) (19, 1.06050781250000000000e+05) (20, 8.19439812500000000000e+05) (21, -9.59684453125000000000e+04) (22, 2.16810031250000000000e+05) (23, 1.19564462500000000000e+06) (24, -1.15323512500000000000e+06) (25, -5.25598867187500000000e+04) (26, 3.18396312500000000000e+05) (27, -3.43181125000000000000e+05) (28, 1.66273921875000000000e+05) (29, 4.11696562500000000000e+05) (30, -1.16709125000000000000e+06) (31, -2.78658625000000000000e+05) (32, 3.35128156250000000000e+05) (33, 2.26358312500000000000e+05) (34, -9.33595812500000000000e+05) (35, 1.72203144531250000000e+04) (36, 8.45260125000000000000e+05) (37, 2.51963921875000000000e+05) (38, -2.99890585937500000000e+04) (39, 1.44080587500000000000e+06) (40, -6.89018062500000000000e+05) (41, -1.62867138671875000000e+04) (42, 9.93711562500000000000e+05) (43, -1.21036012500000000000e+06) (44, 5.90291437500000000000e+05) (45, -4.05527281250000000000e+05) (46, -1.09659125000000000000e+05) (47, -4.54269531250000000000e+04) (48, -7.93864312500000000000e+05) (49, -1.27924100000000000000e+06) (50, -1.67204203125000000000e+05) (51, -1.24070812500000000000e+06) (52, 3.26528750000000000000e+05) (53, -1.14897000000000000000e+06) (54, 1.20485150000000000000e+06) (55, -5.37713437500000000000e+05) (56, 1.65410725000000000000e+06) (57, 1.41093425000000000000e+06) (58, 4.72933625000000000000e+05) (59, 1.30908450000000000000e+06) (60, -1.35884512500000000000e+06) (61, 4.63975718750000000000e+05) (62, -4.88281843750000000000e+05) (63, 1.12472625000000000000e+06) (64, 1.83152000000000000000e+06) (65, 1.79227625000000000000e+06) (66, 9.29432750000000000000e+05) (67, 7.18569687500000000000e+05) (68, 8.66604500000000000000e+05) (69, 3.01877500000000000000e+05) (70, 2.86867343750000000000e+05) (71, -1.54736992187500000000e+04) (72, 3.64892625000000000000e+05) (73, 9.00182125000000000000e+05) (74, -1.62735031250000000000e+05) (75, 5.40764687500000000000e+05) (76, -2.02245812500000000000e+05) (77, -3.83813843750000000000e+05) (78, -1.86500937500000000000e+05) (79, -1.73990468750000000000e+05) (80, 1.33249640625000000000e+05) (81, 4.12076781250000000000e+05) (82, 2.90473531250000000000e+05) (83, 7.05472812500000000000e+05) (84, 3.04795406250000000000e+05) (85, 8.81483312500000000000e+05) (86, -5.49341875000000000000e+05) (87, 5.43302750000000000000e+05) (88, -4.17575187500000000000e+05) (89, 1.01778181250000000000e+06) (90, -2.28391203125000000000e+05) (91, 1.21808325000000000000e+06) (92, -2.48803500000000000000e+05) (93, 1.33318425000000000000e+06) (94, -1.28161531250000000000e+05) (95, 1.15243175000000000000e+06) (96, 5.02876343750000000000e+05) (97, 8.13518687500000000000e+05) (98, 5.01803281250000000000e+05) (99, 8.13518562500000000000e+05) (100, -1.06233507812500000000e+05) (101, 8.26260859375000000000e+04) (102, -1.07306625000000000000e+05) (103, 8.26260390625000000000e+04) (104, 6.41941055655479431152e-02) (105, 2.73903161287307739258e-02) (106, 2.30287853628396987915e-03) (107, 6.36618360877037048340e-02) (108, -6.97088837623596191406e-02) (109, 9.93802770972251892090e-02) (110, -7.58555829524993896484e-02) (111, -1.66484343935735523701e-04) (112, -2.87144887261092662811e-03) (113, 3.15577499568462371826e-02) (114, -1.62551831454038619995e-02) (115, -2.99222711473703384399e-02) (116, 6.57324679195880889893e-04) (117, 7.87119716405868530273e-02) (118, 7.65035822987556457520e-02) (119, 2.20259395428001880646e-03) (120, -3.63972485065460205078e-02) (121, 4.46767322719097137451e-02) (122, 6.60238554701209068298e-03) (123, -8.14723595976829528809e-02) (124, -9.09987837076187133789e-02) (125, 4.01906669139862060547e-02) (126, 1.35433441027998924255e-02) (127, -5.16979396343231201172e-02) (128, 2.59354412555694580078e-02) (129, 9.78907793760299682617e-02) (130, -2.09077559411525726318e-02) (131, 9.41617414355278015137e-02) (132, 1.54953477904200553894e-02) (133, 2.59978547692298889160e-02) (134, -4.10801358520984649658e-02) (135, -2.03105453401803970337e-02) (136, -4.66118305921554565430e-02) (137, 6.12227432429790496826e-02) (138, -5.66487126052379608154e-02) (139, -1.63207165896892547607e-02) (140, 6.06030225753784179688e-02) (141, -3.25042940676212310791e-02) (142, 8.35127979516983032227e-02) (143, -4.22684289515018463135e-02) (144, 9.90534573793411254883e-02) (145, -3.27423848211765289307e-02) (146, 2.78093032538890838623e-02) (147, -2.89217568933963775635e-04) (148, -5.40304146707057952881e-02) (149, 4.31288685649633407593e-03) (150, 5.69965039062500000000e+03) (0, 5.85418632812500000000e+04) (1, 9.52212625000000000000e+05) (2, -8.52965562500000000000e+05) (3, -3.65199414062500000000e+04) (4, -1.25492412500000000000e+06) (5, 3.60323242187500000000e+04) (6, -6.18883500000000000000e+05) (7, 1.20876425000000000000e+06) (8, -1.05817575000000000000e+06) (9, 6.00242375000000000000e+05) (10, -8.20788625000000000000e+05) (11, 9.61363625000000000000e+05) (12, -6.41755937500000000000e+05) (13, 5.48755625000000000000e+05) (14, -1.22261387500000000000e+06) (15, 1.61336406250000000000e+05) (16, -9.13149312500000000000e+05) (17, -1.54547375000000000000e+05) (18, -1.52319287500000000000e+06) (19, -2.96837906250000000000e+05) (20, -7.17538500000000000000e+05) (21, 3.64185093750000000000e+05) (22, 5.39127687500000000000e+05) (23, 3.20907875000000000000e+05) (24, 7.98684312500000000000e+05) (25, 1.34378187500000000000e+06) (26, 5.46936000000000000000e+05) (27, 1.14310225000000000000e+06) (28, 1.57811237500000000000e+06) (29, 2.80686050000000000000e+06) (30, 8.93783750000000000000e+05) (31, 7.82994062500000000000e+05) (32, 4.59382275390625000000e+03) (33, 7.99286953125000000000e+04) (34, 9.77358625000000000000e+05) (35, 1.74837140625000000000e+05) (36, 1.07855200000000000000e+06) (37, -1.03821362500000000000e+06) (38, 1.26184700000000000000e+06) (39, -9.31766125000000000000e+05) (40, 7.32185500000000000000e+05) (41, -2.13793525000000000000e+06) (42, 4.87982562500000000000e+05) (43, -8.54170312500000000000e+05) (44, 2.08644750000000000000e+05) (45, -8.11316437500000000000e+05) (46, -1.45659812500000000000e+06) (47, -2.12868950000000000000e+06) (48, 3.47049675000000000000e+06) (49, 3.00548450000000000000e+06) (50, 1.72500775000000000000e+06) (51, 2.97391950000000000000e+06) (52, 3.88600437500000000000e+05) (53, 2.72858050000000000000e+06) (54, -5.93126500000000000000e+05) (55, 9.68162812500000000000e+04) (56, -1.17790062500000000000e+06) (57, -7.29913062500000000000e+05) (58, -3.37578562500000000000e+05) (59, 5.43574562500000000000e+05) (60, 1.55888112500000000000e+06) (61, 2.17895000000000000000e+06) (62, 1.73873762500000000000e+06) (63, 1.58757412500000000000e+06) (64, -2.45146875000000000000e+06) (65, -1.72402675000000000000e+06) (66, -5.17683406250000000000e+05) (67, 3.81033750000000000000e+05) (68, -1.02189912500000000000e+06) (69, -9.69861562500000000000e+05) (70, -8.28608250000000000000e+05) (71, -1.07428387500000000000e+06) (72, -5.45507000000000000000e+05) (73, -6.56886062500000000000e+05) (74, 2.51105468750000000000e+05) (75, -3.80165898437500000000e+04) (76, 1.09531103515625000000e+04) (77, -2.08739906250000000000e+05) (78, -7.41909921875000000000e+04) (79, -4.16917093750000000000e+05) (80, -5.07344968750000000000e+05) (81, -3.38294875000000000000e+05) (82, -4.21539812500000000000e+05) (83, -5.60492375000000000000e+05) (84, -4.18236062500000000000e+05) (85, -6.77520062500000000000e+05) (86, 6.98102187500000000000e+04) (87, 4.26638867187500000000e+04) (88, 4.29365843750000000000e+05) (89, -4.70245593750000000000e+05) (90, 3.31893250000000000000e+05) (91, -6.05511250000000000000e+05) (92, 3.17526812500000000000e+05) (93, -7.10311437500000000000e+05) (94, 2.57694109375000000000e+05) (95, -6.20457312500000000000e+05) (96, -1.73994406250000000000e+05) (97, -3.86675093750000000000e+05) (98, -1.71253125000000000000e+05) (99, -3.86675093750000000000e+05) (100, 2.71383125000000000000e+05) (101, -2.11075906250000000000e+05) (102, 2.74124375000000000000e+05) (103, -2.11075906250000000000e+05) (104, -6.85787349939346313477e-02) (105, 9.54008027911186218262e-02) (106, -9.63629707694053649902e-02) (107, -9.80826169252395629883e-02) (108, -6.65285289287567138672e-02) (109, -1.22848553583025932312e-02) (110, 3.59943844377994537354e-02) (111, -9.65991020202636718750e-02) (112, 3.44593450427055358887e-02) (113, 8.32015201449394226074e-02) (114, -4.92450259625911712646e-02) (115, 7.58328735828399658203e-02) (116, 5.08195981383323669434e-02) (117, 2.01530680060386657715e-02) (118, 1.10565852373838424683e-02) (119, 7.39387422800064086914e-02) (120, -4.40746806561946868896e-02) (121, -1.46790649741888046265e-02) (122, -8.03804676979780197144e-03) (123, 4.31525427848100662231e-03) (124, 5.33887036144733428955e-02) (125, 9.32818651199340820312e-02) (126, -7.99178481101989746094e-02) (127, -1.87734444625675678253e-03) (128, -7.57180824875831604004e-02) (129, -9.33082848787307739258e-02) (130, 4.40288782119750976562e-02) (131, -6.23615160584449768066e-02) (132, -5.77484592795372009277e-02) (133, 5.51475696265697479248e-02) (134, -2.85869576036930084229e-02) (135, -2.63271927833557128906e-02) (136, 5.05483746528625488281e-02) (137, -2.49499268829822540283e-02) (138, -2.44098119437694549561e-02) (139, 8.40198472142219543457e-02) (140, 6.27652183175086975098e-02) (141, -8.84154289960861206055e-02) (142, 8.74207466840744018555e-02) (143, -2.77543789707124233246e-03) (144, 9.47860926389694213867e-02) (145, -6.18242807686328887939e-02) (146, -2.69425678998231887817e-02) (147, 4.56056855618953704834e-02) (148, 5.83287850022315979004e-02) (149, 8.41140225529670715332e-02) (150, -8.05523974609375000000e+03) (0, -2.27060225000000000000e+06) (1, -4.48314850000000000000e+06) (2, -2.91837875000000000000e+06) (3, -4.85742100000000000000e+06) (4, -2.47905800000000000000e+06) (5, -3.62050250000000000000e+06) (6, -2.41830750000000000000e+06) (7, -1.69025275000000000000e+06) (8, -1.49299412500000000000e+06) (9, -2.20341100000000000000e+06) (10, -1.36948787500000000000e+06) (11, 1.02248387500000000000e+06) (12, 6.56213500000000000000e+05) (13, 2.84603725000000000000e+06) (14, 3.97673125000000000000e+04) (15, 2.23789350000000000000e+06) (16, 1.35437475000000000000e+06) (17, 2.94389575000000000000e+06) (18, -3.25865312500000000000e+05) (19, 3.54525800000000000000e+06) (20, 1.64662078125000000000e+05) (21, 4.58620600000000000000e+06) (22, 2.27428000000000000000e+06) (23, 4.27611500000000000000e+06) (24, -7.59774125000000000000e+05) (25, -1.75759387500000000000e+06) (26, 1.58368887500000000000e+06) (27, 1.69919062500000000000e+06) (28, 9.36881875000000000000e+05) (29, 6.14541750000000000000e+06) (30, -4.23973200000000000000e+06) (31, -1.86969137500000000000e+06) (32, -4.22264800000000000000e+06) (33, -6.96391187500000000000e+05) (34, -8.79640937500000000000e+05) (35, 2.72625650000000000000e+06) (36, 2.72727437500000000000e+05) (37, 2.53458750000000000000e+06) (38, 5.52025062500000000000e+05) (39, 2.43208700000000000000e+06) (40, 1.49339337500000000000e+06) (41, -6.41305562500000000000e+05) (42, 1.99132537500000000000e+06) (43, 1.05549050000000000000e+06) (44, 6.95931187500000000000e+05) (45, 2.32497450000000000000e+06) (46, -2.24297075000000000000e+06) (47, 2.47138650000000000000e+06) (48, -2.64712875000000000000e+06) (49, 2.08596600000000000000e+06) (50, -2.38808950000000000000e+06) (51, 1.38362050000000000000e+06) (52, -1.32046775000000000000e+06) (53, -2.66364400000000000000e+06) (54, 1.14708350000000000000e+06) (55, -1.13517400000000000000e+06) (56, 2.41352500000000000000e+06) (57, -1.07737387500000000000e+06) (58, -2.39510550000000000000e+06) (59, 1.74090875000000000000e+06) (60, -7.76507375000000000000e+05) (61, 2.67948125000000000000e+05) (62, 2.95090250000000000000e+05) (63, 6.78098281250000000000e+04) (64, -1.00305687500000000000e+06) (65, 1.97548787500000000000e+06) (66, -7.50254062500000000000e+05) (67, -1.72166237500000000000e+06) (68, -4.62091437500000000000e+05) (69, 5.26114562500000000000e+05) (70, 2.78885062500000000000e+05) (71, 1.35936140625000000000e+05) (72, -1.18299125000000000000e+05) (73, -2.25831775000000000000e+06) (74, 1.30024787500000000000e+06) (75, -1.73782887500000000000e+06) (76, 1.25257325000000000000e+06) (77, 2.15206765625000000000e+05) (78, 1.50188012500000000000e+06) (79, -1.84619890625000000000e+05) (80, 5.68743562500000000000e+05) (81, -1.22780825000000000000e+06) (82, 9.84359937500000000000e+05) (83, -1.56657750000000000000e+06) (84, 1.04536400000000000000e+06) (85, -1.81177712500000000000e+06) (86, 1.86348662500000000000e+06) (87, -6.03364687500000000000e+05) (88, 1.23369425000000000000e+06) (89, -5.27202437500000000000e+05) (90, 1.06828437500000000000e+06) (91, -8.07672750000000000000e+05) (92, 1.07548125000000000000e+06) (93, -1.00039681250000000000e+06) (94, 9.79491875000000000000e+05) (95, -8.46216187500000000000e+05) (96, 8.47087578125000000000e+04) (97, -3.56576281250000000000e+05) (98, 9.56483593750000000000e+04) (99, -3.56576218750000000000e+05) (100, 1.08301737500000000000e+06) (101, -8.42346937500000000000e+05) (102, 1.09395700000000000000e+06) (103, -8.42346937500000000000e+05) (104, 6.90988078713417053223e-02) (105, 5.06168641149997711182e-02) (106, -3.54424417018890380859e-02) (107, 7.64638110995292663574e-02) (108, 2.79192347079515457153e-03) (109, -3.56930084526538848877e-02) (110, -4.44257445633411407471e-02) (111, 9.61215272545814514160e-02) (112, -8.19455832242965698242e-02) (113, 8.23671221733093261719e-02) (114, 7.90480151772499084473e-02) (115, -3.20884361863136291504e-02) (116, -6.99960440397262573242e-02) (117, 9.47998017072677612305e-02) (118, 9.41658765077590942383e-02) (119, 4.47037480771541595459e-02) (120, 3.22110168635845184326e-02) (121, 3.54335829615592956543e-02) (122, -4.32005152106285095215e-02) (123, 9.96601954102516174316e-02) (124, -5.54149784147739410400e-02) (125, 6.60591274499893188477e-02) (126, -8.29677581787109375000e-02) (127, 9.30598974227905273438e-02) (128, -4.92571946233510971069e-03) (129, -9.09996628761291503906e-02) (130, 9.09494012594223022461e-02) (131, 8.73828679323196411133e-02) (132, -7.06921964883804321289e-02) (133, 9.36879888176918029785e-02) (134, -4.85019981861114501953e-02) (135, 9.84066054224967956543e-02) (136, 4.43048514425754547119e-02) (137, 1.60555634647607803345e-02) (138, 7.48704224824905395508e-02) (139, -5.29032275080680847168e-02) (140, 8.03625583648681640625e-02) (141, -6.95553272962570190430e-02) (142, -5.67816980183124542236e-02) (143, 9.84169766306877136230e-02) (144, -8.71882066130638122559e-02) (145, -7.77336880564689636230e-02) (146, -3.36714610457420349121e-02) (147, -5.71842454373836517334e-02) (148, -8.29338878393173217773e-02) (149, -3.95055860280990600586e-02) (150, -6.16640820312500000000e+03) (0, -5.32272312500000000000e+05) (1, 1.57470312500000000000e+05) (2, -2.10059250000000000000e+06) (3, -8.69211125000000000000e+05) (4, -2.01460887500000000000e+06) (5, -1.61538656250000000000e+05) (6, -1.11604125000000000000e+06) (7, 1.33698337500000000000e+06) (8, -1.57916700000000000000e+06) (9, 4.01329062500000000000e+05) (10, -1.34114762500000000000e+06) (11, 9.59386812500000000000e+05) (12, -7.30171625000000000000e+05) (13, 1.01307425000000000000e+06) (14, -7.50051312500000000000e+05) (15, 4.95970343750000000000e+05) (16, -1.91130906250000000000e+05) (17, 1.82006890625000000000e+05) (18, -1.72238600000000000000e+06) (19, -1.19691387500000000000e+06) (20, -2.80427312500000000000e+05) (21, -5.61253812500000000000e+05) (22, 1.26043225000000000000e+06) (23, 3.67267187500000000000e+05) (24, 1.17261712500000000000e+06) (25, 7.56898312500000000000e+05) (26, 1.73464012500000000000e+06) (27, 1.42549525000000000000e+06) (28, 7.36960500000000000000e+05) (29, 2.07486687500000000000e+06) (30, -1.46359171875000000000e+05) (31, 1.57971078125000000000e+05) (32, -8.24283937500000000000e+05) (33, -1.05771487500000000000e+06) (34, 3.66222812500000000000e+04) (35, -5.38408812500000000000e+05) (36, 7.80158875000000000000e+05) (37, -5.90666750000000000000e+05) (38, 2.01091484375000000000e+05) (39, -5.98494500000000000000e+05) (40, -2.44228812500000000000e+05) (41, -1.21423912500000000000e+06) (42, 7.45743625000000000000e+05) (43, -7.47745875000000000000e+05) (44, 1.33894412500000000000e+06) (45, -6.88432187500000000000e+05) (46, -3.68089125000000000000e+05) (47, -7.49690687500000000000e+05) (48, 8.66250812500000000000e+05) (49, 2.24786300000000000000e+06) (50, 4.03566718750000000000e+05) (51, 2.61455000000000000000e+06) (52, 1.95876640625000000000e+05) (53, 1.49070537500000000000e+06) (54, 4.55672890625000000000e+04) (55, 1.03340731250000000000e+06) (56, 1.01198546875000000000e+05) (57, 8.84797750000000000000e+05) (58, -3.39407250000000000000e+05) (59, 1.25760662500000000000e+06) (60, -1.45628515625000000000e+05) (61, 2.12089203125000000000e+05) (62, -7.13129625000000000000e+05) (63, 2.11694656250000000000e+05) (64, -1.96938112500000000000e+06) (65, 7.84296406250000000000e+04) (66, -1.33155475000000000000e+06) (67, 1.46456359375000000000e+05) (68, -1.31270612500000000000e+06) (69, -4.55223437500000000000e+05) (70, -6.78683562500000000000e+05) (71, -1.39166078125000000000e+05) (72, -2.44564000000000000000e+05) (73, -6.41781875000000000000e+04) (74, 6.35770000000000000000e+05) (75, 5.57918875000000000000e+05) (76, -1.21317265625000000000e+05) (77, -3.07719116210937500000e+03) (78, -5.82906367187500000000e+04) (79, -9.33072421875000000000e+04) (80, -5.37303562500000000000e+05) (81, -8.52173984375000000000e+04) (82, -5.81977937500000000000e+05) (83, -2.04887375000000000000e+05) (84, -5.35673437500000000000e+05) (85, -2.45730906250000000000e+05) (86, 2.54668906250000000000e+05) (87, 3.39338656250000000000e+05) (88, 4.09886125000000000000e+05) (89, 2.95965468750000000000e+05) (90, 5.57274375000000000000e+05) (91, 2.05730609375000000000e+05) (92, 4.94613968750000000000e+05) (93, 7.26913203125000000000e+04) (94, 6.00450500000000000000e+05) (95, -1.15679187500000000000e+05) (96, 2.50795890625000000000e+05) (97, 7.81343984375000000000e+04) (98, 2.57640828125000000000e+05) (99, 7.81344453125000000000e+04) (100, 6.77639875000000000000e+05) (101, -5.27053312500000000000e+05) (102, 6.84484750000000000000e+05) (103, -5.27053250000000000000e+05) (104, 8.00914391875267028809e-02) (105, -6.38104081153869628906e-02) (106, -4.51780259609222412109e-02) (107, -9.52903851866722106934e-02) (108, 4.97063447255641222000e-04) (109, -4.04134625568985939026e-03) (110, 3.81811372935771942139e-02) (111, -1.93620994687080383301e-02) (112, 8.79602730274200439453e-02) (113, -7.87426158785820007324e-02) (114, 8.46115201711654663086e-02) (115, 8.36570635437965393066e-02) (116, -6.89327390864491462708e-03) (117, -6.67708739638328552246e-02) (118, 5.81455528736114501953e-02) (119, -4.07739318907260894775e-02) (120, -9.88230295479297637939e-03) (121, -9.64115932583808898926e-02) (122, -1.43932672217488288879e-02) (123, -9.35763120651245117188e-02) (124, 6.14254102110862731934e-02) (125, 3.41680385172367095947e-02) (126, -2.23874282091856002808e-02) (127, -7.79663249850273132324e-02) (128, -9.26576778292655944824e-02) (129, -9.04720872640609741211e-02) (130, 4.17598858475685119629e-02) (131, 4.11348417401313781738e-02) (132, -8.65343213081359863281e-02) (133, -4.80793677270412445068e-02) (134, 9.60731580853462219238e-02) (135, 9.35571268200874328613e-02) (136, -1.18897752836346626282e-02) (137, -4.91048693656921386719e-02) (138, 9.82667431235313415527e-02) (139, 8.86072888970375061035e-02) (140, 4.68537844717502593994e-02) (141, 3.64478789269924163818e-02) (142, -3.07548101991415023804e-02) (143, 3.48140597343444824219e-02) (144, 5.77052645385265350342e-02) (145, -4.61432896554470062256e-02) (146, 1.84711199253797531128e-02) (147, -4.91880103945732116699e-02) (148, -1.29141602665185928345e-02) (149, -2.33833286911249160767e-02) (150, -3.11571362304687500000e+03) (0, -1.50518312500000000000e+05) (1, 3.08176025000000000000e+06) (2, -8.11769921875000000000e+04) (3, 2.43450625000000000000e+06) (4, 7.03528562500000000000e+05) (5, 1.09621025000000000000e+06) (6, 4.73100468750000000000e+05) (7, 1.42704734375000000000e+05) (8, -1.70201765625000000000e+05) (9, -6.58268437500000000000e+05) (10, 3.16023281250000000000e+05) (11, -9.65563375000000000000e+05) (12, -4.08705875000000000000e+05) (13, -1.89958925000000000000e+06) (14, -5.28613828125000000000e+04) (15, -1.90899775000000000000e+06) (16, -1.76331203125000000000e+05) (17, -1.82016325000000000000e+06) (18, 1.68914781250000000000e+05) (19, -8.38802250000000000000e+05) (20, 6.66002437500000000000e+05) (21, -1.21802100000000000000e+06) (22, 1.01315268750000000000e+06) (23, -1.56087075000000000000e+06) (24, 2.20880800000000000000e+06) (25, -9.24678437500000000000e+05) (26, -5.00170062500000000000e+05) (27, -3.08904718750000000000e+05) (28, 1.38122362500000000000e+06) (29, 2.32802906250000000000e+05) (30, 7.13570062500000000000e+05) (31, 5.36331812500000000000e+05) (32, 2.83345843750000000000e+05) (33, 1.02434243750000000000e+06) (34, 9.26086250000000000000e+05) (35, -6.21489312500000000000e+05) (36, -8.68684687500000000000e+05) (37, -7.46765500000000000000e+05) (38, -1.43455537500000000000e+06) (39, -8.65791500000000000000e+05) (40, -5.94587812500000000000e+05) (41, -7.06560062500000000000e+05) (42, -2.43363656250000000000e+05) (43, -1.38209362500000000000e+06) (44, 5.42368250000000000000e+05) (45, -4.27453218750000000000e+05) (46, 1.05976637500000000000e+06) (47, -7.51683062500000000000e+05) (48, 2.90687575000000000000e+06) (49, -4.68513625000000000000e+05) (50, 1.23584212500000000000e+06) (51, -7.73558359375000000000e+04) (52, 5.59519648437500000000e+04) (53, 1.45793475000000000000e+06) (54, 3.86507218750000000000e+05) (55, -1.01258806250000000000e+06) (56, -4.84397218750000000000e+05) (57, -1.77243750000000000000e+06) (58, 1.61537744140625000000e+04) (59, -1.41299150000000000000e+06) (60, 1.76458462500000000000e+06) (61, 7.38811937500000000000e+05) (62, 1.35439500000000000000e+06) (63, -1.38586562500000000000e+05) (64, 6.39291937500000000000e+05) (65, 4.71973828125000000000e+04) (66, 2.70439906250000000000e+05) (67, 7.50916937500000000000e+05) (68, -6.69611437500000000000e+05) (69, -1.56076500000000000000e+06) (70, -1.28344375000000000000e+06) (71, -1.69312612500000000000e+06) (72, -1.15288325000000000000e+06) (73, -3.56390187500000000000e+05) (74, -1.18484562500000000000e+06) (75, 9.69888125000000000000e+04) (76, -8.82893312500000000000e+05) (77, -7.35262875000000000000e+05) (78, -1.31298987500000000000e+06) (79, -9.12004625000000000000e+05) (80, -8.51069312500000000000e+05) (81, 2.27814265625000000000e+05) (82, -9.25777812500000000000e+05) (83, -1.76592929687500000000e+04) (84, -1.01553775000000000000e+06) (85, -1.14001304687500000000e+05) (86, -1.32727612500000000000e+06) (87, -6.81247656250000000000e+04) (88, -3.60566312500000000000e+05) (89, -1.37504112500000000000e+06) (90, -5.70083500000000000000e+05) (91, -1.47823925000000000000e+06) (92, -5.35422125000000000000e+05) (93, -1.50322850000000000000e+06) (94, -6.78501312500000000000e+05) (95, -1.29416387500000000000e+06) (96, -9.86406187500000000000e+05) (97, -1.13722812500000000000e+06) (98, -9.94630875000000000000e+05) (99, -1.13722825000000000000e+06) (100, -8.14246312500000000000e+05) (101, 6.33302687500000000000e+05) (102, -8.22471125000000000000e+05) (103, 6.33302687500000000000e+05) (104, 7.00576156377792358398e-02) (105, -7.07367016002535820007e-03) (106, -7.95258432626724243164e-02) (107, 7.52115547657012939453e-02) (108, 7.78239220380783081055e-02) (109, 3.10477279126644134521e-02) (110, -4.80498485267162322998e-02) (111, 3.78909073770046234131e-02) (112, 7.14208036661148071289e-02) (113, -2.76145208626985549927e-02) (114, 8.56324285268783569336e-02) (115, 4.49007712304592132568e-02) (116, -5.65563328564167022705e-02) (117, -8.74110497534275054932e-03) (118, 8.65172874182462692261e-03) (119, -9.47804097086191177368e-03) (120, -2.42073051631450653076e-02) (121, -9.30763855576515197754e-02) (122, -8.43657255172729492188e-02) (123, -2.97057162970304489136e-02) (124, 6.11699111759662628174e-02) (125, 9.99611569568514823914e-04) (126, -9.85310971736907958984e-02) (127, -2.35286802053451538086e-02) (128, -2.95325424522161483765e-02) (129, 2.58346274495124816895e-02) (130, 1.91483497619628906250e-02) (131, 1.15514723584055900574e-02) (132, -6.29353150725364685059e-02) (133, 2.62892227619886398315e-02) (134, -8.28106403350830078125e-02) (135, -9.28777009248733520508e-02) (136, -8.07844474911689758301e-02) (137, -6.23364858329296112061e-02) (138, 8.23338553309440612793e-02) (139, 9.70394760370254516602e-02) (140, 6.87112435698509216309e-02) (141, -6.57159984111785888672e-02) (142, 3.49303819239139556885e-02) (143, 4.01320494711399078369e-02) (144, 6.66948175057768821716e-03) (145, 2.05628126859664916992e-02) (146, -1.49671817198395729065e-02) (147, 5.01131489872932434082e-02) (148, -8.81782919168472290039e-02) (149, 9.36845466494560241699e-02) (150, -2.87588940429687500000e+03) (0, -1.15939700000000000000e+06) (1, -2.09312000000000000000e+05) (2, 1.64286968750000000000e+05) (3, 4.18391625000000000000e+05) (4, 1.87653087500000000000e+06) (5, 2.44072031250000000000e+04) (6, 4.10825312500000000000e+05) (7, -1.29663287500000000000e+06) (8, 1.20593687500000000000e+06) (9, 2.82674500000000000000e+05) (10, 1.20651162500000000000e+06) (11, -4.84798968750000000000e+05) (12, 1.87483962500000000000e+06) (13, 1.19343640625000000000e+05) (14, 9.90724187500000000000e+05) (15, -3.74984406250000000000e+05) (16, 9.33964437500000000000e+05) (17, -4.39822718750000000000e+05) (18, 1.86783150000000000000e+06) (19, 1.34958687500000000000e+06) (20, 8.31506375000000000000e+05) (21, -1.17322050000000000000e+06) (22, 1.69916625000000000000e+06) (23, -2.74620687500000000000e+05) (24, 8.43490437500000000000e+05) (25, 7.47985312500000000000e+04) (26, 9.89298312500000000000e+05) (27, 2.96318968750000000000e+05) (28, 9.08904062500000000000e+05) (29, 5.89132250000000000000e+05) (30, 9.32093125000000000000e+05) (31, 8.24981687500000000000e+05) (32, -1.97490800000000000000e+06) (33, -4.25775562500000000000e+05) (34, -8.13932656250000000000e+04) (35, -2.58401718750000000000e+05) (36, -2.71234950000000000000e+06) (37, -1.72002787500000000000e+06) (38, -3.32032850000000000000e+06) (39, -2.20680975000000000000e+06) (40, 9.55177125000000000000e+05) (41, 3.00441375000000000000e+05) (42, -2.13641218750000000000e+05) (43, 1.09917875000000000000e+05) (44, -1.62117562500000000000e+06) (45, -3.28056875000000000000e+04) (46, -1.90392468750000000000e+05) (47, -8.33693500000000000000e+05) (48, 3.18136050000000000000e+06) (49, -1.77226125000000000000e+06) (50, 1.11888648437500000000e+05) (51, -2.43810625000000000000e+06) (52, 1.76017484375000000000e+05) (53, -1.20229975000000000000e+06) (54, 8.58637875000000000000e+05) (55, -2.29615325000000000000e+06) (56, 1.58632475000000000000e+06) (57, -3.98439925000000000000e+06) (58, 4.42802906250000000000e+05) (59, -1.83921875000000000000e+06) (60, 7.64134375000000000000e+05) (61, -1.81332837500000000000e+06) (62, 7.32108187500000000000e+05) (63, -3.25149850000000000000e+06) (64, 3.30952675000000000000e+06) (65, -6.64914062500000000000e+05) (66, 1.62748700000000000000e+06) (67, -8.71024125000000000000e+05) (68, 1.19993800000000000000e+06) (69, -7.57042187500000000000e+05) (70, 9.44492312500000000000e+05) (71, -1.83993375000000000000e+06) (72, 5.26005500000000000000e+05) (73, -2.44129700000000000000e+06) (74, 9.48460625000000000000e+05) (75, -2.54745625000000000000e+06) (76, 1.47061150000000000000e+06) (77, -1.22235412500000000000e+06) (78, 1.44778637500000000000e+06) (79, -1.56438612500000000000e+06) (80, 1.26288637500000000000e+06) (81, -6.56819812500000000000e+05) (82, 1.73422212500000000000e+06) (83, -9.19175187500000000000e+05) (84, 1.69485787500000000000e+06) (85, -1.13343887500000000000e+06) (86, 8.80533875000000000000e+05) (87, -1.03065468750000000000e+06) (88, 5.05257281250000000000e+05) (89, -1.41459837500000000000e+06) (90, 5.47624804687500000000e+04) (91, -1.59308925000000000000e+06) (92, 1.14367671875000000000e+05) (93, -1.63829337500000000000e+06) (94, -1.84472640625000000000e+05) (95, -1.13982812500000000000e+06) (96, -6.56955500000000000000e+05) (97, -8.89261625000000000000e+05) (98, -6.59462875000000000000e+05) (99, -8.89261625000000000000e+05) (100, -2.48212156250000000000e+05) (101, 1.93054031250000000000e+05) (102, -2.50719453125000000000e+05) (103, 1.93053875000000000000e+05) (104, -9.22056566923856735229e-03) (105, 5.16842603683471679688e-02) (106, -8.59742797911167144775e-03) (107, -9.76442396640777587891e-02) (108, 2.13862005621194839478e-02) (109, -2.11934937397018074989e-04) (110, -1.14522781223058700562e-02) (111, 1.18670668452978134155e-02) (112, 3.44398692250251770020e-02) (113, 1.22073665261268615723e-02) (114, -3.08560896664857864380e-02) (115, -6.97696432471275329590e-02) (116, 7.63187855482101440430e-02) (117, -5.40967360138893127441e-02) (118, 4.25947122275829315186e-02) (119, -3.11011113226413726807e-02) (120, -5.50551936030387878418e-02) (121, -6.12101703882217407227e-02) (122, 7.16491416096687316895e-02) (123, 9.70333162695169448853e-03) (124, 7.36870020627975463867e-02) (125, -3.31208519637584686279e-02) (126, 3.98830100893974304199e-02) (127, 6.00662119686603546143e-02) (128, -1.32337841205298900604e-03) (129, 9.24570113420486450195e-02) (130, 7.00850263237953186035e-02) (131, -5.06213605403900146484e-02) (132, 5.21349497139453887939e-02) (133, -3.88867817819118499756e-02) (134, -4.12799641489982604980e-02) (135, -5.70856183767318725586e-02) (136, -8.72025266289710998535e-02) (137, 5.01226074993610382080e-02) (138, -5.47298565506935119629e-02) (139, 3.41836772859096527100e-02) (140, -5.00893257558345794678e-02) (141, 3.38178649544715881348e-02) (142, -5.39492554962635040283e-02) (143, 8.43505412340164184570e-02) (144, -5.39747700095176696777e-02) (145, 1.51946553960442543030e-02) (146, -8.54191035032272338867e-02) (147, -7.76559859514236450195e-02) (148, 6.10979199409484863281e-02) (149, 5.71756064891815185547e-02) (150, -3.10996948242187500000e+03) (0, 2.00054575000000000000e+06) (1, 3.02793200000000000000e+06) (2, 1.91678575000000000000e+06) (3, 2.14308500000000000000e+06) (4, 2.53108100000000000000e+06) (5, 1.51643200000000000000e+06) (6, 1.73584550000000000000e+06) (7, -1.39027328125000000000e+05) (8, 1.05151250000000000000e+06) (9, 9.40417109375000000000e+04) (10, 8.86068187500000000000e+05) (11, -2.15903850000000000000e+06) (12, 6.20203375000000000000e+05) (13, -1.97530750000000000000e+06) (14, -1.12444148437500000000e+05) (15, -2.60715675000000000000e+06) (16, -8.63000062500000000000e+05) (17, -2.39491250000000000000e+06) (18, 2.12947828125000000000e+05) (19, -1.20112187500000000000e+06) (20, -3.07101968750000000000e+05) (21, -2.11608700000000000000e+06) (22, -2.77257312500000000000e+05) (23, -1.67629950000000000000e+06) (24, 3.97807156250000000000e+05) (25, 6.54790312500000000000e+05) (26, -4.63102156250000000000e+05) (27, -8.10120078125000000000e+04) (28, 1.75469312500000000000e+05) (29, -2.31673150000000000000e+06) (30, 1.98796975000000000000e+06) (31, 7.36871312500000000000e+05) (32, 7.74143437500000000000e+05) (33, -4.88666718750000000000e+05) (34, 1.20358325000000000000e+06) (35, -8.23601500000000000000e+05) (36, 4.79233164062500000000e+04) (37, -1.31967662500000000000e+06) (38, -5.48136937500000000000e+05) (39, -1.58095387500000000000e+06) (40, 1.12423650000000000000e+06) (41, -6.55677687500000000000e+05) (42, -1.44180593750000000000e+05) (43, -1.65480687500000000000e+05) (44, 1.53402921875000000000e+05) (45, 2.94508062500000000000e+05) (46, 1.05849304687500000000e+05) (47, -1.55523812500000000000e+06) (48, 2.22178050000000000000e+06) (49, -1.85521912500000000000e+06) (50, 7.49402734375000000000e+04) (51, -2.15462725000000000000e+06) (52, -5.19869812500000000000e+05) (53, -1.94126843750000000000e+05) (54, -1.05583570312500000000e+05) (55, -1.03630993750000000000e+06) (56, 2.03972640625000000000e+05) (57, -1.37202685546875000000e+04) (58, 1.01117050000000000000e+06) (59, 4.64395968750000000000e+05) (60, 5.85594562500000000000e+05) (61, 1.35633734375000000000e+05) (62, 2.61820625000000000000e+05) (63, -5.28182750000000000000e+05) (64, 2.10771575000000000000e+06) (65, -6.31522421875000000000e+04) (66, 9.43758562500000000000e+05) (67, 6.92335437500000000000e+05) (68, 8.57397187500000000000e+05) (69, -3.37538218750000000000e+05) (70, 7.99970812500000000000e+05) (71, -5.55840812500000000000e+05) (72, 9.50460875000000000000e+05) (73, -3.75409656250000000000e+05) (74, 9.34763687500000000000e+05) (75, -4.46582156250000000000e+05) (76, 6.39392500000000000000e+05) (77, -7.61079250000000000000e+05) (78, 5.62844687500000000000e+05) (79, -8.49525750000000000000e+05) (80, 6.30696187500000000000e+05) (81, 2.16016656250000000000e+05) (82, 7.33977375000000000000e+05) (83, 1.44966593750000000000e+05) (84, 7.09942750000000000000e+05) (85, 8.44318593750000000000e+04) (86, -1.74794375000000000000e+04) (87, -3.45496125000000000000e+05) (88, 1.63276250000000000000e+05) (89, -4.72286312500000000000e+05) (90, -7.11757109375000000000e+04) (91, -4.90337468750000000000e+05) (92, -1.01470445312500000000e+05) (93, -5.09593187500000000000e+05) (94, -2.60218203125000000000e+05) (95, -2.34315734375000000000e+05) (96, -2.49029390625000000000e+05) (97, -2.43259968750000000000e+05) (98, -2.52093500000000000000e+05) (99, -2.43260031250000000000e+05) (100, -3.03356437500000000000e+05) (101, 2.35943859375000000000e+05) (102, -3.06420593750000000000e+05) (103, 2.35943750000000000000e+05) (104, 7.53768458962440490723e-02) (105, 3.39312963187694549561e-02) (106, -2.31323242187500000000e-02) (107, -5.39499297738075256348e-02) (108, 2.44079865515232086182e-02) (109, 6.05739206075668334961e-02) (110, -7.92880430817604064941e-02) (111, 2.39194021560251712799e-03) (112, 7.46364817023277282715e-02) (113, -6.40577152371406555176e-02) (114, -9.89342946559190750122e-03) (115, -2.69958563148975372314e-02) (116, -8.73286277055740356445e-02) (117, 5.58005236089229583740e-02) (118, 2.48203612864017486572e-02) (119, -1.35895851999521255493e-02) (120, 9.00664553046226501465e-02) (121, 6.03264905512332916260e-02) (122, 4.98462393879890441895e-02) (123, 7.47399404644966125488e-02) (124, -8.41933786869049072266e-02) (125, -8.36890656501054763794e-03) (126, 5.45485801994800567627e-02) (127, -5.67090883851051330566e-02) (128, 7.00696706771850585938e-02) (129, 3.99118335917592048645e-03) (130, -4.95614260435104370117e-02) (131, 7.31853023171424865723e-02) (132, -7.39856287837028503418e-02) (133, -7.00510293245315551758e-03) (134, 8.88050049543380737305e-02) (135, -9.86087843775749206543e-02) (136, -7.30738043785095214844e-02) (137, -3.43273207545280456543e-02) (138, -5.25587126612663269043e-02) (139, 5.13341799378395080566e-02) (140, -7.37534016370773315430e-02) (141, -3.18467542529106140137e-02) (142, -4.62738797068595886230e-02) (143, -9.91169214248657226562e-02) (144, 4.09553525969386100769e-03) (145, 4.38326932489871978760e-02) (146, -2.61127762496471405029e-02) (147, 1.67669057846069335938e-02) (148, -3.66786873200908303261e-04) (149, 9.87075865268707275391e-02) (150, -7.10687805175781250000e+02) (0, 5.41482000000000000000e+05) (1, 3.22695000000000000000e+06) (2, -1.58670000000000000000e+06) (3, 4.17584468750000000000e+05) (4, -1.02150312500000000000e+06) (5, 5.86027937500000000000e+05) (6, -3.23919781250000000000e+05) (7, 2.64395375000000000000e+05) (8, -1.28137900000000000000e+06) (9, -1.54826075000000000000e+06) (10, -1.05417900000000000000e+06) (11, -1.31530825000000000000e+06) (12, -1.54171875000000000000e+06) (13, -1.22247412500000000000e+06) (14, -3.19707906250000000000e+05) (15, -6.10030062500000000000e+05) (16, 5.49348750000000000000e+05) (17, 2.53127703125000000000e+05) (18, -1.25979512500000000000e+06) (19, -4.28795218750000000000e+05) (20, -5.53050812500000000000e+05) (21, 1.41168975000000000000e+06) (22, 8.30215250000000000000e+05) (23, 3.38639500000000000000e+06) (24, 2.53169200000000000000e+06) (25, 1.08810137500000000000e+06) (26, 1.53404437500000000000e+06) (27, 2.37256175000000000000e+06) (28, -2.72759050000000000000e+06) (29, 6.78040687500000000000e+05) (30, -2.17709475000000000000e+06) (31, 1.25200775000000000000e+06) (32, -3.08516281250000000000e+05) (33, 1.03024118750000000000e+06) (34, -4.76271125000000000000e+05) (35, -8.31111875000000000000e+05) (36, -1.06159962500000000000e+06) (37, 1.56908375000000000000e+06) (38, -1.54563025000000000000e+06) (39, -2.03977167968750000000e+04) (40, -2.97529325000000000000e+06) (41, -7.74257031250000000000e+04) (42, -1.31400900000000000000e+06) (43, 4.46368867187500000000e+04) (44, -2.58166015625000000000e+05) (45, -4.22323437500000000000e+05) (46, 3.41071875000000000000e+05) (47, 2.24297025000000000000e+06) (48, -3.56816475000000000000e+06) (49, 8.95067187500000000000e+05) (50, -4.62921218750000000000e+05) (51, 4.99047968750000000000e+05) (52, 5.15557687500000000000e+05) (53, -9.38368812500000000000e+05) (54, 1.16132843750000000000e+05) (55, 1.51191012500000000000e+06) (56, -7.25268812500000000000e+05) (57, 1.74152087500000000000e+06) (58, -8.56809250000000000000e+05) (59, 8.82358312500000000000e+05) (60, -1.88894062500000000000e+06) (61, -3.70345593750000000000e+05) (62, -3.79253875000000000000e+06) (63, 2.88567000000000000000e+05) (64, -3.15352100000000000000e+06) (65, 2.04392962500000000000e+06) (66, -1.98072425000000000000e+06) (67, 1.26102750000000000000e+06) (68, -1.34022937500000000000e+06) (69, 1.62526737500000000000e+06) (70, -8.60428562500000000000e+05) (71, 2.68741550000000000000e+06) (72, -3.61414718750000000000e+05) (73, 3.04171350000000000000e+06) (74, -3.91977562500000000000e+05) (75, 3.26643700000000000000e+06) (76, -1.01437468750000000000e+06) (77, 9.17231500000000000000e+05) (78, -9.20975875000000000000e+05) (79, 1.11304250000000000000e+06) (80, -8.61539125000000000000e+05) (81, 4.15128125000000000000e+05) (82, -1.30857737500000000000e+06) (83, 5.06942656250000000000e+05) (84, -1.28274600000000000000e+06) (85, 6.18414187500000000000e+05) (86, -2.40639437500000000000e+05) (87, 6.05929062500000000000e+05) (88, -4.52123250000000000000e+05) (89, 6.59937625000000000000e+05) (90, -2.96014726562500000000e+04) (91, 6.89133625000000000000e+05) (92, -2.96360507812500000000e+04) (93, 6.77590937500000000000e+05) (94, 2.54872531250000000000e+05) (95, 1.74363109375000000000e+05) (96, 2.16708921875000000000e+05) (97, 1.97671468750000000000e+05) (98, 2.19691078125000000000e+05) (99, 1.97671562500000000000e+05) (100, 2.95246656250000000000e+05) (101, -2.29636328125000000000e+05) (102, 2.98228937500000000000e+05) (103, -2.29636437500000000000e+05) (104, -1.08015425503253936768e-02) (105, 8.63906964659690856934e-02) (106, 1.19743868708610534668e-04) (107, 2.29829177260398864746e-02) (108, 8.26784074306488037109e-02) (109, 4.15717344731092453003e-03) (110, -3.37992683053016662598e-02) (111, -9.07046347856521606445e-02) (112, 6.07647858560085296631e-02) (113, 8.74858051538467407227e-02) (114, 3.22210565209388732910e-02) (115, -3.65058444440364837646e-02) (116, 5.63551336526870727539e-02) (117, 2.15305071324110031128e-02) (118, 4.97295521199703216553e-02) (119, 1.62129253149032592773e-02) (120, -3.59343588352203369141e-02) (121, -4.35115471482276916504e-02) (122, -9.08290222287178039551e-02) (123, -5.01542873680591583252e-02) (124, 1.04880137369036674500e-02) (125, 3.63751724362373352051e-02) (126, 2.19135340303182601929e-02) (127, 2.88498587906360626221e-03) (128, 7.38120749592781066895e-02) (129, 6.79665729403495788574e-02) (130, -5.61756901443004608154e-02) (131, -8.44001471996307373047e-02) (132, -9.57339163869619369507e-03) (133, -3.35697047412395477295e-02) (134, -7.55731016397476196289e-02) (135, 7.96250700950622558594e-02) (136, -4.71790097653865814209e-02) (137, 2.45466399937868118286e-02) (138, 2.60798446834087371826e-03) (139, -6.45006000995635986328e-02) (140, -7.12961852550506591797e-02) (141, 6.88087195158004760742e-02) (142, -5.52052333950996398926e-02) (143, 8.94685983657836914062e-02) (144, 5.62945231795310974121e-02) (145, 7.70158246159553527832e-02) (146, -4.70372475683689117432e-02) (147, 1.26496544107794761658e-02) (148, -1.45367032382637262344e-03) (149, -9.73076969385147094727e-02) (150, -5.66211608886718750000e+02) (0, 1.58557812500000000000e+06) (1, -1.20351703125000000000e+05) (2, 8.36226250000000000000e+05) (3, 1.26170070312500000000e+05) (4, -3.74481625000000000000e+05) (5, 4.33441281250000000000e+05) (6, 8.36969562500000000000e+05) (7, 1.43448862500000000000e+06) (8, 8.30548359375000000000e+04) (9, 1.05966112500000000000e+06) (10, 1.04530839843750000000e+04) (11, 7.20095625000000000000e+05) (12, -1.28097475000000000000e+06) (13, -6.75696875000000000000e+05) (14, -5.46907500000000000000e+05) (15, 6.29960039062500000000e+04) (16, -9.73658375000000000000e+05) (17, -1.64454859375000000000e+05) (18, -1.17528875000000000000e+06) (19, -2.24320925000000000000e+06) (20, -3.48745312500000000000e+05) (21, -1.43782362500000000000e+06) (22, -1.44723350000000000000e+06) (23, -2.25680625000000000000e+06) (24, -2.03194796875000000000e+05) (25, 1.19697650000000000000e+06) (26, -1.12102337500000000000e+06) (27, -1.02813262500000000000e+06) (28, 3.34955250000000000000e+05) (29, -2.83790325000000000000e+06) (30, 2.73619850000000000000e+06) (31, -2.85126531250000000000e+05) (32, 3.00832425000000000000e+06) (33, -4.29147500000000000000e+04) (34, 6.78182312500000000000e+05) (35, -1.48387575000000000000e+06) (36, 2.63295575000000000000e+06) (37, -9.70503000000000000000e+05) (38, 2.32135925000000000000e+06) (39, -4.04909062500000000000e+05) (40, -5.31538562500000000000e+05) (41, 4.34109593750000000000e+05) (42, -3.64586156250000000000e+05) (43, 3.06194625000000000000e+05) (44, 1.47061287500000000000e+06) (45, -4.11792617187500000000e+04) (46, 1.80038037500000000000e+06) (47, 2.67634781250000000000e+05) (48, -6.45341125000000000000e+05) (49, 1.06647775000000000000e+06) (50, 1.21469962500000000000e+06) (51, 1.60818187500000000000e+06) (52, 4.68231062500000000000e+05) (53, 2.55441575000000000000e+06) (54, -1.44298850000000000000e+06) (55, 1.97431812500000000000e+06) (56, -2.53205800000000000000e+06) (57, 1.59110887500000000000e+06) (58, -1.67359984375000000000e+05) (59, -4.38163250000000000000e+05) (60, -1.17970664062500000000e+05) (61, 5.05246343750000000000e+05) (62, -3.03017562500000000000e+05) (63, 1.22603812500000000000e+06) (64, -2.21008500000000000000e+06) (65, -1.33068350000000000000e+06) (66, -1.35289962500000000000e+06) (67, 2.95222843750000000000e+05) (68, -1.47278837500000000000e+06) (69, -4.23501000000000000000e+05) (70, -1.41182787500000000000e+06) (71, 6.84493062500000000000e+05) (72, -9.46253375000000000000e+05) (73, 1.87585137500000000000e+06) (74, -1.59106887500000000000e+06) (75, 1.99138087500000000000e+06) (76, -1.81118287500000000000e+06) (77, 6.41011125000000000000e+05) (78, -1.97166262500000000000e+06) (79, 9.42466375000000000000e+05) (80, -1.24800275000000000000e+06) (81, 9.68660750000000000000e+05) (82, -1.80475612500000000000e+06) (83, 1.14684862500000000000e+06) (84, -1.82132437500000000000e+06) (85, 1.33233900000000000000e+06) (86, -1.46085625000000000000e+06) (87, 7.95140500000000000000e+05) (88, -8.92389812500000000000e+05) (89, 6.40718750000000000000e+05) (90, -5.25221437500000000000e+05) (91, 7.82711687500000000000e+05) (92, -5.60376875000000000000e+05) (93, 8.32076312500000000000e+05) (94, -3.20388781250000000000e+05) (95, 4.11189406250000000000e+05) (96, 3.85999804687500000000e+04) (97, 2.15570828125000000000e+05) (98, 3.50677968750000000000e+04) (99, 2.15570703125000000000e+05) (100, -3.49675031250000000000e+05) (101, 2.71969406250000000000e+05) (102, -3.53207062500000000000e+05) (103, 2.71969468750000000000e+05) (104, -3.85295525193214416504e-02) (105, -1.14424629136919975281e-02) (106, -5.10718412697315216064e-02) (107, 5.95747753977775573730e-02) (108, 7.21663609147071838379e-02) (109, -7.71640613675117492676e-02) (110, -7.51824826002120971680e-02) (111, -8.09179153293371200562e-04) (112, -9.28677618503570556641e-03) (113, 9.86966937780380249023e-02) (114, 1.34370792657136917114e-02) (115, 6.84835314750671386719e-02) (116, -8.78210961818695068359e-02) (117, -8.49941819906234741211e-02) (118, 4.90862019360065460205e-02) (119, -5.08064851164817810059e-02) (120, 1.66473723948001861572e-02) (121, -7.59930834174156188965e-02) (122, -3.63781349733471870422e-03) (123, 5.99746629595756530762e-02) (124, 4.73433323204517364502e-02) (125, 9.94873419404029846191e-02) (126, 2.46341638267040252686e-02) (127, -1.43492389470338821411e-02) (128, 7.40401744842529296875e-02) (129, 6.46810829639434814453e-02) (130, 3.98557633161544799805e-02) (131, 8.04563891142606735229e-03) (132, 8.23914334177970886230e-02) (133, 1.32226655259728431702e-02) (134, -9.40932407975196838379e-02) (135, -5.61381168663501739502e-02) (136, -9.82197970151901245117e-02) (137, -4.51650843024253845215e-02) (138, -9.65633466839790344238e-02) (139, 7.39465653896331787109e-02) (140, -2.23291441798210144043e-02) (141, -7.17458203434944152832e-02) (142, -2.68626175820827484131e-02) (143, 6.83840811252593994141e-02) (144, -7.30491280555725097656e-02) (145, 8.65744650363922119141e-02) (146, 3.68676111102104187012e-02) (147, -6.08702227473258972168e-02) (148, -9.84197258949279785156e-02) (149, -1.40461875125765800476e-02) (150, 4.43570996093750000000e+03) (0, 4.36609406250000000000e+05) (1, 9.92322875000000000000e+05) (2, 9.38206328125000000000e+04) (3, 3.58146906250000000000e+05) (4, 3.59140000000000000000e+04) (5, -8.64569062500000000000e+04) (6, 1.92462187500000000000e+05) (7, 4.40882187500000000000e+05) (8, -3.71893125000000000000e+05) (9, -1.13255320312500000000e+05) (10, -2.61018218750000000000e+05) (11, 1.59380703125000000000e+05) (12, -6.34148625000000000000e+05) (13, -5.61564187500000000000e+05) (14, -2.17708250000000000000e+05) (15, -4.15646281250000000000e+05) (16, -1.95657093750000000000e+05) (17, -5.44197250000000000000e+05) (18, -4.71637875000000000000e+05) (19, -5.20602906250000000000e+05) (20, -8.11474609375000000000e+04) (21, -1.78456718750000000000e+04) (22, 1.87579406250000000000e+05) (23, 4.80375812500000000000e+05) (24, 6.31901250000000000000e+05) (25, 3.69243562500000000000e+05) (26, 4.81261992187500000000e+04) (27, 6.30188375000000000000e+05) (28, 4.47569062500000000000e+05) (29, 3.52867500000000000000e+05) (30, 3.49381343750000000000e+05) (31, -2.09161406250000000000e+05) (32, 5.79672375000000000000e+05) (33, 3.82750531250000000000e+05) (34, 6.19094609375000000000e+04) (35, -2.24962109375000000000e+05) (36, 2.71001437500000000000e+05) (37, -1.80859218750000000000e+05) (38, -4.28589468750000000000e+05) (39, -3.75851375000000000000e+05) (40, -7.90413062500000000000e+05) (41, -4.84419406250000000000e+05) (42, 3.19095781250000000000e+05) (43, -8.49505312500000000000e+05) (44, 6.77433312500000000000e+05) (45, -4.29255937500000000000e+05) (46, 3.90509656250000000000e+05) (47, 1.71666390625000000000e+05) (48, 5.52579921875000000000e+04) (49, 6.99130687500000000000e+05) (50, -1.53855265625000000000e+05) (51, 8.61761312500000000000e+05) (52, -2.79320187500000000000e+05) (53, 9.41231125000000000000e+05) (54, -1.09346757812500000000e+05) (55, 5.38438250000000000000e+05) (56, 1.60127765625000000000e+05) (57, 2.75135312500000000000e+05) (58, -2.64142218750000000000e+05) (59, -3.24020531250000000000e+05) (60, 9.16581640625000000000e+04) (61, 1.17869203125000000000e+05) (62, -2.12980343750000000000e+05) (63, 2.65093847656250000000e+04) (64, 1.56108125000000000000e+05) (65, 6.96575812500000000000e+05) (66, -4.24252781250000000000e+05) (67, 2.95607875000000000000e+05) (68, -6.29579875000000000000e+05) (69, -3.29254593750000000000e+05) (70, -7.32767687500000000000e+05) (71, -1.69048203125000000000e+05) (72, -6.08589187500000000000e+05) (73, 4.20006250000000000000e+05) (74, -5.41276125000000000000e+05) (75, 7.04750375000000000000e+05) (76, -6.44935562500000000000e+05) (77, -8.60946093750000000000e+04) (78, -7.59846875000000000000e+05) (79, -6.92448593750000000000e+04) (80, -5.86146187500000000000e+05) (81, 3.75675031250000000000e+05) (82, -7.46831500000000000000e+05) (83, 3.47425593750000000000e+05) (84, -7.51386625000000000000e+05) (85, 3.59609375000000000000e+05) (86, -5.90949875000000000000e+05) (87, 3.32594812500000000000e+05) (88, -9.70546640625000000000e+04) (89, 3.37646640625000000000e+04) (90, -2.99362246093750000000e+04) (91, 2.88221718750000000000e+04) (92, -1.19698271484375000000e+04) (93, 3.51165546875000000000e+04) (94, 3.34185546875000000000e+04) (95, -4.76676289062500000000e+04) (96, -6.38358007812500000000e+03) (97, -2.60028183593750000000e+04) (98, -6.01676171875000000000e+03) (99, -2.60026621093750000000e+04) (100, 3.63105507812500000000e+04) (101, -2.82416015625000000000e+04) (102, 3.66773085937500000000e+04) (103, -2.82415820312500000000e+04) (104, 4.72350679337978363037e-02) (105, -2.33188178390264511108e-02) (106, -1.36141814291477203369e-02) (107, -2.39903889596462249756e-02) (108, -5.32060079276561737061e-02) (109, -2.60511506348848342896e-02) (110, 7.71454647183418273926e-02) (111, 5.76303601264953613281e-02) (112, -8.39745104312896728516e-02) (113, -4.46862168610095977783e-02) (114, -6.53480142354965209961e-02) (115, 5.75131326913833618164e-02) (116, -1.64301730692386627197e-02) (117, 3.02714705467224121094e-02) (118, 2.98836492002010345459e-02) (119, 7.18364492058753967285e-02) (120, 3.60311642289161682129e-02) (121, 6.61891773343086242676e-02) (122, 1.59903205931186676025e-02) (123, -6.82032629847526550293e-02) (124, -8.22904929518699645996e-02) (125, -7.81311541795730590820e-02) (126, 8.21193233132362365723e-02) (127, 1.39267547056078910828e-02) (128, -4.73865009844303131104e-02) (129, 3.57228927314281463623e-02) (130, -1.28405010327696800232e-02) (131, 1.43205719068646430969e-02) (132, 9.95444133877754211426e-02) (133, 3.72438915073871612549e-02) (134, 9.58969518542289733887e-02) (135, 4.67794798314571380615e-02) (136, -8.60749259591102600098e-02) (137, -1.77172310650348663330e-02) (138, -7.72109106183052062988e-02) (139, -3.92809323966503143311e-02) (140, 5.62316179275512695312e-02) (141, 9.99345555901527404785e-02) (142, -8.16505774855613708496e-02) (143, 7.22571089863777160645e-02) (144, -4.47516664862632751465e-02) (145, -4.69985865056514739990e-02) (146, 2.97702401876449584961e-02) (147, 3.88181619346141815186e-02) (148, 8.32728818058967590332e-02) (149, -4.03461121022701263428e-02) (150, -1.68600500488281250000e+03) (0, 1.84289162500000000000e+06) (1, -1.83867487500000000000e+06) (2, 3.55157375000000000000e+06) (3, -3.57023750000000000000e+05) (4, 2.00944875000000000000e+06) (5, -8.06995750000000000000e+05) (6, 1.60531187500000000000e+06) (7, -1.23933093750000000000e+05) (8, 9.09002625000000000000e+05) (9, 6.48869937500000000000e+05) (10, 4.69374406250000000000e+05) (11, 6.86104750000000000000e+05) (12, -8.65937437500000000000e+05) (13, -1.63302890625000000000e+05) (14, -8.31858250000000000000e+05) (15, 8.42066187500000000000e+05) (16, -1.24541162500000000000e+06) (17, 5.51809062500000000000e+05) (18, -6.89554062500000000000e+05) (19, 9.66991625000000000000e+05) (20, -1.48642787500000000000e+06) (21, -2.66212000000000000000e+05) (22, -2.00862125000000000000e+06) (23, 3.83747406250000000000e+05) (24, -3.99475550000000000000e+06) (25, 2.12100675000000000000e+06) (26, -3.34985025000000000000e+06) (27, -1.57663593750000000000e+05) (28, 1.24038987500000000000e+06) (29, 2.42923600000000000000e+06) (30, 3.16181015625000000000e+04) (31, -1.97772011718750000000e+04) (32, -3.57036718750000000000e+05) (33, 5.16562343750000000000e+05) (34, -8.45870062500000000000e+05) (35, -1.30313617187500000000e+05) (36, -7.39723500000000000000e+05) (37, -4.01845468750000000000e+05) (38, -6.11864187500000000000e+05) (39, 1.30862162500000000000e+06) (40, -4.01922695312500000000e+04) (41, 7.93869187500000000000e+05) (42, -4.77803000000000000000e+05) (43, -1.81090593750000000000e+05) (44, -1.09567787500000000000e+06) (45, 8.46807812500000000000e+04) (46, -2.88461843750000000000e+05) (47, -1.46877900000000000000e+06) (48, 2.50957375000000000000e+06) (49, -1.89913037500000000000e+06) (50, 1.45399787500000000000e+06) (51, -2.07104000000000000000e+06) (52, 2.45413515625000000000e+04) (53, -4.08159812500000000000e+05) (54, 1.06758137500000000000e+06) (55, -2.05239725000000000000e+06) (56, 8.32633500000000000000e+05) (57, -1.09816737500000000000e+06) (58, 2.37733375000000000000e+05) (59, 1.28986075000000000000e+06) (60, 6.25310500000000000000e+05) (61, 2.13335900000000000000e+06) (62, 2.67224575000000000000e+06) (63, 1.80692950000000000000e+06) (64, 1.64579912500000000000e+06) (65, 6.43046562500000000000e+05) (66, 1.65712387500000000000e+06) (67, 8.31853125000000000000e+05) (68, 4.98118593750000000000e+05) (69, -1.18488975000000000000e+06) (70, -3.51273187500000000000e+05) (71, -1.78172450000000000000e+06) (72, -1.43803531250000000000e+05) (73, -1.29878718750000000000e+05) (74, -6.60732875000000000000e+05) (75, -4.67790562500000000000e+05) (76, 5.62972929687500000000e+04) (77, -1.68001250000000000000e+06) (78, -2.29172312500000000000e+05) (79, -1.91585062500000000000e+06) (80, 1.39625812500000000000e+05) (81, -5.81491125000000000000e+05) (82, 4.38256218750000000000e+05) (83, -7.82282687500000000000e+05) (84, 3.55286718750000000000e+05) (85, -9.13093125000000000000e+05) (86, -4.91367250000000000000e+05) (87, -7.99113312500000000000e+05) (88, -4.74302929687500000000e+04) (89, -1.44426375000000000000e+06) (90, -4.71914468750000000000e+05) (91, -1.52443487500000000000e+06) (92, -4.94428500000000000000e+05) (93, -1.56409637500000000000e+06) (94, -7.83044875000000000000e+05) (95, -1.08783600000000000000e+06) (96, -9.38210687500000000000e+05) (97, -1.01376868750000000000e+06) (98, -9.47563000000000000000e+05) (99, -1.01376856250000000000e+06) (100, -9.25888562500000000000e+05) (101, 7.20135562500000000000e+05) (102, -9.35241187500000000000e+05) (103, 7.20135500000000000000e+05) (104, 7.70929679274559020996e-02) (105, -7.42666248697787523270e-04) (106, -9.27703455090522766113e-02) (107, 7.50800967216491699219e-02) (108, 6.06163293123245239258e-02) (109, -5.24793006479740142822e-02) (110, -8.75149667263031005859e-02) (111, 2.75041293352842330933e-02) (112, -9.49166715145111083984e-02) (113, 3.91669832170009613037e-02) (114, -6.20887316763401031494e-02) (115, 5.47938384115695953369e-02) (116, 7.72422179579734802246e-02) (117, 8.50766226649284362793e-02) (118, -7.54700899124145507812e-02) (119, -2.14027296751737594604e-02) (120, -9.89427939057350158691e-02) (121, 2.54421420395374298096e-02) (122, -4.52274419367313385010e-02) (123, -7.14353322982788085938e-02) (124, -1.20148463174700737000e-02) (125, 4.31515686213970184326e-02) (126, -6.30444213747978210449e-02) (127, -6.28563808277249336243e-03) (128, -7.53296464681625366211e-02) (129, -5.58997243642807006836e-02) (130, -4.25947122275829315186e-02) (131, 3.77443097531795501709e-02) (132, 6.89963772892951965332e-02) (133, 6.27764537930488586426e-02) (134, 6.54276460409164428711e-02) (135, 4.60893474519252777100e-02) (136, -3.79662141203880310059e-02) (137, 7.26573020219802856445e-02) (138, 2.11694408208131790161e-02) (139, -7.73498862981796264648e-02) (140, -7.98220038414001464844e-02) (141, 3.36544774472713470459e-02) (142, 5.01542426645755767822e-02) (143, -7.47386664152145385742e-02) (144, -2.71785426884889602661e-02) (145, 8.80655124783515930176e-02) (146, 8.00551697611808776855e-02) (147, -4.99363280832767486572e-02) (148, 7.31421262025833129883e-02) (149, -9.54149216413497924805e-02) (150, 1.04166076660156250000e+03) (0, 5.76319100000000000000e+06) (1, -3.89592850000000000000e+06) (2, 6.28119800000000000000e+06) (3, -3.55348550000000000000e+06) (4, 7.46305937500000000000e+05) (5, -4.90314950000000000000e+06) (6, 1.60805712500000000000e+06) (7, -4.06126125000000000000e+06) (8, 1.76593887500000000000e+06) (9, -2.84043625000000000000e+06) (10, 6.56817500000000000000e+05) (11, -1.92994900000000000000e+06) (12, -1.76421612500000000000e+06) (13, -3.39897725000000000000e+06) (14, -2.07902787500000000000e+06) (15, -1.79872712500000000000e+06) (16, -3.07396975000000000000e+06) (17, -9.05455812500000000000e+05) (18, -1.04104968750000000000e+06) (19, 6.58059716796875000000e+03) (20, -2.75968625000000000000e+06) (21, 4.46202450000000000000e+06) (22, -7.84482650000000000000e+06) (23, -3.04551000000000000000e+05) (24, -5.14882050000000000000e+06) (25, 2.30498150000000000000e+06) (26, -8.44206900000000000000e+06) (27, -1.45845162500000000000e+06) (28, -1.64360550000000000000e+06) (29, -4.22399750000000000000e+06) (30, 5.67359375000000000000e+05) (31, 2.48087875000000000000e+06) (32, 5.51362800000000000000e+06) (33, 7.30406250000000000000e+06) (34, 5.56671054687500000000e+04) (35, 5.05028500000000000000e+06) (36, 3.27424575000000000000e+06) (37, 2.33536225000000000000e+06) (38, 5.40713800000000000000e+06) (39, 2.36517875000000000000e+06) (40, -1.21117725000000000000e+06) (41, 1.72209200000000000000e+06) (42, -2.21858650000000000000e+06) (43, 3.13810525000000000000e+06) (44, -5.70116650000000000000e+06) (45, 1.23770650000000000000e+06) (46, -4.98683500000000000000e+06) (47, -2.79764625000000000000e+05) (48, -6.67756400000000000000e+06) (49, 3.96698750000000000000e+05) (50, -1.15653287500000000000e+06) (51, -2.25909625000000000000e+06) (52, -1.80013862500000000000e+06) (53, -3.63995093750000000000e+05) (54, -5.60034600000000000000e+06) (55, -1.75325537500000000000e+06) (56, -7.37791750000000000000e+06) (57, -1.18049412500000000000e+06) (58, -1.31129075000000000000e+06) (59, -3.81672375000000000000e+06) (60, 1.73856562500000000000e+06) (61, 2.46850150000000000000e+06) (62, 4.65773750000000000000e+06) (63, 3.90785300000000000000e+06) (64, -5.12710800000000000000e+06) (65, -7.94311200000000000000e+06) (66, -1.01898800000000000000e+06) (67, -3.42573450000000000000e+06) (68, -6.08490062500000000000e+05) (69, -2.40299950000000000000e+06) (70, -1.68528637500000000000e+06) (71, -1.31828125000000000000e+06) (72, -2.48008675000000000000e+06) (73, -1.76910512500000000000e+06) (74, -5.44248450000000000000e+06) (75, -2.95282900000000000000e+06) (76, -3.46866475000000000000e+06) (77, 1.59146012500000000000e+06) (78, -3.72120325000000000000e+06) (79, 2.38615500000000000000e+06) (80, -1.71317200000000000000e+06) (81, 3.18314281250000000000e+05) (82, -2.58657325000000000000e+06) (83, 9.72879812500000000000e+05) (84, -2.66872250000000000000e+06) (85, 1.42466925000000000000e+06) (86, -2.89881300000000000000e+06) (87, -1.85574250000000000000e+05) (88, -2.21268950000000000000e+06) (89, 1.10919900000000000000e+06) (90, -1.80066887500000000000e+06) (91, 1.59612675000000000000e+06) (92, -1.92435587500000000000e+06) (93, 1.82870575000000000000e+06) (94, -1.67379225000000000000e+06) (95, 1.40854375000000000000e+06) (96, -1.63256125000000000000e+05) (97, 5.81723500000000000000e+05) (98, -1.81962937500000000000e+05) (99, 5.81723562500000000000e+05) (100, -1.85197750000000000000e+06) (101, 1.44042700000000000000e+06) (102, -1.87068462500000000000e+06) (103, 1.44042700000000000000e+06) (104, 1.30469715222716331482e-02) (105, 3.63369360566139221191e-02) (106, -1.66255813091993331909e-02) (107, -8.84496271610260009766e-02) (108, 5.59732131659984588623e-02) (109, -2.47609876096248626709e-02) (110, -5.28848357498645782471e-02) (111, 7.58633762598037719727e-02) (112, -4.39064390957355499268e-03) (113, -3.29959765076637268066e-02) (114, -5.02630807459354400635e-02) (115, 1.12320696935057640076e-02) (116, 4.37409617006778717041e-02) (117, 4.14481526240706443787e-03) (118, -2.30807196348905563354e-02) (119, 2.99051590263843536377e-02) (120, 1.57016925513744354248e-02) (121, 2.06252466887235641479e-02) (122, -1.73391196876764297485e-02) (123, 8.96831378340721130371e-02) (124, 4.45035621523857116699e-02) (125, 8.91996175050735473633e-02) (126, -8.52017849683761596680e-02) (127, -4.65281866490840911865e-02) (128, -4.52747754752635955811e-02) (129, -9.36588943004608154297e-02) (130, 9.21671837568283081055e-02) (131, 9.61683169007301330566e-02) (132, 3.08613739907741546631e-02) (133, 8.90466943383216857910e-02) (134, -4.08488529501482844353e-04) (135, -5.60916550457477569580e-02) (136, 2.53836326301097869873e-02) (137, 8.29659327864646911621e-02) (138, -4.45412807166576385498e-02) (139, -1.86431556940078735352e-02) (140, -4.17950563132762908936e-02) (141, 2.57388642057776451111e-03) (142, -4.27797809243202209473e-02) (143, 5.38142994046211242676e-02) (144, 6.95779100060462951660e-02) (145, 6.95713981986045837402e-03) (146, -3.49536314606666564941e-02) (147, 1.33188711479306221008e-02) (148, -8.88980478048324584961e-02) (149, 4.19656485319137573242e-02) (150, 1.23735654296875000000e+04) (0, -9.13705375000000000000e+05) (1, -1.13937562500000000000e+05) (2, -1.51271450000000000000e+06) (3, -2.30700343750000000000e+05) (4, -6.07969875000000000000e+05) (5, 2.42930437500000000000e+05) (6, -6.49616687500000000000e+05) (7, -9.09842875000000000000e+05) (8, -8.32135937500000000000e+05) (9, -1.62249775000000000000e+06) (10, -3.99471281250000000000e+05) (11, -1.84038850000000000000e+06) (12, 4.71897695312500000000e+04) (13, -1.23010837500000000000e+06) (14, 7.75039312500000000000e+05) (15, -1.70375487500000000000e+06) (16, 4.84879562500000000000e+05) (17, -1.51487875000000000000e+06) (18, 5.62105000000000000000e+05) (19, -1.74528112500000000000e+06) (20, 1.21884462500000000000e+06) (21, -1.36847525000000000000e+06) (22, 1.13811462500000000000e+06) (23, -8.13195562500000000000e+05) (24, 1.07854200000000000000e+06) (25, -2.50867100000000000000e+06) (26, 1.43145750000000000000e+06) (27, -1.84381890625000000000e+05) (28, -9.17946812500000000000e+05) (29, -1.99711862500000000000e+06) (30, -1.37384525000000000000e+06) (31, -1.01110937500000000000e+06) (32, 4.61504718750000000000e+05) (33, -3.03277593750000000000e+05) (34, 4.73701812500000000000e+05) (35, 9.87131687500000000000e+05) (36, 1.69691600000000000000e+06) (37, 2.35825050000000000000e+06) (38, 1.34070700000000000000e+06) (39, 2.12681275000000000000e+06) (40, 1.23135287500000000000e+06) (41, 3.82044343750000000000e+05) (42, 1.94940187500000000000e+06) (43, 5.94507625000000000000e+05) (44, 3.86608375000000000000e+06) (45, 1.81336562500000000000e+06) (46, 2.16309100000000000000e+06) (47, 1.81264362500000000000e+06) (48, -3.11114925000000000000e+06) (49, -1.89435100000000000000e+06) (50, -1.81391075000000000000e+06) (51, -1.02188906250000000000e+06) (52, -3.72069437500000000000e+05) (53, -1.61832562500000000000e+06) (54, 1.26237787500000000000e+06) (55, 4.73309000000000000000e+05) (56, 2.40487825000000000000e+06) (57, 3.54297900000000000000e+06) (58, 5.13553250000000000000e+05) (59, 1.39458687500000000000e+06) (60, -1.50602937500000000000e+06) (61, -1.34443387500000000000e+06) (62, -2.37073400000000000000e+06) (63, -6.30957687500000000000e+05) (64, 2.15570900000000000000e+06) (65, 3.01150200000000000000e+06) (66, -5.85489375000000000000e+05) (67, -1.28038390625000000000e+05) (68, -4.74661445312500000000e+04) (69, 8.65872062500000000000e+05) (70, 2.16040953125000000000e+05) (71, 1.10865012500000000000e+06) (72, 2.91291937500000000000e+05) (73, 8.69274375000000000000e+05) (74, 6.68343687500000000000e+05) (75, 1.24700437500000000000e+06) (76, -1.12153468750000000000e+05) (77, 3.34999062500000000000e+05) (78, 3.00516484375000000000e+04) (79, 5.31706375000000000000e+05) (80, -4.44074843750000000000e+04) (81, 4.53547437500000000000e+05) (82, -1.20446648437500000000e+05) (83, 6.68490687500000000000e+05) (84, -6.83792343750000000000e+04) (85, 8.02501562500000000000e+05) (86, -1.21237617187500000000e+05) (87, 5.18158531250000000000e+05) (88, -8.18169921875000000000e+04) (89, 1.18615250000000000000e+06) (90, 2.02728187500000000000e+05) (91, 1.30710062500000000000e+06) (92, 1.92518046875000000000e+05) (93, 1.36230275000000000000e+06) (94, 3.83138093750000000000e+05) (95, 1.05745750000000000000e+06) (96, 7.18177687500000000000e+05) (97, 8.82651000000000000000e+05) (98, 7.22934312500000000000e+05) (99, 8.82650875000000000000e+05) (100, 4.70914968750000000000e+05) (101, -3.66267218750000000000e+05) (102, 4.75671656250000000000e+05) (103, -3.66267312500000000000e+05) (104, -7.72213339805603027344e-02) (105, -4.17607873678207397461e-02) (106, 1.50257162749767303467e-02) (107, 4.72909808158874511719e-02) (108, 8.19388329982757568359e-02) (109, -6.94919526576995849609e-02) (110, 5.92148490250110626221e-02) (111, 9.03777703642845153809e-02) (112, -4.59932535886764526367e-02) (113, 6.52907192707061767578e-02) (114, 5.39844483137130737305e-02) (115, -8.73733777552843093872e-03) (116, -7.39266723394393920898e-02) (117, 1.27652110531926155090e-02) (118, 5.49737699329853057861e-02) (119, -3.28362025320529937744e-02) (120, -7.99547359347343444824e-02) (121, -3.10599971562623977661e-02) (122, 5.61288893222808837891e-02) (123, -2.76261419057846069336e-02) (124, 8.37649479508399963379e-02) (125, -7.68737494945526123047e-02) (126, 9.21851322054862976074e-02) (127, 6.65389671921730041504e-02) (128, -9.45919901132583618164e-02) (129, -8.30022394657135009766e-02) (130, -8.43625813722610473633e-02) (131, 7.92544160503894090652e-04) (132, 5.41401728987693786621e-02) (133, -3.29382196068763732910e-02) (134, 5.98316825926303863525e-02) (135, 7.69188404083251953125e-02) (136, 2.53009926527738571167e-02) (137, -2.51426026225090026855e-02) (138, 2.42098234593868255615e-02) (139, 7.23982555791735649109e-03) (140, 5.36544388160109519958e-03) (141, -1.65753290057182312012e-02) (142, -2.38240556791424751282e-03) (143, 5.93721941113471984863e-02) (144, -5.12846112251281738281e-02) (145, -4.83979582786560058594e-02) (146, -4.93651479482650756836e-02) (147, -2.52112820744514465332e-02) (148, 6.43672570586204528809e-02) (149, -9.43913757801055908203e-02) (150, 6.98519384765625000000e+03) (0, -4.77036437500000000000e+05) (1, -2.21246100000000000000e+06) (2, 2.13001950000000000000e+06) (3, 3.03731031250000000000e+05) (4, 1.13090350000000000000e+06) (5, -5.87245117187500000000e+04) (6, 4.01610218750000000000e+05) (7, 7.36097250000000000000e+05) (8, 7.01239812500000000000e+05) (9, 2.78975575000000000000e+06) (10, 6.71702312500000000000e+05) (11, 1.87098537500000000000e+06) (12, 4.05723968750000000000e+05) (13, 5.40373562500000000000e+05) (14, -2.92677468750000000000e+05) (15, 2.25342140625000000000e+05) (16, -1.49148975000000000000e+06) (17, -1.74196150000000000000e+06) (18, 5.85603562500000000000e+05) (19, -7.56294250000000000000e+05) (20, -4.30592625000000000000e+05) (21, -3.38712225000000000000e+06) (22, -1.19188137500000000000e+06) (23, -2.79259975000000000000e+06) (24, -3.66627650000000000000e+06) (25, 1.63369250000000000000e+06) (26, -1.19287862500000000000e+06) (27, -1.23140712500000000000e+06) (28, 3.09665100000000000000e+06) (29, 1.58226375000000000000e+06) (30, 2.45330000000000000000e+06) (31, -1.18538975000000000000e+06) (32, 6.36515500000000000000e+05) (33, -2.16135425000000000000e+06) (34, 1.21268664062500000000e+05) (35, -1.21951650000000000000e+06) (36, 7.54725937500000000000e+05) (37, -3.20338250000000000000e+06) (38, 2.07415171875000000000e+05) (39, -4.90226406250000000000e+05) (40, 2.14487700000000000000e+06) (41, -9.27683437500000000000e+05) (42, 1.79334537500000000000e+06) (43, -2.22546300000000000000e+06) (44, 6.52297375000000000000e+05) (45, -2.24674350000000000000e+06) (46, -4.63148843750000000000e+05) (47, -5.38292950000000000000e+06) (48, 6.06717700000000000000e+06) (49, -2.38547200000000000000e+06) (50, 1.83348000000000000000e+06) (51, -1.14093662500000000000e+06) (52, 3.59517156250000000000e+05) (53, 1.41231475000000000000e+06) (54, 7.25528625000000000000e+05) (55, -2.09258037500000000000e+06) (56, 2.22295850000000000000e+06) (57, -3.74746500000000000000e+05) (58, 1.67262100000000000000e+06) (59, 1.19842650000000000000e+06) (60, 7.35342937500000000000e+05) (61, 1.87821850000000000000e+06) (62, 3.33969675000000000000e+06) (63, 1.25016750000000000000e+06) (64, 4.94125850000000000000e+06) (65, -3.12480843750000000000e+05) (66, 2.90848925000000000000e+06) (67, 5.37531375000000000000e+05) (68, 1.90251212500000000000e+06) (69, -1.55541875000000000000e+06) (70, 1.03156825000000000000e+06) (71, -2.90381350000000000000e+06) (72, 8.81632937500000000000e+05) (73, -1.41926225000000000000e+06) (74, 8.90057125000000000000e+05) (75, -1.65409975000000000000e+06) (76, 1.07659637500000000000e+06) (77, -2.03152325000000000000e+06) (78, 9.55830500000000000000e+05) (79, -2.19977925000000000000e+06) (80, 1.03496118750000000000e+06) (81, -5.60340195312500000000e+04) (82, 1.70956225000000000000e+06) (83, -5.37272929687500000000e+04) (84, 1.69792562500000000000e+06) (85, -9.22989765625000000000e+04) (86, -3.79410312500000000000e+04) (87, -1.11015062500000000000e+05) (88, 4.12427375000000000000e+05) (89, -9.88053046875000000000e+04) (90, 6.36004804687500000000e+04) (91, -3.85605625000000000000e+04) (92, -4.62557656250000000000e+04) (93, -5.91522382812500000000e+04) (94, -2.83902812500000000000e+05) (95, 3.77417031250000000000e+05) (96, 4.06449218750000000000e+04) (97, 2.00631468750000000000e+05) (98, 3.75195468750000000000e+04) (99, 2.00631343750000000000e+05) (100, -3.09409250000000000000e+05) (101, 2.40651765625000000000e+05) (102, -3.12534687500000000000e+05) (103, 2.40651671875000000000e+05) (104, -3.31816747784614562988e-02) (105, 9.83561854809522628784e-03) (106, 6.82365894317626953125e-02) (107, -8.09214711189270019531e-02) (108, -4.15774015709757804871e-03) (109, -7.79817327857017517090e-02) (110, -3.58917377889156341553e-02) (111, -6.99561312794685363770e-02) (112, 3.75800728797912597656e-02) (113, 6.93702772259712219238e-02) (114, 1.71032231301069259644e-02) (115, 5.26321493089199066162e-02) (116, -3.83005179464817047119e-02) (117, -8.96015092730522155762e-02) (118, 5.64866885542869567871e-02) (119, 1.85656789690256118774e-02) (120, -6.19034431874752044678e-02) (121, -9.71768647432327270508e-02) (122, 2.30472646653652191162e-02) (123, -2.96831689774990081787e-02) (124, 2.97334622591733932495e-02) (125, 3.27712744474411010742e-02) (126, -2.47398875653743743896e-02) (127, -6.79039955139160156250e-02) (128, -3.63216921687126159668e-02) (129, 4.23348732292652130127e-02) (130, -4.62393648922443389893e-02) (131, -4.34384867548942565918e-02) (132, -1.24347610399127006531e-02) (133, -9.54535305500030517578e-02) (134, -7.29600945487618446350e-03) (135, 5.43835647404193878174e-02) (136, 1.43820894882082939148e-02) (137, -3.90594191849231719971e-02) (138, 7.34620913863182067871e-02) (139, -8.97756516933441162109e-02) (140, -1.70411523431539535522e-02) (141, -6.24296478927135467529e-02) (142, -5.97317852079868316650e-02) (143, -7.94610828161239624023e-02) (144, -9.30593758821487426758e-02) (145, 5.73714412748813629150e-02) (146, 7.31710717082023620605e-02) (147, -3.13598886132240295410e-02) (148, 6.77699297666549682617e-02) (149, 2.96577569097280502319e-02) (150, 4.14726287841796875000e+02) (0, -2.90109843750000000000e+04) (1, 1.77494000000000000000e+06) (2, -8.60815000000000000000e+05) (3, 4.27021562500000000000e+05) (4, -9.89613125000000000000e+05) (5, 9.56809375000000000000e+04) (6, -5.60683937500000000000e+05) (7, 6.80717687500000000000e+05) (8, -9.84136937500000000000e+05) (9, -3.12195656250000000000e+05) (10, -5.30274125000000000000e+05) (11, 2.06757218750000000000e+05) (12, -7.69524750000000000000e+05) (13, -6.40655195312500000000e+04) (14, -4.51300437500000000000e+05) (15, -2.94218828125000000000e+04) (16, -2.07421031250000000000e+05) (17, -2.18858843750000000000e+05) (18, -6.59297937500000000000e+05) (19, -1.53390843750000000000e+05) (20, -2.40414234375000000000e+05) (21, 1.12296362500000000000e+06) (22, 6.37777937500000000000e+05) (23, 1.99124812500000000000e+06) (24, 5.93603375000000000000e+05) (25, 1.20447687500000000000e+06) (26, 5.16443593750000000000e+05) (27, 9.08713750000000000000e+05) (28, -3.44777031250000000000e+05) (29, 1.06583875000000000000e+06) (30, -6.82324375000000000000e+05) (31, 4.99606781250000000000e+05) (32, -6.10300937500000000000e+04) (33, 5.48733187500000000000e+05) (34, -7.24236250000000000000e+04) (35, -1.14642703125000000000e+05) (36, -3.01992656250000000000e+04) (37, 3.31190562500000000000e+05) (38, -3.41189218750000000000e+05) (39, 1.67973578125000000000e+05) (40, -9.60912812500000000000e+05) (41, -9.49584187500000000000e+05) (42, -3.31997187500000000000e+05) (43, -6.97989375000000000000e+05) (44, -4.10429125000000000000e+05) (45, -6.08201187500000000000e+05) (46, -8.64386062500000000000e+05) (47, -8.02526250000000000000e+04) (48, -2.10268328125000000000e+05) (49, 1.34557612500000000000e+06) (50, 5.47974812500000000000e+05) (51, 8.96413500000000000000e+05) (52, 4.76856437500000000000e+05) (53, 2.27091703125000000000e+05) (54, 1.84116031250000000000e+05) (55, -1.68608234375000000000e+05) (56, 5.23920312500000000000e+04) (57, 2.15900687500000000000e+05) (58, 2.35422078125000000000e+05) (59, 9.39147187500000000000e+05) (60, 1.05296179687500000000e+05) (61, 9.39250000000000000000e+05) (62, -2.72060218750000000000e+05) (63, 1.20350637500000000000e+06) (64, -1.47138300000000000000e+06) (65, -6.59130937500000000000e+04) (66, -8.53396812500000000000e+05) (67, 7.13135250000000000000e+05) (68, -7.72953312500000000000e+05) (69, 1.00259937500000000000e+05) (70, -7.05612375000000000000e+05) (71, 3.92924125000000000000e+05) (72, -5.30769562500000000000e+05) (73, 8.94560625000000000000e+05) (74, -3.40168687500000000000e+05) (75, 1.25508900000000000000e+06) (76, -4.71254562500000000000e+05) (77, 4.85224062500000000000e+05) (78, -5.03168656250000000000e+05) (79, 5.55300000000000000000e+05) (80, -5.57175187500000000000e+05) (81, 2.58524140625000000000e+05) (82, -6.35374125000000000000e+05) (83, 3.17904250000000000000e+05) (84, -6.25010687500000000000e+05) (85, 3.77140250000000000000e+05) (86, -3.28695468750000000000e+05) (87, 6.14137250000000000000e+05) (88, -1.35001046875000000000e+05) (89, 4.13990281250000000000e+05) (90, 3.47897558593750000000e+03) (91, 4.59546718750000000000e+05) (92, 1.17239296875000000000e+04) (93, 4.88492218750000000000e+05) (94, 1.04197515625000000000e+05) (95, 3.34078843750000000000e+05) (96, 2.18253921875000000000e+05) (97, 2.74271500000000000000e+05) (98, 2.19563468750000000000e+05) (99, 2.74271468750000000000e+05) (100, 1.29652546875000000000e+05) (101, -1.00840835937500000000e+05) (102, 1.30962085937500000000e+05) (103, -1.00840882812500000000e+05) (104, -1.36755919083952903748e-02) (105, -2.33576092869043350220e-02) (106, 3.59730757772922515869e-02) (107, -1.14673152565956115723e-02) (108, -7.37762749195098876953e-02) (109, 1.77849959582090377808e-02) (110, -3.59194888733327388763e-03) (111, 7.19699487090110778809e-02) (112, 5.67497648298740386963e-02) (113, 9.81807243078947067261e-03) (114, -3.93593981862068176270e-02) (115, 7.03595057129859924316e-02) (116, 4.91692349314689636230e-02) (117, -5.40641285479068756104e-02) (118, -6.65222257375717163086e-02) (119, -9.19609144330024719238e-02) (120, 5.01960441470146179199e-02) (121, 8.87380838394165039062e-02) (122, -9.03370529413223266602e-02) (123, 8.29671993851661682129e-02) (124, -1.53596075251698493958e-02) (125, -9.02429819107055664062e-02) (126, -3.59515361487865447998e-02) (127, -5.41319884359836578369e-02) (128, 2.62518469244241714478e-02) (129, 5.62633052468299865723e-02) (130, 4.85476776957511901855e-02) (131, 7.13883563876152038574e-02) (132, 2.91378106921911239624e-02) (133, 6.25844150781631469727e-02) (134, 5.47845102846622467041e-03) (135, -8.45377817749977111816e-02) (136, -6.07731975615024566650e-02) (137, -5.85484728217124938965e-02) (138, 3.99490399286150932312e-03) (139, -3.45494672656059265137e-02) (140, 5.92365227639675140381e-02) (141, -9.95970442891120910645e-02) (142, -6.25795200467109680176e-02) (143, 1.59862861037254333496e-02) (144, 1.02210277691483497620e-02) (145, -1.93891685921698808670e-03) (146, -1.36542133986949920654e-02) (147, -4.06097397208213806152e-02) (148, 4.39969561994075775146e-02) (149, 1.98235642164945602417e-02) (150, -2.08921801757812500000e+03) (0, -1.28844400000000000000e+06) (1, 4.99683050000000000000e+06) (2, -1.16089650000000000000e+06) (3, 3.45552125000000000000e+06) (4, 2.76657687500000000000e+05) (5, 1.57955475000000000000e+06) (6, -4.64563187500000000000e+05) (7, 5.61066187500000000000e+05) (8, -1.59482912500000000000e+06) (9, -3.79126687500000000000e+05) (10, -9.16977875000000000000e+05) (11, -1.58730912500000000000e+06) (12, -8.29052625000000000000e+05) (13, -2.14812250000000000000e+06) (14, -1.18127000000000000000e+06) (15, -2.87658450000000000000e+06) (16, -1.32321675000000000000e+06) (17, -3.38224700000000000000e+06) (18, -3.25242750000000000000e+05) (19, -1.62323400000000000000e+06) (20, 9.28682750000000000000e+05) (21, -1.64883287500000000000e+06) (22, 3.51778075000000000000e+06) (23, 3.51693156250000000000e+05) (24, 3.46984300000000000000e+06) (25, 1.35063137500000000000e+06) (26, 1.68853375000000000000e+06) (27, 1.58519037500000000000e+06) (28, 2.82138000000000000000e+06) (29, 2.64343425000000000000e+06) (30, 2.41864900000000000000e+06) (31, 1.36035962500000000000e+06) (32, 4.43798093750000000000e+05) (33, 7.63293312500000000000e+05) (34, 1.87050087500000000000e+06) (35, -4.07909531250000000000e+05) (36, -9.58279000000000000000e+05) (37, -2.23279075000000000000e+06) (38, -2.65795375000000000000e+06) (39, -2.55464225000000000000e+06) (40, 7.85044625000000000000e+05) (41, -2.84467325000000000000e+06) (42, 1.46860562500000000000e+05) (43, -2.83428375000000000000e+06) (44, -3.98414335937500000000e+04) (45, -1.35510062500000000000e+06) (46, -2.12313359375000000000e+05) (47, -2.43068350000000000000e+06) (48, 6.37958350000000000000e+06) (49, 3.36814625000000000000e+05) (50, 1.80244362500000000000e+06) (51, -6.73744375000000000000e+04) (52, 3.11450281250000000000e+05) (53, 1.19240800000000000000e+06) (54, 1.38142362500000000000e+06) (55, -2.51441975000000000000e+06) (56, 1.68151737500000000000e+06) (57, -2.74369775000000000000e+06) (58, 8.69067625000000000000e+05) (59, 7.76149062500000000000e+04) (60, 1.93589712500000000000e+06) (61, 1.05301600000000000000e+06) (62, 1.22907687500000000000e+06) (63, -3.92926250000000000000e+05) (64, 2.68991100000000000000e+06) (65, 1.03736612500000000000e+06) (66, 