FANN_FLO_2.1
num_layers=4
learning_rate=0.700000
connection_rate=1.000000
network_type=0
learning_momentum=0.000000
training_algorithm=0
train_error_function=1
train_stop_function=0
cascade_output_change_fraction=0.010000
quickprop_decay=-0.000100
quickprop_mu=1.750000
rprop_increase_factor=1.200000
rprop_decrease_factor=0.500000
rprop_delta_min=0.000000
rprop_delta_max=50.000000
rprop_delta_zero=0.100000
cascade_output_stagnation_epochs=12
cascade_candidate_change_fraction=0.010000
cascade_candidate_stagnation_epochs=12
cascade_max_out_epochs=150
cascade_max_cand_epochs=150
cascade_num_candidate_groups=2
bit_fail_limit=3.49999994039535522461e-01
cascade_candidate_limit=1.00000000000000000000e+03
cascade_weight_multiplier=4.00000005960464477539e-01
cascade_activation_functions_count=10
cascade_activation_functions=3 5 7 8 10 11 14 15 16 17 
cascade_activation_steepnesses_count=4
cascade_activation_steepnesses=2.50000000000000000000e-01 5.00000000000000000000e-01 7.50000000000000000000e-01 1.00000000000000000000e+00 
layer_sizes=151 71 31 11 
scale_included=0
neurons (num_inputs, activation_function, activation_steepness)=(0, 0, 0.00000000000000000000e+00) (0, 0, 0.00000000000000000000e+00) (0, 0, 0.00000000000000000000e+00) (0, 0, 0.00000000000000000000e+00) (0, 0, 0.00000000000000000000e+00) (0, 0, 0.00000000000000000000e+00) (0, 0, 0.00000000000000000000e+00) (0, 0, 0.00000000000000000000e+00) (0, 0, 0.00000000000000000000e+00) (0, 0, 0.00000000000000000000e+00) (0, 0, 0.00000000000000000000e+00) (0, 0, 0.00000000000000000000e+00) (0, 0, 0.00000000000000000000e+00) (0, 0, 0.00000000000000000000e+00) (0, 0, 0.00000000000000000000e+00) (0, 0, 0.00000000000000000000e+00) (0, 0, 0.00000000000000000000e+00) (0, 0, 0.00000000000000000000e+00) (0, 0, 0.00000000000000000000e+00) (0, 0, 0.00000000000000000000e+00) (0, 0, 0.00000000000000000000e+00) (0, 0, 0.00000000000000000000e+00) (0, 0, 0.00000000000000000000e+00) (0, 0, 0.00000000000000000000e+00) (0, 0, 0.00000000000000000000e+00) (0, 0, 0.00000000000000000000e+00) (0, 0, 0.00000000000000000000e+00) (0, 0, 0.00000000000000000000e+00) (0, 0, 0.00000000000000000000e+00) (0, 0, 0.00000000000000000000e+00) (0, 0, 0.00000000000000000000e+00) (0, 0, 0.00000000000000000000e+00) (0, 0, 0.00000000000000000000e+00) (0, 0, 0.00000000000000000000e+00) (0, 0, 0.00000000000000000000e+00) (0, 0, 0.00000000000000000000e+00) (0, 0, 0.00000000000000000000e+00) (0, 0, 0.00000000000000000000e+00) (0, 0, 0.00000000000000000000e+00) (0, 0, 0.00000000000000000000e+00) (0, 0, 0.00000000000000000000e+00) (0, 0, 0.00000000000000000000e+00) (0, 0, 0.00000000000000000000e+00) (0, 0, 0.00000000000000000000e+00) (0, 0, 0.00000000000000000000e+00) (0, 0, 0.00000000000000000000e+00) (0, 0, 0.00000000000000000000e+00) (0, 0, 0.00000000000000000000e+00) (0, 0, 0.00000000000000000000e+00) (0, 0, 0.00000000000000000000e+00) (0, 0, 0.00000000000000000000e+00) (0, 0, 0.00000000000000000000e+00) (0, 0, 0.00000000000000000000e+00) (0, 0, 0.00000000000000000000e+00) (0, 0, 0.00000000000000000000e+00) (0, 0, 0.00000000000000000000e+00) (0, 0, 0.00000000000000000000e+00) (0, 0, 0.00000000000000000000e+00) (0, 0, 0.00000000000000000000e+00) (0, 0, 0.00000000000000000000e+00) (0, 0, 0.00000000000000000000e+00) (0, 0, 0.00000000000000000000e+00) (0, 0, 0.00000000000000000000e+00) (0, 0, 0.00000000000000000000e+00) (0, 0, 0.00000000000000000000e+00) (0, 0, 0.00000000000000000000e+00) (0, 0, 0.00000000000000000000e+00) (0, 0, 0.00000000000000000000e+00) (0, 0, 0.00000000000000000000e+00) (0, 0, 0.00000000000000000000e+00) (0, 0, 0.00000000000000000000e+00) (0, 0, 0.00000000000000000000e+00) (0, 0, 0.00000000000000000000e+00) (0, 0, 0.00000000000000000000e+00) (0, 0, 0.00000000000000000000e+00) (0, 0, 0.00000000000000000000e+00) (0, 0, 0.00000000000000000000e+00) (0, 0, 0.00000000000000000000e+00) (0, 0, 0.00000000000000000000e+00) (0, 0, 0.00000000000000000000e+00) (0, 0, 0.00000000000000000000e+00) (0, 0, 0.00000000000000000000e+00) (0, 0, 0.00000000000000000000e+00) (0, 0, 0.00000000000000000000e+00) (0, 0, 0.00000000000000000000e+00) (0, 0, 0.00000000000000000000e+00) (0, 0, 0.00000000000000000000e+00) (0, 0, 0.00000000000000000000e+00) (0, 0, 0.00000000000000000000e+00) (0, 0, 0.00000000000000000000e+00) (0, 0, 0.00000000000000000000e+00) (0, 0, 0.00000000000000000000e+00) (0, 0, 0.00000000000000000000e+00) (0, 0, 0.00000000000000000000e+00) (0, 0, 0.00000000000000000000e+00) (0, 0, 0.00000000000000000000e+00) (0, 0, 0.00000000000000000000e+00) (0, 0, 0.00000000000000000000e+00) (0, 0, 0.00000000000000000000e+00) (0, 0, 0.00000000000000000000e+00) (0, 0, 0.00000000000000000000e+00) (0, 0, 0.00000000000000000000e+00) (0, 0, 0.00000000000000000000e+00) (0, 0, 0.00000000000000000000e+00) (0, 0, 0.00000000000000000000e+00) (0, 0, 0.00000000000000000000e+00) (0, 0, 0.00000000000000000000e+00) (0, 0, 0.00000000000000000000e+00) (0, 0, 0.00000000000000000000e+00) (0, 0, 0.00000000000000000000e+00) (0, 0, 0.00000000000000000000e+00) (0, 0, 0.00000000000000000000e+00) (0, 0, 0.00000000000000000000e+00) (0, 0, 0.00000000000000000000e+00) (0, 0, 0.00000000000000000000e+00) (0, 0, 0.00000000000000000000e+00) (0, 0, 0.00000000000000000000e+00) (0, 0, 0.00000000000000000000e+00) (0, 0, 0.00000000000000000000e+00) (0, 0, 0.00000000000000000000e+00) (0, 0, 0.00000000000000000000e+00) (0, 0, 0.00000000000000000000e+00) (0, 0, 0.00000000000000000000e+00) (0, 0, 0.00000000000000000000e+00) (0, 0, 0.00000000000000000000e+00) (0, 0, 0.00000000000000000000e+00) (0, 0, 0.00000000000000000000e+00) (0, 0, 0.00000000000000000000e+00) (0, 0, 0.00000000000000000000e+00) (0, 0, 0.00000000000000000000e+00) (0, 0, 0.00000000000000000000e+00) (0, 0, 0.00000000000000000000e+00) (0, 0, 0.00000000000000000000e+00) (0, 0, 0.00000000000000000000e+00) (0, 0, 0.00000000000000000000e+00) (0, 0, 0.00000000000000000000e+00) (0, 0, 0.00000000000000000000e+00) (0, 0, 0.00000000000000000000e+00) (0, 0, 0.00000000000000000000e+00) (0, 0, 0.00000000000000000000e+00) (0, 0, 0.00000000000000000000e+00) (0, 0, 0.00000000000000000000e+00) (0, 0, 0.00000000000000000000e+00) (0, 0, 0.00000000000000000000e+00) (0, 0, 0.00000000000000000000e+00) (0, 0, 0.00000000000000000000e+00) (0, 0, 0.00000000000000000000e+00) (0, 0, 0.00000000000000000000e+00) (0, 0, 0.00000000000000000000e+00) (0, 0, 0.00000000000000000000e+00) (0, 0, 0.00000000000000000000e+00) (151, 6, 5.00000000000000000000e-01) (151, 6, 5.00000000000000000000e-01) (151, 6, 5.00000000000000000000e-01) (151, 6, 5.00000000000000000000e-01) (151, 6, 5.00000000000000000000e-01) (151, 6, 5.00000000000000000000e-01) (151, 6, 5.00000000000000000000e-01) (151, 6, 5.00000000000000000000e-01) (151, 6, 5.00000000000000000000e-01) (151, 6, 5.00000000000000000000e-01) (151, 6, 5.00000000000000000000e-01) (151, 6, 5.00000000000000000000e-01) (151, 6, 5.00000000000000000000e-01) (151, 6, 5.00000000000000000000e-01) (151, 6, 5.00000000000000000000e-01) (151, 6, 5.00000000000000000000e-01) (151, 6, 5.00000000000000000000e-01) (151, 6, 5.00000000000000000000e-01) (151, 6, 5.00000000000000000000e-01) (151, 6, 5.00000000000000000000e-01) (151, 6, 5.00000000000000000000e-01) (151, 6, 5.00000000000000000000e-01) (151, 6, 5.00000000000000000000e-01) (151, 6, 5.00000000000000000000e-01) (151, 6, 5.00000000000000000000e-01) (151, 6, 5.00000000000000000000e-01) (151, 6, 5.00000000000000000000e-01) (151, 6, 5.00000000000000000000e-01) (151, 6, 5.00000000000000000000e-01) (151, 6, 5.00000000000000000000e-01) (151, 6, 5.00000000000000000000e-01) (151, 6, 5.00000000000000000000e-01) (151, 6, 5.00000000000000000000e-01) (151, 6, 5.00000000000000000000e-01) (151, 6, 5.00000000000000000000e-01) (151, 6, 5.00000000000000000000e-01) (151, 6, 5.00000000000000000000e-01) (151, 6, 5.00000000000000000000e-01) (151, 6, 5.00000000000000000000e-01) (151, 6, 5.00000000000000000000e-01) (151, 6, 5.00000000000000000000e-01) (151, 6, 5.00000000000000000000e-01) (151, 6, 5.00000000000000000000e-01) (151, 6, 5.00000000000000000000e-01) (151, 6, 5.00000000000000000000e-01) (151, 6, 5.00000000000000000000e-01) (151, 6, 5.00000000000000000000e-01) (151, 6, 5.00000000000000000000e-01) (151, 6, 5.00000000000000000000e-01) (151, 6, 5.00000000000000000000e-01) (151, 6, 5.00000000000000000000e-01) (151, 6, 5.00000000000000000000e-01) (151, 6, 5.00000000000000000000e-01) (151, 6, 5.00000000000000000000e-01) (151, 6, 5.00000000000000000000e-01) (151, 6, 5.00000000000000000000e-01) (151, 6, 5.00000000000000000000e-01) (151, 6, 5.00000000000000000000e-01) (151, 6, 5.00000000000000000000e-01) (151, 6, 5.00000000000000000000e-01) (151, 6, 5.00000000000000000000e-01) (151, 6, 5.00000000000000000000e-01) (151, 6, 5.00000000000000000000e-01) (151, 6, 5.00000000000000000000e-01) (151, 6, 5.00000000000000000000e-01) (151, 6, 5.00000000000000000000e-01) (151, 6, 5.00000000000000000000e-01) (151, 6, 5.00000000000000000000e-01) (151, 6, 5.00000000000000000000e-01) (151, 6, 5.00000000000000000000e-01) (0, 6, 0.00000000000000000000e+00) (71, 6, 5.00000000000000000000e-01) (71, 6, 5.00000000000000000000e-01) (71, 6, 5.00000000000000000000e-01) (71, 6, 5.00000000000000000000e-01) (71, 6, 5.00000000000000000000e-01) (71, 6, 5.00000000000000000000e-01) (71, 6, 5.00000000000000000000e-01) (71, 6, 5.00000000000000000000e-01) (71, 6, 5.00000000000000000000e-01) (71, 6, 5.00000000000000000000e-01) (71, 6, 5.00000000000000000000e-01) (71, 6, 5.00000000000000000000e-01) (71, 6, 5.00000000000000000000e-01) (71, 6, 5.00000000000000000000e-01) (71, 6, 5.00000000000000000000e-01) (71, 6, 5.00000000000000000000e-01) (71, 6, 5.00000000000000000000e-01) (71, 6, 5.00000000000000000000e-01) (71, 6, 5.00000000000000000000e-01) (71, 6, 5.00000000000000000000e-01) (71, 6, 5.00000000000000000000e-01) (71, 6, 5.00000000000000000000e-01) (71, 6, 5.00000000000000000000e-01) (71, 6, 5.00000000000000000000e-01) (71, 6, 5.00000000000000000000e-01) (71, 6, 5.00000000000000000000e-01) (71, 6, 5.00000000000000000000e-01) (71, 6, 5.00000000000000000000e-01) (71, 6, 5.00000000000000000000e-01) (71, 6, 5.00000000000000000000e-01) (0, 6, 0.00000000000000000000e+00) (31, 3, 5.00000000000000000000e-01) (31, 3, 5.00000000000000000000e-01) (31, 3, 5.00000000000000000000e-01) (31, 3, 5.00000000000000000000e-01) (31, 3, 5.00000000000000000000e-01) (31, 3, 5.00000000000000000000e-01) (31, 3, 5.00000000000000000000e-01) (31, 3, 5.00000000000000000000e-01) (31, 3, 5.00000000000000000000e-01) (31, 3, 5.00000000000000000000e-01) (0, 3, 0.00000000000000000000e+00) 
connections (connected_to_neuron, weight)=(0, 6.25023956298828125000e+01) (1, 5.79210205078125000000e+01) (2, 7.46684417724609375000e+01) (3, 7.99998703002929687500e+01) (4, 8.81252822875976562500e+01) (5, 5.98125610351562500000e+01) (6, 9.97311935424804687500e+01) (7, 5.50323028564453125000e+01) (8, 9.98488311767578125000e+01) (9, 3.61583480834960937500e+01) (10, 7.91842041015625000000e+01) (11, 1.82802143096923828125e+01) (12, 4.98395080566406250000e+01) (13, -5.08351364135742187500e+01) (14, 4.25656204223632812500e+01) (15, -5.50538978576660156250e+01) (16, 1.99360942840576171875e+01) (17, -5.98328742980957031250e+01) (18, -4.50522422790527343750e-01) (19, -4.90487937927246093750e+01) (20, -1.73421955108642578125e+01) (21, -2.42265872955322265625e+01) (22, -1.56394863128662109375e+01) (23, -2.13037586212158203125e+01) (24, -8.05212116241455078125e+00) (25, 4.81124258041381835938e+00) (26, 5.39442968368530273438e+00) (27, 4.54194009304046630859e-01) (28, 5.25092172622680664062e+00) (29, 2.60006165504455566406e+00) (30, 1.90474910736083984375e+01) (31, 4.07478485107421875000e+01) (32, -1.80252685546875000000e+01) (33, 5.27566604614257812500e+01) (34, -1.67603874206542968750e+01) (35, 2.15639533996582031250e+01) (36, -3.28324089050292968750e+01) (37, 3.58349084854125976562e+00) (38, -3.06503162384033203125e+01) (39, 8.99016666412353515625e+00) (40, -1.96924400329589843750e+01) (41, 2.42060985565185546875e+01) (42, -1.95451488494873046875e+01) (43, 3.13034362792968750000e+01) (44, -2.62484874725341796875e+01) (45, 2.34484024047851562500e+01) (46, -2.36569442749023437500e+01) (47, 1.04892349243164062500e+01) (48, -3.89241333007812500000e+01) (49, 3.10334205627441406250e+00) (50, -4.41038818359375000000e+01) (51, -1.17613630294799804688e+01) (52, 1.87128829956054687500e+01) (53, -1.52637224197387695312e+01) (54, 2.35301036834716796875e+01) (55, 2.29236793518066406250e+01) (56, 3.81188240051269531250e+01) (57, 2.59027519226074218750e+01) (58, 4.48339538574218750000e+01) (59, 2.38676052093505859375e+01) (60, 3.47391395568847656250e+01) (61, 1.04617872238159179688e+01) (62, 3.99829788208007812500e+01) (63, 2.16058521270751953125e+01) (64, 3.64494285583496093750e+01) (65, 6.42127990722656250000e+00) (66, 3.99985046386718750000e+01) (67, 1.20780324935913085938e+01) (68, 3.35146827697753906250e+01) (69, 1.04405994415283203125e+01) (70, 1.41179666519165039062e+01) (71, 2.04174365997314453125e+01) (72, 2.98077621459960937500e+01) (73, 1.05646553039550781250e+01) (74, 3.99811592102050781250e+01) (75, -3.88942742347717285156e+00) (76, 2.84864883422851562500e+01) (77, -2.13811321258544921875e+01) (78, 3.51402702331542968750e+01) (79, -3.32468147277832031250e+01) (80, 5.36636810302734375000e+01) (81, -3.52360115051269531250e+01) (82, 3.63333473205566406250e+01) (83, -3.87996368408203125000e+01) (84, 3.76082878112792968750e+01) (85, -2.95760383605957031250e+01) (86, 5.48540153503417968750e+01) (87, -1.14149293899536132812e+01) (88, 2.25766525268554687500e+01) (89, -2.31032428741455078125e+01) (90, 2.88220977783203125000e+01) (91, -1.86679515838623046875e+01) (92, 9.88940620422363281250e+00) (93, -1.95657405853271484375e+01) (94, 4.49062395095825195312e+00) (95, 8.91110801696777343750e+00) (96, 1.07292060852050781250e+01) (97, -6.58535623550415039062e+00) (98, 7.18488502502441406250e+00) (99, -6.61955404281616210938e+00) (100, 1.43987331390380859375e+01) (101, -2.75236682891845703125e+01) (102, 5.56476879119873046875e+00) (103, -2.26283588409423828125e+01) (104, -6.30794954299926757812e+00) (105, -2.66242561340332031250e+01) (106, 3.99172377586364746094e+00) (107, -1.09182758331298828125e+01) (108, 7.45811700820922851562e+00) (109, 2.11022520065307617188e+00) (110, -9.17294979095458984375e+00) (111, -1.24642047882080078125e+01) (112, -2.58800354003906250000e+01) (113, -3.04557685852050781250e+01) (114, -2.64170765876770019531e+00) (115, -1.11731758117675781250e+01) (116, -1.77622089385986328125e+01) (117, -1.57043027877807617188e+01) (118, -1.35354938507080078125e+01) (119, 3.20859026908874511719e+00) (120, -1.64076480865478515625e+01) (121, 1.83935432434082031250e+01) (122, -2.08697528839111328125e+01) (123, 2.38573951721191406250e+01) (124, -2.63864250183105468750e+01) (125, 2.71758136749267578125e+01) (126, -2.26217250823974609375e+01) (127, -8.63428020477294921875e+00) (128, -3.21546134948730468750e+01) (129, -1.46485102176666259766e+00) (130, -2.50155105590820312500e+01) (131, -1.66832466125488281250e+01) (132, -2.08654842376708984375e+01) (133, -1.02353830337524414062e+01) (134, -2.81651573181152343750e+01) (135, -2.22392654418945312500e+01) (136, -2.52197666168212890625e+01) (137, -1.20587978363037109375e+01) (138, -1.98849964141845703125e+01) (139, -1.55432062149047851562e+01) (140, -1.28316755294799804688e+01) (141, -9.89291000366210937500e+00) (142, -1.73359603881835937500e+01) (143, 4.77254056930541992188e+00) (144, -3.52163581848144531250e+01) (145, 4.81836700439453125000e+00) (146, -2.89395999908447265625e+01) (147, 1.24160170555114746094e+00) (148, -2.85303096771240234375e+01) (149, -5.72213292121887207031e-01) (150, 1.25187411904335021973e-02) (0, -5.97470207214355468750e+01) (1, -1.16059387207031250000e+02) (2, -5.32872676849365234375e+00) (3, -6.66371994018554687500e+01) (4, -2.20113430023193359375e+01) (5, -6.19895362854003906250e+01) (6, 1.26021690368652343750e+01) (7, -3.60868797302246093750e+01) (8, 1.27688827514648437500e+01) (9, -1.23636264801025390625e+01) (10, -2.31581459045410156250e+01) (11, -4.00235481262207031250e+01) (12, -1.30371665954589843750e+01) (13, -2.02904834747314453125e+01) (14, -1.17372727394104003906e+00) (15, 5.60462989807128906250e+01) (16, -2.44347453117370605469e+00) (17, 3.15018844604492187500e+01) (18, 2.70584564208984375000e+01) (19, 2.50998306274414062500e+01) (20, 5.42324867248535156250e+01) (21, 8.96754455566406250000e+00) (22, 2.68618030548095703125e+01) (23, 9.24038314819335937500e+00) (24, -1.26519799232482910156e-01) (25, 2.65048408508300781250e+01) (26, -4.01228713989257812500e+01) (27, 2.09342575073242187500e+01) (28, -3.80766639709472656250e+01) (29, 4.71809425354003906250e+01) (30, -1.81429939270019531250e+01) (31, 4.44985809326171875000e+01) (32, -3.88097686767578125000e+01) (33, 5.38735675811767578125e+00) (34, -3.24405326843261718750e+01) (35, 1.88627681732177734375e+01) (36, -3.06254158020019531250e+01) (37, -7.20053863525390625000e+00) (38, -2.61681003570556640625e+01) (39, -3.36110997200012207031e+00) (40, -2.70689544677734375000e+01) (41, -6.14524269104003906250e+00) (42, -2.74631996154785156250e+01) (43, 1.23952379226684570312e+01) (44, -1.36707420349121093750e+01) (45, -7.73931598663330078125e+00) (46, -1.91457901000976562500e+01) (47, -5.00702323913574218750e+01) (48, -3.64778251647949218750e+01) (49, -5.96035919189453125000e+01) (50, -4.33598937988281250000e+01) (51, -5.25134277343750000000e+01) (52, 1.09713878631591796875e+01) (53, -4.33567466735839843750e+01) (54, 1.60631446838378906250e+01) (55, -5.80981941223144531250e+01) (56, -5.51022958755493164062e+00) (57, -2.45795955657958984375e+01) (58, 1.27049789428710937500e+01) (59, -4.02793579101562500000e+01) (60, -3.10353565216064453125e+00) (61, -6.03569068908691406250e+01) (62, -1.65063896179199218750e+01) (63, -7.31986389160156250000e+01) (64, -4.14220142364501953125e+00) (65, -4.77044258117675781250e+01) (66, -2.09901218414306640625e+01) (67, -6.07174987792968750000e+01) (68, -2.00740261077880859375e+01) (69, -8.55654678344726562500e+01) (70, -8.90807437896728515625e+00) (71, -6.14157905578613281250e+01) (72, 6.85721337795257568359e-01) (73, -3.15054836273193359375e+01) (74, -9.56210422515869140625e+00) (75, -9.61771011352539062500e+00) (76, -5.09672403335571289062e-01) (77, -3.52797851562500000000e+01) (78, 6.56953716278076171875e+00) (79, -1.12319869995117187500e+01) (80, -8.76067399978637695312e-01) (81, -1.03923482894897460938e+01) (82, 2.71756982803344726562e+00) (83, -2.39533805847167968750e+01) (84, -2.76791095733642578125e+00) (85, -1.24845485687255859375e+01) (86, -3.12467346191406250000e+01) (87, -1.37657022476196289062e+01) (88, -1.86079139709472656250e+01) (89, 6.93062829971313476562e+00) (90, -2.22737007141113281250e+01) (91, 1.48003826141357421875e+01) (92, -4.78579473495483398438e+00) (93, 6.84200134277343750000e+01) (94, -1.06670293807983398438e+01) (95, 3.37558898925781250000e+01) (96, -3.35856742858886718750e+01) (97, 2.84987640380859375000e+01) (98, -2.03303966522216796875e+01) (99, 2.79000244140625000000e+01) (100, -2.22968158721923828125e+01) (101, 3.51307640075683593750e+01) (102, -4.25011587142944335938e+00) (103, 5.54319763183593750000e+01) (104, -2.46631679534912109375e+01) (105, 1.99221038818359375000e+01) (106, -2.01790466308593750000e+01) (107, 3.66303291320800781250e+01) (108, -9.99277210235595703125e+00) (109, 7.08527603149414062500e+01) (110, 1.19722235202789306641e+00) (111, 5.40752182006835937500e+01) (112, -1.83061504364013671875e+01) (113, 3.19139957427978515625e+01) (114, -1.57149419784545898438e+01) (115, 6.76270294189453125000e+01) (116, -2.03668537139892578125e+01) (117, 2.46138725280761718750e+01) (118, -3.44046354293823242188e+00) (119, 5.65281105041503906250e+01) (120, -1.02799911499023437500e+01) (121, 6.57187423706054687500e+01) (122, -1.12319593429565429688e+01) (123, 5.68304672241210937500e+01) (124, -6.42810297012329101562e+00) (125, 2.79514942169189453125e+01) (126, -1.70938148498535156250e+01) (127, 2.05079917907714843750e+01) (128, -4.43381404876708984375e+00) (129, 1.09622449874877929688e+01) (130, -1.46923542022705078125e+01) (131, 9.33934688568115234375e+00) (132, -9.89164638519287109375e+00) (133, -2.31708478927612304688e+00) (134, 4.46911215782165527344e-01) (135, 1.75862140655517578125e+01) (136, 4.06911611557006835938e+00) (137, -2.30250644683837890625e+01) (138, 2.60180568695068359375e+00) (139, -6.84425201416015625000e+01) (140, 1.45960769653320312500e+01) (141, -6.28556327819824218750e+01) (142, 2.97102966308593750000e+01) (143, -4.90247611999511718750e+01) (144, 3.82339706420898437500e+01) (145, -3.86555709838867187500e+01) (146, 2.78483066558837890625e+01) (147, -5.11903495788574218750e+01) (148, 1.37904224395751953125e+01) (149, -6.48426971435546875000e+01) (150, -7.22372531890869140625e-02) (0, 1.60997414588928222656e+00) (1, -5.32519493103027343750e+01) (2, 2.93128967285156250000e-01) (3, -4.06441688537597656250e+01) (4, -2.00422496795654296875e+01) (5, -6.74455871582031250000e+01) (6, -8.75826072692871093750e+00) (7, -3.84384536743164062500e+01) (8, -3.17474484443664550781e-01) (9, -3.97597351074218750000e+01) (10, 7.63235902786254882812e+00) (11, -3.71649398803710937500e+01) (12, -6.05365419387817382812e+00) (13, -6.39578399658203125000e+01) (14, 9.43092441558837890625e+00) (15, -4.49139251708984375000e+01) (16, 1.06935224533081054688e+01) (17, -3.30882759094238281250e+01) (18, 2.87613773345947265625e+01) (19, -3.33851470947265625000e+01) (20, 4.44861335754394531250e+01) (21, -4.36883468627929687500e+01) (22, 5.59116630554199218750e+01) (23, -5.41313552856445312500e+01) (24, 3.58296470642089843750e+01) (25, -6.89924392700195312500e+01) (26, 1.84539775848388671875e+01) (27, -6.50502777099609375000e+01) (28, 2.79524765014648437500e+01) (29, -6.10855407714843750000e+01) (30, 4.60207901000976562500e+01) (31, -3.92143516540527343750e+01) (32, 4.29581680297851562500e+01) (33, -4.60338478088378906250e+01) (34, 3.09597873687744140625e+01) (35, -5.55961608886718750000e+00) (36, 2.17858390808105468750e+01) (37, -1.32044878005981445312e+01) (38, 4.51245841979980468750e+01) (39, -3.08753967285156250000e+01) (40, 4.97675704956054687500e+01) (41, -4.76772422790527343750e+01) (42, 1.74893321990966796875e+01) (43, -3.23864707946777343750e+01) (44, 2.98365898132324218750e+01) (45, -2.57086906433105468750e+01) (46, 4.52472991943359375000e+01) (47, -1.02890729904174804688e+01) (48, 4.40303573608398437500e+01) (49, -2.32064495086669921875e+01) (50, 4.65485115051269531250e+01) (51, -1.27079544067382812500e+01) (52, 4.68416595458984375000e+01) (53, -3.01045455932617187500e+01) (54, 6.20843124389648437500e+01) (55, -3.06694107055664062500e+01) (56, 5.24952888488769531250e+01) (57, -4.13959274291992187500e+01) (58, 5.91312942504882812500e+01) (59, -1.72694473266601562500e+01) (60, 3.79191932678222656250e+01) (61, -5.22345275878906250000e+01) (62, 4.00603904724121093750e+01) (63, -4.38618774414062500000e+01) (64, 5.38348159790039062500e+01) (65, -3.08481693267822265625e+01) (66, 5.02869148254394531250e+01) (67, -2.77214183807373046875e+01) (68, 4.59185104370117187500e+01) (69, -3.56231880187988281250e+01) (70, 4.39745330810546875000e+01) (71, -2.04718647003173828125e+01) (72, 2.41253738403320312500e+01) (73, -7.41423320770263671875e+00) (74, 8.98693275451660156250e+00) (75, -4.66311883926391601562e+00) (76, 2.07506484985351562500e+01) (77, -4.86689376831054687500e+01) (78, 1.74079437255859375000e+01) (79, -6.51141052246093750000e+01) (80, 9.31191062927246093750e+00) (81, -5.36870880126953125000e+01) (82, -8.42889964580535888672e-01) (83, -4.23093185424804687500e+01) (84, 5.43806648254394531250e+00) (85, -4.55897102355957031250e+01) (86, 9.52202415466308593750e+00) (87, -2.04436531066894531250e+01) (88, 2.44011611938476562500e+01) (89, -2.93749275207519531250e+01) (90, -5.16372394561767578125e+00) (91, -2.15929145812988281250e+01) (92, -3.56121292114257812500e+01) (93, -2.77312145233154296875e+01) (94, -2.36309967041015625000e+01) (95, -3.64392471313476562500e+01) (96, -3.19740543365478515625e+01) (97, -5.38934440612792968750e+01) (98, -2.25910320281982421875e+01) (99, -6.37341651916503906250e+01) (100, 2.94560742378234863281e+00) (101, -6.43771591186523437500e+01) (102, 1.11108713150024414062e+01) (103, -6.69120101928710937500e+01) (104, 2.22695083618164062500e+01) (105, -5.39596519470214843750e+01) (106, 1.21029195785522460938e+01) (107, -4.33933715820312500000e+01) (108, 2.96628723144531250000e+01) (109, -5.21548500061035156250e+01) (110, 2.17920932769775390625e+01) (111, -6.57448348999023437500e+01) (112, -1.26880824565887451172e+00) (113, -5.93743362426757812500e+01) (114, 1.13142595291137695312e+01) (115, -4.71439437866210937500e+01) (116, -1.03192472457885742188e+01) (117, -2.55806713104248046875e+01) (118, 1.96272742748260498047e+00) (119, -3.17311382293701171875e+01) (120, 4.30946693420410156250e+01) (121, -3.31540641784667968750e+01) (122, 4.14093322753906250000e+01) (123, -2.70206203460693359375e+01) (124, 2.80944271087646484375e+01) (125, -1.13129682540893554688e+01) (126, 1.93100147247314453125e+01) (127, -1.50357761383056640625e+01) (128, 1.24142513275146484375e+01) (129, 3.13196802139282226562e+00) (130, 4.36670494079589843750e+00) (131, -1.75295963287353515625e+01) (132, -3.96050667762756347656e+00) (133, -3.18906593322753906250e+00) (134, 1.85211544036865234375e+01) (135, 5.76957654953002929688e+00) (136, 1.07229194641113281250e+01) (137, -2.76697015762329101562e+00) (138, 8.11982440948486328125e+00) (139, -8.57097434997558593750e+00) (140, 1.93470020294189453125e+01) (141, 3.59874439239501953125e+00) (142, 1.57123823165893554688e+01) (143, 3.49433565139770507812e+00) (144, 5.74854087829589843750e+00) (145, 1.03182029724121093750e+01) (146, -2.31196737289428710938e+00) (147, 8.15060329437255859375e+00) (148, -1.84157238006591796875e+01) (149, -4.02014465332031250000e+01) (150, 8.53234156966209411621e-02) (0, 7.16637344360351562500e+01) (1, 1.53273834228515625000e+02) (2, 7.62502670288085937500e+00) (3, 5.40046577453613281250e+01) (4, 1.30066728591918945312e+01) (5, 7.52029495239257812500e+01) (6, -1.51455259323120117188e+01) (7, 4.98985099792480468750e+01) (8, -1.96340637207031250000e+01) (9, 4.52930526733398437500e+01) (10, -3.38861770629882812500e+01) (11, 3.97769851684570312500e+01) (12, -5.57092704772949218750e+01) (13, 3.26584892272949218750e+01) (14, -6.82470550537109375000e+01) (15, 1.75582714080810546875e+01) (16, -7.49375457763671875000e+01) (17, 1.34175453186035156250e+01) (18, -1.05318847656250000000e+02) (19, 2.31840934753417968750e+01) (20, -1.32644332885742187500e+02) (21, 2.50704193115234375000e+01) (22, -1.19853385925292968750e+02) (23, 2.67564716339111328125e+01) (24, -8.13529434204101562500e+01) (25, 4.47869262695312500000e+01) (26, -6.10870056152343750000e+01) (27, 4.84903259277343750000e+01) (28, -6.78396606445312500000e+01) (29, 1.16236896514892578125e+01) (30, -9.45257263183593750000e+01) (31, -5.50855112075805664062e+00) (32, -8.21895370483398437500e+01) (33, 2.06368827819824218750e+01) (34, -6.94659729003906250000e+01) (35, 5.18438053131103515625e+00) (36, -5.87905960083007812500e+01) (37, 3.09125747680664062500e+01) (38, -8.41163177490234375000e+01) (39, 2.98256015777587890625e+01) (40, -6.93122177124023437500e+01) (41, 2.44918994903564453125e+01) (42, -3.43354530334472656250e+01) (43, -1.55092754364013671875e+01) (44, -4.84773025512695312500e+01) (45, 2.50047168731689453125e+01) (46, -7.30116348266601562500e+01) (47, 3.92132492065429687500e+01) (48, -8.53845977783203125000e+01) (49, 5.49985389709472656250e+01) (50, -7.35945892333984375000e+01) (51, 2.62314147949218750000e+01) (52, -7.21521606445312500000e+01) (53, 1.36434421539306640625e+01) (54, -7.46125106811523437500e+01) (55, 2.67858905792236328125e+01) (56, -5.89251670837402343750e+01) (57, 1.11867246627807617188e+01) (58, -5.82142486572265625000e+01) (59, 6.09299182891845703125e+00) (60, -4.10827178955078125000e+01) (61, 2.86371040344238281250e+01) (62, -1.68327999114990234375e+01) (63, 6.86283569335937500000e+01) (64, -3.23898658752441406250e+01) (65, 4.75205345153808593750e+01) (66, -1.67426261901855468750e+01) (67, 5.12734069824218750000e+01) (68, -9.11395645141601562500e+00) (69, 6.68946609497070312500e+01) (70, -3.79772529602050781250e+01) (71, 3.04573860168457031250e+01) (72, -3.07480239868164062500e+01) (73, -1.46965980529785156250e+00) (74, -9.49704837799072265625e+00) (75, -2.23017368316650390625e+01) (76, -1.08352546691894531250e+01) (77, 6.42101669311523437500e+00) (78, -6.12808322906494140625e+00) (79, 1.58170661926269531250e+01) (80, -1.11327719688415527344e+00) (81, 1.15482149124145507812e+01) (82, 2.24844284057617187500e+01) (83, 1.07480392456054687500e+01) (84, 4.07276878356933593750e+01) (85, 1.55761623382568359375e+01) (86, 5.23074455261230468750e+01) (87, 1.04279069900512695312e+01) (88, 7.75512313842773437500e+00) (89, 1.29111170768737792969e+00) (90, 4.88120231628417968750e+01) (91, 1.19762487411499023438e+01) (92, 4.15063400268554687500e+01) (93, 4.95997285842895507812e+00) (94, 3.83199653625488281250e+01) (95, 4.19167823791503906250e+01) (96, 1.19223051071166992188e+01) (97, 3.41275520324707031250e+01) (98, 1.73087348937988281250e+01) (99, 4.13211021423339843750e+01) (100, -1.88890075683593750000e+01) (101, 2.45339088439941406250e+01) (102, -4.17705268859863281250e+01) (103, 1.91061534881591796875e+01) (104, -1.57498292922973632812e+01) (105, 3.18511905670166015625e+01) (106, 2.14099049568176269531e+00) (107, 4.26775093078613281250e+01) (108, -1.70112152099609375000e+01) (109, 1.39621000289916992188e+01) (110, -4.84507675170898437500e+01) (111, 5.93971395492553710938e+00) (112, -4.11869049072265625000e+01) (113, 9.53708076477050781250e+00) (114, -6.02967596054077148438e+00) (115, 2.55345726013183593750e+00) (116, 1.20623922348022460938e+01) (117, -5.63940429687500000000e+00) (118, -3.44526634216308593750e+01) (119, -1.89810390472412109375e+01) (120, -4.37845573425292968750e+01) (121, -9.84099292755126953125e+00) (122, -4.86676445007324218750e+01) (123, 1.64548931121826171875e+01) (124, -6.38315353393554687500e+01) (125, -1.92397630214691162109e+00) (126, -3.83568191528320312500e+01) (127, 1.10201168060302734375e+00) (128, -3.58562698364257812500e+01) (129, -5.93580627441406250000e+00) (130, -1.10981569290161132812e+01) (131, -5.58011674880981445312e+00) (132, -2.77840280532836914062e+00) (133, -4.54266500473022460938e+00) (134, -4.11552276611328125000e+01) (135, -3.38801574707031250000e+01) (136, -3.80664138793945312500e+01) (137, 5.66219186782836914062e+00) (138, -4.16550331115722656250e+01) (139, 1.60193595886230468750e+01) (140, -4.46949577331542968750e+01) (141, -9.90742921829223632812e-01) (142, -4.79410095214843750000e+01) (143, -2.11849613189697265625e+01) (144, -5.49724426269531250000e+01) (145, -9.47131538391113281250e+00) (146, -3.58130683898925781250e+01) (147, 4.46504735946655273438e+00) (148, -3.43304672241210937500e+01) (149, 2.32268142700195312500e+01) (150, 5.63471578061580657959e-02) (0, -8.31519088745117187500e+01) (1, -4.37017898559570312500e+01) (2, -9.02794113159179687500e+01) (3, 1.55736169815063476562e+01) (4, -8.99915390014648437500e+01) (5, 6.74483585357666015625e+00) (6, -7.13390579223632812500e+01) (7, 2.05893096923828125000e+01) (8, -6.99648513793945312500e+01) (9, 2.25993804931640625000e+01) (10, -7.38456726074218750000e+01) (11, -7.82100534439086914062e+00) (12, -5.21679496765136718750e+01) (13, -3.56424827575683593750e+01) (14, -3.67663154602050781250e+01) (15, 1.88665504455566406250e+01) (16, -3.35050849914550781250e+01) (17, -2.64312076568603515625e+01) (18, -2.44583282470703125000e+01) (19, -2.14698657989501953125e+01) (20, -6.03012371063232421875e+00) (21, -5.16299605369567871094e-01) (22, -2.39446487426757812500e+01) (23, 1.36305408477783203125e+01) (24, -2.59042434692382812500e+01) (25, 2.12351512908935546875e+01) (26, -3.15257091522216796875e+01) (27, 1.99897975921630859375e+01) (28, -2.02854976654052734375e+01) (29, 3.51822662353515625000e+01) (30, -3.04961991310119628906e+00) (31, 5.27981872558593750000e+01) (32, -1.00805540084838867188e+01) (33, 1.48255729675292968750e+01) (34, -1.08081884384155273438e+01) (35, 3.34963798522949218750e+01) (36, -1.64435024261474609375e+01) (37, 5.92294263839721679688e+00) (38, -1.23253850936889648438e+01) (39, -4.74689102172851562500e+00) (40, -8.96017169952392578125e+00) (41, 1.53630084991455078125e+01) (42, -2.97099189758300781250e+01) (43, 4.17352066040039062500e+01) (44, -4.05021667480468750000e+01) (45, 2.53315830230712890625e+01) (46, -4.24038543701171875000e+01) (47, -1.57573986053466796875e+00) (48, -6.31385498046875000000e+01) (49, -2.09195156097412109375e+01) (50, -5.57047958374023437500e+01) (51, -1.35799770355224609375e+01) (52, 3.69430631399154663086e-01) (53, -2.27710609436035156250e+01) (54, 1.82391166687011718750e+01) (55, -1.50787079334259033203e+00) (56, 2.27622394561767578125e+01) (57, 2.39488391876220703125e+01) (58, 4.92893638610839843750e+01) (59, 1.59139823913574218750e+01) (60, 4.14217262268066406250e+01) (61, -6.46976089477539062500e+00) (62, 3.04482803344726562500e+01) (63, -2.00765171051025390625e+01) (64, 2.53912754058837890625e+01) (65, 7.23889017105102539062e+00) (66, 2.52100219726562500000e+01) (67, 3.03245792388916015625e+01) (68, 2.96186695098876953125e+01) (69, -6.34099531173706054688e+00) (70, 3.18667907714843750000e+01) (71, 9.37728404998779296875e-01) (72, 3.03198409080505371094e+00) (73, 2.11931228637695312500e+01) (74, -1.28441965579986572266e+00) (75, 1.80717754364013671875e+01) (76, -5.82482993602752685547e-01) (77, -3.89411544799804687500e+01) (78, -1.48977499008178710938e+01) (79, -2.57510719299316406250e+01) (80, -1.53753910064697265625e+01) (81, -2.63678073883056640625e+01) (82, -2.81915798187255859375e+01) (83, -4.21579551696777343750e+01) (84, -1.84293861389160156250e+01) (85, -1.21923217773437500000e+01) (86, -2.58819351196289062500e+01) (87, -1.72704162597656250000e+01) (88, -1.06654253005981445312e+01) (89, -9.43362998962402343750e+00) (90, -1.96435031890869140625e+01) (91, -1.80645389556884765625e+01) (92, -1.66793072223663330078e+00) (93, 3.29350891113281250000e+01) (94, -3.04480695724487304688e+00) (95, 3.45079383850097656250e+01) (96, -3.27862014770507812500e+01) (97, -3.72332954406738281250e+00) (98, -2.90161418914794921875e+01) (99, 3.11872720718383789062e+00) (100, -1.77301521301269531250e+01) (101, -2.07286739349365234375e+00) (102, -6.35124778747558593750e+00) (103, 1.66925926208496093750e+01) (104, -1.28665828704833984375e+01) (105, -6.63536977767944335938e+00) (106, -3.36347808837890625000e+01) (107, 3.54180297851562500000e+01) (108, -5.87153911590576171875e+00) (109, 7.52092514038085937500e+01) (110, 3.72190809249877929688e+00) (111, 3.23010215759277343750e+01) (112, 1.39748172760009765625e+01) (113, 2.25151023864746093750e+01) (114, 3.65978026390075683594e+00) (115, 4.81984558105468750000e+01) (116, -1.72625179290771484375e+01) (117, 2.38400249481201171875e+01) (118, -2.59123921394348144531e+00) (119, 5.87620048522949218750e+01) (120, 2.40048046112060546875e+01) (121, 4.65102157592773437500e+01) (122, 5.01211881637573242188e+00) (123, 3.07447185516357421875e+01) (124, 8.34069156646728515625e+00) (125, 2.91623077392578125000e+01) (126, 1.12652359008789062500e+01) (127, -1.27329254150390625000e+01) (128, 1.75375099182128906250e+01) (129, -9.86203289031982421875e+00) (130, 2.06980876922607421875e+01) (131, -2.34005279541015625000e+01) (132, 4.22699089050292968750e+01) (133, -2.82756876945495605469e+00) (134, 4.08207588195800781250e+01) (135, 2.06955127716064453125e+01) (136, 2.59455413818359375000e+01) (137, -7.72920417785644531250e+00) (138, 2.33378696441650390625e+01) (139, -3.45694999694824218750e+01) (140, 2.26891860961914062500e+01) (141, -1.77186565399169921875e+01) (142, 4.14724845886230468750e+01) (143, 1.27642166614532470703e+00) (144, 4.28898315429687500000e+01) (145, 1.96874637603759765625e+01) (146, 3.17439460754394531250e+01) (147, 8.29045295715332031250e+00) (148, 3.17350807189941406250e+01) (149, -1.38816995620727539062e+01) (150, -2.19573974609375000000e-02) (0, -1.29048294067382812500e+02) (1, 6.98088302612304687500e+01) (2, -1.30145385742187500000e+02) (3, 8.80768051147460937500e+01) (4, -1.01168746948242187500e+02) (5, 1.23241218566894531250e+02) (6, -1.32500793457031250000e+02) (7, 6.12393760681152343750e+01) (8, -1.13209228515625000000e+02) (9, 4.30656547546386718750e+01) (10, -7.45704803466796875000e+01) (11, 1.53250570297241210938e+01) (12, -3.18473758697509765625e+01) (13, 4.93336029052734375000e+01) (14, -1.73261394500732421875e+01) (15, 3.80888328552246093750e+01) (16, -7.75857448577880859375e-01) (17, -5.73406553268432617188e+00) (18, -3.20557785034179687500e+01) (19, -5.64538574218750000000e+00) (20, -3.05911445617675781250e+01) (21, -4.80961513519287109375e+00) (22, -1.88754920959472656250e+01) (23, -2.53761792182922363281e+00) (24, 4.40947151184082031250e+00) (25, 1.09579658508300781250e+01) (26, 1.30547103881835937500e+01) (27, -4.97427415847778320312e+00) (28, 2.28548679351806640625e+01) (29, -2.02128047943115234375e+01) (30, 3.81549835205078125000e+01) (31, -2.05588512420654296875e+01) (32, 1.33844747543334960938e+01) (33, -2.56932048797607421875e+01) (34, -2.59791564941406250000e+00) (35, 4.62782096862792968750e+00) (36, -2.35498452186584472656e+00) (37, 1.64440422058105468750e+01) (38, -1.42558660507202148438e+01) (39, 2.51144943237304687500e+01) (40, -2.81108398437500000000e+01) (41, 5.49763908386230468750e+01) (42, -8.13366413116455078125e-01) (43, 2.19738693237304687500e+01) (44, -1.69572658538818359375e+01) (45, 3.43274040222167968750e+01) (46, -2.54594860076904296875e+01) (47, 4.31467056274414062500e+00) (48, -4.53628616333007812500e+01) (49, -4.92521905899047851562e+00) (50, -3.64940834045410156250e+01) (51, -1.96366643905639648438e+00) (52, -2.47572708129882812500e+01) (53, -2.43078536987304687500e+01) (54, -3.78878784179687500000e+01) (55, -5.31965522766113281250e+01) (56, -2.95859775543212890625e+01) (57, -2.68093757629394531250e+01) (58, -2.71009941101074218750e+01) (59, -2.29508609771728515625e+01) (60, -1.41601920127868652344e+00) (61, -1.09071171283721923828e+00) (62, 2.56386828422546386719e+00) (63, 1.67490406036376953125e+01) (64, -1.83193893432617187500e+01) (65, -1.12216911315917968750e+01) (66, -3.68922257423400878906e+00) (67, -1.55705058574676513672e+00) (68, 3.62471818923950195312e+00) (69, 1.46220159530639648438e+01) (70, -2.25706214904785156250e+01) (71, -1.79368114471435546875e+01) (72, -1.49032840728759765625e+01) (73, -1.27189559936523437500e+01) (74, -9.03662967681884765625e+00) (75, -2.03257961273193359375e+01) (76, -7.38674974441528320312e+00) (77, 9.44810390472412109375e+00) (78, 1.80990147590637207031e+00) (79, 4.35597496032714843750e+01) (80, 1.03437156677246093750e+01) (81, 2.97173309326171875000e+01) (82, -6.94481515884399414062e+00) (83, 7.25098180770874023438e+00) (84, -1.05845060348510742188e+01) (85, 8.61088097095489501953e-01) (86, 1.84651679992675781250e+01) (87, -1.04787073135375976562e+01) (88, 1.21292705535888671875e+01) (89, -1.43859663009643554688e+01) (90, -1.25263249874114990234e+00) (91, 1.02912120819091796875e+01) (92, -1.57896671295166015625e+01) (93, -2.48728752136230468750e+01) (94, 2.49911856651306152344e+00) (95, 3.26618432998657226562e+00) (96, 1.74471225738525390625e+01) (97, 1.56325654983520507812e+01) (98, 1.12566518783569335938e+01) (99, 6.10061025619506835938e+00) (100, -3.11198558807373046875e+01) (101, 8.71006393432617187500e+00) (102, -3.07474193572998046875e+01) (103, -1.48018474578857421875e+01) (104, -1.69769802093505859375e+01) (105, 3.49775733947753906250e+01) (106, -1.11648054122924804688e+01) (107, 3.36642990112304687500e+01) (108, -1.41136102676391601562e+01) (109, 5.21056509017944335938e+00) (110, -2.79363212585449218750e+01) (111, 3.72887086868286132812e+00) (112, -5.46413660049438476562e+00) (113, 9.91408824920654296875e+00) (114, 1.08975086212158203125e+01) (115, -1.60555458068847656250e+01) (116, 2.16324634552001953125e+01) (117, -3.47110519409179687500e+01) (118, 7.45999717712402343750e+00) (119, -4.96193265914916992188e+00) (120, -1.58221044540405273438e+01) (121, 2.76788978576660156250e+01) (122, -1.71713962554931640625e+01) (123, 1.47411594390869140625e+01) (124, -3.08986492156982421875e+01) (125, -3.43715896606445312500e+01) (126, -4.21390819549560546875e+00) (127, -5.88010740280151367188e+00) (128, 1.81552290916442871094e+00) (129, -2.76606235504150390625e+01) (130, 1.05184364318847656250e+01) (131, -3.20052170753479003906e+00) (132, 1.58740596771240234375e+01) (133, -7.19367361068725585938e+00) (134, -7.87026047706604003906e-01) (135, -3.04214935302734375000e+01) (136, -1.57351875305175781250e+01) (137, -5.84504470825195312500e+01) (138, 5.03803491592407226562e+00) (139, 1.76949048042297363281e+00) (140, -1.53363904953002929688e+01) (141, -1.26646060943603515625e+01) (142, -8.10545921325683593750e+00) (143, -2.07725715637207031250e+01) (144, -1.65060081481933593750e+01) (145, -3.44672889709472656250e+01) (146, -3.32924127578735351562e+00) (147, -3.11962871551513671875e+01) (148, 8.31583118438720703125e+00) (149, -4.93194427490234375000e+01) (150, -8.05185660719871520996e-02) (0, 5.90070152282714843750e+01) (1, -5.79743232727050781250e+01) (2, 1.11667800903320312500e+02) (3, 2.16658744812011718750e+01) (4, 1.16461029052734375000e+02) (5, -1.44812164306640625000e+01) (6, 1.18644660949707031250e+02) (7, -4.58857250213623046875e+00) (8, 1.12645477294921875000e+02) (9, -1.25265893936157226562e+01) (10, 8.74366302490234375000e+01) (11, -2.79139480590820312500e+01) (12, 6.17351722717285156250e+01) (13, -6.70526885986328125000e+01) (14, 5.11335105895996093750e+01) (15, -6.54072494506835937500e+01) (16, 2.31070041656494140625e+01) (17, -5.35340538024902343750e+01) (18, 9.90077495574951171875e+00) (19, -3.53904342651367187500e+01) (20, -4.68907403945922851562e+00) (21, -2.54732322692871093750e+01) (22, -1.33545665740966796875e+01) (23, -2.66122322082519531250e+01) (24, -1.32336530685424804688e+01) (25, -1.61827278137207031250e+01) (26, -2.76002645492553710938e+00) (27, -2.07389030456542968750e+01) (28, -5.98418188095092773438e+00) (29, -1.90387630462646484375e+01) (30, -1.66347432136535644531e+00) (31, 1.42154092788696289062e+01) (32, -3.57191848754882812500e+01) (33, 2.49706974029541015625e+01) (34, -3.92414550781250000000e+01) (35, -3.05434341430664062500e+01) (36, -5.04760055541992187500e+01) (37, -5.33133239746093750000e+01) (38, -1.73618793487548828125e+01) (39, -3.67142906188964843750e+01) (40, -1.56100397109985351562e+01) (41, -2.73899960517883300781e+00) (42, -3.03668861389160156250e+01) (43, 1.69319915771484375000e+01) (44, -3.21803092956542968750e+01) (45, 1.51291971206665039062e+01) (46, -3.60063514709472656250e+01) (47, 1.19269819259643554688e+01) (48, -3.23651390075683593750e+01) (49, -1.06140863895416259766e+00) (50, -4.61635169982910156250e+01) (51, -1.57189645767211914062e+01) (52, 1.22901468276977539062e+01) (53, -1.73927192687988281250e+01) (54, 1.52035474777221679688e+01) (55, 1.01371345520019531250e+01) (56, 2.37134304046630859375e+01) (57, 2.59871463775634765625e+01) (58, 3.33332939147949218750e+01) (59, 2.13573970794677734375e+01) (60, 2.04352073669433593750e+01) (61, -2.17047286033630371094e+00) (62, 1.25798435211181640625e+01) (63, -8.25223636627197265625e+00) (64, 1.43794231414794921875e+01) (65, -9.80319881439208984375e+00) (66, 7.08764886856079101562e+00) (67, 4.18518543243408203125e+00) (68, -2.57534337043762207031e+00) (69, 3.56937646865844726562e+00) (70, -7.26508760452270507812e+00) (71, 1.94030857086181640625e+01) (72, 1.26964159011840820312e+01) (73, 2.99816665649414062500e+01) (74, 5.70181512832641601562e+00) (75, 2.95923519134521484375e+01) (76, -2.67794442176818847656e+00) (77, 1.16846618652343750000e+01) (78, 9.80356025695800781250e+00) (79, -7.10026645660400390625e+00) (80, 1.91028957366943359375e+01) (81, -6.86458206176757812500e+00) (82, 2.44952220916748046875e+01) (83, -3.52666258811950683594e+00) (84, 2.45472984313964843750e+01) (85, -8.67507904767990112305e-02) (86, 3.19302444458007812500e+01) (87, 1.79200611114501953125e+01) (88, 2.30206527709960937500e+01) (89, 1.39756269454956054688e+01) (90, 1.31704063415527343750e+01) (91, -8.17219543457031250000e+00) (92, -4.29159975051879882812e+00) (93, -1.82879219055175781250e+01) (94, -1.03252124786376953125e+01) (95, -6.32862806320190429688e+00) (96, -1.72920465469360351562e-01) (97, -3.17539272308349609375e+01) (98, -2.12988281250000000000e+00) (99, -3.35635833740234375000e+01) (100, 1.80487041473388671875e+01) (101, -5.77659378051757812500e+01) (102, 1.41136445999145507812e+01) (103, -4.14998435974121093750e+01) (104, -7.68086004257202148438e+00) (105, -7.50531463623046875000e+01) (106, 1.43999099731445312500e+00) (107, -6.40696411132812500000e+01) (108, -5.92620754241943359375e+00) (109, -4.83347549438476562500e+01) (110, -2.28115940093994140625e+01) (111, -7.07841415405273437500e+01) (112, -3.80858955383300781250e+01) (113, -7.93552398681640625000e+01) (114, -1.28720035552978515625e+01) (115, -4.86520996093750000000e+01) (116, -3.84319534301757812500e+01) (117, -4.78529853820800781250e+01) (118, -3.00115242004394531250e+01) (119, -4.51848220825195312500e+01) (120, -2.52389049530029296875e+01) (121, -3.61570854187011718750e+01) (122, -2.09872665405273437500e+01) (123, -3.84905395507812500000e+01) (124, -8.00591278076171875000e+00) (125, -8.61925888061523437500e+00) (126, -1.76372795104980468750e+01) (127, -5.75841484069824218750e+01) (128, -3.67411003112792968750e+01) (129, -4.83288497924804687500e+01) (130, -3.64054794311523437500e+01) (131, -6.13701400756835937500e+01) (132, -3.24472236633300781250e+01) (133, -4.12590217590332031250e+01) (134, -2.25051460266113281250e+01) (135, -3.53865699768066406250e+01) (136, -1.12606096267700195312e+01) (137, -1.08855152130126953125e+01) (138, -1.47591209411621093750e+01) (139, -2.11472969055175781250e+01) (140, -3.04345178604125976562e+00) (141, 4.50887250900268554688e+00) (142, 1.67831635475158691406e+00) (143, 3.11333103179931640625e+01) (144, -2.51869449615478515625e+01) (145, 3.24828872680664062500e+01) (146, -2.36836452484130859375e+01) (147, 3.50983123779296875000e+01) (148, -3.45630989074707031250e+01) (149, 2.84107608795166015625e+01) (150, 8.66290926933288574219e-02) (0, -1.16096366882324218750e+02) (1, -8.91653900146484375000e+01) (2, -9.78488254547119140625e+00) (3, 1.04007215499877929688e+01) (4, -3.63779258728027343750e+01) (5, -3.13292427062988281250e+01) (6, -1.55870437622070312500e+01) (7, -2.15616130828857421875e+01) (8, -6.68587064743041992188e+00) (9, -6.01727523803710937500e+01) (10, 7.79125823974609375000e+01) (11, 4.56817269325256347656e-01) (12, 6.45757217407226562500e+01) (13, -3.98546028137207031250e+01) (14, 7.17911605834960937500e+01) (15, -1.12062416076660156250e+02) (16, 7.21869964599609375000e+01) (17, -9.15181446075439453125e+00) (18, 4.86273117065429687500e+01) (19, -6.08908843994140625000e+00) (20, 4.76212539672851562500e+01) (21, 1.44272260665893554688e+01) (22, 8.31721115112304687500e+01) (23, -2.89581813812255859375e+01) (24, 9.52296142578125000000e+01) (25, -7.27705612182617187500e+01) (26, 8.53283767700195312500e+01) (27, -4.37406845092773437500e+01) (28, 8.76561660766601562500e+01) (29, -4.91677856445312500000e+01) (30, 8.98329315185546875000e+01) (31, -2.58588237762451171875e+01) (32, 1.08908493041992187500e+02) (33, -5.30661430358886718750e+01) (34, 8.55957870483398437500e+01) (35, -2.47143626213073730469e+00) (36, 7.36829071044921875000e+01) (37, 1.72062568664550781250e+01) (38, 7.45701293945312500000e+01) (39, 2.25635576248168945312e+00) (40, 6.51976547241210937500e+01) (41, -1.14324951171875000000e+01) (42, 6.71655197143554687500e+01) (43, -1.72718868255615234375e+01) (44, 3.68808784484863281250e+01) (45, -3.44504928588867187500e+01) (46, 4.70167465209960937500e+01) (47, 2.09661865234375000000e+01) (48, 8.67096633911132812500e+01) (49, 3.02636737823486328125e+01) (50, 8.34744873046875000000e+01) (51, 5.66946258544921875000e+01) (52, -8.63774108886718750000e+00) (53, 8.04778594970703125000e+01) (54, -1.67393970489501953125e+01) (55, 9.03715133666992187500e+01) (56, -6.30782318115234375000e+00) (57, 6.57474594116210937500e+01) (58, -8.00256824493408203125e+00) (59, 6.00757217407226562500e+01) (60, -2.27539386749267578125e+01) (61, 2.60138893127441406250e+01) (62, -8.68127918243408203125e+00) (63, 5.98015861511230468750e+01) (64, 1.53575773239135742188e+01) (65, 4.35244979858398437500e+01) (66, 7.72120094299316406250e+00) (67, 4.86103630065917968750e+00) (68, 7.82635593414306640625e+00) (69, 3.92383422851562500000e+01) (70, 7.04384536743164062500e+01) (71, 9.95610122680664062500e+01) (72, 6.15396499633789062500e+01) (73, 1.03171859741210937500e+02) (74, 5.50978393554687500000e+01) (75, 9.23092880249023437500e+01) (76, 3.21517372131347656250e+01) (77, 4.88811912536621093750e+01) (78, 2.13813991546630859375e+01) (79, 2.66494789123535156250e+01) (80, 1.63363189697265625000e+01) (81, 4.96978836059570312500e+01) (82, 1.37212076187133789062e+01) (83, 7.72650985717773437500e+01) (84, 3.24856638908386230469e+00) (85, 4.30255622863769531250e+01) (86, 4.13962841033935546875e+00) (87, 3.26067352294921875000e+01) (88, 2.26111984252929687500e+01) (89, 1.03037385940551757812e+01) (90, 6.08028793334960937500e+00) (91, 6.45948076248168945312e+00) (92, 1.80711591243743896484e+00) (93, -4.64054069519042968750e+01) (94, -6.61917018890380859375e+00) (95, -2.02401714324951171875e+01) (96, 4.64600830078125000000e+01) (97, -8.48485755920410156250e+00) (98, -1.05799045562744140625e+01) (99, -2.21824321746826171875e+01) (100, 3.73996772766113281250e+01) (101, 7.24851846694946289062e-01) (102, 2.55440368652343750000e+01) (103, 2.43424248695373535156e+00) (104, 1.24009332656860351562e+01) (105, 2.55223770141601562500e+01) (106, -4.02089118957519531250e+01) (107, -1.39184761047363281250e+01) (108, -3.65564842224121093750e+01) (109, -4.64579238891601562500e+01) (110, -2.86445999145507812500e+01) (111, -4.85375344753265380859e-01) (112, -3.61200256347656250000e+01) (113, 4.83327579498291015625e+00) (114, -7.70728225708007812500e+01) (115, -2.18166904449462890625e+01) (116, -8.59983291625976562500e+01) (117, 6.88959550857543945312e+00) (118, -3.64243221282958984375e+00) (119, 2.75786375999450683594e+00) (120, -2.44108257293701171875e+01) (121, -3.18318996429443359375e+01) (122, 5.35821533203125000000e+00) (123, -3.86371726989746093750e+01) (124, 1.47969264984130859375e+01) (125, -8.50485324859619140625e+00) (126, 2.12360835075378417969e+00) (127, -1.30281724929809570312e+01) (128, -1.14544048309326171875e+01) (129, 2.28787326812744140625e+01) (130, -1.90289592742919921875e+01) (131, -5.54593086242675781250e+00) (132, -3.74036102294921875000e+01) (133, 2.38374519348144531250e+01) (134, -3.62663154602050781250e+01) (135, 3.87724304199218750000e+01) (136, -6.16545104980468750000e+01) (137, 1.01316709518432617188e+01) (138, -5.20611648559570312500e+01) (139, 3.40610504150390625000e+01) (140, -7.87016448974609375000e+01) (141, 2.39422988891601562500e+01) (142, -1.00370605468750000000e+02) (143, 1.31441650390625000000e+01) (144, -7.51049346923828125000e+01) (145, 3.79157924652099609375e+00) (146, -8.86858825683593750000e+01) (147, -2.49894542694091796875e+01) (148, -5.42410354614257812500e+01) (149, -2.89402904510498046875e+01) (150, -2.68380552530288696289e-01) (0, -1.01426757812500000000e+02) (1, -2.66444951295852661133e-01) (2, -1.20073707580566406250e+02) (3, -5.21679115295410156250e+00) (4, -1.00123741149902343750e+02) (5, 5.84053649902343750000e+01) (6, -1.20250938415527343750e+02) (7, 4.41825141906738281250e+01) (8, -9.80718383789062500000e+01) (9, 5.68415794372558593750e+01) (10, -8.32065887451171875000e+01) (11, 1.16445302963256835938e+01) (12, -3.26246032714843750000e+01) (13, 4.91420478820800781250e+01) (14, -1.05574741363525390625e+01) (15, 9.41697082519531250000e+01) (16, 3.96109175682067871094e+00) (17, 2.24871406555175781250e+01) (18, -3.44096875190734863281e+00) (19, 3.24363937377929687500e+01) (20, 8.71672916412353515625e+00) (21, 2.17643527984619140625e+01) (22, -1.28207111358642578125e+01) (23, 2.28323059082031250000e+01) (24, 1.94086189270019531250e+01) (25, 4.12978591918945312500e+01) (26, 1.36210212707519531250e+01) (27, 2.28916034698486328125e+01) (28, 1.90239315032958984375e+01) (29, 2.26627254486083984375e+01) (30, 3.05314884185791015625e+01) (31, 1.93178787231445312500e+01) (32, -1.68446445465087890625e+01) (33, -2.32965927124023437500e+01) (34, -2.56683559417724609375e+01) (35, 7.26043128967285156250e+00) (36, -2.85325393676757812500e+01) (37, 9.35720443725585937500e-01) (38, -2.75411014556884765625e+01) (39, 2.06262989044189453125e+01) (40, -3.85373878479003906250e+01) (41, 5.03379898071289062500e+01) (42, -2.17623615264892578125e+01) (43, 2.02517185211181640625e+01) (44, -2.21063461303710937500e+01) (45, 2.00640430450439453125e+01) (46, -1.12330999374389648438e+01) (47, -1.77848072052001953125e+01) (48, -6.53324737548828125000e+01) (49, -2.79339599609375000000e+01) (50, -6.50045471191406250000e+01) (51, -4.35772085189819335938e+00) (52, -2.68123741149902343750e+01) (53, -2.90102519989013671875e+01) (54, -2.76661357879638671875e+01) (55, -6.54553985595703125000e+01) (56, -2.52667903900146484375e+01) (57, -4.38942909240722656250e+01) (58, -1.20459043979644775391e+00) (59, -2.59064044952392578125e+01) (60, 9.57846069335937500000e+00) (61, -2.10905551910400390625e+01) (62, 1.30324006080627441406e+00) (63, 1.37054526805877685547e+00) (64, -2.14907379150390625000e+01) (65, -3.93935871124267578125e+00) (66, -1.51557893753051757812e+01) (67, 9.99187469482421875000e+00) (68, 9.72409069538116455078e-01) (69, 2.29621257781982421875e+01) (70, -3.01448593139648437500e+01) (71, -7.69340753555297851562e+00) (72, -2.81274604797363281250e+01) (73, 8.23540019989013671875e+00) (74, -1.55683469772338867188e+01) (75, 1.28548240661621093750e+00) (76, -5.12056767940521240234e-01) (77, -1.39918193817138671875e+01) (78, 1.52132444381713867188e+01) (79, 3.08120670318603515625e+01) (80, 1.26291093826293945312e+01) (81, 2.91841106414794921875e+01) (82, -5.34942102432250976562e+00) (83, -4.48856449127197265625e+00) (84, -1.37271213531494140625e+01) (85, 1.09404325485229492188e+01) (86, 9.47507095336914062500e+00) (87, 1.16941089630126953125e+01) (88, 7.57629585266113281250e+00) (89, -4.39424657821655273438e+00) (90, 4.82238340377807617188e+00) (91, 3.66273231506347656250e+01) (92, -4.29290580749511718750e+00) (93, 1.19978599548339843750e+01) (94, -3.68008732795715332031e+00) (95, 2.02456855773925781250e+01) (96, -2.35875034332275390625e+00) (97, 1.85703754425048828125e+01) (98, 2.41540470123291015625e+01) (99, 1.30800828933715820312e+01) (100, -3.94836082458496093750e+01) (101, -1.32341423034667968750e+01) (102, -3.04319190979003906250e+01) (103, -3.00596504211425781250e+01) (104, -1.62821197509765625000e+01) (105, -9.89956188201904296875e+00) (106, -2.78226757049560546875e+00) (107, 5.90746736526489257812e+00) (108, 1.50821409225463867188e+01) (109, -1.24682607650756835938e+01) (110, -1.08037910461425781250e+01) (111, -3.78612747192382812500e+01) (112, -1.44686012268066406250e+01) (113, -4.55212821960449218750e+01) (114, 3.89520568847656250000e+01) (115, -4.75838317871093750000e+01) (116, 3.18082065582275390625e+01) (117, -6.69478073120117187500e+01) (118, -2.30619072914123535156e+00) (119, -4.38464813232421875000e+01) (120, 5.20126938819885253906e-01) (121, 1.72497272491455078125e+01) (122, -1.25943326950073242188e+01) (123, 1.38990287780761718750e+01) (124, -2.66418514251708984375e+01) (125, -1.85978927612304687500e+01) (126, -1.48266303539276123047e+00) (127, 1.55297670364379882812e+01) (128, 5.41368007659912109375e+00) (129, -5.79817628860473632812e+00) (130, 1.36369743347167968750e+01) (131, 6.82867860794067382812e+00) (132, 3.06360931396484375000e+01) (133, 2.20756931304931640625e+01) (134, 1.47349185943603515625e+01) (135, 5.59853410720825195312e+00) (136, -1.95941066741943359375e+00) (137, -2.78903083801269531250e+01) (138, 1.31972236633300781250e+01) (139, -2.64429450035095214844e+00) (140, 3.27401504516601562500e+01) (141, -2.93280906677246093750e+01) (142, 5.18970947265625000000e+01) (143, -4.24904518127441406250e+01) (144, 3.26544876098632812500e+01) (145, -2.42614917755126953125e+01) (146, 4.61623229980468750000e+01) (147, -2.43159313201904296875e+01) (148, 3.29153327941894531250e+01) (149, -8.78812026977539062500e+01) (150, -3.16432490944862365723e-02) (0, 9.63350677490234375000e+01) (1, -5.72579078674316406250e+01) (2, 1.24228115081787109375e+01) (3, -1.85908187866210937500e+02) (4, -1.61238403320312500000e+01) (5, -1.51709121704101562500e+02) (6, 2.84378099441528320312e+00) (7, -9.38291854858398437500e+01) (8, -1.56395661830902099609e+00) (9, -3.61005592346191406250e+01) (10, -3.28436012268066406250e+01) (11, -2.72983589172363281250e+01) (12, -3.15300979614257812500e+01) (13, -9.66080725193023681641e-01) (14, -2.54080276489257812500e+01) (15, 7.51386871337890625000e+01) (16, -3.08131446838378906250e+01) (17, 7.94395751953125000000e+01) (18, 1.39137296676635742188e+01) (19, 7.20097808837890625000e+01) (20, 2.63420619964599609375e+01) (21, 2.28219890594482421875e+01) (22, 7.65672779083251953125e+00) (23, 3.87440109252929687500e+01) (24, -2.04513053894042968750e+01) (25, 2.40158042907714843750e+01) (26, -3.55141067504882812500e+01) (27, 2.69858779907226562500e+01) (28, -3.75963935852050781250e+01) (29, 1.32735567092895507812e+01) (30, -6.08789443969726562500e+01) (31, 1.87243690490722656250e+01) (32, -2.05658168792724609375e+01) (33, -3.56203794479370117188e+00) (34, -3.46999812126159667969e+00) (35, 2.85847129821777343750e+01) (36, -4.94925355911254882812e+00) (37, 1.80750255584716796875e+01) (38, -6.18851852416992187500e+00) (39, 1.47641229629516601562e+01) (40, -3.14673686027526855469e+00) (41, -4.76602935791015625000e+01) (42, -2.26500911712646484375e+01) (43, -6.50080642700195312500e+01) (44, -8.38279914855957031250e+00) (45, -5.75273094177246093750e+01) (46, -1.42677319049835205078e+00) (47, -3.99757575988769531250e+01) (48, 1.40886172652244567871e-01) (49, -3.87534828186035156250e+01) (50, -1.61268663406372070312e+00) (51, -4.72696762084960937500e+01) (52, -1.30949068069458007812e+01) (53, -3.09244976043701171875e+01) (54, 8.72257614135742187500e+00) (55, -2.75068168640136718750e+01) (56, -3.70102596282958984375e+00) (57, -6.11070785522460937500e+01) (58, 2.48809165954589843750e+01) (59, -2.37704544067382812500e+01) (60, 1.21777000427246093750e+01) (61, -2.56164855957031250000e+01) (62, 1.29876260757446289062e+01) (63, -2.13709812164306640625e+01) (64, 2.63390274047851562500e+01) (65, 6.91878557205200195312e+00) (66, 1.09894247055053710938e+01) (67, -3.04450678825378417969e+00) (68, 1.47386941909790039062e+01) (69, -2.38676147460937500000e+01) (70, 3.37892484664916992188e+00) (71, -2.53263874053955078125e+01) (72, 5.02605497837066650391e-01) (73, -9.83641242980957031250e+00) (74, -1.08508176803588867188e+01) (75, -2.06511669158935546875e+01) (76, 1.46263895034790039062e+01) (77, -4.47605628967285156250e+01) (78, 2.84997291564941406250e+01) (79, -4.30685195922851562500e+01) (80, -1.67423744201660156250e+01) (81, -1.53714752197265625000e+01) (82, -5.11164379119873046875e+00) (83, -2.21681957244873046875e+01) (84, -6.16117954254150390625e+00) (85, 3.03700923919677734375e+00) (86, -3.30550842285156250000e+01) (87, 1.84826698303222656250e+01) (88, -2.03472576141357421875e+01) (89, 1.70401134490966796875e+01) (90, -1.67412929534912109375e+01) (91, 1.24803218841552734375e+01) (92, 2.22196817398071289062e-01) (93, 4.44094238281250000000e+01) (94, -7.22324466705322265625e+00) (95, -6.47238922119140625000e+00) (96, -6.53118515014648437500e+01) (97, -2.59088554382324218750e+01) (98, -1.61156978607177734375e+01) (99, -7.95349216461181640625e+00) (100, -1.30020122528076171875e+01) (101, -3.22302894592285156250e+01) (102, -5.04084920883178710938e+00) (103, -1.73535385131835937500e+01) (104, 2.20552082061767578125e+01) (105, -3.52921791076660156250e+01) (106, 4.28280181884765625000e+01) (107, -1.98759269714355468750e+01) (108, 7.03935165405273437500e+01) (109, -1.39375200271606445312e+01) (110, 5.52998046875000000000e+01) (111, -5.32901420593261718750e+01) (112, 1.89303741455078125000e+01) (113, -5.83681411743164062500e+01) (114, 5.89845733642578125000e+01) (115, -2.99263324737548828125e+01) (116, 4.11455230712890625000e+01) (117, -3.38281974792480468750e+01) (118, 1.50173473358154296875e+01) (119, -4.60732460021972656250e+01) (120, 5.67972145080566406250e+01) (121, -4.19445075988769531250e+01) (122, 4.03930206298828125000e+01) (123, -2.68879413604736328125e+01) (124, 1.24021091461181640625e+01) (125, -9.72992992401123046875e+00) (126, -1.48293983936309814453e+00) (127, 1.00369930267333984375e+01) (128, 4.27248287200927734375e+00) (129, 1.05640058517456054688e+01) (130, -8.83959293365478515625e+00) (131, 3.03128075599670410156e+00) (132, -4.53022289276123046875e+00) (133, 7.97344112396240234375e+00) (134, 7.51999282836914062500e+00) (135, 1.54621448516845703125e+01) (136, 2.86607074737548828125e+01) (137, 5.39986457824707031250e+01) (138, 1.29145538806915283203e+00) (139, 4.55302953720092773438e+00) (140, 4.07218742370605468750e+01) (141, 1.57705602645874023438e+01) (142, 4.85049247741699218750e+01) (143, 1.17798700332641601562e+01) (144, 4.96318740844726562500e+01) (145, 3.77312736511230468750e+01) (146, 4.58586578369140625000e+01) (147, 3.99340858459472656250e+01) (148, 4.19123220443725585938e+00) (149, 9.40990638732910156250e+00) (150, 3.64876799285411834717e-02) (0, 3.02896976470947265625e+01) (1, -3.38884201049804687500e+01) (2, 9.50887222290039062500e+01) (3, 7.36586141586303710938e+00) (4, 9.18239669799804687500e+01) (5, -1.35894346237182617188e+01) (6, 7.86991424560546875000e+01) (7, -9.41657543182373046875e-01) (8, 7.25674819946289062500e+01) (9, -6.14726686477661132812e+00) (10, 7.36045761108398437500e+01) (11, 1.14737710952758789062e+01) (12, 5.39349937438964843750e+01) (13, -1.03200159072875976562e+01) (14, 4.20013046264648437500e+01) (15, -3.69720420837402343750e+01) (16, 2.66877117156982421875e+01) (17, -7.34662771224975585938e+00) (18, 3.22109565734863281250e+01) (19, -2.11318612098693847656e+00) (20, 1.05363931655883789062e+01) (21, 3.87371444702148437500e+00) (22, 5.39383792877197265625e+00) (23, -8.53021335601806640625e+00) (24, -7.08141040802001953125e+00) (25, -1.65638008117675781250e+01) (26, -5.80950069427490234375e+00) (27, -2.17600059509277343750e+01) (28, -1.03914537429809570312e+01) (29, -8.66156959533691406250e+00) (30, -8.50014388561248779297e-01) (31, 2.01170177459716796875e+01) (32, -5.82442569732666015625e+00) (33, 2.40051708221435546875e+01) (34, -1.28103418350219726562e+01) (35, 4.53332710266113281250e+00) (36, -2.33008613586425781250e+01) (37, 3.72012495994567871094e+00) (38, -2.13579349517822265625e+01) (39, 8.24390029907226562500e+00) (40, -2.90505771636962890625e+01) (41, 1.84434337615966796875e+01) (42, -2.74028205871582031250e+01) (43, 2.32883415222167968750e+01) (44, -1.43247690200805664062e+01) (45, 1.47348461151123046875e+01) (46, -1.23782224655151367188e+01) (47, 2.87626018524169921875e+01) (48, 1.57424402236938476562e+01) (49, 3.24798622131347656250e+01) (50, 5.42634868621826171875e+00) (51, 3.64909553527832031250e+01) (52, 1.00950660705566406250e+01) (53, 2.90078086853027343750e+01) (54, 1.32291917800903320312e+01) (55, 3.90922050476074218750e+01) (56, 1.19398221969604492188e+01) (57, 2.02572383880615234375e+01) (58, 1.94769420623779296875e+01) (59, 1.50236682891845703125e+01) (60, 3.26458072662353515625e+00) (61, -6.40004873275756835938e+00) (62, 2.47306656837463378906e+00) (63, -9.75844669342041015625e+00) (64, 1.88114547729492187500e+01) (65, -6.49786329269409179688e+00) (66, 1.15781154632568359375e+01) (67, -1.18205804824829101562e+01) (68, 6.28193569183349609375e+00) (69, 4.73437643051147460938e+00) (70, 2.17114276885986328125e+01) (71, 2.70599746704101562500e+01) (72, 3.96995468139648437500e+01) (73, 1.68457050323486328125e+01) (74, 4.43571014404296875000e+01) (75, 1.82949142456054687500e+01) (76, 3.72703132629394531250e+01) (77, 2.37350630760192871094e+00) (78, 2.34602737426757812500e+01) (79, -1.72586059570312500000e+01) (80, 1.82618923187255859375e+01) (81, -9.74882030487060546875e+00) (82, 1.40624437332153320312e+01) (83, 8.90697860717773437500e+00) (84, 9.38312149047851562500e+00) (85, -5.53283166885375976562e+00) (86, 3.34053516387939453125e+00) (87, 1.05552206039428710938e+01) (88, -2.22049713134765625000e-01) (89, 6.22398185729980468750e+00) (90, 1.80376315116882324219e+00) (91, 8.69486522674560546875e+00) (92, -1.14970989227294921875e+01) (93, -1.22337207794189453125e+01) (94, -2.22425518035888671875e+01) (95, -2.30978431701660156250e+01) (96, -7.44234323501586914062e+00) (97, -2.12636871337890625000e+01) (98, -1.71813793182373046875e+01) (99, -1.66181850433349609375e+01) (100, 5.21135902404785156250e+00) (101, -2.37799396514892578125e+01) (102, 1.11278522014617919922e+00) (103, -1.32190990447998046875e+01) (104, -1.54337081909179687500e+01) (105, -2.37420997619628906250e+01) (106, -1.45484256744384765625e+01) (107, -4.02580108642578125000e+01) (108, -2.28699550628662109375e+01) (109, -3.50396499633789062500e+01) (110, -2.19363899230957031250e+01) (111, -1.55369644165039062500e+01) (112, -3.65146102905273437500e+01) (113, -3.13344917297363281250e+01) (114, -3.13153114318847656250e+01) (115, -2.54809341430664062500e+01) (116, -4.11441421508789062500e+01) (117, -8.88241350650787353516e-01) (118, -1.18463058471679687500e+01) (119, -1.17654504776000976562e+01) (120, -1.92990608215332031250e+01) (121, -1.10071525573730468750e+01) (122, -6.43611907958984375000e+00) (123, -1.12026891708374023438e+01) (124, -1.07749185562133789062e+01) (125, 1.66886692047119140625e+01) (126, -1.89757270812988281250e+01) (127, 1.17212314605712890625e+01) (128, -2.63440723419189453125e+01) (129, 1.64839859008789062500e+01) (130, -2.90865783691406250000e+01) (131, -7.57251405715942382812e+00) (132, -3.88083229064941406250e+01) (133, -3.05929308524355292320e-04) (134, -2.57348480224609375000e+01) (135, 1.85053274035453796387e-01) (136, -1.87520904541015625000e+01) (137, 2.04332675933837890625e+01) (138, -2.61765880584716796875e+01) (139, 1.91126632690429687500e+01) (140, -8.28840065002441406250e+00) (141, 2.75807266235351562500e+01) (142, -2.27380676269531250000e+01) (143, 4.05994873046875000000e+01) (144, -2.92736892700195312500e+01) (145, 2.35532779693603515625e+01) (146, -2.36544933319091796875e+01) (147, 2.51202487945556640625e+01) (148, -2.87727127075195312500e+01) (149, 1.39634017944335937500e+01) (150, -7.41979628801345825195e-02) (0, -5.81607933044433593750e+01) (1, 6.28145751953125000000e+01) (2, -1.24582473754882812500e+02) (3, 3.20343284606933593750e+01) (4, -1.04839729309082031250e+02) (5, 4.86430244445800781250e+01) (6, -9.63527069091796875000e+01) (7, 3.03719539642333984375e+01) (8, -6.46904449462890625000e+01) (9, 3.83225631713867187500e+01) (10, -1.08944366455078125000e+02) (11, -2.51631259918212890625e+01) (12, -9.65730285644531250000e+01) (13, -8.01430435180664062500e+01) (14, -5.40509986877441406250e+01) (15, 2.27275676727294921875e+01) (16, -3.59370498657226562500e+01) (17, -3.29850959777832031250e+01) (18, -2.50080223083496093750e+01) (19, -2.03129997253417968750e+01) (20, -2.02345395088195800781e+00) (21, -2.87998924255371093750e+01) (22, -5.69782316684722900391e-01) (23, -1.51852445602416992188e+01) (24, 3.47871513366699218750e+01) (25, 5.03916282653808593750e+01) (26, 3.27196426391601562500e+01) (27, 5.09817047119140625000e+01) (28, 4.47386016845703125000e+01) (29, 6.04092407226562500000e+01) (30, 4.08586883544921875000e+01) (31, 3.57013702392578125000e+01) (32, -2.10202922821044921875e+01) (33, -1.30998544692993164062e+01) (34, -2.43316745758056640625e+00) (35, 2.05850768089294433594e+00) (36, -6.08547878265380859375e+00) (37, -6.89287185668945312500e+00) (38, -3.02068042755126953125e+01) (39, -2.16042308807373046875e+01) (40, -5.57870388031005859375e+00) (41, -2.02735462188720703125e+01) (42, -2.70834350585937500000e+01) (43, -1.78727092742919921875e+01) (44, -4.44869041442871093750e+01) (45, 8.26689720153808593750e+00) (46, -4.55277175903320312500e+01) (47, -1.88440780639648437500e+01) (48, -1.30288986206054687500e+02) (49, -5.74128265380859375000e+01) (50, -1.12757896423339843750e+02) (51, -4.93941345214843750000e+01) (52, -4.75005912780761718750e+01) (53, -7.54843444824218750000e+01) (54, -2.95509471893310546875e+01) (55, -7.31765213012695312500e+01) (56, -1.01597900390625000000e+01) (57, -2.75220699310302734375e+01) (58, 1.81662979125976562500e+01) (59, -3.06060924530029296875e+01) (60, 1.57701549530029296875e+01) (61, -5.10416984558105468750e+01) (62, 2.41365108489990234375e+01) (63, 3.85184693336486816406e+00) (64, -1.16205759048461914062e+01) (65, -2.98614406585693359375e+00) (66, 2.14458441734313964844e+00) (67, 2.48698329925537109375e+01) (68, 1.49201698303222656250e+01) (69, 1.43605775833129882812e+01) (70, -5.54790649414062500000e+01) (71, 4.33730572462081909180e-01) (72, -1.01468246459960937500e+02) (73, 3.41004705429077148438e+00) (74, -9.40402755737304687500e+01) (75, -5.64631938934326171875e+00) (76, -6.09468002319335937500e+01) (77, -5.20248222351074218750e+01) (78, -3.94961433410644531250e+01) (79, -3.23316612243652343750e+01) (80, -2.45433940887451171875e+01) (81, -3.65304336547851562500e+01) (82, -2.46940593719482421875e+01) (83, -6.48891220092773437500e+01) (84, -1.32173910140991210938e+01) (85, -1.56113061904907226562e+01) (86, 8.84978389739990234375e+00) (87, 9.33924913406372070312e-01) (88, -1.63956058025360107422e+00) (89, -2.41021022796630859375e+01) (90, 1.85993556976318359375e+01) (91, 5.31778144836425781250e+00) (92, 1.13219130039215087891e+00) (93, 3.79891967773437500000e+01) (94, 1.92790222167968750000e+01) (95, 8.04654846191406250000e+01) (96, -1.31553926467895507812e+01) (97, 3.09300498962402343750e+01) (98, 1.75906486511230468750e+01) (99, 3.18144435882568359375e+01) (100, -2.75931987762451171875e+01) (101, 2.22083206176757812500e+01) (102, -6.94954252243041992188e+00) (103, 2.75954818725585937500e+01) (104, 2.36572170257568359375e+01) (105, 2.69683504104614257812e+00) (106, 3.75634765625000000000e+01) (107, 6.37898902893066406250e+01) (108, 6.60097045898437500000e+01) (109, 6.65692520141601562500e+01) (110, 3.75741271972656250000e+01) (111, 2.59545574188232421875e+01) (112, 2.09959907531738281250e+01) (113, 1.68801078796386718750e+01) (114, 5.78112564086914062500e+01) (115, 3.05003089904785156250e+01) (116, 4.77201385498046875000e+01) (117, -3.50477457046508789062e-01) (118, 1.89667358398437500000e+01) (119, 3.99780921936035156250e+01) (120, 3.19366779327392578125e+01) (121, 1.01198394775390625000e+02) (122, 7.75336790084838867188e+00) (123, 9.89177703857421875000e+01) (124, -2.06058197021484375000e+01) (125, 3.54683761596679687500e+01) (126, 1.49626522064208984375e+01) (127, 2.06246662139892578125e+00) (128, 2.07215766906738281250e+01) (129, 3.67157173156738281250e+00) (130, 4.16175498962402343750e+01) (131, 6.19787573814392089844e-01) (132, 8.18226699829101562500e+01) (133, -4.59813737869262695312e+00) (134, 6.32338600158691406250e+01) (135, 6.27217388153076171875e+00) (136, 5.61325454711914062500e+01) (137, -2.62524814605712890625e+01) (138, 7.66094284057617187500e+01) (139, -4.22612342834472656250e+01) (140, 9.99269638061523437500e+01) (141, -6.83695602416992187500e+01) (142, 1.23237411499023437500e+02) (143, -5.91970901489257812500e+01) (144, 1.01852012634277343750e+02) (145, -7.62791872024536132812e+00) (146, 9.88229370117187500000e+01) (147, -1.59355182647705078125e+01) (148, 7.76101913452148437500e+01) (149, -8.88089370727539062500e+01) (150, 1.81857675313949584961e-01) (0, 3.61489372253417968750e+01) (1, -2.67037963867187500000e+01) (2, 1.57537975311279296875e+01) (3, -4.58560218811035156250e+01) (4, -1.59789915084838867188e+01) (5, -9.66286697387695312500e+01) (6, 4.37713813781738281250e+00) (7, -6.42377319335937500000e+01) (8, 1.00690898895263671875e+01) (9, -7.75713272094726562500e+01) (10, -1.41122636795043945312e+01) (11, -4.37886924743652343750e+01) (12, -5.10088615417480468750e+01) (13, -1.34743667602539062500e+02) (14, -3.29218597412109375000e+01) (15, -8.64520568847656250000e+01) (16, -3.05492362976074218750e+01) (17, -3.78497200012207031250e+01) (18, -1.39577398300170898438e+01) (19, -2.98354816436767578125e+01) (20, -7.31417322158813476562e+00) (21, -2.78289489746093750000e+01) (22, 1.74253501892089843750e+01) (23, -3.81745681762695312500e+01) (24, 1.42722206115722656250e+01) (25, -4.11842880249023437500e+01) (26, 1.06922168731689453125e+01) (27, -5.10133218765258789062e+00) (28, 1.41800203323364257812e+01) (29, -4.10593181848526000977e-01) (30, -4.00278002023696899414e-01) (31, 2.65398836135864257812e+00) (32, -8.56487941741943359375e+00) (33, -2.62651290893554687500e+01) (34, 4.98096752166748046875e+00) (35, -7.11410379409790039062e+00) (36, 8.21403217315673828125e+00) (37, 9.74975681304931640625e+00) (38, -8.26444244384765625000e+00) (39, -3.97266197204589843750e+01) (40, 2.11092834472656250000e+01) (41, -7.67587661743164062500e+01) (42, -6.61508512496948242188e+00) (43, -4.64401245117187500000e+01) (44, -2.28501434326171875000e+01) (45, -1.94927062988281250000e+01) (46, -2.33441429138183593750e+01) (47, 3.33864364624023437500e+01) (48, -2.90774173736572265625e+01) (49, 2.29434757232666015625e+01) (50, -1.09298915863037109375e+01) (51, 1.18143157958984375000e+01) (52, -2.33275947570800781250e+01) (53, -7.25176525115966796875e+00) (54, 5.16859912872314453125e+00) (55, 3.02630596160888671875e+01) (56, 3.07022304534912109375e+01) (57, 2.30650234222412109375e+01) (58, 4.77766685485839843750e+01) (59, 3.40883560180664062500e+01) (60, 2.13646659851074218750e+01) (61, -2.19692096710205078125e+01) (62, 3.77779693603515625000e+01) (63, 5.55741310119628906250e+00) (64, 4.43433837890625000000e+01) (65, 3.02547435760498046875e+01) (66, 4.90499114990234375000e+01) (67, 3.63664016723632812500e+01) (68, 5.03279151916503906250e+01) (69, 3.03427181243896484375e+01) (70, 3.29347686767578125000e+01) (71, 4.71866531372070312500e+01) (72, -7.97862005233764648438e+00) (73, 4.00014724731445312500e+01) (74, -9.67090988159179687500e+00) (75, 3.58957748413085937500e+01) (76, -2.06956362724304199219e+00) (77, -2.33508033752441406250e+01) (78, -1.17800207138061523438e+01) (79, -6.03918800354003906250e+01) (80, -2.36849613189697265625e+01) (81, -5.13657875061035156250e+01) (82, -1.13462982177734375000e+01) (83, -2.31973762512207031250e+01) (84, 2.23917388916015625000e+00) (85, 8.95331478118896484375e+00) (86, -2.40845561027526855469e+00) (87, 2.71930007934570312500e+01) (88, 1.92490196228027343750e+01) (89, 5.09733629226684570312e+00) (90, 4.19262542724609375000e+01) (91, -3.16436123847961425781e+00) (92, 3.51090240478515625000e+01) (93, 1.40218524932861328125e+01) (94, 4.32049026489257812500e+01) (95, 5.77383995056152343750e+01) (96, 1.36912212371826171875e+01) (97, 1.59658136367797851562e+01) (98, 6.01026916503906250000e+00) (99, 1.63126411437988281250e+01) (100, 4.15930519104003906250e+01) (101, 2.76105842590332031250e+01) (102, 3.84486083984375000000e+01) (103, 5.06253623962402343750e+01) (104, 5.56020317077636718750e+01) (105, 7.05889940261840820312e+00) (106, 3.45839958190917968750e+01) (107, 2.66698360443115234375e+01) (108, 4.16789093017578125000e+01) (109, 1.55646095275878906250e+01) (110, 2.83405246734619140625e+01) (111, 1.63442134857177734375e+01) (112, 9.09838497638702392578e-01) (113, -1.33877897262573242188e+01) (114, -5.12314605712890625000e+00) (115, 2.70534062385559082031e+00) (116, -2.14190273284912109375e+01) (117, 1.98329334259033203125e+01) (118, 1.78530073165893554688e+00) (119, 1.22119140625000000000e+01) (120, 4.04356040954589843750e+01) (121, 1.35051476955413818359e+00) (122, 2.90492343902587890625e+01) (123, 7.58656215667724609375e+00) (124, 4.41011810302734375000e+00) (125, 1.15544509887695312500e+01) (126, 1.11225395202636718750e+01) (127, -4.98620986938476562500e+01) (128, 4.76898908615112304688e+00) (129, 1.05959806442260742188e+01) (130, 3.96493244171142578125e+00) (131, -3.78342475891113281250e+01) (132, 2.01012363433837890625e+01) (133, -2.35683994293212890625e+01) (134, 1.89952507019042968750e+01) (135, 1.88212108612060546875e+01) (136, 1.38782892227172851562e+01) (137, 3.38079490661621093750e+01) (138, 4.20992469787597656250e+00) (139, 2.42167782783508300781e+00) (140, 1.74846725463867187500e+01) (141, 9.47779464721679687500e+00) (142, 1.44143333435058593750e+01) (143, 1.29322528839111328125e+01) (144, 1.71224842071533203125e+01) (145, 5.37129364013671875000e+01) (146, 3.52440500259399414062e+00) (147, 3.86858024597167968750e+01) (148, 2.26250362396240234375e+00) (149, 9.23273637890815734863e-02) (150, 7.52495899796485900879e-02) (0, -2.07747001647949218750e+01) (1, 8.03664493560791015625e+00) (2, -5.67951774597167968750e+01) (3, -5.04526290893554687500e+01) (4, -7.99872741699218750000e+01) (5, -6.08409843444824218750e+01) (6, -7.41733169555664062500e+01) (7, -4.00630760192871093750e+01) (8, -5.77680778503417968750e+01) (9, -5.45832214355468750000e+01) (10, -5.58006896972656250000e+01) (11, -3.07019615173339843750e+01) (12, -7.06676712036132812500e+01) (13, -8.85195083618164062500e+01) (14, -4.75486946105957031250e+01) (15, -4.33467674255371093750e+01) (16, -4.05621871948242187500e+01) (17, -8.83934783935546875000e+00) (18, -3.43711090087890625000e+01) (19, -4.85052967071533203125e+00) (20, -1.72556476593017578125e+01) (21, -7.03958892822265625000e+00) (22, 6.70984697341918945312e+00) (23, -1.32544412612915039062e+01) (24, 2.09862937927246093750e+01) (25, -1.26922769546508789062e+01) (26, 1.18499746322631835938e+01) (27, 7.72826385498046875000e+00) (28, 1.54444656372070312500e+01) (29, -6.82669305801391601562e+00) (30, -1.26422369480133056641e+00) (31, -1.77037124633789062500e+01) (32, -2.09318523406982421875e+01) (33, -6.39442100524902343750e+01) (34, -8.38291645050048828125e+00) (35, -1.85772113800048828125e+01) (36, -1.75860011577606201172e+00) (37, 1.07958412170410156250e+01) (38, -2.51236381530761718750e+01) (39, -3.54177513122558593750e+01) (40, -4.35580611228942871094e-01) (41, -6.67771453857421875000e+01) (42, -4.73257732391357421875e+00) (43, -6.54519271850585937500e+01) (44, -1.36446437835693359375e+01) (45, -2.24975528717041015625e+01) (46, -2.90679149627685546875e+01) (47, 3.41940155029296875000e+01) (48, -5.39297904968261718750e+01) (49, 2.59714641571044921875e+01) (50, -3.40711097717285156250e+01) (51, 2.82288532257080078125e+01) (52, -4.76024055480957031250e+01) (53, 2.46193790435791015625e+00) (54, -2.27328567504882812500e+01) (55, 1.81618442535400390625e+01) (56, -7.93943643569946289062e+00) (57, -3.24562835693359375000e+00) (58, 1.42362203598022460938e+01) (59, 2.16417312622070312500e+01) (60, 8.54971885681152343750e-01) (61, -1.39151420593261718750e+01) (62, 2.32623977661132812500e+01) (63, 2.63199214935302734375e+01) (64, 1.88466625213623046875e+01) (65, 4.22623023986816406250e+01) (66, 3.11221275329589843750e+01) (67, 4.40838813781738281250e+01) (68, 4.00058746337890625000e+01) (69, 5.81126480102539062500e+01) (70, 1.68647499084472656250e+01) (71, 5.63151397705078125000e+01) (72, -1.52608909606933593750e+01) (73, 4.14415397644042968750e+01) (74, -1.54190654754638671875e+01) (75, 2.76852397918701171875e+01) (76, -3.66523385047912597656e+00) (77, -2.23080902099609375000e+01) (78, 2.08919852972030639648e-01) (79, -4.96466636657714843750e+01) (80, -5.84992599487304687500e+00) (81, -4.49761581420898437500e+01) (82, 1.61994802951812744141e+00) (83, -3.04648952484130859375e+01) (84, 1.32313289642333984375e+01) (85, 3.10187458992004394531e+00) (86, 1.26399860382080078125e+01) (87, 2.11096572875976562500e+01) (88, 2.69282245635986328125e+01) (89, -1.18152637481689453125e+01) (90, 5.07105331420898437500e+01) (91, 7.88071823120117187500e+00) (92, 3.10637798309326171875e+01) (93, 5.50178432464599609375e+00) (94, 4.21564064025878906250e+01) (95, 4.77643852233886718750e+01) (96, 1.75529651641845703125e+01) (97, 2.50580902099609375000e+01) (98, 1.51233243942260742188e+01) (99, 2.00045528411865234375e+01) (100, 2.30324211120605468750e+01) (101, 1.53906660079956054688e+01) (102, 1.54602451324462890625e+01) (103, 1.56101789474487304688e+01) (104, 4.58936538696289062500e+01) (105, 1.41735677719116210938e+01) (106, 2.90601406097412109375e+01) (107, 2.70286312103271484375e+01) (108, 3.99235382080078125000e+01) (109, -4.90958881378173828125e+00) (110, 1.35888280868530273438e+01) (111, -8.07646179199218750000e+00) (112, -1.32901659011840820312e+01) (113, -2.93787441253662109375e+01) (114, -7.89657652378082275391e-01) (115, -2.90482425689697265625e+01) (116, -9.59791469573974609375e+00) (117, -1.38300533294677734375e+01) (118, -2.22636127471923828125e+01) (119, -2.49009780883789062500e+01) (120, 1.16212139129638671875e+01) (121, -1.30706310272216796875e+01) (122, -6.39074981212615966797e-01) (123, -9.33369159698486328125e+00) (124, -3.16776924133300781250e+01) (125, -1.01753845214843750000e+01) (126, -1.43187770843505859375e+01) (127, -3.11489582061767578125e+01) (128, -1.26013574600219726562e+01) (129, 1.94378852844238281250e+01) (130, -9.16991138458251953125e+00) (131, -1.98803024291992187500e+01) (132, 8.55526161193847656250e+00) (133, -7.68669605255126953125e+00) (134, -1.84139788150787353516e+00) (135, 2.20991897583007812500e+01) (136, -7.18441343307495117188e+00) (137, 3.97207603454589843750e+01) (138, -1.04120206832885742188e+01) (139, 3.66768760681152343750e+01) (140, 8.21267700195312500000e+00) (141, 2.64673881530761718750e+01) (142, 1.08063964843750000000e+01) (143, 1.22513275146484375000e+01) (144, 1.54817466735839843750e+01) (145, 5.76000633239746093750e+01) (146, 1.30806636810302734375e+01) (147, 4.06518554687500000000e+01) (148, 2.28864097595214843750e+00) (149, -1.03065433502197265625e+01) (150, 6.02757595479488372803e-02) (0, 1.91228225708007812500e+02) (1, -1.22775848388671875000e+02) (2, 1.89166931152343750000e+02) (3, -1.28056793212890625000e+02) (4, 2.04633392333984375000e+02) (5, -1.19831710815429687500e+02) (6, 2.30107345581054687500e+02) (7, -9.26967773437500000000e+01) (8, 1.97163528442382812500e+02) (9, -5.74402198791503906250e+01) (10, 1.32379241943359375000e+02) (11, -4.42133903503417968750e+01) (12, 7.77903213500976562500e+01) (13, -5.33884201049804687500e+01) (14, 4.50519905090332031250e+01) (15, -3.21938476562500000000e+01) (16, -1.54350881576538085938e+01) (17, 8.97076110839843750000e+01) (18, -2.93600254058837890625e+01) (19, 1.02112594604492187500e+02) (20, -8.20682525634765625000e+01) (21, 7.62804794311523437500e+01) (22, -7.17346343994140625000e+01) (23, 6.79467773437500000000e+01) (24, -7.60801162719726562500e+01) (25, 9.57626628875732421875e+00) (26, -6.29616088867187500000e+01) (27, 3.18221912384033203125e+01) (28, -6.88236236572265625000e+01) (29, 7.17845153808593750000e+00) (30, -9.99358901977539062500e+01) (31, 1.03903522491455078125e+01) (32, -4.80299911499023437500e+01) (33, 9.91035842895507812500e+01) (34, -2.21156463623046875000e+01) (35, -1.30224828720092773438e+01) (36, -4.38284111022949218750e+01) (37, 6.65107107162475585938e+00) (38, -2.74488677978515625000e+01) (39, 3.87785186767578125000e+01) (40, -2.12602863311767578125e+01) (41, 7.26305541992187500000e+01) (42, -2.73969497680664062500e+01) (43, 5.60574607849121093750e+01) (44, -4.44195289611816406250e+01) (45, 1.94469428062438964844e+00) (46, -5.39870147705078125000e+01) (47, 3.31551780700683593750e+01) (48, -1.86314010620117187500e+01) (49, 3.86874351501464843750e+01) (50, -3.04626903533935546875e+01) (51, 4.69544029235839843750e+00) (52, 2.73805484771728515625e+01) (53, 4.77012634277343750000e+01) (54, 2.57297058105468750000e+01) (55, 7.19796905517578125000e+01) (56, 1.76093215942382812500e+01) (57, 7.51994781494140625000e+01) (58, 2.80898513793945312500e+01) (59, 6.34136199951171875000e-01) (60, 7.79955577850341796875e+00) (61, 2.88622989654541015625e+01) (62, 4.72526741027832031250e+00) (63, 6.34945564270019531250e+01) (64, 1.48951721191406250000e+01) (65, 3.40473289489746093750e+01) (66, -1.67368469238281250000e+01) (67, 1.17139377593994140625e+01) (68, -4.21864051818847656250e+01) (69, -1.90722370147705078125e+01) (70, -3.09443607330322265625e+01) (71, 1.50904264450073242188e+01) (72, -1.75411376953125000000e+01) (73, 4.68652992248535156250e+01) (74, -3.58657951354980468750e+01) (75, 4.19629058837890625000e+01) (76, -4.40537414550781250000e+01) (77, 6.00967407226562500000e+01) (78, -3.25150566101074218750e+01) (79, 6.75265426635742187500e+01) (80, -5.07282562255859375000e+01) (81, 1.16227447509765625000e+02) (82, 7.37199783325195312500e-01) (83, 1.38845138549804687500e+02) (84, -1.36795654296875000000e+01) (85, 7.33215637207031250000e+01) (86, -3.17080249786376953125e+01) (87, 5.23767852783203125000e+01) (88, -8.26407928466796875000e+01) (89, 6.35387954711914062500e+01) (90, -5.35180091857910156250e+01) (91, 9.09017944335937500000e+00) (92, -1.14683113098144531250e+01) (93, 2.27578964233398437500e+01) (94, -3.10231113433837890625e+01) (95, -1.74710121154785156250e+01) (96, -7.33250274658203125000e+01) (97, -5.43069877624511718750e+01) (98, -6.16744308471679687500e+01) (99, -2.79882183074951171875e+01) (100, -2.60001850128173828125e+01) (101, -5.98298110961914062500e+01) (102, -2.42507457733154296875e+01) (103, 8.28102016448974609375e+00) (104, -3.42136154174804687500e+01) (105, -5.89790534973144531250e+01) (106, -7.90922224521636962891e-01) (107, -3.94000587463378906250e+01) (108, -1.45592374801635742188e+01) (109, 9.11132049560546875000e+00) (110, -2.06715908050537109375e+01) (111, -1.77221508026123046875e+01) (112, -4.92033119201660156250e+01) (113, -3.27150688171386718750e+01) (114, -2.91006565093994140625e+01) (115, 2.50840702056884765625e+01) (116, -3.27664985656738281250e+01) (117, -6.07024192810058593750e+00) (118, -1.96909332275390625000e+00) (119, 9.29010772705078125000e+00) (120, -2.46318130493164062500e+01) (121, -1.71643257141113281250e-01) (122, -1.86001567840576171875e+01) (123, 3.52544212341308593750e+01) (124, -1.41180074214935302734e+00) (125, 3.70839500427246093750e+01) (126, -2.45388393402099609375e+01) (127, -2.81105194091796875000e+01) (128, -3.55567207336425781250e+01) (129, -4.93140335083007812500e+01) (130, -4.05970153808593750000e+01) (131, -4.18980178833007812500e+01) (132, -4.70450401306152343750e+01) (133, -4.88791084289550781250e+01) (134, -5.42755508422851562500e+01) (135, -4.85587844848632812500e+01) (136, -2.56245651245117187500e+01) (137, 4.28963279724121093750e+00) (138, -4.36304626464843750000e+01) (139, -8.50580062866210937500e+01) (140, -6.01642608642578125000e+01) (141, -5.32567520141601562500e+01) (142, -6.00745124816894531250e+01) (143, -2.62495193481445312500e+01) (144, -8.35607681274414062500e+01) (145, -2.51575756072998046875e+01) (146, -8.82276000976562500000e+01) (147, -6.65393972396850585938e+00) (148, -8.84801788330078125000e+01) (149, 7.47770462036132812500e+01) (150, -2.40700036287307739258e-01) (0, -6.90675354003906250000e+01) (1, 8.90332412719726562500e+01) (2, -7.39982604980468750000e+01) (3, 1.39875488281250000000e+02) (4, -2.46644191741943359375e+01) (5, 1.67448760986328125000e+02) (6, -7.94520721435546875000e+01) (7, 8.65615997314453125000e+01) (8, -6.23430023193359375000e+01) (9, 9.39478759765625000000e+01) (10, -4.00009384155273437500e+01) (11, 4.90967750549316406250e+01) (12, 4.37817382812500000000e+00) (13, 1.24202392578125000000e+02) (14, 6.35354518890380859375e+00) (15, 8.57089462280273437500e+01) (16, 1.79339351654052734375e+01) (17, 6.91924047470092773438e+00) (18, -1.69513721466064453125e+01) (19, -1.49605436325073242188e+01) (20, -1.88788661956787109375e+01) (21, -1.46927862167358398438e+01) (22, -2.36461277008056640625e+01) (23, -1.07446985244750976562e+01) (24, -1.41993694305419921875e+01) (25, 8.10958003997802734375e+00) (26, 8.11308860778808593750e+00) (27, -2.86875133514404296875e+01) (28, 2.49666633605957031250e+01) (29, -1.43221063613891601562e+01) (30, 6.06389694213867187500e+01) (31, -2.08057441711425781250e+01) (32, 1.12099533081054687500e+01) (33, 1.34774513244628906250e+01) (34, -1.09692554473876953125e+01) (35, -2.18984146118164062500e+01) (36, 1.82029521465301513672e+00) (37, -3.11189460754394531250e+01) (38, 3.01472511291503906250e+01) (39, 1.22855162620544433594e+00) (40, -1.49775505065917968750e+00) (41, 6.28954315185546875000e+01) (42, 2.51038703918457031250e+01) (43, 4.44163742065429687500e+01) (44, 5.25972709655761718750e+01) (45, 6.10190238952636718750e+01) (46, 4.66186714172363281250e+01) (47, -3.18646311759948730469e+00) (48, 3.78287162780761718750e+01) (49, -1.63031635284423828125e+01) (50, 2.33452262878417968750e+01) (51, -1.20788421630859375000e+01) (52, 4.91650886535644531250e+01) (53, -3.12765197753906250000e+01) (54, 1.36427421569824218750e+01) (55, -8.83583831787109375000e+01) (56, -4.25221586227416992188e+00) (57, -4.97778396606445312500e+01) (58, -3.69287452697753906250e+01) (59, -3.95851325988769531250e+01) (60, -3.45582866668701171875e+00) (61, 4.22074413299560546875e+00) (62, -2.48599433898925781250e+01) (63, -3.78016815185546875000e+01) (64, -5.57827720642089843750e+01) (65, -5.38641014099121093750e+01) (66, -4.76720275878906250000e+01) (67, -3.43739891052246093750e+01) (68, -4.71648674011230468750e+01) (69, -2.40947017669677734375e+01) (70, -5.78001823425292968750e+01) (71, -7.57005310058593750000e+01) (72, -7.14859294891357421875e+00) (73, -7.31533355712890625000e+01) (74, -5.02968025207519531250e+00) (75, -5.43466758728027343750e+01) (76, -6.92922449111938476562e+00) (77, 2.03752346038818359375e+01) (78, -3.75065475702285766602e-01) (79, 4.21401367187500000000e+01) (80, 3.20580177307128906250e+01) (81, 1.10313863754272460938e+01) (82, -2.17747306823730468750e+00) (83, -2.15591754913330078125e+01) (84, 1.34818032383918762207e-01) (85, -4.43770027160644531250e+01) (86, 3.42552108764648437500e+01) (87, -5.45680503845214843750e+01) (88, 2.91088504791259765625e+01) (89, -2.90414619445800781250e+01) (90, -8.13426780700683593750e+00) (91, -8.44209098815917968750e+00) (92, -3.39085540771484375000e+01) (93, -4.45623550415039062500e+01) (94, -1.25262765884399414062e+01) (95, -4.10013999938964843750e+01) (96, 3.52383193969726562500e+01) (97, 3.56509232521057128906e+00) (98, 3.06086368560791015625e+01) (99, -2.82689666748046875000e+01) (100, -1.45547266006469726562e+01) (101, -2.86770973205566406250e+01) (102, -1.56068458557128906250e+01) (103, -8.78289260864257812500e+01) (104, -2.71889095306396484375e+01) (105, -2.12916774749755859375e+01) (106, -7.54937171936035156250e+00) (107, -2.27980022430419921875e+01) (108, -1.94088859558105468750e+01) (109, -2.84838829040527343750e+01) (110, 8.06800556182861328125e+00) (111, -5.91214179992675781250e+01) (112, 4.02935218811035156250e+01) (113, -3.03144817352294921875e+01) (114, 2.69064159393310546875e+01) (115, -5.23770790100097656250e+01) (116, 4.30296325683593750000e+01) (117, -5.17688331604003906250e+01) (118, -7.81753778457641601562e+00) (119, -2.71489315032958984375e+01) (120, -2.71029529571533203125e+01) (121, -2.70826587677001953125e+01) (122, -2.15515079498291015625e+01) (123, -4.92784233093261718750e+01) (124, -1.11366443634033203125e+01) (125, -6.76278762817382812500e+01) (126, -8.14922809600830078125e+00) (127, -7.87389039993286132812e+00) (128, -8.61505603790283203125e+00) (129, -5.19734497070312500000e+01) (130, -1.37074480056762695312e+01) (131, 6.63854789733886718750e+00) (132, -2.33144645690917968750e+01) (133, -1.04558563232421875000e+00) (134, -1.74018993377685546875e+01) (135, -3.04857177734375000000e+01) (136, -3.21494789123535156250e+01) (137, -7.33291473388671875000e+01) (138, 3.21976757049560546875e+00) (139, 1.15937795639038085938e+01) (140, -1.77699584960937500000e+01) (141, 1.49450101852416992188e+01) (142, -1.35614216327667236328e+00) (143, 2.35973987579345703125e+01) (144, -1.76963520050048828125e+01) (145, -1.79790611267089843750e+01) (146, -8.88339614868164062500e+00) (147, -7.07544469833374023438e+00) (148, 5.54201185703277587891e-01) (149, 1.91076278686523437500e+01) (150, 9.16966050863265991211e-02) (0, 7.02187042236328125000e+01) (1, 8.73420333862304687500e+01) (2, 7.19775238037109375000e+01) (3, 9.77546234130859375000e+01) (4, 7.58529205322265625000e+01) (5, 4.57178688049316406250e+01) (6, 4.05740814208984375000e+01) (7, -1.44257593154907226562e+01) (8, 4.71392173767089843750e+01) (9, -4.94207992553710937500e+01) (10, -2.22774338722229003906e+00) (11, -1.07107629776000976562e+01) (12, -6.06772880554199218750e+01) (13, -6.70086288452148437500e+01) (14, -6.39586715698242187500e+01) (15, -8.24936828613281250000e+01) (16, -6.32804260253906250000e+01) (17, 2.63839683532714843750e+01) (18, -9.18122177124023437500e+01) (19, 2.93941516876220703125e+01) (20, -1.26525268554687500000e+02) (21, -2.74220275878906250000e+00) (22, -5.23972740173339843750e+01) (23, -3.35080337524414062500e+01) (24, -1.83425712585449218750e+01) (25, -3.98134040832519531250e+01) (26, 7.18268299102783203125e+00) (27, 1.98862218856811523438e+00) (28, -9.15567874908447265625e+00) (29, -2.42276496887207031250e+01) (30, -5.51837158203125000000e+01) (31, -1.00029212951660156250e+02) (32, -5.72475852966308593750e+01) (33, -1.95494210720062255859e+00) (34, -9.31933307647705078125e+00) (35, -8.23851852416992187500e+01) (36, 8.63822937011718750000e+00) (37, -4.79564571380615234375e+00) (38, -1.09049701690673828125e+01) (39, -6.26209945678710937500e+01) (40, 1.28083162307739257812e+01) (41, -4.61611824035644531250e+01) (42, 1.00301361083984375000e+00) (43, -5.07585830688476562500e+01) (44, -3.13742809295654296875e+01) (45, -1.19825859069824218750e+01) (46, -6.33711509704589843750e+01) (47, 5.94377326965332031250e+01) (48, -7.26922302246093750000e+01) (49, 4.87522277832031250000e+01) (50, -4.18143081665039062500e+01) (51, 1.51843559741973876953e+00) (52, -8.33970260620117187500e+01) (53, -1.42919321060180664062e+01) (54, -8.55916442871093750000e+01) (55, -1.05003614425659179688e+01) (56, -4.05565757751464843750e+01) (57, 5.05893993377685546875e+00) (58, -7.27252731323242187500e+01) (59, -3.36819572448730468750e+01) (60, -5.71071205139160156250e+01) (61, -3.02771320343017578125e+01) (62, -3.05240077972412109375e+01) (63, 5.45445404052734375000e+01) (64, -2.86997852325439453125e+01) (65, 1.95046043395996093750e+01) (66, -8.34990978240966796875e+00) (67, 4.40904846191406250000e+01) (68, -1.98712482452392578125e+01) (69, 5.85498275756835937500e+01) (70, -2.65022659301757812500e+01) (71, 3.03001155853271484375e+01) (72, -8.85332183837890625000e+01) (73, -3.97806334495544433594e+00) (74, -9.11623382568359375000e+01) (75, 1.77538261413574218750e+01) (76, -8.32249908447265625000e+01) (77, 8.28595581054687500000e+01) (78, -5.64820213317871093750e+01) (79, 5.16117630004882812500e+01) (80, -4.18735656738281250000e+01) (81, 6.65643234252929687500e+01) (82, 2.03871898651123046875e+01) (83, 1.02565223693847656250e+02) (84, 2.59452056884765625000e+01) (85, 8.23466796875000000000e+01) (86, 3.98078689575195312500e+01) (87, 7.53189086914062500000e+01) (88, 2.05323486328125000000e+01) (89, 6.11886558532714843750e+01) (90, 6.28929138183593750000e+01) (91, 4.19184608459472656250e+01) (92, 5.58171539306640625000e+01) (93, 5.88036727905273437500e+00) (94, 8.43907928466796875000e+01) (95, 7.05318756103515625000e+01) (96, 4.87474403381347656250e+01) (97, 3.86524200439453125000e+01) (98, 1.97888107299804687500e+01) (99, 3.39824981689453125000e+01) (100, 5.35713243484497070312e+00) (101, 8.35904617309570312500e+01) (102, 9.77436184883117675781e-01) (103, 9.11102294921875000000e+01) (104, 2.95572624206542968750e+01) (105, 3.24525604248046875000e+01) (106, 2.60843772888183593750e+01) (107, 2.86797847747802734375e+01) (108, -4.30177116394042968750e+01) (109, -2.65876293182373046875e+01) (110, -4.54524536132812500000e+01) (111, 3.52741661071777343750e+01) (112, -1.45195693969726562500e+01) (113, 3.54634208679199218750e+01) (114, -6.46972503662109375000e+01) (115, 1.80939531326293945312e+00) (116, -2.36457252502441406250e+01) (117, 1.58929519653320312500e+01) (118, -2.95800609588623046875e+01) (119, -2.10247344970703125000e+01) (120, -4.52775764465332031250e+01) (121, -2.29111042022705078125e+01) (122, -2.73326091766357421875e+01) (123, 3.92074799537658691406e+00) (124, -4.09580230712890625000e+01) (125, -2.52208175659179687500e+01) (126, -1.91464633941650390625e+01) (127, -3.51480751037597656250e+01) (128, -2.91345558166503906250e+01) (129, -1.50304603576660156250e+00) (130, -1.37311668395996093750e+01) (131, 1.08839631080627441406e+00) (132, -1.19947261810302734375e+01) (133, -2.39571037292480468750e+01) (134, -3.73399200439453125000e+01) (135, -1.78720970153808593750e+01) (136, -3.41222877502441406250e+01) (137, 3.72875976562500000000e+01) (138, 2.67260885238647460938e+00) (139, 3.48844223022460937500e+01) (140, -3.60376319885253906250e+01) (141, 3.33986320495605468750e+01) (142, -7.07045440673828125000e+01) (143, 2.64693088531494140625e+01) (144, -8.85878372192382812500e+01) (145, 1.51647558212280273438e+01) (146, -8.82817077636718750000e+01) (147, 3.86400718688964843750e+01) (148, -5.90725898742675781250e+01) (149, 8.05744171142578125000e+01) (150, -1.09312884509563446045e-01) (0, -7.98379440307617187500e+01) (1, 4.83908081054687500000e+01) (2, -2.28169250488281250000e+01) (3, 1.43842285156250000000e+02) (4, 2.42481670379638671875e+01) (5, 1.66630874633789062500e+02) (6, 5.24837303161621093750e+00) (7, 1.21581298828125000000e+02) (8, 1.51377325057983398438e+01) (9, 1.16241928100585937500e+02) (10, 4.92994613647460937500e+01) (11, 5.86778335571289062500e+01) (12, 9.27983779907226562500e+01) (13, 5.75841217041015625000e+01) (14, 8.93947906494140625000e+01) (15, 1.92830638885498046875e+01) (16, 7.79020004272460937500e+01) (17, -2.58428668975830078125e+01) (18, 4.37973327636718750000e+01) (19, -2.54746270179748535156e+00) (20, 3.28748626708984375000e+01) (21, 3.58627014160156250000e+01) (22, 1.18186521530151367188e+01) (23, 5.21408538818359375000e+01) (24, 4.43537712097167968750e+01) (25, 8.23099441528320312500e+01) (26, 6.79836883544921875000e+01) (27, 3.44112548828125000000e+01) (28, 8.10004806518554687500e+01) (29, 2.20629234313964843750e+01) (30, 1.09296699523925781250e+02) (31, 7.68502883911132812500e+01) (32, 6.19276390075683593750e+01) (33, 5.57731475830078125000e+01) (34, 2.57058467864990234375e+01) (35, 4.14979896545410156250e+01) (36, 5.38184690475463867188e+00) (37, -1.73867130279541015625e+01) (38, 1.25766773223876953125e+01) (39, 4.54065322875976562500e+01) (40, -1.29890460968017578125e+01) (41, 1.05419654846191406250e+02) (42, 9.22444686293601989746e-02) (43, 8.89169311523437500000e+01) (44, -2.02681694030761718750e+01) (45, 3.65829277038574218750e+01) (46, -1.58759689331054687500e+01) (47, -2.26564445495605468750e+01) (48, -3.98144836425781250000e+01) (49, -3.78438224792480468750e+01) (50, -5.92197380065917968750e+01) (51, -2.83637714385986328125e+01) (52, 3.62024574279785156250e+01) (53, -1.81435050964355468750e+01) (54, 1.71431312561035156250e+01) (55, -1.22953548431396484375e+01) (56, 1.39996242523193359375e+01) (57, 1.47150802612304687500e+01) (58, 2.16297779083251953125e+01) (59, -8.16152381896972656250e+00) (60, 3.65846824645996093750e+01) (61, 2.73666439056396484375e+01) (62, 2.29888610839843750000e+01) (63, 2.27981357574462890625e+01) (64, -3.16531205177307128906e+00) (65, -1.62850494384765625000e+01) (66, -4.81914901733398437500e+00) (67, -1.60267639160156250000e+01) (68, -3.96589970588684082031e+00) (69, -9.22859287261962890625e+00) (70, -2.82419853210449218750e+01) (71, 1.64135475158691406250e+01) (72, 1.33822023868560791016e+00) (73, 4.09044837951660156250e+01) (74, 1.47557058334350585938e+01) (75, 1.86944751739501953125e+01) (76, -7.16874408721923828125e+00) (77, 1.50671272277832031250e+01) (78, 